{"version":"0.7.0","architecture":"SlimmableContainer","config":{"submodels":[{"max_value":0.5,"model":{"version":"0.7.0","metadata":{"date":{"year":2026,"month":5,"day":8,"hour":10,"minute":38,"second":36},"loudness":-17.93250846862793,"gain":0.019457687443528878},"architecture":"WaveNet","config":{"layers":[{"input_size":1,"condition_size":1,"head":{"out_channels":1,"kernel_size":16,"bias":true},"channels":3,"kernel_sizes":[6,6,6,6,6,6,6,6,6,6,6,6,6,6,15,15,6,6,6,6,6,6,6],"dilations":[1,3,7,17,41,101,239,1,3,7,17,41,101,239,1,13,1,3,7,17,41,101,239],"activation":[{"type":"LeakyReLU","negative_slope":0.01},{"type":"LeakyReLU","negative_slope":0.01},{"type":"LeakyReLU","negative_slope":0.01},{"type":"LeakyReLU","negative_slope":0.01},{"type":"LeakyReLU","negative_slope":0.01},{"type":"LeakyReLU","negative_slope":0.01},{"type":"LeakyReLU","negative_slope":0.01},{"type":"LeakyReLU","negative_slope":0.01},{"type":"LeakyReLU","negative_slope":0.01},{"type":"LeakyReLU","negative_slope":0.01},{"type":"LeakyReLU","negative_slope":0.01},{"type":"LeakyReLU","negative_slope":0.01},{"type":"LeakyReLU","negative_slope":0.01},{"type":"LeakyReLU","negative_slope":0.01},{"type":"LeakyReLU","negative_slope":0.01},{"type":"LeakyReLU","negative_slope":0.01},{"type":"LeakyReLU","negative_slope":0.01},{"type":"LeakyReLU","negative_slope":0.01},{"type":"LeakyReLU","negative_slope":0.01},{"type":"LeakyReLU","negative_slope":0.01},{"type":"LeakyReLU","negative_slope":0.01},{"type":"LeakyReLU","negative_slope":0.01},{"type":"LeakyReLU","negative_slope":0.01}],"bottleneck":3,"head1x1":{"active":false,"out_channels":1,"groups":1},"layer1x1":{"active":true,"groups":1},"groups_input":1,"groups_input_mixin":1,"conv_pre_film":{"active":false,"shift":true,"groups":1},"conv_post_film":{"active":false,"shift":true,"groups":1},"input_mixin_pre_film":{"active":false,"shift":true,"groups":1},"input_mixin_post_film":{"active":false,"shift":true,"groups":1},"activation_pre_film":{"active":false,"shift":true,"groups":1},"activation_post_film":{"active":false,"shift":true,"groups":1},"layer1x1_post_film":{"active":false,"shift":true,"groups":1},"head1x1_post_film":{"active":false,"shift":true,"groups":1},"gating_mode":["none","none","none","none","none","none","none","none","none","none","none","none","none","none","none","none","none","none","none","none","none","none","none"],"secondary_activation":[null,null,null,null,null,null,null,null,null,null,null,null,null,null,null,null,null,null,null,null,null,null,null],"slimmable":null}],"head":null,"head_scale":0.009499816519040735},"weights":[2.249444007873535,2.799640655517578,-1.137054443359375,-0.286531001329422,-0.5688326358795166,-0.40679362416267395,-0.1417437195777893,1.1155506372451782,1.3859713077545166,-0.28485482931137085,-0.6430217623710632,-0.4045912027359009,0.04518928378820419,0.8504588603973389,1.2554666996002197,0.11231520026922226,0.2630036473274231,0.29096120595932007,-0.014430451206862926,-0.5697901844978333,-0.760811448097229,0.17532727122306824,0.3854772746562958,0.35186582803726196,0.03519577533006668,-0.9468289017677307,-0.9759824275970459,0.1449817419052124,0.22510969638824463,0.2644011378288269,-0.17005643248558044,-0.809626042842865,-0.9472224116325378,-0.09890022873878479,-0.20859473943710327,-0.17563343048095703,-0.012625602073967457,0.46772879362106323,0.48177704215049744,0.3058345913887024,0.6141515374183655,0.6117534637451172,0.1342889666557312,-1.0179774761199951,-1.0404754877090454,0.32773852348327637,0.8420876264572144,0.6043567657470703,0.09442600607872009,-0.9781345129013062,-1.2180218696594238,-0.058639172464609146,-0.2897637188434601,-0.2856238782405853,-0.000554214115254581,0.5816466808319092,0.619763970375061,0.1840212494134903,0.08264204859733582,0.7697102427482605,0.8453729748725891,-0.5652711987495422,-1.5660866498947144,1.0475411415100098,-0.5942155122756958,-0.9284268617630005,0.29867446422576904,0.19970013201236725,1.0353988409042358,1.8165799379348755,-1.2832874059677124,-0.865907609462738,0.4264053702354431,0.3061296045780182,-0.32857468724250793,0.021472470834851265,-0.038346149027347565,-0.024508580565452576,-0.13923346996307373,-0.10415549576282501,0.16874513030052185,-0.08086950331926346,-0.05462107062339783,-0.0979757159948349,-0.19916939735412598,-0.10239832103252411,0.017103880643844604,0.014997019432485104,-0.0013302331790328026,0.01628943718969822,-0.12150716781616211,0.05754724144935608,0.27125123143196106,0.023588141426444054,0.1921379268169403,0.0965346246957779,0.07120487093925476,0.15429145097732544,0.6975374817848206,-0.0038915169425308704,0.10011832416057587,0.08259540051221848,0.06903070211410522,0.006369578652083874,0.8969342708587646,-0.08374280482530594,-0.1584361344575882,-0.09147848188877106,-0.10766353458166122,-0.21714261174201965,0.30099618434906006,0.020220808684825897,-0.056143470108509064,-0.004285555798560381,-0.020069295540452003,-0.48827314376831055,0.3863532841205597,0.03834879398345947,-0.040952589362859726,-0.1317170262336731,-0.2636681795120239,-0.3601824641227722,0.05877281352877617,0.0022563112433999777,0.05423060432076454,-0.031642891466617584,0.05062977969646454,0.12553003430366516,0.586931586265564,-0.14414267241954803,0.4707265794277191,-0.2860320806503296,0.01802263967692852,0.8646782040596008,0.06882104277610779,0.26140451431274414,0.4096752107143402,0.25333666801452637,-0.1705062836408615,-0.5051780343055725,-0.6401603817939758,0.2769875228404999,0.1609824299812317,0.6210892200469971,0.00817577913403511,-0.39575615525245667,0.22139306366443634,0.1908855438232422,0.0898665115237236,0.019307492300868034,0.009124687872827053,0.18454834818840027,0.43396392464637756,-0.03691643476486206,-0.07272623479366302,0.016699643805623055,-0.06420212984085083,0.07929516583681107,-0.025477947667241096,-0.19287142157554626,-0.10611670464277267,-0.00980333611369133,-0.015021059662103653,-0.0698581412434578,0.29968321323394775,-0.02061844989657402,0.15245571732521057,0.13386540114879608,0.07092806696891785,0.11562777310609818,-0.0252216923981905,0.1550985872745514,0.19053193926811218,0.1046396866440773,-0.0006795640802010894,0.019330013543367386,0.13524088263511658,0.13122953474521637,0.03552860766649246,0.06090506538748741,0.10101907700300217,0.1698116660118103,0.008127482607960701,-0.12349622696638107,0.08204932510852814,0.017729545012116432,0.14646615087985992,0.08268775790929794,-0.28731274604797363,-0.20907559990882874,0.004201183561235666,-0.02397596277296543,-0.007301858626306057,0.016527848318219185,0.08550582081079483,-0.011604349128901958,-0.12605859339237213,-0.012533064000308514,-0.05860675871372223,0.012515300884842873,-0.2637605369091034,-0.037517908960580826,-0.10448290407657623,0.07119602710008621,0.5751535296440125,0.05890246480703354,-0.06295545399188995,0.5118453502655029,0.3516370952129364,-0.2690929174423218,0.28573381900787354,0.26940712332725525,0.3903045356273651,0.08374833315610886,-0.10663430392742157,0.19072186946868896,0.42019498348236084,-0.4788975715637207,0.10750608891248703,0.04788798838853836,0.09262458980083466,0.07197097688913345,0.045052215456962585,0.10338075459003448,0.24763506650924683,-0.09380971640348434,-0.06909482181072235,0.0011336562456563115,-0.02096877060830593,0.10418756306171417,-0.3882336914539337,-0.10208156704902649,-0.14621825516223907,-0.0531267449259758,-0.027134928852319717,-0.12044046819210052,1.1720613241195679,0.11553587019443512,0.241324320435524,0.0296847652643919,0.15980872511863708,0.022699853405356407,-0.09164630621671677,0.012626386247575283,0.16563062369823456,0.1288897842168808,-0.03366251289844513,0.08858311921358109,-0.11414594203233719,-0.0310572050511837,-0.10043349117040634,0.20039501786231995,-0.06527399271726608,0.03103187493979931,0.09945247322320938,-0.18560171127319336,-0.2544648349285126,-0.18437911570072174,-0.17460304498672485,-0.02592417411506176,0.05089549347758293,-0.04611508920788765,-0.03230005502700806,-0.023366622626781464,-0.0005330109852366149,-0.06697124987840652,0.002551285084336996,0.0485481359064579,0.00408144248649478,0.051679082214832306,0.046032506972551346,0.01813710853457451,-0.11947005987167358,0.19444993138313293,0.06683070957660675,0.146358460187912,0.07887393236160278,-0.08225690573453903,-0.02463967353105545,0.49758100509643555,0.36748164892196655,-0.3962562382221222,-0.2821734845638275,0.15481995046138763,-0.16537193953990936,-0.1383865922689438,-0.2067982405424118,0.3042547106742859,-0.2616013288497925,-0.15960130095481873,0.3162100315093994,-0.011178188025951385,0.006097170989960432,-0.026540178805589676,-0.05257713049650192,-0.03355182334780693,0.09676992148160934,0.03649824485182762,0.02467832714319229,0.0328654944896698,0.007913893088698387,0.011077824048697948,0.40949374437332153,0.058850981295108795,0.018678246065974236,0.09172943979501724,0.0939280241727829,0.10270261764526367,0.006602530833333731,-0.0060440124943852425,0.037636324763298035,0.04537012428045273,0.03771824389696121,0.05724703520536423,0.09966535121202469,0.08361437171697617,-0.0108230235055089,0.06199319660663605,0.036425117403268814,0.015783242881298065,-0.0381181463599205,0.07929378002882004,-0.1220083087682724,-0.04332783818244934,-0.07684047520160675,-0.07566017657518387,-0.3769398331642151,-0.0016017117304727435,-0.0010276096872985363,-0.008962885476648808,0.02361438423395157,0.01086751464754343,-0.794048011302948,0.03478255495429039,-0.0024159119930118322,-0.015557562932372093,0.02764710783958435,-0.012815186753869057,0.2517489492893219,0.03715795651078224,-0.002947979373857379,-0.01047769095748663,-0.024517804384231567,-0.036759600043296814,-0.7294499278068542,-0.12346503138542175,-0.14767567813396454,-0.19201183319091797,0.05234742909669876,-0.21918714046478271,-0.4191962778568268,-0.3382566273212433,-0.26423871517181396,-0.7935917377471924,0.34249788522720337,0.1545533984899521,0.06182292476296425,-0.11439020931720734,-0.13936227560043335,-0.07323621958494186,-0.2602206766605377,0.451529324054718,0.13383065164089203,0.13090579211711884,0.0264187790453434,0.09519112855195999,0.10825475305318832,-0.021997638046741486,0.08177535980939865,0.11097892373800278,0.02939932607114315,0.06480913609266281,0.0875387117266655,-0.01311909407377243,0.06111413612961769,-0.33417031168937683,-0.12309753894805908,-0.12921005487442017,-0.16300085186958313,-0.07943996787071228,-0.054662153124809265,0.036349330097436905,-0.017550187185406685,-0.0013794329715892673,0.1271970123052597,0.016120919957756996,-0.06893515586853027,0.010822435840964317,0.014998805709183216,0.04287965968251228,0.21284763514995575,0.03920590132474899,-0.06178401783108711,-0.07833307981491089,0.019830571487545967,0.03721088916063309,-0.09311167150735855,-0.05880427733063698,-0.11628555506467819,-0.006352544762194157,-0.0015752265462651849,-0.0001809499808587134,-0.014186826534569263,-0.03712984547019005,-0.7184649705886841,0.006254229694604874,0.017717773094773293,0.046026311814785004,-0.012901948764920235,-0.03891490772366524,0.360721230506897,0.024178100749850273,0.02167068049311638,0.042769551277160645,0.026218337938189507,0.06026684120297432,-0.9745744466781616,-0.039650145918130875,-0.1116773933172226,-0.4768355190753937,0.028417373076081276,-0.029542341828346252,-0.20808881521224976,-0.17366690933704376,-0.24001376330852509,-0.7972863912582397,-0.07579131424427032,-0.133747860789299,0.34883078932762146,0.09115611761808395,0.12963075935840607,0.034960344433784485,-0.5077306628227234,-0.32098665833473206,0.020014964044094086,-0.0043965838849544525,-0.006503560580313206,0.0148757454007864,-0.0078064496628940105,-0.00011109732440672815,-0.04201890900731087,0.008036176674067974,0.008511580526828766,0.05945413187146187,-0.010929051786661148,0.020315535366535187,-0.03577529639005661,0.02362569235265255,0.028683282434940338,0.02279592491686344,0.00443279929459095,0.023513875901699066,0.34540507197380066,0.010960787534713745,-0.02333838865160942,0.04013931751251221,-0.020132699981331825,-0.04962710291147232,0.04452662914991379,0.01970766857266426,-0.040097177028656006,0.04174909368157387,-0.020604636520147324,-0.0901728942990303,0.16903181374073029,-0.00937549490481615,0.0202138964086771,-0.085532546043396,0.02599959261715412,0.04269866645336151,0.3481484055519104,-0.0020595556125044823,7.25675854482688e-05,-0.006858277600258589,0.004595679230988026,-0.0008031065808609128,0.032159291207790375,0.0053598154336214066,0.01114109717309475,0.0025560958310961723,0.021057065576314926,0.013842522166669369,-0.2445296198129654,0.012127986177802086,0.010871878825128078,0.02961229532957077,0.007500847335904837,0.015296651981770992,-0.4364851117134094,0.3184492588043213,-0.0011264242930337787,0.6959288120269775,0.3524097800254822,0.10872983187437057,-1.1316269636154175,0.33921340107917786,0.3414783179759979,-0.8481341004371643,-0.2880760133266449,-0.19106270372867584,0.17822237312793732,0.03994062542915344,0.010523563250899315,-0.11700369417667389,-0.329753577709198,0.22161491215229034,0.2420397400856018,-0.10499481111764908,0.11130853742361069,-0.07857789844274521,0.030601050704717636,0.025528382509946823,-0.0037317429669201374,0.03627185523509979,0.1898743361234665,0.08974362909793854,-0.07957524806261063,0.15726804733276367,-0.1330244243144989,0.20790110528469086,0.09416535496711731,0.09598860889673233,0.06872319430112839,0.06932976096868515,-0.36497044563293457,0.09273476153612137,0.017846958711743355,0.13397207856178284,-0.18021930754184723,0.14398671686649323,0.09792658686637878,0.130081444978714,0.11830149590969086,0.12820205092430115,0.12814535200595856,0.015450785867869854,0.08300220966339111,0.2363615334033966,0.15341226756572723,0.20975294709205627,0.10052085667848587,0.26618650555610657,0.599483847618103,-0.07853232324123383,0.020659221336245537,0.04870260879397392,-0.019006310030817986,0.02676180936396122,-0.027847381308674812,-0.04175344109535217,0.03300316259264946,-0.17061002552509308,0.13830259442329407,-0.0009253419120796025,0.1299971640110016,-0.20751884579658508,-0.021074945107102394,-0.009707460179924965,-0.04504748433828354,0.012814238667488098,0.36243268847465515,0.22028401494026184,-0.23314043879508972,0.1284976601600647,-0.37614086270332336,0.5360129475593567,0.23639999330043793,-0.5286104083061218,0.6263929605484009,0.2847977578639984,0.532512903213501,-0.9813899397850037,-0.6676601767539978,0.18272438645362854,-0.17583537101745605,0.19493091106414795,-0.12718932330608368,0.14619362354278564,-0.408937931060791,0.016718808561563492,0.028540201485157013,0.09881909936666489,0.09297285228967667,0.13824820518493652,0.3398742973804474,0.0664459615945816,0.021087510511279106,0.013116161338984966,0.1340358704328537,0.08345764130353928,-0.2431785613298416,0.06402690708637238,0.015080106444656849,0.017804427072405815,0.04527541249990463,0.11832680553197861,0.3268076479434967,0.052480604499578476,0.19400069117546082,0.0363396592438221,0.16876909136772156,-0.15034379065036774,0.27604103088378906,-0.029974931851029396,0.06309829652309418,-0.05540807917714119,0.22306203842163086,0.41754311323165894,-0.22631648182868958,0.010475119575858116,0.024949902668595314,-0.017973437905311584,0.00813747476786375,0.05556764081120491,0.2752820551395416,-0.08590596914291382,-0.16542823612689972,-0.12242231518030167,-0.1260467916727066,0.13869284093379974,-0.3213457465171814,-0.052623093128204346,-0.011427742429077625,0.011425438337028027,-0.227622389793396,-0.5104613900184631,0.2712119519710541,-0.12622444331645966,-0.06921237707138062,0.1394764482975006,-0.113585464656353,-0.04296701401472092,-0.3245104253292084,-0.6405599117279053,-0.1127239242196083,0.092129185795784,0.047041863203048706,0.051344480365514755,-0.16304470598697662,0.2757245898246765,0.5604015588760376,-0.25657030940055847,-0.036639291793107986,-0.40717288851737976,0.20862971246242523,-0.10903226584196091,-0.16854247450828552,0.4089004695415497,-0.21102839708328247,0.13197791576385498,0.23362155258655548,0.20149409770965576,0.06331013888120651,0.1709136664867401,0.09196648746728897,0.03454327583312988,0.08128681033849716,0.20402278006076813,0.036236368119716644,0.09806163609027863,0.04863207787275314,-0.010974934324622154,0.1371079534292221,-0.03727753832936287,0.0051519181579351425,0.04306136071681976,0.05302358791232109,-0.012242170050740242,0.22467374801635742,-0.14912454783916473,-0.1227724477648735,-0.19477492570877075,-0.00443820608779788,-0.22985590994358063,0.12629470229148865,-0.08499754220247269,-0.09664566814899445,0.041263919323682785,0.0169887226074934,-0.015106908045709133,0.12233693152666092,0.1183738186955452,0.02337178960442543,0.15422414243221283,-0.1399994045495987,-0.05262135714292526,-0.1827555149793625,0.03526837378740311,-0.02979865111410618,0.04492959380149841,-0.03057742491364479,0.06838588416576385,-0.12462909519672394,-0.011091291904449463,-0.04075302928686142,-0.05904591083526611,0.006768421269953251,-0.2208258956670761,0.034833721816539764,0.015443192794919014,0.0779881477355957,0.0960886999964714,0.1222505196928978,0.04055773466825485,-0.0018988624215126038,0.04297855496406555,-0.03261227160692215,0.24931390583515167,-0.007300835568457842,-0.01584097184240818,-0.06598156690597534,-0.09119728207588196,-0.10758430510759354,0.2817055881023407,0.31935223937034607,-0.31744399666786194,0.30077269673347473,-0.352468341588974,0.25468528270721436,0.08146203309297562,0.09068664908409119,-0.3487267792224884,0.09715383499860764,-0.019667131826281548,-0.012156820856034756,-0.036712028086185455,-0.04220341891050339,0.028015755116939545,0.20119024813175201,-0.03861940652132034,-0.05548608675599098,-0.06138754263520241,-0.07029364258050919,0.021614927798509598,-0.23618873953819275,0.07285282760858536,0.13144247233867645,0.0786491185426712,0.10513437539339066,-0.05554325878620148,0.15467557311058044,-0.025042058899998665,-0.00820388738065958,-0.0030793093610554934,0.04687817767262459,0.03715894743800163,-0.19575124979019165,-0.026051394641399384,-0.007414181716740131,0.011331104673445225,0.04327360540628433,0.07839173078536987,-0.1630726307630539,-0.011777103878557682,-0.044813141226768494,-0.027365563437342644,-0.05088692158460617,-0.00461724353954196,-0.06366153806447983,0.008848481811583042,-0.001877034897916019,0.010464225895702839,-0.09632702171802521,-0.03793581575155258,0.05225343629717827,0.03446286916732788,-0.03782426938414574,0.012694822624325752,-0.03687267005443573,-0.011215963400900364,0.1519947499036789,-0.020374178886413574,0.05479241535067558,0.1467154622077942,0.08131483197212219,0.0871298536658287,-0.07288714498281479,-0.021282099187374115,0.11142762005329132,0.10348768532276154,0.11182492226362228,0.03432560712099075,-0.010469288565218449,0.08878674358129501,0.3158276379108429,0.11406233161687851,-0.236937016248703,-0.2423335611820221,-0.2530064284801483,-0.017268454656004906,0.20109695196151733,0.43594667315483093,-0.16776305437088013,-0.09700782597064972,-0.10760901868343353,-0.03189058601856232,-0.027296576648950577,-0.0029148703906685114,-0.008723102509975433,0.010241215117275715,0.2846236526966095,-0.0486379936337471,-0.06076797470450401,-0.041866082698106766,-0.02737611159682274,-0.017826171591877937,-0.13273583352565765,0.16619856655597687,-0.030352791771292686,0.019573558121919632,-0.009876933880150318,-0.06425300240516663,0.24591557681560516,-0.014794689603149891,0.014482982456684113,0.001809365232475102,0.10132510215044022,0.06507192552089691,-0.322738915681839,-0.02235814370214939,0.022211190313100815,-0.01312771625816822,0.11500398069620132,0.08899179846048355,0.1922701895236969,-0.03573205694556236,0.012346853502094746,-0.003945131320506334,-0.10122069716453552,-0.06972000747919083,-0.10359182208776474,-0.009275821037590504,-0.018828678876161575,-0.02490120567381382,0.03572371229529381,-0.02644352801144123,-0.3644696772098541,-0.01753089763224125,-0.02684839442372322,-0.03223780170083046,0.03748609870672226,-0.02297302521765232,0.17129305005073547,-0.04708279296755791,-0.014054865576326847,-0.02284115180373192,0.029045574367046356,0.009714629501104355,-0.05920428782701492,0.041898924857378006,-0.16521598398685455,-0.07012356072664261,0.032024696469306946,-0.013583237305283546,-0.019305041059851646,0.047094233334064484,-0.07815714180469513,0.1271967887878418,0.19863641262054443,0.2683480679988861,0.05142617225646973,-0.21589502692222595,-0.044360384345054626,0.2269725799560547,-0.21644146740436554,0.2499150037765503,-0.272905558347702,0.06420445442199707,-0.04166870936751366,-0.0017455045599490404,0.10256340354681015,-0.025773797184228897,-0.04280702397227287,0.11650921404361725,0.008813130669295788,0.04276992753148079,0.18589751422405243,0.06641192734241486,-0.016856295987963676,-0.15744584798812866,0.06924861669540405,-0.016648557037115097,-0.22853735089302063,-0.049682095646858215,0.015603411011397839,-0.06546173989772797,0.05484694615006447,0.020012717694044113,-0.09776641428470612,0.01720193587243557,0.03903660550713539,-0.11915485560894012,0.01004799548536539,-0.012348064221441746,-0.18217334151268005,-0.08269577473402023,0.0018370853504166007,0.15602894127368927,-0.03757132217288017,0.06686141341924667,0.2548409700393677,0.04700630158185959,-0.004698792472481728,-0.0006652838201262057,0.004712738562375307,-0.03276212140917778,0.02519102767109871,0.05305992066860199,-0.04300100728869438,-0.017839133739471436,-0.010379773564636707,-0.016564158722758293,0.07743726670742035,0.030775241553783417,0.09775108098983765,-0.005890753120183945,0.03966953605413437,-0.005956217180937529,-0.015270620584487915,-0.0055755190551280975,-0.07158143073320389,-0.021483050659298897,0.014298941940069199,0.053944528102874756,-0.007744415197521448,0.052981700748205185,-0.006558939814567566,-0.39759302139282227,0.34619346261024475,0.11904246360063553,0.058853112161159515,0.036389585584402084,-0.07054587453603745,0.024667788296937943,-0.14014741778373718,0.22151771187782288,-0.24186038970947266,-0.043305426836013794,0.02268972247838974,0.008752893656492233,0.016906987875699997,0.014517937786877155,0.025744687765836716,0.04080861806869507,0.552505373954773,0.014017241075634956,0.01893536187708378,0.037389833480119705,0.041269998997449875,0.03685504570603371,-0.11743876338005066,0.01683148927986622,0.029896480962634087,0.011505058035254478,0.003223291365429759,0.0114649822935462,-0.01694449968636036,-0.008073476143181324,0.014841402880847454,-0.02952439896762371,0.02476895973086357,0.06944622844457626,-0.16922160983085632,-0.010982020758092403,0.03055785596370697,-0.0772990882396698,0.02210027165710926,0.10479685664176941,0.16546571254730225,0.009967968799173832,-0.019928202033042908,0.06616833060979843,0.021885670721530914,0.01374489814043045,-0.030461883172392845,0.000842420500703156,-0.011226657778024673,0.03392304852604866,-0.007469863630831242,0.025462966412305832,-0.2188148945569992,0.005221549887210131,-0.013208986259996891,0.05686396732926369,0.010156514123082161,0.03404095023870468,0.23341770470142365,-0.0015579004539176822,0.032087355852127075,-0.08277411013841629,-0.018276473507285118,-0.03798005357384682,-0.13746008276939392,-0.3471715450286865,-0.19477318227291107,-0.04969463869929314,0.03959287703037262,-0.02133328467607498,-0.004734249785542488,0.10762552171945572,-0.1797112673521042,0.1861375868320465,-0.09496501088142395,-0.12070616334676743,-0.13763684034347534,-0.20911899209022522,0.14856155216693878,0.2513526380062103,-0.13019423186779022,0.029116986319422722,0.2117767035961151,0.07802362740039825,0.03746463730931282,0.09551099687814713,0.041448988020420074,-0.1005481705069542,-0.009188414551317692,-0.07169171422719955,0.008680243045091629,-0.1223985031247139,-0.1160159632563591,-0.28748199343681335,-0.2684776484966278,-0.13794293999671936,0.41621625423431396,0.519046425819397,-0.13814955949783325,-0.08165889233350754,-0.07218772172927856,-0.008465615101158619,-0.0316702201962471,0.05435560271143913,-0.1212763860821724,0.07971935719251633,0.09084684401750565,0.26082250475883484,0.2969861924648285,0.2572449743747711,0.0942024290561676,-0.27420327067375183,-0.2444847822189331,0.03315676748752594,-0.06828197091817856,-0.05722971633076668,-0.030407922342419624,-0.0621974878013134,0.06762244552373886,-0.04660141468048096,0.020834263414144516,-0.023525256663560867,0.15748228132724762,0.24331267178058624,0.09973219782114029,-0.031199496239423752,-0.10647714883089066,-0.07331275194883347,-0.1372450739145279,-0.10253655165433884,-0.09614554047584534,-0.03621920570731163,0.057863883674144745,0.04069579765200615,0.004112174268811941,-0.018025146797299385,0.1699189841747284,0.3000209927558899,0.24519002437591553,0.22986572980880737,0.0439322367310524,-0.342362642288208,-0.44249409437179565,0.0497731976211071,0.044572725892066956,0.06427609175443649,0.026487184688448906,-0.03862191364169121,-0.01644512638449669,-0.00742342509329319,-0.01929355412721634,-0.05393245443701744,-0.1261531412601471,-0.34515997767448425,-0.28540658950805664,-0.10351536422967911,0.27887478470802307,0.48379796743392944,0.06100264564156532,-0.00943190511316061,0.07700499147176743,0.07042000442743301,-0.009071502834558487,0.01009871531277895,-0.0020643530879169703,-0.0038393158465623856,0.01063972245901823,-0.11382758617401123,-0.24007394909858704,-0.21051228046417236,-0.06151554733514786,0.13446594774723053,0.12037577480077744,-0.08721157163381577,0.12391883879899979,-0.023494010791182518,-0.019125724211335182,-0.09037724137306213,-0.00041049017454497516,0.02173529751598835,0.04177922382950783,-0.04157339781522751,-0.04881570488214493,-0.043627120554447174,-0.022577974945306778,-0.036355793476104736,0.03394034132361412,-0.03681005910038948,-0.04041370749473572,0.05759570747613907,0.01542060449719429,0.011878165416419506,-0.09059096872806549,0.029567837715148926,0.0023426527623087168,0.08827151358127594,-0.056504786014556885,-0.07078840583562851,-0.08078604191541672,0.09297288954257965,0.09787855297327042,0.06534600257873535,-0.04727005213499069,0.0048693884164094925,0.004197107162326574,0.058316703885793686,-0.06127547472715378,-0.06016127020120621,0.06483430415391922,0.119768425822258,0.09371509402990341,0.03388441354036331,0.02621307224035263,-0.08585622161626816,-0.01998998410999775,-0.07657858729362488,-0.12208092212677002,-0.18764781951904297,0.041940320283174515,-0.06932643800973892,0.1622263640165329,0.08154825866222382,0.03865837678313255,-0.08805611729621887,-0.07301560789346695,0.016935523599386215,-0.21809451282024384,-0.4717353582382202,0.404190331697464,0.028373675420880318,0.007428225129842758,-0.04868756979703903,0.20198051631450653,0.42748621106147766,0.4556126594543457,-0.2534038722515106,-0.06414578855037689,-0.1256444901227951,-0.15429937839508057,-0.19682472944259644,-0.23768791556358337,-0.24830618500709534,-0.2882216274738312,-0.2801473140716553,-0.20803950726985931,-0.23284517228603363,-0.16281770169734955,-0.05739646404981613,0.04635469987988472,0.11330486088991165,0.42916396260261536,-0.05001115798950195,-0.05395384505391121,-0.07098040729761124,-0.09055350720882416,-0.111167311668396,-0.1004285141825676,-0.1346440315246582,-0.14654125273227692,-0.08495680242776871,-0.11321952939033508,-0.10079619288444519,-0.005427314434200525,-0.024663817137479782,0.003282159334048629,-0.043775610625743866,0.26439592242240906,0.16098009049892426,0.2073708027601242,0.25071850419044495,0.21164071559906006,0.21070413291454315,0.18893884122371674,0.2092951089143753,0.14786480367183685,0.15959005057811737,0.10192589461803436,0.13358987867832184,0.041331853717565536,0.006768087390810251,-0.12637995183467865,0.06128246709704399,0.11464837938547134,0.13859859108924866,0.173161119222641,0.21542121469974518,0.22531655430793762,0.26658084988594055,0.25657176971435547,0.18890230357646942,0.20172716677188873,0.1538044512271881,0.06854481250047684,-0.043254554271698,-0.09548535197973251,-0.38274818658828735,0.04612167924642563,0.05017732083797455,0.06661510467529297,0.0799841657280922,0.10264680534601212,0.09174221754074097,0.11949656903743744,0.13838256895542145,0.06808299571275711,0.10042306035757065,0.09649424999952316,0.001656808890402317,0.02936296910047531,0.00873853825032711,0.0310404933989048,-0.24117562174797058,-0.12492460012435913,-0.20652809739112854,-0.2460135817527771,-0.218586266040802,-0.1798751950263977,-0.16107714176177979,-0.2100670039653778,-0.10644226521253586,-0.18525248765945435,-0.11323197931051254,-0.0405900701880455,-0.05259697884321213,-0.006479260977357626,0.11749463528394699,-0.022803576663136482,0.04469941183924675,0.0034131165593862534,0.05735289305448532,0.03435320779681206,0.05282275006175041,0.09047191590070724,0.03905174136161804,0.07614731788635254,0.04843920096755028,0.07875929772853851,0.05202177166938782,0.05001763626933098,0.002241934649646282,0.0376950204372406,-0.021473325788974762,0.025533214211463928,-0.006880646105855703,0.010613488964736462,0.007494926452636719,0.023939063772559166,0.06573443114757538,0.007853365503251553,0.045740846544504166,0.028743624687194824,0.03382757678627968,-0.008741450496017933,-0.022199861705303192,-0.045117609202861786,0.0059684449806809425,-0.07026512920856476,0.07671593129634857,0.05097367614507675,0.09043033421039581,0.1080099567770958,0.013580498285591602,0.10118639469146729,0.08542000502347946,0.09004171937704086,0.09458380192518234,0.05640053376555443,0.15479592978954315,0.0784822478890419,0.17399296164512634,0.18263642489910126,0.06087777018547058,-0.05451958626508713,0.15576550364494324,0.05718870833516121,-0.02108646370470524,-0.021833324804902077,-0.13933110237121582,-0.4246784448623657,-0.12824192643165588,-0.30061787366867065,0.12526710331439972,-0.2366170436143875,0.4713725447654724,-0.48282572627067566,-0.3097510039806366,0.3574105501174927,-0.1104573979973793,-0.3115071952342987,-0.0701683834195137,-0.04914580285549164,0.19558458030223846,0.16829097270965576,-0.0726853758096695,-0.057824451476335526,0.010183037258684635,0.03211554139852524,-0.20504647493362427,-0.21521927416324615,0.03007086180150509,-0.05957480147480965,0.01932339556515217,-0.0453266017138958,0.0662611573934555,0.026927471160888672,0.08619073778390884,0.018367726355791092,0.0512993223965168,-0.09041754901409149,-0.0689198449254036,-0.0026443267706781626,0.02436269447207451,0.09048536419868469,-0.03890537843108177,-0.1487284004688263,0.09109222143888474,0.0753670185804367,-0.05532202869653702,0.09100693464279175,-0.0820797011256218,-0.1570419818162918,-0.14527980983257294,0.05626266077160835,0.14410530030727386,0.18288661539554596,0.03235684707760811,-0.08904986083507538,-0.1777300089597702,-0.07873963564634323,-0.0009115433786064386,0.03172345459461212,-0.09556268900632858,-0.06058299168944359,0.10677667707204819,0.09909818321466446,0.17072683572769165,0.24987198412418365,-0.014835384674370289,-0.01569942943751812,-0.049428727477788925,-0.043401382863521576,-0.01051065232604742,0.0144085343927145,-0.011156524531543255,0.14708982408046722,0.24776840209960938,-0.0048986379988491535,-0.054545436054468155,-0.0029723714105784893,-0.07204186171293259,-0.09856951236724854,0.09254332631826401,0.4472615122795105,0.08304598182439804,-0.34489476680755615,0.02244945615530014,0.010032803751528263,0.034029461443424225,0.16893406212329865,0.2797156274318695,-0.2247641235589981,0.017908789217472076,-0.05213632062077522,-0.005851198919117451,-0.13872747123241425,-0.27361780405044556,0.7404249906539917,-0.08803743124008179,-0.03752247989177704,-0.12619929015636444,0.09996074438095093,0.4020587205886841,-0.6955273151397705,0.11934930086135864,-0.03842449560761452,0.07003761827945709,0.05096067860722542,0.015155351720750332,0.009831303730607033,-0.07524441927671432,0.01460218895226717,-0.0032138070091605186,0.038783684372901917,0.2412242591381073,-0.20738652348518372,-0.011569231748580933,0.03721422702074051,0.024501342326402664,0.0045148711651563644,-0.20584963262081146,0.2388431280851364,0.06762522459030151,0.006151021923869848,-0.06623966991901398,-0.05645264312624931,-0.13270339369773865,0.19695577025413513,-0.049599241465330124,0.009429451078176498,-0.05461890250444412,0.07474422454833984,-0.14257536828517914,-0.3735429346561432,-0.037598323076963425,-0.0387832336127758,-0.0826224759221077,-0.10608431696891785,-0.2345581203699112,0.10495377331972122,-0.19591636955738068,-0.16553200781345367,-0.07113179564476013,-0.27429673075675964,-0.24074533581733704,0.17248806357383728,-0.11404556035995483,-0.0489303320646286,-0.16822923719882965,0.006735980976372957,0.022617913782596588,-0.005246504209935665,-0.07700326293706894,0.006713126320391893,0.4756281077861786,0.15645043551921844,0.39749401807785034,0.24931062757968903,-0.029533950611948967,0.01754208281636238,-0.1492728590965271,-0.09078514575958252,-0.008030284196138382,0.17957761883735657,-0.002024057786911726,-0.020030956715345383,0.028103072196245193,0.02569570392370224,0.010724924504756927,0.25440293550491333,-0.005805492866784334,-0.02254403568804264,0.06204942241311073,-0.01406349427998066,0.12270548194646835,-0.1099444180727005,0.016204681247472763,0.11089963465929031,0.06082126498222351,0.0778350681066513,0.2732195556163788,-0.02453158050775528,-0.02216547541320324,-0.006179711781442165,-0.006532581057399511,-0.008711040951311588,-0.03562463819980621,0.08879251778125763,-0.005194974597543478,0.002094440860673785,-0.019525259733200073,-0.0266522578895092,-0.0013863937929272652,-0.10726821422576904,-0.051698967814445496,-0.06141690909862518,-0.12883174419403076,0.034901753067970276,-0.12544669210910797,0.1581966131925583,-0.01664896495640278,0.04846658185124397,-0.05046141520142555,0.14413116872310638,-0.030291905626654625,-0.3313324749469757,-0.012494322843849659,0.02334679663181305,-0.03984462097287178,0.07342109084129333,-0.04536692425608635,1.0164680480957031,-0.18482443690299988,-0.12315916270017624,-0.10172413289546967,-0.039068859070539474,0.00971014704555273,0.03703749179840088,0.07625064253807068,0.1560419350862503,-0.113512322306633,0.059114664793014526,-0.05100998282432556,-0.009436211548745632,-0.1052045151591301,0.010879025794565678,-0.19416651129722595,-0.12756676971912384,0.20906677842140198,0.20430275797843933,0.0850893184542656,-0.3968333899974823,0.05864794924855232,0.0662224292755127,-0.08760233223438263,0.0012802721466869116,0.002807038836181164,-0.005898559466004372,0.005565738771110773,0.012008539400994778,-0.04622428119182587,0.29361218214035034,0.008563688024878502,-0.007778658997267485,-0.004663222935050726,0.030065320432186127,0.019615504890680313,-0.8730692863464355,-0.05683351680636406,0.0603230744600296,0.10809817165136337,0.07445633411407471,0.13047191500663757,0.03646387532353401,0.016510922461748123,0.008978106081485748,0.003035713220015168,0.03167399391531944,0.03921610489487648,0.025714343413710594,0.03480309247970581,0.012534106150269508,-0.00972884614020586,0.009777398779988289,-0.004150631837546825,0.44538918137550354,-0.03531459718942642,0.06592341512441635,0.05028004199266434,0.11788202822208405,0.2120508998632431,0.013845931738615036,-0.021631617099046707,0.02720918133854866,0.0035049207508563995,0.0051550124771893024,0.03332030028104782,-0.09702052175998688,-0.01989847980439663,0.024700120091438293,0.02318510413169861,0.008861389011144638,0.03077748417854309,-0.022486316040158272,0.06099675968289375,-0.005924711469560862,-0.06499860435724258,0.007116570603102446,-0.07876589894294739,0.07321864366531372,0.047041185200214386,-0.02434609830379486,0.1522824764251709,0.056925512850284576,0.009609741158783436,-0.050705406814813614,-0.037962742149829865,0.4097377359867096,0.08973810076713562,-0.16779257357120514,-0.5952356457710266,0.22624798119068146,-0.07087793946266174,0.039896413683891296,0.053887274116277695,-0.0029167684260755777,0.03095323033630848,-0.21318116784095764,-0.05418169125914574,0.00229029543697834,-0.06662420183420181,-0.04123466834425926,-0.05116637423634529,0.19510027766227722,0.0491718053817749,0.05836358666419983,-0.008529254235327244,-0.018856333568692207,-0.07884116470813751,-0.3313315510749817,-0.3087170124053955,-0.22938579320907593,0.06901458650827408,0.24501018226146698,0.3051191568374634,-0.10754663497209549,0.05896312743425369,-0.015121931210160255,0.07094936072826385,0.049751508980989456,0.06553885340690613,-0.20710629224777222,-0.05712785944342613,-0.07189537584781647,0.0064587523229420185,0.024881361052393913,0.1007004976272583,0.3912794291973114,0.3497193157672882,0.24134871363639832,-0.07954799383878708,-0.25683045387268066,-0.37022578716278076,0.1544162929058075,0.053223688155412674,0.038500089198350906,0.030654696747660637,0.012074386700987816,0.016117222607135773,-0.16335082054138184,0.0012606284581124783,0.02075030282139778,0.013232090510427952,0.012965883128345013,0.018137991428375244,-0.01580641232430935,0.16658969223499298,0.10289144515991211,-0.04872879013419151,-0.06874866783618927,-0.060183633118867874,-0.09317976236343384,0.1534707248210907,-0.1769578754901886,0.014426407404243946,0.051130153238773346,-0.013582025654613972,-0.013494024984538555,0.01212760154157877,-0.181430384516716,0.41892388463020325,-0.10448827594518661,0.19368977844715118,-0.29103782773017883,0.28069835901260376,-0.2536748945713043,-0.011459591798484325,0.11043675243854523,0.08919026702642441,-0.1401626318693161,-0.0043578012846410275,0.02779419720172882,0.020696479827165604,0.049844350665807724,0.005997772794216871,0.2339448481798172,-0.008118550293147564,0.016889361664652824,0.015604017302393913,0.0721716657280922,0.07513001561164856,-0.45977306365966797,0.03713419288396835,-0.15605957806110382,-0.3694286048412323,-0.255219966173172,0.38055428862571716,0.08495257794857025,0.0030708573758602142,-0.014889067970216274,-0.003690398531034589,-0.01375576201826334,-0.026387708261609077,0.017192179337143898,0.00977608934044838,-0.003532462753355503,-0.00116427440661937,-0.0061044832691550255,-0.005481157451868057,0.2391827255487442,0.009864085353910923,-0.00710644805803895,-0.003160734660923481,-0.019537320360541344,0.006063538137823343,0.07444164901971817,0.005524883512407541,-0.03287540376186371,-0.022700831294059753,-0.05713677033782005,-0.0041661337018013,-0.2692714035511017,0.0042443908751010895,-0.02123229205608368,-0.01931363344192505,-0.08479102700948715,-0.07770349830389023,0.4933098256587982,-0.04298727214336395,0.17589816451072693,0.40492117404937744,0.28270405530929565,-0.42387598752975464,-0.10379165410995483,0.11447656899690628,-0.009980819188058376,-0.12921729683876038,0.048003941774368286,0.00031483356724493206,-0.006590132135897875,0.051260534673929214,0.019034814089536667,0.014524592086672783,-0.00390480924397707,-0.019476378336548805,0.008183072321116924,-0.3642304837703705,-0.04021864011883736,0.31883504986763,0.02119065262377262,-0.010721821337938309,0.043559227138757706,-0.0038319716695696115,-0.006051688455045223,-0.00022205698769539595,-0.0010471604764461517,-0.03181789442896843,0.25718945264816284,-0.0002453797496855259,-0.008617673069238663,-0.004250609315931797,-0.01995677873492241,0.06578196585178375,-0.1774391084909439,-0.008863911032676697,0.04128802567720413,-0.1267935335636139,0.1512094885110855,-0.33989202976226807,0.07359366118907928,-0.0005211891839280725,0.0008263211348094046,-0.009574578143656254,0.002785936463624239,0.012299331836402416,-0.04650618135929108,0.0005321393837220967,0.00198436644859612,-0.007626770064234734,0.00988695863634348,-0.011691912077367306,0.15063457190990448,-0.00031746673630550504,-0.01179058849811554,0.04154438152909279,-0.058894235640764236,0.12020289897918701,0.0199701227247715,0.0038937043864279985,0.005115454085171223,0.0002361921506235376,-0.0005103701842017472,0.02771138958632946,-0.24383002519607544,-0.0008815220789983869,0.00642387056723237,0.00044101616367697716,0.014901326969265938,-0.06601139158010483,0.13744193315505981,0.009095508605241776,-0.03706257790327072,0.1122364029288292,-0.13863547146320343,0.30569586157798767,-0.08067262917757034,0.02497149258852005,-0.08302223682403564,-0.02157963253557682,0.04536571726202965,-0.00022500714112538844,-0.013860493898391724,1.190334942338566e-38,-6.403108617168927e-39,1.9054459950423459e-38,-5.937988229591769e-39,1.4924403177429675e-38,-1.6382253843879249e-38,1.792348877544847e-38,-4.738776622001091e-39,-3.4942035818217546e-39,1.9409871279930162e-38,-1.0307986536034962e-38,-8.293570948121787e-40,0.002310478826984763,0.003938315436244011,0.005533560644835234,0.008399102836847305,0.008259227499365807,0.008971947245299816,0.01002570241689682,0.00982388760894537,0.01164624560624361,0.014884729869663715,0.016840150579810143,0.018934711813926697,0.020219486206769943,0.017044955864548683,0.008194989524781704,0.001124555361457169,-0.001791743328794837,-0.0024986581411212683,-0.003388598095625639,-0.004776652902364731,-0.004443179816007614,-0.004467951133847237,-0.004836610518395901,-0.00442717969417572,-0.005275556351989508,-0.007686089724302292,-0.009381219744682312,-0.011171095073223114,-0.01318627130240202,-0.011264354921877384,-0.004619418177753687,0.0001329679216723889,-0.0015185324009507895,-0.0026146455202251673,-0.0042610811069607735,-0.006970923859626055,-0.007176631595939398,-0.008264340460300446,-0.009184876456856728,-0.009070562198758125,-0.010648348368704319,-0.013035936281085014,-0.015231608413159847,-0.01785908453166485,-0.019493073225021362,-0.016017604619264603,-0.008081926964223385,-0.001770172268152237,-0.04494401067495346,0.009499816223978996],"sample_rate":48000.0}},{"max_value":1.0,"model":{"version":"0.7.0","metadata":{"date":{"year":2026,"month":5,"day":8,"hour":6,"minute":8,"second":21},"loudness":-17.946971893310547,"gain":0.016992273311811565},"architecture":"WaveNet","config":{"layers":[{"input_size":1,"condition_size":1,"head":{"out_channels":1,"kernel_size":16,"bias":true},"channels":8,"kernel_sizes":[6,6,6,6,6,6,6,6,6,6,6,6,6,6,15,15,6,6,6,6,6,6,6],"dilations":[1,3,7,17,41,101,239,1,3,7,17,41,101,239,1,13,1,3,7,17,41,101,239],"activation":[{"type":"LeakyReLU","negative_slope":0.01},{"type":"LeakyReLU","negative_slope":0.01},{"type":"LeakyReLU","negative_slope":0.01},{"type":"LeakyReLU","negative_slope":0.01},{"type":"LeakyReLU","negative_slope":0.01},{"type":"LeakyReLU","negative_slope":0.01},{"type":"LeakyReLU","negative_slope":0.01},{"type":"LeakyReLU","negative_slope":0.01},{"type":"LeakyReLU","negative_slope":0.01},{"type":"LeakyReLU","negative_slope":0.01},{"type":"LeakyReLU","negative_slope":0.01},{"type":"LeakyReLU","negative_slope":0.01},{"type":"LeakyReLU","negative_slope":0.01},{"type":"LeakyReLU","negative_slope":0.01},{"type":"LeakyReLU","negative_slope":0.01},{"type":"LeakyReLU","negative_slope":0.01},{"type":"LeakyReLU","negative_slope":0.01},{"type":"LeakyReLU","negative_slope":0.01},{"type":"LeakyReLU","negative_slope":0.01},{"type":"LeakyReLU","negative_slope":0.01},{"type":"LeakyReLU","negative_slope":0.01},{"type":"LeakyReLU","negative_slope":0.01},{"type":"LeakyReLU","negative_slope":0.01}],"bottleneck":8,"head1x1":{"active":false,"out_channels":1,"groups":1},"layer1x1":{"active":true,"groups":1},"groups_input":1,"groups_input_mixin":1,"conv_pre_film":{"active":false,"shift":true,"groups":1},"conv_post_film":{"active":false,"shift":true,"groups":1},"input_mixin_pre_film":{"active":false,"shift":true,"groups":1},"input_mixin_post_film":{"active":false,"shift":true,"groups":1},"activation_pre_film":{"active":false,"shift":true,"groups":1},"activation_post_film":{"active":false,"shift":true,"groups":1},"layer1x1_post_film":{"active":false,"shift":true,"groups":1},"head1x1_post_film":{"active":false,"shift":true,"groups":1},"gating_mode":["none","none","none","none","none","none","none","none","none","none","none","none","none","none","none","none","none","none","none","none","none","none","none"],"secondary_activation":[null,null,null,null,null,null,null,null,null,null,null,null,null,null,null,null,null,null,null,null,null,null,null],"slimmable":null}],"head":null,"head_scale":0.009499816519040735},"weights":[1.3112285137176514,1.2781480550765991,1.2268973588943481,0.7852767705917358,-0.9942203760147095,1.0353014469146729,-1.50569486618042,1.533875823020935,0.049879319965839386,0.04145878925919533,-0.04434821382164955,-0.08635896444320679,-0.2984828054904938,-0.38581544160842896,0.0013923050137236714,0.018305569887161255,-0.052267346531152725,-0.059927526861429214,-0.3294821083545685,-0.3545537292957306,0.024333197623491287,0.0732329860329628,0.017943348735570908,-0.06356070190668106,-0.26542678475379944,-0.3424515128135681,0.04149430990219116,0.04476942494511604,-0.008337941020727158,-0.05467037484049797,-0.1918155401945114,-0.21232160925865173,-0.04488930478692055,-0.024805422872304916,0.004338955972343683,0.0688098594546318,0.21854345500469208,0.24629415571689606,0.02448226325213909,0.056561946868896484,-0.014799147844314575,-0.07354648411273956,-0.22949104011058807,-0.28375330567359924,0.038254160434007645,0.019125310704112053,0.08359892666339874,0.10582172125577927,0.3546692430973053,0.3987058997154236,0.034402769058942795,0.051379766315221786,-0.008208360522985458,-0.15615011751651764,-0.3519653379917145,-0.3668796718120575,0.22890795767307281,0.28810983896255493,0.26178696751594543,0.05939766392111778,-0.5757206082344055,-0.6143164038658142,0.08290766179561615,0.3148004710674286,0.1732235997915268,-0.03754311427474022,-0.4988836944103241,-0.6659755110740662,0.12052669376134872,0.23469401895999908,0.18099069595336914,-0.01634145714342594,-0.5348840951919556,-0.6260850429534912,0.0927749052643776,0.18455763161182404,0.18009474873542786,-0.008479594253003597,-0.38876253366470337,-0.5228761434555054,-0.16419726610183716,-0.23898692429065704,-0.2070295363664627,0.022461505606770515,0.4773671627044678,0.5399795174598694,0.16729193925857544,0.18226701021194458,0.19920368492603302,-0.001620554830878973,-0.5263674259185791,-0.6110394597053528,-0.1665768325328827,-0.302268385887146,-0.13666394352912903,-0.0279731173068285,0.49994412064552307,0.7219536900520325,0.1887471228837967,0.3388504981994629,0.29794469475746155,-0.04640398547053337,-0.5915218591690063,-0.7471680641174316,-0.00012807923485524952,-6.4834974182304e-05,5.2411865908652544e-05,0.00015145892393775284,0.0002898807870224118,0.00034363247686997056,-0.00012434831296559423,-6.287029100349173e-05,5.0323575123911723e-05,0.0001435697777196765,0.00027912031509913504,0.0003312976623419672,-0.00011959428229602054,-6.166702223708853e-05,4.8312125727534294e-05,0.00014473222836386412,0.00027351881726644933,0.00032395965536125004,-7.867569365771487e-05,-4.047917536809109e-05,2.9237589842523448e-05,9.035549737745896e-05,0.00017298937018495053,0.00020553490321617573,0.00010266790195601061,5.337553011486307e-05,-3.877361086779274e-05,-0.00011860553786391392,-0.00022515823366120458,-0.00026494907797314227,-9.896762639982626e-05,-4.88751866214443e-05,3.962976552429609e-05,0.00011502807319629937,0.00022059312323108315,0.00026144899311475456,0.00014280631148722023,6.734966882504523e-05,-6.135395960882306e-05,-0.00017145082529168576,-0.0003271557216066867,-0.0003882595628965646,-0.00014175963588058949,-6.759947427781299e-05,6.38591154711321e-05,0.00017494973144493997,0.0003321269468870014,0.00039105862379074097,-0.07762999087572098,-0.23949532210826874,-0.14737699925899506,0.04400022700428963,0.4153946340084076,0.5962657928466797,-0.13368359208106995,-0.22620846331119537,-0.11685161292552948,0.01409599557518959,0.3905579745769501,0.5788050293922424,-0.1751602739095688,-0.2360614687204361,-0.13773438334465027,-0.00782909244298935,0.4302092492580414,0.5110335350036621,-0.08481157571077347,-0.10782124102115631,-0.090644970536232,-0.024198202416300774,0.31933122873306274,0.3567243814468384,0.14076264202594757,0.17856545746326447,0.13317930698394775,0.0029287198558449745,-0.35034435987472534,-0.40341952443122864,-0.08372441679239273,-0.21326173841953278,-0.09560255706310272,-0.03982771560549736,0.43081143498420715,0.46857118606567383,0.050516869872808456,0.11958745867013931,0.13681660592556,0.0856076329946518,-0.5088382959365845,-0.6337054967880249,-0.18795259296894073,-0.1448637843132019,-0.15215452015399933,-0.020097121596336365,0.43753960728645325,0.5612951517105103,0.13990263640880585,0.1360982358455658,0.12157890200614929,-0.008803409524261951,-0.3950941860675812,-0.5241567492485046,0.08519981801509857,0.2067583054304123,0.13660134375095367,-0.003055265173316002,-0.39690905809402466,-0.5732203722000122,0.12585312128067017,0.19625741243362427,0.1470402032136917,0.04200167581439018,-0.3991013467311859,-0.5463910102844238,0.06783692538738251,0.10130807757377625,0.08499415963888168,0.003823851468041539,-0.25069811940193176,-0.3349637985229492,-0.07990773767232895,-0.11145004630088806,-0.10398247092962265,-0.01582181453704834,0.32526895403862,0.3992685079574585,0.08010400086641312,0.13342803716659546,0.10248306393623352,-0.010996357537806034,-0.3343522846698761,-0.44599148631095886,-0.16707848012447357,-0.18101584911346436,-0.07799787819385529,-0.029179943725466728,0.5243104100227356,0.6415154933929443,0.12757587432861328,0.1684274524450302,0.19068920612335205,0.03921973705291748,-0.5263846516609192,-0.60259610414505,0.0020522770937532187,0.000910304777789861,-0.00023827515542507172,-0.0009388051694259048,-0.0009776547085493803,-0.0015567546943202615,0.0020140802953392267,0.0008956301608122885,-0.00021462472795974463,-0.0009221791988238692,-0.000971694418694824,-0.001542367273941636,0.0019694161601364613,0.0008661888423375785,-0.00019995660113636404,-0.0008620017324574292,-0.0008928342722356319,-0.0014396948972716928,0.0015543958870694041,0.0008154150564223528,6.220526120159775e-05,-0.00046325981384143233,-0.0005334963789209723,-0.000994038418866694,-0.001756119541823864,-0.0008231811225414276,8.08074400993064e-05,0.0006549519021064043,0.0006932278047315776,0.001187979825772345,0.0018349380698055029,0.0008568435441702604,-0.00010784087498905137,-0.0007247849134728312,-0.0008090559858828783,-0.0013314572861418128,-0.002197056310251355,-0.0009362388518638909,0.0003242463862989098,0.00113225809764117,0.0011082865530624986,0.001770184957422316,0.0022022940684109926,0.0009446445037610829,-0.0003160542109981179,-0.0011484726564958692,-0.0010789399966597557,-0.001736651174724102,0.03687402978539467,0.055480580776929855,0.02502792328596115,0.03512894734740257,-0.19471736252307892,-0.19010722637176514,0.07746084034442902,0.041307222098112106,0.05277298018336296,-0.013249248266220093,-0.18990769982337952,-0.22549386322498322,0.047834888100624084,0.07469680905342102,0.0452457033097744,0.012678729370236397,-0.2179388403892517,-0.21369820833206177,0.029419584199786186,0.02569706365466118,0.003770028240978718,-0.002383694052696228,-0.10294171422719955,-0.10312310606241226,-0.03326677158474922,-0.033931754529476166,-0.008665756322443485,-0.00018430830095894635,0.1377307027578354,0.13555893301963806,0.03503406047821045,0.053486742079257965,0.026550017297267914,0.003719635307788849,-0.15817005932331085,-0.1599450707435608,-0.07835331559181213,-0.06280262768268585,-0.0410592257976532,-0.002055276883766055,0.2212987095117569,0.2104901224374771,0.04169469699263573,0.07384216785430908,0.015163542702794075,0.022166358307003975,-0.2537006139755249,-0.2448492795228958,0.013761070556938648,-0.024826638400554657,-0.022676896303892136,0.11326374858617783,0.3410951495170593,0.503863513469696,-0.05484173446893692,-0.04055006802082062,0.03377852961421013,0.07693054527044296,0.4170587956905365,0.5001835823059082,-0.07899419963359833,-0.07262863963842392,-0.03970770165324211,0.04224172234535217,0.3161528706550598,0.40890178084373474,-0.03828060254454613,-0.028840407729148865,-0.01114471722394228,0.04429838806390762,0.2410014569759369,0.28776687383651733,0.04540632665157318,0.04357406497001648,-0.00039832209586165845,-0.09166546911001205,-0.2823713421821594,-0.35181644558906555,-0.03908029943704605,-0.04769042879343033,-0.0007112481980584562,0.09896134585142136,0.3056286871433258,0.3328081965446472,-0.033175744116306305,0.03264947235584259,-0.10487136989831924,-0.1507614701986313,-0.3544515073299408,-0.5144276022911072,0.0003884734760504216,0.022143494337797165,0.05211886391043663,0.1980174034833908,0.4763891398906708,0.4964219629764557,0.0014327060198411345,0.1309574693441391,-0.008795247413218021,0.0692443773150444,0.2857779562473297,-0.017792249098420143,0.6196727156639099,0.0012930207885801792,-0.4512898921966553,-1.0266755819320679,0.0002667203079909086,0.6919217705726624,-0.5608119964599609,-0.0011888326844200492,-0.252276211977005,0.6344423890113831,-0.29319748282432556,-0.5188082456588745,0.00011701205221470445,0.49084997177124023,-0.39276960492134094,0.0017183376476168633,-0.23064056038856506,0.3843713700771332,-0.5243213772773743,-0.7791566252708435,8.000450907275081e-05,0.6932346820831299,-0.2970796525478363,0.0005600216682069004,-0.2176341861486435,0.3461313545703888,-0.17884612083435059,-0.9391253590583801,-3.8603393477387726e-05,0.6317547559738159,-0.5608668923377991,-0.000308533723000437,-0.4304441511631012,0.46640297770500183,-0.4994340240955353,-0.79737788438797,1.4815763279329985e-05,0.3838798403739929,-0.28121045231819153,-0.0009784402791410685,0.00024311713059432805,0.045729536563158035,-0.15871764719486237,-0.9858615398406982,-4.615592479240149e-05,0.5979883670806885,-0.3945454955101013,-0.0012855189852416515,-0.200381800532341,-0.20032364130020142,-0.3264230191707611,-1.1397943496704102,-6.828814366599545e-05,0.9320563077926636,-0.32521918416023254,-3.738167288247496e-05,0.15708088874816895,0.6036355495452881,0.3354673385620117,0.11617967486381531,-2.4614905669295695e-06,-0.2998524606227875,0.06406965106725693,-0.0006805366720072925,-0.002612339099869132,-0.2107260525226593,0.14261022210121155,-0.3501744270324707,2.268458774778992e-05,0.4581855535507202,0.13940194249153137,-0.00029744632774963975,-0.029279043897986412,0.30510178208351135,-0.11313103884458542,-0.043075114488601685,0.11120445281267166,-0.18446649610996246,0.15976625680923462,0.17643406987190247,-0.205434188246727,-0.18636652827262878,0.0022248311433941126,0.0007044381927698851,-0.000281859771348536,0.008808343671262264,0.010491813533008099,0.0005757373874075711,0.002173454500734806,0.0008570511126890779,0.0004251422651577741,0.010275186970829964,0.011955556459724903,0.0014124591834843159,0.0031857627909630537,0.0011037643998861313,-0.00034686713479459286,0.009049794636666775,0.0104872677475214,-3.6332596209831536e-05,0.0023080434184521437,-0.002501127077266574,-0.004450581967830658,0.008920770138502121,0.010800875723361969,-0.003069696482270956,0.006245438475161791,-0.0010007554665207863,-0.005096734967082739,0.0072474698536098,0.005997912492603064,-0.008833177387714386,0.0009541519684717059,-0.00026382177020423114,-0.0006795983645133674,0.00569376302883029,0.007919417694211006,0.0027706122491508722,0.0018287677085027099,0.0015192292630672455,0.0009255558834411204,-0.004417871590703726,-0.0057752700522542,-0.00039675142033956945,-0.0006127030355855823,-0.0006203342927619815,0.0007104345713742077,0.00755472993478179,0.009213012643158436,0.002965404652059078,0.01706942543387413,0.027875438332557678,0.03977480158209801,0.03759095072746277,0.03875487670302391,-0.017217526212334633,0.01213766634464264,0.02279137447476387,0.04751162230968475,0.031270455569028854,0.025235088542103767,0.006829323247075081,0.02097943052649498,0.03531911224126816,0.05044485256075859,0.018564239144325256,0.05639385059475899,0.00627917842939496,-0.007022057194262743,-0.0014827970881015062,0.018506970256567,0.004023910965770483,0.013192344456911087,-0.009191948920488358,-0.002010538475587964,-0.004546701908111572,0.010652219876646996,-0.008357160724699497,0.005581197328865528,-0.021205635741353035,0.02191566675901413,0.020429963245987892,0.032351329922676086,0.045436691492795944,0.04833570495247841,-0.04157159850001335,-0.007907679304480553,-0.010793021880090237,-0.018557889387011528,-0.026001662015914917,-0.015138204209506512,-0.005764454137533903,0.008116279728710651,0.025094110518693924,0.02795393578708172,0.0270877443253994,0.019230766221880913,0.0032261107116937637,-0.0371428057551384,0.005031409673392773,-0.030071673914790154,-0.06248858571052551,-0.1559658646583557,0.30689486861228943,-0.006707671098411083,-0.016239572316408157,-0.010865683667361736,-0.08782893419265747,-0.1781522035598755,0.5426648855209351,0.03937426954507828,0.0006543947965838015,0.08951914310455322,0.06481090933084488,0.016049377620220184,0.5156060457229614,-0.022958558052778244,-0.030499640852212906,-0.0597294457256794,-0.06733681261539459,-0.001463777502067387,0.19481511414051056,-0.01965937577188015,0.03017500974237919,0.02767910063266754,0.11123251169919968,0.2440667301416397,0.39554333686828613,0.031559087336063385,0.017283139750361443,-0.0428205244243145,-0.029077744111418724,-0.09478195011615753,0.19312456250190735,-0.011480280198156834,0.0031013626139611006,0.031542886048555374,0.07680574804544449,0.11824171245098114,-0.20865198969841003,-0.053837090730667114,-0.015746591612696648,0.0046697016805410385,-0.0031805194448679686,-0.1398550570011139,0.3503444492816925,0.08030341565608978,0.027163252234458923,0.06606823951005936,-0.036343544721603394,0.0088632358238101,-0.022903073579072952,0.035696275532245636,-0.08484479784965515,-0.11623107641935349,-0.0947875827550888,-0.03352540358901024,-0.03385892137885094,-0.07195818424224854,-0.0031045807991176844,0.00874855276197195,-0.007136138621717691,0.030961915850639343,-0.01964814029633999,-0.030990134924650192,-0.05799263343214989,-0.05268668755888939,-0.08683675527572632,-0.12409497797489166,0.053021617233753204,-0.026565968990325928,0.031113483011722565,0.0182524211704731,0.0067910668440163136,-0.11014842987060547,0.18436199426651,0.05366431549191475,0.0450294092297554,0.08504338562488556,0.1151147186756134,0.0510077178478241,-0.04149441421031952,-0.014884142205119133,-0.041333019733428955,0.027403652667999268,9.669720020610839e-05,-0.020038826391100883,0.11284221708774567,-0.0015209022676572204,0.004780747462064028,-0.023624029010534286,-0.005188221111893654,0.04056933522224426,-0.2090199589729309,0.025385256856679916,-0.040504828095436096,-0.023718439042568207,-0.004129698034375906,-0.07157185673713684,0.23713995516300201,-0.06139380857348442,-0.01612062379717827,-0.033999890089035034,-0.08486300706863403,-0.09454693645238876,0.15668484568595886,-0.014420382678508759,-0.02725440263748169,-0.03465014696121216,-0.022933248430490494,-0.12463491410017014,0.015254788100719452,-0.027136927470564842,-0.03911088779568672,-0.11637083441019058,-0.08216415345668793,-0.0666956678032875,-0.004443970043212175,0.007344713434576988,0.02923506312072277,0.009410050697624683,0.015134334564208984,0.12301924079656601,0.06413442641496658,0.018426762893795967,-0.02679135836660862,-0.050661493092775345,-0.12062850594520569,-0.2765578031539917,0.5165850520133972,0.003310561878606677,0.005259665194898844,0.0330398790538311,0.07714582234621048,0.07134309411048889,-0.25641441345214844,0.027358274906873703,-0.023187756538391113,0.03409833088517189,0.029441554099321365,-0.1310955286026001,0.30753692984580994,-0.004140131641179323,0.00020663441682700068,0.004575697705149651,0.007223542779684067,0.01267686951905489,0.020373590290546417,0.001479294034652412,0.007724699564278126,0.007976015098392963,0.0060848044231534,0.012705320492386818,0.01811789907515049,-0.002537071704864502,0.0014383236411958933,0.005071999505162239,0.009738166816532612,0.017121540382504463,0.028161847963929176,0.016259416937828064,0.024770591408014297,0.016257403418421745,0.00499764084815979,0.005781468469649553,0.009964987635612488,0.012049914337694645,0.02199280820786953,0.014241192489862442,0.004290261305868626,0.007806485053151846,0.011640307493507862,-0.009381628595292568,-0.0069971876218914986,-0.004051324911415577,0.00016015867004171014,0.007242800667881966,-0.005506665445864201,0.005751493386924267,0.0019867648370563984,-0.00023829584824852645,0.0013862673658877611,-0.001754390075802803,-0.003046788275241852,-0.011038127355277538,-0.015585334040224552,-0.008732297457754612,-0.004568750504404306,0.0029299636371433735,0.0007560299127362669,0.0101614436134696,0.012142314575612545,0.0325552374124527,0.02473653480410576,0.056622449308633804,-0.09625467658042908,0.007192572578787804,0.011500947177410126,0.0428108312189579,0.039219219237565994,0.0481610968708992,-0.09615111351013184,0.02114628627896309,0.026644283905625343,0.054863546043634415,0.04578115791082382,0.07194841653108597,-0.14971554279327393,0.012487233616411686,0.019821228459477425,0.04362811520695686,0.04084859788417816,0.017516694962978363,-0.07061240077018738,0.028008680790662766,0.03497810661792755,0.05010157451033592,0.057129260152578354,0.015168953686952591,-0.09420948475599289,-0.01078946515917778,0.0013650028267875314,0.02179228514432907,0.002819121815264225,0.032007161527872086,-0.14679615199565887,0.0074676708318293095,0.0067031956277787685,-0.00814974494278431,-0.0029937627259641886,-0.027407865971326828,0.04064755514264107,-0.017610017210245132,-0.007301046047359705,0.0023892514873296022,-0.014959952794015408,0.021095115691423416,-0.05258099362254143,0.02572604827582836,0.0183711014688015,0.00886387936770916,0.06698723137378693,0.2131180614233017,-0.3402100205421448,-0.027445632964372635,0.049932822585105896,0.07117008417844772,0.11647629737854004,0.13015687465667725,-0.07896405458450317,-0.021783556789159775,-0.02331138774752617,0.028973177075386047,0.07661985605955124,0.12793153524398804,-0.06420530378818512,-0.022069135680794716,-0.047063540667295456,-0.02907763421535492,0.016889028251171112,-0.049335043877363205,-0.0679941475391388,-0.0008450475288555026,-0.06711029261350632,-0.030624965205788612,-0.07830889523029327,-0.13741056621074677,-0.03215682879090309,0.014968815259635448,0.058268871158361435,0.015010776929557323,0.08462937921285629,0.3338504433631897,-0.6962613463401794,-0.032956674695014954,-0.04610831290483475,-0.09358173608779907,-0.16209723055362701,-0.15547038614749908,0.18028788268566132,-0.014624891802668571,0.03350042551755905,-0.028094405308365822,-0.04515741392970085,0.16104769706726074,-0.41233760118484497,-0.009891720488667488,0.013649210333824158,-0.07167790830135345,0.08078572899103165,0.0384858101606369,-0.01464355643838644,-0.007942399010062218,0.11995065212249756,-0.0002820779918693006,0.00309960450977087,0.23125924170017242,-0.08303854614496231,0.12457306683063507,0.002051102463155985,-0.007223034743219614,-0.13481628894805908,0.008663428016006947,-0.04827722907066345,0.10654827952384949,-0.10307017713785172,-0.12775932252407074,0.01888229511678219,-0.018791254609823227,0.025586461648344994,0.006250633858144283,0.11350560188293457,0.361155241727829,-0.030596839264035225,-0.14843162894248962,0.010211000218987465,-0.038472723215818405,-0.12245526164770126,0.013267185539007187,-0.1061301901936531,0.38962027430534363,-0.09145928919315338,0.19293372333049774,0.015190976671874523,-0.0681297555565834,-0.09035618603229523,-0.0036989597138017416,-0.08093519508838654,0.3273415267467499,-0.16692204773426056,-0.0467752069234848,-0.01529631670564413,0.0032646171748638153,0.12446455657482147,-0.007424663752317429,-0.3003019392490387,0.5873450636863708,-0.25685375928878784,0.6460044384002686,-0.042149778455495834,-0.21629062294960022,-0.9123281836509705,0.00644667400047183,0.07860277593135834,0.08044329285621643,0.057997290045022964,0.22154313325881958,-0.0013329836074262857,-0.05034985765814781,-0.1908041387796402,-0.0007454779115505517,-0.04612739384174347,0.004752825479954481,-0.025631006807088852,0.14740215241909027,-0.02222464792430401,-0.03859337791800499,-0.26181063055992126,0.003804560750722885,0.012384793721139431,0.14108730852603912,-0.20823076367378235,0.20701773464679718,-0.01895173266530037,0.06159917637705803,0.17878860235214233,-0.38349291682243347,0.18916434049606323,0.40744009613990784,0.131401926279068,0.059471141546964645,0.02093217894434929,-0.03916824236512184,-0.11165007203817368,-0.01995162107050419,-0.09394685178995132,-0.06000426039099693,-0.015167051926255226,-0.024245362728834152,-0.18754424154758453,0.13925442099571228,0.05813555419445038,0.027918828651309013,0.0051300982013344765,-0.026374636217951775,-0.2422427386045456,0.0396561436355114,0.05661393702030182,0.08897645026445389,0.058845799416303635,0.02048841305077076,-0.09214223176240921,-0.01537743303924799,0.000689501001033932,-0.0016933705192059278,-0.056148599833250046,-0.02356705069541931,-0.1283426135778427,-0.14629119634628296,-0.06389276683330536,-0.06838830560445786,-0.05651247128844261,0.034043941646814346,-0.1822991818189621,0.11461924761533737,0.07017162442207336,0.08207967132329941,0.022180430591106415,0.01718360185623169,-0.2600972056388855,-0.11834439635276794,-0.08367693424224854,-0.09563830494880676,-0.025638271123170853,-0.02827639691531658,0.07767464220523834,-0.002329363254830241,0.006438969634473324,-0.0014332717983052135,0.035012137144804,-0.03833138570189476,0.011248775757849216,-0.0804375484585762,-0.03140953183174133,-0.03769167885184288,-0.08201481401920319,-0.02405545301735401,-0.07958804816007614,0.020523956045508385,-0.08560002595186234,-0.08159139007329941,-0.05181768536567688,-0.03312937915325165,-0.007952960208058357,-0.03356385976076126,0.030772510915994644,0.04239899665117264,-0.05036906898021698,-0.0005274147843010724,0.0772259533405304,0.004606789909303188,-0.06546739488840103,0.008981267921626568,-0.0019595243502408266,-0.07696129381656647,-0.08910998702049255,0.027312031015753746,0.014616637490689754,0.02317875809967518,0.06393960118293762,-0.002857024548575282,0.18237851560115814,-0.02786245010793209,-0.0005668844096362591,-0.05207078903913498,0.0005805513937957585,-0.11238308995962143,0.05421401560306549,0.0049604009836912155,0.02319958806037903,0.033182889223098755,0.014466452412307262,0.0837637260556221,0.08524060249328613,-0.03510813042521477,-0.021107904613018036,-0.013072900474071503,-0.060196202248334885,-0.017793145030736923,0.042403433471918106,0.013177120126783848,0.008508116006851196,0.033669207245111465,0.0242777019739151,0.010741561651229858,0.03452855348587036,-0.031415704637765884,-0.008689471520483494,-0.014519264921545982,-0.011403577402234077,-0.011118531227111816,0.05720530450344086,-0.000949580455198884,0.004926594905555248,0.002115021226927638,0.00013377529103308916,0.015709223225712776,0.11148928105831146,-0.02893669158220291,-0.01064677070826292,-0.00177282327786088,0.0033455085940659046,0.006373418960720301,0.053124092519283295,0.05259164050221443,0.032613977789878845,0.022766822949051857,0.04927026480436325,0.042819928377866745,0.10582815855741501,-0.043609753251075745,-0.033754266798496246,-0.04202830791473389,-0.014240693300962448,-0.02005412057042122,0.00392722524702549,0.03770327940583229,0.03244653344154358,0.025714991614222527,0.020423760637640953,0.038197096437215805,0.031213171780109406,-0.023900078609585762,-0.021778814494609833,-0.014292393811047077,-0.00629630358889699,-0.000711956643499434,0.008556608110666275,0.011089824140071869,0.005416067782789469,0.002780564595013857,0.011892675422132015,0.018177032470703125,0.015245663933455944,-0.00322407647036016,-0.011511667631566525,-0.011436856351792812,-0.0036305044777691364,0.007506074849516153,0.01072581298649311,-0.011716125532984734,-0.010186652652919292,-0.009214132092893124,0.0013003507629036903,0.018950730562210083,0.02004138007760048,-0.0007599683594889939,-0.0007996485801413655,-0.003775133518502116,-0.002482459181919694,-0.0010136954952031374,0.020335644483566284,0.006517278961837292,0.01295654196292162,0.028874969109892845,0.03450426459312439,0.034626834094524384,0.06549229472875595,-0.013727891258895397,-0.013771343976259232,-0.017160143703222275,0.006761689204722643,-0.007576074451208115,-0.014453168958425522,0.011779159307479858,0.015171105973422527,0.01864958368241787,0.016110150143504143,0.017189692705869675,0.013166328892111778,-0.018654489889740944,-0.014605805277824402,-0.01350662112236023,-0.011749740689992905,0.0019026979571208358,0.0017872480675578117,0.039527714252471924,0.05343614146113396,0.04737948253750801,0.09646584093570709,0.10819506645202637,-0.00918820034712553,0.05006861686706543,-0.00016242617857642472,0.04495195671916008,0.030945677310228348,0.018163252621889114,-0.04351683706045151,0.03236088529229164,0.014825930818915367,0.0636892095208168,0.04141714423894882,0.003108488628640771,-0.039736486971378326,0.0230159480124712,0.006121754180639982,0.03636221960186958,0.02829839661717415,0.045104946941137314,-0.0010172202019020915,-0.04398048669099808,-0.04177595302462578,-0.013997144997119904,-0.05390756577253342,0.04513361677527428,-0.19120736420154572,0.004524746909737587,0.08437135070562363,-0.02311525121331215,0.05402684584259987,0.06000341847538948,-0.024190880358219147,0.0047743371687829494,-0.056942250579595566,-0.003054079134017229,-0.04840422421693802,-0.03570177033543587,-0.02739233709871769,0.05134418234229088,0.08008022606372833,0.06203532963991165,0.08664683997631073,0.11640909314155579,0.07784219831228256,-0.11729111522436142,-0.08061093837022781,-0.08766042441129684,-0.07002802938222885,-0.043480489403009415,0.08583944290876389,-0.031462423503398895,-0.05270501971244812,-0.02953248657286167,-0.0074216630309820175,-0.039752691984176636,0.13455674052238464,0.023727554827928543,0.06567917764186859,0.015425082296133041,0.051276661455631256,0.08855655044317245,0.26704493165016174,-0.07748022675514221,-0.08130919188261032,-0.05278311297297478,-0.09761843085289001,-0.11353640258312225,0.02984704077243805,0.06612670421600342,0.017987193539738655,0.0009699652437120676,-0.004380759783089161,-0.01948380097746849,-0.026392577216029167,0.008446058258414268,0.022487303242087364,0.0543244294822216,0.050018295645713806,0.030661270022392273,0.34025174379348755,-0.02043842524290085,-0.03552784025669098,-0.06134256720542908,-0.010245907120406628,-0.07114917039871216,-0.21540133655071259,0.001360053545795381,-0.027927448973059654,-0.016313832253217697,0.010518101043999195,0.0855538621544838,0.17468556761741638,-0.08608634769916534,-0.12615932524204254,-0.10992579162120819,-0.0955449789762497,-0.10843516886234283,-0.06230877712368965,-0.07219649851322174,0.03980192914605141,-0.03384903818368912,0.011308934539556503,0.07055105268955231,0.12142074853181839,0.06223004683852196,0.051005877554416656,0.10355434566736221,-0.0154933026060462,0.007806981448084116,0.20825639367103577,-0.09081101417541504,-0.04717181995511055,-0.09016020596027374,-0.05537572130560875,-0.06016506254673004,-0.09826096892356873,0.02097868174314499,-0.028789037838578224,-0.021564660593867302,-0.006599572021514177,0.0097268121317029,-0.14774489402770996,0.0484156534075737,0.061476949602365494,0.06389441341161728,0.10195831954479218,0.023097336292266846,0.32333725690841675,-0.08447139710187912,-0.021605418995022774,-0.07724709808826447,-0.06585856527090073,-0.1065109521150589,-0.2791757583618164,-0.05034786835312843,-0.07814513146877289,-0.05002941936254501,-0.05721117556095123,0.0385611355304718,0.12919418513774872,0.0840330496430397,0.0906994640827179,0.10936535149812698,0.11313652247190475,0.13754677772521973,0.41718152165412903,-0.04688918590545654,-0.03398330882191658,-0.03795352950692177,0.024630606174468994,0.02400243654847145,0.34977734088897705,-0.03546272590756416,-0.09220930188894272,-0.05096011981368065,-0.06346263736486435,-0.05391087383031845,0.1442755162715912,0.009107624180614948,0.01463851984590292,-0.026113707572221756,-0.017253467813134193,-0.015376503579318523,0.24555431306362152,0.009085621684789658,0.015981417149305344,0.01277158409357071,0.0016352481907233596,-0.009525470435619354,0.1641150861978531,-0.001175630372017622,0.028080178424715996,-0.0008960942504927516,-0.028618857264518738,-0.026011766865849495,0.08623457700014114,0.035355228930711746,-0.008638331666588783,0.009623470716178417,0.05141683667898178,0.01371279451996088,-0.0804709792137146,0.04563356935977936,0.030863534659147263,0.03583018109202385,0.04865013808012009,0.06550179421901703,0.40233156085014343,0.12300248444080353,0.04194936528801918,-0.04320429265499115,-0.01662001572549343,-0.036793678998947144,0.2404385209083557,0.18049418926239014,-0.1314508616924286,-0.024731818586587906,0.0022370838560163975,0.0034100704360753298,2.5831350285443477e-05,0.005781752523034811,0.02891596220433712,0.1530487984418869,0.04095789045095444,0.1344088613986969,-0.2660795748233795,-0.0421440526843071,-0.04396003857254982,0.20026929676532745,0.10965252667665482,0.275160014629364,0.32749974727630615,-0.25128376483917236,-0.03046540915966034,0.015847455710172653,0.0016395611455664039,0.08141741156578064,0.1526312232017517,0.29024288058280945,0.12032584846019745,-0.16053877770900726,-0.1571348011493683,0.04975112900137901,0.004339925944805145,0.1898389458656311,0.33805596828460693,0.3413935601711273,0.23111176490783691,-0.11075052618980408,0.006952470168471336,0.06068097800016403,0.005787889938801527,-0.01306795235723257,0.013927759602665901,-0.054918356239795685,0.08585210144519806,-0.18767386674880981,0.09332074224948883,0.11045102775096893,0.032393112778663635,-0.30265969038009644,0.07009449601173401,0.22094520926475525,0.34425920248031616,0.2335817962884903,0.03379859775304794,0.01596137136220932,0.008043743669986725,0.1411931961774826,-0.23345798254013062,-0.1165301576256752,0.14644265174865723,-0.15054993331432343,0.14206069707870483,-0.01743413880467415,-0.00559375062584877,-0.01162511296570301,0.11493051797151566,0.24569003283977509,-0.10852187126874924,0.045924749225378036,0.10978555679321289,0.1069340854883194,0.03916885703802109,-0.16362406313419342,-0.15090987086296082,0.054281193763017654,0.0648442804813385,-0.20074595510959625,0.06777216494083405,0.1457870900630951,0.2881588637828827,0.08816670626401901,0.013592065311968327,-0.039088308811187744,-0.05530242621898651,-0.08121805638074875,-0.09005921334028244,-0.07816855609416962,-0.08956923335790634,-0.028769245371222496,-0.09107834100723267,-0.022851742804050446,0.0017099305987358093,0.03716113418340683,-0.005889005959033966,-0.016686325892806053,-0.11599887162446976,0.07012186199426651,0.06404750794172287,0.03459582477807999,0.06612176448106766,0.01983541250228882,-0.06711114197969437,0.018646521493792534,0.01922517828643322,0.01358831487596035,-0.021321050822734833,-0.009292196482419968,-0.05266471207141876,-0.010240885429084301,-0.027131330221891403,-0.029155923053622246,-0.022188842296600342,0.02835003472864628,-0.09972888976335526,0.01147855818271637,0.016287129372358322,0.026662055402994156,0.017078783363103867,0.0038007746916264296,-0.23944462835788727,-0.027480224147439003,-0.03292497992515564,-0.051911354064941406,-0.034860413521528244,-0.014694752171635628,0.014244950376451015,-0.03243868425488472,-0.008998152799904346,-0.02172878198325634,-0.03176353499293327,-0.09161432832479477,-0.03218945115804672,0.01796906813979149,0.015579898841679096,0.017894703894853592,0.008349345065653324,-0.009182815439999104,0.025091953575611115,0.003402748377993703,-0.002925028558820486,0.001917739398777485,-0.006125785410404205,-0.01504245214164257,0.019083693623542786,-0.013280078768730164,-0.0162563007324934,-0.013327292166650295,-0.020727144554257393,-0.036731962114572525,0.008967227302491665,0.0006600539782084525,-0.00314714596606791,0.003281035926192999,-0.0014784375671297312,-0.012927625328302383,0.03618476912379265,0.0013696838868781924,0.011830602772533894,0.0030295751057565212,0.0062261479906737804,0.005573311820626259,0.01827242411673069,0.006931245792657137,-0.0038308349903672934,-0.0030722315423190594,-0.016820471733808517,-0.016377421095967293,-0.0031214840710163116,-0.0011617070995271206,-0.0014037791406735778,-0.0014580540591850877,0.0012462232261896133,0.014300812035799026,-0.005423818249255419,0.001514509436674416,0.0036830315366387367,0.0008669342496432364,0.00386315886862576,-0.012842153199017048,0.014826606959104538,0.12239021807909012,0.11597608774900436,0.13462938368320465,0.134479820728302,0.11775235831737518,0.23002587258815765,0.019469624385237694,0.00821781624108553,-0.018639924004673958,-0.05245690047740936,-0.04409042000770569,0.035703036934137344,-0.13462312519550323,-0.1443011462688446,-0.14243273437023163,-0.1390877068042755,-0.14190031588077545,-0.033829621970653534,0.037843070924282074,0.04340183734893799,0.028387324884533882,0.019811347126960754,0.037837207317352295,-0.012625929899513721,0.023225918412208557,0.024085136130452156,0.03741363435983658,0.05017533153295517,0.04415667802095413,-0.033872075378894806,-0.018834896385669708,0.015808729454874992,0.02484908327460289,0.04768003523349762,0.05910632014274597,0.08440849930047989,0.09705813974142075,0.062204815447330475,0.049485255032777786,0.02680218778550625,0.03034871630370617,-0.14196886122226715,0.06804624199867249,0.07030618190765381,0.06385441869497299,0.054638881236314774,0.04320291802287102,0.13643071055412292,-0.019941730424761772,-0.01569693349301815,-0.016620205715298653,0.04125130549073219,0.010789415799081326,0.06503627449274063,0.01320631243288517,0.019778616726398468,0.014457998797297478,0.025591641664505005,0.029619548469781876,-0.023947792127728462,0.023292435333132744,0.006695715244859457,0.006567956414073706,0.005244582425802946,0.014430602081120014,0.15989147126674652,-0.004266859497874975,-0.0026922321412712336,0.015214932151138783,0.007913264445960522,-0.021456459537148476,-0.003685182658955455,-0.004848375916481018,-0.010576071217656136,0.002246635966002941,-0.01162323821336031,-0.02479664422571659,0.06952659785747528,-0.016646604984998703,0.001072666491381824,-0.012390493415296078,-0.0012783475685864687,0.011482912115752697,-0.5435886979103088,-0.006456041242927313,-0.012843209318816662,-0.008553760126233101,-0.0028627049177885056,0.007749762386083603,0.20639881491661072,-0.024895673617720604,-0.0063660964369773865,-0.020656224340200424,-0.054286736994981766,-0.0234568752348423,-0.28740179538726807,0.0028799832798540592,0.003949299454689026,0.0029467616695910692,0.0032295368146151304,0.001740218955092132,0.0036916076205670834,0.0006970265530981123,0.0009169649565592408,0.00077842827886343,0.001221872167661786,0.00018385307339485735,0.0009663747041486204,-0.007061557378619909,-0.00680488022044301,-0.007036538794636726,-0.006957567762583494,-0.007226270157843828,-0.007675120607018471,0.005301278084516525,0.005740447901189327,0.005088208243250847,0.005186043679714203,0.005059177055954933,0.006764322053641081,0.0025473188143223524,0.002046100329607725,0.0007321320008486509,0.0018043641466647387,0.0015824232250452042,0.002875568578019738,-0.002071148483082652,-0.0002619589795358479,-0.00018963117327075452,0.0003583139623515308,0.0001878159528132528,-0.001420300337485969,0.0014126348542049527,-0.0017016143538057804,-0.0019392044050619006,-0.0020983119029551744,-0.0008057670784182847,-0.0011314256116747856,-0.002093512797728181,-0.0011025549611076713,-0.002885537687689066,-0.002543637529015541,-0.0033846180886030197,-0.0031841064337641,-0.02965153194963932,-0.014560637064278126,-0.036731842905282974,0.00457045529037714,-0.01493725087493658,0.2424061894416809,-0.004823364783078432,-0.00945255532860756,-0.042432695627212524,-0.04074222967028618,-0.03260890394449234,0.2717355191707611,0.034351740032434464,-0.00038651423528790474,0.016839269548654556,-0.001231217640452087,0.01865534484386444,0.1634247899055481,-0.013878028839826584,-0.029545225203037262,-0.031165167689323425,-0.014930631965398788,0.011431893333792686,0.32211557030677795,0.0007443957729265094,0.00889243371784687,0.012766350992023945,0.001785044209100306,0.03278996795415878,-0.021608978509902954,-0.04733511805534363,0.0025280870031565428,7.940950308693573e-05,-0.01791771873831749,-0.007320171222090721,0.16067923605442047,0.01927485689520836,0.0034671470057219267,0.02472887560725212,0.007557128556072712,-0.010226558893918991,-0.2368454486131668,-0.008795074187219143,-0.00016208869055844843,0.0008818164351396263,-0.003901517717167735,-0.016982384026050568,0.09179497510194778,0.035663336515426636,0.05457991361618042,0.03348968178033829,0.02100522257387638,0.05691689997911453,-0.2603549659252167,0.004030199721455574,-0.017567863687872887,0.004904904868453741,-0.02823270671069622,-0.024827808141708374,-0.4709080457687378,-0.025865836068987846,-0.02290380373597145,-0.030067913234233856,-0.039221204817295074,-0.027750546112656593,-0.444515198469162,-0.00842612236738205,0.003050245111808181,-0.0059773121029138565,-0.024942224845290184,-0.016050145030021667,-0.2840825319290161,0.009525691159069538,0.005756950005888939,0.009372499771416187,0.03427205979824066,0.007784485816955566,-0.18915946781635284,-0.007518956437706947,-0.005922860465943813,-0.013126478530466557,0.008534858003258705,0.009475159458816051,-0.3391387164592743,0.019341344013810158,0.043998077511787415,0.010721705853939056,0.0367082878947258,0.036698658019304276,0.12653371691703796,0.022403528913855553,0.022712823003530502,0.04742320254445076,0.06611202657222748,0.03995971754193306,0.03693992272019386,-0.0004303635214455426,0.0007531282608397305,0.0011460705427452922,0.001694376696832478,0.0024317277129739523,7.804292181390338e-06,0.001024372992105782,0.00236901524476707,0.0013212646590545774,0.001269556232728064,0.0016711866483092308,0.0014700106112286448,-0.007309644017368555,-0.005883712787181139,-0.006805654615163803,-0.006911418400704861,-0.006456468254327774,-0.007394700776785612,0.004564864560961723,0.005336113274097443,0.004609950352460146,0.004308016505092382,0.004240518901497126,0.004334894474595785,0.004584102425724268,0.0050885616801679134,0.003298921277746558,0.002248881384730339,0.0010626505827531219,0.004031428135931492,-0.001249205437488854,-0.0004558146756608039,-0.0015771766193211079,-0.001666510826908052,-0.0012956676073372364,0.0009291566093452275,0.0006669611902907491,0.0005451705073937774,9.403676085639745e-05,0.00026102812262251973,0.00043119664769619703,0.0015254790196195245,-0.0012452437076717615,-0.0012301367241889238,-0.0015030840877443552,-0.001391090452671051,-0.0012094439007341862,-0.0021916120313107967,0.10969531536102295,-0.022375741973519325,-0.5343313217163086,0.09701574593782425,-0.015432298183441162,-0.02076071687042713,-0.08689996600151062,-0.010460516437888145,-0.025490086525678635,0.0019121685763821006,0.021368004381656647,-0.13276901841163635,0.00014540922711603343,0.10721058398485184,-0.0813121348619461,0.0002494352520443499,-0.034925878047943115,0.022957993671298027,-0.051194947212934494,0.03957595303654671,-0.0016078086337074637,0.019723277539014816,-0.37501290440559387,9.607351967133582e-05,-0.12789855897426605,-0.005702164955437183,-0.5245146751403809,-0.07385606318712234,0.0021942260209470987,0.13625890016555786,0.11079461127519608,0.00013125763507559896,-0.05602717772126198,-0.0035249278880655766,-0.25720974802970886,-0.1799108237028122,0.0016621596878394485,-0.005757680628448725,-0.02423027902841568,-0.0001745151384966448,0.02868375927209854,0.004505170974880457,-0.30405086278915405,-0.17253020405769348,0.002081703394651413,0.187874436378479,-0.2601757347583771,-0.0001977676001843065,0.008991866372525692,0.014996113255620003,-0.29557421803474426,-0.3659602403640747,0.002711378037929535,0.22884388267993927,-0.3447737395763397,-0.0004440907505340874,0.012336316518485546,-0.018811209127306938,-0.338765412569046,-0.14849507808685303,0.003004515077918768,-0.08729825168848038,-0.2148159295320511,-0.0008637757855467498,-0.07258671522140503,0.021555013954639435,0.12904778122901917,0.06717254966497421,0.0002567416522651911,-0.007885078899562359,-0.14050737023353577,-0.00010109148570336401,-0.01857626810669899,-0.001102767768315971,-0.2896016240119934,-0.1893991231918335,0.0028366108890622854,0.024553783237934113,-0.04547269269824028,-0.00020949843747075647,-0.26287946105003357,-0.10826168954372406,0.021459009498357773,0.14534512162208557,0.051943693310022354,0.12721209228038788,-0.10184050351381302,-0.028316086158156395,0.1353231966495514,0.1425647735595703,0.15926304459571838,0.1446593552827835,0.13630148768424988,0.039444275200366974,-0.00045870637404732406,-0.0134168341755867,-0.014015598222613335,0.0035306308418512344,0.014076802879571915,-0.0014807741390541196,-0.1048477292060852,-0.10977061092853546,-0.09874795377254486,-0.07508822530508041,-0.056687131524086,-0.06850443035364151,-0.05879461020231247,-0.03466871753334999,-0.05370883643627167,-0.05456935241818428,-0.040222350507974625,-0.17117445170879364,0.028466721996665,0.019090401008725166,0.024922803044319153,0.00273051462136209,0.0028746924363076687,0.012803296558558941,-0.041961293667554855,-0.047417495399713516,-0.07840721309185028,-0.07227127999067307,-0.07755183428525925,-0.15974090993404388,0.04107688367366791,0.04150671884417534,0.04265771061182022,0.09224749356508255,0.09595078974962234,0.1439654529094696,0.11317334324121475,0.11930788308382034,0.12377838045358658,0.0908401608467102,0.10163872689008713,-0.003711481811478734,0.011310392990708351,0.013759373687207699,0.013159364461898804,0.024126064032316208,0.02363438718020916,0.16586264967918396,0.008998519740998745,0.006096536293625832,0.00655645877122879,0.007581537123769522,0.01886521838605404,0.09995996206998825,-0.00971284881234169,-0.01726767048239708,-0.016096923500299454,-0.010067000985145569,-0.004545652773231268,0.12930457293987274,-0.007788100745528936,-0.005271112080663443,-0.0022392496466636658,-0.014450819231569767,-0.00377529370598495,0.12505969405174255,0.0003989986435044557,0.0005702844355255365,-0.0015268082497641444,-0.0013083986705169082,-0.001102297566831112,0.15848559141159058,-0.006906382739543915,-0.002384489169344306,0.00011846973211504519,-0.009819033555686474,-0.033028434962034225,-0.009085752069950104,0.011285307817161083,0.011302610859274864,0.009465212933719158,0.018134841695427895,0.017783572897315025,-0.037301719188690186,0.006869142409414053,0.027358978986740112,0.024378100410103798,0.017649667337536812,0.021942948922514915,0.12543846666812897,-0.09536553174257278,-0.10614486783742905,-0.0406055822968483,-0.07319867610931396,-0.035374391824007034,-0.17919401824474335,-0.02503645047545433,-0.01067005842924118,-0.12297151237726212,-0.05632549896836281,0.0028483765199780464,0.08596117049455643,0.07630681246519089,-0.005103833042085171,0.09569768607616425,0.058491844683885574,-0.004188877996057272,0.11497116833925247,0.024393172934651375,-0.04303662106394768,-0.10166633129119873,-0.03999866545200348,-0.048499930649995804,-0.023549186065793037,0.007920517586171627,0.06346102803945541,0.07496403157711029,0.02198741026222706,0.03436541557312012,0.038856156170368195,-0.008054357953369617,0.007240158040076494,-0.053157988935709,0.03069324791431427,0.01703786291182041,0.10909897089004517,-0.026911040768027306,-0.1012037992477417,-0.016693059355020523,-0.026128271594643593,0.056562744081020355,-0.14048205316066742,-0.010188874788582325,0.02991197444498539,-0.0075641353614628315,-0.05650283396244049,-0.06299245357513428,0.04135659337043762,0.02455722540616989,0.0286299679428339,0.030574439093470573,0.052306097000837326,0.042260535061359406,0.0220501609146595,-0.006765743717551231,0.012449691072106361,0.025953680276870728,0.015138557180762291,0.006582717876881361,-0.0030055237002670765,-0.01093356590718031,-0.00047783463378436863,0.008542791940271854,0.009478568099439144,-0.001359816757030785,0.0014370663557201624,0.005004735663533211,-0.006760851945728064,-0.01200077123939991,0.004211778286844492,0.0034372122026979923,0.00820284802466631,0.01030739676207304,-0.010446591302752495,-0.021623175591230392,-0.01628674753010273,-0.03280562534928322,0.021967053413391113,0.0005160938599146903,-0.005804938264191151,-0.008970672264695168,0.012561379931867123,0.005537320859730244,0.0018273976165801287,-0.01391770038753748,-0.010496591217815876,-0.014541227370500565,-0.01022139098495245,-0.019082460552453995,0.007377326022833586,0.020453613251447678,0.013270762749016285,0.014428391121327877,0.012822865508496761,0.009616992436349392,0.013248199597001076,0.0035590215120464563,0.002729458035901189,0.003531859489157796,0.0030735512264072895,0.0030784804839640856,0.004536586347967386,-0.0012933574616909027,-0.0006549892132170498,0.0002631819515954703,-0.000740224786568433,-0.0012827581958845258,-0.0039232890121638775,-0.00246488768607378,-0.0022930498234927654,-0.0018953857943415642,-0.002293254481628537,-0.0030302652157843113,-0.005731247365474701,0.0014762978535145521,0.00013312559167388827,0.0007124411640688777,0.0008474602946080267,0.0009696597116999328,0.001809010631404817,0.00016221428813878447,-0.0007025492377579212,-0.00041261877049691975,-0.00019095183233730495,0.0003425984759815037,0.0006836287793703377,-0.0006142586353234947,-0.00019715697271749377,3.2257437851512805e-05,0.0002560483990237117,0.0007530712755396962,-0.0015292767202481627,-0.00031717424280941486,0.001389021403156221,0.001593705266714096,0.0012558550806716084,0.0014466282445937395,0.0018659309716895223,0.00021208562247920781,-0.0014777749311178923,-0.0017215698026120663,-0.001228392357006669,-0.0014625746989622712,-0.0016282451106235385,0.10211724787950516,0.10192195326089859,0.10413649678230286,0.10750708729028702,0.10236993432044983,0.16481757164001465,-0.02928435616195202,-0.033942099660634995,-0.02375207468867302,-0.03645660728216171,-0.04096852242946625,0.02234485372900963,-0.07084348797798157,-0.07312843948602676,-0.07694234699010849,-0.08649373799562454,-0.07206858694553375,-0.0017432726453989744,-0.0164791326969862,-0.01760968193411827,-0.016982583329081535,0.013447216711938381,-0.019461173564195633,-0.00613699434325099,0.017744164913892746,0.017383240163326263,0.016420133411884308,0.006987274624407291,0.018124770373106003,0.005213276483118534,-0.03720361366868019,-0.02865390107035637,-0.03527318313717842,-0.018797526136040688,-0.026786983013153076,0.0056083486415445805,0.020135222002863884,0.039442721754312515,0.03347767889499664,0.04130498319864273,0.03216763958334923,0.009100261144340038,0.0818605124950409,0.0733388215303421,0.07531826943159103,0.0605531707406044,0.061862193048000336,0.058748405426740646,0.06800312548875809,0.08577350527048111,0.1081487163901329,0.10221187025308609,0.10972201079130173,0.08916725963354111,0.031746845692396164,-0.001455926918424666,-0.0009625382954254746,0.01642400026321411,0.020226899534463882,0.03122325800359249,-0.03926124423742294,-0.06003847345709801,-0.07360181212425232,-0.03860113397240639,-0.042819347232580185,-0.030800584703683853,-0.07954628765583038,-0.03339040279388428,-0.03135763108730316,-0.04869145527482033,-0.05351175740361214,-0.11705643683671951,0.00628708628937602,0.013490383513271809,0.01596309430897236,-0.0017897534416988492,-0.0274017546325922,-0.08239419758319855,-0.05777781456708908,-0.031165214255452156,-0.055740173906087875,-0.05074378848075867,-0.05795569345355034,-0.08016876131296158,0.019629977643489838,0.025738773867487907,0.02447781339287758,0.04831553250551224,0.055946167558431625,0.116328164935112,0.0871545821428299,0.07772130519151688,0.06520862877368927,0.05448952317237854,0.06119362637400627,0.024680009111762047,-0.06863344460725784,-0.12926307320594788,-0.14150835573673248,-0.08018993586301804,-0.02966277487576008,0.15202806890010834,0.002496493048965931,-0.09258190542459488,-0.15108558535575867,-0.11184858530759811,-0.0524982288479805,0.13283538818359375,-0.048367805778980255,-0.13207271695137024,-0.18711283802986145,-0.057008981704711914,-0.0594472736120224,0.09627266973257065,-0.022974859923124313,-0.1042264997959137,-0.13090765476226807,-0.028112761676311493,-0.04862792417407036,0.07915952801704407,-0.0007807042566128075,0.010574070736765862,0.039662305265665054,0.023576660081744194,-0.0026377527974545956,0.1163739487528801,0.002640030113980174,-0.07392071932554245,-0.06887267529964447,-0.030506033450365067,-0.03519103303551674,0.06438910961151123,0.022413909435272217,0.05056082829833031,0.05089963972568512,0.023575320839881897,0.03572731837630272,-0.00010620356624713168,-0.0430239737033844,-0.03964412212371826,0.045086570084095,-0.001075670588761568,0.052291423082351685,0.00978702213615179,-0.29720985889434814,-0.0478619784116745,0.20260004699230194,-0.02202386036515236,-0.005178913474082947,-0.17055170238018036,-0.16792315244674683,-0.004310131538659334,-0.01270939689129591,0.015757272019982338,0.04463737830519676,0.00043030030792579055,-0.00018690717115532607,0.017234722152352333,-0.005076637491583824,-0.0033346291165798903,0.37830856442451477,0.048749156296253204,0.24644184112548828,-0.013960395939648151,-3.9839484088588506e-05,-0.08044455200433731,0.22724886238574982,-0.012257097288966179,0.32653355598449707,0.11021637916564941,0.16820727288722992,0.0013629390159621835,-0.00023568920732941478,-0.29352548718452454,0.14452041685581207,0.1290132850408554,0.16664691269397736,-0.03619842603802681,-0.2243248075246811,0.020730245858430862,-3.2245541660813615e-05,-0.1453900784254074,0.11566265672445297,-0.16659533977508545,0.2280247062444687,0.07182463258504868,0.009233135730028152,-0.0586671344935894,0.0001636672532185912,-0.19649624824523926,0.09699878841638565,-0.03332864120602608,0.23394662141799927,0.1895308792591095,0.011025754734873772,-0.025507749989628792,8.529016486136243e-05,-0.15257050096988678,0.049043189734220505,0.005902414210140705,0.12741734087467194,-0.04219004511833191,-0.13796226680278778,-0.04075409099459648,0.0002479928079992533,-0.21934466063976288,0.07532276958227158,-0.15761591494083405,0.07588647305965424,0.05232005566358566,0.146723672747612,-0.045223869383335114,0.0002666515647433698,0.06471049040555954,0.05606738477945328,-0.1195165365934372,-0.0012986117508262396,-0.08726145327091217,0.20637698471546173,-0.028646236285567284,2.3281685571419075e-05,-0.177045077085495,-0.04394072666764259,0.09193392843008041,0.22286631166934967,0.011945618316531181,-0.007578015327453613,0.01271110214293003,-0.06026202067732811,-0.027005469426512718,-0.022179700434207916,0.19330593943595886,0.09413310140371323,-0.02739809639751911,-0.2094348818063736,0.048662006855010986,0.2319221794605255,-0.11656315624713898,0.07766633480787277,-0.053457111120224,-0.11226040869951248,0.1101275309920311,0.24969488382339478,-0.08406920731067657,-0.07308810949325562,-0.0060021840035915375,-0.11199082434177399,0.028275996446609497,0.19626379013061523,-0.18448208272457123,0.016607090830802917,-0.0046105217188596725,-0.07696542143821716,0.0172586590051651,0.17293904721736908,-0.09192493557929993,-0.0022746138274669647,0.0109853595495224,0.12968343496322632,0.05055535212159157,-0.023153329268097878,-0.14793099462985992,0.018574101850390434,0.02029368095099926,-0.11147571355104446,-0.0009857409168034792,0.07617131620645523,-0.049816764891147614,-0.03656070679426193,0.00686956150457263,0.06672586500644684,-0.01364829484373331,-0.04978086054325104,-0.032827042043209076,0.060455914586782455,-0.014032132923603058,0.015979548916220665,0.10589458048343658,0.07497847825288773,-0.020280471071600914,0.0018692337907850742,0.0036693448200821877,0.003992765676230192,0.0024419839028269053,0.0051013692282140255,0.0024358946830034256,-0.006810614373534918,-0.004463370889425278,-0.004104252438992262,-0.004980684258043766,-0.004494986962527037,-0.003797721117734909,-0.006476870737969875,-0.005077926907688379,-0.004731510300189257,-0.0060547287575900555,-0.004919908475130796,-0.0042841010726988316,0.001418715575709939,0.0012865965254604816,0.0012665936956182122,0.0012057095300406218,0.0010359507286921144,0.00019179971423000097,0.003919237293303013,0.0008838646463118494,0.003414776874706149,0.00414856243878603,0.00017814298917073756,0.0020465580746531487,0.003940308466553688,0.0030015732627362013,0.0004057637706864625,0.001715830760076642,0.00209824088960886,0.0009550872491672635,0.005911569576710463,0.004664937034249306,0.0023487654980272055,0.004791056737303734,0.002157277660444379,0.005369786638766527,-0.003050894709303975,-0.0036630008835345507,-0.0012562813935801387,-0.002986074425280094,-0.003166251117363572,-0.0040304879657924175,-0.0004568158183246851,0.010695869103074074,-0.0009093608823604882,-0.01110265776515007,-0.01255676057189703,0.02946455590426922,-0.018198799341917038,-0.015304332599043846,-0.03045136295258999,-0.02838747389614582,-0.027988923713564873,-0.021212022751569748,0.0012309722369536757,0.004066595807671547,-0.004504810087382793,0.00027112351381219923,-0.019695300608873367,-0.011704502627253532,0.003365050535649061,0.007760555017739534,0.011660058982670307,0.012720488011837006,-0.002070406684651971,0.01398099958896637,0.008424337953329086,-0.005520431790500879,0.010459581390023232,0.010589984245598316,0.021992791444063187,0.025808114558458328,0.01730707287788391,0.020862072706222534,0.027329083532094955,0.018791640177369118,0.0069719296880066395,0.028361909091472626,0.0027461729478091,0.0043486724607646465,0.011605051346123219,0.01938309334218502,-0.0003605996025726199,0.004662232007831335,-0.013234182260930538,-0.015128308907151222,-0.01674799993634224,-0.025183960795402527,-0.009963742457330227,0.004149358253926039,-0.01127026230096817,-0.001047330442816019,-0.0059955851174890995,-0.0006725906860083342,0.004891335032880306,0.01203035656362772,-0.00019406178034842014,-0.0007351652602665126,0.002813942264765501,0.010054883547127247,0.002299640327692032,0.01461094617843628,0.0016968419076874852,-0.0017576153622940183,0.0022463444620370865,-0.0019742436707019806,0.0036350039299577475,0.015093122608959675,0.0004947757115587592,0.004235940519720316,0.0033345124684274197,0.0031655647326260805,0.0031787012703716755,0.023528289049863815,0.0007045101374387741,-3.569859836716205e-05,0.0008653051918372512,0.004045726265758276,0.00166515342425555,0.013362963683903217,-0.004174145869910717,0.0014733781572431326,-0.014751222915947437,-0.014600521884858608,0.0025822960305958986,0.027994045987725258,-0.004157315474003553,-0.008454494178295135,-0.015856292098760605,-0.02527543343603611,-0.013390373438596725,9.349978063255548e-05,0.006691137794405222,0.005735046695917845,0.007961011491715908,0.014936408028006554,0.013161974959075451,0.013107523322105408,-0.029636243358254433,-0.07006717473268509,-0.05663009732961655,0.007123442832380533,-0.014670278877019882,-0.035753440111875534,-0.01313483901321888,0.019147995859384537,0.011714636348187923,0.02319323644042015,0.11560621112585068,0.007872682064771652,0.04538712650537491,0.034778423607349396,0.028852036222815514,-0.03877907991409302,0.04026953503489494,0.01151171326637268,0.0372026264667511,0.03601239249110222,0.01592227816581726,0.021212294697761536,0.015208075754344463,-0.029021838679909706,-0.029259810224175453,-0.021202117204666138,-0.015192519873380661,0.001910806866362691,-0.09774480015039444,-0.09628218412399292,-0.02812313288450241,-0.01461721956729889,-0.0005317774484865367,-0.04256429523229599,0.11236727982759476,-0.2829609513282776,0.010827947407960892,-0.01725233532488346,-0.0830424502491951,-0.09552004933357239,-0.0026595022063702345,-0.0244247205555439,0.05173720791935921,0.0659632757306099,0.10009054094552994,0.11476264148950577,0.0009835321689024568,0.12330777198076248,0.0029389390256255865,-0.0009692980675026774,-0.00042963496525771916,0.001196002122014761,0.0002333863958483562,0.0021939435973763466,-0.0037219638470560312,-0.006646838504821062,-0.006226254161447287,-0.005191359668970108,-0.006406537257134914,-0.004804926924407482,-0.0026269634254276752,-0.00402603717520833,-0.0038554093334823847,-0.0033962316811084747,-0.004310266114771366,-0.002913579810410738,0.005029876716434956,0.0022381895687431097,0.0030302205123007298,0.0033979618456214666,0.0005419958033598959,0.0046150414273142815,0.0004142523685004562,0.0007491228170692921,0.0020627016201615334,0.002353259362280369,-0.0005003761616535485,0.001104782335460186,0.005621207877993584,0.0058271754533052444,0.005529334302991629,0.005831759888678789,0.0022509880363941193,0.007324084639549255,0.004588055424392223,0.011080206371843815,0.010312134400010109,0.00961183663457632,0.007178858388215303,0.006495142821222544,-0.007890189997851849,-0.010073027573525906,-0.00789644755423069,-0.007154339458793402,-0.00783473625779152,-0.006451117806136608,0.03327209874987602,0.034087155014276505,0.03319185599684715,0.03256769850850105,0.025147560983896255,-0.1446514129638672,0.005234792362898588,0.004827864468097687,0.0023859478533267975,-0.007414764724671841,-0.009837113320827484,-0.12111714482307434,-0.014328543096780777,-0.020799292251467705,-0.02142883837223053,-0.018801486119627953,-0.016042478382587433,-0.15376096963882446,