{"version":"0.7.0","architecture":"SlimmableContainer","config":{"submodels":[{"max_value":0.5,"model":{"version":"0.7.0","metadata":{"date":{"year":2026,"month":5,"day":8,"hour":8,"minute":14,"second":26},"loudness":-17.72639274597168,"gain":0.15141619533240744},"architecture":"WaveNet","config":{"layers":[{"input_size":1,"condition_size":1,"head":{"out_channels":1,"kernel_size":16,"bias":true},"channels":3,"kernel_sizes":[6,6,6,6,6,6,6,6,6,6,6,6,6,6,15,15,6,6,6,6,6,6,6],"dilations":[1,3,7,17,41,101,239,1,3,7,17,41,101,239,1,13,1,3,7,17,41,101,239],"activation":[{"type":"LeakyReLU","negative_slope":0.01},{"type":"LeakyReLU","negative_slope":0.01},{"type":"LeakyReLU","negative_slope":0.01},{"type":"LeakyReLU","negative_slope":0.01},{"type":"LeakyReLU","negative_slope":0.01},{"type":"LeakyReLU","negative_slope":0.01},{"type":"LeakyReLU","negative_slope":0.01},{"type":"LeakyReLU","negative_slope":0.01},{"type":"LeakyReLU","negative_slope":0.01},{"type":"LeakyReLU","negative_slope":0.01},{"type":"LeakyReLU","negative_slope":0.01},{"type":"LeakyReLU","negative_slope":0.01},{"type":"LeakyReLU","negative_slope":0.01},{"type":"LeakyReLU","negative_slope":0.01},{"type":"LeakyReLU","negative_slope":0.01},{"type":"LeakyReLU","negative_slope":0.01},{"type":"LeakyReLU","negative_slope":0.01},{"type":"LeakyReLU","negative_slope":0.01},{"type":"LeakyReLU","negative_slope":0.01},{"type":"LeakyReLU","negative_slope":0.01},{"type":"LeakyReLU","negative_slope":0.01},{"type":"LeakyReLU","negative_slope":0.01},{"type":"LeakyReLU","negative_slope":0.01}],"bottleneck":3,"head1x1":{"active":false,"out_channels":1,"groups":1},"layer1x1":{"active":true,"groups":1},"groups_input":1,"groups_input_mixin":1,"conv_pre_film":{"active":false,"shift":true,"groups":1},"conv_post_film":{"active":false,"shift":true,"groups":1},"input_mixin_pre_film":{"active":false,"shift":true,"groups":1},"input_mixin_post_film":{"active":false,"shift":true,"groups":1},"activation_pre_film":{"active":false,"shift":true,"groups":1},"activation_post_film":{"active":false,"shift":true,"groups":1},"layer1x1_post_film":{"active":false,"shift":true,"groups":1},"head1x1_post_film":{"active":false,"shift":true,"groups":1},"gating_mode":["none","none","none","none","none","none","none","none","none","none","none","none","none","none","none","none","none","none","none","none","none","none","none"],"secondary_activation":[null,null,null,null,null,null,null,null,null,null,null,null,null,null,null,null,null,null,null,null,null,null,null],"slimmable":null}],"head":null,"head_scale":0.008819754263043633},"weights":[2.933455228805542,2.5448431968688965,2.961510181427002,0.07823553681373596,0.03631412610411644,0.004422931000590324,0.23016364872455597,-0.31987956166267395,0.2533622682094574,0.0900581106543541,0.03763381764292717,0.08675645291805267,0.11770597845315933,-0.19843125343322754,0.23431384563446045,0.01054386980831623,-0.05600098893046379,0.19324293732643127,0.23195312917232513,-0.2275814712047577,0.17570295929908752,-0.01070256158709526,0.019466325640678406,0.05308149755001068,0.07290361076593399,0.07819000631570816,0.0679405927658081,-0.011475094594061375,0.018346134573221207,0.051925137639045715,0.07148142158985138,0.07705142349004745,0.06714194267988205,-0.010700958780944347,0.019447874277830124,0.05319686979055405,0.07276681065559387,0.07831551134586334,0.06798719614744186,0.6775825619697571,0.5246056318283081,0.2108989804983139,-0.4057570993900299,-0.7246851921081543,-0.6828255653381348,0.5944291353225708,0.4528422951698303,0.0630333349108696,-0.18655972182750702,-0.433991938829422,-0.635708212852478,0.8051767349243164,0.4932786822319031,0.14140023291110992,-0.18537254631519318,-0.6880942583084106,-0.5784807801246643,-0.49889299273490906,-0.08125504851341248,1.5060995817184448,0.42092472314834595,0.05608474463224411,-0.9202298521995544,0.0030818895902484655,-0.004859016276896,-0.51637202501297,-0.9992128014564514,0.011102915741503239,-0.8129092454910278,-0.14170955121517181,0.12330564856529236,-0.592549741268158,-0.8554797172546387,0.12540742754936218,0.6297205686569214,-0.15361882746219635,-0.21899151802062988,0.11116937547922134,-0.10182736814022064,0.11963695287704468,-0.15081483125686646,-0.10678596049547195,-0.0662631168961525,0.03874402493238449,-0.2326580137014389,-0.16030855476856232,-0.1464991420507431,0.25589826703071594,0.1479710340499878,0.2653105556964874,-0.00269298255443573,0.21924541890621185,0.9162106513977051,-0.002257239306345582,0.019489150494337082,-0.24357172846794128,-0.13295038044452667,-0.25542253255844116,0.035543374717235565,-0.03478608280420303,-0.09688582271337509,-0.08462453633546829,0.002260377164930105,-0.18998342752456665,0.26426348090171814,0.019114531576633453,0.026437656953930855,-0.17844022810459137,0.10492129623889923,-0.1331636756658554,0.54571932554245,-0.017126524820923805,0.03275744616985321,0.10570669174194336,0.02625076100230217,0.027652651071548462,-0.032763224095106125,-0.20859847962856293,-0.2063559889793396,0.03119031712412834,-0.05335607752203941,-0.18838602304458618,-0.20637476444244385,-0.1949472427368164,-0.21353043615818024,0.25813519954681396,0.10470985621213913,0.0297752283513546,-0.1529342383146286,0.316741019487381,0.18831247091293335,-0.11254207044839859,1.7794804573059082,1.5471075773239136,0.011805914342403412,0.6346156001091003,0.8082578182220459,0.41532987356185913,-0.0982545018196106,0.3422951400279999,0.15108834207057953,0.6381081342697144,0.15686315298080444,-0.27356380224227905,-0.32337403297424316,0.4324789345264435,-0.4735100269317627,-0.09914211928844452,-0.16048644483089447,-0.21053220331668854,-0.20725929737091064,-0.16756421327590942,0.37191006541252136,0.022149749100208282,0.04220016300678253,0.1315031349658966,0.039033193141222,0.14488336443901062,0.010027728974819183,0.04153214395046234,0.07647866755723953,0.0336880162358284,0.21317164599895477,0.14292669296264648,0.34205418825149536,0.12021651118993759,0.07627363502979279,0.14156600832939148,0.20570574700832367,0.24873027205467224,-0.05895610898733139,0.06825055927038193,-0.0986071228981018,-0.044101014733314514,0.1598757952451706,-0.14363686740398407,-0.00944280531257391,-0.17699311673641205,0.029988687485456467,-0.08317352086305618,-0.08712083101272583,-0.25991126894950867,-0.07106868922710419,-0.03408726304769516,0.020212627947330475,-0.037193115800619125,0.11924684792757034,-0.08666035532951355,-0.046158500015735626,-0.03423763066530228,0.04453631117939949,0.019868286326527596,0.10850236564874649,0.1801339089870453,0.1787857711315155,0.029428929090499878,0.006388532463461161,0.0725645199418068,-0.17579308152198792,-0.36031773686408997,0.08665018528699875,-0.1336846947669983,0.005611639004200697,0.5176820755004883,0.31256812810897827,-0.02131251059472561,1.1086982488632202,0.04910144582390785,0.47853192687034607,0.29859957098960876,0.07202349603176117,0.022525770589709282,0.2565039098262787,0.4684704840183258,-0.1623249650001526,0.5022209286689758,-0.7733982801437378,-0.07415135204792023,0.21886704862117767,-0.07163668423891068,-0.10964738577604294,-0.019171610474586487,-0.1423698514699936,-0.1329614669084549,-0.28157442808151245,0.05432372912764549,0.00388776115141809,0.060597069561481476,0.02454020455479622,0.062179435044527054,0.22165700793266296,-0.00965691078454256,-0.024456685408949852,-0.07774367183446884,0.06409335136413574,0.06012652441859245,0.35180383920669556,-0.12150506675243378,-0.13961374759674072,-0.2747293710708618,-0.15376831591129303,-0.20521940290927887,-0.20526859164237976,0.1466052234172821,0.16247548162937164,0.11502592265605927,0.14457182586193085,0.11387182027101517,0.09906855970621109,0.01997106894850731,0.0826951265335083,0.18937313556671143,0.057055242359638214,0.1191754937171936,0.45636966824531555,-0.11906532943248749,-0.16953007876873016,-0.2250983566045761,-0.21405991911888123,-0.24000956118106842,-0.07651474326848984,0.07819077372550964,0.031998127698898315,0.14109885692596436,0.20822134613990784,0.14649008214473724,-0.11490552127361298,0.04876291751861572,0.12096835672855377,0.09488338977098465,0.06187437102198601,0.05505850538611412,-0.07424139976501465,0.23427636921405792,0.0868380069732666,0.12419650703668594,0.6636736989021301,1.064780831336975,-0.974586009979248,0.3670327365398407,0.2412184625864029,-0.35395026206970215,0.4598144292831421,0.3003620505332947,-0.22333461046218872,0.12214037030935287,0.4919869303703308,-0.5477252006530762,-0.6466418504714966,-0.05635158345103264,-0.1937519758939743,0.06404391676187515,0.10508283972740173,0.11109127104282379,0.08536238968372345,0.18843914568424225,0.4940566420555115,-0.035778068006038666,-0.10954298824071884,-0.06633135676383972,0.0008485097787342966,-0.17829696834087372,-0.543016791343689,-0.02557816542685032,-0.017663445323705673,-0.029472913593053818,-0.06824188679456711,-0.040721595287323,0.15455879271030426,0.1867009401321411,0.23358401656150818,0.26729053258895874,0.3051821291446686,0.4019666612148285,0.9280972480773926,-0.19768474996089935,-0.2053348273038864,-0.18221507966518402,-0.16227281093597412,-0.3273302912712097,-0.15646237134933472,-0.028805911540985107,-0.061367668211460114,-0.11090382933616638,-0.14886753261089325,-0.12073509395122528,0.10303156822919846,0.01117080170661211,-0.02878199890255928,-0.028490908443927765,-0.04326571524143219,-0.09941434115171432,-0.18480941653251648,0.010273377411067486,-0.027606867253780365,0.01936427876353264,-0.02518177591264248,-0.02632896602153778,0.09560246765613556,-0.011756433174014091,0.0435231514275074,0.06650775671005249,0.08331917971372604,0.0713433101773262,-0.02772972173988819,-0.3683497905731201,-0.4050557613372803,0.23773746192455292,0.31250864267349243,0.21248118579387665,-0.7175104022026062,-0.7820590734481812,-0.9234381318092346,-0.2349608987569809,-0.2549995481967926,1.0972263813018799,-0.4455326795578003,-0.6775832176208496,0.17742861807346344,-0.21138373017311096,0.4257216155529022,-0.3583848774433136,-0.089937724173069,-0.07953564822673798,-0.0679728165268898,0.04378383234143257,0.0031344201415777206,-0.02533779852092266,0.2398890256881714,-0.11754512041807175,-0.036261092871427536,-0.007222897373139858,-0.01693967543542385,-0.04945505037903786,-0.02063763327896595,0.17462961375713348,0.05720026418566704,-0.011441395618021488,0.057196244597435,0.05204709619283676,-0.1182066798210144,-0.008910059928894043,-0.014197456650435925,-0.01684059575200081,0.0037482203915715218,-0.023017777130007744,0.40606921911239624,0.004817106295377016,0.006475075613707304,0.019011734053492546,0.013564934954047203,0.015765611082315445,0.06948006898164749,0.0018151955446228385,0.0033157565630972385,-0.004016891587525606,-0.011017298325896263,0.0020554682705551386,-0.2391945868730545,-0.06408131122589111,-0.009476229548454285,-0.03327874466776848,0.0266586747020483,-0.027246754616498947,0.0976531133055687,-0.09459670633077621,-0.000789864978287369,-0.09328092634677887,-0.011630813591182232,-0.08550979197025299,-0.03940078616142273,0.08377811312675476,-0.06489403545856476,0.06118523329496384,-0.04485182836651802,0.08570099622011185,0.05269094556570053,0.36411377787590027,0.1505109965801239,0.44848787784576416,-0.34199872612953186,-0.743786096572876,0.3759399652481079,-0.21353323757648468,-0.6577849388122559,0.1760191172361374,-0.48811161518096924,-0.6442943215370178,-0.22869977355003357,0.131311297416687,-0.3083416819572449,0.38397619128227234,0.325315922498703,0.29138290882110596,0.25303077697753906,-0.13353151082992554,0.005009850952774286,0.02412862703204155,0.04622908681631088,0.06543038040399551,0.11988870799541473,-0.23637275397777557,-0.0167315024882555,0.0006645437097176909,-0.01040850579738617,0.022811880335211754,0.011022963561117649,0.20378175377845764,-0.01156262680888176,-0.05116559937596321,-0.04986230283975601,-0.029947947710752487,-0.042602747678756714,-0.12332956492900848,-0.07273384928703308,0.06516395509243011,-0.07303935289382935,-0.10923116654157639,-0.12601357698440552,-0.09986881911754608,-0.06213714927434921,0.05939099192619324,-0.045354947447776794,-0.07747844606637955,0.0917467251420021,0.10655933618545532,0.07219774276018143,-0.06412273645401001,0.08928060531616211,0.10155431181192398,0.21926236152648926,0.008685552515089512,0.02893504686653614,0.05158070847392082,0.029715251177549362,0.026134071871638298,0.5111691355705261,-0.009950058534741402,0.011749784462153912,0.03544812276959419,0.010387086309492588,0.0012242270167917013,-0.3332419693470001,-0.008392291143536568,-0.03232411667704582,-0.0527728796005249,-0.026665903627872467,-0.016713324934244156,-0.3735612630844116,0.26104891300201416,0.4608302712440491,-0.7525213360786438,0.3213824927806854,0.6342034339904785,0.01605231687426567,0.020010005682706833,0.3688434362411499,0.9424981474876404,-0.24901288747787476,0.4331416189670563,0.565173327922821,0.3410619795322418,0.06524009257555008,0.6854022145271301,-0.3116099536418915,0.02769617922604084,-0.6055188775062561,0.012249229475855827,-0.027707116678357124,0.05918535217642784,0.04391753673553467,-0.27869078516960144,-0.06030426546931267,-0.04818934574723244,-0.06738154590129852,0.10796191543340683,-0.002249534707516432,-0.2510794699192047,-0.019871437922120094,0.04585046321153641,-0.13906092941761017,0.09985116869211197,-0.09184855222702026,-0.3102267384529114,-0.049990952014923096,0.0979047492146492,0.04347628727555275,0.0616469644010067,0.15819936990737915,0.3013133406639099,-0.009866313077509403,-0.4267488121986389,-0.04178984463214874,0.08834519237279892,0.18261854350566864,0.10920526832342148,-0.19785012304782867,-0.10784804075956345,-0.06466396152973175,0.15139470994472504,0.33446255326271057,0.34134766459465027,-0.10775291919708252,-0.21160119771957397,-0.5025419592857361,-0.365857869386673,-0.2748919129371643,0.16803166270256042,0.11634905636310577,0.10533574968576431,0.20122642815113068,0.031146638095378876,-0.1045672670006752,0.17010529339313507,0.016928741708397865,-0.15516145527362823,-0.2003452479839325,-0.2536483407020569,-0.22420211136341095,0.2071848213672638,0.23457883298397064,0.377240926027298,-0.13452772796154022,-0.016891801729798317,-0.3659457862377167,0.20375540852546692,-0.1325417160987854,-0.17791526019573212,0.2994008958339691,1.0058733224868774,0.18546320497989655,-0.28822967410087585,-0.4441435933113098,-0.509535551071167,0.5049956440925598,-0.31350651383399963,0.23965030908584595,0.2132701426744461,-0.4261152148246765,0.11844358593225479,0.10901195555925369,0.042427871376276016,0.019216351211071014,0.020461108535528183,0.12397511303424835,-0.15111227333545685,0.01822921261191368,0.10837148129940033,0.3151783347129822,-0.023277418687939644,-0.38792428374290466,-0.11442901194095612,-0.005373256281018257,-0.12954598665237427,-0.012302149087190628,0.08577798306941986,-0.13289064168930054,0.02817741222679615,0.26833802461624146,0.12236291170120239,-0.3661172389984131,0.13520725071430206,0.47687995433807373,-0.0654304176568985,0.09869344532489777,-0.13834306597709656,-0.035881128162145615,-0.17321333289146423,0.02261977456510067,0.06632523238658905,0.10909606516361237,0.21312563121318817,0.13765811920166016,-0.32277563214302063,-0.019559241831302643,0.203611820936203,0.32912227511405945,0.34101438522338867,0.08209755271673203,0.07530847936868668,-0.20714841783046722,-0.17572523653507233,-0.09778989851474762,-0.34568870067596436,-0.715903639793396,-0.2113330364227295,0.2805290222167969,-0.021921275183558464,-0.26749685406684875,-0.1218506246805191,-0.12016791105270386,-0.23611250519752502,0.2941941022872925,0.3775063753128052,0.0734173059463501,0.07049663364887238,-0.5609146356582642,0.019010460004210472,-0.12496853619813919,-0.5796431303024292,0.6233766674995422,0.6154941916465759,-0.15469485521316528,-0.1947653442621231,-0.4123956561088562,-0.20006556808948517,-0.2829705774784088,-0.27048400044441223,0.43388086557388306,-0.2810885012149811,0.15109063684940338,-0.02237173542380333,-0.017205018550157547,0.03223620727658272,0.06547171622514725,0.14984913170337677,0.15839388966560364,-0.10361135005950928,-0.030435163527727127,-0.009297800250351429,-0.03271326422691345,-0.10729489475488663,-0.20951728522777557,0.038083456456661224,0.01468823291361332,0.14775924384593964,0.140414297580719,0.042077869176864624,0.18558566272258759,0.1930350959300995,0.05732104554772377,-0.01245091576129198,0.17859084904193878,0.04074965789914131,0.274165540933609,-0.13045014441013336,-0.1143551915884018,-0.07256333529949188,0.0032390912529081106,0.07761333137750626,-0.4212091267108917,-0.0865468829870224,0.022166868671774864,-0.1662416309118271,0.3339479863643646,0.0849146619439125,0.03376297652721405,0.24734719097614288,0.29260000586509705,0.2888396680355072,0.07504457980394363,0.1262081414461136,0.019210053607821465,0.0031203883700072765,-0.026727890595793724,-0.14099237322807312,-0.28393393754959106,-0.12197995185852051,0.3374755084514618,0.07038102298974991,-0.03856455534696579,0.3239646553993225,-0.3074345886707306,-0.11985877901315689,0.20163387060165405,0.1730617880821228,0.28820452094078064,0.13358506560325623,0.20449437201023102,0.043580107390880585,0.006463389378041029,0.20454257726669312,-0.014093934558331966,0.36638230085372925,0.5005649328231812,0.3561711013317108,-0.24371708929538727,-0.003892546985298395,-0.18851810693740845,-0.035711608827114105,-0.35761985182762146,-0.27519896626472473,0.03960082307457924,0.0025681834667921066,0.0280412957072258,-0.027769045904278755,0.002171426312997937,0.23308686912059784,0.3852894604206085,-0.005737203639000654,0.007837322540581226,-0.042368486523628235,0.039054419845342636,0.2681844234466553,0.062104154378175735,0.011594099923968315,-0.00012042165326420218,0.06641774624586105,0.002258324297145009,0.07997328042984009,-0.07481866329908371,-0.022915635257959366,0.0926368460059166,0.06900564581155777,-0.012626804411411285,0.221589595079422,0.1844739466905594,-0.2061326503753662,-0.06028794124722481,0.05257471650838852,-0.2269383668899536,0.09506810456514359,-0.1147039458155632,-0.052509814500808716,-0.005858840420842171,0.10367800295352936,0.02945421077311039,0.02389412559568882,0.03295939788222313,0.22966186702251434,0.10083647817373276,0.10902579128742218,0.22304360568523407,0.06542888283729553,0.5435599088668823,0.06373823434114456,0.06846529990434647,0.018389787524938583,0.1765206754207611,-0.302414208650589,-0.08319295197725296,-0.032673731446266174,-0.060315653681755066,-0.13696308434009552,-0.012147415429353714,0.04717114940285683,0.04170253872871399,0.10177163779735565,-0.02846357598900795,-0.23944170773029327,0.11865394562482834,0.22004592418670654,-0.003957817330956459,0.25695136189460754,-0.07124114781618118,0.5902686715126038,0.20916716754436493,0.3793536126613617,0.08815687149763107,0.19154092669487,0.083721823990345,-0.14652292430400848,0.028731945902109146,0.050133928656578064,0.16254104673862457,0.009715761989355087,0.13001930713653564,0.008585949428379536,0.09459494799375534,0.1371816247701645,0.10801152884960175,0.05156424641609192,-0.020194314420223236,-0.17676401138305664,0.07737930119037628,-0.11106833815574646,-0.2917914092540741,-0.03929915279150009,-0.22407814860343933,-0.17104806005954742,-0.18156969547271729,-0.20000120997428894,-0.005500865634530783,0.0715094655752182,0.25805720686912537,0.22044821083545685,-0.03188958019018173,-0.08380680531263351,0.31333208084106445,0.008907374925911427,-0.005550717003643513,-0.0042206100188195705,0.030502667650580406,-0.00726994127035141,0.26804104447364807,-0.0990748181939125,0.13523726165294647,-0.19936946034431458,0.06317497044801712,0.03245146945118904,0.03346124663949013,-0.004064593929797411,0.04625742509961128,-0.025441503152251244,0.26799023151397705,0.3463585078716278,0.1032010093331337,0.052647221833467484,-0.1107173040509224,0.37141409516334534,0.18792791664600372,0.15558050572872162,0.20214715600013733,0.0935635045170784,-0.10038470476865768,-0.08153264224529266,-0.06064918264746666,0.14176057279109955,-0.12269491702318192,0.057395074516534805,-0.012008112855255604,0.29777929186820984,-0.2885797917842865,0.13894601166248322,0.11823771148920059,-0.006737273186445236,0.31371092796325684,0.27770960330963135,0.44350242614746094,-0.11306170374155045,-0.2531548738479614,-0.3687424957752228,0.0640220195055008,0.16830381751060486,0.1625984013080597,0.25575193762779236,0.12097073346376419,0.13701596856117249,0.09751734882593155,0.018335441127419472,0.034247785806655884,-0.011301984079182148,-0.007985793985426426,-0.17991885542869568,-0.2031046748161316,0.10639729350805283,0.14945781230926514,0.31926244497299194,0.16582463681697845,-0.09035986661911011,0.17645041644573212,-0.020301571115851402,-0.11720740050077438,0.06630741059780121,-0.12800537049770355,-0.025629792362451553,0.002738565905019641,0.0163315050303936,-0.014251112006604671,-0.01663261465728283,-0.004887918010354042,0.03001781925559044,-0.01784152165055275,-0.010254569351673126,-0.031010260805487633,-0.07985956966876984,-0.023829568177461624,0.01284720841795206,0.009869487956166267,0.002705514430999756,0.012676164507865906,-0.07415629178285599,0.012543302960693836,0.10626451671123505,0.05414951220154762,-0.004893796518445015,0.08423925191164017,-0.024707717821002007,0.4420905113220215,-0.14633730053901672,0.24255433678627014,0.12303996086120605,0.029238253831863403,-0.18465107679367065,-0.11516173183917999,-0.061234671622514725,0.04066158086061478,0.05246208608150482,0.10692998766899109,-0.08965685218572617,0.00460763880982995,0.2595841586589813,-0.07262250781059265,0.053849637508392334,-0.08011825382709503,0.005662112962454557,0.07084353268146515,0.30619385838508606,0.04654980078339577,-0.18670062720775604,-0.45061129331588745,0.1700150966644287,0.572860062122345,-0.02414226345717907,-0.09255465120077133,0.06268446892499924,0.14714276790618896,0.18190568685531616,0.12012601643800735,-0.038938503712415695,0.11081709712743759,0.09705516695976257,-0.06106270104646683,0.017185701057314873,0.20583079755306244,0.054784879088401794,-0.1308186799287796,-0.16014964878559113,0.10964932292699814,0.0736355409026146,-0.02781105414032936,-0.047107767313718796,0.03946210816502571,0.04230550676584244,-0.011651243083178997,-0.01789315976202488,0.09749294817447662,-0.03050237149000168,0.0798412635922432,0.08719856292009354,0.024818051606416702,0.18226295709609985,0.19263330101966858,0.15089930593967438,-0.07025869935750961,-0.2491634637117386,0.065971240401268,-0.05324164777994156,0.16926202178001404,-0.23907336592674255,-0.11262533068656921,-0.11654233932495117,-0.24730505049228668,0.02136661671102047,0.07635506242513657,-0.06436994671821594,0.049389880150556564,0.06108726188540459,-0.01750718057155609,0.05947909876704216,0.41314148902893066,0.16531968116760254,-0.14093273878097534,-0.2136542797088623,0.16570723056793213,0.05824650824069977,-0.1224764809012413,-0.17713616788387299,-0.07740777730941772,-0.03247755020856857,-0.04104531183838844,0.03760145232081413,-0.29813897609710693,-0.16043278574943542,0.15396149456501007,0.36837613582611084,0.046312615275382996,0.28020715713500977,-0.6739811897277832,0.31078484654426575,-0.09888017922639847,-0.2982323467731476,0.26701757311820984,0.30983448028564453,0.3801839351654053,-0.11064548045396805,0.30328378081321716,-0.692653238773346,-0.4615717828273773,-0.2754670977592468,0.1538422703742981,0.2857075333595276,-0.0824899896979332,-0.4578813314437866,-0.25959205627441406,0.21907822787761688,0.3502933979034424,0.5105950236320496,0.14898540079593658,0.013558761216700077,0.05155859515070915,-0.007094196975231171,0.19741065800189972,0.04256837069988251,-0.020100068300962448,0.024115988984704018,0.07635953277349472,-0.15475834906101227,-0.31088787317276,-0.17605702579021454,0.11435487866401672,0.13663385808467865,0.29563435912132263,-0.06846059858798981,-0.09266146272420883,0.16123898327350616,0.1000104770064354,0.39785218238830566,0.23154014348983765,-0.19290268421173096,-0.076985202729702,0.43223586678504944,0.027011731639504433,-0.23164944350719452,-0.021838907152414322,0.032489366829395294,0.029025152325630188,0.06588255614042282,-0.03402712196111679,-0.050076697021722794,-0.018207164481282234,-0.12738917768001556,-0.03900069743394852,-0.04815089330077171,-0.18675699830055237,-0.1886107474565506,0.1191609725356102,0.24127084016799927,0.3880138099193573,0.06343288719654083,-0.12716811895370483,-0.25548896193504333,-0.28139516711235046,0.06487593799829483,0.11843275278806686,0.17491644620895386,0.2021089494228363,0.01124053169041872,-0.017867131158709526,0.0989542081952095,-0.04137388616800308,0.05627969279885292,0.3128802478313446,0.28363317251205444,-0.0021562485489994287,-0.1095808893442154,-0.005194149445742369,-0.1522701382637024,0.016784541308879852,0.033982474356889725,-0.01947251334786415,-0.06259904056787491,-0.08520566672086716,0.11253359168767929,0.027841029688715935,0.10614529997110367,-0.13618028163909912,0.34848177433013916,0.5110289454460144,0.32228904962539673,0.0666797086596489,0.06787623465061188,-0.10929165035486221,0.08683016151189804,-0.008412154391407967,-0.10814999788999557,0.060387350618839264,-0.13799449801445007,-0.2157917022705078,-0.04752034321427345,-0.16995570063591003,-0.16735908389091492,-0.26109710335731506,-0.1173681914806366,-0.008579354733228683,0.12703627347946167,0.17471256852149963,0.1737879365682602,-7.801976607879624e-05,-0.07237858325242996,-0.17094142735004425,-0.1255730241537094,-0.10138443857431412,-0.09736495465040207,-0.05149703472852707,0.05636630952358246,-0.22042003273963928,-0.2513091564178467,-0.11767008155584335,-0.006737011019140482,0.03826919198036194,0.038136955350637436,0.10318974405527115,0.08521012961864471,0.019102226942777634,-0.02419096976518631,0.0056707365438342094,0.04384933412075043,-0.013681207783520222,-0.07250410318374634,-0.037019096314907074,-0.07368086278438568,-0.13144968450069427,-0.12487071007490158,-0.14598435163497925,-0.19147256016731262,-0.1911265254020691,-0.07602904736995697,-0.006064056418836117,0.05559549108147621,0.07422271370887756,0.033246107399463654,0.018550341948866844,0.09212169051170349,0.11070296168327332,0.12531884014606476,-0.404379278421402,-0.13197311758995056,0.1309557557106018,-0.0033795300405472517,0.014136689715087414,-0.0065404134802520275,-0.27850013971328735,0.08687200397253036,-0.1363283097743988,0.27654561400413513,-0.4602089822292328,0.45797333121299744,0.2098315805196762,-0.085235096514225,0.15068434178829193,0.1654021143913269,0.417796790599823,0.16251322627067566,0.11319691687822342,0.03915344551205635,0.03167003393173218,-0.03935937210917473,0.057989854365587234,-0.1267913281917572,0.11501213163137436,-0.0982833206653595,-0.14655762910842896,0.058421071618795395,0.06942777335643768,0.13336478173732758,-0.024900006130337715,0.010850967839360237,-0.20485836267471313,0.008875063620507717,0.08400033414363861,-0.0952942818403244,-0.06525824964046478,0.21157163381576538,0.17496585845947266,0.03101104125380516,0.1528014838695526,-0.01590581238269806,0.042986463755369186,-0.049619030207395554,0.11996631324291229,0.1408458650112152,0.20271757245063782,0.13796688616275787,0.08885316550731659,0.16571080684661865,0.053678207099437714,-0.11444837599992752,-0.033721692860126495,-0.06349015980958939,0.054781876504421234,-0.023261744529008865,-0.06265444308519363,0.007401046808809042,-0.09647836536169052,-0.010866730473935604,-0.13511542975902557,-0.18877893686294556,0.14606600999832153,0.03059220314025879,0.07439794391393661,-0.04598156735301018,0.026144303381443024,0.15000668168067932,0.1644369512796402,-0.15778736770153046,-0.0018892954103648663,0.04345240071415901,0.04572431743144989,0.06468483060598373,-0.005528874695301056,-0.08903401345014572,0.5522210597991943,0.013096206821501255,0.01673504337668419,-0.05344950035214424,-0.08979694545269012,0.040726188570261,0.03773760423064232,-0.014346569776535034,0.054762162268161774,0.043681107461452484,0.029923271387815475,0.06945665925741196,0.17362040281295776,0.056946396827697754,0.0716409683227539,0.21824494004249573,0.07915714383125305,0.06366568803787231,-0.014663699083030224,-0.02838665433228016,0.017159301787614822,-0.11729706823825836,-0.017907099798321724,-0.21069690585136414,-0.1662682443857193,-0.1305735856294632,-0.047198355197906494,0.20846308767795563,-0.10297560691833496,0.018446121364831924,0.15845879912376404,-0.16204559803009033,0.081685870885849,0.10366733372211456,0.019316507503390312,0.2544216513633728,0.11894655972719193,0.07418270409107208,0.009467865340411663,-0.2641594409942627,0.038968611508607864,0.184348925948143,0.15152747929096222,-0.16853150725364685,0.25696268677711487,-0.2367970198392868,0.10489736497402191,-0.0019112526206299663,-0.004213470499962568,0.10218196362257004,0.08375922590494156,0.04669463261961937,0.00470929779112339,0.04517273232340813,-0.03306503966450691,0.069267638027668,-0.0019424555357545614,0.16196541488170624,0.1635173112154007,0.1504031866788864,0.19154395163059235,0.14883984625339508,-0.11109669506549835,0.019499678164720535,0.04309495911002159,0.077891506254673,0.05287228897213936,0.09113865345716476,0.07462006062269211,0.018640734255313873,0.25118815898895264,-0.13036702573299408,0.07887305319309235,0.06873372942209244,-0.0643150582909584,-0.5588790774345398,0.017416195943951607,-0.13541162014007568,0.09498164802789688,0.03695522993803024,-0.11756493151187897,0.06203855201601982,-0.019626937806606293,0.18113963305950165,0.29118257761001587,0.04465019330382347,0.29981929063796997,0.08890096843242645,0.4269395172595978,-0.367896169424057,-0.1392710655927658,0.055668655782938004,-0.25444865226745605,0.13784795999526978,0.20360012352466583,-0.08963928371667862,0.0936957523226738,0.3041018545627594,0.14248737692832947,-0.15650029480457306,-0.16574981808662415,-0.005728829186409712,-0.26656511425971985,-0.17812395095825195,-0.05297236144542694,0.10846998542547226,0.2996055781841278,-0.1177729144692421,-0.21142245829105377,-0.10847866535186768,-0.01438942737877369,0.016340594738721848,0.1947367638349533,-0.36075979471206665,-0.029205597937107086,-0.008106793276965618,0.13976091146469116,0.2647366523742676,-0.03016131930053234,0.20188458263874054,0.20422576367855072,-0.0009606325183995068,0.02291545271873474,-0.10580596327781677,-0.3216107189655304,0.1349765658378601,0.11133712530136108,-0.019755588844418526,-0.1150471642613411,-0.1419641375541687,0.02959011308848858,-0.027899285778403282,0.03718425706028938,0.07608187943696976,0.08974973857402802,0.0376095212996006,-0.018524300307035446,-0.15491536259651184,-0.032925382256507874,0.021184636279940605,8.018712105695158e-05,-0.03977373242378235,-0.12301953136920929,-0.05877956748008728,-0.01476108469069004,-0.006170329172164202,0.011465960182249546,-0.003420183202251792,-0.03926891088485718,-0.43585216999053955,-0.033976685255765915,-0.17422038316726685,-0.01484095212072134,0.006356137804687023,-0.01365011278539896,0.049516305327415466,0.17425869405269623,-0.020201293751597404,0.15518072247505188,-0.2406947910785675,-0.014811737462878227,-0.06546001881361008,-0.07022389769554138,-0.2235596477985382,-0.04812455549836159,0.2957867383956909,-0.1382812112569809,0.3744041323661804,-0.6582654714584351,0.3357306122779846,0.12407229095697403,0.13301905989646912,-0.39093390107154846,0.17619109153747559,-0.3082430362701416,0.25456640124320984,0.06595084816217422,-0.5233957767486572,0.36404627561569214,0.25414788722991943,-0.37043648958206177,-0.024760819971561432,0.05221444368362427,-0.048208653926849365,0.15760505199432373,0.25876739621162415,0.2637442648410797,-0.13432902097702026,-0.04294472187757492,0.17017893493175507,0.20785576105117798,0.2148868590593338,0.08591394871473312,-0.06496887654066086,0.2460005134344101,0.1468660682439804,0.11622072011232376,-0.06944546848535538,0.47605592012405396,0.3957449197769165,0.20977060496807098,-0.40480837225914,-0.17266134917736053,-0.1628355085849762,-0.1434767246246338,0.1603645533323288,0.24650727212429047,-0.22588838636875153,0.11546030640602112,0.037373077124357224,0.007092442829161882,-0.06009918823838234,-0.24608062207698822,0.2619604468345642,-0.018700022250413895,0.08841243386268616,-0.10374823212623596,-0.11876939982175827,0.028483344241976738,0.252278208732605,-0.14882828295230865,-0.138185054063797,0.09773743152618408,0.019093671813607216,-0.0056023383513092995,0.1058339774608612,0.00355892488732934,0.04224506765604019,-0.023240363225340843,-0.44645875692367554,0.2450214922428131,-0.49297869205474854,-0.12618578970432281,0.0336516797542572,0.06379854679107666,0.22750002145767212,0.277281790971756,0.03296734020113945,-0.0708594098687172,-0.024041591212153435,0.15055914223194122,-0.02449226565659046,0.1061408668756485,0.21300217509269714,-0.17202261090278625,-0.04048018902540207,-0.012576852925121784,0.05363895371556282,0.06604162603616714,0.08154787123203278,0.11334957182407379,0.04541480913758278,-0.15317386388778687,-0.4006301462650299,0.04488348588347435,-0.23192836344242096,0.11256143450737,0.045999739319086075,0.05070836469531059,-0.0643349289894104,0.4350474774837494,-0.16490121185779572,-0.13078103959560394,0.17349430918693542,0.12301548570394516,0.20507924258708954,0.16966456174850464,0.2541273832321167,0.18012233078479767,-0.1406233310699463,0.02789987437427044,-0.2065364569425583,0.08887667208909988,0.0994778573513031,-0.049585044384002686,0.2335568368434906,0.223484069108963,0.29768407344818115,-0.06952714174985886,0.47922539710998535,0.21065330505371094,-0.036430150270462036,0.0365385040640831,0.11116044223308563,-0.12731949985027313,-0.0946759432554245,-0.07157837599515915,0.03537813946604729,-0.01753506436944008,0.16819605231285095,-0.16055312752723694,0.05278592184185982,-0.09503917396068573,0.04128894954919815,0.21742646396160126,0.056947965174913406,-0.0617951862514019,0.0867469534277916,0.0036194620188325644,0.38734525442123413,0.501082718372345,-0.024649562314152718,-0.07668556272983551,-0.16450271010398865,-0.19576816260814667,-0.5478939414024353,-0.13408875465393066,0.3837513029575348,-0.17013078927993774,-0.27623867988586426,0.043688032776117325,0.11557793617248535,0.009031854569911957,0.06725937128067017,0.02389608323574066,0.13123241066932678,0.46575620770454407,-0.13824592530727386,0.06990968436002731,-0.06510784476995468,0.14793193340301514,0.01871349662542343,0.12470965087413788,0.1744614988565445,0.21259361505508423,0.27577221393585205,0.08747389912605286,0.13496410846710205,-0.11567815393209457,-0.012285354547202587,-0.004696818068623543,0.0004962504608556628,-0.006429409142583609,0.10216148942708969,0.14564651250839233,0.040965836495161057,0.15387924015522003,0.13021965324878693,0.17002108693122864,0.08044328540563583,-0.2330540269613266,-0.049857355654239655,-0.09522826969623566,-0.18384075164794922,-0.07428915053606033,-0.32289808988571167,-0.12627160549163818,0.026519007980823517,-0.005562726873904467,0.01548687182366848,0.03758827596902847,-0.14510974287986755,-0.128583624958992,-0.06537939608097076,-0.1277756690979004,-0.12732072174549103,-0.13698670268058777,-0.11367371678352356,0.28687357902526855,0.09838675707578659,0.06190156936645508,0.21124257147312164,0.04587824270129204,0.3637053072452545,0.10864393413066864,0.18073788285255432,-0.014499254524707794,-0.19306623935699463,0.011470410972833633,0.06478247046470642,0.002663713414222002,-0.6627418398857117,0.40667280554771423,-0.25837448239326477,-0.006166328210383654,-0.13773302733898163,0.15589411556720734,0.4288685917854309,-0.288009375333786,0.366373211145401,-0.05209650844335556,0.20644719898700714,0.2914736568927765,-0.014886717312037945,-0.08523779362440109,0.012050663121044636,0.11508512496948242,0.17283201217651367,0.3777962327003479,0.1037936583161354,-0.052379310131073,-0.046289511024951935,0.040436454117298126,-0.10315057635307312,0.25538793206214905,-0.1999553143978119,0.016964081674814224,0.0030021299608051777,0.31438207626342773,0.4029824733734131,-0.07454098761081696,-0.24126778542995453,-0.04774994030594826,-0.16227637231349945,0.012101210653781891,0.17485149204730988,-0.0883893370628357,-0.03735950216650963,-0.014870354905724525,-0.08309003710746765,0.22470636665821075,0.05485476180911064,-0.16933177411556244,0.20957204699516296,0.2046453058719635,-0.01397574134171009,-0.16373910009860992,-0.29605841636657715,0.08284755796194077,0.26097509264945984,0.07470598071813583,0.15490269660949707,-0.011188820004463196,-0.1960386037826538,0.10005167126655579,0.0337849035859108,0.023040661588311195,0.08300916105508804,-0.23192596435546875,-0.06952385604381561,0.1692025363445282,-0.19339028000831604,-0.21873928606510162,0.023599762469530106,0.15477143228054047,0.3101450204849243,-0.08662298321723938,0.0948856920003891,-0.058725614100694656,0.01960921846330166,-0.05922792851924896,0.015063561499118805,-0.05830087140202522,-0.7860866189002991,0.15367397665977478,-0.1349315494298935,0.0371842198073864,0.2101314663887024,-0.2509852647781372,0.22253242135047913,-0.11978553980588913,0.0910927951335907,-0.08917371183633804,-0.3571169674396515,-0.20129622519016266,-0.11235987395048141,-0.09202724695205688,0.029572786763310432,0.10571026802062988,0.16547909379005432,-0.034095585346221924,-0.08196111768484116,-0.08961924910545349,0.08709389716386795,0.03649840131402016,0.006471696775406599,0.37953686714172363,0.09522947669029236,0.08488475531339645,-0.07011737674474716,-0.15985317528247833,0.14311785995960236,0.006214997265487909,0.18566447496414185,0.22329995036125183,-0.18129132688045502,-0.059281978756189346,-0.239824578166008,0.18135710060596466,0.17595745623111725,0.180340975522995,-0.2148507833480835,-0.12288477271795273,-0.048734668642282486,-0.32000407576560974,-0.2766568958759308,-0.14823408424854279,0.18732786178588867,0.40648552775382996,-0.17328891158103943,0.09762933850288391,-0.16925488412380219,-0.20167088508605957,0.1791522353887558,0.04461723938584328,0.21516145765781403,-0.16444756090641022,-0.1594778299331665,-0.1645282506942749,0.19785632193088531,0.11978447437286377,0.04240364208817482,0.27323225140571594,0.26395443081855774,0.133994922041893,-0.16650959849357605,-0.38002756237983704,0.15935713052749634,-0.09144086390733719,-0.39236390590667725,0.04469599947333336,-0.03141585364937782,-0.015737071633338928,0.03497781231999397,-0.029303353279829025,0.1615314930677414,-0.23825082182884216,0.221694678068161,-0.11645837873220444,0.4151100516319275,-0.38983094692230225,-0.00045242300257086754,-0.3263390362262726,0.3979552984237671,-0.029851581901311874,-0.05036991834640503,0.09047839790582657,-0.004898442421108484,0.1122998520731926,0.11055801063776016,-0.11441051959991455,0.1036127358675003,-0.04813185706734657,0.05279150605201721,0.013220948167145252,0.035099808126688004,0.010171624831855297,0.17547522485256195,0.04510432109236717,0.006816306617110968,-0.014557728543877602,-0.04041415825486183,0.04299728572368622,-0.18600532412528992,0.08539780229330063,0.013374896720051765,-0.21228526532649994,-0.18074393272399902,0.19051271677017212,-0.25290918350219727,0.12937062978744507,-0.08044638484716415,-0.057010095566511154,-0.0663919448852539,0.000555977167095989,-0.37915313243865967,-0.010545670986175537,0.021301016211509705,0.09024279564619064,0.12424903362989426,-0.11837774515151978,0.3362383544445038,-0.14728128910064697,-0.012886212207376957,0.18999643623828888,0.16167981922626495,-0.17007680237293243,0.24270282685756683,-0.1182740107178688,0.07320138812065125,0.049865398555994034,0.06018226221203804,0.0015113124391064048,0.34545189142227173,0.003977421671152115,-0.018512984737753868,-0.08605045825242996,-0.11771072447299957,0.11246735602617264,-0.2941466271877289,0.133239284157753,-0.04678737744688988,0.12014330178499222,-0.11185771226882935,-0.020226789638400078,0.01680404506623745,-0.05085849389433861,1.9739221260597352e-38,-3.8770159014998655e-39,-1.2634454476371703e-38,-1.456833323764474e-38,-8.461845874210232e-39,-2.548343933984075e-39,-4.189313481154687e-39,1.8735199318699407e-38,-2.0026606556153407e-38,-3.328357105971984e-39,4.1062248900110115e-40,1.6490094971096758e-38,-0.004948723595589399,-0.010674272663891315,-0.014819609001278877,-0.01761428639292717,-0.01519220694899559,-0.009838612750172615,-0.003777365433052182,0.0021768524311482906,0.005470822099596262,0.006033094134181738,0.0042661745101213455,0.0012984736822545528,-0.001496827113442123,-0.002645975910127163,-0.002457013353705406,-0.0015443110605701804,0.004422477912157774,0.011752581223845482,0.020363446325063705,0.029532695189118385,0.035926442593336105,0.03822380676865578,0.03718704730272293,0.032126422971487045,0.025378432124853134,0.018252121284604073,0.011236610822379589,0.00622742110863328,0.00309537211433053,0.0012788355816155672,0.0010177901713177562,0.0005149160861037672,-0.0027107675559818745,-0.0067763966508209705,-0.012796363793313503,-0.020779799669981003,-0.02816390059888363,-0.03468040004372597,-0.03771841153502464,-0.037078142166137695,-0.0333162397146225,-0.02594280056655407,-0.017876507714390755,-0.01057504490017891,-0.0047316160053014755,-0.0014502351405099034,0.00034086452797055244,0.0006977727171033621,0.13021042943000793,0.008819754235446453],"sample_rate":48000.0}},{"max_value":1.0,"model":{"version":"0.7.0","metadata":{"date":{"year":2026,"month":5,"day":8,"hour":3,"minute":14,"second":34},"loudness":-17.81288719177246,"gain":0.15457860838486073},"architecture":"WaveNet","config":{"layers":[{"input_size":1,"condition_size":1,"head":{"out_channels":1,"kernel_size":16,"bias":true},"channels":8,"kernel_sizes":[6,6,6,6,6,6,6,6,6,6,6,6,6,6,15,15,6,6,6,6,6,6,6],"dilations":[1,3,7,17,41,101,239,1,3,7,17,41,101,239,1,13,1,3,7,17,41,101,239],"activation":[{"type":"LeakyReLU","negative_slope":0.01},{"type":"LeakyReLU","negative_slope":0.01},{"type":"LeakyReLU","negative_slope":0.01},{"type":"LeakyReLU","negative_slope":0.01},{"type":"LeakyReLU","negative_slope":0.01},{"type":"LeakyReLU","negative_slope":0.01},{"type":"LeakyReLU","negative_slope":0.01},{"type":"LeakyReLU","negative_slope":0.01},{"type":"LeakyReLU","negative_slope":0.01},{"type":"LeakyReLU","negative_slope":0.01},{"type":"LeakyReLU","negative_slope":0.01},{"type":"LeakyReLU","negative_slope":0.01},{"type":"LeakyReLU","negative_slope":0.01},{"type":"LeakyReLU","negative_slope":0.01},{"type":"LeakyReLU","negative_slope":0.01},{"type":"LeakyReLU","negative_slope":0.01},{"type":"LeakyReLU","negative_slope":0.01},{"type":"LeakyReLU","negative_slope":0.01},{"type":"LeakyReLU","negative_slope":0.01},{"type":"LeakyReLU","negative_slope":0.01},{"type":"LeakyReLU","negative_slope":0.01},{"type":"LeakyReLU","negative_slope":0.01},{"type":"LeakyReLU","negative_slope":0.01}],"bottleneck":8,"head1x1":{"active":false,"out_channels":1,"groups":1},"layer1x1":{"active":true,"groups":1},"groups_input":1,"groups_input_mixin":1,"conv_pre_film":{"active":false,"shift":true,"groups":1},"conv_post_film":{"active":false,"shift":true,"groups":1},"input_mixin_pre_film":{"active":false,"shift":true,"groups":1},"input_mixin_post_film":{"active":false,"shift":true,"groups":1},"activation_pre_film":{"active":false,"shift":true,"groups":1},"activation_post_film":{"active":false,"shift":true,"groups":1},"layer1x1_post_film":{"active":false,"shift":true,"groups":1},"head1x1_post_film":{"active":false,"shift":true,"groups":1},"gating_mode":["none","none","none","none","none","none","none","none","none","none","none","none","none","none","none","none","none","none","none","none","none","none","none"],"secondary_activation":[null,null,null,null,null,null,null,null,null,null,null,null,null,null,null,null,null,null,null,null,null,null,null],"slimmable":null}],"head":null,"head_scale":0.008819754263043633},"weights":[1.4715123176574707,-0.8433521389961243,1.6824500560760498,1.1241624355316162,-0.30755096673965454,-2.048234462738037,1.815301775932312,-1.6192823648452759,0.30668905377388,0.28965428471565247,0.05106034502387047,-0.01523408479988575,-0.16790060698986053,-0.2770030200481415,-0.1520765721797943,-0.14011044800281525,-0.03532658889889717,0.0039320094510912895,0.08915487676858902,0.14439837634563446,0.3303563594818115,0.3064686357975006,0.056983832269907,-0.004074229393154383,-0.19812962412834167,-0.3169218897819519,0.22857575118541718,0.20934990048408508,0.042513906955718994,-0.011607402935624123,-0.12975582480430603,-0.2093970626592636,-0.05011843144893646,-0.046796854585409164,-0.015537912026047707,0.0009313570917584002,0.03156936168670654,0.05086672306060791,-0.4277007281780243,-0.3647371232509613,-0.0516098253428936,0.03077840618789196,0.19048632681369781,0.3266690969467163,0.3863483965396881,0.33714792132377625,0.060923196375370026,-0.013822663575410843,-0.19798362255096436,-0.30775028467178345,-0.31215667724609375,-0.2892931401729584,-0.05132748559117317,0.017002899199724197,0.18430250883102417,0.28071290254592896,0.01146876160055399,-0.05180574581027031,-0.11606565117835999,-0.1197105199098587,-0.21261776983737946,-0.3129892945289612,-0.01526249572634697,0.012669885531067848,0.06207064539194107,0.07420199364423752,0.14557328820228577,0.22297291457653046,-0.022272055968642235,-0.07203777134418488,-0.13962464034557343,-0.14977507293224335,-0.2510068416595459,-0.34089532494544983,0.013417469337582588,-0.03050878643989563,-0.08886971324682236,-0.09546587616205215,-0.18733520805835724,-0.271240234375,-0.005289400462061167,0.004003860522061586,0.025281190872192383,0.03061891347169876,0.06090955808758736,0.09715975821018219,0.002141796750947833,0.10026336461305618,0.1641019582748413,0.15705935657024384,0.2758951187133789,0.3557487428188324,0.004069164860993624,-0.06836815178394318,-0.13069887459278107,-0.15962038934230804,-0.2631329894065857,-0.3647443652153015,0.014791189692914486,0.04987115040421486,0.11132358759641647,0.1300111711025238,0.2410038709640503,0.33965495228767395,0.02213672362267971,-0.013066821731626987,0.11825864762067795,0.12536393105983734,0.22771872580051422,0.2939550280570984,0.0030972713138908148,0.0038736218120902777,-0.07934907078742981,-0.10076843947172165,-0.13489489257335663,-0.20569802820682526,-0.003836780320852995,-0.03681265935301781,0.10637509822845459,0.16754905879497528,0.22258390486240387,0.2992742657661438,-0.003574170870706439,-0.008457338437438011,0.09696493297815323,0.14603011310100555,0.1705351173877716,0.2646275460720062,0.003428070340305567,-0.0021811355836689472,-0.035479556769132614,-0.043944019824266434,-0.061935704201459885,-0.09224715828895569,-0.03361162170767784,0.039915770292282104,-0.09783849120140076,-0.1344301700592041,-0.23339606821537018,-0.3361402451992035,0.01979544758796692,0.04345471039414406,0.12219464778900146,0.14896787703037262,0.21532706916332245,0.35093197226524353,-0.037815455347299576,0.021805336698889732,-0.09895335882902145,-0.195204496383667,-0.2305087447166443,-0.3487479090690613,0.10226793587207794,-0.170839324593544,0.09028001874685287,0.029156485572457314,-0.0747280865907669,0.030802171677350998,-0.0459807813167572,0.09913711249828339,-0.05720805004239082,-0.019876256585121155,0.040247365832328796,-0.020737389102578163,0.12272369116544724,-0.19376571476459503,0.10020369291305542,0.03176354989409447,-0.08579026162624359,0.033106569200754166,0.06999441236257553,-0.13188908994197845,0.07275288552045822,0.024350963532924652,-0.055839210748672485,0.025797180831432343,-0.011671931482851505,0.03660106658935547,-0.024166136980056763,-0.009953301399946213,0.012998348101973534,-0.009206654503941536,-0.16108202934265137,0.2329874038696289,-0.11656223237514496,-0.0362754724919796,0.10557956248521805,-0.03679243102669716,0.13981306552886963,-0.20963303744792938,0.10675954818725586,0.03368304669857025,-0.09471425414085388,0.034636013209819794,-0.11747623980045319,0.18744105100631714,-0.09743590652942657,-0.031079601496458054,0.0830356702208519,-0.0325738862156868,0.41520819067955017,0.4231727421283722,0.09209272265434265,-0.029129046946763992,-0.273078054189682,-0.3892133831977844,-0.2149796485900879,-0.21966099739074707,-0.04873466491699219,0.028318602591753006,0.14846161007881165,0.20678801834583282,0.45669323205947876,0.4903874695301056,0.10616964846849442,-0.02992076426744461,-0.3099864721298218,-0.43724286556243896,0.3058363199234009,0.31329676508903503,0.06776537746191025,-0.03104562871158123,-0.20707257091999054,-0.29303720593452454,-0.07806012779474258,-0.08159563690423965,-0.019100960344076157,0.013022535480558872,0.055179011076688766,0.07655305415391922,-0.5520642995834351,-0.585293173789978,-0.12492631375789642,0.017140783369541168,0.3537900447845459,0.5197471380233765,0.5211391448974609,0.5402261018753052,0.11595555394887924,-0.04350346699357033,-0.3304855525493622,-0.4946152865886688,-0.4579913914203644,-0.4698975682258606,-0.10659738630056381,0.02864757366478443,0.3014236092567444,0.4226642847061157,-0.3742348849773407,-0.4459873139858246,-0.11725294589996338,0.1067788228392601,0.3079129755496979,0.46829184889793396,0.20693860948085785,0.24004021286964417,0.0704817995429039,-0.05582442134618759,-0.17225123941898346,-0.26207736134529114,-0.420217901468277,-0.5026183128356934,-0.12736840546131134,0.12050969898700714,0.3486861288547516,0.5287623405456543,-0.2844914197921753,-0.33453530073165894,-0.09461157768964767,0.07958018034696579,0.23637616634368896,0.3608119785785675,0.07741641253232956,0.0857662558555603,0.024577368050813675,-0.02022567018866539,-0.0653434544801712,-0.09973364323377609,0.49256759881973267,0.6122643351554871,0.15999098122119904,-0.14115490019321442,-0.4053707718849182,-0.6149734258651733,-0.45755884051322937,-0.5561769604682922,-0.13857141137123108,0.12630753219127655,0.3663609027862549,0.5695382952690125,0.40336349606513977,0.4978959262371063,0.12827040255069733,-0.12339858710765839,-0.3347427248954773,-0.502021074295044,0.35069406032562256,0.3253973424434662,0.08894678950309753,-0.06025972589850426,-0.2816612720489502,-0.4804958403110504,-0.22467973828315735,-0.2175484001636505,-0.05931742861866951,0.035588886588811874,0.20165079832077026,0.33891376852989197,0.33871570229530334,0.3231193721294403,0.05292326956987381,-0.06365074217319489,-0.30587536096572876,-0.5393873453140259,0.28248387575149536,0.2876732349395752,0.06036065146327019,-0.0617758147418499,-0.24371092021465302,-0.41810882091522217,-0.08619789034128189,-0.08180385082960129,-0.025848859921097755,0.01442537922412157,0.07801371067762375,0.12813274562358856,-0.3219768702983856,-0.3772182762622833,-0.039203256368637085,0.052789732813835144,0.31558045744895935,0.5862689018249512,0.3171756863594055,0.34253430366516113,0.055660489946603775,-0.0398685447871685,-0.3154662251472473,-0.5185458660125732,-0.3725259304046631,-0.3370719850063324,-0.09288600832223892,0.08865562081336975,0.3335770070552826,0.5477191805839539,-0.1662721484899521,-0.27047938108444214,-0.015171735547482967,0.1563662439584732,0.2791287899017334,0.3162264823913574,0.17486786842346191,0.19954924285411835,-0.002495597582310438,-0.07335440069437027,-0.1392698734998703,-0.23515398800373077,-0.28292497992515564,-0.23434682190418243,0.08437096327543259,0.175983726978302,0.31270742416381836,0.3236639201641083,-0.19446519017219543,-0.21012428402900696,0.008255933411419392,0.17936202883720398,0.2146936058998108,0.2545435130596161,0.06234176829457283,0.06676687300205231,0.001409550430253148,-0.03390432521700859,-0.06345532834529877,-0.09993261098861694,0.14527150988578796,0.291141539812088,-0.036987245082855225,-0.22080877423286438,-0.24917110800743103,-0.40083566308021545,-0.2863938808441162,-0.17588390409946442,0.09628807008266449,0.09634201228618622,0.23998796939849854,0.32750722765922546,0.13637126982212067,0.27543917298316956,-0.10767414420843124,-0.09619779884815216,-0.20334972441196442,-0.4196815490722656,0.7895877957344055,-0.08370356261730194,0.07243604958057404,-0.04622233659029007,0.47575393319129944,0.953494668006897,0.45260000228881836,0.5428125262260437,-0.23033234477043152,-0.31099557876586914,0.3614267110824585,0.024431273341178894,-0.31748467683792114,0.39428654313087463,-0.5658241510391235,0.16239197552204132,0.3702428638935089,-0.23571796715259552,-0.04291306063532829,-0.2030220627784729,-0.24524451792240143,-0.05010278522968292,0.06217744201421738,0.02472212351858616,0.09497655928134918,0.4820444881916046,-0.19366198778152466,-0.32406941056251526,-0.41714414954185486,0.03679713234305382,0.10754439979791641,-0.08634474128484726,-0.09773605316877365,-0.28995656967163086,0.17785833775997162,-0.014874723739922047,-0.16986103355884552,0.25845661759376526,-0.16706736385822296,0.3766464293003082,0.35549771785736084,0.1779409497976303,0.3699069619178772,0.3558894097805023,0.42316460609436035,-0.40897172689437866,0.3330327272415161,-0.08551280200481415,-0.2893270254135132,0.26820382475852966,-0.4086172580718994,0.29718491435050964,-0.410759299993515,0.08604898303747177,-0.04071488603949547,-0.32141947746276855,0.48004841804504395,0.2694302499294281,-0.6096256971359253,-0.14418095350265503,0.6916506290435791,-0.5596256256103516,0.8817022442817688,-0.40948164463043213,-0.017653370276093483,-0.15324468910694122,0.052147287875413895,-0.06109996885061264,-0.2191792130470276,0.22753934562206268,-0.3216075897216797,0.22518746554851532,-0.018223555758595467,0.2216467410326004,-0.11061830073595047,-0.07721716165542603,0.07918638736009598,0.10054145008325577,0.3445146083831787,-0.20546507835388184,0.5244648456573486,0.5026440024375916,-0.11534419655799866,-0.1349855214357376,-0.522489070892334,-0.06971093267202377,0.10657214373350143,0.1048736423254013,-0.14783278107643127,-0.2462034374475479,-0.25956064462661743,-0.17858807742595673,-0.28458333015441895,-0.3921765089035034,-0.23030629754066467,-0.1526985764503479,-0.15533888339996338,-0.20432958006858826,-0.2701544463634491,-0.24408294260501862,0.07538652420043945,0.08440970629453659,0.040427252650260925,0.09031056612730026,0.01263069175183773,-0.07674553245306015,0.008626394905149937,0.0864030048251152,0.11070340871810913,0.04045174643397331,0.019169852137565613,0.173701673746109,0.2409825176000595,0.25248560309410095,0.25252246856689453,0.2887009084224701,0.19122731685638428,0.18456654250621796,0.03709499537944794,-0.05142641440033913,0.03624879568815231,-0.09226240962743759,0.18936476111412048,0.37948864698410034,-0.04369814321398735,-0.048102207481861115,-0.06992631405591965,0.023557279258966446,-0.15332090854644775,-0.21709391474723816,-0.1308869868516922,-0.0863778367638588,-0.0480194129049778,-0.2135465145111084,0.05256208777427673,0.10399357974529266,0.06527161598205566,0.09817016124725342,-0.03190867230296135,0.12885834276676178,0.19249926507472992,-0.028699154034256935,0.014720561914145947,0.05251161754131317,0.09327022731304169,-0.02592528611421585,-0.09402399510145187,-0.08627335727214813,-0.03912721946835518,0.021580953150987625,-0.13308663666248322,0.26574036478996277,0.14337344467639923,-0.24977649748325348,-0.007759197149425745,-0.05735015869140625,0.042404308915138245,0.06765449792146683,0.017546631395816803,0.010226177982985973,-0.09122319519519806,0.022499529644846916,0.031191116198897362,-0.03866829350590706,-0.03486498072743416,-0.033074118196964264,0.0770503506064415,-0.05530223622918129,0.1973772794008255,-0.3071220815181732,-0.1991385966539383,0.3523801565170288,-0.04921113699674606,0.012243795208632946,-0.09931356459856033,0.2530694901943207,0.1138230562210083,-0.2503378391265869,0.03982527181506157,0.028611309826374054,0.07837175577878952,-0.16694778203964233,-0.15377171337604523,0.2493211328983307,0.006589388009160757,0.0365724079310894,-0.01658712886273861,-0.050570446997880936,0.016220303252339363,-0.005246673244982958,-0.0457337312400341,-0.014878341928124428,-0.0004029960255138576,0.07412417232990265,0.28735074400901794,-0.12156422436237335,0.07242550700902939,0.009386835619807243,0.022185176610946655,-0.2874215841293335,-0.25092676281929016,0.37023332715034485,-0.06397353857755661,0.025235675275325775,-0.15481293201446533,-0.13242439925670624,-0.14128927886486053,-0.07522804290056229,-0.0984472781419754,-0.05889827013015747,-0.03524608165025711,-0.16224807500839233,-0.005040109623223543,-0.14589248597621918,0.022994890809059143,-0.005507318768650293,-0.03115898184478283,0.4300629198551178,0.18525972962379456,-0.49161311984062195,0.015297027304768562,0.013391793705523014,0.056362830102443695,-0.24759623408317566,-0.11701689660549164,0.3828131854534149,0.06504848599433899,0.009048533625900745,-0.026321858167648315,0.2995729446411133,0.19837452471256256,-0.31731948256492615,0.0590311698615551,0.05384642630815506,0.06162957102060318,0.07637016475200653,0.025057686492800713,-0.011252012103796005,0.044153496623039246,0.06277958303689957,0.056473083794116974,0.11950507760047913,0.16326692700386047,-0.005926791578531265,0.09761019051074982,0.04235003888607025,-0.060201339423656464,-0.024708053097128868,-0.21015067398548126,0.14440760016441345,-0.12809821963310242,-0.06963902711868286,-0.1139753982424736,-0.32409536838531494,-0.1706150621175766,-0.04047505557537079,-0.08516234904527664,-0.0210740827023983,-0.04123764857649803,-0.051034536212682724,-0.0285628754645586,-0.10936090350151062,-0.04174618422985077,-0.03179474547505379,0.011309996247291565,-0.0810818001627922,0.2638814151287079,-0.1988060623407364,0.05410052835941315,0.04312606528401375,-0.004370187409222126,0.011218428611755371,-0.12135832756757736,0.13431666791439056,0.0358738973736763,0.0008498475071974099,-0.007795895915478468,0.05922500789165497,0.12173376977443695,-0.09289297461509705,-0.039566684514284134,0.024105409160256386,-0.03248919919133186,-0.04081771522760391,-0.028200015425682068,-0.02793688140809536,0.0224075336009264,-0.06665650010108948,-2.278555439261254e-05,0.007071442902088165,0.03867026045918465,0.009856515564024448,-0.021032826974987984,0.1572246104478836,0.013019119389355183,0.07563313841819763,-0.058925215154886246,0.014180131256580353,-0.04801451414823532,-0.07259715348482132,0.056500472128391266,-0.02604835480451584,0.03284458816051483,-0.11167214065790176,0.07721477001905441,0.020814407616853714,0.018210727721452713,0.04065579175949097,0.07824414223432541,0.08714423328638077,0.05080674961209297,-0.17730960249900818,0.032800476998090744,-0.13115428388118744,0.04127797856926918,-0.06457299739122391,-0.02938048727810383,0.1060318648815155,-0.01223855558782816,0.042605750262737274,-0.04067946970462799,0.0038128907326608896,0.048563797026872635,-0.04325985163450241,0.020329736173152924,-0.0013760407455265522,-0.0035898410715162754,0.0024223332293331623,-0.07336485385894775,-0.057814665138721466,0.033096469938755035,0.009782050736248493,0.12135980278253555,0.1753515899181366,0.12135788053274155,0.10961183905601501,0.15392643213272095,0.0016814526170492172,-0.006838999222964048,-0.22377118468284607,0.08016163110733032,-0.023678867146372795,-0.012387585826218128,-0.11619009077548981,0.1531178057193756,0.2699768543243408,0.012896240688860416,0.02678137645125389,-0.044796235859394073,0.0340416356921196,0.18697325885295868,0.3226231634616852,-0.0037873927503824234,-0.024802954867482185,-0.017642272636294365,-0.08052166551351547,-0.0793856754899025,-0.12212818115949631,0.022357312962412834,0.08522004634141922,0.03589880093932152,0.19752338528633118,-0.008614550344645977,-0.14917340874671936,0.009031116962432861,-0.0754682645201683,-0.017342470586299896,-0.061213064938783646,0.12382393330335617,0.2390541434288025,0.0996040552854538,0.10517172515392303,0.09373044222593307,0.10622995346784592,-0.0424995981156826,-0.20556101202964783,-0.11174952983856201,-0.13299861550331116,-0.1258581280708313,-0.1779348999261856,-0.14987902343273163,-0.12572431564331055,-0.05556358024477959,0.02167845517396927,0.03869301453232765,0.06921692192554474,-0.053821004927158356,-0.028638482093811035,0.016342032700777054,-0.07187886536121368,-0.04870503768324852,-0.14969708025455475,0.08179692924022675,0.09008850902318954,0.07880730926990509,0.03049205057322979,0.010976413264870644,0.14892806112766266,-0.009545406326651573,0.09950965642929077,0.03248032182455063,0.14157553017139435,0.12900613248348236,0.1376500427722931,0.1094287559390068,0.058426544070243835,0.010117418132722378,0.061893805861473083,0.11324387043714523,0.252463698387146,-0.16355463862419128,-0.14250296354293823,-0.03519200533628464,-0.08631790429353714,-0.0866905003786087,-0.19879098236560822,0.017480766400694847,0.04067138954997063,-0.023257607594132423,-0.014765473082661629,0.03966492787003517,0.056886639446020126,0.018202897161245346,-0.03378204256296158,-0.1471518874168396,-0.15130506455898285,-0.12062494456768036,-0.058189354836940765,-0.07859089225530624,-0.13948799669742584,-0.14506660401821136,-0.15999850630760193,-0.07941188663244247,-0.06767797470092773,-0.09469486027956009,-0.019918590784072876,0.059713609516620636,0.09034707397222519,0.03385479003190994,0.049066249281167984,-0.009924578480422497,-0.028475699946284294,0.029116284102201462,-0.012091971933841705,-0.05013111233711243,0.014014478772878647,0.036814771592617035,0.08854610472917557,0.1418813169002533,0.08856195956468582,0.12001950293779373,0.13028912246227264,0.11897642910480499,0.12734489142894745,0.06190979853272438,0.04179926589131355,0.12137147039175034,0.0045187328942120075,0.10824232548475266,0.25881484150886536,-0.04099990054965019,-0.020617209374904633,-0.03825383633375168,-0.024097008630633354,-0.058983009308576584,-0.10206145793199539,0.014475513249635696,0.0014221681049093604,0.0349261611700058,-0.08148283511400223,-0.017631947994232178,0.02424772083759308,-0.48471012711524963,0.11104828864336014,0.11491382867097855,0.08564610779285431,-0.04518161714076996,0.0704955980181694,-0.09750019758939743,-0.2710378170013428,-0.0032083354890346527,-0.1031339094042778,0.16240990161895752,0.06171100586652756,-0.016133222728967667,0.26660603284835815,0.03747519850730896,-0.05341213196516037,0.37415844202041626,-0.163411483168602,0.02866494096815586,0.058899831026792526,-0.08450394868850708,-0.4676603376865387,-0.4235330820083618,0.08907816559076309,-0.1854487955570221,-0.24332620203495026,0.2009163796901703,0.036326564848423004,-0.11575478315353394,-0.15957242250442505,0.17929218709468842,0.06775741279125214,0.8713685274124146,-0.12864536046981812,0.011517115868628025,-0.08817147463560104,-0.11203502118587494,0.25905540585517883,-0.11166520416736603,0.3849867284297943,0.10665007680654526,0.21610406041145325,0.020628854632377625,-0.07004671543836594,0.29122769832611084,0.06441207975149155,0.24394826591014862,0.030798334628343582,-0.054524537175893784,-0.3495202660560608,0.16256055235862732,0.31351348757743835,0.07987722754478455,-0.019798429682850838,0.2554175853729248,0.01825719140470028,-0.6705380082130432,0.23417222499847412,-0.6435165405273438,-0.32451045513153076,0.05526336282491684,-0.17650286853313446,-0.11741084605455399,-0.3317813277244568,0.2407437562942505,-0.08809876441955566,-0.14788436889648438,-0.07115865498781204,-0.07233775407075882,-0.11783439666032791,0.16516131162643433,0.1752498745918274,-0.3138852119445801,0.09130037575960159,0.0966319814324379,-0.026985252276062965,0.0604538768529892,-0.1384941041469574,-0.2284458875656128,-0.24193595349788666,-0.13083578646183014,0.4370294511318207,0.17572064697742462,-0.4672279953956604,0.03899219632148743,0.4350031912326813,-0.1409381628036499,0.12426609545946121,-0.011485960334539413,-0.020809203386306763,0.07119905203580856,0.03022519312798977,0.0866864025592804,-0.07011184096336365,0.11687468737363815,0.049843981862068176,0.06706244498491287,-0.016033750027418137,-0.002968384185805917,-0.10311959683895111,-0.03916863724589348,0.049100395292043686,0.023394586518406868,0.0007603783160448074,0.03261125460267067,-0.0518517792224884,-0.1212470605969429,-0.04205397143959999,-0.011146905831992626,-0.07225827127695084,-0.05028258264064789,0.20785193145275116,-0.04823983460664749,-0.09028327465057373,-0.03596465662121773,-0.05039076507091522,-0.05808458849787712,-0.1465403139591217,0.026786569505929947,-0.019280698150396347,0.012905466370284557,-0.03532664477825165,-0.09170492738485336,0.03431659936904907,-0.02955835498869419,0.016274690628051758,-0.011397797614336014,-0.01693853922188282,-0.0010087965056300163,-0.11996596306562424,0.053881991654634476,-0.01829993724822998,0.005553350318223238,0.061251770704984665,0.024797815829515457,0.10989435017108917,0.07945573329925537,0.05747930705547333,0.0923083946108818,0.10210274904966354,0.04529547691345215,-0.1357438564300537,0.010053804144263268,-0.04714858531951904,-0.04347851872444153,0.014998938888311386,-0.031612593680620193,0.18360251188278198,-0.0028311898931860924,-0.03335801512002945,0.06150765344500542,-0.025130117312073708,-0.005062905605882406,-0.07430245727300644,-0.028736155480146408,-0.04985811188817024,-0.06425122916698456,-0.07888058573007584,-0.056835684925317764,-0.1915322244167328,-0.028275975957512856,-0.09726396203041077,-0.10812423378229141,-0.15139928460121155,-0.1148691177368164,-0.03754524141550064,0.044738274067640305,0.0014154366217553616,0.0015939547447487712,0.013117024675011635,0.006888192612677813,-0.00039252120768651366,-0.005464952904731035,0.04440346732735634,0.07546775043010712,-0.06657111644744873,-0.03109055384993553,-0.12992329895496368,0.0192518699914217,-0.028121687471866608,-0.012096338905394077,0.06181419640779495,0.07946988195180893,0.23334957659244537,-0.0034330803900957108,-0.03615238517522812,-0.08423052728176117,0.023591164499521255,-0.04992354288697243,-0.051793087273836136,0.0499093197286129,-0.15677285194396973,-0.09683220088481903,0.013097530230879784,-0.11078046262264252,-0.10777515918016434,-0.09346890449523926,-0.03305390849709511,-0.06589028239250183,-0.1675759106874466,0.04276036098599434,0.02419557049870491,-0.06718655675649643,0.07464024424552917,0.08533906191587448,-0.027658257633447647,0.14466801285743713,0.19732120633125305,0.12063584476709366,-0.08694752305746078,-0.024014770984649658,0.0490766242146492,-0.029947271570563316,-0.013899345882236958,0.11935611069202423,-0.04800301790237427,0.06964008510112762,0.08765798062086105,0.006794392131268978,0.04953626170754433,-0.05266524478793144,-0.019131049513816833,-0.08491362631320953,-0.021361971274018288,0.05704827979207039,-0.028454795479774475,0.06007716432213783,-0.005959640722721815,0.03522122651338577,0.09429175406694412,-0.08350098878145218,-0.005371658597141504,-0.00879980530589819,0.08020485937595367,0.0009452799567952752,-0.024942584335803986,-0.05808544158935547,-0.07884573936462402,0.019641397520899773,0.07194450497627258,-0.06895110011100769,0.08922179043292999,0.09096796065568924,0.17541030049324036,-0.0662509873509407,0.030785296112298965,-0.08353100717067719,0.06636478751897812,-0.06729714572429657,-0.13789722323417664,-0.16586756706237793,-0.14118844270706177,-0.18594853579998016,-0.11174104362726212,-0.006117438431829214,-0.21190081536769867,-0.08360160887241364,-0.10644136369228363,-0.041851893067359924,-0.018655383959412575,-0.04972235485911369,-0.1105758547782898,-0.024127181619405746,0.04224174842238426,0.07712989300489426,-0.05310063809156418,0.07892043888568878,0.013591993600130081,-0.006156521383672953,-0.004978926852345467,-0.03762161731719971,-0.011362014338374138,-0.08650697767734528,-0.03488397225737572,0.06287169456481934,0.04102028161287308,0.052502311766147614,0.023278070613741875,-0.07556606084108353,0.12262555956840515,-0.08529529720544815,-0.09051670879125595,-0.04650803655385971,-0.14489451050758362,-0.09629599750041962,-0.24629414081573486,0.07120051234960556,0.07854016870260239,0.09989041835069656,0.08241007477045059,0.05233839154243469,0.16221587359905243,0.09395045787096024,0.07649701833724976,0.06373036652803421,0.09008433669805527,0.05482872948050499,-0.24358445405960083,0.10588792711496353,0.10558231920003891,0.09331423789262772,0.025114756077528,0.11522018909454346,-0.02644757740199566,-0.042661022394895554,-0.14891718327999115,-0.08476191014051437,-0.061756670475006104,-0.17507001757621765,-0.13063153624534607,-0.023363851010799408,-0.06215314567089081,-0.07312112301588058,-0.02410362847149372,-0.02095772512257099,0.2921158969402313,-0.05716154724359512,-0.037229686975479126,-0.04219778999686241,-0.07171907275915146,-0.006956854369491339,-0.34265217185020447,0.08297646045684814,0.029878955334424973,0.12166079878807068,0.09885158389806747,0.012682001106441021,0.3635684549808502,-0.024522116407752037,-0.0015788119053468108,-0.01924356073141098,0.0047245630994439125,0.041778579354286194,0.011294872500002384,0.0028846128843724728,0.027736961841583252,-0.01075646560639143,-0.07592014968395233,-0.07729353755712509,-0.034990761429071426,-0.029273079708218575,-0.06535607576370239,-0.08896335959434509,0.025699730962514877,-0.011884689331054688,-0.013216596096754074,-0.020429929718375206,-0.04606073349714279,-0.014364230446517467,-0.019666409119963646,0.028207669034600258,-0.031191661953926086,0.08364954590797424,0.11933936923742294,0.07559648901224136,0.02555810660123825,-0.009056462906301022,0.04947161301970482,0.02916097640991211,0.01683620549738407,0.04818730428814888,-0.04930737242102623,0.05686364695429802,-0.03163128346204758,0.005036501679569483,0.012460573576390743,0.007041944190859795,0.026430832222104073,-0.01701008901000023,0.019930385053157806,-0.00736344326287508,0.009978734888136387,0.0026081728283315897,-0.03202672675251961,0.0011664159828796983,-0.019054533913731575,-0.014013619162142277,-0.024410249665379524,-0.08863474428653717,-0.11137896031141281,-0.14531917870044708,-0.15209978818893433,0.06158047169446945,0.17651519179344177,0.19083049893379211,0.03283638134598732,0.2717686593532562,0.13369596004486084,0.04259534180164337,0.016870714724063873,0.006715970113873482,0.03199107199907303,-0.21433071792125702,0.17036589980125427,-0.036672838032245636,-0.08818240463733673,-0.025065943598747253,0.10368019342422485,-0.13383178412914276,-0.07464008778333664,-0.08603119850158691,-0.11408589780330658,-0.07449014484882355,-0.12514515221118927,-0.03128623217344284,-0.1524326056241989,-0.02002006024122238,-0.035733841359615326,0.09594105929136276,0.12712068855762482,0.1996564269065857,-0.20104391872882843,-0.028949107974767685,-0.10761801898479462,-0.09328210353851318,-0.051147229969501495,-0.16970977187156677,0.006295300088822842,0.03357415273785591,0.13151252269744873,0.10169973969459534,-0.0008101308485493064,0.21267381310462952,0.0018442414002493024,0.004608836956322193,-0.017150096595287323,-0.010251502506434917,-0.05371912196278572,0.05619671940803528,0.002024308778345585,-0.035285834223032,-0.005075280554592609,0.003904530080035329,-0.08399782329797745,-0.05786535143852234,-0.0751665011048317,0.0014712176052853465,-0.05519333854317665,-0.0377652682363987,-0.0032327473163604736,0.011289055459201336,-0.0544486939907074,0.012772479094564915,0.0244626272469759,0.012511657550930977,0.023972300812602043,-0.03815910965204239,-0.033308498561382294,0.007435443811118603,0.043716736137866974,0.05137636139988899,-0.017665574327111244,0.007201265078037977,-0.00959498155862093,0.027521871030330658,0.07247711718082428,-0.002010445110499859,-0.027414420619606972,-0.00667701568454504,0.039182696491479874,-0.0030114734545350075,-0.020943306386470795,-0.013954320922493935,0.02276531793177128,0.014873052947223186,0.018626637756824493,-0.00859865266829729,0.013504819944500923,0.025637701153755188,-0.04213773459196091,-0.017360510304570198,-0.004319948609918356,0.08187653124332428,0.13788563013076782,-0.12543132901191711,0.1609593778848648,0.14990021288394928,-0.040652740746736526,0.15634487569332123,-0.02822054550051689,-0.004929041024297476,-0.10040369629859924,-0.007106368895620108,-0.3889982998371124,-0.1473252773284912,0.00324935931712389,0.049649644643068314,0.003640624927356839,-0.135429248213768,0.33049604296684265,-0.06077166274189949,0.08995458483695984,0.008682389743626118,-0.019154610112309456,-0.0281383004039526,-0.04922008886933327,-0.12277349084615707,0.22700585424900055,-0.18831804394721985,0.2617695927619934,0.34324344992637634,-0.01995169185101986,0.058543674647808075,-0.017952295020222664,0.20420078933238983,-0.22959227859973907,-0.036621659994125366,-0.03886711969971657,-0.3548307716846466,-0.02717275358736515,0.10772146284580231,-0.13852183520793915,0.03937342017889023,-0.22555673122406006,0.28847023844718933,-0.034646693617105484,0.1944756805896759,0.11259555071592331,-0.07635445892810822,0.05893877148628235,-0.047987353056669235,-0.09320425987243652,0.08631209284067154,0.23473799228668213,-0.1708976775407791,0.04248412698507309,0.2079640030860901,0.08283893764019012,0.36399152874946594,0.014379049651324749,-0.20780284702777863,-0.035952500998973846,0.1231188252568245,0.03343931958079338,-0.1997365802526474,0.006341659463942051,0.002264009788632393,0.021304795518517494,-0.1972460150718689,-0.19633159041404724,0.03821996971964836,-0.08781185746192932,0.05850595235824585,-0.040493544191122055,-0.130341038107872,0.21318212151527405,0.07500254362821579,0.13905218243598938,0.007092146668583155,0.024872010573744774,0.010512575507164001,0.06678888946771622,0.28416013717651367,0.35385754704475403,0.07065311074256897,-0.3113730847835541,0.08880744129419327,0.14056284725666046,0.10382860898971558,-0.24470587074756622,0.013229710049927235,-0.06275353580713272,0.034334585070610046,-0.04238726571202278,0.005793766118586063,0.1508164256811142,0.04904669523239136,0.2056131362915039,0.0134489256888628,0.04386676102876663,0.0012921886518597603,-0.010719758458435535,-0.04313229024410248,-0.06692714989185333,-0.07496201992034912,-0.07689788937568665,-0.03274746611714363,0.11926031857728958,-0.011445282027125359,-0.10643063485622406,-0.06247934699058533,-0.03904946520924568,-0.015728294849395752,0.10917748510837555,0.06293365359306335,0.10258635878562927,0.09458339214324951,0.054548393934965134,0.02726558782160282,-0.14062759280204773,0.06413532793521881,-0.03981389105319977,-0.07344868034124374,0.13458363711833954,-0.047293223440647125,-0.18108804523944855,-0.02506284788250923,-0.0841759517788887,-0.043813373893499374,-0.05492481216788292,0.04448102042078972,0.17587551474571228,0.07341595739126205,0.11549242585897446,0.08279845118522644,0.11729670315980911,0.02028062753379345,-0.1900666356086731,0.05304683372378349,-0.010494536720216274,-0.0006235797191038728,-0.027230987325310707,-0.06162423640489578,-0.05034733936190605,-0.023105528205633163,-0.05045419558882713,-0.09032147377729416,-0.09851837903261185,-0.0131730567663908,0.03816608339548111,-0.04309019818902016,-0.0036330395378172398,-0.030293235555291176,0.0697971060872078,-0.02909265272319317,-0.035999685525894165,0.027904309332370758,0.041028521955013275,0.023317530751228333,0.0729258805513382,0.048072170466184616,-0.003838059026747942,-0.0126246502622962,0.005459915846586227,0.03149442374706268,0.003484934102743864,0.03997931629419327,0.148705393075943,0.008622691035270691,0.0027649865951389074,-0.03474581241607666,0.029599951580166817,-0.05190414935350418,0.0007030206033959985,-0.0008419289370067418,-0.03379441052675247,-0.04362233355641365,-0.03168239817023277,-0.0374927893280983,0.010652477853000164,-0.011588213965296745,0.02449110522866249,0.026496412232518196,0.013826222158968449,0.03666464611887932,0.014452898874878883,0.019133631139993668,-0.028308093547821045,-0.08448255807161331,-0.035298459231853485,0.02805592119693756,0.02048514038324356,-0.0744001492857933,-0.20287354290485382,-0.06513648480176926,-0.09099700301885605,-0.006288708653301001,0.10108020156621933,0.09892459213733673,0.07121846079826355,0.034615132957696915,0.07950977981090546,0.003941596485674381,-0.18319883942604065,-0.0035693482495844364,0.12705126404762268,0.12067031115293503,0.008870602585375309,0.03618023917078972,-0.011786812916398048,-0.03114764764904976,-0.14375236630439758,-0.05995163321495056,-0.002691830974072218,-0.0082358093932271,0.08354883641004562,-0.030008668079972267,0.02409159205853939,0.06742742657661438,-0.11732091009616852,0.06187203899025917,0.14549383521080017,0.02636217698454857,0.03273126110434532,0.025810668244957924,0.07208415865898132,-0.003032008185982704,-0.11360308527946472,-0.08264555037021637,-0.1012095957994461,-0.07971541583538055,-0.08259696513414383,0.005461284425109625,0.13554075360298157,-0.03631937503814697,-0.017985058948397636,-0.05357043817639351,-0.026882503181695938,-0.1133664920926094,-0.02125735580921173,0.08526857942342758,0.06624386459589005,0.09327507764101028,0.0451107956469059,0.06114211678504944,-0.03695126622915268,-0.03205900639295578,-0.06017510965466499,-0.02708137221634388,0.012478020042181015,-0.12808769941329956,0.03992065042257309,0.09901420027017593,0.046122219413518906,0.02601417899131775,0.12854839861392975,0.08008446544408798,0.07595047354698181,-0.06154528260231018,-0.025568922981619835,-0.002993726870045066,-0.06298284232616425,0.052704859524965286,-0.06461843103170395,-0.07005750387907028,-0.01897362805902958,-0.07160259038209915,0.07931078970432281,0.158900648355484,0.022337723523378372,0.042380642145872116,0.019751792773604393,0.031741879880428314,-0.04110419377684593,-0.10313565284013748,0.1136157363653183,-0.009156844578683376,-0.0038395922165364027,0.007115819491446018,0.07756548374891281,0.10674189031124115,-0.15594251453876495,0.010481830686330795,-0.020315924659371376,0.009400377981364727,-0.0064619542099535465,0.0261419378221035,-0.10483768582344055,-0.07609838247299194,-0.07325156033039093,-0.07433602958917618,-0.07581494748592377,-0.02740972675383091,-0.1900101900100708,-0.04620003700256348,0.011588831432163715,-0.003837507450953126,0.006646944675594568,-0.057699888944625854,0.2053074687719345,0.047743748873472214,0.02574058622121811,-0.029485411942005157,-0.01875925436615944,-0.062261294573545456,-0.11844459176063538,0.04696909338235855,0.07281745225191116,0.05124262347817421,0.07769697904586792,0.09791269898414612,0.15145593881607056,-0.020100979134440422,0.03152124583721161,0.03491734340786934,0.0190069992095232,0.07367944717407227,-0.3693994879722595,0.04917430505156517,0.04240846261382103,0.026766110211610794,0.04344555363059044,0.005475983023643494,0.14513859152793884,0.003129570512101054,0.0064500547014176846,-0.010883765295147896,0.004195516929030418,0.029353922232985497,-0.004987660329788923,-0.050263646990060806,-0.12581993639469147,0.03162437304854393,-0.05924151837825775,-0.0328812412917614,-0.15868666768074036,-0.020055849105119705,-0.042770642787218094,-0.0877632200717926,-0.08384951949119568,-0.20680920779705048,-0.387016624212265,-0.051267921924591064,-0.021101443096995354,-0.07811908423900604,-0.08656714111566544,-0.1181085854768753,0.11441318690776825,0.058898910880088806,0.06562640517950058,0.1610298454761505,0.12735915184020996,0.17774201929569244,0.3610170781612396,0.07135502249002457,0.04915156960487366,0.016867002472281456,0.05576133728027344,0.03894778713583946,0.026942040771245956,-0.011954126879572868,-0.01858418434858322,-0.08862272650003433,-0.053588852286338806,-0.11313950270414352,-0.31123432517051697,-0.01808960735797882,-0.006439734250307083,0.027261070907115936,0.040513068437576294,0.09087713062763214,0.005052659194916487,0.017900334671139717,0.05023172125220299,0.03994278982281685,0.038935307413339615,0.06036175414919853,-0.13739930093288422,-0.08530208468437195,-0.08171244710683823,-0.08884333819150925,-0.0445227175951004,-0.07663382589817047,0.012433989904820919,-0.03727716580033302,-0.07091481238603592,-0.038528602570295334,-0.07288391143083572,-0.041610755026340485,-0.1988394558429718,0.0003138810570817441,0.0050007957033813,0.00403680419549346,0.017218567430973053,0.041006747633218765,0.10920035094022751,0.03842689096927643,0.0791107565164566,0.055444031953811646,-0.0013041695347055793,0.04665740579366684,0.13186132907867432,0.07200794667005539,0.028680089861154556,0.021516861394047737,0.0021230916026979685,0.03563695028424263,-0.10465970635414124,-0.011688622646033764,-0.023861199617385864,-0.060758043080568314,-0.02284272015094757,-0.09399677067995071,0.0766623392701149,-0.038036979734897614,-0.0156838521361351,-0.03340261057019234,0.03534681349992752,0.02963930182158947,-0.03873061388731003,0.001461023697629571,-0.013557625003159046,-0.003072745632380247,-0.04329223930835724,-0.026544712483882904,-0.00144008279312402,-0.04149704799056053,-0.006920432206243277,-0.058183446526527405,-0.01812855899333954,-0.04482434689998627,-0.03953174129128456,0.004720138851553202,-0.019479377195239067,0.005873401649296284,-0.15136101841926575,0.04003487899899483,-0.2249515801668167,-0.05096347630023956,-0.03815805912017822,-0.04988740384578705,-0.0014449276495724916,-0.0810672789812088,-0.021653424948453903,0.10670427232980728,0.08152610808610916,0.11007138341665268,0.07214556634426117,0.011535979807376862,0.014908893965184689,-0.022329440340399742,-0.020290369167923927,0.02612268179655075,-0.03825637325644493,0.09081373363733292,-0.04358988627791405,-0.03402048721909523,-0.06689950823783875,-0.04617127776145935,-0.10990342497825623,0.009841413237154484,0.0014443622203543782,0.029831139370799065,0.028883688151836395,0.007845981977880001,0.05426957085728645,0.0058881486766040325,0.02140318974852562,-0.021391820162534714,-0.0203110259026289,0.02403857558965683,-0.047551609575748444,0.049467649310827255,-0.03993315249681473,0.08045808970928192,-0.04288090765476227,0.01573140360414982,0.04130641371011734,-0.10363864153623581,-0.41003483533859253,-0.023242035880684853,-0.08625200390815735,0.08880442380905151,-0.012030796147882938,-0.010296785272657871,0.023699892684817314,0.01514408364892006,0.11621265113353729,-0.0012637835461646318,0.018687132745981216,-0.42028674483299255,-0.10008655488491058,0.27503085136413574,-0.28968966007232666,-0.21109730005264282,-0.23995427787303925,0.06590183079242706,-0.048465583473443985,-0.10661958903074265,-0.04495268315076828,0.11986007541418076,0.0237398911267519,0.014635722152888775,0.10685035586357117,-0.008342305198311806,0.11094365268945694,0.3047043979167938,0.03237897902727127,-0.3126586079597473,-0.026944853365421295,0.06777790188789368,-0.4564931392669678,-0.11851116269826889,-0.12756791710853577,-0.03221530467271805,0.08105513453483582,0.14172856509685516,0.047865234315395355,-0.004983425140380859,0.3611401319503784,0.09141569584608078,0.006152244750410318,0.043714433908462524,-0.1511620134115219,-0.029114900156855583,-0.016796238720417023,0.19202259182929993,0.16713061928749084,-0.028199736028909683,0.09603750705718994,0.00046987467794679105,-0.0947083905339241,-0.06407066434621811,0.012022755108773708,-0.45687544345855713,0.13953068852424622,-0.26153692603111267,-0.07354356348514557,-0.09565127640962601,0.14849470555782318,0.022839071229100227,0.2839423716068268,0.17240528762340546,-0.2996167242527008,-0.028006795793771744,-0.1877436637878418,0.24452729523181915,-0.040335994213819504,-0.1848582625389099,0.15247145295143127,-0.22447949647903442,0.11094686388969421,0.11146625876426697,0.21818207204341888,0.23717088997364044,0.18121816217899323,-0.006428353488445282,-0.007104323245584965,-0.02787729725241661,0.022433295845985413,0.09784474223852158,0.08578047156333923,0.08684159070253372,0.07082764059305191,0.019458403810858727,-0.035864900797605515,-0.04610537737607956,0.11680429428815842,0.09806191176176071,-0.039847876876592636,0.00942554883658886,0.10631481558084488,0.14017966389656067,0.1446799486875534,0.023585081100463867,-0.02173602022230625,0.022641347721219063,-0.0453178845345974,-0.11281327903270721,-0.08610110729932785,0.10066457092761993,0.08804861456155777,-0.05914483219385147,-0.1259269118309021,-0.06753594428300858,0.08706702291965485,-0.07948639988899231,0.05370613560080528,0.009157451801002026,0.05687684938311577,0.04059923440217972,-0.2123211920261383,-0.05534680187702179,-0.023196158930659294,0.03409428149461746,0.09961796551942825,0.1072584018111229,-0.1414547562599182,0.04603883996605873,0.011067632585763931,0.005020798183977604,-0.06758108735084534,-0.10109278559684753,0.11281246691942215,-0.07470641285181046,-0.09404517710208893,-0.04736264795064926,0.08820917457342148,0.13710427284240723,-0.058998242020606995,-0.027351440861821175,-0.05445986986160278,-0.0225673858076334,-0.020334498956799507,-0.038599103689193726,-0.03960103914141655,-0.07450897246599197,-0.05466291308403015,-0.08663186430931091,-0.12143731117248535,-0.15607857704162598,-0.36152857542037964,-0.08062413334846497,-0.09940285235643387,-0.12862780690193176,-0.12433511763811111,-0.08706958591938019,-0.0822293683886528,0.053048308938741684,0.04510924965143204,0.051338404417037964,0.09436500072479248,0.13868792355060577,0.24545958638191223,0.0690995380282402,0.020254118368029594,0.03834712505340576,0.07306709885597229,-0.0025002637412399054,-0.13490401208400726,-0.026757072657346725,-0.03600579872727394,-0.04523683339357376,-0.034846313297748566,-0.06700274348258972,0.004324418492615223,-0.05905228480696678,-0.03153253719210625,-0.04224758595228195,-0.03895866870880127,-0.032904013991355896,-0.061596956104040146,0.003545786952599883,-0.005717091262340546,-0.013883796520531178,0.025215065106749535,0.04218604788184166,-0.04402712360024452,-0.010804085060954094,-0.0032295568380504847,0.015067409723997116,0.09896436333656311,-0.06182220205664635,-0.20959660410881042,-0.013008169829845428,-0.0006855133688077331,-0.010035422630608082,-0.119270920753479,-0.0264440905302763,0.0859486386179924,0.057498153299093246,0.00271009118296206,0.023424895480275154,0.07419326156377792,-0.04293787106871605,-0.07832004874944687,-0.05438382923603058,-0.04068152979016304,0.004838329274207354,-0.07155115157365799,0.20715828239917755,0.15791890025138855,0.04955635219812393,0.032225631177425385,0.0056141638197004795,-0.06641022861003876,-0.015164307318627834,0.14074496924877167,0.06378508359193802,0.029353581368923187,0.013367289677262306,-0.04059050977230072,-0.11369065940380096,-0.06858022511005402,0.00810202769935131,0.055028270930051804,0.03927399218082428,0.04344004765152931,-0.038215652108192444,-0.02143133617937565,-0.024623733013868332,-0.024389903992414474,0.01397563423961401,-0.057127695530653,-0.08617420494556427,-0.027938226237893105,0.0170473363250494,0.012340648099780083,0.09513352066278458,0.010867781937122345,0.0775466039776802,0.11390738934278488,0.06240563839673996,-0.015301130712032318,0.04352925345301628,0.05136585980653763,-0.12995369732379913,-0.1703275442123413,-0.0012871455401182175,-0.006699396762996912,0.003714090446010232,0.03643982484936714,0.10486570745706558,0.04451621323823929,0.04855046421289444,0.025432925671339035,0.01076867338269949,-0.027107208967208862,-0.019709037616848946,0.025061579421162605,-0.009552141651511192,-0.0028188067954033613,-0.07940839976072311,-0.05831458047032356,-0.12842509150505066,-0.07587064802646637,-0.008889571763575077,-0.009731142781674862,-0.024907274171710014,0.008853436447679996,-0.0037663872353732586,-0.03783295303583145,0.05570007488131523,0.0354180634021759,0.05621213838458061,0.11622998118400574,0.09549657255411148,0.06930387765169144,-0.019426248967647552,0.025101598352193832,-0.0040174853056669235,-0.0035070672165602446,-0.12265800684690475,-0.1017533466219902,-0.030444566160440445,-0.014959879219532013,0.0038738681469112635,0.007430443074554205,0.02300868183374405,-0.023851962760090828,-0.0728660300374031,-0.06457851082086563,-0.06260814517736435,-0.076987124979496,-0.11212906986474991,-0.13510547578334808,-0.03833413124084473,-0.04620460048317909,-0.018863338977098465,-0.04103510454297066,-0.016140500083565712,-0.2281620353460312,0.016596956178545952,0.014691407792270184,0.017604809254407883,-0.015209139324724674,-0.044021088629961014,0.0560341402888298,0.04228396713733673,0.06559614837169647,0.05115020275115967,0.061351750046014786,0.045404888689517975,-0.10962152481079102,-0.0029496802017092705,0.011690791696310043,0.0004577642248477787,0.01653343252837658,0.035849396139383316,0.24016691744327545,0.0023993942886590958,0.013927707448601723,-0.01665155217051506,0.04432108625769615,0.02370046079158783,-0.15705616772174835,-0.02959754317998886,-0.05058245360851288,-0.024866657331585884,-0.0825514867901802,-0.029960965737700462,0.05123821645975113,-0.03598406910896301,-0.012082629837095737,-0.04150551185011864,-0.06552933901548386,-0.12207923084497452,-0.11341655999422073,-0.08596210926771164,-0.047954581677913666,-0.0829949602484703,-0.05887448787689209,-0.04248968884348869,0.05072467029094696,-0.07325571775436401,-0.0545387901365757,-0.10242761671543121,-0.09130813181400299,-0.14671635627746582,-0.11471526324748993,0.041057515889406204,0.04714608192443848,0.05648234486579895,0.1201866939663887,0.19406087696552277,0.03471682220697403,0.05984261631965637,0.03414766117930412,0.05964639410376549,0.029917292296886444,0.12145961821079254,0.25970354676246643,-0.012599884532392025,-0.022260211408138275,-0.012424370273947716,-0.057790931314229965,-0.06066562980413437,0.08725963532924652,0.028773445636034012,-0.02471967600286007,0.010102475062012672,-0.016154447570443153,-0.03602459281682968,-0.032630156725645065,-0.0060272603295743465,0.02158297598361969,-0.021645911037921906,0.026272032409906387,0.03654395043849945,0.0964415967464447,-0.0186013150960207,0.005592684261500835,0.0017622142331674695,-0.015322184190154076,-0.02004566602408886,-0.28440356254577637,-0.13560354709625244,-0.13134600222110748,-0.15473386645317078,-0.1598425954580307,-0.1851780265569687,-0.2586577236652374,-0.05298633128404617,-0.08093296736478806,-0.09245803207159042,-0.10782822966575623,-0.14497579634189606,-0.010596501640975475,-0.004071769304573536,0.019276034086942673,-0.010567542165517807,-0.055613525211811066,-0.004736827686429024,0.43780648708343506,0.12283918261528015,0.12783540785312653,0.09315937012434006,0.04838041588664055,0.09743930399417877,0.15382203459739685,0.03315313532948494,0.017170267179608345,0.008441775105893612,-0.0005472686025314033,0.00844296719878912,-0.3557133674621582,-0.023423226550221443,-0.021422117948532104,0.017874818295240402,-0.01628483645617962,0.009368753992021084,-0.0960136353969574,-0.025926103815436363,-0.04196290671825409,-0.06003527715802193,-0.07523449510335922,-0.028786785900592804,-0.18197846412658691,-0.04199795424938202,0.04897874593734741,-0.043002355843782425,-0.06145048141479492,0.010860503651201725,0.03455419838428497,0.061376966536045074,0.020034784451127052,0.0349663682281971,0.08663208037614822,0.08827122300863266,0.08863911032676697,0.011008641682565212,-0.054901156574487686,0.02620893158018589,0.007469058968126774,-0.09710747003555298,-0.2754948139190674,0.01257381308823824,0.05398702248930931,0.0463777594268322,0.13437795639038086,0.09555415064096451,-0.07433397322893143,-0.13051071763038635,-0.07134871929883957,-0.06314999610185623,-0.051972243934869766,-0.004983384627848864,-0.03616553544998169,-0.04450533911585808,-0.04542410373687744,-0.009501660242676735,-0.021180955693125725,-0.05739231035113335,0.19058863818645477,0.0725078210234642,-0.007838357239961624,0.030950631946325302,0.011807207949459553,0.1047910675406456,0.023676961660385132,0.07749711722135544,-0.019587919116020203,0.05119941756129265,0.0708187073469162,0.1207316592335701,0.16756072640419006,0.0704389289021492,-0.21633875370025635,-0.07158923894166946,-0.05461612716317177,-0.09642509371042252,-0.15999868512153625,-0.2349892109632492,0.20486055314540863,0.06583254039287567,0.027492912486195564,-0.015015866607427597,0.02868913672864437,-0.014771859161555767,-0.030297957360744476,0.013581277802586555,-0.41212910413742065,0.003652813145890832,-5.9431957197375596e-05,-0.05241936072707176,-0.07574519515037537,-0.000391552021028474,0.053153157234191895,-0.3321123421192169,-0.1198941245675087,0.1076795756816864,0.1335502564907074,-0.15972793102264404,0.14854326844215393,-0.12734894454479218,-0.11671284586191177,0.10744339227676392,0.27436599135398865,0.2665284276008606,-0.18268175423145294,-0.21868078410625458,0.08273244649171829,-0.29449304938316345,0.08302681148052216,-0.5297552347183228,-0.24794504046440125,0.10379580408334732,0.061993762850761414,0.1368277221918106,0.05663946643471718,0.31363412737846375,-0.22638379037380219,0.19772927463054657,0.1051533967256546,0.25581905245780945,0.26021260023117065,-0.24796441197395325,-0.1878216415643692,-0.03134434297680855,-0.2684915065765381,0.24379153549671173,0.15023423731327057,-0.034013476222753525,-0.21094082295894623,-0.0545957088470459,0.020008258521556854,0.1988324373960495,-0.08711491525173187,0.20819559693336487,0.13394959270954132,-0.3236173689365387,-0.3916621208190918,0.07628952711820602,0.2602975070476532,-0.06342436373233795,0.23287956416606903,-0.280478298664093,-0.16792605817317963,-0.20099961757659912,0.18666061758995056,0.0018895979737862945,-0.07526186853647232,-0.05415339395403862,-0.10719677060842514,-0.05436361953616142,-0.4205666184425354,-0.15708938241004944,0.07478006929159164,0.11425548046827316,0.10710691660642624,0.02881701849400997,0.0068669491447508335,0.1921946108341217,0.03031938709318638,-0.2502468228340149,0.06529203057289124,-0.009127561934292316,-0.03803471475839615,-0.13360343873500824,0.14422014355659485,0.0691237673163414,0.06752003729343414,0.058192867785692215,0.01326784398406744,0.16877150535583496,0.009120824746787548,0.07781972736120224,0.011551820673048496,-0.08241277188062668,-0.022703630849719048,-0.003553741378709674,-0.022161755710840225,0.07988337427377701,0.07977014780044556,0.18264304101467133,0.10016048699617386,0.030656641349196434,0.10076074302196503,0.07767119258642197,0.009599821642041206,-0.12986409664154053,0.0354575477540493,0.03367137908935547,0.02836332842707634,0.08263065665960312,-0.033532869070768356,-0.05646553263068199,-0.0939270481467247,0.02331128530204296,-0.012123804539442062,-0.05400184169411659,0.06994860619306564,0.32925018668174744,0.18257245421409607,0.04552243649959564,0.14118719100952148,-0.05056242644786835,-0.20868122577667236,0.06263281404972076,-0.04108449071645737,0.07700005918741226,-0.08270547538995743,0.028094355016946793,-0.02462797239422798,-0.1090807244181633,-0.04330102354288101,-0.08138095587491989,-0.11287128925323486,0.06039746105670929,0.00954940915107727,0.10815012454986572,0.042927760630846024,0.10728538781404495,0.04531547427177429,0.02053641900420189,0.05249045044183731,0.04592179134488106,-0.013861778192222118,0.060877300798892975,0.0006463021272793412,0.04645829647779465,0.012606771662831306,0.052246030420064926,-0.035742271691560745,0.0829918161034584,-0.004257245920598507,-0.07703737169504166,0.0532124862074852,0.1080852821469307,0.04307381808757782,-0.12530823051929474,0.09257759898900986,-0.0038326317444443703,0.04014621675014496,0.03672277182340622,-0.014585498720407486,-0.03537257760763168,-0.10090328752994537,0.050514012575149536,-0.0654318556189537,-0.18842926621437073,-0.004927229136228561,0.10595210641622543,0.08559056371450424,-0.0462777204811573,-0.013668046332895756,0.036604899913072586,-0.015439586713910103,-0.03151814267039299,-0.04853466525673866,0.002251140773296356,0.002238516928628087,0.0011778579792007804,0.0018600213807076216,0.001061338814906776,0.0009750992758199573,-0.0060633341781795025,-0.0064652347937226295,-0.005742967594414949,-0.005590454675257206,-0.007027706131339073,-0.006233886815607548,0.00046685244888067245,-0.0006261275266297162,-0.00031345218303613365,-0.00030079908901825547,0.0008171494118869305,-0.00028715780354104936,-0.001982480986043811,-0.0013804722111672163,-0.0015312916366383433,-0.0017989093903452158,-0.0006464994512498379,-0.0013730359496548772,0.0007007588865235448,-0.000420836906414479,0.0011340061901137233,0.001081809401512146,8.476409857394174e-05,0.001420176587998867,0.0001359219750156626,0.00160982517991215,0.00137231161352247,0.00034868167131207883,-0.00022988954151514918,0.00039921121788211167,0.0007845328073017299,0.001135550090111792,0.0002464545250404626,0.00047957993228919804,0.0005069140461273491,0.0005840302910655737,0.00044544614502228796,-0.0005807363195344806,0.00020979483088012785,0.0005932676722295582,2.443559242237825e-05,0.00010980842489516363,-0.0025019817985594273,0.0009137902525253594,0.10965167731046677,0.06519259512424469,0.050170283764600754,-0.03573663905262947,-0.024325653910636902,-0.050704214721918106,-0.05757851153612137,-0.04876849055290222,-0.0668066218495369,0.005410871934145689,-0.09228303283452988,-0.03595142066478729,-0.07641702890396118,-0.02063813805580139,0.020347850397229195,0.0046050590462982655,0.08549807220697403,0.05687564238905907,0.08159509301185608,0.00340457446873188,-0.07388804852962494,-0.007904497906565666,-0.0018952809041365981,0.015906475484371185,-0.022331353276968002,-0.01202361285686493,-0.010983292944729328,0.050793830305337906,-0.055844150483608246,-0.058299411088228226,-0.09396077692508698,-0.022709757089614868,0.028047699481248856,0.03807471692562103,-0.03564940392971039,-0.041565559804439545,-0.0689629539847374,-0.02146570011973381,0.06997866183519363,0.032798197120428085,0.007949765771627426,-0.007955966517329216,-0.009262450970709324,-0.03184385597705841,-0.04000580310821533,0.0035841891076415777,-0.08174555003643036,0.021701859310269356,0.024923335760831833,-0.030166691169142723,0.056813545525074005,0.047187935560941696,0.11316968500614166,0.08912602812051773,0.06027676910161972,-0.023082466796040535,0.0749862939119339,-0.007446859497576952,-0.033102843910455704,-0.07904011011123657,0.05435532331466675,0.017446987330913544,-0.056622304022312164,-0.10305765271186829,-0.02445465326309204,0.07120572775602341,0.13675494492053986,0.10671895742416382,0.07232454419136047,0.11450579017400742,0.026650594547390938,-0.021194318309426308,-0.10319580137729645,-0.12224046885967255,-0.024422720074653625,-0.004267780110239983,0.08629932254552841,-0.07727139443159103,-0.0080899428576231,0.04232463613152504,-0.04040972515940666,-0.0420142225921154,0.03041679598391056,0.10076326131820679,0.05420045554637909,0.10039221495389938,0.021438414230942726,0.0642261728644371,0.13370952010154724,-0.07220584899187088,-0.23369884490966797,0.009493444114923477,-0.07809735834598541,0.09210842847824097,-0.047495197504758835,-0.07308099418878555,-0.004454648122191429,-0.06077144294977188,-0.00818698015064001,-0.09577511996030807,0.02830747328698635,-0.03536431863903999,0.07352370023727417,0.014151589013636112,0.08866027742624283,-0.005124494433403015,-0.0749027356505394,-0.01836264505982399,0.13862386345863342,0.011597066186368465,-0.03773977607488632,0.01637803390622139,0.06692565232515335,-0.04199747368693352,0.13022707402706146,0.0051635680720210075,0.02274957112967968,-0.06415431946516037,-0.042473409324884415,-0.05878625810146332,0.016963975504040718,0.005642472766339779,-0.06994438916444778,-0.05244932696223259,-0.08687441796064377,0.038338545709848404,-0.03458917886018753,0.07933095842599869,-0.023072151467204094,0.02783701755106449,0.13374747335910797,0.05355501174926758,-0.06854020059108734,-0.014887067489326,0.054056670516729355,-0.11187442392110825,0.015692943707108498,0.22081467509269714,-0.2798357605934143,-0.037849292159080505,-0.011217178776860237,0.03414385765790939,0.001906567718833685,0.0013037077151238918,0.0021980181336402893,0.0019172104075551033,0.0017993468791246414,0.0018256959738209844,-0.003963504917919636,-0.005258919205516577,-0.0035225253086537123,-0.0039437091909348965,-0.0037039457820355892,-0.0029428054112941027,0.00043508061207830906,0.0003831245412584394,0.00035616583772934973,-0.0005963151925243437,0.00022299664851743728,-0.00034886295907199383,-0.001991919707506895,-0.0015997043810784817,-0.001563636469654739,-0.0008881817921064794,-0.0006765754078514874,-0.0014387142146006227,0.0006497215945273638,-0.00023212174710351974,0.00031708471942692995,-1.9693392459885217e-05,-0.00038730661617591977,0.0001689113851170987,-0.00047768864897079766,0.0008447016007266939,0.0008033468038775027,0.0016125333495438099,0.0010745471809059381,-0.0008480375981889665,0.0013152541359886527,0.00157131755258888,0.000650640344247222,0.000571920711081475,0.0007323846803046763,0.0004476704343687743,0.000674754788633436,0.00042958551784977317,0.00022716273088008165,0.0003344646829646081,-0.000244481343543157,0.0008183286990970373,-0.03954542800784111,-0.016874263063073158,0.0204918310046196,0.02062293328344822,-0.014477388933300972,-0.030550699681043625,0.015350505709648132,-0.013652378693223,0.027701709419488907,-0.05159066617488861,0.008830539882183075,-0.006428739987313747,-0.0027916287072002888,0.012611825950443745,-0.05328131467103958,-0.04109370335936546,0.027688845992088318,-0.03509847819805145,0.002043341053649783,0.02187214605510235,0.05277085676789284,-0.019725855439901352,0.05819200724363327,0.06427239626646042,0.030418379232287407,-0.029968881979584694,-0.08364209532737732,