{"version":"0.5.4","metadata":{"date":{"year":2025,"month":11,"day":4,"hour":17,"minute":39,"second":1},"loudness":-20.997743606567383,"gain":0.23692767575880416,"name":"Fender - Princeton Clean 3 SM57","modeled_by":"tone3000","gear_type":"amp","gear_make":"tz-make","gear_model":"tz-model","tone_type":"overdrive","input_level_dbu":null,"output_level_dbu":null,"training":{"settings":{"ignore_checks":false},"data":{"latency":{"manual":null,"calibration":{"algorithm_version":1,"delays":[606],"safety_factor":1,"recommended":605,"warnings":{"matches_lookahead":false,"disagreement_too_high":false}}},"checks":{"version":3,"passed":true}},"validation_esr":0.0013249166526099459}},"architecture":"WaveNet","config":{"layers":[{"input_size":1,"condition_size":1,"head_size":8,"channels":16,"kernel_size":3,"dilations":[1,2,4,8,16,32,64,128,256,512],"activation":"Tanh","gated":false,"head_bias":false},{"input_size":16,"condition_size":1,"head_size":1,"channels":8,"kernel_size":3,"dilations":[1,2,4,8,16,32,64,128,256,512],"activation":"Tanh","gated":false,"head_bias":true}],"head":null,"head_scale":0.02},"weights":[-0.1487812101840973,0.6696141362190247,-0.7713109850883484,-0.7136150002479553,-0.35395100712776184,0.07452652603387833,0.0023229378275573254,0.6533793807029724,-0.1054685115814209,0.31284812092781067,-0.23485258221626282,-0.08246109634637833,-1.0975984334945679,-0.7284319400787354,-0.37258607149124146,-0.1499209851026535,-0.13602833449840546,0.22721508145332336,-0.05465789884328842,0.03552648052573204,-0.08553335815668106,0.1035962849855423,-0.12233538180589676,0.24417844414710999,-0.005994890350848436,-0.07331913709640503,0.2633150517940521,-0.11838512867689133,-0.17558202147483826,0.08542758971452713,-0.03222163766622543,0.2257823348045349,-0.19361767172813416,-0.07839572429656982,-0.09802132099866867,-0.10089336335659027,0.034209102392196655,0.2095007747411728,-0.0668085590004921,0.05348310247063637,-0.1292455494403839,0.03453785181045532,0.05072895064949989,-0.024475496262311935,-0.23568712174892426,-0.0872124657034874,-0.01368032954633236,0.21233835816383362,-0.04978066310286522,-0.09877806901931763,0.17776335775852203,0.15537810325622559,-0.03575005382299423,0.16096070408821106,0.11573736369609833,-0.17680537700653076,0.16530191898345947,-0.0946597158908844,-0.1983458399772644,0.05783643200993538,0.0821612998843193,-0.12774504721164703,-0.03185850381851196,0.1273220032453537,0.11620230972766876,-0.09264020621776581,-0.025830699130892754,0.10932964831590652,0.10695230960845947,0.10506956279277802,-0.18335257470607758,-0.06939426064491272,0.09210559725761414,0.04553546756505966,0.11103110015392303,0.163568377494812,-0.02774587646126747,-0.1304609626531601,0.043856702744960785,-0.05714830383658409,-0.13104386627674103,0.10945305973291397,0.07379604130983353,-0.17016832530498505,-0.04186384379863739,0.04647047072649002,-0.009252027608454227,-0.09941813349723816,0.02246115356683731,-0.09267370402812958,0.06264600157737732,0.14076824486255646,0.11724136024713516,0.018398601561784744,-0.20213498175144196,-0.11060048639774323,0.09564632922410965,-0.01095200888812542,-0.1084030345082283,-0.06442874670028687,0.05782226100564003,0.07751408219337463,-0.02695191465318203,-0.1111084446310997,-0.15188729763031006,0.03757629543542862,-0.17853236198425293,-0.12856902182102203,0.02108878642320633,0.05255987122654915,-0.19180092215538025,-0.11471667140722275,-0.022033581510186195,0.010184118524193764,0.20203189551830292,-0.12086988985538483,0.21007698774337769,-0.07428707182407379,0.0147656025364995,-0.21132881939411163,0.1324283331632614,0.0004851125704590231,-0.3143606185913086,0.14502379298210144,-0.1353534460067749,-0.30826234817504883,0.05166857689619064,-0.10195425152778625,0.12470468878746033,-0.2492818534374237,0.005142625886946917,-0.004615442827343941,-0.006472157314419746,-0.0005767199909314513,0.34566792845726013,-0.09246458858251572,0.062078505754470825,-0.16678403317928314,0.18854980170726776,0.07699927687644958,0.36019736528396606,-0.007032157853245735,0.1530688852071762,-0.2274070829153061,-0.024668749421834946,-0.0369386188685894,-0.07728606462478638,0.12666983902454376,-0.08015056699514389,-0.3606546223163605,-0.06183278560638428,-0.12716184556484222,-0.27419808506965637,0.1570429801940918,0.08453336358070374,-0.3728935122489929,0.17903007566928864,-0.019290488213300705,-0.09904110431671143,-0.07792623341083527,-0.14576198160648346,-0.07475580275058746,-0.2079230695962906,-0.14837966859340668,-0.06006345897912979,0.13976207375526428,-0.03976825997233391,0.09209951758384705,-0.2646856904029846,0.020056892186403275,0.16589373350143433,-0.19256927073001862,0.13534760475158691,0.06597599387168884,-0.2743957042694092,0.09291742742061615,-0.033437330275774,0.06860843300819397,0.03963586315512657,-0.1354803740978241,0.0799635723233223,-0.05939449742436409,0.0627020075917244,0.1738794445991516,0.045801810920238495,0.032625798135995865,-0.18195970356464386,-0.04207099974155426,-0.14236097037792206,0.223964661359787,0.12678617238998413,0.12798894941806793,-0.24230733513832092,0.002696620300412178,-0.09434842318296432,-0.22412797808647156,-0.05398311838507652,0.09070999920368195,-0.21929176151752472,0.024068450555205345,0.042201071977615356,-0.044953614473342896,-0.09026342630386353,-0.06508786231279373,-0.22206050157546997,-0.03619658201932907,-0.15433858335018158,0.23747201263904572,-0.13066643476486206,0.017039041966199875,-0.06898034363985062,0.01648765057325363,-0.07520881295204163,0.01776948757469654,-0.04198049008846283,0.1116529181599617,-0.16082723438739777,-0.11483452469110489,0.20777025818824768,-0.16468891501426697,-0.0592530183494091,0.21918001770973206,0.006619463209062815,0.058637864887714386,-0.1910128891468048,0.11908140033483505,-0.07541156560182571,0.040441662073135376,0.15822459757328033,0.017922410741448402,-0.08887074887752533,0.16708000004291534,-0.06362377107143402,0.17910373210906982,0.03885224461555481,-0.03718916326761246,-0.01892724074423313,-0.04673308879137039,-0.11356807500123978,0.12603333592414856,-0.00526476139202714,0.05466092377901077,0.014580394141376019,-0.045685917139053345,0.03428957611322403,-0.04345546290278435,0.05705081298947334,-0.16012617945671082,0.09460541605949402,-0.07360700517892838,-0.12245730310678482,0.1085381805896759,0.06931184232234955,-0.14516398310661316,-0.06705992668867111,0.08388736844062805,0.06707687675952911,0.07273843884468079,-0.421642541885376,-0.2337396740913391,0.021670300513505936,0.413483202457428,0.20695997774600983,0.00608993973582983,-0.2767437696456909,0.07796584814786911,-0.14654402434825897,-0.2835201919078827,0.2531130015850067,-0.047756027430295944,-0.3736204504966736,-0.22072401642799377,-0.08724352717399597,0.26536825299263,0.000022844647901365533,-0.12593455612659454,0.01329432986676693,-0.2199370563030243,0.0888485535979271,0.36088454723358154,0.19937293231487274,-0.11825945973396301,-0.36628079414367676,-0.037441760301589966,0.10551678389310837,0.4345874786376953,0.10226137936115265,-0.03606061637401581,-0.32421866059303284,0.14946657419204712,-0.13350026309490204,-0.17913584411144257,0.17536811530590057,-0.11140292137861252,-0.369733989238739,0.04118664562702179,-0.006356990896165371,-0.44115886092185974,0.20281079411506653,-0.14133596420288086,-0.3819153606891632,0.2504015266895294,0.0010529480641707778,-0.3590508699417114,0.07200569659471512,-0.034166593104600906,0.07752964645624161,-0.005974802188575268,0.08191991597414017,-0.1405887007713318,-0.05658074468374252,-0.048526469618082047,0.1660865843296051,0.007839163765311241,0.02767876908183098,0.21231423318386078,-0.016053002327680588,-0.02151702716946602,0.17000216245651245,-0.05877334997057915,0.015096823684871197,-0.11540602892637253,-0.15384311974048615,-0.0007309272768907249,0.08839239925146103,0.0686330497264862,0.1127309650182724,-0.09599398076534271,0.1656753271818161,-0.032622333616018295,0.050285011529922485,-0.19988209009170532,0.15180282294750214,-0.04307084158062935,-0.026258176192641258,0.045263711363077164,0.24191971123218536,0.21201114356517792,0.11208344250917435,0.23943021893501282,0.02922879531979561,-0.07680395990610123,0.2357061356306076,0.14310812950134277,-0.11218772083520889,0.2473909705877304,0.13843823969364166,0.05806742236018181,0.033498719334602356,0.10517308115959167,0.047442056238651276,0.07853305339813232,-0.15463276207447052,-0.10057172924280167,0.09176536649465561,0.26346907019615173,0.18108251690864563,0.02110855095088482,-0.30316027998924255,-0.19582325220108032,-0.051209770143032074,-0.3478624224662781,-0.3448142111301422,0.15990759432315826,-0.10325472056865692,-0.06780100613832474,0.17435015738010406,0.0180436372756958,0.07030004262924194,-0.11594783514738083,-0.0954420417547226,0.17187154293060303,0.04392867907881737,0.13087980449199677,0.08910976350307465,-0.1282225400209427,-0.02568165957927704,-0.0312601663172245,0.21707265079021454,0.300220251083374,0.33762097358703613,-0.10080278664827347,-0.11460499465465546,-0.0769360363483429,0.11798214912414551,0.0002186804631492123,-0.08848457038402557,0.1813596785068512,-0.26063695549964905,-0.16594401001930237,0.05787385255098343,-0.24233275651931763,-0.31201329827308655,-0.0352332629263401,-0.30077871680259705,-0.12151461839675903,0.15985730290412903,-0.04250917583703995,-0.17225979268550873,-0.018655972555279732,0.19838634133338928,-0.07636295258998871,0.07154493033885956,0.0675695464015007,0.26767751574516296,-0.25018301606178284,0.19711127877235413,-0.09826888889074326,0.08094602823257446,0.13792912662029266,-0.28810426592826843,0.11213058233261108,0.18959133327007294,-0.17676058411598206,0.038211870938539505,-0.13540996611118317,0.10742679238319397,-0.18774519860744476,0.01068897545337677,0.09243310987949371,0.03512056544423103,-0.1460384726524353,0.2132471352815628,-0.0640174075961113,0.18767961859703064,-0.25363340973854065,0.16710114479064941,-0.18503698706626892,0.1275794506072998,-0.10104739665985107,-0.025922328233718872,-0.13115666806697845,0.27434924244880676,0.09676063060760498,-0.24375073611736298,0.10967078804969788,0.08812689036130905,-0.3227003812789917,0.20439690351486206,-0.07159809023141861,-0.34613776206970215,-0.003153049387037754,0.042194824665784836,-0.10060501098632812,0.008021589368581772,0.262666255235672,-0.051466602832078934,0.10954947769641876,0.08409220725297928,-0.07781945914030075,0.15325237810611725,-0.008592604659497738,0.1961340308189392,0.09150677174329758,-0.016554508358240128,0.06706920266151428,-0.014550424180924892,0.1459840089082718,-0.16979897022247314,-0.06147966906428337,-0.07369302213191986,-0.10840091109275818,0.011984232813119888,-0.16673308610916138,0.09287002682685852,0.0839456096291542,0.08036091178655624,0.004757946357131004,0.014480437152087688,-0.1204502061009407,0.11811981350183487,0.16058410704135895,0.15766054391860962,-0.04107314720749855,0.05189860612154007,-0.2251090407371521,-0.07580091804265976,0.08542249351739883,-0.006607052870094776,0.022125227376818657,-0.11307527124881744,-0.008166376501321793,-0.17018641531467438,0.06662235409021378,0.06743912398815155,0.0591096505522728,0.06820536404848099,0.16045711934566498,-0.04768464341759682,-0.06594626605510712,0.046202342957258224,-0.0353141687810421,0.050680432468652725,0.0054184067994356155,0.2656450867652893,0.0979737639427185,0.02575221098959446,-0.2046060562133789,-0.012856739573180676,0.16521017253398895,-0.07824540883302689,0.05020667985081673,0.03778330981731415,0.03159991651773453,0.172298401594162,-0.11219803988933563,-0.0063980803824961185,0.1110839992761612,-0.06376400589942932,0.005564319435507059,0.005418265704065561,0.08963702619075775,0.0020118122920393944,-0.08414999395608902,0.17611004412174225,0.05437877029180527,-0.14929760992527008,0.046732109040021896,0.13538336753845215,-0.0648273378610611,0.06401645392179489,-0.08075333386659622,0.06555348634719849,-0.08057542890310287,-0.03966020792722702,-0.12682710587978363,0.11638408154249191,-0.0861615315079689,0.044181060045957565,-0.07878762483596802,0.1126139834523201,0.17993885278701782,-0.1455475240945816,-0.17280395328998566,-0.05827605724334717,-0.03607506304979324,-0.08855949342250824,-0.04083123803138733,-0.08027707785367966,-0.02448640763759613,-0.026500774547457695,0.1545589566230774,-0.1707066148519516,-0.2971401810646057,0.30744099617004395,0.040877994149923325,0.06965231150388718,-0.16005884110927582,0.17879074811935425,0.07807702571153641,0.022908009588718414,-0.36896365880966187,0.20394356548786163,0.06361671537160873,-0.1996893286705017,0.04731232672929764,0.1224910318851471,-0.24213741719722748,0.14907091856002808,-0.15401606261730194,0.04349924623966217,-0.14093723893165588,-0.08145489543676376,-0.043254148215055466,-0.2964620292186737,-0.015132236294448376,0.19334332644939423,-0.08532925695180893,0.3146829307079315,-0.1129528358578682,0.17522042989730835,-0.09472261369228363,0.18221789598464966,-0.15972688794136047,0.15871122479438782,-0.09920825809240341,0.01407444104552269,0.02526833675801754,-0.11170144379138947,0.19386428594589233,0.12025187909603119,-0.35598912835121155,-0.07086744159460068,0.19596406817436218,-0.2444821298122406,-0.012713131494820118,0.19527721405029297,-0.17068079113960266,0.1763564646244049,0.22998803853988647,-0.10487792640924454,-0.08523676544427872,-0.23307423293590546,0.19261585175991058,0.20525754988193512,0.144262433052063,-0.1073106899857521,-0.03195668384432793,0.051605224609375,0.10890038311481476,0.035149119794368744,-0.13360483944416046,-0.11954811960458755,0.2907000482082367,-0.13561901450157166,-0.08142483979463577,0.22180896997451782,-0.0036259612534195185,-0.061746906489133835,-0.1440398246049881,-0.08882010728120804,-0.3066954016685486,-0.1900889277458191,0.013248918578028679,0.07052619755268097,-0.02890818566083908,-0.009021447040140629,0.030357811599969864,0.2782787084579468,0.10117650777101517,-0.051479849964380264,-0.029040062800049782,-0.04329976439476013,-0.1549501270055771,0.11624814569950104,-0.15703359246253967,0.11290916055440903,0.10564745217561722,-0.21493123471736908,-0.028160663321614265,0.25205910205841064,-0.04348163679242134,0.02864455245435238,0.17478634417057037,-0.03100508451461792,-0.056189898401498795,0.09847205132246017,-0.13847357034683228,0.02288883551955223,0.31403911113739014,-0.1909584105014801,0.35211753845214844,-0.09208974242210388,0.07161449640989304,-0.5447781085968018,0.25427931547164917,-0.13973449170589447,0.5672379732131958,-0.22593794763088226,-0.0865984633564949,0.5244823098182678,-0.16914920508861542,0.05339793488383293,0.31717732548713684,-0.24265682697296143,0.032233644276857376,-0.33846887946128845,0.2918832004070282,-0.15988464653491974,0.2011975347995758,-0.1617366075515747,0.02164672687649727,-0.3365311920642853,-0.001687202719040215,-0.11161988228559494,0.492038756608963,-0.20594005286693573,0.19062447547912598,-0.4743996262550354,0.24849148094654083,-0.2191621959209442,0.3966066241264343,-0.1628502607345581,-0.05076704919338226,0.4082309901714325,-0.05050500109791756,-0.07426640391349792,0.4509662687778473,-0.008946487680077553,-0.09379666298627853,0.5780635476112366,-0.2070525586605072,-0.08692250400781631,0.42623794078826904,-0.060666631907224655,-0.11128067225217819,0.17342309653759003,-0.16878511011600494,0.16187645494937897,0.0103357108309865,0.01588129810988903,-0.1382942795753479,0.20264901220798492,0.06986209005117416,0.05786411836743355,-0.24571536481380463,0.1630493700504303,-0.06480202823877335,-0.07612819969654083,0.08366471529006958,-0.01468889694660902,-0.039629269391298294,-0.06246253848075867,-0.023559434339404106,-0.01352518517524004,-0.08816700428724289,0.0487809032201767,0.11126081645488739,-0.11341473460197449,0.05085863173007965,0.09236528724431992,-0.12924061715602875,-0.037560392171144485,-0.17644238471984863,0.23240454494953156,-0.09631301462650299,0.10376753658056259,-0.03576578572392464,0.15236090123653412,0.023795410990715027,0.18711522221565247,-0.04986853152513504,-0.09394419193267822,-0.0051431236788630486,-0.03741668909788132,-0.0791727676987648,0.19697709381580353,-0.06755445897579193,-0.020607396960258484,-0.00879129022359848,0.024377930909395218,0.011417350731790066,0.037211786955595016,0.18746209144592285,-0.03183094784617424,0.01856689527630806,-0.0672440230846405,-0.2348117083311081,0.04911407455801964,-0.14145401120185852,-0.024947941303253174,-0.0408017560839653,0.15103644132614136,-0.1286267787218094,0.11437977850437164,0.1615189164876938,0.009746629744768143,-0.030974524095654488,0.010527996346354485,-0.12909838557243347,-0.07853784412145615,-0.029164593666791916,0.18517111241817474,0.09107639640569687,0.05812085047364235,-0.015927020460367203,0.02444296143949032,0.07410001009702682,0.02180640771985054,-0.14320005476474762,0.05297837033867836,-0.02920115925371647,-0.09871239960193634,0.09173378348350525,0.15223585069179535,-0.14567813277244568,0.003407418727874756,0.035044413059949875,-0.07215166836977005,-0.012616525404155254,-0.02013743482530117,-0.09187016636133194,0.11902685463428497,-0.01676587201654911,0.13719969987869263,-0.05460983142256737,0.04977607727050781,-0.04065626859664917,0.18024082481861115,-0.22546887397766113,-0.08160805702209473,0.07262257486581802,-0.003828755347058177,0.11449528485536575,0.027855651453137398,-0.07806898653507233,-0.27786555886268616,-0.028908681124448776,0.018963675945997238,-0.07204397022724152,-0.0438065230846405,-0.2639053761959076,-0.019078556448221207,0.014811459928750992,-0.10146230459213257,-0.051934123039245605,-0.04530917480587959,0.1403980404138565,-0.04323289915919304,-0.014399847015738487,0.42566150426864624,-0.4648447036743164,0.7358265519142151,-0.5719650983810425,0.048023439943790436,1.243308424949646,0.8851594924926758,-0.6112123727798462,0.05499036982655525,0.14036639034748077,-0.5207079648971558,-0.4033240079879761,0.11219707131385803,-0.5997554659843445,0.10903389006853104,0.38410571217536926,-0.06948353350162506,0.27592962980270386,-0.0685313269495964,-0.032429955899715424,0.08435865491628647,0.12567703425884247,-0.03611324727535248,-0.07899746298789978,-0.10699979960918427,-0.044751912355422974,0.0980989933013916,-0.07099755853414536,0.07389414310455322,-0.06449676305055618,0.14109285175800323,-0.06541629135608673,-0.050977203994989395,-0.07171718776226044,0.1247987374663353,-0.1353692263364792,0.07640501111745834,0.0777476504445076,-0.02391437441110611,-0.05245690792798996,0.13830892741680145,0.2505146861076355,-0.061410535126924515,0.02875242754817009,0.0952545702457428,-0.3582005202770233,0.06341041624546051,0.1330084651708603,0.16152407228946686,0.022775258868932724,-0.04719162359833717,0.13908544182777405,0.0052453745156526566,-0.18843457102775574,0.03346024081110954,-0.3632531464099884,-0.012307744473218918,-0.18957822024822235,0.08904694765806198,-0.2817363142967224,0.04078071936964989,0.3649124205112457,-0.0005412488826550543,-0.05004258081316948,0.11225982755422592,-0.05568772554397583,0.05958351492881775,-0.17958064377307892,0.012060676701366901,0.1680222898721695,0.014531712979078293,-0.0547959990799427,-0.033041298389434814,-0.025783108547329903,0.03923948109149933,-0.10994965583086014,0.12933968007564545,0.20328983664512634,-0.07303041964769363,0.00862907525151968,-0.015376657247543335,-0.28231969475746155,-0.0582808181643486,0.06204783916473389,0.3056982457637787,0.3004758358001709,-0.029726186767220497,-0.40257176756858826,-0.02931326813995838,0.03934247046709061,-0.396161824464798,-0.0374206081032753,-0.12526342272758484,0.047599006444215775,-0.15687835216522217,0.03929293155670166,-0.12351856380701065,0.04994327574968338,0.08530914038419724,0.07755444943904877,0.20465631783008575,0.2751914858818054,0.10306256264448166,0.11546098440885544,0.014935825020074844,-0.10860271006822586,-0.16851764917373657,-0.1384444236755371,0.013751249760389328,-0.18039001524448395,0.07199586182832718,0.024126702919602394,0.009078171104192734,0.3431223928928375,0.2942195534706116,-0.015697045251727104,-0.16400861740112305,-0.1450423300266266,0.005718354135751724,0.1744309663772583,0.20289845764636993,-0.4525214433670044,0.028168531134724617,0.1255427449941635,0.16481083631515503,-0.3357677757740021,0.21901512145996094,-0.23304380476474762,0.2248583883047104,0.18114139139652252,0.2380324751138687,-0.24833513796329498,-0.26793429255485535,0.18785344064235687,0.12941814959049225,0.1562999188899994,0.040852200239896774,-0.25715509057044983,0.20563369989395142,-0.13769333064556122,0.14245904982089996,-0.22038130462169647,-0.07633206248283386,-0.018076376989483833,-0.14345580339431763,-0.04846334829926491,-0.24984362721443176,-0.26573804020881653,0.02910725213587284,-0.09009876847267151,-0.005208154208958149,0.1445987969636917,-0.04026433080434799,0.00808736588805914,0.14693665504455566,0.27222928404808044,0.007137097418308258,-0.11161623150110245,0.15886349976062775,0.0025391560047864914,-0.21964862942695618,0.16662922501564026,0.24451127648353577,-0.11961343884468079,-0.25586116313934326,0.004394177347421646,0.21827925741672516,-0.03650761395692825,-0.09171900898218155,0.04329056292772293,0.24179916083812714,0.04337422549724579,0.16478979587554932,0.226558119058609,-0.09753186255693436,0.09463327378034592,-0.0814380869269371,0.09706829488277435,-0.2997986376285553,0.07618822902441025,-0.0682644173502922,-0.3325243890285492,0.12367069721221924,-0.08179579675197601,0.22342634201049805,-0.023826533928513527,-0.22710773348808289,0.16493192315101624,-0.19549107551574707,0.2374551147222519,0.03029368631541729,0.16812144219875336,0.21028104424476624,-0.07077689468860626,0.29050543904304504,-0.18606631457805634,0.04910474643111229,0.04060094431042671,0.06631996482610703,-0.15675394237041473,0.04918549209833145,-0.30009904503822327,-0.05471719428896904,-0.3469773530960083,0.09292730689048767,0.14755719900131226,-0.10430516302585602,-0.2214476466178894,-0.391640305519104,0.046392422169446945,-0.006889569107443094,-0.09034555405378342,-0.06520743668079376,-0.11615632474422455,0.01654026284813881,0.42246702313423157,0.45515039563179016,0.19664902985095978,-0.05218697339296341,0.3818604052066803,0.09547030925750732,-0.3875839412212372,0.08604266494512558,0.07589985430240631,0.010144480504095554,-0.1883517950773239,-0.08941187709569931,0.20070692896842957,-0.0548439659178257,0.2389671355485916,0.09955986589193344,-0.14681589603424072,-0.007725792471319437,0.10288204252719879,-0.14262652397155762,0.01017768494784832,-0.22283606231212616,-0.14363330602645874,-0.17878210544586182,0.06557959318161011,0.03745950758457184,0.09119851142168045,-0.09474385529756546,-0.13055545091629028,0.2453700602054596,0.012808999046683311,0.11996915936470032,0.2620026171207428,-0.1925634741783142,0.1369384229183197,-0.12309780716896057,-0.23390713334083557,0.05298759415745735,0.21307240426540375,-0.13253368437290192,-0.0356590673327446,0.2645234763622284,0.05899751931428909,0.061463210731744766,0.06755811721086502,-0.01898505538702011,0.14285163581371307,-0.029069028794765472,0.24352851510047913,-0.408723384141922,-0.09199658781290054,0.023820417001843452,-0.35460272431373596,0.04754795879125595,0.2981512248516083,-0.04273614287376404,0.039387047290802,0.09050925821065903,0.04418477043509483,0.3082292973995209,-0.13220426440238953,-0.13555975258350372,-0.03696822002530098,0.15657246112823486,-0.06482008844614029,0.02449687197804451,-0.2070085108280182,0.19438223540782928,-0.006762877572327852,0.13059605658054352,0.044161681085824966,0.09782177954912186,0.011945529840886593,0.2939510643482208,0.05343915894627571,0.09520688652992249,-0.05932976305484772,0.11810170114040375,0.14111754298210144,0.15866972506046295,-0.08782409876585007,0.10093420743942261,-0.03923969715833664,-0.14384746551513672,-0.13369503617286682,-0.2513648271560669,0.033011991530656815,0.09087230265140533,-0.000009242873602488544,0.04338747262954712,-0.04891447722911835,0.07491301745176315,0.09375468641519547,0.03416362777352333,-0.022638937458395958,-0.0555168092250824,-0.23710782825946808,0.3530418872833252,0.15222343802452087,-0.062179870903491974,-0.2936699092388153,-0.21490786969661713,-0.2772454023361206,0.016774391755461693,-0.11910746991634369,0.12265541404485703,-0.10689438879489899,-0.23508188128471375,0.344041109085083,0.19634591042995453,0.4059367775917053,-0.10538872331380844,0.05927037447690964,0.5989572405815125,-0.0010201900731772184,0.22233375906944275,-0.10046324133872986,0.029579315334558487,0.1894880086183548,-0.882266640663147,-0.11265593022108078,-0.059893108904361725,0.01860842853784561,0.21113550662994385,-0.20006915926933289,-0.21401384472846985,-0.01107463613152504,-0.08481253683567047,-0.013926132582128048,0.22495613992214203,-0.009801807813346386,0.123318150639534,-0.012197799049317837,0.12365102022886276,-0.6249624490737915,0.3227250576019287,-0.035747237503528595,-0.20666317641735077,-0.128569096326828,0.0275593101978302,0.18961679935455322,-0.18986912071704865,0.1957121044397354,-0.15468548238277435,-0.11267832666635513,-0.19247978925704956,0.3791075348854065,-0.05170471593737602,0.09463578462600708,0.027751794084906578,-0.10458875447511673,-0.06945139169692993,0.11761917173862457,0.12432073801755905,0.08230093121528625,-0.6751428842544556,0.12343285977840424,-0.28075265884399414,0.782647967338562,0.1261490136384964,0.004042433109134436,0.11083444952964783,0.10395389795303345,-0.048787426203489304,0.05666958540678024,-0.050409525632858276,0.10429541021585464,-0.00872337631881237,-0.25004661083221436,-0.04504389688372612,-0.03356579318642616,-0.11380323022603989,0.1389210969209671,0.07780929654836655,-0.05681661516427994,-0.06407850235700607,0.07846297323703766,0.07943381369113922,0.1302453875541687,0.0610271692276001,-0.1276358813047409,0.1754128485918045,0.0949067547917366,0.11983509361743927,0.030590856447815895,0.10659043490886688,0.06515579670667648,0.12234190851449966,-0.16303828358650208,-0.13264423608779907,-0.07660912722349167,-0.10887222737073898,0.006834683008491993,0.03753787279129028,-0.17870333790779114,0.03862282261252403,-0.10603291541337967,0.014282944612205029,-0.1734308898448944,-0.15417778491973877,-0.1825762540102005,0.18624669313430786,-0.06437686085700989,0.20325903594493866,-0.027609441429376602,0.1479761004447937,-0.18817667663097382,0.020039983093738556,0.13961820304393768,0.16595278680324554,0.1763121634721756,-0.08227051049470901,0.08903881162405014,-0.015636881813406944,-0.09143241494894028,0.3123932182788849,-0.12841257452964783,-0.3120684027671814,-0.04126306250691414,-0.09639990329742432,-0.21169307827949524,0.38360393047332764,0.08518395572900772,0.23424716293811798,-0.3108663260936737,-0.21181194484233856,-0.0644807443022728,-0.09778893738985062,-0.08597499877214432,-0.2582218050956726,0.29775726795196533,-0.09757761657238007,-0.4057314395904541,0.34688836336135864,0.0451534166932106,-0.003167354967445135,0.3009975254535675,0.024627648293972015,-0.39139941334724426,0.3294156789779663,0.125181645154953,0.4600539207458496,-0.45179733633995056,0.05267336964607239,0.16704681515693665,-0.024095308035612106,-0.023361943662166595,0.4540821313858032,-0.35489144921302795,-0.06470378488302231,-0.19513888657093048,0.10674401372671127,0.07570634037256241,0.3637000620365143,-0.2860243320465088,-0.30198001861572266,-0.07350216805934906,-0.2404201328754425,-0.149982288479805,0.12286099791526794,-0.38160863518714905,0.18745194375514984,-0.43486958742141724,-0.6818843483924866,0.13210776448249817,-0.14969858527183533,-0.02998497523367405,0.03675748035311699,0.13576887547969818,0.22187219560146332,-0.1662934422492981,-0.10062137246131897,-0.02281539887189865,0.036857619881629944,-0.1189630925655365,0.08059938997030258,0.316721647977829,0.0014534910442307591,0.00919636245816946,0.08580010384321213,-0.11021337658166885,0.17308464646339417,-0.08930572867393494,0.19289034605026245,0.006849145051091909,-0.11456774920225143,0.04263386130332947,0.17311356961727142,0.035823214799165726,0.09651903808116913,0.015579777769744396,0.08102010935544968,0.005042870528995991,-0.043378423899412155,-0.07838692516088486,0.10734913498163223,-0.14193813502788544,0.019697826355695724,-0.1735328584909439,-0.09509419649839401,0.133481964468956,-0.15710149705410004,0.0736493244767189,0.2082638144493103,-0.0262997355312109,0.0922807827591896,0.4670216143131256,-0.038962796330451965,-0.15022730827331543,0.05797296017408371,-0.009541514329612255,-0.03125322237610817,0.15344448387622833,0.0520612858235836,-0.10392973572015762,-0.15792669355869293,-0.22151033580303192,0.16738756000995636,0.008162830956280231,0.01287910994142294,0.06366593390703201,-0.020345699042081833,0.08859562873840332,0.12122227251529694,-0.032646287232637405,-0.4272165298461914,0.39725103974342346,-0.008205578662455082,-0.004340446554124355,-0.10173498839139938,0.06970075517892838,0.3255855143070221,-0.22577573359012604,-0.05056653916835785,0.012037432752549648,-0.1827051192522049,0.2314104437828064,0.4135116934776306,-0.09954847395420074,-0.19418983161449432,0.25395673513412476,-0.05584200099110603,0.08119279146194458,0.21603861451148987,0.1348351687192917,-0.00860307551920414,-0.05691300332546234,0.06070765480399132,0.003547640284523368,0.8024157881736755,0.07712968438863754,0.037143561989068985,-0.017366787418723106,-0.0948113277554512,-0.10244015604257584,-0.01574162393808365,-0.018763432279229164,-0.21255099773406982,0.04922739043831825,-0.5412843823432922,0.41478219628334045,0.0692441388964653,-0.059401560574769974,0.460252583026886,0.036123499274253845,0.3368498980998993,-0.04995347931981087,-0.0685177817940712,-0.2539423406124115,0.18807543814182281,-0.015009047463536263,-0.4465183615684509,-0.14423497021198273,-0.2781398296356201,0.10859257727861404,-0.06244231015443802,0.2185966968536377,0.28574568033218384,0.058647748082876205,0.1317964643239975,0.03236197307705879,-0.0059463391080498695,0.037176210433244705,0.19809846580028534,-0.05385882779955864,0.11063174903392792,-0.26209142804145813,-0.07064198702573776,-0.1256183534860611,-0.14605848491191864,-0.16759537160396576,0.02073192223906517,-0.24212750792503357,0.14264442026615143,-0.07612868398427963,-0.04139610007405281,0.11498386412858963,0.026954278349876404,0.02884816937148571,0.03791453689336777,0.0799839198589325,0.057066772133111954,0.017532218247652054,-0.0036721432115882635,-0.14984485507011414,-0.00929374061524868,0.10616181045770645,-0.24357739090919495,0.13071484863758087,-0.22822190821170807,0.07238393276929855,0.029826344922184944,0.3007637858390808,-0.15235072374343872,0.10937418043613434,-0.28949832916259766,-0.08779378235340118,0.04005050286650658,-0.09237969666719437,0.023007258772850037,0.04862222820520401,0.4632274806499481,-0.39312952756881714,0.21172067523002625,0.3616081476211548,-0.02090214192867279,-0.005884846672415733,-0.1319139152765274,0.01944003812968731,-0.18297553062438965,0.20027273893356323,0.02032599411904812,-0.042234864085912704,-0.22657957673072815,-0.028303194791078568,-0.044285453855991364,0.1468631774187088,0.24807925522327423,-0.011921501718461514,-0.13756336271762848,-0.25196462869644165,-0.06932895630598068,-0.011041294783353806,0.050038643181324005,0.15618868172168732,-0.39076322317123413,0.09273851662874222,-0.29485467076301575,0.06447018682956696,-0.07635065168142319,0.08152325451374054,-0.14298968017101288,0.19279658794403076,-0.0877954363822937,-0.5655853152275085,0.780290961265564,-0.33286944031715393,0.25929680466651917,0.1773795336484909,-0.09561318159103394,-0.13663548231124878,-0.14182089269161224,-0.2572675049304962,0.18889020383358002,0.08860118687152863,0.18707275390625,0.10400255769491196,-0.007844450883567333,-0.14818891882896423,0.1407330334186554,0.050664518028497696,-0.2207183837890625,-0.1293344497680664,0.0787726566195488,-0.032785478979349136,0.13663646578788757,0.03814290091395378,0.20024022459983826,-0.1505742222070694,-0.033458858728408813,0.13468174636363983,-0.028162388131022453,-0.220651313662529,0.14240343868732452,0.0160025916993618,0.04172089323401451,-0.06673608720302582,0.09935462474822998,-0.04818931594491005,-0.08767087757587433,0.005758900661021471,0.17289593815803528,0.303908109664917,0.10120178014039993,0.07026278972625732,0.24520273506641388,0.014493932947516441,-0.15785744786262512,-0.30917295813560486,-0.10790480673313141,-0.13565713167190552,0.07574282586574554,-0.23092080652713776,0.08719739317893982,0.020225202664732933,0.11090853065252304,0.0853993222117424,-0.020245550200343132,-0.09648016095161438,0.047423746436834335,0.21294517815113068,-0.13014718890190125,0.011577066034078598,-0.06562550365924835,-0.036465246230363846,0.14524994790554047,-0.08562444895505905,0.11378030478954315,0.029146796092391014,-0.09969770163297653,-0.05258696526288986,-0.09961450099945068,0.07576974481344223,0.08977215737104416,-0.06824126094579697,0.1870480626821518,-0.11579685658216476,-0.041485805064439774,0.1620185673236847,-0.026581259444355965,0.1705298274755478,-0.018820151686668396,-0.18853327631950378,-0.17106299102306366,0.016113227233290672,-0.10969719290733337,0.07410848140716553,0.10198819637298584,0.03369518369436264,-0.03102993592619896,-0.01250811293721199,0.002873773220926523,-0.04648427665233612,-0.05583604425191879,0.0021502503659576178,0.11502933502197266,-0.04648585990071297,-0.05256563797593117,-0.09927486628293991,0.005274153780192137,-0.008010479621589184,-0.03818101808428764,-0.15346387028694153,-0.21640320122241974,-0.03399108722805977,-0.27117401361465454,-0.13993242383003235,-0.05249419063329697,-0.29980337619781494,-0.0741032063961029,0.027918478474020958,0.33347418904304504,-0.18667173385620117,0.0021163448691368103,0.053053997457027435,-0.04874260723590851,0.09553135931491852,-0.2150374948978424,0.0735386461019516,0.05260542407631874,-0.3484799861907959,-0.17796529829502106,-0.0768105611205101,0.07452882826328278,0.0016291089123114944,0.084488645195961,-0.172018900513649,-0.013189049437642097,-0.06144596263766289,0.3123936653137207,-0.10089540481567383,-0.18584044277668,-0.03954710066318512,0.060034748166799545,-0.07997307926416397,0.2594606280326843,0.171670064330101,0.2296788990497589,0.1326344758272171,-0.030989401042461395,-0.3458993136882782,0.006389890797436237,0.02543545700609684,-0.15884731709957123,-0.3514866530895233,0.016967792063951492,0.15423163771629333,0.21148349344730377,-0.0016097885090857744,0.17393124103546143,-0.08977379649877548,0.21945419907569885,-0.013202151283621788,-0.0876862183213234,-0.12982982397079468,0.031132426112890244,-0.07205290347337723,-0.058493610471487045,0.11097028106451035,0.01529111061245203,0.22488248348236084,0.05079605057835579,-0.10971677303314209,-0.06511949002742767,0.1347370445728302,-0.14249277114868164,-0.032984860241413116,0.12309993803501129,0.1115872710943222,0.04429787024855614,-0.021967563778162003,0.15261046588420868,0.07176268845796585,0.08544562757015228,0.11168653517961502,0.26495787501335144,-0.13262750208377838,-0.15881392359733582,-0.22582727670669556,0.001869351603090763,-0.0715239942073822,-0.0745757445693016,0.030786313116550446,-0.13819730281829834,-0.06749263405799866,0.15292662382125854,0.0741335079073906,0.31940212845802307,-0.039862778037786484,0.14589150249958038,0.4162943363189697,0.16717851161956787,-0.05898861959576607,0.18957532942295074,-0.025183888152241707,-0.21108748018741608,0.13714514672756195,-0.08341582119464874,0.10112133622169495,0.11412379890680313,0.23217257857322693,0.0357477068901062,-0.19352973997592926,-0.0711144208908081,-0.08942238241434097,0.6113882064819336,0.3951599597930908,0.04946483299136162,-0.07823774218559265,-0.05728836730122566,-0.20363909006118774,-0.02268296666443348,-0.05137936770915985,0.0009368758765049279,-0.3771415650844574,-0.29635706543922424,0.16901403665542603,-0.057858906686306,-0.19450104236602783,-0.2586411237716675,-0.3272862434387207,-0.23750080168247223,0.07302761822938919,0.1346731334924698,0.13794466853141785,0.09446386992931366,-0.23978593945503235,-0.18172265589237213,-0.3156944513320923,0.5158514380455017,0.3948938846588135,0.03728554770350456,0.3924563229084015,-0.04960165545344353,-0.061278846114873886,0.10574429482221603,-0.13529138267040253,-0.24496005475521088,-0.03237498924136162,0.06787218898534775,0.12363073974847794,0.48443424701690674,0.09007887542247772,0.05331072583794594,-0.27620500326156616,-0.23918679356575012,-0.3569847643375397,-0.18717676401138306,-0.1370917558670044,-0.05810628458857536,-0.0712808221578598,0.2909089922904968,0.06166047975420952,0.18722876906394958,-0.42679378390312195,0.09259598702192307,0.04314367473125458,-0.08412344008684158,0.11864398419857025,0.09984760731458664,0.06474795937538147,0.010681663639843464,-0.16333767771720886,0.3771089017391205,-0.20461663603782654,-0.24903520941734314,0.33550435304641724,0.11395157128572464,0.048532575368881226,0.3436043858528137,-0.10607093572616577,0.1304468810558319,-0.21747946739196777,0.18129321932792664,0.032212547957897186,-0.12383612245321274,0.10386142879724503,0.05937891826033592,-0.36606723070144653,0.035076696425676346,0.20141997933387756,-0.13674572110176086,-0.06586750596761703,-0.2558264434337616,-0.051417604088783264,0.11405956000089645,0.20677940547466278,0.18209043145179749,-0.1424693614244461,0.08103781938552856,-0.27344533801078796,-0.04930880293250084,-0.009547250345349312,-0.006949231959879398,0.08253870159387589,-0.26189932227134705,-0.16028520464897156,0.02557208202779293,0.19083179533481598,0.07816429436206818,0.06036589667201042,-0.2422979325056076,0.12675248086452484,-0.0161968432366848,-0.013208024203777313,0.050259098410606384,0.07785924524068832,0.16955119371414185,0.05991555005311966,-0.0031717976089566946,0.3623282015323639,-0.21782168745994568,-0.05780608579516411,0.14969618618488312,0.04888973757624626,0.29735803604125977,0.20433712005615234,-0.14483222365379333,-0.040470190346241,-0.08710788935422897,0.054603904485702515,0.04475991427898407,-0.05081932991743088,-0.08631613850593567,0.23836708068847656,-0.24370062351226807,0.1929655224084854,0.10138457268476486,-0.01415853388607502,0.06577908247709274,-0.26164159178733826,0.05073610320687294,0.16943949460983276,0.24857187271118164,0.15190738439559937,0.04156121611595154,0.03687060996890068,-0.30960193276405334,0.09352368116378784,-0.24166588485240936,-0.28167927265167236,-0.16140826046466827,-0.210771381855011,0.05437793210148811,0.1446026861667633,-0.08181201666593552,0.21901920437812805,-0.10978744179010391,-0.036664485931396484,-0.15853333473205566,0.3884923756122589,0.0015098588773980737,0.09395484626293182,0.3015984296798706,-0.22173860669136047,-0.1581582874059677,0.39137640595436096,-0.07052595913410187,0.1236870065331459,-0.3727870285511017,0.06097722798585892,0.43633440136909485,-0.2761644721031189,-0.1589084416627884,0.09476232528686523,-0.38014259934425354,-0.06144023314118385,-0.2083883434534073,-0.04372108355164528,-0.08515845984220505,-0.1365325152873993,0.05881256237626076,0.22151492536067963,-0.18440362811088562,0.382240355014801,-0.17570601403713226,-0.058148812502622604,0.5621150135993958,-0.10912804305553436,0.3662171959877014,-0.3433038890361786,0.14348538219928741,0.505964994430542,0.16157476603984833,-0.015690762549638748,-0.24704281985759735,0.11526418477296829,0.0158512182533741,-0.29466941952705383,0.37160125374794006,0.6840721368789673,0.23743222653865814,0.05545379966497421,0.02092972956597805,0.19185224175453186,-0.10753820091485977,0.014657427556812763,0.3791987895965576,0.013507711701095104,-0.020779868587851524,-0.06304933875799179,0.06317616999149323,0.06554753333330154,0.3551271855831146,-0.0058568804524838924,0.020758358761668205,-0.15242153406143188,-0.2444816380739212,0.14544306695461273,0.34606966376304626,-0.395579069852829,-0.10870716720819473,-0.8403470516204834,-0.21848449110984802,-0.14752662181854248,0.7119894027709961,-0.7779864072799683,-0.5735625624656677,-0.8858917951583862,0.32039421796798706,-0.8023145198822021,0.31265783309936523,-0.8751794099807739,-0.142405703663826,-0.2254176139831543,-0.07658238708972931,0.23446719348430634,0.17582613229751587,-0.08604017645120621,-0.30304720997810364,0.027934569865465164,-0.1241658553481102,-0.0455574095249176,0.09080616384744644,-0.21558526158332825,0.09205159544944763,-0.02528950199484825,-0.1301196813583374,-0.09639579057693481,-0.11938764899969101,0.06499619036912918,-0.15291444957256317,-0.29580196738243103,-0.13368484377861023,0.1441258192062378,0.006563764065504074,-0.17780402302742004,0.3371477723121643,-0.1372034102678299,-0.03872254863381386,0.058822691440582275,0.07089648395776749,0.0652921050786972,-0.05739746615290642,0.29416802525520325,-0.20860713720321655,-0.3445877730846405,-0.011805498041212559,0.23131217062473297,0.21191838383674622,0.15788835287094116,-0.21297404170036316,0.2433600127696991,0.016674673184752464,-0.21419668197631836,-0.37987205386161804,-0.4462515711784363,0.11067662388086319,0.11080307513475418,0.12819716334342957,-0.036999545991420746,0.05639799311757088,0.09810036420822144,-0.18652604520320892,-0.22758647799491882,-0.03858378902077675,0.13953028619289398,-0.15416066348552704,-0.06420980393886566,-0.014046491123735905,0.06011272221803665,0.0031527013052254915,0.02432234212756157,0.15506316721439362,-0.21076956391334534,-0.05823222175240517,0.1148262694478035,0.3261655271053314,0.07063356041908264,-0.11005581170320511,-0.08461837470531464,0.19714036583900452,0.028679657727479935,-0.1757538616657257,0.22907735407352448,0.4072665274143219,-0.20898915827274323,-0.17886479198932648,0.3037298321723938,-0.18703743815422058,-0.13513851165771484,0.03464672714471817,-0.22495917975902557,0.011959110386669636,-0.0315493643283844,-0.3251625597476959,-0.26319053769111633,-0.03417572006583214,0.008340280503034592,-0.0038654401432722807,-0.1604488641023636,0.20051278173923492,0.30729809403419495,-0.04428904503583908,0.2839652895927429,-0.21270449459552765,-0.16099272668361664,0.08010505884885788,0.07774276286363602,0.016032662242650986,-0.06546757370233536,-0.3414936363697052,-0.38458389043807983,0.2514626979827881,0.3416452705860138,-0.22703616321086884,-0.15750811994075775,0.06736845523118973,-0.08791455626487732,-0.18983031809329987,-0.0015176654560491443,-0.0016149264993146062,0.016745030879974365,-0.2075905054807663,0.25852903723716736,0.17010456323623657,0.13855862617492676,-0.23315641283988953,-0.021514886990189552,0.19077683985233307,-0.05767517909407616,-0.08608432859182358,0.011051095090806484,-0.010058020241558552,0.19949831068515778,-0.050150904804468155,0.04117037355899811,-0.02015194296836853,0.02195146679878235,0.10568007826805115,0.03316396474838257,0.048344213515520096,-0.018538866192102432,-0.3359665870666504,0.07838897407054901,-0.20390667021274567,-0.2421577274799347,-0.08228933811187744,-0.13004325330257416,0.15126186609268188,-0.07129660248756409,-0.10203059762716293,-0.00016317090194206685,-0.12915591895580292,0.11477570980787277,-0.1973382979631424,0.11385837197303772,-0.12734422087669373,0.08820763230323792,0.15066134929656982,0.12033933401107788,0.20626159012317657,-0.036792345345020294,0.39436084032058716,-0.14799176156520844,-0.16512775421142578,-0.07076416909694672,0.22740650177001953,0.11394279450178146,0.188603475689888,-0.05262968689203262,-0.26468169689178467,-0.0664275661110878,-0.15322235226631165,-0.26003238558769226,-0.08391042053699493,0.1097598522901535,0.0028389140497893095,0.047569651156663895,0.0018218455370515585,0.15950098633766174,0.06574515253305435,0.1760336458683014,-0.24346032738685608,0.13523566722869873,-0.05353127792477608,0.07982277125120163,-0.004179788287729025,0.0018638251349329948,0.060631539672613144,0.10864408314228058,-0.3360236585140228,-0.10582345724105835,-0.22038668394088745,-0.16999182105064392,0.02428533509373665,0.0522441603243351,-0.21519771218299866,0.16271542012691498,0.12499012798070908,0.039253007620573044,0.09857229143381119,-0.1924056112766266,0.2498287707567215,-0.1837088167667389,-0.22300563752651215,-0.28477105498313904,-0.18917818367481232,0.12250319868326187,0.17740561068058014,-0.08000993728637695,-0.16514940559864044,0.11486416310071945,-0.14893874526023865,-0.1969093382358551,-0.34530070424079895,-0.06544701755046844,0.26102522015571594,-0.30077552795410156,0.032852813601493835,-0.08318042755126953,0.06926407665014267,-0.026466092094779015,0.15521322190761566,0.34819304943084717,-0.26852449774742126,-0.08637982606887817,-0.09524224698543549,-0.11205578595399857,0.10392209142446518,0.2986762225627899,0.08436516672372818,-0.02287043072283268,0.22863264381885529,0.15504689514636993,-0.05038568377494812,-0.09393814206123352,0.07452565431594849,0.09391921013593674,0.10723626613616943,-0.016728656366467476,-0.10464973002672195,0.05954993888735771,0.15248657763004303,-0.029081739485263824,-0.12866826355457306,0.17665652930736542,-0.1561480164527893,0.24099968373775482,-0.14195062220096588,0.24222637712955475,0.20955446362495422,0.11156120151281357,0.23362015187740326,-0.2867446839809418,0.21570084989070892,0.25388848781585693,-0.44054901599884033,-0.1504470556974411,-0.1369052678346634,0.10532001405954361,-0.031175797805190086,0.10706648230552673,0.2876814603805542,0.3725212812423706,-0.22224843502044678,0.29228106141090393,-0.18518900871276855,-0.14631037414073944,0.010085012763738632,0.053925611078739166,0.09590131789445877,-0.05974632129073143,-0.14090414345264435,-0.034084416925907135,0.258991003036499,0.14339353144168854,0.036244992166757584,-0.06240889057517052,0.11866417527198792,-0.13302429020404816,0.11233563721179962,-0.28690919280052185,-0.14285841584205627,-0.025108207017183304,0.047698549926280975,-0.03620406612753868,-0.17090459167957306,-0.10378923267126083,-0.06482692807912827,-0.1554199457168579,-0.12405722588300705,-0.07864701002836227,-0.013118810951709747,-0.13398003578186035,-0.06502481549978256,-0.08465519547462463,0.08879980444908142,-0.07773023098707199,0.04631756991147995,0.08900193125009537,0.1895328313112259,0.3028741478919983,-0.39518603682518005,-0.029995162039995193,0.062134262174367905,0.19625268876552582,0.10720793902873993,-0.1071895882487297,-0.2738497257232666,-0.048474375158548355,-0.017077818512916565,0.07013639807701111,0.13487876951694489,-0.05209814012050629,-0.2785733938217163,-0.20797091722488403,-0.4122869074344635,-0.10458578914403915,-0.0173917505890131,-0.05362395942211151,0.19326046109199524,-0.14627687633037567,0.0917382538318634,-0.26424646377563477,-0.12705332040786743,-0.24781368672847748,0.22104981541633606,0.16181400418281555,-0.048762883991003036,0.1352226585149765,0.028401609510183334,0.07834237813949585,0.052888598293066025,0.08998863399028778,0.041104756295681,-0.00663028797134757,0.5310085415840149,-0.0568135567009449,0.2510443329811096,-0.3887871503829956,-0.11770026385784149,0.280149906873703,-0.08012694865465164,-0.12716959416866302,0.09485937654972076,-0.4072907269001007,0.07130058109760284,-0.2934243381023407,0.23469990491867065,-0.12065458297729492,0.17015136778354645,0.3505304455757141,0.21856021881103516,-0.391962468624115,0.09794409573078156,0.06561266630887985,-0.11954473704099655,-0.013338273391127586,-0.25821682810783386,0.06812098622322083,0.246206134557724,0.0008559120469726622,0.14186415076255798,-0.18428710103034973,-0.07782255113124847,0.2621944844722748,-0.2091626524925232,-0.07077903300523758,-0.058690477162599564,0.5154770016670227,0.03226037323474884,0.1531059741973877,-0.013350708410143852,-0.09676028043031693,-0.1693560928106308,-0.2108907401561737,0.11254049837589264,0.01941528543829918,-0.1458728015422821,-0.20619964599609375,0.24052263796329498,0.09029553085565567,-0.42768338322639465,0.07766330987215042,0.0059652626514434814,-0.11368726193904877,0.25271177291870117,0.22253122925758362,-0.15890289843082428,-0.018221011385321617,0.06537169218063354,0.03984612971544266,-0.03504674509167671,-0.18578384816646576,0.01678895391523838,0.07913042604923248,0.05397035926580429,0.09549082070589066,0.01819775439798832,0.033115316182374954,0.0895358994603157,-0.21826106309890747,-0.0237029530107975,0.16481566429138184,0.1957216113805771,0.10734321177005768,0.0274478979408741,0.03669673204421997,-0.01058195997029543,0.051411986351013184,-0.03177926316857338,0.0565975084900856,-0.09189958870410919,0.12408838421106339,0.03545118123292923,-0.04698921740055084,-0.07781441509723663,-0.21999429166316986,0.01589932106435299,-0.3185659348964691,-0.18278402090072632,-0.22334222495555878,0.04867109656333923,-0.27296382188796997,0.03517262637615204,-0.0653708353638649,0.0046835895627737045,-0.019370105117559433,-0.29568055272102356,-0.010210243985056877,0.1747591495513916,-0.2961691617965698,0.6064221262931824,-0.010148740373551846,0.13428080081939697,-0.18118487298488617,0.38169679045677185,0.31148242950439453,0.10925070196390152,-0.07098498940467834,-0.034592848271131516,0.3325279653072357,-0.17774905264377594,-0.025583334267139435,0.027428559958934784,-0.11974983662366867,0.23375727236270905,0.07547412067651749,-0.18989427387714386,-0.24452908337116241,0.07914599031209946,0.00511489761993289,0.17921391129493713,-0.27999964356422424,-0.17881987988948822,-0.2850893437862396,-0.14579130709171295,-0.46452751755714417,0.29825183749198914,-0.26827776432037354,0.2262609750032425,0.39076828956604004,0.06094992160797119,-0.038239624351263046,0.09882190823554993,0.15747179090976715,0.12885934114456177,0.06180189549922943,0.1996154487133026,0.04069840535521507,0.22210046648979187,-0.48344147205352783,0.20686303079128265,-0.025508547201752663,-0.3413941562175751,0.037035539746284485,0.09587906301021576,-0.24970385432243347,-0.21745653450489044,-0.025012757629156113,0.17993691563606262,-0.11740276962518692,0.02511952817440033,-0.14004887640476227,-0.26005616784095764,-0.011112025007605553,0.2351602464914322,-0.1916193962097168,0.1266373097896576,-0.00381786678917706,-0.024699319154024124,0.10612145066261292,0.09289497137069702,0.14823877811431885,-0.2514147162437439,-0.026128318160772324,0.038188397884368896,-0.004186531994491816,-0.10190565884113312,0.1577596664428711,-0.1311565488576889,-0.14768527448177338,0.022887850180268288,-0.15619482100009918,0.004607005976140499,0.15857191383838654,-0.06932295113801956,-0.06568460166454315,-0.056492116302251816,0.06569741666316986,0.10755930095911026,-0.06826260685920715,-0.04494492709636688,-0.0077078151516616344,-0.14031167328357697,-0.06516101956367493,-0.13322922587394714,-0.04512515664100647,-0.08301142603158951,-0.06700295209884644,0.1810459941625595,0.056461889296770096,-0.15958678722381592,-0.11771265417337418,0.03199129179120064,-0.19155505299568176,-0.3693811297416687,0.146903857588768,0.1259920597076416,0.03791668638586998,-0.16805009543895721,-0.3342404365539551,-0.6370411515235901,0.07796353846788406,0.004166121128946543,0.12498384714126587,0.05408550426363945,-0.014041213318705559,0.06537427008152008,-0.15470241010189056,-0.14778117835521698,0.25899621844291687,-0.06355176120996475,0.11576575040817261,0.14573432505130768,-0.19595208764076233,-0.18365144729614258,0.20672011375427246,0.11596839874982834,-0.12325502187013626,-0.08327896893024445,-0.07160770893096924,0.1890690177679062,0.21913646161556244,0.008111940696835518,-0.19929684698581696,-0.3088719844818115,-0.03575765714049339,0.18683549761772156,0.15296891331672668,-0.10799931734800339,-0.3904506266117096,-0.04847709462046623,0.040395114570856094,-0.06786525994539261,-0.006013642530888319,0.005623604636639357,-0.10665252804756165,-0.12464319169521332,0.05094359070062637,-0.21220159530639648,-0.20425906777381897,-0.18089286983013153,0.11907227337360382,0.032862938940525055,0.11390456557273865,0.045563288033008575,0.022639896720647812,0.3657657206058502,0.1265510618686676,0.20457783341407776,-0.055674634873867035,0.105939581990242,0.06830935925245285,0.03621983528137207,-0.16230109333992004,0.0800536498427391,-0.16615834832191467,0.027919145300984383,0.009493687190115452,-0.17432211339473724,0.07491590827703476,-0.017560631036758423,0.13203482329845428,0.10094089061021805,-0.15069164335727692,-0.1614903211593628,-0.07765377312898636,0.016267545521259308,-0.19461341202259064,0.23265977203845978,-0.11414173990488052,-0.17488621175289154,-0.06771654635667801,-0.24146832525730133,0.06966153532266617,-0.3932958245277405,-0.09817977249622345,-0.19727902114391327,0.036210715770721436,0.27977803349494934,0.08499538153409958,-0.0492728091776371,0.03193666785955429,0.003277310635894537,-0.09440627694129944,0.01914817839860916,0.10329326242208481,0.09054026752710342,-0.0008140464196912944,-0.01921422779560089,0.24473786354064941,-0.18312902748584747,0.2811873257160187,0.03944220021367073,0.06395440548658371,-0.33904099464416504,0.40202444791793823,0.14089518785476685,-0.08183182775974274,0.07531434297561646,0.08180777728557587,-0.15152160823345184,0.08261358737945557,-0.009703021496534348,0.065910704433918,0.11591480672359467,0.002509728306904435,-0.09562147408723831,0.08014555275440216,0.01919904351234436,-0.0016315060202032328,0.07480375468730927,0.0474717952311039,-0.06300827860832214,0.2781790494918823,-0.11964340507984161,0.1301427036523819,-0.1715947389602661,-0.12029096484184265,-0.05004085600376129,-0.11902304738759995,0.08164770901203156,0.04410640895366669,0.051887545734643936,-0.18996571004390717,-0.0521015040576458,0.12258964031934738,0.37077799439430237,-0.15581946074962616,-0.13944265246391296,0.26982295513153076,-0.10335216671228409,-0.35422879457473755,-0.026732848957180977,-0.19446143507957458,-0.0880519449710846,-0.021748166531324387,-0.16186527907848358,-0.11043102294206619,-0.09457386285066605,0.1665712147951126,0.563139021396637,-0.04651769995689392,-0.05404002219438553,-0.330613911151886,0.04101300239562988,0.055465154349803925,0.3979422152042389,0.0852113738656044,-0.3873143792152405,-0.145349383354187,-0.2565511167049408,-0.15682996809482574,-0.2173743098974228,-0.24004068970680237,0.08673267811536789,0.3574490547180176,0.04838789254426956,-0.03720642626285553,-0.23958313465118408,0.026052961125969887,0.15996628999710083,-0.10574416071176529,0.09052319824695587,-0.09614087641239166,-0.13992488384246826,0.5251221060752869,0.20255112648010254,-0.4725854992866516,-0.012460090219974518,0.2381046563386917,0.053755760192871094,-0.006745007820427418,-0.06865699589252472,-0.40992993116378784,0.012479695491492748,0.008029509335756302,0.011877553537487984,0.23185929656028748,0.035215042531490326,-0.13487285375595093,-0.10047610104084015,-0.23432034254074097,-0.2714172601699829,-0.34644898772239685,-0.14809435606002808,-0.14956358075141907,-0.25718823075294495,0.18301044404506683,0.13574907183647156,0.049764156341552734,-0.44078299403190613,0.19417430460453033,0.14156123995780945,-0.16950933635234833,0.0497569665312767,-0.3041902482509613,-0.05215863510966301,-0.14976604282855988,0.022714907303452492,0.28745123744010925,-0.028170373290777206,0.22989735007286072,0.0030131754465401173,0.11452431976795197,-0.21401146054267883,0.30226725339889526,-0.2110736221075058,0.015742165967822075,0.059848763048648834,-0.39169126749038696,-0.12061500549316406,0.04496678337454796,-0.24397362768650055,-0.06152862310409546,-0.1432916671037674,0.07421083003282547,-0.08482392132282257,-0.10822973400354385,0.25479987263679504,-0.27575716376304626,0.15273815393447876,-0.07784058898687363,-0.2557494640350342,-0.3019450604915619,-0.39213141798973083,-0.22979947924613953,-0.11315486580133438,0.05375950410962105,-0.1917617917060852,0.04917468503117561,-0.15088146924972534,0.061282381415367126,-0.16443945467472076,-0.200980082154274,-0.13695558905601501,0.08664151281118393,0.018809620290994644,0.19461007416248322,-0.010876010172069073,-0.2046630084514618,0.3054085075855255,0.15570160746574402,-0.03643469512462616,0.11818184703588486,0.15737192332744598,-0.1816699355840683,0.17931720614433289,0.06536880880594254,0.007846677675843239,0.0867336243391037,0.07993784546852112,0.04262448474764824,0.0989847481250763,-0.0711112916469574,0.14854419231414795,-0.07055573910474777,0.015204432420432568,0.02369008958339691,-0.11296109110116959,-0.06557484716176987,0.26941347122192383,-0.13463754951953888,0.0068803513422608376,-0.06457530707120895,0.09116888046264648,0.15031437575817108,-0.08895381540060043,0.05383972078561783,-0.04242542013525963,-0.032264795154333115,0.08820905536413193,0.07594690471887589,-0.20361346006393433,-0.154755100607872,0.03539428487420082,0.3198487460613251,-0.06406360864639282,-0.10848335176706314,-0.10172253847122192,-0.08958940207958221,-0.059964705258607864,-0.11162592470645905,-0.2283591330051422,-0.0450151227414608,0.2289416342973709,-0.09908427298069,-0.11782123148441315,-0.2869035005569458,0.01811329275369644,-0.06878238916397095,0.10602571070194244,0.026175562292337418,-0.025892049074172974,-0.04710480943322182,-0.16893698275089264,-0.07642635703086853,0.03961826488375664,0.22412534058094025,-0.027038969099521637,0.32560497522354126,0.1995912790298462,0.07174082845449448,-0.01615455187857151,-0.01193504873663187,-0.1262192577123642,-0.08073285222053528,-0.23012873530387878,0.19395437836647034,0.10904332250356674,0.10100645571947098,-0.057988811284303665,-0.35494184494018555,-0.15002892911434174,0.0713806003332138,-0.1701095700263977,0.11111967265605927,0.0007555503398180008,-0.09380229562520981,-0.14387869834899902,-0.1676775962114334,-0.2011151909828186,-0.20054352283477783,0.04552311450242996,-0.2765360474586487,0.2410707324743271,-0.05814789980649948,-0.34807270765304565,-0.27987343072891235,-0.04398960620164871,-0.08116845786571503,0.11857296526432037,0.37653082609176636,-0.0044590774923563,-0.1070123016834259,-0.6137257218360901,-0.039112500846385956,-0.29982835054397583,-0.11598673462867737,-0.15519368648529053,-0.030709706246852875,-0.0014547421596944332,0.01660003885626793,0.12368045002222061,0.16794316470623016,0.09092099964618683,-0.14339125156402588,0.16361631453037262,0.007068685721606016,-0.022130774334073067,0.3108442425727844,-0.0003258855431340635,-0.05890649929642677,-0.11258309334516525,-0.14400902390480042,0.2727104723453522,-0.20545323193073273,-0.14734579622745514,-0.19521957635879517,-0.1738547384738922,0.13523122668266296,-0.1011974886059761,-0.052776023745536804,0.08528870344161987,0.3210904002189636,0.10645884275436401,0.10790779441595078,-0.3073202073574066,0.11486770212650299,-0.0043124728836119175,-0.011965837329626083,-0.20732568204402924,0.057291384786367416,-0.009362190961837769,-0.021961500868201256,0.044654104858636856,0.01432914100587368,0.14288026094436646,-0.20916898548603058,0.20196950435638428,0.2676903009414673,-0.04609149694442749,-0.029846331104636192,0.1908399909734726,-0.13843686878681183,-0.04654444381594658,-0.045106835663318634,-0.08771315217018127,0.027254093438386917,-0.27031221985816956,0.11077047884464264,0.036627147346735,-0.1050180122256279,0.021585717797279358,-0.11347541213035583,0.32174262404441833,-0.05784836411476135,0.0158234890550375,-0.0357961505651474,0.04734134301543236,-0.04261200129985809,0.22271575033664703,-0.04490378126502037,0.05524398386478424,-0.048917703330516815,-0.22999629378318787,-0.06297434866428375,0.12725020945072174,-0.07896029204130173,-0.019443167373538017,-0.19135697185993195,0.34013646841049194,-0.0424688383936882,0.09060681611299515,0.13315561413764954,0.11585698276758194,0.20015834271907806,0.07127812504768372,-0.05881107971072197,-0.2933524250984192,-0.034827835857868195,-0.17304226756095886,-0.04878448322415352,-0.09147343784570694,0.19707350432872772,0.04966157302260399,0.2818466126918793,0.2600818872451782,0.049760472029447556,-0.17460010945796967,0.08581336587667465,-0.20696938037872314,-0.008216015063226223,-0.21831052005290985,-0.28028935194015503,-0.31515175104141235,0.09158340096473694,-0.06624943017959595,-0.06966939568519592,-0.17712248861789703,0.14952979981899261,-0.12715759873390198,-0.3125258684158325,-0.08150483667850494,-0.42460525035858154,-0.04691682010889053,0.1063702255487442,0.0720507800579071,0.04707486554980278,0.04970135539770126,-0.30951976776123047,0.17868250608444214,0.04754912853240967,0.28430891036987305,0.19414494931697845,-0.018260732293128967,-0.11961531639099121,-0.2554611563682556,-0.10636836290359497,0.14799416065216064,0.07612091302871704,0.013541956432163715,-0.07706263661384583,0.04091814160346985,0.03488630801439285,0.05926192179322243,0.12197757512331009,-0.11987768858671188,-0.3227728605270386,-0.18412438035011292,0.01225223857909441,0.32817181944847107,-0.1820826530456543,0.10652155429124832,0.29052218794822693,0.08129660040140152,0.11166637390851974,0.7194682955741882,0.15768414735794067,0.002527484903112054,-0.6363309025764465,0.13120943307876587,-0.15908333659172058,0.02558150701224804,-0.0013783765025436878,0.007624341174960136,0.04121708497405052,0.06461606919765472,0.13847845792770386,0.3338750898838043,-0.13834373652935028,0.0793696790933609,0.387515127658844,-0.045191749930381775,0.07613739371299744,0.2743665874004364,0.24261680245399475,-0.0713360384106636,0.17155328392982483,-0.23352813720703125,-0.18747682869434357,-0.4187315106391907,-0.0060732243582606316,-0.06679463386535645,-0.3528650104999542,-0.2461773306131363,-0.10380503535270691,-0.2564411461353302,0.06811105459928513,0.02177281677722931,0.6878207921981812,0.10639331489801407,-0.037406567484140396,0.08308559656143188,-0.0728704109787941,0.030101465061306953,-0.4812543988227844,0.06870310008525848,0.028877150267362595,-0.1395629197359085,0.021541044116020203,-0.09420780092477798,0.1425071507692337,0.012839029543101788,0.03939422592520714,0.06026993319392204,0.003355860710144043,-0.003552290378138423,0.027520012110471725,0.3996296226978302,-0.03679253160953522,0.0014744519721716642,-0.09802930057048798,-0.09091100841760635,0.07844693213701248,0.04697203263640404,0.07705331593751907,-0.3919360935688019,-0.484607994556427,0.814602792263031,0.06656794250011444,-0.49037104845046997,0.06830302625894547,-0.1031927615404129,-0.04892921447753906,0.5132417678833008,-0.4958355724811554,0.8643243908882141,0.671010434627533,0.04705261066555977,-0.431143194437027,0.1889064610004425,-0.4588529169559479,0.1998695731163025,-0.21271896362304688,-0.04578457027673721,-0.24747757613658905,0.22181664407253265,0.2968400716781616,0.12395169585943222,0.1378631442785263,0.33357229828834534,0.268076092004776,0.17599321901798248,0.3165434002876282,-0.261911004781723,-0.11076449602842331,-0.27306434512138367,-0.14308419823646545,0.21204937994480133,-0.05241619795560837,0.1411251425743103,0.1552381068468094,0.11316607147455215,0.1722899228334427,0.10137733817100525,-0.37235137820243835,-0.1103338822722435,0.10632104426622391,-0.011193140409886837,-0.012568012811243534,0.09165822714567184,0.3589702248573303,-0.024908319115638733,-0.030744966119527817,-0.07047342509031296,-0.14201301336288452,0.11395784467458725,-0.20478828251361847,-0.08148651570081711,0.023583952337503433,0.0071859899908304214,-0.046802353113889694,-0.11047612875699997,-0.12734003365039825,-0.12861882150173187,0.1374979019165039,0.24839912354946136,-0.19370193779468536,-0.19457250833511353,-0.0007457162719219923,0.23227845132350922,-0.029494987800717354,0.3441791534423828,0.042107801884412766,0.02264748513698578,0.20828504860401154,-0.1621999889612198,0.03640471398830414,0.17893758416175842,-0.005109014920890331,0.04039440676569939,0.33042117953300476,0.011608544737100601,0.14150360226631165,-0.01449872087687254,-0.19673530757427216,0.16417239606380463,0.17292656004428864,-0.46555420756340027,-0.08573296666145325,0.2076249122619629,0.024113928899168968,-0.32794347405433655,0.13595911860466003,0.2248423844575882,-0.2880110442638397,-0.4175563156604767,-0.028320176526904106,-0.2289167046546936,-0.10981863737106323,0.20952916145324707,-0.1454584002494812,-0.0727180615067482,0.07568667829036713,-0.09544460475444794,0.07293888926506042,-0.1589299440383911,-0.06420724838972092,0.13610319793224335,-0.005012356676161289,-0.1346602886915207,-0.27261587977409363,0.09026926010847092,-0.11465057730674744,0.06593861430883408,0.1534416377544403,0.3151569962501526,0.16945697367191315,0.05154857039451599,-0.02382258139550686,-0.32389041781425476,0.07718217372894287,0.11843343079090118,-0.17607058584690094,0.2985271215438843,-0.24159003794193268,-0.148228719830513,0.11092741787433624,-0.027283018454909325,-0.3513531982898712,0.06478122621774673,0.14909207820892334,0.03958367928862572,0.16269059479236603,0.3570173978805542,0.12445054203271866,-0.3290480673313141,-0.13236376643180847,0.06329960376024246,0.08074285089969635,0.03018900379538536,-0.19533759355545044,0.1796315610408783,-0.07275202125310898,0.08677851408720016,0.05804837495088577,-0.19943679869174957,0.215074360370636,-0.004807634279131889,-0.22005365788936615,-0.26034167408943176,0.25785619020462036,-0.10537537187337875,0.13667194545269012,0.10023831576108932,-0.2853890061378479,-0.06925779581069946,0.11412380635738373,0.029241815209388733,0.09355209767818451,-0.07971354573965073,0.046641845256090164,-0.21189917623996735,-0.012888891622424126,0.16895176470279694,0.08263643085956573,0.21197153627872467,0.10344139486551285,-0.21931882202625275,0.1763947606086731,-0.05092969164252281,0.051571719348430634,-0.10977857559919357,-0.032893043011426926,-0.06311226636171341,0.05373583734035492,0.3218741714954376,-0.14137336611747742,0.056160539388656616,0.22108499705791473,0.22572916746139526,0.003987942356616259,0.15400251746177673,-0.2011238932609558,-0.17086127400398254,-0.1339910477399826,0.2468755543231964,-0.05571960657835007,-0.043149493634700775,-0.10019166022539139,0.1857413947582245,0.024939844384789467,-0.02502712979912758,0.09086437523365021,-0.060788970440626144,-0.34050559997558594,-0.024961596354842186,0.10870088636875153,0.061040911823511124,0.0863337591290474,0.28809094429016113,0.16408959031105042,0.05415866896510124,0.315471351146698,0.15105000138282776,0.3461627960205078,-0.20037604868412018,0.19536201655864716,0.026265647262334824,0.10904191434383392,-0.06609872728586197,-0.06926965713500977,0.08192232996225357,-0.02020205743610859,-0.1779169738292694,-0.18088458478450775,-0.18403220176696777,-0.2070472240447998,0.032310403883457184,0.10156083106994629,-0.2741772532463074,-0.1803002953529358,0.08093387633562088,-0.24454288184642792,-0.01503552496433258,0.09963501244783401,0.0825224295258522,-0.0548672117292881,-0.19029124081134796,-0.10815718024969101,-0.23706123232841492,0.10998660326004028,-0.17864486575126648,-0.09570881724357605,-0.023069685325026512,-0.19805429875850677,0.10444164276123047,-0.19955116510391235,0.08782388269901276,0.02099902182817459,0.05052654817700386,-0.1662442535161972,-0.03204990178346634,0.08740559220314026,-0.18531742691993713,-0.07064509391784668,0.0668012797832489,-0.027590148150920868,-0.13835246860980988,-0.08950364589691162,-0.044621389359235764,0.0892644003033638,-0.04755501449108124,-0.07513943314552307,0.13072523474693298,-0.005561529193073511,-0.0013261017156764865,0.20408746600151062,-0.1716172993183136,0.15886521339416504,0.06891899555921555,-0.14978843927383423,-0.34902140498161316,-0.147757887840271,-0.08025204390287399,-0.23386308550834656,-0.42716723680496216,-0.12869656085968018,0.06804177165031433,0.05557689815759659,0.03926156833767891,0.1552724987268448,0.39474546909332275,0.4029868543148041,-0.1690693348646164,-0.14839467406272888,-0.21816056966781616,-0.007560313679277897,0.08504004031419754,0.043108828365802765,0.17814868688583374,0.008061818778514862,-0.029702160507440567,0.23961587250232697,0.24654315412044525,0.04468225687742233,-0.24159963428974152,-0.10403279960155487,0.08232897520065308,0.024033213034272194,0.07571529597043991,-0.08999655395746231,-0.00038342003244906664,0.04081801325082779,0.23517687618732452,-0.0945914015173912,-0.011624264530837536,-0.14481180906295776,0.11876778304576874,-0.06042809039354324,0.012189420871436596,0.2974250018596649,0.006732244975864887,-0.04185338690876961,0.186491921544075,0.1590404063463211,0.11342334747314453,-0.21990962326526642,-0.5455552339553833,0.1954207420349121,-0.000826111703645438,0.051998320966959,-0.1357274055480957,0.047718629240989685,-0.0530351921916008,-0.15353234112262726,0.0602397620677948,-0.1602316051721573,-0.05502086505293846,-0.3207203447818756,0.14357678592205048,-0.01242799125611782,0.3132651448249817,0.043703217059373856,-0.2543829381465912,-0.2676861584186554,0.4399958848953247,0.2804919183254242,-0.29973331093788147,-0.08459001034498215,-0.07401753216981888,0.17901906371116638,-0.15778812766075134,-0.04432167857885361,-0.07684727013111115,-0.07033774256706238,-0.314726322889328,0.051960647106170654,-0.14058318734169006,-0.07238446176052094,0.024083716794848442,-0.11777947098016739,0.10508204996585846,0.3276674151420593,0.052705295383930206,0.24746325612068176,-0.1730288416147232,-0.08649313449859619,0.1176830381155014,-0.1287255436182022,0.10166938602924347,0.027684366330504417,0.20056776702404022,0.058291248977184296,0.02322911098599434,-0.008797730319201946,-0.004298520274460316,0.031021922826766968,-0.12234563380479813,-0.090596042573452,-0.20806045830249786,0.19205811619758606,0.007033941801637411,-0.20836451649665833,-0.18519067764282227,-0.056158848106861115,0.14934082329273224,0.11645738035440445,-0.21991564333438873,-0.06584827601909637,-0.0021828021854162216,0.15906086564064026,-0.008291211910545826,0.20758259296417236,0.2249011993408203,-0.030108967795968056,-0.2556847631931305,-0.22095786035060883,-0.08624029159545898,0.09167514741420746,-0.10219905525445938,-0.039280809462070465,0.1413869708776474,-0.2579587697982788,-0.18665726482868195,0.059187792241573334,-0.02672753483057022,0.029273124411702156,0.07226081937551498,-0.008503038436174393,-0.17527128756046295,0.025616275146603584,0.03996049240231514,0.24805580079555511,0.10762069374322891,-0.35256701707839966,-0.23144926130771637,-0.07683107256889343,0.36510807275772095,-0.1543157547712326,0.06839728355407715,0.05987504497170448,0.27360808849334717,0.027783546596765518,0.23383644223213196,0.02500729262828827,-0.06703773885965347,-0.10976264625787735,0.10943227261304855,-0.08584544062614441,-0.03596317023038864,0.09768617898225784,0.054470691829919815,-0.0211110208183527,-0.11868203431367874,0.17596180737018585,0.04533928632736206,0.2745582163333893,0.03975643217563629,-0.11066077649593353,-0.022808188572525978,-0.023434637114405632,0.1265469342470169,-0.3290882706642151,-0.13301387429237366,0.08803755789995193,0.06215403601527214,0.0006096853176131845,-0.16146427392959595,-0.1302039623260498,0.014480426907539368,-0.04817342758178711,0.05070607736706734,-0.18671302497386932,-0.0656275600194931,-0.029084723442792892,0.03528952971100807,-0.17235879600048065,0.20544031262397766,0.3665848672389984,0.16571734845638275,0.11084114015102386,0.08914437144994736,0.2806670069694519,0.033006053417921066,0.16712996363639832,-0.04194903001189232,0.14232876896858215,0.26052743196487427,-0.1465166211128235,0.20860455930233002,0.23963291943073273,-0.11252051591873169,0.0526883490383625,-0.2670937180519104,0.020359549671411514,0.09502813220024109,-0.19169959425926208,0.007379467599093914,0.037126585841178894,-0.038384679704904556,0.3117777705192566,-0.04549954831600189,-0.1852254867553711,-0.23868492245674133,-0.132890984416008,-0.0038131398614495993,-0.05454280227422714,0.07137074321508408,-0.0030412934720516205,0.12538796663284302,-0.24921269714832306,0.10879016667604446,0.22138765454292297,-0.03175092861056328,0.12643614411354065,-0.18986111879348755,0.04142900928854942,0.094127357006073,-0.22627727687358856,-0.07878149300813675,0.10195077955722809,-0.16499097645282745,-0.0338713601231575,-0.015494507737457752,0.14544354379177094,0.23501841723918915,-0.03873240575194359,0.08703377842903137,0.06159317120909691,0.08706146478652954,0.17967723309993744,-0.018528221175074577,0.09141264855861664,-0.2979501187801361,0.1158355176448822,-0.11049307882785797,0.009210738353431225,0.010980956256389618,0.10591597110033035,-0.42285481095314026,-0.12702244520187378,0.0703975111246109,0.24997609853744507,-0.22413137555122375,-0.13615742325782776,-0.0585763081908226,0.34854382276535034,0.17337776720523834,-0.10761132091283798,-0.25124722719192505,-0.029649892821907997,-0.0030921294819563627,-0.14222635328769684,0.0054738461039960384,0.05964235961437225,0.00881144404411316,0.11130634695291519,-0.06606979668140411,-0.09618619829416275,-0.23578965663909912,-0.2418697625398636,-0.009504280984401703,0.16422806680202484,0.03934885188937187,-0.2502519488334656,-0.06898976117372513,0.041847776621580124,0.04501410946249962,0.06318636983633041,-0.1611439287662506,0.10673496127128601,0.08440475165843964,0.3604755997657776,0.12988199293613434,0.056400224566459656,0.05557633563876152,0.03534445911645889,-0.00892906729131937,0.04040452837944031,0.07974842190742493,-0.14298327267169952,0.2533726692199707,-0.030684534460306168,-0.05377991497516632,-0.17192691564559937,0.08527970314025879,-0.10342590510845184,0.15281076729297638,-0.18619254231452942,-0.19415274262428284,-0.048342037945985794,0.028060946613550186,0.12242436408996582,-0.016349712386727333,0.1267891675233841,0.02928423509001732,-0.05302751064300537,-0.1731421798467636,0.17762480676174164,0.02166064828634262,-0.006128406617790461,0.2818712294101715,-0.22140821814537048,-0.02225722186267376,-0.15599989891052246,-0.09512288868427277,-0.15211644768714905,-0.16301430761814117,0.16198866069316864,0.03676826134324074,0.16951578855514526,-0.11174900829792023,-0.015203911811113358,0.05756828188896179,-0.16574329137802124,0.049914926290512085,-0.004881460685282946,0.04169521480798721,0.13825935125350952,0.20717796683311462,0.22887080907821655,-0.11803699284791946,-0.0407889224588871,-0.26453155279159546,-0.3996296226978302,-0.00976533256471157,-0.2300860434770584,-0.07426831126213074,0.2407112717628479,-0.06841463595628738,-0.2777675986289978,-0.07308711111545563,-0.05400815233588219,-0.09465590864419937,0.08120016008615494,0.04850494861602783,-0.020780319347977638,-0.06654525548219681,-0.1701488196849823,-0.26831501722335815,-0.036755237728357315,-0.10448247194290161,0.23875658214092255,-0.01999485306441784,-0.12510931491851807,-0.010932757519185543,0.2267628163099289,0.25205034017562866,-0.039002832025289536,-0.0634167343378067,0.04376998543739319,-0.10102050751447678,-0.1330232322216034,-0.22781771421432495,0.04244876280426979,-0.09586847573518753,-0.021409185603260994,0.21734708547592163,0.22479335963726044,0.3060391843318939,-0.23700512945652008,0.026431189849972725,0.14130793511867523,0.09557585418224335,0.050914034247398376,-0.21421922743320465,0.12707477807998657,0.005139567423611879,-0.3337816894054413,0.09992038458585739,-0.20843857526779175,-0.05089598521590233,0.0671672523021698,0.0976860448718071,0.1342317909002304,-0.3467445373535156,-0.23013117909431458,0.1520908623933792,0.053708478808403015,0.07417428493499756,-0.023832006379961967,0.106513611972332,0.07628416270017624,-0.032183192670345306,-0.10538266599178314,-0.1157391220331192,0.05457453057169914,-0.1491042524576187,-0.24101391434669495,0.16646914184093475,-0.08810246735811234,0.12232637405395508,-0.2432444989681244,0.13742199540138245,-0.012362038716673851,0.14496847987174988,0.02313404157757759,-0.08417700231075287,0.04656577482819557,-0.24755361676216125,-0.22564098238945007,-0.10316789895296097,0.07413779944181442,-0.28062674403190613,-0.07578780502080917,0.05886359140276909,-0.032055068761110306,-0.07194036990404129,0.36693456768989563,-0.0675777718424797,-0.04334786906838417,-0.1255117952823639,0.016677984967827797,-0.14438997209072113,0.11354867368936539,0.03046160377562046,0.13497652113437653,0.24582122266292572,0.29661402106285095,0.09294476360082626,0.38722366094589233,0.03345800191164017,-0.06441356986761093,-0.008339516818523407,-0.13632309436798096,0.2664514183998108,0.07662326097488403,-0.05651997774839401,-0.06724575906991959,0.10232219099998474,-0.10166038572788239,-0.009987619705498219,-0.10165027529001236,0.12242244929075241,-0.0654110386967659,-0.054633017629384995,-0.03760932758450508,-0.2567508816719055,0.15935850143432617,0.028782695531845093,-0.15676264464855194,-0.10270331799983978,-0.1736735701560974,-0.21811679005622864,-0.0936407595872879,0.13574320077896118,0.03306388854980469,0.12055447697639465,-0.08835364878177643,0.04945685714483261,0.06452280282974243,-0.06452503800392151,0.1856352984905243,0.11692493408918381,-0.06864558160305023,-0.33854445815086365,-0.03476324677467346,0.19016200304031372,-0.08626368641853333,0.14470313489437103,-0.008897732011973858,0.16114811599254608,0.025026818737387657,-0.07632298767566681,0.13176223635673523,-0.21259286999702454,0.1004505380988121,-0.0003681281814351678,0.19723549485206604,-0.2619577944278717,-0.03578469529747963,-0.10834305733442307,0.10384020954370499,-0.027239136397838593,0.010008284822106361,0.04483313113451004,-0.011219476349651814,0.20029547810554504,0.03029525838792324,0.10085667669773102,0.12325750291347504,-0.014730967581272125,-0.06051095947623253,-0.0031095948070287704,-0.03302982822060585,0.3415485918521881,-0.1045626550912857,-0.04092642292380333,0.04766948148608208,-0.051226481795310974,0.10198704898357391,-0.1145111471414566,-0.008930012583732605,0.2351463884115219,0.01261123362928629,-0.30353495478630066,0.43253472447395325,0.0920976772904396,-0.05896102637052536,-0.0920320376753807,-0.32526543736457825,0.0955679789185524,-0.4177452325820923,-0.22670501470565796,-0.07923170179128647,0.07791639119386673,-0.18865032494068146,0.018146023154258728,0.23207582533359528,-0.1847086101770401,-0.02616754174232483,-0.3870406448841095,-0.042167775332927704,-0.12951762974262238,-0.3034825325012207,0.06947946548461914,0.03443176671862602,0.16543740034103394,0.10347704589366913,-0.059874098747968674,-0.07612297683954239,0.21724845468997955,0.13503879308700562,0.08448675274848938,-0.1943034678697586,-0.25091552734375,0.16238725185394287,-0.029976410791277885,0.07281455397605896,0.09268633276224136,0.16711804270744324,0.24193091690540314,0.1311529129743576,-0.1670760214328766,-0.1638207882642746,-0.09458071738481522,0.16525952517986298,-0.22882190346717834,-0.00614712992683053,-0.09689834713935852,0.2938618063926697,0.1717374175786972,0.09692113101482391,-0.16477276384830475,-0.13150770962238312,-0.051301952451467514,-0.2846892178058624,0.09989605844020844,-0.6183551549911499,-0.18083639442920685,-0.26758643984794617,0.1428670585155487,-0.006988147739320993,-0.05435542017221451,0.1659504771232605,-0.07410960644483566,-0.02081623673439026,0.3757860064506531,-0.30362603068351746,-0.04673308506608009,0.25664305686950684,-0.07671218365430832,0.09132467210292816,0.02765374816954136,-0.058265142142772675,0.14111244678497314,-0.07884731888771057,0.007917801849544048,0.028043877333402634,0.05530733987689018,-0.28339675068855286,-0.09073307365179062,0.0939609557390213,-0.0405622199177742,-0.04453818500041962,-0.056517504155635834,0.11620543897151947,-0.020328253507614136,-0.19160301983356476,-0.11603058129549026,-0.060187939554452896,0.07345930486917496,0.3157798945903778,0.03491601347923279,0.019912568852305412,-0.1758853644132614,-0.010043226182460785,0.18987563252449036,-0.02171497605741024,0.07190964370965958,0.17168886959552765,-0.04966353625059128,-0.13036629557609558,0.10164103657007217,0.136721670627594,0.03091457672417164,0.25657570362091064,0.08681695908308029,0.08126676827669144,0.08384867757558823,-0.07603731751441956,-0.0943337082862854,0.24091903865337372,0.23469942808151245,0.03273104876279831,-0.14617380499839783,0.28676819801330566,0.1135316863656044,0.05721985176205635,-0.15438491106033325,0.1557932198047638,-0.019572606310248375,0.05104362219572067,-0.025479665026068687,-0.34649747610092163,0.5283721685409546,-0.035189732909202576,0.2097008228302002,-0.20953871309757233,-0.026096908375620842,-0.09169037640094757,-0.044412218034267426,-0.046871550381183624,-0.037930842489004135,0.2887205183506012,0.08537428081035614,-0.27994412183761597,-0.06430419534444809,-0.14396438002586365,-0.12424659729003906,0.10870468616485596,0.08575351536273956,-0.21678078174591064,-0.47453320026397705,0.0977034643292427,-0.048250582069158554,0.0056575993075966835,0.15259890258312225,0.004491095431149006,-0.07308606058359146,-0.20913814008235931,0.17659252882003784,-0.07347419112920761,0.148201584815979,0.022230500355362892,-0.12306851148605347,0.1872190684080124,-0.11553774774074554,-0.16167756915092468,-0.08882436901330948,0.24281440675258636,-0.1901802122592926,0.012934730388224125,-0.28194284439086914,0.05543145909905434,0.3654797673225403,0.1463758647441864,-0.3179851174354553,0.22197075188159943,0.1499701291322708,0.14054860174655914,0.400325208902359,-0.18240047991275787,-0.2306252419948578,0.1520587056875229,0.06662718951702118,0.2235245704650879,0.22288595139980316,-0.09817826747894287,0.40364205837249756,-0.3344983756542206,-0.032755449414253235,0.21368567645549774,-0.0422963872551918,0.1300283521413803,-0.32972127199172974,0.05453098937869072,-0.14870110154151917,-0.1047343760728836,-0.10380306839942932,-0.09133948385715485,-0.08540991693735123,0.03656083717942238,-0.12867365777492523,-0.05209093913435936,0.00685200234875083,-0.013007983565330505,-0.3828255832195282,0.012521426193416119,0.10347817838191986,0.585436999797821,0.3175201714038849,-0.3422090709209442,0.11972159892320633,-0.2167234569787979,-0.5203928351402283,-0.3364119827747345,-0.30481892824172974,0.012125472538173199,0.26271528005599976,-0.19249285757541656,0.13689787685871124,-0.47547590732574463,0.1721923053264618,0.5909503698348999,0.07680141925811768,-0.23061616718769073,0.005732489284127951,-0.21316131949424744,-0.34041130542755127,-0.16544076800346375,0.15574908256530762,-0.02555103413760662,0.06493508815765381,-0.06475085765123367,-0.11228582262992859,0.16135644912719727,-0.19675622880458832,-0.01455372292548418,-0.12199322879314423,-0.15250995755195618,-0.06988197565078735,0.02331334911286831,0.12649372220039368,-0.28955113887786865,0.024982621893286705,0.03443281352519989,0.010190257802605629,0.07122357934713364,0.0881684347987175,0.0032003861851990223,0.08739374577999115,-0.15671192109584808,0.013623026199638844,0.07199396193027496,0.4598691761493683,-0.08578593283891678,-0.20842960476875305,0.21301819384098053,-0.006641012150794268,-0.3432563841342926,-0.1322009563446045,-0.033326923847198486,-0.066496342420578,-0.002516935346648097,0.162728413939476,0.030187049880623817,-0.18398581445217133,-0.066202312707901,0.00004861930210608989,-0.23308847844600677,0.012411920353770256,0.18856878578662872,-0.03972243517637253,0.2472403347492218,0.11391787976026535,0.06442204862833023,-0.0010816793655976653,-0.18225184082984924,-0.170035257935524,-0.3552522659301758,-0.057403456419706345,0.17267069220542908,0.049291372299194336,-0.030344277620315552,0.05519556254148483,0.1287837028503418,0.1022595539689064,-0.21483230590820312,0.041740138083696365,0.045761656016111374,-0.08666342496871948,-0.1912154108285904,-0.027115466073155403,-0.20221395790576935,0.05748993530869484,-0.12502609193325043,0.2104569971561432,0.047778233885765076,-0.012772108428180218,-0.2777980864048004,-0.06679829210042953,0.169095978140831,-0.285191148519516,-0.017762545496225357,-0.06656676530838013,-0.014885644428431988,0.036218881607055664,-0.023884227499365807,0.09782275557518005,-0.060651618987321854,-0.029958339408040047,-0.02385765314102173,0.056247226893901825,-0.010512446984648705,-0.21323156356811523,-0.262982040643692,-0.2837553918361664,0.0259373988956213,0.14470593631267548,0.2219502180814743,-0.009346703067421913,-0.08811547607183456,0.12252338230609894,-0.056290578097105026,0.08602933585643768,-0.033241841942071915,-0.15024198591709137,-0.05886613950133324,-0.04980257898569107,0.142916738986969,0.042745884507894516,-0.07628867775201797,0.08151555806398392,0.034843966364860535,-0.011763769201934338,0.03402344137430191,0.49275514483451843,0.20838114619255066,0.5861458778381348,-0.814862072467804,-0.56972336769104,0.1263614445924759,0.23580509424209595,-0.12911000847816467,0.3689182996749878,0.19570758938789368,-1.012796401977539,0.2750840485095978,0.02013934776186943,-0.24172353744506836,0.023481519892811775,-0.19126765429973602,-0.23817087709903717,-0.22956600785255432,0.07378337532281876,-0.32698866724967957,0.03401772677898407,0.20315761864185333,-0.130117729306221,-0.03991659730672836,-0.0931861400604248,0.0026896039489656687,-0.10658521950244904,-0.07971930503845215,-0.03308820724487305,-0.11395999789237976,0.16258735954761505,-0.11319605261087418,-0.12546807527542114,-0.0907205119729042,0.24699607491493225,-0.01259672176092863,-0.22417525947093964,-0.13760337233543396,0.32141077518463135,-0.20705212652683258,-0.13362877070903778,0.10545839369297028,0.19026215374469757,0.14961311221122742,0.2760443687438965,0.17284901440143585,0.1665232628583908,0.09727263450622559,0.09874102473258972,0.35434430837631226,-0.15814130008220673,-0.06000801548361778,0.04675676301121712,-0.16485637426376343,0.1177382692694664,-0.12506210803985596,-0.10684329271316528,-0.04991321265697479,0.12051025778055191,0.037223733961582184,0.1796303242444992,-0.048596762120723724,0.004690429661422968,0.24917688965797424,-0.19359397888183594,-0.012377140112221241,-0.047877125442028046,0.23729601502418518,0.07076579332351685,0.2736705541610718,0.15519891679286957,-0.0090035954490304,-0.09600881487131119,-0.0726294070482254,0.03850075230002403,-0.25099605321884155,0.21731750667095184,0.11664090305566788,0.00439849216490984,-0.14619433879852295,0.280459463596344,-0.05629831925034523,-0.16085420548915863,0.058309148997068405,0.23603081703186035,-0.08350357413291931,0.04349778965115547,-0.295533150434494,0.2923063337802887,0.09006992727518082,0.2326909452676773,0.17976370453834534,-0.1926225870847702,-0.2098608762025833,0.013605410233139992,-0.17532962560653687,-0.2225954234600067,0.25787845253944397,0.04071060195565224,0.1919427514076233,0.020835233852267265,0.23635399341583252,0.0485304594039917,-0.08901539444923401,0.24543650448322296,0.0015641992213204503,-0.29360124468803406,0.24846519529819489,-0.08880899101495743,-0.06183468922972679,-0.11814618110656738,-0.00735384551808238,-0.14872489869594574,-0.12353834509849548,0.07781457155942917,0.213311567902565,0.04347613826394081,0.017145385965704918,0.21638259291648865,-0.25014227628707886,-0.10589516162872314,-0.12928278744220734,0.11172711104154587,-0.06508217751979828,-0.15886899828910828,0.12695622444152832,0.06188300624489784,-0.517942488193512,-0.08339066058397293,0.3478550910949707,0.043319109827280045,0.22143617272377014,0.13089655339717865,-0.2708941400051117,-0.031561095267534256,0.3322504758834839,0.006103743799030781,0.16351047158241272,0.10226540267467499,0.2693442404270172,0.12140636146068573,-0.09325549006462097,-0.10596785694360733,0.15439340472221375,-0.32297462224960327,0.075371652841568,0.035570260137319565,0.05849621817469597,-0.004424791783094406,-0.07461119443178177,-0.2327250987291336,-0.3112648129463196,-0.18016062676906586,0.027720585465431213,-0.054063864052295685,-0.147341787815094,0.13984084129333496,0.12860660254955292,0.06561949849128723,0.06423225998878479,-0.0791124626994133,0.10455546528100967,0.18777522444725037,0.11199117451906204,-0.15637870132923126,0.08469208329916,-0.12791164219379425,-0.0020092253107577562,-0.298103004693985,0.06892172247171402,0.07778230309486389,-0.14735104143619537,0.26330259442329407,-0.03285690397024155,0.17103256285190582,0.07566551864147186,-0.30860137939453125,0.21320921182632446,-0.2368449866771698,-0.2296827733516693,-0.2970360219478607,-0.014138280414044857,0.017949970439076424,-0.12322616577148438,0.19469957053661346,0.06848554313182831,-0.21188922226428986,-0.10257085412740707,-0.12496107816696167,-0.1193331852555275,0.1341213434934616,0.14082258939743042,-0.036108292639255524,0.16144807636737823,-0.001004411606118083,-0.04169533774256706,0.07774814963340759,-0.14539793133735657,-0.06498485058546066,0.026006517931818962,-0.07433904707431793,0.29708215594291687,0.37621361017227173,0.0722346305847168,-0.13997085392475128,0.13654881715774536,-0.0936119332909584,0.052374668419361115,0.17945457994937897,0.3069579303264618,0.23449522256851196,0.39836978912353516,-0.21312645077705383,-0.01506614126265049,-0.10632429271936417,0.06123238429427147,0.23657672107219696,0.0384446382522583,-0.11027985066175461,-0.02826932817697525,-0.2625226676464081,0.26041558384895325,-0.028637675568461418,-0.21594594419002533,-0.061718083918094635,0.14054112136363983,-0.08687499165534973,0.2663757801055908,-0.02901187539100647,0.15385942161083221,-0.21596576273441315,0.11815335601568222,0.0975877121090889,0.036370422691106796,-0.0251223836094141,-0.15722663700580597,-0.3113583028316498,-0.18959949910640717,-0.0605105422437191,0.1322048306465149,0.2482820600271225,-0.023852264508605003,0.23335042595863342,0.011702709831297398,-0.05035831034183502,-0.20070523023605347,0.07649748027324677,-0.013889871537685394,-0.1791704148054123,0.1795719712972641,-0.2568976879119873,0.09835153818130493,0.16252434253692627,-0.007708075921982527,-0.018322592601180077,0.2536708414554596,0.12361478805541992,0.1302892565727234,0.002556315390393138,-0.09547527134418488,-0.39604586362838745,-0.3595086932182312,0.20277009904384613,0.10118462145328522,-0.21553289890289307,0.15504363179206848,-0.3490737974643707,-0.04177343472838402,0.17916272580623627,-0.14242251217365265,-0.21334251761436462,-0.05797959864139557,-0.14805589616298676,0.03042239509522915,0.04154599457979202,-0.1338908076286316,0.04181483015418053,0.09672491252422333,0.11481636762619019,-0.019921761006116867,-0.13351872563362122,0.021525133401155472,0.01059290673583746,-0.005784010514616966,-0.054147813469171524,-0.28199151158332825,-0.08363211899995804,0.07785747945308685,-0.07545924931764603,0.20784981548786163,0.026126990094780922,0.10534986108541489,0.019886260852217674,0.03852026164531708,-0.12358827888965607,0.2470293939113617,-0.30811628699302673,0.18211214244365692,0.16169065237045288,-0.040034301578998566,0.1183081716299057,0.006522768642753363,-0.23380526900291443,0.23328706622123718,0.03859556093811989,-0.11713353544473648,0.008022001013159752,-0.11751815676689148,0.2122850865125656,0.24201498925685883,0.472766250371933,0.12208973616361618,-0.41183531284332275,-0.3050956130027771,0.16101348400115967,-0.4679834842681885,0.006879426073282957,0.07670454680919647,0.08033769577741623,0.2922811508178711,-0.029670966789126396,0.21304702758789062,-0.08293574303388596,0.19276893138885498,0.20747794210910797,0.2825389802455902,0.40176913142204285,0.002879142062738538,-0.16848641633987427,-0.04241621866822243,0.10770153999328613,-0.15645849704742432,0.2661657929420471,-0.3814094364643097,-0.3027961254119873,0.07489648461341858,-0.050337404012680054,-0.0637308731675148,0.048992086201906204,0.08694903552532196,-0.00410397769883275,0.1893535852432251,-0.023740211501717567,-0.22303542494773865,-0.40280625224113464,-0.1209525391459465,0.04988829046487808,-0.07112930715084076,0.0059710098430514336,0.07767008990049362,0.20171116292476654,-0.20441114902496338,-0.04578389227390289,-0.017954926937818527,-0.09509038925170898,-0.11466753482818604,0.03327412158250809,-0.2597038745880127,-0.45729777216911316,-0.09209830313920975,-0.09917010366916656,0.36486005783081055,0.1703816056251526,-0.06392001360654831,-0.0055099655874073505,0.21144257485866547,0.09446801990270615,-0.2693813145160675,-0.0040167854167521,0.018128665164113045,0.11682374775409698,-0.04292948544025421,-0.21715092658996582,-0.13072121143341064,0.02743574231863022,-0.04567548632621765,0.06565388292074203,0.012617073953151703,-0.18931762874126434,-0.16417309641838074,0.10686734318733215,0.22481627762317657,0.1863401234149933,-0.10972163826227188,-0.07032912224531174,-0.3257737457752228,-0.052023373544216156,0.030597789213061333,0.29805514216423035,-0.21585044264793396,0.07735706120729446,-0.02102528139948845,-0.011470074765384197,-0.10703777521848679,0.00756217073649168,-0.06109418720006943,-0.11398154497146606,-0.24257227778434753,0.03394310548901558,0.1284627616405487,0.20107530057430267,-0.05938783288002014,-0.0735735297203064,0.09025102853775024,-0.3703892230987549,-0.1341516673564911,0.23723553121089935,0.01174467708915472,0.14557026326656342,-0.2042258232831955,-0.06819330900907516,0.08802977949380875,-0.12103131413459778,-0.00877080112695694,0.0424204058945179,-0.0024191534612327814,0.1534985452890396,-0.07625190168619156,-0.16840147972106934,-0.03993181884288788,0.06590855866670609,0.16327115893363953,0.13791032135486603,0.014236297458410263,0.09060773998498917,0.1971202790737152,0.00020752869022544473,0.08500402420759201,0.2290877401828766,0.1367245465517044,-0.10147208720445633,0.14292745292186737,0.07686229795217514,-0.34636190533638,0.06344111263751984,0.02929445542395115,-0.14154399931430817,-0.3116080164909363,0.3079717457294464,0.367892861366272,-0.27078914642333984,0.11869483441114426,-0.12954680621623993,0.1250380575656891,0.06632320582866669,-0.011015284806489944,0.12316050380468369,0.08394719660282135,0.04775986820459366,0.3226621448993683,0.08182933181524277,-0.0035020315553992987,0.005116316024214029,0.25021761655807495,-0.14128369092941284,-0.13254451751708984,-0.005171715281903744,-0.10386142879724503,0.027393588796257973,-0.06350129097700119,0.1474190205335617,-0.2745739221572876,-0.15829843282699585,0.052629124373197556,0.08205040544271469,-0.037500862032175064,-0.2982604205608368,0.03356945142149925,0.06040318310260773,0.05337176099419594,0.004236081149429083,-0.03446299210190773,0.07496052980422974,-0.09303878992795944,0.049142226576805115,0.1315513700246811,-0.048886820673942566,0.060057539492845535,0.030023545026779175,-0.32759442925453186,-0.08736172318458557,0.36468660831451416,-0.1435105949640274,0.18973666429519653,-0.026369675993919373,0.0773073211312294,0.11689692735671997,0.21230125427246094,0.36387088894844055,-0.13779768347740173,0.2897859513759613,0.06779956072568893,0.21743083000183105,0.10795116424560547,-0.035678427666425705,0.13205718994140625,-0.23485291004180908,-0.2157387137413025,0.1796778291463852,-0.1069122850894928,-0.07623687386512756,0.10256565362215042,-0.07273826003074646,0.004179270006716251,-0.05593017861247063,-0.056685034185647964,0.09843000769615173,-0.04730166494846344,-0.22578474879264832,0.15262092649936676,0.0904775932431221,0.01611344888806343,-0.0368632972240448,-0.047982096672058105,-0.06995757669210434,-0.03857061266899109,-0.2209116518497467,0.2122907191514969,-0.023587530478835106,-0.060923077166080475,0.15069273114204407,-0.08016769587993622,0.021671785041689873,-0.13657785952091217,0.18854360282421112,-0.055197302252054214,0.25274109840393066,0.27242767810821533,-0.099098339676857,0.25397834181785583,-0.08299949765205383,-0.09954529255628586,0.09655174612998962,0.2082846462726593,0.12274732440710068,0.11608843505382538,0.07531451433897018,-0.07987123727798462,0.1689288169145584,0.05718516930937767,-0.2643091082572937,-0.011112636886537075,-0.20695391297340393,-0.20455098152160645,-0.19049683213233948,-0.10567399114370346,-0.12555281817913055,-0.05830257385969162,0.009414447471499443,-0.07371565699577332,0.16263988614082336,-0.01243534404784441,0.04966386407613754,-0.02990758791565895,0.008195831440389156,0.015521409921348095,0.04735139012336731,-0.012077216058969498,0.24358877539634705,0.0561324879527092,0.06497979909181595,-0.14659717679023743,0.030181478708982468,0.21687258780002594,-0.0836467370390892,-0.058959901332855225,-0.2530215382575989,-0.18291960656642914,0.09471830725669861,-0.016805611550807953,-0.029930979013442993,0.09274592250585556,0.029654409736394882,0.3380141854286194,0.15865379571914673,0.09125691652297974,0.012263535521924496,-0.3009802997112274,0.05912989750504494,-0.12727390229701996,-0.03618525341153145,-0.1874120831489563,-0.06840725243091583,-0.450859397649765,0.07897303998470306,-0.17041221261024475,-0.09784843027591705,0.10035762190818787,0.0662425309419632,0.03559054061770439,-0.011785678565502167,0.17841526865959167,0.3165864944458008,0.12033883482217789,-0.007872043177485466,0.3681105077266693,0.010523179545998573,-0.18896672129631042,0.07816464453935623,-0.154872328042984,-0.08646771311759949,-0.028623012825846672,-0.04898054525256157,0.1220148503780365,0.4073365330696106,-0.046173468232154846,-0.11821329593658447,-0.021359600126743317,0.33172062039375305,-0.08513543009757996,-0.1339821219444275,-0.01665070466697216,-0.034216221421957016,0.0866241306066513,0.06501998752355576,-0.009519250132143497,0.058700427412986755,0.10991322249174118,-0.17121852934360504,-0.08413615822792053,-0.17190083861351013,0.1951838731765747,-0.26276737451553345,-0.06925484538078308,0.1010422334074974,0.21920716762542725,0.04908287897706032,0.17382943630218506,-0.011222765780985355,0.19040381908416748,-0.052641935646533966,0.035363584756851196,0.18204951286315918,0.1663028746843338,0.1364409625530243,0.06179104372859001,-0.0632401779294014,-0.12503790855407715,0.047060102224349976,-0.0828588679432869,-0.27308642864227295,-0.08967076987028122,-0.0442674458026886,0.18807607889175415,-0.13855645060539246,0.00021864459267817438,-0.2965749502182007,-0.1174425259232521,-0.07316789776086807,-0.0861469954252243,0.024316422641277313,0.04618816077709198,-0.049520060420036316,0.3289199769496918,-0.06628640741109848,0.21909098327159882,0.09325962513685226,-0.2983130216598511,-0.07134737074375153,0.15256614983081818,0.04998171702027321,0.06511913985013962,0.12650653719902039,0.047151826322078705,0.01691809669137001,-0.17258691787719727,-0.10170581936836243,-0.03210432454943657,0.27934232354164124,-0.06265532970428467,0.05468811094760895,-0.1682336926460266,0.031127579510211945,0.25757578015327454,-0.04051630571484566,0.01910575106739998,0.05815259367227554,0.12622860074043274,-0.18435949087142944,-0.23098687827587128,-0.20819704234600067,-0.0658799558877945,-0.1336851716041565,0.041071075946092606,-0.10421542823314667,-0.1279311180114746,0.11036740988492966,0.10985808819532394,-0.1387760490179062,0.11322472989559174,-0.22158583998680115,-0.10848964750766754,0.13114768266677856,0.10457760095596313,-0.09296935796737671,-0.16320185363292694,0.010820049792528152,-0.1453588753938675,0.024970220401883125,-0.10639496892690659,-0.16454817354679108,0.28670623898506165,-0.04614946246147156,0.08049412816762924,-0.04269985854625702,0.14862199127674103,0.12015720456838608,-0.12587223947048187,0.1870473325252533,0.007051488384604454,-0.10900001227855682,-0.026942415162920952,-0.16002655029296875,0.10573463141918182,0.08233730494976044,-0.008388621732592583,-0.21587416529655457,-0.27880650758743286,-0.08544360101222992,0.10978508740663528,0.17773175239562988,-0.2715534567832947,0.020434319972991943,0.054919950664043427,0.011739254929125309,-0.08227051049470901,0.10858703404664993,0.007403974886983633,-0.05174834281206131,0.11654571443796158,-0.04220489412546158,-0.16224858164787292,-0.0046042753383517265,-0.04828453063964844,0.12412471324205399,-0.017542924731969833,0.14102858304977417,0.06753368675708771,-0.1330607831478119,-0.10988346487283707,0.0010440177284181118,0.09203322976827621,-0.011665859259665012,0.1270330548286438,0.12930522859096527,0.1379549354314804,0.20982812345027924,-0.14267498254776,0.03302190825343132,-0.12843012809753418,-0.003973011393100023,-0.035785820335149765,-0.0004912605509161949,0.2637516260147095,0.15214157104492188,-0.1449216604232788,0.12358381599187851,0.10908395797014236,-0.09676791727542877,0.08385872095823288,0.18055076897144318,-0.015221546404063702,-0.028049873188138008,-0.020147765055298805,-0.15824313461780548,0.07681542634963989,-0.005084196571260691,-0.15716668963432312,0.0660376250743866,-0.2911737263202667,-0.014349369332194328,0.10971488058567047,0.021336283534765244,-0.11380608379840851,-0.17176233232021332,0.11823821812868118,-0.04568718746304512,-0.018187372013926506,-0.1481577754020691,-0.02177879400551319,-0.11066953092813492,0.034001674503088,-0.027341220527887344,-0.13031525909900665,0.24658328294754028,0.013889351859688759,0.10293860733509064,-0.02860153093934059,-0.07099985331296921,-0.15475240349769592,0.22240817546844482,-0.07050660997629166,0.04703828692436218,0.06759220361709595,-0.07738223671913147,-0.11757700890302658,0.4505053758621216,0.31400230526924133,0.1057027131319046,0.08872270584106445,0.08159029483795166,0.11680357903242111,-0.15770384669303894,-0.24685810506343842,-0.12778189778327942,0.20328687131404877,-0.11289510875940323,-0.1319933533668518,0.02315078303217888,0.016150103881955147,-0.07499171048402786,0.23162294924259186,-0.1653355360031128,-0.2429591417312622,-0.07458952814340591,0.03711860999464989,-0.012519759126007557,