{"version":"0.5.4","metadata":{"date":{"year":2025,"month":11,"day":26,"hour":4,"minute":55,"second":43},"loudness":-21.646575927734375,"gain":0.5749207975686099,"name":"Quad Head SM57","modeled_by":"pillowz87","gear_type":"amp","gear_make":"tz-make","gear_model":"tz-model","tone_type":"overdrive","input_level_dbu":null,"output_level_dbu":null,"training":{"settings":{"ignore_checks":false},"data":{"latency":{"manual":null,"calibration":{"algorithm_version":1,"delays":[-4],"safety_factor":1,"recommended":-5,"warnings":{"matches_lookahead":false,"disagreement_too_high":false}}},"checks":{"version":3,"passed":true}},"validation_esr":0.004415909570380637}},"architecture":"WaveNet","config":{"layers":[{"input_size":1,"condition_size":1,"head_size":8,"channels":16,"kernel_size":3,"dilations":[1,2,4,8,16,32,64,128,256,512],"activation":"Tanh","gated":false,"head_bias":false},{"input_size":16,"condition_size":1,"head_size":1,"channels":8,"kernel_size":3,"dilations":[1,2,4,8,16,32,64,128,256,512],"activation":"Tanh","gated":false,"head_bias":true}],"head":null,"head_scale":0.02},"weights":[-0.18996651470661163,0.5886105298995972,-1.2308244705200195,-1.0616774559020996,-0.4801291525363922,0.5774209499359131,-0.20023080706596375,0.9539747834205627,-0.3221414089202881,0.4248392879962921,-0.4004426598548889,-0.22251449525356293,-1.33112370967865,-0.823643147945404,-0.769146740436554,-0.07946423441171646,0.095185786485672,0.4504733681678772,-0.2562909722328186,-0.1178073137998581,-0.2876228988170624,0.25151708722114563,0.026555558666586876,0.45064836740493774,-0.15439821779727936,0.06964830309152603,0.4697071611881256,-0.267546147108078,-0.03992810845375061,0.29307258129119873,-0.19174039363861084,0.07913923263549805,-0.4351083040237427,0.07829757034778595,-0.06026748940348625,0.23094943165779114,-0.25406819581985474,0.06765279918909073,-0.2700081467628479,0.1993839293718338,0.04192524403333664,0.26446300745010376,-0.13365992903709412,-0.17704661190509796,-0.42399299144744873,0.07298245280981064,0.13512301445007324,0.4105214476585388,-0.20456136763095856,0.033110570162534714,0.4075174927711487,0.0030857569072395563,0.11349184811115265,0.3573785126209259,-0.033824581652879715,-0.028841154649853706,0.36101409792900085,-0.24044951796531677,-0.04059922322630882,0.2732744514942169,-0.060434240847826004,0.01802198961377144,0.20411671698093414,-0.17977841198444366,-0.2576395869255066,-0.01802254281938076,0.16912920773029327,0.3580685257911682,0.07925764471292496,-0.050245121121406555,-0.4378759264945984,-0.04270505532622337,0.24577388167381287,-0.20628894865512848,0.13480406999588013,0.3141869902610779,-0.2920697033405304,-0.10940543562173843,0.2051706612110138,0.23721228539943695,-0.13932308554649353,-0.05419427528977394,-0.2357480376958847,-0.1339709311723709,0.2116745263338089,0.2953759431838989,-0.033033546060323715,-0.2506464123725891,-0.2755976915359497,-0.07754666358232498,0.23471848666667938,0.37917229533195496,0.08153623342514038,-0.14077122509479523,-0.45586463809013367,-0.08121982216835022,0.25769785046577454,-0.2844480574131012,-0.10076495260000229,0.09799981117248535,-0.18451963365077972,0.10777392983436584,0.1243794709444046,-0.3522523045539856,-0.12496478110551834,0.18476153910160065,-0.4412696957588196,-0.10362597554922104,0.17659182846546173,-0.303669273853302,-0.06214778870344162,0.19677510857582092,0.01668066531419754,-0.039949581027030945,0.2297074794769287,-0.1754467636346817,0.12274130433797836,-0.09389140456914902,0.07226035743951797,-0.12731359899044037,0.15521855652332306,0.06314157694578171,-0.23076790571212769,0.17018865048885345,-0.08004030585289001,-0.23755113780498505,0.07308460772037506,-0.13428978621959686,0.11170567572116852,-0.22565333545207977,0.06366770714521408,-0.14222387969493866,0.04991447180509567,-0.05961550399661064,0.26183977723121643,-0.1139717847108841,0.09505147486925125,-0.16299067437648773,0.16160573065280914,0.029903044924139977,0.28668442368507385,-0.02291632816195488,0.19937098026275635,-0.16326108574867249,-0.021889200434088707,-0.006560069043189287,-0.05558820068836212,0.10387997329235077,-0.020052503794431686,-0.27108994126319885,-0.03681235760450363,-0.06924837082624435,-0.18750739097595215,0.17789919674396515,0.13571202754974365,-0.3030639588832855,0.1901097148656845,0.03639095649123192,-0.13874445855617523,0.1592784970998764,-0.028703944757580757,0.22190576791763306,-0.31027016043663025,-0.14530609548091888,-0.2661564350128174,0.17330479621887207,-0.04342808574438095,0.30367788672447205,-0.30189013481140137,0.009086646139621735,0.3746607005596161,-0.2307228446006775,0.14083103835582733,0.28797876834869385,-0.30991798639297485,0.07599668949842453,-0.2685074210166931,0.11156758666038513,0.12056021392345428,0.1314956694841385,-0.18485382199287415,-0.0479276068508625,-0.1420430988073349,0.20967355370521545,0.06342390924692154,0.2912195920944214,-0.2259071171283722,-0.03433431312441826,-0.3506060242652893,0.2624925971031189,0.12217175215482712,0.3350389897823334,-0.2795175611972809,0.01261554192751646,0.12863166630268097,-0.25198256969451904,-0.06539078801870346,0.297029048204422,-0.25580844283103943,0.013741382397711277,0.25071465969085693,-0.07575012743473053,-0.09015078097581863,0.1545914262533188,-0.25236082077026367,0.14464174211025238,0.21435073018074036,-0.08475189656019211,0.0709909126162529,0.2296203374862671,-0.16133150458335876,-0.07398538291454315,-0.19591845571994781,0.11291657388210297,0.0437081940472126,0.23843622207641602,-0.2591874897480011,-0.03329243138432503,0.33477336168289185,-0.2631111443042755,0.02401134930551052,0.3486461043357849,-0.1025317832827568,-0.036050647497177124,-0.34900206327438354,0.218176931142807,-0.06211204081773758,0.17549604177474976,-0.2146500051021576,-0.06155921891331673,-0.2143261432647705,0.2627602219581604,0.0374920517206192,0.3375473618507385,-0.07746705412864685,-0.11740840971469879,-0.13752056658267975,0.05644300580024719,-0.029477519914507866,0.2513324022293091,-0.10213934630155563,0.14371919631958008,0.15621812641620636,-0.1444685459136963,0.11440064758062363,0.07814791798591614,-0.040348250418901443,-0.08085998147726059,0.216683030128479,-0.16834653913974762,-0.03618909418582916,0.23984408378601074,-0.026022620499134064,0.02493598870933056,0.13349859416484833,-0.2447957694530487,0.0445748008787632,-0.016994621604681015,-0.14675851166248322,-0.22695228457450867,0.0184098482131958,0.1916513592004776,0.20669442415237427,0.0058901007287204266,-0.05992766469717026,0.08474257588386536,-0.14453764259815216,-0.06506697088479996,0.2514398694038391,-0.06266263872385025,-0.17200149595737457,-0.20926393568515778,-0.03597472235560417,0.1339549422264099,0.09827063232660294,-0.21754881739616394,0.046061355620622635,-0.22187653183937073,0.08953925967216492,0.149708554148674,0.17246828973293304,-0.18383924663066864,-0.1960037350654602,-0.01692824251949787,0.12656079232692719,0.2183656543493271,0.08666868507862091,-0.0573987141251564,-0.13298796117305756,0.12722770869731903,-0.18806952238082886,-0.04838423803448677,0.1745227575302124,-0.10950005799531937,-0.14323356747627258,0.03738783672451973,-0.007965742610394955,-0.21804006397724152,0.19593971967697144,-0.15499195456504822,-0.18066327273845673,0.28186705708503723,-0.08171582221984863,0.049402594566345215,0.11439590156078339,-0.25121989846229553,0.16677172482013702,0.007413819432258606,0.1877419352531433,-0.1406041383743286,-0.06723255664110184,-0.1568409651517868,0.17155832052230835,0.0017965455772355199,-0.0783228799700737,0.21918074786663055,-0.01775999553501606,-0.12595395743846893,0.18675628304481506,-0.05514582619071007,0.1397980898618698,-0.11711559444665909,-0.03535546734929085,-0.13009142875671387,0.25944778323173523,0.07672571390867233,0.21618913114070892,-0.10019968450069427,0.1518508791923523,-0.19281363487243652,0.03227286413311958,-0.1902148723602295,0.26382309198379517,-0.04355628043413162,-0.038127362728118896,-0.06891560554504395,0.23620393872261047,0.2075844258069992,0.0012112855911254883,0.2336290031671524,0.019761821255087852,-0.1835649013519287,0.2385178506374359,0.13325084745883942,-0.21902218461036682,0.24789278209209442,0.12354321032762527,-0.060090046375989914,0.0299930889159441,0.17054764926433563,-0.14103810489177704,0.34494858980178833,-0.3027131259441376,0.17403580248355865,0.04070097208023071,0.32099449634552,-0.16135787963867188,0.05393649637699127,-0.36091944575309753,0.1437610685825348,-0.0823592096567154,-0.4012336730957031,-0.007284435443580151,0.12808562815189362,-0.174228236079216,0.25250232219696045,0.136659637093544,0.13213300704956055,-0.20309996604919434,-0.03561393916606903,-0.3709523677825928,0.24055126309394836,-0.08094198256731033,0.18229039013385773,-0.2445915937423706,-0.09603036195039749,-0.13999131321907043,0.23034782707691193,0.12036338448524475,0.34900277853012085,0.010195409879088402,-0.06493788212537766,-0.18140964210033417,0.23864112794399261,0.06808635592460632,-0.09914244711399078,0.18639563024044037,0.10620486736297607,-0.303945392370224,0.17695611715316772,0.032398294657468796,-0.2832562327384949,0.02690284326672554,-0.06371474266052246,-0.37497586011886597,0.20446442067623138,0.11299509555101395,-0.3553605377674103,0.0716131180524826,0.15881362557411194,0.3098435401916504,-0.1954827606678009,0.027882488444447517,-0.04382508993148804,0.2766281068325043,-0.16870033740997314,0.31826716661453247,-0.11249254643917084,0.009424964897334576,0.2631489336490631,-0.30026429891586304,0.04152778163552284,0.3018927276134491,-0.21104936301708221,-0.037619248032569885,-0.23952063918113708,0.17819546163082123,-0.10130427777767181,0.22610120475292206,-0.08935029804706573,0.10344232618808746,-0.26779428124427795,0.2234518826007843,0.007385728415101767,0.27956509590148926,-0.3404143750667572,0.0664794072508812,-0.28521764278411865,0.15540887415409088,-0.012883299961686134,0.07823161035776138,-0.1602695733308792,0.18839974701404572,0.18751056492328644,-0.29970213770866394,0.013496528379619122,0.2108968049287796,-0.32945922017097473,0.13259495794773102,0.04635543003678322,-0.35653021931648254,-0.08066871017217636,0.1595427691936493,-0.12232847511768341,-0.06854812800884247,0.37982937693595886,-0.20503365993499756,0.23414917290210724,0.20366941392421722,-0.3331356644630432,0.10483898222446442,-0.05563567578792572,0.3524540662765503,0.11891105026006699,0.0364416167140007,-0.0929839015007019,-0.039410170167684555,0.2017594873905182,-0.32796576619148254,-0.08515521883964539,-0.010588711127638817,-0.2666062116622925,-0.011856400407850742,-0.2577526569366455,0.25687411427497864,0.11329301446676254,0.20604218542575836,-0.3097565174102783,-0.13047632575035095,-0.17198479175567627,0.27577823400497437,0.18709081411361694,0.24797943234443665,-0.22091685235500336,0.032069411128759384,-0.2702753245830536,0.09026524424552917,0.1066669374704361,0.052556660026311874,-0.13930203020572662,-0.14061973989009857,0.06639906764030457,-0.3189335763454437,0.04139234870672226,0.11340952664613724,-0.10367822647094727,0.04268893599510193,0.20552600920200348,-0.20965519547462463,-0.09158486127853394,0.10429742932319641,-0.19690348207950592,0.025198839604854584,0.17788013815879822,0.031048567965626717,0.06867099553346634,-0.31696248054504395,-0.13128596544265747,0.2683771848678589,0.30689138174057007,-0.08826389908790588,-0.03508738800883293,-0.10182364284992218,0.037648919969797134,0.25547999143600464,-0.2540554106235504,-0.0024798866361379623,0.19310981035232544,-0.20970243215560913,0.00983760692179203,0.09968085587024689,0.2689495384693146,0.012560552917420864,-0.18642322719097137,-0.152468740940094,0.02055339328944683,0.09418085217475891,0.1852089762687683,0.13193243741989136,-0.1452389359474182,-0.13728934526443481,-0.08128898590803146,0.19284898042678833,0.05506480857729912,-0.05034641921520233,-0.21852891147136688,-0.03348833695054054,-0.08148042857646942,0.1359587162733078,-0.23758739233016968,0.10161207616329193,0.2754201292991638,-0.28092053532600403,-0.1647384762763977,0.02312156744301319,-0.1697966307401657,-0.08225001394748688,0.038442227989435196,-0.23061498999595642,-0.022510016337037086,0.05610155314207077,-0.10851781070232391,-0.015473817475140095,0.1360548585653305,-0.2178008109331131,0.4822722375392914,-0.2264396995306015,0.19316427409648895,-0.41569003462791443,0.24645528197288513,-0.3299255073070526,0.2255154401063919,0.03409851714968681,-0.28895488381385803,0.38640809059143066,-0.12433821707963943,-0.23003193736076355,0.3206482231616974,-0.023963550105690956,0.2159154713153839,-0.4958791136741638,0.03493097051978111,-0.2882239520549774,0.4451870918273926,-0.2342948317527771,0.3318658769130707,-0.3843720853328705,0.08421874046325684,-0.12605120241641998,0.41353318095207214,-0.022192969918251038,0.28605642914772034,-0.39010679721832275,0.023959940299391747,-0.21582412719726562,0.46056002378463745,-0.16797339916229248,-0.3261142075061798,0.40579497814178467,0.0317424014210701,-0.23770055174827576,0.2365325689315796,-0.2408643364906311,-0.15975940227508545,0.3408900499343872,-0.18186679482460022,-0.17421938478946686,0.41780826449394226,0.0047323014587163925,-0.1524185985326767,0.33085817098617554,-0.3084079325199127,0.06052986532449722,0.11586056649684906,0.2516438066959381,-0.11556021124124527,-0.1316245049238205,-0.03786547854542732,0.3228224515914917,0.13948804140090942,0.051338862627744675,0.1307167410850525,-0.09320832043886185,0.3105631470680237,0.12322713434696198,-0.054912667721509933,0.25234007835388184,-0.26750755310058594,-0.08377655595541,-0.19837869703769684,0.1816461831331253,-0.11250238865613937,0.3322347104549408,-0.24991151690483093,0.04399217292666435,-0.04573972523212433,0.27316245436668396,0.023113859817385674,0.3158085346221924,-0.17601105570793152,-0.08038749545812607,-0.04645019397139549,0.22766324877738953,-0.12911882996559143,0.1375146359205246,0.07690794765949249,0.12591801583766937,0.1436804234981537,0.056498222053050995,-0.0013840666506439447,0.26271167397499084,0.2254784256219864,0.0542924627661705,0.18490837514400482,0.24057359993457794,-0.030893439427018166,0.11477329581975937,0.08071769773960114,-0.04727452993392944,0.33359771966934204,-0.2167232781648636,0.04817261919379234,0.008168073371052742,0.13683532178401947,-0.11781851202249527,0.16963361203670502,-0.21189160645008087,0.144166499376297,-0.1518360674381256,-0.16354112327098846,0.10341227799654007,-0.09638004750013351,-0.0033608940429985523,-0.07176624238491058,-0.15498271584510803,0.06946205347776413,-0.00010444633517181501,0.1785328984260559,-0.20008176565170288,0.08626648038625717,-0.06634163856506348,0.09523128718137741,0.0806308314204216,-0.07432447373867035,-0.12121198326349258,0.16202066838741302,-0.06799234449863434,0.23011228442192078,-0.07914666086435318,0.1474887877702713,-0.2653921842575073,0.006025738548487425,-0.06386353075504303,-0.07915657758712769,0.07710281014442444,0.07540931552648544,-0.1482367366552353,0.0208278801292181,0.06189320236444473,-0.1640915870666504,0.15410447120666504,-0.1318206489086151,-0.14797553420066833,0.017550453543663025,0.02322646602988243,0.03953586146235466,0.0698244720697403,-0.11878712475299835,-0.2055867314338684,0.2349286675453186,-0.03121105767786503,0.12888573110103607,-0.11031939089298248,0.19940511882305145,-0.2124682366847992,0.0658419132232666,0.032660968601703644,-0.3309713304042816,0.23028896749019623,-0.04766306281089783,-0.28598296642303467,0.25368139147758484,-0.19059059023857117,0.26470616459846497,-0.28614920377731323,0.05896776169538498,-0.2507137954235077,0.34784016013145447,-0.1429503709077835,0.31143128871917725,-0.20890529453754425,-0.0001518337376182899,-0.36939486861228943,0.06501183658838272,0.06331393122673035,0.17429877817630768,-0.19266611337661743,0.09667998552322388,-0.12164183706045151,0.3123849034309387,0.04824777692556381,-0.3159906268119812,0.1752288043498993,-0.14140543341636658,-0.30206602811813354,0.22828726470470428,0.06741185486316681,-0.33122989535331726,0.2802678644657135,-0.1404746025800705,-0.2572830617427826,0.3149826228618622,-0.10345491766929626,-0.3823038935661316,0.08698417991399765,0.03324023634195328,0.2089901864528656,-0.12147529423236847,-0.06305509805679321,-0.3160041272640228,-0.09090960770845413,0.13308699429035187,0.32826781272888184,-0.0652540996670723,-0.056955888867378235,0.3378485441207886,0.07247316837310791,-0.19956731796264648,0.19071929156780243,-0.07686784863471985,-0.24572154879570007,-0.21975301206111908,0.1251296103000641,0.23966877162456512,0.2358294129371643,-0.0016215143259614706,-0.19246292114257812,-0.10127995908260345,-0.03745238855481148,0.021885622292757034,0.23912975192070007,0.06258920580148697,-0.25225356221199036,-0.06675451248884201,0.08691041171550751,0.03177451342344284,0.17287111282348633,0.09819196909666061,-0.23628997802734375,0.1637650579214096,0.023449592292308807,-0.24399393796920776,0.2894000709056854,0.05110781639814377,-0.034899063408374786,0.11498323827981949,0.1181805208325386,-0.21034157276153564,0.36221885681152344,-0.1610855758190155,-0.2501004934310913,0.30227595567703247,-0.023848317563533783,-0.09940042346715927,0.049814727157354355,-0.21759633719921112,-0.08070975542068481,-0.06608135998249054,0.05177687108516693,0.059553708881139755,0.004970122128725052,0.00029998808167874813,0.007910922169685364,0.0548466220498085,0.00016106116527225822,-0.11565157771110535,-0.06737180054187775,0.01773131638765335,-0.07420779019594193,0.0035246037878096104,0.5664070248603821,-0.6091745495796204,0.708572506904602,-0.5413398742675781,0.13850167393684387,1.0146695375442505,0.88393634557724,-0.5885142683982849,0.12171664834022522,0.16700424253940582,-0.5931054353713989,-0.24254754185676575,0.10584422200918198,-0.6581135988235474,0.2368222028017044,0.5511819124221802,0.001808080356568098,0.24963678419589996,0.007767044473439455,0.05756062641739845,0.11581529676914215,-0.12917332351207733,0.15770716965198517,0.26293227076530457,-0.07643009722232819,-0.10515611618757248,0.13015000522136688,-0.020926998928189278,0.12270355224609375,0.08481982350349426,0.3277983069419861,-0.2440066635608673,0.4565024971961975,-0.4676991403102875,-0.36536794900894165,0.19447514414787292,0.3252664804458618,-0.11614987999200821,-0.1415279507637024,-0.053059931844472885,-0.23976384103298187,-0.08467745780944824,-0.12016113847494125,0.4382445216178894,-0.28828316926956177,0.10107733309268951,0.23000599443912506,0.2681715488433838,0.2797686457633972,0.26137760281562805,-0.013275429606437683,0.35193368792533875,-0.11664621531963348,-0.19875597953796387,0.11685625463724136,-0.09489966928958893,-0.11008357256650925,-0.2561778128147125,0.22720694541931152,0.06908313930034637,0.10817518830299377,0.21191293001174927,0.2513079345226288,-0.062479060143232346,0.3716019093990326,-0.22992877662181854,-0.11926374584436417,-0.2106643170118332,0.08345525711774826,0.2384190708398819,-0.02799639105796814,-0.0003451388329267502,-0.19656698405742645,0.12787480652332306,-0.06152346357703209,-0.07164633274078369,0.05983388423919678,0.2627609074115753,-0.08151473850011826,0.047213904559612274,-0.11140355467796326,-0.23971933126449585,-0.19356442987918854,0.06260359287261963,0.2274600863456726,0.27992087602615356,0.029305189847946167,-0.3137512803077698,0.08497610688209534,0.26008129119873047,-0.24539588391780853,0.05250183492898941,-0.10619580745697021,0.07811492681503296,-0.22480905055999756,0.1619769036769867,-0.0018044795142486691,-0.2043524980545044,0.013351013883948326,0.09878141433000565,0.24712781608104706,0.1883290708065033,0.09463731944561005,0.09290584921836853,0.019454948604106903,-0.14970259368419647,-0.24057091772556305,-0.019825516268610954,-0.058025795966386795,-0.023530103266239166,0.18892519176006317,0.10760843008756638,0.17097367346286774,0.4057547152042389,0.19955934584140778,0.3967146873474121,-0.09843088686466217,-0.18450713157653809,0.042864859104156494,0.1822182685136795,-0.00868526566773653,-0.298885703086853,-0.26019638776779175,0.5120773911476135,0.007832479663193226,-0.17757263779640198,0.3172975182533264,-0.06354796141386032,0.20301860570907593,0.05664817616343498,0.12215053290128708,-0.1343766152858734,-0.1375449299812317,-0.02420692890882492,0.06900425255298615,0.19774527847766876,-0.00768149271607399,-0.3299892246723175,0.14827950298786163,-0.06853741407394409,0.16400611400604248,-0.05092828348278999,-0.06960036605596542,0.013725833967328072,-0.07971467077732086,0.10630258917808533,-0.21657529473304749,-0.1707829087972641,0.14949408173561096,-0.10007418692111969,-0.15088994801044464,-0.05712464079260826,-0.07256490737199783,-0.1448870152235031,0.21262797713279724,0.06814497709274292,-0.08329039812088013,-0.11157329380512238,0.011504030786454678,-0.08834902942180634,-0.43616753816604614,0.12535962462425232,0.23024515807628632,-0.36578506231307983,-0.40791434049606323,0.0034173051826655865,0.19803430140018463,-0.1604297012090683,0.06411853432655334,0.30497780442237854,0.27131202816963196,-0.08272973448038101,0.31036943197250366,0.1964525729417801,-0.26354721188545227,-0.07840254157781601,0.017241789028048515,0.3543197810649872,-0.10286499559879303,0.08318697661161423,-0.14206761121749878,-0.13343261182308197,0.16079340875148773,0.05987778678536415,0.020671311765909195,-0.12106706202030182,-0.13555079698562622,-0.00510589312762022,-0.12257815897464752,0.1665439009666443,0.29486316442489624,0.14528068900108337,0.029567696154117584,-0.12589426338672638,0.08152785152196884,-0.10991065204143524,0.05248217657208443,0.10689010471105576,-0.12693147361278534,-0.06789816915988922,-0.05574730783700943,-0.11455106735229492,0.054011620581150055,-0.22550775110721588,-0.15339721739292145,0.1283027082681656,-0.22615346312522888,-0.17681770026683807,-0.1405961662530899,-0.02417590096592903,-0.021031321957707405,-0.02842727117240429,-0.023249901831150055,-0.20270173251628876,-0.01359554473310709,-0.05417256057262421,0.25572171807289124,-0.0507180280983448,-0.08131713420152664,-0.05820099636912346,0.2794226408004761,-0.25736168026924133,-0.4299624562263489,0.1069176122546196,-0.36589065194129944,0.0440429262816906,-0.02263474464416504,-0.031824663281440735,-0.3236197829246521,0.25449758768081665,0.18179212510585785,-0.00737740145996213,0.1922287940979004,0.007459021173417568,0.0769292414188385,-0.28051191568374634,-0.018371356651186943,-0.26649078726768494,-0.43926888704299927,0.17231294512748718,-0.16876335442066193,0.4515441656112671,0.03335904702544212,-0.09850085526704788,-0.0978647917509079,-0.005181668791919947,0.32249686121940613,0.11448889225721359,-0.15058554708957672,0.15603607892990112,0.09798577427864075,-0.029007500037550926,0.185102641582489,0.12614336609840393,-0.19859443604946136,-0.10053539276123047,0.2095174491405487,0.27006280422210693,0.07272493094205856,0.04456578567624092,0.035699717700481415,0.13217738270759583,0.035009343177080154,0.4198567271232605,-0.04803840070962906,-0.1329122632741928,0.024706214666366577,0.015581225045025349,-0.0670507624745369,0.1964176595211029,0.1073121502995491,-0.2030394971370697,0.1036304384469986,-0.09604530781507492,0.14583049714565277,-0.11195503175258636,-0.09080348908901215,-0.019045431166887283,0.2444860339164734,0.01940668560564518,-0.0055556814186275005,-0.017921704798936844,0.09606403857469559,-0.07162096351385117,0.030584195628762245,-0.05454540252685547,0.07629954814910889,0.027237476781010628,0.08262850344181061,0.18540078401565552,-0.22696302831172943,-0.04111498221755028,-0.5391575694084167,0.03657345473766327,-0.16245844960212708,0.40653395652770996,0.14273284375667572,-0.2869669198989868,-0.012173748575150967,0.1099054142832756,-0.2194526195526123,-0.2720477283000946,0.323804646730423,0.14298367500305176,-0.4472563862800598,0.03922487795352936,-0.13009394705295563,0.07530027627944946,-0.26407405734062195,0.14281880855560303,-0.0690053179860115,-0.3207013010978699,-0.18508921563625336,0.09687502682209015,-0.19562946259975433,0.07210785150527954,0.2462497353553772,-0.11279764771461487,-0.1844886690378189,0.06870270520448685,-0.042588744312524796,-0.32088708877563477,-0.138172909617424,0.20276473462581635,-0.253313809633255,0.23045843839645386,0.3213162124156952,-0.09660627692937851,0.5715829133987427,0.3863033056259155,-0.1542210727930069,0.7975499033927917,0.09838903695344925,0.166961669921875,0.17897388339042664,-0.429756760597229,-0.013079915195703506,0.0331425704061985,0.23086515069007874,-0.04910212755203247,-0.23057234287261963,0.3489481210708618,-0.13234061002731323,0.01664872281253338,0.15826581418514252,-0.28890204429626465,-0.03365408256649971,-0.027584707364439964,-0.06950649619102478,-0.21666647493839264,0.20559534430503845,-0.07517382502555847,-0.00798108521848917,-0.20439565181732178,0.27913832664489746,-0.026778608560562134,0.0980675145983696,0.14171327650547028,0.005592985078692436,-0.08344241976737976,-0.06479088962078094,-0.06382660567760468,0.23938371241092682,0.20511814951896667,0.12667903304100037,-0.29050585627555847,0.04123838245868683,-0.04532189667224884,0.25914648175239563,-0.20161789655685425,-0.18518400192260742,0.13943639397621155,-0.23298579454421997,-0.08103884756565094,0.12129026651382446,0.10086880624294281,-0.12443547695875168,0.23968620598316193,0.1374702900648117,0.025367269292473793,-0.09130671620368958,0.14558880031108856,0.11698255687952042,-0.1527450978755951,-0.3057916462421417,-0.5298286080360413,0.4221748411655426,0.31755053997039795,0.3412087857723236,-0.14721137285232544,-0.022131826728582382,-0.49314084649086,0.1529725044965744,0.27300864458084106,-0.031130969524383545,-0.18111006915569305,0.2908066511154175,0.117784284055233,-0.24207274615764618,-0.0035744376946240664,0.46311500668525696,-0.031122000887989998,0.08331750333309174,-0.421077162027359,0.5021005868911743,-0.2290096879005432,-0.013206599280238152,0.28043729066848755,0.10585076361894608,-0.26153427362442017,0.11900147795677185,-0.24560433626174927,0.06008485332131386,-0.07849124073982239,-0.08080843836069107,-0.3505186140537262,0.2301160991191864,0.2834097146987915,0.06618478894233704,-0.1384480595588684,0.17312458157539368,-0.24272064864635468,-0.38624802231788635,0.19813817739486694,0.05921150743961334,-0.4069357216358185,-0.16737623512744904,-0.4195956289768219,0.1600528359413147,-0.1997787356376648,-0.22005945444107056,0.7900919318199158,-0.021425077691674232,-0.2291002869606018,0.13635876774787903,0.0065271020866930485,0.5457762479782104,-0.18610434234142303,0.139553964138031,-0.3060432970523834,-0.18405680358409882,0.2161700576543808,0.15041936933994293,-0.14552974700927734,0.08802542090415955,0.1298029124736786,-0.17540831863880157,-0.06431441754102707,0.17146743834018707,0.07243649661540985,0.17967720329761505,0.1997043490409851,-0.078341044485569,-0.23542384803295135,-0.08066670596599579,0.07198086380958557,0.08541814237833023,-0.1365191489458084,-0.06031061336398125,-0.027611970901489258,-0.35692065954208374,0.14380283653736115,0.108828105032444,-0.17058856785297394,-0.09291603416204453,-0.04329870268702507,0.19518506526947021,0.2930029630661011,0.14175738394260406,-0.001296416507102549,-0.124189592897892,-0.19431151449680328,-0.491725355386734,-0.3532572090625763,-0.241798996925354,-0.43349307775497437,0.2202490270137787,0.08625505864620209,0.1682385355234146,0.2689698040485382,-0.15072014927864075,-0.1044221818447113,-0.0010739424033090472,0.10003599524497986,0.344386488199234,-0.31133759021759033,0.014213853515684605,-0.03230322152376175,-0.19163605570793152,0.00804546382278204,0.1041335016489029,-0.038438402116298676,0.08163365721702576,0.06639864295721054,-0.23607952892780304,-0.17726778984069824,0.08318707346916199,0.020421897992491722,0.16330789029598236,0.1156402975320816,-0.23034653067588806,-0.08325152099132538,0.0884564071893692,0.3332293927669525,0.20730994641780853,0.11668088287115097,-0.22497709095478058,-0.20255506038665771,-0.22563543915748596,0.2631564736366272,0.1980227380990982,-0.04188832268118858,-0.21624800562858582,-0.09721353650093079,0.012628668919205666,0.10866361111402512,-0.019940171390771866,-0.22162020206451416,-0.001479166210629046,0.19308748841285706,-0.11200172454118729,0.2308383584022522,0.17770949006080627,-0.3199515640735626,0.025701330974698067,0.046617764979600906,0.13037428259849548,0.02285618707537651,0.2743600904941559,-0.056400787085294724,-0.09937529265880585,-0.8425434827804565,0.30746471881866455,0.0711151510477066,0.12166842818260193,0.028219958767294884,0.08814159780740738,-0.18214963376522064,0.1383408010005951,0.08406089246273041,-0.243596151471138,0.19374091923236847,0.05056225508451462,0.004751589149236679,-0.11053354293107986,0.09196003526449203,-0.0909469798207283,-0.23022332787513733,-0.09162404388189316,0.31930291652679443,-0.19027495384216309,0.0962553396821022,-0.06221109256148338,0.17162029445171356,-0.13723857700824738,0.5057440996170044,-0.17488093674182892,-0.06369349360466003,-0.055521585047245026,0.11899826675653458,-0.0008779903291724622,0.1949985921382904,0.12752816081047058,0.06994622200727463,0.13394835591316223,0.20396599173545837,0.06936751306056976,0.4565519690513611,-0.1306583136320114,-0.16615191102027893,0.3767785131931305,0.04951521381735802,-0.09574847668409348,0.06101136654615402,-0.031843554228544235,-0.08461641520261765,-0.06762686371803284,-0.08158093690872192,0.1514516919851303,0.21340195834636688,0.14469827711582184,0.0005504594300873578,-0.11212760955095291,-0.08410575240850449,0.20109397172927856,0.12265365570783615,0.007483249064534903,-0.013681717216968536,-0.002507501747459173,0.20354029536247253,-0.009055154398083687,0.25159531831741333,0.3036958873271942,0.11377403885126114,0.07091488689184189,-0.1694311797618866,0.15608777105808258,-0.0571441687643528,0.19703570008277893,0.0014347070828080177,-0.05927417799830437,-0.33046019077301025,-0.11193367838859558,0.07880574464797974,0.1778334081172943,0.011364741250872612,0.03775235638022423,-0.32628461718559265,0.19577491283416748,0.08764498680830002,0.05769553780555725,-0.09872936457395554,-0.03240497410297394,0.06955179572105408,0.171262726187706,0.011551176197826862,0.05196484923362732,-0.18821853399276733,-0.22090201079845428,-0.19982263445854187,-0.06970563530921936,-0.12427118420600891,-0.18675042688846588,-0.048570793122053146,-0.09968537837266922,-0.11064638942480087,0.27061018347740173,0.18667824566364288,-0.18231187760829926,0.3975314199924469,-0.19033275544643402,0.007087860256433487,0.4087899625301361,-0.10169468820095062,-0.01074384618550539,0.15443302690982819,-0.08702857792377472,-0.17941352725028992,0.041839100420475006,0.051542799919843674,0.0850357860326767,-0.3349474370479584,0.06247580796480179,-0.1039557009935379,0.8619124293327332,0.12626217305660248,-0.07839521020650864,-0.2552638649940491,-0.006014993414282799,-0.24897029995918274,0.46801698207855225,0.29700762033462524,0.12830664217472076,-0.40786537528038025,0.06455639004707336,-0.23775795102119446,0.38571226596832275,-0.06325928866863251,-0.11466295272111893,-0.19046202301979065,-0.1866447478532791,0.027254492044448853,-0.007417693268507719,0.19106946885585785,-0.3137938678264618,-0.6897090673446655,0.07972422242164612,-0.08953183889389038,-0.2205495536327362,0.177339568734169,0.004105939995497465,0.3858587443828583,0.10356120020151138,0.2392590045928955,0.11671313643455505,-0.2131120264530182,-0.21401941776275635,-0.2870272994041443,0.1895265281200409,0.11824888736009598,0.28680044412612915,0.16443242132663727,-0.020847925916314125,-0.08210854232311249,0.1283562183380127,-0.03730084374547005,-0.09522518515586853,-0.19818921387195587,-0.02254297211766243,-0.2007126361131668,0.08763036131858826,0.20902444422245026,0.23011215031147003,-0.1791742444038391,-0.07181492447853088,0.0592656247317791,-0.027807582169771194,-0.0807572528719902,0.16741716861724854,-0.09265759587287903,0.06656643748283386,-0.13463084399700165,0.12627093493938446,0.09345121681690216,0.1159551590681076,-0.0022777721751481295,-0.17909885942935944,0.2257668375968933,0.16870789229869843,0.11827690899372101,0.07879116386175156,0.07254515588283539,-0.11889952421188354,-0.10219966620206833,0.06901729106903076,-0.03947269544005394,0.14644435048103333,-0.09717565774917603,0.08363918960094452,0.16884683072566986,-0.39028772711753845,0.15352265536785126,-0.0006802025600336492,-0.07680866867303848,0.2891577184200287,0.19815975427627563,-0.4664835035800934,-0.0280772615224123,-0.028459282591938972,-0.12487025558948517,0.014401661232113838,-0.0990876853466034,0.34106868505477905,-0.08801751583814621,-0.06521118432283401,0.274791419506073,-0.10658010095357895,-0.028502952307462692,-0.5015902519226074,0.21006998419761658,0.11468528211116791,0.04420898109674454,0.16445155441761017,0.18503038585186005,-0.3609105348587036,0.15182557702064514,0.013872741721570492,0.058946557343006134,-0.11151151359081268,0.06892082095146179,-0.7188681960105896,-0.07216373085975647,0.02587207406759262,0.10283414274454117,-0.3426961898803711,-0.27196672558784485,-0.08220537006855011,-0.2640419900417328,-0.1543150693178177,0.07693766802549362,-0.21543951332569122,-0.05260283872485161,-0.21970799565315247,-0.20997774600982666,0.03614361584186554,-0.5181999802589417,0.24563895165920258,-0.06108422204852104,-0.06043834239244461,-0.07817722111940384,0.06375575810670853,-0.1539076715707779,0.202433243393898,0.08881013095378876,-0.15411709249019623,-0.14433789253234863,0.3569558560848236,-0.251446932554245,-0.015645891427993774,0.13468287885189056,-0.11580546200275421,0.07728293538093567,-0.09599887579679489,0.3049561679363251,0.2751900255680084,-0.22197505831718445,-0.11570479720830917,-0.02530835196375847,0.5287714004516602,0.21210122108459473,0.13038399815559387,-0.08706063777208328,-0.2637288272380829,-0.1206713318824768,0.3202756941318512,0.1964809149503708,-0.102887824177742,-0.180127814412117,-0.11654992401599884,-0.09160320460796356,0.18799810111522675,-0.08161673694849014,0.01665712334215641,-0.15142494440078735,-0.20942649245262146,-0.06736649572849274,0.13493262231349945,-0.28556495904922485,-0.2804124355316162,-0.28458115458488464,-0.16388040781021118,-0.1810491383075714,-0.031307730823755264,0.11335056275129318,-0.26287907361984253,0.2391371876001358,-0.006749230902642012,-0.2438831627368927,-0.17264127731323242,0.014157839119434357,0.2220790684223175,-0.13139966130256653,-0.11845358461141586,0.027923615649342537,0.16797010600566864,0.021057462319731712,0.12038268148899078,0.08256183564662933,0.03617503494024277,0.24619732797145844,-0.0106565086171031,0.1559167206287384,0.26687750220298767,-0.010969148948788643,-0.08773896843194962,-0.19810549914836884,0.0826730877161026,0.21301637589931488,0.051375001668930054,-0.04287659749388695,-0.030451664701104164,-0.19148553907871246,-0.11307443678379059,-0.12950968742370605,0.03127722442150116,-0.01105613261461258,-0.19041351974010468,-0.06291135400533676,0.005623907782137394,-0.15399476885795593,0.15430185198783875,0.12521953880786896,-0.20257239043712616,-0.08240847289562225,0.177667036652565,-0.19967366755008698,-0.09231863915920258,0.14613154530525208,-0.1385636031627655,-0.23212085664272308,-0.012860675342381,-0.13929195702075958,-0.1495978683233261,0.007704933639615774,0.1638985276222229,0.5202625393867493,0.005264774896204472,-0.02374478615820408,0.1250891238451004,-0.21317076683044434,0.24543537199497223,0.41874516010284424,0.044560205191373825,-0.032358959317207336,0.03769112750887871,-0.13987195491790771,0.06056493893265724,-0.2666313350200653,-0.22775162756443024,-0.1604493409395218,-0.43803614377975464,0.12819719314575195,-0.08338966965675354,0.23061302304267883,-0.04938459396362305,-0.056217409670352936,-0.16451610624790192,0.11961790919303894,-0.01980593055486679,0.3859783709049225,0.07231868803501129,-0.06640925258398056,-0.1700206995010376,-0.04529315605759621,0.14088395237922668,0.3861440122127533,-0.12081095576286316,-0.06779006123542786,-0.34654349088668823,-0.11754713952541351,0.11856945604085922,-0.012652168050408363,0.13270945847034454,-0.04364749789237976,-0.0920410081744194,-0.1255159229040146,0.1442270129919052,0.13920249044895172,0.22135281562805176,-0.019787240773439407,0.3796411454677582,-0.028751928359270096,-0.020943934097886086,0.0076569607481360435,0.2079574167728424,-0.07944837212562561,0.31147071719169617,-0.12063264846801758,-0.008453966118395329,-0.1885470598936081,0.3515852391719818,-0.21251922845840454,-0.07462970912456512,0.05961224064230919,-0.12923158705234528,0.08187423646450043,0.08856265246868134,0.14712631702423096,0.12112681567668915,-0.40111851692199707,-0.06906529515981674,0.19577369093894958,0.15904919803142548,0.27371853590011597,0.0937759205698967,-0.1335574835538864,-0.1555541306734085,-0.08575981110334396,0.235531747341156,0.2065267115831375,-0.10903608053922653,0.1855594366788864,-0.1744460016489029,-0.042057961225509644,0.10993587970733643,-0.14304117858409882,-0.10164976865053177,0.09117311239242554,-0.3321451246738434,-0.16798515617847443,0.1865735948085785,-0.23079411685466766,0.027312088757753372,0.5153171420097351,-0.20403790473937988,-0.2065223902463913,0.3789869248867035,-0.02690582536160946,0.007906841114163399,0.058573126792907715,-0.10068046301603317,-0.01796845532953739,0.2931883633136749,0.06796417385339737,0.37260109186172485,-0.3221970498561859,-0.03793290629982948,-0.07544104754924774,0.16888964176177979,0.040812622755765915,-0.09605361521244049,-0.10185874998569489,0.1167743131518364,0.17122510075569153,-0.3152056038379669,0.18715323507785797,0.09197324514389038,-0.3659236431121826,-0.14752711355686188,0.07731014490127563,0.41677144169807434,-0.06934388726949692,0.057372234761714935,0.08009517192840576,0.10501452535390854,-0.16209734976291656,0.12465088814496994,-0.1486746072769165,-0.11370445042848587,0.3801577091217041,-0.054744165390729904,0.03173556551337242,0.32491037249565125,0.19154447317123413,-0.10964006930589676,-0.32891133427619934,0.16425421833992004,-0.11321915686130524,0.028422299772500992,-0.11553263664245605,-0.192923441529274,0.25907179713249207,-0.16010557115077972,-0.31999415159225464,0.28080981969833374,0.006733054295182228,-0.13494287431240082,0.355476975440979,-0.01731753908097744,0.1517321616411209,-0.21862736344337463,-0.14380797743797302,0.12792690098285675,0.2248038798570633,0.1620713770389557,0.11938165873289108,0.17566291987895966,0.049621693789958954,-0.06264505535364151,0.05397553741931915,-0.0012380090774968266,0.10044930130243301,0.247516468167305,-0.05821380391716957,-0.16329407691955566,-0.12068517506122589,0.18317727744579315,0.19330425560474396,-0.19768750667572021,0.005865904502570629,-0.13147079944610596,-0.457531601190567,-0.19507713615894318,-0.05045484006404877,0.01355767622590065,-0.10338426381349564,0.11450619250535965,0.0018779473612084985,0.04048210009932518,0.2791901230812073,0.049538321793079376,-0.19482989609241486,-0.24068590998649597,0.3291584849357605,0.08477794378995895,-0.03775571286678314,0.1879589855670929,0.10717304050922394,0.15259185433387756,-0.03165891021490097,0.2156924307346344,-0.06640809029340744,-0.012081464752554893,0.035391684621572495,0.13155949115753174,0.03053806722164154,0.09457580000162125,0.12084018439054489,-0.06162340193986893,0.05955558270215988,-0.1778957098722458,0.1017143502831459,0.16474030911922455,0.08714087307453156,-0.04133494943380356,-0.07473831623792648,0.030337441712617874,0.076027512550354,0.22353750467300415,0.043756965547800064,0.08092275261878967,-0.09343528747558594,-0.794816792011261,0.4396933317184448,0.6456672549247742,-0.626745343208313,0.44121691584587097,-1.0230906009674072,-0.39056074619293213,-0.7491998076438904,0.8145042657852173,-0.7857820391654968,-0.7910266518592834,-1.1832002401351929,-0.015824664384126663,-1.0293290615081787,0.39748427271842957,-0.8385896682739258,0.022379543632268906,0.165516659617424,-0.03299586474895477,0.02934623882174492,0.16551919281482697,0.18355751037597656,-0.1572226732969284,-0.030196355655789375,-0.5110030174255371,-0.06073303893208504,0.17778639495372772,0.04619797691702843,0.04219018295407295,0.1627606600522995,-0.0507437065243721,-0.14676746726036072,0.19847753643989563,-0.09670918434858322,0.1115967407822609,-0.25823962688446045,-0.3714876174926758,-0.10573886334896088,0.05682099610567093,-0.0831071063876152,0.20757679641246796,-0.08638224750757217,0.23993058502674103,0.4826423227787018,-0.10498366504907608,0.0581938810646534,-0.25637927651405334,-0.031737226992845535,-0.14382560551166534,-0.1485731303691864,0.14309151470661163,0.14981874823570251,0.04763667657971382,-0.06857768446207047,-0.06617864966392517,-0.1911257952451706,-0.04810205101966858,0.11007313430309296,-0.19326801598072052,-0.3564170300960541,0.0065823509357869625,-0.05667516216635704,-0.17940224707126617,-0.2339615672826767,0.10556488484144211,0.007625464349985123,-0.22220949828624725,-0.011032347567379475,-0.17834773659706116,0.060845714062452316,0.09413547813892365,0.06487172842025757,-0.11911483854055405,0.1252523958683014,0.20640309154987335,0.54184490442276,0.21648947894573212,0.01197557058185339,0.09079694747924805,0.021511275321245193,0.19324654340744019,0.17562474310398102,0.1164674237370491,-0.2173730432987213,-0.018856849521398544,-0.2525758445262909,0.013558628037571907,0.30692052841186523,0.24633820354938507,0.043528731912374496,0.016877254471182823,0.22568711638450623,0.10744376480579376,-0.14510735869407654,0.02922496385872364,-0.4821235239505768,-0.11107389628887177,-0.06583689898252487,-0.1861266940832138,-0.057532746344804764,0.19094528257846832,-0.2307857871055603,-0.039806291460990906,-0.026829499751329422,0.3064306676387787,0.16014038026332855,-0.07882152497768402,-0.015232119709253311,-0.15538731217384338,-0.2351800948381424,0.15999726951122284,0.1359483003616333,-0.12015225738286972,-0.2875847816467285,0.0877542495727539,0.01588680036365986,0.1776515692472458,0.18830518424510956,-0.1835688054561615,-0.17647764086723328,0.16862615942955017,0.03849780187010765,-0.19159184396266937,0.053016357123851776,-0.037063274532556534,-0.003286179155111313,-0.030609311535954475,0.48282793164253235,0.09265124052762985,0.025563405826687813,0.16037072241306305,0.28966620564460754,0.1196620762348175,-0.23438508808612823,-0.20819337666034698,0.017909899353981018,0.20603080093860626,0.19206152856349945,-0.22210820019245148,0.0715097188949585,0.010954826138913631,0.15287795662879944,0.01493527926504612,0.388441264629364,-0.005230996757745743,0.014068572781980038,-0.13887734711170197,-0.10761428624391556,-0.14818812906742096,0.08096292614936829,0.1784103959798813,0.004144336096942425,-0.1449909806251526,-0.03695150837302208,0.2434958815574646,0.0864826887845993,-0.1790689080953598,0.27581173181533813,-0.0408690981566906,0.36464735865592957,-0.13901974260807037,0.12591998279094696,0.10699635744094849,0.05433101952075958,0.15888459980487823,-0.22305871546268463,-0.09543866664171219,-0.19744127988815308,-0.027692243456840515,0.15664368867874146,-0.024426601827144623,-0.09082280844449997,0.10645589977502823,-0.06727971881628036,-0.1334988921880722,-0.03773604705929756,0.13593311607837677,-0.15707069635391235,-0.2457212507724762,0.028532296419143677,-0.007861106656491756,-0.034485626965761185,0.0266468096524477,0.054067790508270264,-0.01813078485429287,0.16628623008728027,0.058357123285532,-0.1321464478969574,0.14492829144001007,0.02529597468674183,-0.060946591198444366,-0.08217803388834,0.22638645768165588,0.21187953650951385,-0.2699267864227295,-0.20178262889385223,-0.1919948309659958,-0.12562280893325806,0.24867960810661316,0.23326349258422852,-0.29533469676971436,0.16124291718006134,0.26598048210144043,-0.07589960098266602,0.05067500099539757,0.134200319647789,-0.02706541121006012,-0.1728089451789856,-0.05763642489910126,-0.33245715498924255,-0.02580670639872551,0.3124135136604309,0.010259472765028477,-0.17818525433540344,0.03658680245280266,0.025168221443891525,-0.02958514541387558,-0.11187336593866348,-0.2504362463951111,-0.017575150355696678,0.25274911522865295,-0.2528611421585083,0.007515675853937864,-0.10610206425189972,0.11158516258001328,-0.1045391857624054,-0.1234859749674797,0.32552412152290344,-0.23245346546173096,0.24050164222717285,0.11760745942592621,0.00674085970968008,-0.04693727195262909,0.14732898771762848,0.11882054805755615,0.1274641901254654,0.3351748585700989,0.20173196494579315,-0.009322728961706161,-0.1240055188536644,-0.13377875089645386,0.2012111395597458,0.12919293344020844,0.14983785152435303,-0.011355714872479439,-0.25837400555610657,0.027669303119182587,0.015394057147204876,0.04555681720376015,-0.0355466865003109,-0.16868728399276733,-0.13692381978034973,-0.17499180138111115,0.13877467811107635,-0.013677961193025112,0.39312243461608887,0.18888601660728455,-0.22636784613132477,-0.015217287465929985,0.035554055124521255,-0.20588326454162598,-0.011732506565749645,-0.04159355163574219,0.24847930669784546,-0.19778724014759064,-0.06378047913312912,0.3753787875175476,0.07831516861915588,-0.10022690147161484,0.5131321549415588,-0.2977965772151947,-0.22166496515274048,-0.12508819997310638,-0.02838721126317978,0.047451600432395935,-0.17920194566249847,-0.09811486303806305,0.07432956993579865,0.15989595651626587,0.13073407113552094,0.0985298752784729,0.09132619947195053,-0.02153841033577919,-0.17688138782978058,0.019992083311080933,-0.2378295212984085,0.09641281515359879,-0.05029647797346115,0.07286716997623444,-0.11220340430736542,-0.5414214134216309,-0.10410186648368835,-0.07302798330783844,-0.17994818091392517,-0.3563677668571472,-0.04431398957967758,0.2645735740661621,0.0530448816716671,-0.14954829216003418,0.045424312353134155,-0.10471487790346146,-0.042486149817705154,-0.11320597678422928,0.1440720111131668,0.13634216785430908,-0.07946544885635376,-0.04638729989528656,0.10940411686897278,0.2339957058429718,0.13994558155536652,0.043786775320768356,-0.11820509284734726,-0.014656024985015392,0.18661454319953918,-0.04455893114209175,0.0772731751203537,0.01045970804989338,-0.09066727012395859,-0.0029912989120930433,0.14105427265167236,0.03210950270295143,0.27499186992645264,0.06674535572528839,-0.03012087568640709,-0.2421955168247223,-0.18997864425182343,0.20292869210243225,-0.07823977619409561,-0.04293747618794441,0.11379310488700867,-0.0025048963725566864,-0.00792756862938404,-0.24536333978176117,0.14787933230400085,-0.051069922745227814,-0.19941602647304535,-0.314463347196579,-0.25860562920570374,-0.16229534149169922,-0.002622160129249096,0.07139088213443756,-0.02999948337674141,0.09022855758666992,0.04722902551293373,0.20894986391067505,-0.014094860292971134,-0.25144466757774353,-0.1335039585828781,0.03902357071638107,-0.3669256567955017,0.3550741374492645,0.1234840676188469,0.20738485455513,-0.04819535091519356,0.16077986359596252,0.002010397147387266,-0.06587875634431839,0.0126925278455019,-0.10472920536994934,0.23405590653419495,0.15204916894435883,-0.0012306120479479432,-0.09310630708932877,-0.05854370817542076,0.13056328892707825,0.0502673014998436,0.21047276258468628,0.3661257326602936,0.22224456071853638,-0.20578424632549286,-0.19510293006896973,0.04898333549499512,0.14547604322433472,0.0956791564822197,0.11193742603063583,-0.04031642526388168,-0.22917717695236206,-0.3163897693157196,-0.09892265498638153,-0.3260361850261688,0.19682583212852478,0.07925520837306976,-0.1306997388601303,0.07618403434753418,0.04116629436612129,0.013173511251807213,-0.14326757192611694,0.34877365827560425,0.02786845713853836,-0.09292050451040268,0.07117798179388046,-0.284444123506546,0.008611430414021015,-0.11783012747764587,0.08164561539888382,0.07141442596912384,-0.15747708082199097,-0.30793488025665283,0.012251987121999264,0.2298281490802765,0.11279591172933578,0.018367383629083633,0.10408395528793335,0.017458613961935043,0.029569849371910095,-0.07002603262662888,-0.030354155227541924,0.07128072530031204,0.05076050013303757,0.12345080822706223,0.12612715363502502,-0.1219380795955658,0.054159436374902725,-0.09376130253076553,-0.05254410579800606,0.023848433047533035,-0.16092531383037567,-0.28425392508506775,0.2998019754886627,0.09068629890680313,0.06554953008890152,-0.0806180089712143,-0.01746848039329052,-0.018046418204903603,0.22219780087471008,0.10943873971700668,-0.06742503494024277,-0.19788306951522827,0.06268851459026337,-0.28308480978012085,0.23944295942783356,0.19133223593235016,-0.054433673620224,-0.1421125829219818,0.491632878780365,-0.04344458132982254,0.2910424470901489,-0.2288304716348648,0.28144800662994385,0.18164362013339996,-0.05487927049398422,0.03557803854346275,0.07886042445898056,-0.2720111906528473,0.019970912486314774,0.15420843660831451,-0.4777039587497711,-0.08874288946390152,-0.10071787238121033,0.020791897550225258,0.23102125525474548,0.0697900801897049,-0.17293386161327362,-0.157880961894989,0.07268206030130386,0.26556065678596497,0.13204272091388702,0.09551071375608444,0.08592996746301651,-0.15562917292118073,-0.15464751422405243,0.021853670477867126,0.05945077911019325,0.020073045045137405,-0.03807469457387924,-0.025415275245904922,0.044384513050317764,-0.2547207176685333,0.12966123223304749,0.06538903713226318,-0.07700756937265396,0.05915950611233711,-0.08985885232686996,-0.06288719177246094,0.042588382959365845,-0.06588251888751984,0.2786341905593872,-0.056897372007369995,-0.02875962108373642,0.18001703917980194,-0.11800108850002289,-0.08867166191339493,-0.09026958793401718,-0.03451306000351906,-0.13750268518924713,0.1410762518644333,-0.2903789281845093,0.03891594707965851,0.024036066606640816,0.07690313458442688,0.10072766244411469,-0.01295890100300312,0.1776483803987503,-0.03723112493753433,-0.21387813985347748,-0.07879992574453354,0.08347978442907333,-0.1646859049797058,-0.13425731658935547,-0.12633101642131805,0.13091236352920532,0.0747091993689537,0.09698457270860672,-0.12314596772193909,-0.08158010989427567,-0.15488556027412415,0.16748620569705963,0.066368468105793,0.18120265007019043,-0.028470389544963837,-0.08341026306152344,-0.14006486535072327,-0.07268117368221283,0.18298836052417755,0.0014316284796223044,-0.01767989620566368,-0.008391921408474445,-0.03169319033622742,-0.022918326780200005,0.008922691456973553,-0.12557066977024078,0.2104145735502243,-0.2100881040096283,0.1691988706588745,0.33699750900268555,0.008212572894990444,0.1856006532907486,0.07371141016483307,-0.26484301686286926,0.031563494354486465,-0.08676692098379135,0.0029996244702488184,0.14050674438476562,0.08531156927347183,-0.2289908528327942,-0.009264174848794937,0.21077045798301697,-0.1863694041967392,0.035389065742492676,0.03625642880797386,-0.041982900351285934,-0.00765751488506794,0.30061784386634827,-0.1534038931131363,-0.1295195370912552,-0.0329347588121891,-0.21941034495830536,0.377716064453125,0.08262432366609573,0.14911629259586334,-0.2227693647146225,0.32637959718704224,0.09256032854318619,-0.0039417860098183155,-0.13435310125350952,-0.05907200649380684,-0.172483891248703,-0.015534778125584126,-0.11943328380584717,0.2328128218650818,0.22756637632846832,0.04598968103528023,-0.07940807193517685,-0.04347514361143112,-0.12847669422626495,0.2191344052553177,-0.23413456976413727,-0.14268334209918976,0.17635175585746765,-0.10763498395681381,0.03932461515069008,-0.12919273972511292,0.16430631279945374,0.27844682335853577,-0.1293068677186966,0.1598595231771469,-0.12727674841880798,-0.029546035453677177,0.23350201547145844,0.2047363519668579,0.43282610177993774,-0.02794145606458187,0.0057350266724824905,0.10244495421648026,0.3743075132369995,0.12214816361665726,-0.006496185436844826,0.16679084300994873,-0.15370333194732666,-0.1675223559141159,0.13924522697925568,0.125551238656044,0.10058135539293289,0.000858419865835458,0.06417268514633179,0.07889635115861893,0.02424554154276848,-0.01270040962845087,-0.36627107858657837,-0.12935812771320343,-0.2543550729751587,0.03807184845209122,-0.0846276506781578,-0.04952177777886391,0.18141791224479675,-0.14083926379680634,-0.1746779978275299,0.01125944685190916,-0.09153863787651062,-0.11362116783857346,-0.1777866780757904,-0.14146530628204346,-0.07210575044155121,-0.35739779472351074,0.1182510107755661,0.017998751252889633,-0.47443559765815735,0.04169990494847298,-0.2574048936367035,0.21485306322574615,-0.2690833508968353,-0.12195157259702682,0.06908144801855087,-0.03215213492512703,-0.1258343607187271,0.5497490167617798,-0.4465336799621582,0.049532338976860046,0.0569596104323864,-0.0021950830705463886,-0.21515889465808868,0.1630750596523285,-0.1133752167224884,-0.20369558036327362,-0.017558949068188667,-0.01871652528643608,-0.29698890447616577,-0.5538266897201538,0.17307491600513458,0.20869772136211395,-0.3013995587825775,-0.08841226249933243,-0.10837110131978989,0.1421942412853241,0.0198120828717947,0.33788225054740906,0.19816207885742188,-0.00017465058772359043,-0.003440018743276596,0.44593295454978943,-0.02950138971209526,-0.1028960719704628,0.024004660546779633,-0.09029953926801682,0.06007584556937218,0.05623285472393036,-0.05685849115252495,0.04356054589152336,-0.010328587144613266,-0.15544329583644867,-0.20445524156093597,0.018532807007431984,0.21382489800453186,-0.24591857194900513,0.10486646741628647,0.06641940027475357,-0.041447728872299194,0.5070236325263977,0.3813333213329315,-0.14725717902183533,0.6279058456420898,-0.1521027684211731,-0.04116448387503624,-0.7182467579841614,0.031232168897986412,-0.2339836061000824,0.05003216490149498,0.2014998346567154,-0.4421929717063904,-0.18167226016521454,0.06690781563520432,-0.1717132031917572,0.27354058623313904,0.06795179098844528,-0.15902800858020782,0.40066561102867126,-0.053322166204452515,0.048979680985212326,0.019734585657715797,-0.07910466939210892,0.010062940418720245,-0.07371674478054047,0.17016662657260895,0.20793737471103668,-0.3418987989425659,0.12113671004772186,0.04120437428355217,0.02731136605143547,0.14991801977157593,0.1195545643568039,-0.18580476939678192,-0.02176930382847786,0.04224151372909546,0.08671136945486069,0.03506677225232124,0.15079981088638306,0.4611395597457886,-0.11635398864746094,-0.25704431533813477,0.3193184435367584,-0.04028390347957611,-0.01971975341439247,0.059752609580755234,0.17310969531536102,0.10254175961017609,-0.07308657467365265,-0.19731594622135162,0.16026003658771515,-0.07813342660665512,0.007388071622699499,0.21201574802398682,-0.11396560817956924,-0.05484914407134056,-0.25436970591545105,-0.0237655658274889,-0.26528847217559814,-0.035945747047662735,-0.06857766211032867,0.11174581944942474,-0.4707292318344116,-0.35330110788345337,-0.44454678893089294,0.010892034508287907,-0.22334124147891998,0.3389660716056824,0.16956517100334167,0.2274361401796341,0.0443115234375,-0.3583844304084778,-0.16703146696090698,-0.3604280650615692,0.09337911009788513,-0.06657740473747253,-0.09216823428869247,-0.4322894811630249,-0.24170728027820587,-0.1850455105304718,0.5525339841842651,0.36366865038871765,0.3852103650569916,0.001440277323126793,-0.1387905329465866,-0.16646301746368408,-0.15716643631458282,0.2040088027715683,-0.04115459322929382,-0.5256118178367615,-0.5086473822593689,-0.38752010464668274,-0.3942970335483551,-0.5459038019180298,-0.165073424577713,-0.08987753093242645,0.3752116858959198,-0.12502813339233398,0.001869932166300714,0.023527996614575386,-0.22175876796245575,0.0037592127919197083,0.25408822298049927,0.11830569058656693,0.13912755250930786,-0.35392194986343384,-0.056193575263023376,0.25253668427467346,0.13099801540374756,-0.12307971715927124,0.07844579964876175,-0.03566909581422806,0.21103516221046448,0.1131148710846901,-0.4835793972015381,-0.11292564868927002,0.024295248091220856,-0.16621339321136475,-0.3425061106681824,0.06302306056022644,0.02093958482146263,-0.11394169181585312,0.031474463641643524,0.5232235193252563,-0.41523537039756775,-0.07513226568698883,-0.10723963379859924,0.17948783934116364,-0.054443955421447754,0.26303166151046753,0.0798778086900711,0.03616142272949219,-0.02813590317964554,0.16732598841190338,-0.14747819304466248,-0.36653557419776917,0.20830148458480835,0.18244551122188568,-0.014603677205741405,0.024422667920589447,0.053554560989141464,-0.010867145843803883,0.0831056758761406,-0.04346238821744919,0.1764400154352188,-0.14248405396938324,0.02216731198132038,-0.2563382089138031,0.11123596876859665,-0.09495329856872559,0.005963417235761881,-0.014906490221619606,0.005349464248865843,-0.537102997303009,0.007305568549782038,0.1263452023267746,-0.05641472339630127,0.17593474686145782,-0.14006632566452026,-0.0036833330523222685,0.038771260529756546,-0.0013985768891870975,-0.2569602429866791,-0.03192182630300522,-0.09419175237417221,0.14557480812072754,-0.06348729878664017,-0.09446415305137634,0.23203644156455994,0.11326967179775238,0.11328229308128357,0.017878076061606407,0.008375636301934719,-0.14308342337608337,-0.061663202941417694,-0.1225949078798294,-0.09245884418487549,0.05683731287717819,-0.08101952075958252,-0.09782860428094864,0.13519129157066345,-0.04235498607158661,0.01995690166950226,-0.17471489310264587,0.057902224361896515,0.2053113877773285,0.07766886055469513,-0.029662536457180977,-0.049301549792289734,-0.028772490099072456,0.2164410948753357,0.17035514116287231,-0.2780570983886719,0.1706514060497284,-0.008567233569920063,-0.5816769599914551,-0.13654464483261108,0.10757669806480408,0.10917717218399048,0.5055183172225952,0.15306052565574646,0.040746308863162994,0.0036290872376412153,0.01854746975004673,0.044290877878665924,-0.070500947535038,0.09521092474460602,0.02168344333767891,-0.12918825447559357,0.20239581167697906,0.05123221129179001,0.012559166178107262,0.027787603437900543,-0.021716231480240822,0.139804869890213,-0.02719438448548317,0.17118045687675476,-0.15342175960540771,0.1193583607673645,-0.05625142902135849,-0.0074532488361001015,0.08753281831741333,-0.08394649624824524,0.13017867505550385,-0.20034842193126678,0.00470318365842104,0.04072771966457367,0.11794108897447586,0.10010169446468353,-0.11403749883174896,-0.028225472196936607,-0.011658590286970139,0.07506486028432846,0.10383082181215286,0.047816548496484756,-0.24022987484931946,0.21688295900821686,0.09505219012498856,-0.13378514349460602,-0.05341054126620293,0.0715579241514206,-0.04194161668419838,-0.05612199380993843,-0.03792266920208931,0.3070847690105438,0.1869605928659439,-0.09570988267660141,-0.06737957894802094,0.08446507900953293,-0.5140482187271118,-0.20924267172813416,0.37242183089256287,0.23877444863319397,-0.06770283728837967,-0.07581279426813126,-0.19649243354797363,0.1660265177488327,0.00998028926551342,0.02164885587990284,0.08850838989019394,-0.15344582498073578,-0.04998496547341347,-0.0669563040137291,0.040899358689785004,-0.10722490400075912,-0.042264487594366074,0.09816378355026245,0.28561607003211975,-0.29440778493881226,-0.014442658051848412,-0.261644184589386,-0.008385634049773216,0.008499476127326488,0.18619529902935028,0.14342936873435974,0.15413954854011536,-0.1207815632224083,-0.1617511510848999,-0.13989952206611633,-0.2084023505449295,0.10595710575580597,0.08102236688137054,0.08690757304430008,-0.06279335170984268,0.1759052872657776,0.046842705458402634,-0.08323746919631958,0.16913169622421265,0.12034231424331665,-0.1322358250617981,-0.07330096513032913,-0.3693372309207916,-0.02259146235883236,0.05198899284005165,0.3503603935241699,0.08221662789583206,0.10098621994256973,-0.4574555456638336,0.1684076488018036,-0.09562185406684875,0.10093487799167633,0.011326543055474758,-0.13325908780097961,-0.028590312227606773,0.06300675868988037,0.03269636631011963,-0.3758039176464081,-0.14352673292160034,-0.2460605502128601,0.04361315071582794,-0.18082888424396515,-0.08318766951560974,0.24951046705245972,-0.0879746749997139,0.34067976474761963,0.19626960158348083,0.19398485124111176,0.18482324481010437,-0.18324688076972961,0.13624276220798492,0.03927323594689369,0.061244938522577286,0.08564797043800354,0.18077650666236877,0.3455219566822052,-0.03345833718776703,0.11528948694467545,0.007657559122890234,-0.04472985118627548,0.046458616852760315,0.2115837186574936,-0.2604331970214844,-0.04800136759877205,0.0868782252073288,0.059601157903671265,0.006892516277730465,-0.3126956522464752,0.09929624199867249,0.3393992781639099,-0.12159916758537292,-0.05821508914232254,0.11343646794557571,0.03169387951493263,0.4596588611602783,-0.030238155275583267,0.03242906183004379,0.23542597889900208,-0.1413179486989975,-0.21146643161773682,0.47631463408470154,-0.13451285660266876,-0.008855133317410946,0.1971653401851654,-0.017939940094947815,0.2728942036628723,-0.028007838875055313,0.14714215695858002,0.15725678205490112,-0.33909890055656433,0.008507189340889454,-0.10807889699935913,0.11312466859817505,0.10047374665737152,0.028439896181225777,0.012208172120153904,-0.04041250795125961,-0.07536744326353073,0.1670963019132614,0.0029149458277970552,-0.03879992291331291,-0.08942889422178268,-0.0747797042131424,-0.2525542974472046,0.16211073100566864,0.007215498946607113,0.18797682225704193,0.16985319554805756,-0.22120298445224762,-0.025208575651049614,-0.10299640893936157,0.010793427005410194,-0.0559680312871933,0.10274023562669754,0.23712797462940216,0.12899121642112732,0.16550488770008087,-0.060516275465488434,-0.06694859266281128,0.8011637330055237,0.09066630154848099,0.3536219894886017,0.10138895362615585,0.010985871776938438,-0.04799407348036766,0.0065578315407037735,-0.4106394946575165,0.05538767948746681,0.19989736378192902,0.10065008699893951,-0.018402235582470894,0.04690783470869064,-0.037530567497015,0.020632676780223846,0.020285017788410187,-0.1401846557855606,-0.08197236061096191,-0.48808079957962036,0.75626140832901,0.3506503403186798,-0.5773205161094666,0.15104341506958008,0.018818214535713196,-0.26109543442726135,0.3892171084880829,0.12430741637945175,0.9476414322853088,0.8243089318275452,-0.1706932932138443,-0.37478262186050415,0.07755902409553528,-0.8674159049987793,0.3049934506416321,-0.22505474090576172,-0.05732640624046326,-0.32617148756980896,0.14112694561481476,0.03242453187704086,-0.013578247278928757,0.15301138162612915,0.14570145308971405,0.232198104262352,-0.06196753680706024,-0.01575593650341034,-0.26617106795310974,-0.07254120707511902,0.05687910318374634,-0.10243910551071167,0.3270774185657501,0.11880970001220703,-0.08538893610239029,0.058143213391304016,-0.011538047343492508,0.07232791930437088,0.18240439891815186,-0.21110554039478302,-0.2509074807167053,0.29714488983154297,0.031331051141023636,-0.020319189876317978,0.0059466008096933365,0.2878413200378418,0.044383030384778976,0.16470558941364288,-0.003905327059328556,-0.28929346799850464,0.18042278289794922,-0.25120702385902405,0.018360892310738564,-0.20881599187850952,0.007142709102481604,-0.04593906179070473,-0.09610412269830704,0.047314900904893875,-0.07565068453550339,-0.13589103519916534,-0.03454975411295891,-0.13014180958271027,-0.0709572434425354,-0.13647174835205078,0.09499215334653854,0.1660311371088028,-0.015150727704167366,-0.04797031357884407,-0.05536016449332237,0.10748638212680817,-0.05155571550130844,-0.014745570719242096,0.0016950712306424975,-0.06935697048902512,0.06717860698699951,0.3312237560749054,0.16266943514347076,0.03912965953350067,-0.08679956197738647,-0.07682498544454575,0.04739798605442047,0.03543209657073021,0.1909032166004181,-0.14960919320583344,0.2958160936832428,-0.3824099004268646,0.042094312608242035,-0.08433683961629868,-0.017504727467894554,-0.11595360189676285,-0.01583128795027733,-0.05401751771569252,0.10186116397380829,-0.075900599360466,0.2211005836725235,0.018566185608506203,0.016151145100593567,0.20721487700939178,-0.028806721791625023,-0.023871976882219315,0.042096760123968124,-0.03183871507644653,0.24054551124572754,-0.056813884526491165,-0.1872604787349701,-0.09432954341173172,0.1262274533510208,0.2995624542236328,0.030971581116318703,0.17729151248931885,0.10928477346897125,0.10301737487316132,0.26847970485687256,0.005539922975003719,-0.18998967111110687,0.02436261996626854,0.04760061949491501,-0.046869002282619476,0.34094148874282837,-0.006402007304131985,-0.20648853480815887,0.10334320366382599,0.17539270222187042,-0.07075992971658707,-0.0882323831319809,0.1281837821006775,-0.07707288861274719,0.08207084983587265,0.2701178193092346,0.2229061871767044,0.000492913939524442,-0.0744127631187439,0.02305985614657402,-0.06289917230606079,0.1404782086610794,-0.16813378036022186,0.07689358294010162,0.0009285599226132035,0.2046390324831009,0.2269950807094574,0.09371078759431839,0.05718348175287247,-0.0496402382850647,-0.02402503974735737,-0.03931276127696037,0.2511729300022125,-0.017163483425974846,0.13871723413467407,-0.10495147109031677,0.26871657371520996,-0.14688967168331146,0.038054075092077255,-0.19430400431156158,0.22152771055698395,0.0871240496635437,0.15413574874401093,-0.1184283047914505,0.013348781503736973,-0.19582681357860565,0.10796891152858734,0.012519728392362595,-0.24002449214458466,-0.09370728582143784,0.055181365460157394,0.07077842950820923,0.26093146204948425,-0.08640226721763611,-0.12863557040691376,0.11821965873241425,-0.005452674813568592,0.0644039735198021,-0.04744785651564598,0.1203705444931984,0.008156929165124893,0.2007536143064499,-0.15669214725494385,0.23182058334350586,0.029506467282772064,0.13018496334552765,-0.13991881906986237,0.13228078186511993,-0.2817492187023163,0.0906287133693695,0.08601593226194382,0.10301767289638519,0.10461687296628952,-0.11136457324028015,0.09877913445234299,0.004618169739842415,-0.12157496809959412,0.04771032556891441,0.15562544763088226,0.2236916422843933,0.1987059861421585,-0.0542980320751667,-0.08873627334833145,-0.030862821266055107,0.26697030663490295,0.11574094742536545,-0.07734528928995132,-0.20384123921394348,-0.19169189035892487,0.08402608335018158,0.17002978920936584,-0.2559531629085541,-0.03852090239524841,0.06445790082216263,0.265817791223526,-0.441242516040802,-0.2577989399433136,0.12127041071653366,-0.06064003333449364,-0.034756869077682495,0.25952091813087463,-0.04036863520741463,-0.23071306943893433,-0.04147068411111832,0.17591962218284607,-0.18994569778442383,0.1573481559753418,0.038944631814956665,0.10943885892629623,0.28709840774536133,-0.01983560621738434,-0.18746361136436462,0.3219318389892578,-0.29805895686149597,-0.021166330203413963,-0.026498110964894295,-0.041872866451740265,0.13076771795749664,-0.14347374439239502,-0.14215943217277527,-0.02013431116938591,0.06275253742933273,-0.010044313035905361,0.1714601218700409,0.23693867027759552,-0.2040422409772873,-0.09060518443584442,0.03540254384279251,0.2481413036584854,-0.2245303839445114,0.031378328800201416,-0.2487037032842636,-0.03044762648642063,0.23783408105373383,-0.2520603537559509,0.019101306796073914,0.05404997989535332,0.2303658127784729,0.25274044275283813,-0.17479047179222107,-0.022912992164492607,-0.10905776917934418,-0.23457014560699463,0.37430253624916077,0.05799030140042305,0.0010294041130691767,-0.20295357704162598,-0.1938759982585907,-0.08224532753229141,0.159025639295578,-0.11499960720539093,-0.15011776983737946,0.1927335411310196,0.10592561215162277,0.2302127480506897,-0.15016137063503265,-0.0375768207013607,-0.13177897036075592,0.03564652055501938,0.02895962819457054,0.0647277981042862,0.11596942692995071,-0.03277019038796425,-0.07538604736328125,0.14828254282474518,0.12991982698440552,0.004459423944354057,-0.17109331488609314,-0.08265803009271622,-0.034943588078022,0.05470684915781021,0.0948524996638298,0.055804021656513214,-0.0008528362377546728,-0.0389675535261631,-0.21306566894054413,-0.1798994243144989,0.20158660411834717,-0.29912951588630676,0.025797463953495026,0.07869859784841537,-0.04775109514594078,-0.12660779058933258,-0.03041243366897106,0.11033104360103607,0.2948116958141327,0.18622174859046936,0.08126456290483475,-0.2831166684627533,-0.3723737597465515,0.1784357875585556,0.11592712998390198,0.18262402713298798,-0.1409003585577011,-0.15395544469356537,0.04890509322285652,0.07247284799814224,0.13083308935165405,0.04310159385204315,-0.09124431014060974,-0.11531513184309006,-0.009334513917565346,0.036157671362161636,0.03479066118597984,0.07263496518135071,-0.12003526836633682,-0.09255363047122955,0.31807202100753784,0.21245969831943512,-0.07722117751836777,-0.16929365694522858,-0.290594220161438,-0.19646324217319489,-0.2331904172897339,-0.08477018028497696,0.05978658050298691,-0.14054670929908752,-0.0699835941195488,-0.06408893316984177,-0.15192918479442596,0.0319276824593544,0.06116297468543053,0.09223116189241409,0.132909893989563,0.07878347486257553,0.06247411668300629,0.07848362624645233,-0.02447573095560074,0.12576623260974884,0.25047844648361206,-0.1708383560180664,-0.06418171525001526,-0.23328357934951782,0.19954276084899902,0.028827039524912834,0.006209134124219418,0.051260288804769516,0.21758726239204407,-0.006436080206185579,0.035722292959690094,-0.07914059609174728,-0.01195413339883089,-0.04263685271143913,0.1195368841290474,0.040196970105171204,-0.027110837399959564,-0.1794458031654358,-0.08768986910581589,0.08857811242341995,0.062429413199424744,0.08994310349225998,0.11762332171201706,-0.015541751869022846,-0.041402772068977356,0.26969683170318604,0.05586026981472969,0.28439652919769287,-0.15313398838043213,-0.2719685733318329,0.00021664916130248457,-0.021932490170001984,0.061945971101522446,-0.2565942406654358,-0.005452689249068499,0.04127892479300499,0.13914819061756134,-0.06900325417518616,0.02348392829298973,-0.06286454200744629,-0.028425835072994232,-0.17132696509361267,-0.06092697009444237,-0.14508844912052155,-0.2261582911014557,0.025088844820857048,0.04574260488152504,-0.03035273589193821,-0.41743773221969604,-0.15205439925193787,0.18758556246757507,-0.13209795951843262,0.14116016030311584,-0.013433805666863918,0.10858277976512909,0.1335470825433731,-0.07746131718158722,-0.1879490166902542,-0.223195418715477,0.06538809835910797,-0.03169899806380272,-0.10081486403942108,-0.4630836844444275,0.056700434535741806,-0.1052916944026947,0.3546779155731201,-0.07818850129842758,0.15175288915634155,0.2530243992805481,0.032168637961149216,-0.2277328073978424,0.19363129138946533,0.08936559408903122,0.19435431063175201,-0.12795673310756683,0.11908936500549316,0.06858354061841965,0.024006133899092674,-0.17190423607826233,0.025018153712153435,0.17119404673576355,-0.1781882494688034,0.14093533158302307,-0.24205711483955383,0.013732489198446274,-0.1439853012561798,0.13397444784641266,0.012593403458595276,0.04911249130964279,0.15791372954845428,0.021326536312699318,0.04224976524710655,0.13812366127967834,-0.2084139734506607,0.13298399746418,0.21211229264736176,0.3259311616420746,0.1767735779285431,-0.15854452550411224,-0.06376125663518906,0.05239981785416603,-0.1593528389930725,-0.07797086983919144,0.046157509088516235,-0.22541655600070953,-0.07878877967596054,-0.11852540075778961,0.06081444025039673,0.2841640114784241,0.15647533535957336,0.1207352727651596,0.060264766216278076,-0.01743675209581852,0.26204419136047363,0.0467742383480072,-0.25468504428863525,-0.06424713134765625,-0.043386999517679214,-0.017504176124930382,0.21088024973869324,-0.050350092351436615,0.10288266092538834,0.03810420632362366,0.08978435397148132,0.09205340594053268,-0.004644786007702351,-0.010170945897698402,0.21609993278980255,-0.22971072793006897,-0.010012820363044739,0.1461593061685562,-0.1997879147529602,0.004069017246365547,0.10772065073251724,0.1429206132888794,0.11931115388870239,0.026445668190717697,0.10760319232940674,-0.2038794606924057,0.0018692166777327657,-0.17804521322250366,0.2022477686405182,0.09449399262666702,-0.08777058124542236,0.14016374945640564,0.17303229868412018,0.10862424969673157,0.11144215613603592,-0.15335649251937866,0.049258485436439514,0.006347074639052153,-0.03661713749170303,-0.05724438279867172,-0.037784066051244736,-0.02262425422668457,0.08850522339344025,-0.028420118615031242,0.09488875418901443,0.011406629346311092,0.05113373324275017,-0.06223834306001663,-0.1814737766981125,-0.15311095118522644,0.00045341960503719747,-0.35941818356513977,-0.15343238413333893,-0.030564891174435616,0.10665316879749298,-0.09029620885848999,-0.004319606814533472,-0.11580660939216614,-0.31353285908699036,-0.07200617343187332,0.13166606426239014,-0.25872737169265747,0.13378867506980896,0.01995842531323433,0.006361670792102814,0.09464472532272339,-0.1333153247833252,0.20903226733207703,0.06054966151714325,0.04904681071639061,0.20825950801372528,-0.017907844856381416,0.0921490341424942,0.04271596670150757,-0.16244618594646454,-0.14308346807956696,-0.10560153424739838,0.3006996810436249,-0.18458907306194305,0.04496065154671669,-0.15430213510990143,0.46776169538497925,-0.019005395472049713,-0.09971804916858673,-0.28782665729522705,0.10885977745056152,-0.062081292271614075,0.09087012708187103,0.07516814768314362,0.269712895154953,-0.08939147740602493,0.1701071709394455,0.1580735296010971,0.1802150458097458,-0.09552427381277084,0.11648131906986237,0.10366462171077728,-0.08606335520744324,0.16475534439086914,-0.10326291620731354,0.09878023713827133,0.13765260577201843,-0.045179907232522964,-0.16252639889717102,-0.21053184568881989,-0.03841172158718109,0.14451994001865387,0.13694852590560913,0.18113887310028076,-0.0498880073428154,-0.12793315947055817,0.08210252225399017,-0.08144378662109375,0.3338715136051178,-0.07383638620376587,-0.1034499779343605,0.3118153512477875,-0.012920248322188854,0.06823236495256424,0.15861889719963074,0.25169870257377625,0.20417901873588562,0.25763049721717834,0.08997480571269989,0.004006038419902325,-0.196883887052536,-0.06795992702245712,-0.1566721796989441,0.2350076287984848,-0.04319682717323303,-0.3250558078289032,0.06917315721511841,-0.13559921085834503,0.009870334528386593,-0.06596359610557556,0.09590831398963928,-0.08018992841243744,-0.12568554282188416,0.09662068635225296,-0.11815869063138962,0.03464110940694809,-0.12546195089817047,0.1768173724412918,-0.050262849777936935,-0.14402300119400024,0.16859804093837738,0.16354462504386902,0.19713254272937775,0.04079850763082504,0.1390499323606491,-0.10950876027345657,0.09903142601251602,0.055603086948394775,0.04006146267056465,0.056022293865680695,-0.3912278413772583,0.07852520048618317,0.15494456887245178,0.0774751529097557,-0.05213174968957901,-0.006358420476317406,0.11892149597406387,0.3257112503051758,0.033731453120708466,0.07471321523189545,-0.031300242990255356,0.26374340057373047,-0.06374625116586685,-0.2963390350341797,-0.30977320671081543,0.00008148836059262976,0.5366179943084717,0.07406222075223923,-0.14367447793483734,0.25198593735694885,0.15531021356582642,-0.026636404916644096,-0.4189106523990631,-0.039073895663022995,0.14333704113960266,-0.18893049657344818,-0.0860760286450386,0.04915166646242142,-0.11661109328269958,-0.05468863993883133,-0.35939648747444153,0.021710600703954697,-0.003012771485373378,-0.11346986889839172,-0.0589362308382988,-0.047992195934057236,0.02727571874856949,0.11928173899650574,-0.01724163629114628,0.07699108868837357,-0.08804924041032791,-0.1018948033452034,-0.18372255563735962,0.2485445886850357,-0.07293812185525894,-0.0896286740899086,0.1295609027147293,-0.059189826250076294,0.11832361668348312,0.1446424424648285,0.12128613144159317,0.11436950415372849,-0.017912188544869423,0.07441806048154831,0.00456273602321744,-0.25184503197669983,-0.047572433948516846,-0.10747089982032776,0.08025244623422623,-0.12009924650192261,-0.03380369767546654,0.09906528890132904,-0.0390741340816021,-0.01782231032848358,-0.14678625762462616,0.04748301953077316,0.05270715430378914,0.07945872098207474,0.11072780936956406,0.04720792919397354,0.02641090750694275,-0.131208598613739,-0.19318291544914246,0.319491982460022,-0.3307151198387146,0.1167835220694542,-0.09313549101352692,-0.2565568685531616,0.07520310580730438,-0.2179831713438034,0.03992312774062157,0.14795631170272827,0.08049372583627701,-0.19390513002872467,-0.10003234446048737,-0.22120395302772522,-0.0933375135064125,-0.0452110581099987,0.006144882179796696,0.16442705690860748,0.0038855872116982937,-0.06097213923931122,-0.003985827323049307,-0.16224461793899536,-0.3768327832221985,0.31195253133773804,-0.01487682294100523,-0.10240538418292999,0.18333226442337036,-0.17387884855270386,-0.03261613845825195,-0.12301058322191238,0.03030986525118351,0.25921741127967834,0.1220189779996872,0.17213107645511627,-0.022224992513656616,-0.028218040242791176,0.16635312139987946,-0.023158326745033264,-0.11089339107275009,0.14609189331531525,-0.11421489715576172,-0.04374922066926956,0.1824224889278412,-0.07141255587339401,-0.017316529527306557,-0.0949794128537178,-0.2776738703250885,0.15407077968120575,0.07801391184329987,-0.009092280641198158,0.11795894801616669,-0.15754063427448273,0.13428598642349243,-0.25992414355278015,-0.042580123990774155,0.10479766875505447,-0.11950743198394775,-0.04460539668798447,-0.23645608127117157,-0.05502031743526459,0.005410796497017145,-0.025544924661517143,0.08165531605482101,0.15129341185092926,-0.1827443242073059,-0.11083227396011353,0.03628642112016678,0.0742117315530777,0.11508014798164368,0.08372002094984055,-0.12641897797584534,0.02821044996380806,-0.3804470896720886,0.13732464611530304,0.03690522536635399,0.01586456038057804,-0.248582661151886,-0.1025412455201149,0.16743198037147522,-0.1801641881465912,0.0662783831357956,0.16993048787117004,-0.20029878616333008,0.11487473547458649,-0.08822339028120041,0.08502182364463806,0.006917365826666355,-0.21784573793411255,-0.12765350937843323,-0.16464091837406158,-0.004031913820654154,0.4037735164165497,-0.007938452064990997,-0.1662406176328659,0.17063701152801514,0.1846282184123993,0.1365204006433487,-0.32947635650634766,-0.05492185056209564,-0.33825722336769104,-0.09754472225904465,0.0475546158850193,0.2893153429031372,0.2434113770723343,-0.10601983964443207,-0.1318744271993637,0.07506649941205978,-0.003527647815644741,0.14169801771640778,0.19533832371234894,-0.07064007967710495,-0.1975623518228531,0.10697190463542938,-0.038883958011865616,0.1388838291168213,0.13484260439872742,0.1281672716140747,-0.15900221467018127,-0.15103575587272644,0.02031102031469345,-0.3434981107711792,0.09390927106142044,-0.13814733922481537,-0.11729205399751663,-0.007227959111332893,-0.11058671027421951,-0.26801249384880066,0.13733947277069092,0.004780326969921589,0.04046393930912018,0.24686507880687714,-0.05361800268292427,-0.23322901129722595,0.21738924086093903,-0.1114506945014,-0.01863889768719673,0.09329252690076828,-0.05742930993437767,-0.06507570296525955,-0.19178690016269684,-0.12406133115291595,-0.2665654420852661,0.2282029092311859,-0.028970681130886078,-0.06815188378095627,-0.00349334510974586,-0.2066243588924408,-0.2805931866168976,0.010479786433279514,-0.14272652566432953,0.0675593838095665,-0.17482367157936096,0.05552876368165016,-0.5340447425842285,-0.010202494449913502,0.003339602844789624,0.06227634847164154,0.018464570865035057,-0.20845918357372284,-0.14001519978046417,0.026672083884477615,-0.05095013603568077,0.23409438133239746,0.029499394819140434,0.033054593950510025,-0.25911393761634827,0.2340547889471054,0.19530364871025085,-0.3659376800060272,0.08039504289627075,0.219784677028656,0.04538901895284653,-0.3108893036842346,-0.11927057057619095,-0.08571264892816544,0.12617994844913483,-0.2417890727519989,-0.17969028651714325,-0.21555423736572266,-0.003208155743777752,-0.15057815611362457,0.19699224829673767,0.3563160300254822,0.04189591482281685,-0.19013914465904236,-0.025549087673425674,0.04827889800071716,0.12730363011360168,0.020290501415729523,-0.023904310539364815,-0.22625099122524261,-0.10471838712692261,0.14176104962825775,-0.2505432367324829,0.1871572732925415,-0.13089588284492493,0.002519143046811223,-0.02605014480650425,-0.024488700553774834,-0.06809578835964203,0.10355548560619354,-0.053189560770988464,-0.15838748216629028,0.11732602119445801,0.07772085070610046,0.06897757202386856,-0.12158066034317017,0.08902046829462051,-0.05900285392999649,0.07627600431442261,0.14011162519454956,-0.22123147547245026,-0.005570076406002045,0.0022216408979147673,-0.16274119913578033,0.0499909371137619,-0.011974954977631569,-0.0890631228685379,-0.21159757673740387,0.12207899242639542,0.2367415875196457,0.021034235134720802,-0.01279569510370493,0.3049975633621216,0.027653764933347702,-0.12586401402950287,0.03399970009922981,0.28319379687309265,0.04059391841292381,-0.12799300253391266,0.0655539259314537,0.00661461753770709,0.24698613584041595,0.20904384553432465,0.163302481174469,-0.07514134794473648,-0.055796585977077484,-0.22062180936336517,-0.00585989560931921,0.13232861459255219,0.11993847042322159,-0.14706744253635406,0.25297224521636963,-0.009940541349351406,0.26879850029945374,-0.09360893070697784,0.17700150609016418,0.07324004173278809,0.0847809910774231,-0.0941895842552185,-0.08899807929992676,-0.2693144977092743,-0.04140496999025345,-0.22002598643302917,0.014833851717412472,-0.11100433766841888,-0.2370302826166153,-0.04711024463176727,0.02687160111963749,0.1684434860944748,0.07785549759864807,-0.06647651642560959,0.04463314637541771,0.07446527481079102,-0.15483807027339935,0.03366605564951897,0.22784925997257233,-0.018629716709256172,-0.2518759071826935,0.15252365171909332,0.04153376445174217,-0.03319799527525902,-0.10888446122407913,-0.16878458857536316,0.09209752827882767,0.051280584186315536,-0.004897387232631445,0.10631369799375534,0.3051207959651947,0.22780242562294006,0.42125484347343445,0.39042454957962036,0.3361121118068695,0.08054041862487793,-0.054460976272821426,-0.09454840421676636,-0.17207759618759155,-0.37410783767700195,-0.46297457814216614,-0.005857469048351049,-0.22767874598503113,0.02119273878633976,0.19041015207767487,0.3563816249370575,0.04216006025671959,-0.016996417194604874,0.10159090161323547,-0.009953856468200684,-0.06118291616439819,0.1503688544034958,0.13787929713726044,0.12746353447437286,-0.0726715698838234,0.07302610576152802,0.12324962764978409,0.22514916956424713,0.24283070862293243,0.19290833175182343,-0.029088374227285385,-0.17246262729167938,0.09483206272125244,-0.19844713807106018,0.15523380041122437,-0.027662938460707664,-0.14725346863269806,-0.153176411986351,-0.0864599272608757,-0.18117071688175201,-0.10200443863868713,0.03550593927502632,0.17587415874004364,0.23812158405780792,0.010765012353658676,0.09336262941360474,0.2868891656398773,0.07162787765264511,0.02871003746986389,0.03829604759812355,-0.13094912469387054,-0.14701195061206818,0.022863972932100296,0.06366626918315887,-0.23733247816562653,-0.09834304451942444,0.04134919494390488,-0.0014795870520174503,0.031357359141111374,0.16384005546569824,-0.0790022537112236,0.155989870429039,-0.00864645279943943,-0.14162330329418182,-0.04640739783644676,-0.06424820423126221,0.13733096420764923,-0.11418808251619339,0.09648457169532776,-0.0839977115392685,0.16639675199985504,-0.1412201076745987,-0.16120381653308868,-0.05535687878727913,0.025476688519120216,0.048157788813114166,0.015960434451699257,0.08600272983312607,-0.235160231590271,0.032856330275535583,-0.09174179285764694,0.29782965779304504,-0.08882465213537216,-0.21415820717811584,-0.260410338640213,-0.08817562460899353,0.35176151990890503,-0.2964966893196106,-0.0036499476991593838,0.3081848919391632,0.09748159348964691,0.12982849776744843,0.055010274052619934,0.12837645411491394,0.21110020577907562,0.1006385087966919,-0.02161242812871933,-0.10170028358697891,0.4975811839103699,-0.11481238156557083,0.0642382949590683,0.04438484087586403,-0.10894005000591278,-0.00973416119813919,-0.020122544839978218,0.13656960427761078,0.07739103585481644,0.03311239555478096,0.10648009926080704,-0.08070311695337296,0.06929100304841995,-0.027353782206773758,0.6761108040809631,0.08850201219320297,0.7158908247947693,-0.9456436634063721,-0.5924829840660095,0.2881993353366852,0.17249681055545807,-0.20718884468078613,0.16841110587120056,0.43245023488998413,-0.7586726546287537,0.45669177174568176,-0.021538717672228813,-0.6011196970939636,0.6024748682975769,-0.1956098973751068,-0.08668716251850128,-0.22588008642196655,0.06042131781578064,-0.20365098118782043,0.08613106608390808,0.20461750030517578,-0.006180992349982262,-0.303496778011322,-0.039824228733778,0.18333648145198822,0.09366920590400696,-0.08517734706401825,0.1453290581703186,-0.21095538139343262,0.012805499136447906,-0.04119708761572838,-0.13891257345676422,-0.22235961258411407,0.005666411481797695,-0.05262431502342224,0.05683351308107376,0.142803356051445,0.19757342338562012,-0.3552195131778717,0.08825714141130447,-0.10085413604974747,-0.09690597653388977,0.05286052078008652,-0.11797565221786499,0.15929916501045227,0.204355388879776,0.19968216121196747,-0.0020160526037216187,0.18407687544822693,-0.15124478936195374,0.10595196485519409,-0.08072470128536224,-0.4459831118583679,-0.05628880113363266,0.3298834264278412,0.22741417586803436,0.10337115079164505,-0.12405846267938614,-0.19761700928211212,0.1342075616121292,-0.0651027038693428,0.14483602344989777,0.13236315548419952,-0.05598454549908638,-0.13338692486286163,0.1221993938088417,0.22303080558776855,-0.026783782988786697,0.41366469860076904,0.024955395609140396,0.1878775656223297,-0.2687952220439911,-0.04010111838579178,-0.13817599415779114,0.0037895040586590767,0.19861815869808197,0.11640310287475586,0.046331048011779785,-0.07554137706756592,0.16935469210147858,-0.1843121200799942,0.1362549513578415,0.05226489529013634,0.08590676635503769,-0.09646893292665482,0.029191844165325165,-0.04104282334446907,0.27517521381378174,-0.014305336400866508,0.1467239409685135,0.23678655922412872,-0.08510813862085342,-0.05637788400053978,-0.2596486508846283,0.061864446848630905,-0.11872561275959015,0.1129859909415245,0.16501256823539734,0.21541310846805573,-0.15380042791366577,0.2801540195941925,0.08284009248018265,-0.12989924848079681,0.17405152320861816,-0.11920683085918427,-0.09880757331848145,0.1478712409734726,-0.036026760935783386,0.10174351185560226,-0.1615961492061615,0.046262167394161224,-0.05935065820813179,-0.009543248452246189,0.053974807262420654,-0.08209327608346939,0.12058568000793457,-0.07792533934116364,0.16153493523597717,-0.08163290470838547,0.028468435630202293,-0.014880155213177204,-0.12571971118450165,-0.0037412529345601797,0.06973499059677124,0.022640392184257507,0.13381308317184448,-0.07133084535598755,0.01900264248251915,0.18643100559711456,0.06952639669179916,0.09857054799795151,0.2563869059085846,-0.23369769752025604,0.029447171837091446,-0.0714571624994278,0.2682666778564453,0.018083034083247185,-0.09147768467664719,0.1956363171339035,-0.10180197656154633,0.16204456984996796,0.055213309824466705,0.028965217992663383,-0.06861970573663712,-0.07513827830553055,0.010521415621042252,0.022567516192793846,0.4347379803657532,0.10516383498907089,-0.013320520520210266,0.09670458734035492,-0.08689889311790466,0.09004750102758408,-0.026665428653359413,0.09841758757829666,0.20522411167621613,0.13715068995952606,-0.046597596257925034,0.135301873087883,-0.08798004686832428,0.1644158512353897,0.13054558634757996,0.0062477122992277145,-0.13499924540519714,-0.013144445605576038,-0.14250393211841583,-0.2498036026954651,0.01789809763431549,-0.1214023232460022,0.09003487974405289,-0.07420136779546738,0.04488159343600273,-0.04606606438755989,0.017738748341798782,0.024035291746258736,-0.11171071231365204,0.1261950433254242,-0.1028360053896904,0.040562838315963745,-0.10872038453817368,0.05255256965756416,0.012546971440315247,-0.0034016140270978212,0.3176361322402954,0.1473841667175293,-0.0345296673476696,-0.1730251908302307,-0.03221529722213745,-0.020660636946558952,0.13237695395946503,-0.2888008654117584,0.16959190368652344,0.0882352888584137,0.16414929926395416,0.1261688768863678,-0.18431730568408966,-0.29720667004585266,-0.05773770064115524,-0.12969067692756653,0.08177820593118668,0.2157861590385437,-0.07985097914934158,0.011625886894762516,-0.08923012018203735,-0.038973063230514526,-0.16374990344047546,-0.1146155372262001,0.1237870454788208,-0.1605996936559677,0.07483986765146255,0.3251309394836426,0.028352385386824608,0.05277048796415329,0.0851997658610344,0.045055899769067764,0.19464226067066193,0.19026093184947968,0.08276163041591644,0.08528556674718857,-0.1518208533525467,0.18339088559150696,0.10906948149204254,-0.6268219947814941,0.12783238291740417,-0.16957616806030273,0.10673954337835312,0.029199333861470222,0.01955556683242321,0.07502517104148865,-0.2208021730184555,0.45073118805885315,-0.24162054061889648,0.20330147445201874,0.1411597579717636,-0.14175933599472046,-0.33288848400115967,-0.1447577327489853,-0.010001663118600845,-0.270744651556015,0.28060999512672424,-0.06883234530687332,0.06900045275688171,0.15860821306705475,-0.029002796858549118,-0.1351708322763443,0.006716814357787371,-0.05106377229094505,-0.00019725262245628983,0.09224848449230194,-0.17804661393165588,0.12139152735471725,-0.0962124615907669,0.0048421756364405155,0.07329880446195602,-0.06753699481487274,0.05730177462100983,0.2056952565908432,0.08669262379407883,-0.0250675268471241,-0.13964198529720306,-0.37679392099380493,0.17647148668766022,0.10923172533512115,-0.1290314942598343,-0.06492958962917328,-0.20483532547950745,-0.07060445845127106,0.1639900505542755,-0.08101087063550949,0.29097798466682434,0.034237176179885864,-0.18990859389305115,0.0757741704583168,0.005731051322072744,-0.04262322932481766,0.024531424045562744,0.0681585818529129,-0.0032532454933971167,0.005170151591300964,-0.06031600385904312,0.1098393052816391,0.09221160411834717,0.0038508696015924215,-0.037402596324682236,-0.09617114067077637,-0.09902475029230118,-0.04920431971549988,-0.1952233761548996,-0.25089702010154724,-0.03173214569687843,0.059175487607717514,-0.101117342710495,-0.15556536614894867,-0.1204049289226532,0.03331558778882027,-0.1130952313542366,-0.004351101815700531,-0.16683582961559296,-0.2693059742450714,0.014808330684900284,0.06972990185022354,-0.046667296439409256,-0.006172635592520237,0.07714825123548508,0.2279891073703766,0.2640109956264496,0.31574738025665283,0.18857721984386444,-0.018239207565784454,0.1067405417561531,-0.21312130987644196,0.05763337016105652,-0.07968377321958542,-0.015997156500816345,-0.03992702439427376,-0.0790315642952919,-0.09113357961177826,0.16755397617816925,-0.17281772196292877,-0.03143734484910965,-0.12789781391620636,0.15250477194786072,-0.02865840494632721,0.07501993328332901,0.05497192218899727,0.462797611951828,0.1229512020945549,-0.16672615706920624,0.4177432358264923,-0.02060145139694214,-0.07302573323249817,-0.23773635923862457,-0.17588798701763153,0.23026412725448608,0.04882369935512543,0.11996837705373764,0.07200481742620468,-0.17998209595680237,0.12675929069519043,-0.009610102511942387,0.11008226871490479,-0.16923359036445618,0.1150486171245575,-0.027674011886119843,0.03233218193054199,0.28661850094795227,-0.024202153086662292,0.0475713387131691,0.06062520667910576,0.30952689051628113,0.08526721596717834,-0.06808357685804367,0.013595005497336388,0.04307157173752785,-0.019239218905568123,-0.11255445331335068,0.09291841834783554,0.003959796391427517,-0.15685051679611206,0.16827626526355743,-0.002846521558240056,0.07513237744569778,-0.01674220710992813,0.05668274685740471,-0.08883155137300491,0.038323719054460526,-0.03483100235462189,-0.11430148780345917,-0.25339367985725403,0.0410047322511673,-0.3565073609352112,0.041036613285541534,0.03905326873064041,-0.1125975251197815,0.03231009095907211,0.036073796451091766,0.0004769961815327406,0.08016257733106613,-0.02248407155275345,-0.061696525663137436,-0.18871845304965973,-0.081644207239151,-0.05195533111691475,-0.26088106632232666,-0.11684676259756088,-0.030543915927410126,-0.14009679853916168,0.04344335198402405,-0.03021322190761566,-0.12052065134048462,-0.111485555768013,0.003172802971675992,-0.005231037735939026,0.15916061401367188,-0.20307467877864838,-0.0651562362909317,-0.17465348541736603,-0.05459558963775635,0.005562340375036001,0.053770922124385834,0.022287001833319664,0.07734711468219757,0.010711806826293468,-0.2742624282836914,-0.1822492927312851,-0.03940487653017044,-0.03456752747297287,0.07770025730133057,0.10600098967552185,-0.07105385512113571,-0.0433824248611927,-0.0776154100894928,0.18604803085327148,-0.03867810592055321,0.09331677854061127,-0.09239385277032852,0.14054712653160095,0.03362803906202316,0.12724778056144714,0.14030830562114716,0.12225915491580963,-0.10308274626731873,0.1660386472940445,0.044126998633146286,-0.06745091825723648,0.003264606697484851,-0.07491768896579742,0.2323829084634781,-0.15803483128547668,-0.2164987027645111,0.14871057868003845,-0.4582996666431427,-0.402528315782547,0.3030354976654053,-0.3934946358203888,-0.03053141012787819,0.2200460433959961,-0.040137436240911484,0.089752696454525,-0.10107148438692093,0.13785378634929657,-0.021988773718476295,-0.2557316720485687,0.43804970383644104,0.15375588834285736,-0.048157986253499985,-0.19888438284397125,-0.15366174280643463,0.24565307796001434,0.022941231727600098,-0.12757904827594757,-0.022232042625546455,-0.06500355154275894,0.06967156380414963,-0.005167681723833084,0.08427934348583221,0.18229030072689056,0.034773342311382294,-0.38678300380706787,-0.016266798600554466,0.02104409784078598,-0.3958902657032013,-0.15775983035564423,0.006482475437223911,0.24893756210803986,-0.011818482540547848,-0.11752314865589142,-0.016563473269343376,0.0784955769777298,-0.08190182596445084,0.1649179905653,0.27048590779304504,-0.0659361332654953,-0.0038169261533766985,0.04384209215641022,0.23628674447536469,-0.4559694230556488,-0.14332441985607147,-0.11278299987316132,0.12359943240880966,0.17229479551315308,0.07592309266328812,0.16267910599708557,0.21016459167003632,-0.2478022426366806,0.08631903678178787,-0.2689869701862335,0.050976384431123734,0.03111204132437706,0.018681064248085022,0.3389069736003876,-0.04852550849318504,-0.11334912478923798,0.2512611746788025,0.05808276683092117,0.12740859389305115,-0.33638325333595276,0.12055329978466034,-0.06718652695417404,-0.2405935376882553,0.05696411803364754,-0.011570132337510586,-0.12603265047073364,-0.04438737779855728,0.1322219967842102,0.32381322979927063,0.24691085517406464,-0.03608123958110809,-0.14015458524227142,0.19075004756450653,0.23071323335170746,-0.2671188712120056,0.09175688773393631,-0.34170499444007874,-0.1329786628484726,0.1166304424405098,-0.05670269951224327,-0.2094067484140396,-0.19076421856880188,0.10524503141641617,0.06972251087427139,0.043720901012420654,-0.010941486805677414,0.16022340953350067,0.045695483684539795,-0.17163194715976715,0.12123151123523712,-0.11929362267255783,-0.05187225714325905,-0.14067253470420837,0.11193116754293442,0.2830485701560974,-0.09942315518856049,-0.041627220809459686,-0.16885404288768768,-0.15935565531253815,-0.019226491451263428,-0.198451429605484,-0.010065043345093727,-0.151158407330513,-0.08952222019433975,-0.16645635664463043,0.035546205937862396,0.08340732753276825,-0.3141079246997833,0.07484152913093567,-0.050264641642570496,0.01857053115963936,-0.06312234699726105,0.10416383296251297,-0.23204736411571503,-0.058839570730924606,0.08196570724248886,0.09659532457590103,0.0681530237197876,0.1738528311252594,-0.142086923122406,0.1093788668513298,-0.1512639969587326,-0.05900907889008522,-0.1369578242301941,0.17963187396526337,0.11838994920253754,0.0862077996134758,0.0472119078040123,-0.1307574063539505,-0.08562108874320984,0.013574095442891121,0.17651262879371643,0.037762947380542755,0.25125402212142944,-0.1008843258023262,0.14327950775623322,0.027882544323801994,0.24349281191825867,-0.1765097677707672,0.07885821908712387,0.05101000517606735,-0.35232681035995483,-0.048731815069913864,0.18326984345912933,-0.46342113614082336,-0.2784518897533417,-0.124827541410923,-0.38828006386756897,-0.2327125519514084,-0.08382830023765564,0.5128645896911621,0.31326332688331604,-0.14828649163246155,0.2802145481109619,0.0887637585401535,0.32380613684654236,-0.39791569113731384,-0.1103939339518547,-0.26032307744026184,-0.09141196310520172,-0.08201906085014343,0.01699366793036461,-0.3351324200630188,-0.23217225074768066,-0.13165754079818726,0.05507953092455864,0.26241418719291687,-0.021834466606378555,-0.4500165581703186,0.03860677778720856,-0.03828786313533783,0.19253148138523102,-0.07672858238220215,-0.009417151100933552,-0.1751972734928131,-0.019562970846891403,0.07494907826185226,0.2288469523191452,0.20312447845935822,-0.08521835505962372,0.11199492961168289,-0.002317349659278989,0.1641755998134613,-0.48850172758102417,-0.10999664664268494,-0.007310790009796619,0.06499359756708145,-0.06180930510163307,0.2711579203605652,-0.08976554870605469,-0.11038701236248016,-0.005634577479213476,0.10519333928823471,-0.1123066321015358,0.2147039920091629,0.09486723691225052,0.19673247635364532,0.08643756806850433,0.07159189879894257,-0.03548729047179222,-0.025055570527911186,-0.1842481791973114,-0.05034890025854111,-0.10771734267473221,-0.10640567541122437,0.11506155878305435,-0.08129899203777313,0.13188773393630981,-0.11753100901842117,0.1786704957485199,-0.10757865011692047,-0.005611712578684092,0.2591802179813385,-0.15174958109855652,-0.14853937923908234,0.20120501518249512,-0.015587820671498775,-0.008366956375539303,0.02887536771595478,0.14372044801712036,-0.22528459131717682,0.09545460343360901,0.22084292769432068,-0.22525203227996826,-0.22475449740886688,0.15254978835582733,0.0416705347597599,-0.24579524993896484,0.04493727162480354,-0.21688319742679596,-0.014594552107155323,-0.0423162579536438,0.00827581062912941,-0.0018019757699221373,0.045641638338565826,-0.1269942969083786,0.07072402536869049,0.11892800033092499,0.060955584049224854,0.022200454026460648,-0.13220365345478058,-0.16258692741394043,0.03347664698958397,-0.2899574339389801,0.167627215385437,-0.10502695292234421,0.21746081113815308,-0.022569024935364723,0.28287768363952637,0.017995566129684448,-0.15032373368740082,0.15312545001506805,0.08267379552125931,-0.18523211777210236,-0.26246246695518494,0.09167943149805069,-0.010325881652534008,0.05027542635798454,0.09433113038539886,0.12465552985668182,0.05050981044769287,0.007998866029083729,-0.19571523368358612,0.3249347507953644,0.06761550158262253,-0.09547071903944016,-0.04818401858210564,-0.11364419758319855,-0.1911569982767105,-0.030392134562134743,0.23395025730133057,0.158772274851799,-0.021239809691905975,-0.05510983616113663,-0.012466388754546642,0.0032014271710067987,-0.05686585232615471,0.05946928262710571,-0.5102574825286865,0.1780322641134262,-0.0857592448592186,0.09090380370616913,-0.024502413347363472,0.18227051198482513,-0.08914228528738022,-0.03869975358247757,-0.0172492116689682,0.14571017026901245,0.016424428671598434,-0.09073381870985031,0.04737906530499458,0.006768501829355955,0.31031474471092224,-0.014266815967857838,-0.0974351167678833,0.05305083841085434,-0.1192743182182312,-0.15748067200183868,-0.15127769112586975,0.04909569025039673,-0.006181846838444471,0.09139127284288406,-0.12562499940395355,0.016083670780062675,-0.051292311400175095,0.13683170080184937,0.17185628414154053,0.18056431412696838,0.03458958491683006,-0.20329733192920685,-0.4238046407699585,-0.11444143205881119,-0.18600797653198242,0.42226675152778625,-0.06344441324472427,-0.048257432878017426,0.33813145756721497,-0.09566380828619003,-0.08563300967216492,-0.18533799052238464,-0.06295017898082733,0.22389265894889832,0.09694980084896088,-0.02333708107471466,0.134971484541893,-0.5547357201576233,0.021889016032218933,-0.18091021478176117,0.07130972295999527,-0.08036568015813828,-0.13751059770584106,0.0037377814296633005,-0.16474603116512299,-0.33579346537590027,0.05540096014738083,0.07336724549531937,0.17323783040046692,0.10413403064012527,-0.05267098546028137,0.26758015155792236,0.05927674099802971,0.04073993116617203,-0.20590876042842865,0.008927046321332455,0.16801796853542328,-0.2996744215488434,0.07350951433181763,-0.1672462671995163,-0.02243436500430107,-0.0762767419219017,0.11023175716400146,-0.33015936613082886,0.030346393585205078,-0.1685337871313095,-0.06802472472190857,-0.033412568271160126,-0.5135196447372437,-0.2705767750740051,-0.02637830376625061,-0.017733311280608177,0.021202854812145233,-0.007830053567886353,-0.030142536386847496,-0.1260661780834198,0.15036386251449585,-0.08794577419757843,0.0057447487488389015,0.021906547248363495,-0.08451230823993683,0.038788434118032455,-0.11968737095594406,0.0372873991727829,-0.10014500468969345,-0.022541310638189316,0.0675220862030983,-0.2129935920238495,-0.0022963660303503275,0.2506760060787201,0.09479149430990219,-0.390269011259079,0.19938841462135315,0.38396546244621277,-0.1314600706100464,-0.19276054203510284,0.0063414135947823524,0.46484091877937317,0.08518128842115402,-0.07437925040721893,0.31200969219207764,0.024902984499931335,-0.23207974433898926,0.02417175844311714,0.0020761489868164062,