{"version":"0.7.0","architecture":"SlimmableContainer","config":{"submodels":[{"max_value":0.5,"model":{"version":"0.7.0","metadata":{"date":{"year":2026,"month":5,"day":9,"hour":22,"minute":21,"second":15},"loudness":-14.921154022216797,"gain":0.2849759207211886},"architecture":"WaveNet","config":{"layers":[{"input_size":1,"condition_size":1,"head":{"out_channels":1,"kernel_size":16,"bias":true},"channels":3,"kernel_sizes":[6,6,6,6,6,6,6,6,6,6,6,6,6,6,15,15,6,6,6,6,6,6,6],"dilations":[1,3,7,17,41,101,239,1,3,7,17,41,101,239,1,13,1,3,7,17,41,101,239],"activation":[{"type":"LeakyReLU","negative_slope":0.01},{"type":"LeakyReLU","negative_slope":0.01},{"type":"LeakyReLU","negative_slope":0.01},{"type":"LeakyReLU","negative_slope":0.01},{"type":"LeakyReLU","negative_slope":0.01},{"type":"LeakyReLU","negative_slope":0.01},{"type":"LeakyReLU","negative_slope":0.01},{"type":"LeakyReLU","negative_slope":0.01},{"type":"LeakyReLU","negative_slope":0.01},{"type":"LeakyReLU","negative_slope":0.01},{"type":"LeakyReLU","negative_slope":0.01},{"type":"LeakyReLU","negative_slope":0.01},{"type":"LeakyReLU","negative_slope":0.01},{"type":"LeakyReLU","negative_slope":0.01},{"type":"LeakyReLU","negative_slope":0.01},{"type":"LeakyReLU","negative_slope":0.01},{"type":"LeakyReLU","negative_slope":0.01},{"type":"LeakyReLU","negative_slope":0.01},{"type":"LeakyReLU","negative_slope":0.01},{"type":"LeakyReLU","negative_slope":0.01},{"type":"LeakyReLU","negative_slope":0.01},{"type":"LeakyReLU","negative_slope":0.01},{"type":"LeakyReLU","negative_slope":0.01}],"bottleneck":3,"head1x1":{"active":false,"out_channels":1,"groups":1},"layer1x1":{"active":true,"groups":1},"groups_input":1,"groups_input_mixin":1,"conv_pre_film":{"active":false,"shift":true,"groups":1},"conv_post_film":{"active":false,"shift":true,"groups":1},"input_mixin_pre_film":{"active":false,"shift":true,"groups":1},"input_mixin_post_film":{"active":false,"shift":true,"groups":1},"activation_pre_film":{"active":false,"shift":true,"groups":1},"activation_post_film":{"active":false,"shift":true,"groups":1},"layer1x1_post_film":{"active":false,"shift":true,"groups":1},"head1x1_post_film":{"active":false,"shift":true,"groups":1},"gating_mode":["none","none","none","none","none","none","none","none","none","none","none","none","none","none","none","none","none","none","none","none","none","none","none"],"secondary_activation":[null,null,null,null,null,null,null,null,null,null,null,null,null,null,null,null,null,null,null,null,null,null,null],"slimmable":null}],"head":null,"head_scale":0.00999999990640153},"weights":[3.431737184524536,-3.034780263900757,-3.406794786453247,-0.38208574056625366,-0.5533347725868225,-1.043368935585022,0.3762718141078949,1.1871066093444824,0.01303267665207386,0.34927910566329956,0.4499069154262543,1.0081239938735962,-0.3351440131664276,-1.1869953870773315,-0.1568576842546463,0.2761533856391907,0.720777153968811,1.0502063035964966,-0.2936912178993225,-1.4161640405654907,-0.07072995603084564,-0.6059072613716125,0.35950127243995667,0.6676792502403259,-0.5281113386154175,-0.026328613981604576,0.18665267527103424,0.5101156830787659,-0.26454049348831177,-0.6774691939353943,0.4663524329662323,0.056741856038570404,-0.11516133695840836,0.49794501066207886,-0.2597412168979645,-0.6918139457702637,0.4791279137134552,0.1488625556230545,-0.1742858737707138,0.011999011971056461,0.560355007648468,1.1132781505584717,-0.4291236996650696,-1.0179158449172974,0.022035755217075348,-0.08071355521678925,-0.49594199657440186,-1.0750864744186401,0.4237828254699707,1.2286180257797241,0.07737047970294952,0.06643948704004288,-0.4930086135864258,-0.9643742442131042,0.23446965217590332,1.0227490663528442,0.053759586066007614,2.150581121444702,-0.19731444120407104,1.5458831787109375,0.4478418827056885,0.039605360478162766,-0.3936878740787506,0.40814346075057983,-1.4165877103805542,-0.6799732446670532,-1.0501207113265991,-1.0359208583831787,1.063874363899231,-0.3911692798137665,0.30877694487571716,1.0869196653366089,0.4633634090423584,-0.4843752980232239,0.5782520174980164,0.17209205031394958,-0.003595005488023162,0.04115992411971092,-0.07760679721832275,-0.0720226913690567,0.10762591660022736,0.1629430502653122,0.1983066350221634,0.041418906301259995,0.3415108025074005,0.37693992257118225,0.09220974147319794,-0.12764544785022736,-0.40536847710609436,-0.01685607060790062,0.08878207206726074,0.46033352613449097,-0.7331216931343079,-0.08253034204244614,-0.03357773274183273,0.08484093844890594,0.45797187089920044,0.5263368487358093,-0.766265869140625,-0.1478329747915268,-0.14238612353801727,-0.06927522271871567,-0.6068059206008911,-0.90444016456604,0.059422414749860764,0.23451556265354156,0.24205513298511505,0.13607053458690643,-0.01853804476559162,-0.09723467379808426,0.6177076101303101,0.042851924896240234,0.14940501749515533,-0.04579559713602066,0.24690940976142883,0.12731315195560455,0.7294033765792847,-0.11588440090417862,0.014064689166843891,0.046149954199790955,0.06967020779848099,0.20621441304683685,0.04816165566444397,0.2126282900571823,0.24075119197368622,0.05539889261126518,0.09538662433624268,0.13409486413002014,-0.014207765460014343,-0.2637639343738556,0.293631374835968,0.06328382343053818,-0.19806353747844696,-0.5518473982810974,0.3506382405757904,0.5857558250427246,-0.1287785768508911,0.15439704060554504,-0.7199479341506958,0.3916526138782501,-0.4827064871788025,-0.6617155075073242,0.2542353570461273,-0.4215036630630493,0.7923488020896912,-0.19794423878192902,0.48948007822036743,-0.24218882620334625,-0.10862676054239273,-0.2387617826461792,-0.12479813396930695,-0.15303903818130493,0.17255644500255585,0.04530537873506546,-0.00044524442637339234,0.110097736120224,0.16877484321594238,0.06774915009737015,-0.4912849962711334,-0.2506321966648102,-0.11305168271064758,-0.32262784242630005,-0.32824474573135376,-0.2228681594133377,-0.3702763020992279,-0.06012911722064018,-0.005045611876994371,-0.1810711920261383,-0.16985812783241272,0.06601200997829437,-0.17655164003372192,-0.04958684369921684,0.0007368185324594378,-0.10684126615524292,0.0068299430422484875,-0.18050530552864075,-0.2232484519481659,0.11511535942554474,0.08124858886003494,-0.005730625707656145,-0.0014432682655751705,0.21917323768138885,0.06233576312661171,-0.06421288847923279,-0.03351042419672012,-0.14492185413837433,-8.470159082207829e-05,-0.0279306098818779,-0.33099937438964844,-0.012405084446072578,-0.18979869782924652,-0.0960443913936615,-0.14642980694770813,-0.11599405109882355,0.09138095378875732,-0.02475273795425892,0.2370910942554474,0.12910626828670502,0.18180851638317108,0.13200268149375916,-0.05390104278922081,-0.4271239638328552,0.07154536992311478,0.1771562695503235,0.06254814565181732,-0.08835909515619278,-0.09195064753293991,-0.8476089835166931,-0.3468942642211914,0.1593722105026245,0.7807736396789551,-0.1987612545490265,0.2486257255077362,0.4871886968612671,0.027447335422039032,0.5544480681419373,0.5707955360412598,-0.3422185182571411,-0.2459729164838791,-0.055571552366018295,0.002953571965917945,-0.09699111431837082,0.07735944539308548,-0.21436707675457,0.25263920426368713,-0.10029368102550507,-0.12131012231111526,-0.08471941202878952,-0.02484201453626156,0.0854525938630104,-0.12216141819953918,0.09592416137456894,0.1640000194311142,0.09664911776781082,0.06512954086065292,-0.16794799268245697,0.03279880806803703,0.21993198990821838,0.11711330711841583,0.3088066279888153,0.08632134646177292,0.1659843772649765,0.686353325843811,0.008524823933839798,0.005666504148393869,0.03314119949936867,-0.02011862024664879,0.11280413717031479,-0.22347380220890045,0.11025702208280563,0.0014057892840355635,0.06493817269802094,0.08337772637605667,-0.05750427395105362,-0.04746774211525917,-0.010832445695996284,-0.13501125574111938,0.023028964176774025,-0.090317502617836,-0.1671159267425537,-0.6469728350639343,0.18345601856708527,0.17789168655872345,0.05817176029086113,0.16962361335754395,0.22812248766422272,0.6574114561080933,-0.22128301858901978,-0.2940390408039093,-0.06288015097379684,-0.23718206584453583,-0.3633768856525421,0.091181680560112,0.24477940797805786,0.29062554240226746,-0.7934834361076355,0.03524475172162056,0.0771222785115242,0.11644474416971207,0.42288222908973694,0.3115904927253723,0.6579335927963257,-0.42603155970573425,-0.04844851791858673,-1.0471668243408203,-0.0180862657725811,-0.6027778387069702,-0.465677410364151,0.14164483547210693,0.4252975881099701,-0.5745195746421814,0.06230819597840309,0.041841231286525726,0.04064272344112396,-0.019850708544254303,0.230662539601326,-0.035441119223833084,-0.017932772636413574,0.03716079145669937,-0.005832191091030836,0.0027665295638144016,-0.018481777980923653,0.44320616126060486,0.016307491809129715,-0.11342351883649826,-0.11288534104824066,-0.12906306982040405,-0.09899487346410751,0.30949416756629944,-0.05010721832513809,-0.05195651575922966,-0.04215173423290253,-0.01094056200236082,-0.3837287127971649,0.07166267931461334,0.005946856923401356,-0.07014524936676025,0.016035744920372963,-0.06423278898000717,0.046870168298482895,-0.22461844980716705,0.019844910129904747,0.17107611894607544,0.16178277134895325,0.21946841478347778,0.1354939192533493,-0.6801027655601501,-0.026008563116192818,0.17810891568660736,0.06158807501196861,0.20077751576900482,0.23880772292613983,-0.07950543612241745,0.05675758048892021,0.06366296112537384,0.14735546708106995,0.17559804022312164,0.14623162150382996,-0.25667935609817505,-0.045176755636930466,0.03534640744328499,-0.11465642601251602,-0.04506022855639458,-0.10014570504426956,0.08221094310283661,0.22761429846286774,0.043075479567050934,0.1637057214975357,-0.06363134831190109,-0.030579261481761932,-0.2941485345363617,-0.47458651661872864,0.2714223861694336,-0.03543655201792717,0.32790884375572205,-0.2276381552219391,0.2840854227542877,-0.43281614780426025,0.317649781703949,-0.5396613478660583,0.6587162613868713,0.3371478021144867,-0.19941169023513794,-0.09724622964859009,0.09901805222034454,-0.054721880704164505,0.12010251730680466,0.08794917911291122,0.22298099100589752,-0.08855742961168289,-0.049837641417980194,-0.04635022580623627,0.05733880028128624,0.15884791314601898,0.015491664409637451,0.02051994390785694,0.20367304980754852,-0.0028847199864685535,0.0680181011557579,-0.28384456038475037,0.22636696696281433,-0.09434623271226883,0.03879605606198311,0.03363911062479019,0.11238252371549606,0.11090847849845886,0.040635474026203156,-0.034337013959884644,-0.02433830499649048,-0.011808180250227451,0.09739448130130768,0.1498173326253891,-0.4659847021102905,-0.041255317628383636,0.09182216227054596,0.031496789306402206,-0.05654748156666756,-0.1044696494936943,-0.09110171347856522,-0.13153164088726044,-0.13610295951366425,-0.1407325565814972,-0.0006229774444364011,-0.018460018560290337,-0.06740894168615341,-0.14611196517944336,-0.0885314792394638,-0.09502649307250977,-0.047662824392318726,-0.05733238533139229,0.517373263835907,0.09323534369468689,0.02106032334268093,0.04027288779616356,0.07357852160930634,0.06837011873722076,0.059294041246175766,0.15284673869609833,0.01664893515408039,-0.06886465102434158,-0.31506240367889404,-0.22745317220687866,0.06622196733951569,-0.26340413093566895,0.16179698705673218,0.3996226489543915,0.16375108063220978,0.09069453179836273,0.20421573519706726,-0.3994910717010498,-0.4149511754512787,0.3699604570865631,0.0705227255821228,0.17162036895751953,-0.5480849742889404,0.07519684731960297,-0.00674021290615201,0.04374530911445618,0.10818633437156677,-0.03842147812247276,-0.05957038700580597,-0.21337394416332245,-0.06795664131641388,-0.11679841578006744,-0.113295778632164,0.028221888467669487,0.19527803361415863,0.1415870487689972,0.07507021725177765,0.03350600227713585,-0.4328814744949341,0.07189921289682388,-0.001720891334116459,0.11017794907093048,0.02323748730123043,-0.02759685181081295,0.0262763611972332,0.07093066722154617,0.03568021208047867,0.2780066728591919,0.12493832409381866,0.1178506389260292,0.2065552920103073,0.05379672348499298,-0.14698004722595215,-0.108659528195858,-0.022916635498404503,-0.05860051512718201,0.47163334488868713,-0.12324044108390808,-0.1814279407262802,-0.02837778814136982,0.005371956154704094,0.03295835852622986,-0.028927013278007507,-0.04698127508163452,-0.573329746723175,-0.1303827166557312,-0.09759145230054855,-0.08558201789855957,-0.1202770322561264,-0.14197850227355957,-0.06003813073039055,0.14941833913326263,0.12713804841041565,0.13028638064861298,0.1182037889957428,0.13225772976875305,0.5176575779914856,0.07966344803571701,0.09835130721330643,-0.5198073387145996,-0.019222479313611984,-0.004082456696778536,0.1872531771659851,0.05019129440188408,0.011924424208700657,0.329515278339386,0.02790672518312931,0.004912559874355793,-0.7041147351264954,0.03149896487593651,-0.031393103301525116,0.5414978861808777,0.43742212653160095,0.19889160990715027,0.0059908186085522175,-0.13905248045921326,0.06515667587518692,0.02843569777905941,0.09958642721176147,0.26541048288345337,0.49160143733024597,-0.019133269786834717,-0.0853440910577774,0.36931976675987244,0.4405222237110138,0.5080487132072449,0.343708336353302,0.0949864536523819,-0.09564919769763947,0.044685009866952896,0.14937426149845123,-0.22407498955726624,-0.23720505833625793,0.2722894549369812,0.20877628028392792,0.19938838481903076,0.26975980401039124,-0.007928739301860332,-0.07364319264888763,0.0622088648378849,-0.09122723340988159,-0.03857714682817459,0.1986144483089447,-0.045749031007289886,-0.08553390204906464,0.13351622223854065,-0.12976466119289398,-0.06925332546234131,-0.03126312792301178,0.2296631932258606,0.11989293247461319,0.022896703332662582,-0.011239244602620602,-0.01367909088730812,0.3053394854068756,0.4115270674228668,-0.06978966295719147,0.2535117268562317,0.09863483160734177,-0.287553995847702,0.15985997021198273,0.1452740579843521,0.011616135947406292,0.030132735148072243,-0.00806350726634264,-0.0033355664927512407,-0.11457203328609467,0.21520407497882843,0.02666591852903366,0.13241900503635406,0.30168312788009644,0.3329349458217621,-0.030875828117132187,-0.10890094190835953,-0.6137256026268005,-0.6954441666603088,0.3858816623687744,0.22978611290454865,-0.36530008912086487,0.3940504193305969,0.8688600659370422,0.0802912786602974,0.09439899027347565,-0.22890794277191162,-0.13215325772762299,0.33485040068626404,-0.3385312855243683,-0.11599399894475937,-0.05899359658360481,-0.019785065203905106,-0.18215727806091309,-0.16119560599327087,0.011663135141134262,0.13934241235256195,0.11499688774347305,0.07865731418132782,-0.14960111677646637,0.027191616594791412,0.4716790020465851,-0.19984005391597748,-0.12630817294120789,-0.2752000689506531,-0.13440832495689392,0.05065721645951271,0.036485616117715836,-0.17154580354690552,-0.12715740501880646,-0.09466478228569031,-0.24819588661193848,-0.01895173266530037,0.23322656750679016,-0.06672488152980804,0.14402197301387787,-0.08173340559005737,-0.016181020066142082,0.36703065037727356,0.22032015025615692,0.04738301783800125,-0.1536157876253128,-0.19933727383613586,-0.30222177505493164,0.035184118896722794,-0.19157683849334717,-0.021276935935020447,0.045227233320474625,0.1448349505662918,0.022569306194782257,0.19751134514808655,-0.05776859074831009,-0.0005898241652175784,-0.07305427640676498,-0.07459037750959396,-0.2258666306734085,-0.010177847929298878,-0.4352176785469055,0.10552866011857986,0.213140606880188,0.13413941860198975,0.22409044206142426,0.37942391633987427,0.11608114093542099,0.08403526991605759,0.06251036375761032,-0.08485019207000732,-0.2971664369106293,0.057832229882478714,0.18400660157203674,-0.48284217715263367,-0.1749395728111267,-0.4600617587566376,0.26152345538139343,-0.7237974405288696,0.04250407963991165,0.4271124303340912,-0.16772839426994324,0.45260411500930786,0.1739134043455124,0.37481552362442017,0.18595938384532928,-0.12601949274539948,0.017453564330935478,0.09488582611083984,-0.06506461650133133,0.2953139841556549,-0.0210036002099514,-0.08101892471313477,0.17271068692207336,-0.015350439585745335,0.10514478385448456,-0.43037673830986023,-0.046505823731422424,-0.0433117114007473,-0.06349778920412064,0.18291135132312775,0.005412793252617121,0.11435332149267197,0.08803045004606247,0.02431059069931507,-0.09059381484985352,-0.11155954748392105,0.0538242906332016,-0.18221916258335114,0.1229267418384552,0.042910221964120865,0.3108333945274353,-0.09068484604358673,0.16653300821781158,0.12573198974132538,-0.08957938849925995,0.179951474070549,0.2803610563278198,-0.0239553339779377,0.14646759629249573,-0.21000610291957855,0.3736324906349182,0.02327195554971695,0.030670668929815292,-0.047434303909540176,-0.019660256803035736,-0.12204190343618393,0.01949719712138176,0.14049310982227325,0.03700544685125351,-0.05325113236904144,0.020933181047439575,0.2616840600967407,0.09997716546058655,-0.1476418524980545,-0.038449447602033615,-0.38912370800971985,-0.07103076577186584,-0.29712334275245667,-0.09680967777967453,0.33818867802619934,0.29478853940963745,0.6317315101623535,-0.16994671523571014,-0.16268715262413025,-0.024936987087130547,-0.04825380817055702,-0.35906141996383667,-0.08004399389028549,0.37122124433517456,0.10201352834701538,-0.7741682529449463,-0.6124334335327148,-0.7371011972427368,0.15603016316890717,0.4246564209461212,-0.06909322738647461,0.09765062481164932,0.11841056495904922,-0.10090158134698868,-0.27420639991760254,0.4086781442165375,-0.2979763150215149,-6.605684757232666e-05,-0.011317114345729351,-0.02493441477417946,-0.25557783246040344,0.28425922989845276,-0.33572128415107727,0.060557905584573746,-0.03156179562211037,0.040376823395490646,0.06066298484802246,-0.03885570541024208,0.014068691059947014,0.42768025398254395,-0.09786595404148102,0.07913707196712494,0.2521742582321167,-0.3970871567726135,0.2716529071331024,0.010102430358529091,0.010902424342930317,0.029454980045557022,0.2398729771375656,-0.25873154401779175,0.28574123978614807,-0.031568631529808044,0.0380973294377327,-0.07057873904705048,-0.06417583674192429,0.017295315861701965,-0.009740483947098255,-0.4057044982910156,-0.012445492669939995,0.001319291302934289,-0.08700326830148697,0.08087613433599472,-0.16050437092781067,-0.017784804105758667,-0.011422388255596161,-0.010802282951772213,-0.006286502815783024,0.11141594499349594,0.014533653855323792,-0.2602173388004303,-0.023970220237970352,0.04570900276303291,-0.08740515261888504,-0.006289763376116753,-0.11398790776729584,-0.0512654185295105,-0.004448728170245886,-0.06294073909521103,0.04830103740096092,-0.003533304436132312,-0.09488143771886826,-0.15013647079467773,-0.025512240827083588,-0.14864009618759155,0.03565157204866409,-0.6138662099838257,0.9160807728767395,0.15962344408035278,-0.5887683033943176,0.332544207572937,-0.40888094902038574,0.09358952194452286,0.11015459895133972,-0.09123259782791138,-0.08497126400470734,-0.18602780997753143,-0.0581529401242733,-0.04954799637198448,-0.0848122164607048,0.1582505702972412,0.10696642845869064,0.17494851350784302,0.08835402131080627,0.16389347612857819,-0.059551797807216644,0.09498759359121323,0.05879863351583481,-0.11452916264533997,-0.10484962165355682,-0.14155374467372894,-0.0751914381980896,0.0754769891500473,-0.12467970699071884,-0.12322752177715302,-0.1310991793870926,-0.14914898574352264,-0.0551166869699955,-0.06983309984207153,0.06357815861701965,0.0912013128399849,0.0628952831029892,0.07027818262577057,0.4264214336872101,-0.2994439899921417,-0.09331293404102325,0.06286236643791199,-0.11127463728189468,-0.13306500017642975,-0.27709949016571045,-0.11637141555547714,-0.07006077468395233,0.09707636386156082,0.046373315155506134,0.0033662067726254463,-0.12613163888454437,-0.24118536710739136,0.0773664116859436,0.02351483330130577,0.09862962365150452,-0.004303500056266785,0.04875505715608597,0.22553007304668427,-0.14420896768569946,-0.23306576907634735,-0.08996085822582245,-0.05211852490901947,-0.04697147756814957,-0.4178394377231598,-0.025449616834521294,-0.1493249386548996,0.15684549510478973,-0.05867528170347214,-0.0007966040866449475,0.04244184494018555,-0.09616931527853012,-0.22474484145641327,0.33874937891960144,0.4571242332458496,0.1300153136253357,-0.48171576857566833,-0.3292876183986664,-0.4569312334060669,0.4159473180770874,0.3589366376399994,0.386588990688324,0.13638122379779816,0.08024752885103226,-0.02907784841954708,-0.04050235450267792,-0.032803039997816086,0.017372621223330498,-0.1855684518814087,0.003706728806719184,0.11598623543977737,0.17927899956703186,-0.02333233691751957,-0.11244464665651321,0.25284966826438904,-0.07247944921255112,-0.10994917899370193,-0.25097861886024475,-0.05302192270755768,0.09263336658477783,0.16426904499530792,-0.0667194053530693,0.03443893417716026,0.035475682467222214,0.03511928394436836,-0.002484026597812772,0.19611768424510956,0.002814867999404669,-0.09753046929836273,-0.19153255224227905,0.03197171166539192,0.10153678804636002,-0.2023104876279831,0.07130570709705353,0.11495310813188553,0.25123339891433716,0.046937402337789536,-0.0797373503446579,-0.1779755800962448,-0.13628000020980835,0.2665327787399292,-0.06755685806274414,-0.001104093506000936,-0.023661017417907715,0.20614299178123474,0.06638570874929428,0.18809469044208527,0.21212179958820343,0.12221597880125046,0.1788599044084549,0.1960245966911316,-0.014609912410378456,-0.10294603556394577,-0.36567753553390503,-0.11251859366893768,-0.16918903589248657,0.045099642127752304,-0.325335830450058,0.3050988018512726,0.1284348964691162,0.03722140192985535,0.013007625006139278,0.15145546197891235,-0.31898096203804016,0.1430048793554306,-0.3483893871307373,-0.15239128470420837,0.35638555884361267,0.39573267102241516,-0.19793862104415894,-0.20121334493160248,-0.758252739906311,-0.09091771394014359,0.11806442588567734,0.2696322500705719,-0.05417078733444214,-0.0218046884983778,0.04920719191431999,-0.11289089918136597,-0.055585164576768875,-0.03931158408522606,0.017325304448604584,0.02162044122815132,0.01570689119398594,0.0013082217192277312,-0.011597870849072933,0.1516726315021515,-0.0491018183529377,-0.05256407707929611,0.02251800149679184,0.0014013019390404224,0.03503132984042168,-0.06329236179590225,-0.14130768179893494,-0.20628632605075836,-0.05266338214278221,-0.08052531629800797,0.1549907773733139,-0.015339471399784088,-0.2317047417163849,-0.0035623637959361076,0.09091272205114365,0.2960313856601715,0.01155004557222128,-0.11157063394784927,-0.11593322455883026,-0.27865490317344666,-0.24143803119659424,-0.15968424081802368,0.13148514926433563,-0.04075842350721359,-0.1739519238471985,0.009908736683428288,-0.04763905331492424,0.258658230304718,0.01610848680138588,0.06355570256710052,-0.007591424509882927,0.03249768167734146,0.04096967354416847,-0.051853328943252563,0.10134945064783096,-0.07323544472455978,-0.25985631346702576,-0.050721265375614166,0.023301538079977036,-0.2595861852169037,-0.11615412682294846,-0.18058623373508453,0.4078448712825775,-0.07002287358045578,0.037498265504837036,-0.17242424190044403,0.09584153443574905,0.15907682478427887,0.453721284866333,-0.18241029977798462,-0.2892232835292816,0.5193456411361694,0.13989679515361786,0.20087681710720062,0.5296751856803894,-0.3282535970211029,-0.65787672996521,0.09872831404209137,0.18185508251190186,-0.19334836304187775,-0.24072258174419403,-0.04617246240377426,-0.026960497722029686,0.042623572051525116,-0.05842454731464386,-0.14443987607955933,-0.21410788595676422,-0.1579173058271408,-0.18000665307044983,-0.13009926676750183,-0.12468001246452332,-0.05954817309975624,0.20354211330413818,0.033216338604688644,-0.23545615375041962,-0.07331458479166031,0.045575857162475586,0.09362276643514633,0.1440502107143402,0.010890187695622444,-0.0900106281042099,0.278720498085022,0.2072204351425171,-0.023687032982707024,-0.0650595873594284,0.026550889015197754,0.20560026168823242,0.1088886633515358,-0.1329285353422165,0.15998753905296326,-0.05857329070568085,-0.07775851339101791,-0.11090455949306488,-0.17314299941062927,-0.012838413938879967,-0.04765528067946434,0.08676782250404358,0.05404582992196083,0.04934067279100418,-0.13391512632369995,0.07575388997793198,0.03132013604044914,-0.03712141513824463,-0.25888437032699585,-0.04138176888227463,-0.09377306699752808,-0.04203200712800026,-0.15449166297912598,-0.32607465982437134,-0.1106204017996788,-0.030149061232805252,0.020366093143820763,0.12212619185447693,-0.11322925984859467,-0.14001516997814178,-0.42970189452171326,-0.43312588334083557,-0.24772007763385773,-0.07333370298147202,-0.18122026324272156,-0.27282553911209106,0.06487759202718735,0.3722440004348755,0.2065373808145523,-0.09672599285840988,-0.1759694516658783,-0.03348221629858017,0.22511868178844452,0.3280666172504425,0.15440787374973297,0.09067041426897049,-0.15102170407772064,-0.15998893976211548,-0.09895485639572144,0.35841867327690125,-0.3431830406188965,0.05313429981470108,0.09402773529291153,-0.14151635766029358,-0.15335679054260254,-0.17951862514019012,-0.21106286346912384,-0.15129214525222778,-0.1790645718574524,-0.08158358186483383,-0.07666481286287308,-0.06153058633208275,0.03548348695039749,-0.13703382015228271,-0.21927905082702637,0.13153396546840668,-0.11313480138778687,-0.05677781626582146,-0.0188489630818367,-0.07178213447332382,-0.10941707342863083,-0.1136588379740715,-0.0880214273929596,-0.15153494477272034,0.08925925940275192,0.12778396904468536,0.11083881556987762,0.060913991183042526,-0.0659945085644722,-0.012387306429445744,0.49033528566360474,0.16362647712230682,-0.18159088492393494,-0.13555249571800232,0.2309362143278122,0.3397701680660248,0.2220555692911148,-0.0019038261380046606,-0.10518205910921097,-0.06330318748950958,0.1612541824579239,0.15537981688976288,0.1477271467447281,0.020857715979218483,-0.16477279365062714,0.07454066723585129,-0.06597532331943512,-0.17926891148090363,-0.24508115649223328,-0.16127027571201324,-0.07666176557540894,-0.036935221403837204,-0.1595943570137024,-0.17338892817497253,-0.3572468161582947,-0.33339688181877136,-0.1675238162279129,-0.10997074097394943,0.08392195403575897,0.07860896736383438,0.18616409599781036,-0.011673610657453537,0.1435481756925583,-0.07486619055271149,0.24716582894325256,-0.1131032332777977,0.7024230360984802,-0.4641474187374115,0.1253209114074707,-0.44040581583976746,-0.7906029224395752,0.8094553351402283,0.1345481127500534,0.4824274182319641,-0.7808151245117188,0.25110912322998047,0.024439824745059013,0.15173225104808807,0.040649354457855225,-0.041429683566093445,-0.04535225033760071,-0.038673415780067444,-0.0889979675412178,-0.031203284859657288,-0.15713553130626678,-0.12131858617067337,0.24083122611045837,-0.10658153891563416,-0.44979918003082275,-0.05416009947657585,-0.32320666313171387,-0.14111529290676117,0.008915063925087452,-0.11498288810253143,-0.16890643537044525,0.05808372050523758,0.012021558359265327,0.04941781237721443,-0.022775553166866302,-0.14356927573680878,0.03823543339967728,-0.2677644193172455,-0.1434234082698822,0.12654158473014832,-0.11856389790773392,-0.015718068927526474,-0.02973390370607376,0.2338564395904541,-0.09108152985572815,-0.08712410926818848,-0.18418563902378082,-0.036239590495824814,0.06428223848342896,-0.051642391830682755,-0.28804299235343933,-0.021408112719655037,-0.17978531122207642,0.00047237484250217676,-0.15158580243587494,-0.23898375034332275,-0.17538803815841675,0.22885259985923767,0.07504292577505112,-0.020967969670891762,-0.038744036108255386,0.08325819671154022,-0.04226645454764366,0.009173871949315071,-0.2427487075328827,-0.06074759364128113,-0.12126177549362183,-0.2887202799320221,-0.34567996859550476,0.2242332100868225,-0.265769898891449,-0.03401792049407959,-0.2809639573097229,0.05367627739906311,-0.03516773506999016,-0.1814141422510147,-0.08572924882173538,-0.06315994262695312,-0.16647394001483917,0.13603253662586212,-0.08506844937801361,-0.06167004629969597,-0.06762798130512238,0.016608046367764473,-0.17558149993419647,0.2247675359249115,0.14099489152431488,0.13054104149341583,-0.11726580560207367,0.006205358542501926,-0.21237824857234955,0.0576319582760334,-0.005356496199965477,-0.13980209827423096,-0.05167124792933464,-0.038845181465148926,-0.19231006503105164,-0.06361562013626099,-0.06234118714928627,-0.11185431480407715,-0.04780891165137291,0.07896307110786438,-0.0965539738535881,-0.322714239358902,-0.07429046928882599,-0.05117480456829071,-0.019634125754237175,-0.16464115679264069,-0.11462385952472687,0.015304713509976864,-0.21571393311023712,-0.11457812786102295,0.02606162428855896,0.17164510488510132,-0.2706638276576996,-0.5182682871818542,-0.14900095760822296,0.1556062251329422,-0.08047657459974289,-0.07259255647659302,-0.11764615774154663,-0.10923941433429718,-0.016392234712839127,0.03998023271560669,-0.022740384563803673,0.04900406301021576,0.020837165415287018,-0.011849149130284786,0.11683005094528198,0.21144700050354004,-0.001054158085025847,0.1186249628663063,0.07297112047672272,-0.043860867619514465,-0.09555377811193466,-0.14550384879112244,-0.2692742943763733,-0.14520306885242462,0.026809176430106163,-0.1363016963005066,-0.14126655459403992,-0.2806071639060974,-0.20169544219970703,-0.19823281466960907,0.03134998306632042,-0.0275109950453043,-0.0646481066942215,-0.14906573295593262,-0.03217945992946625,0.11377181857824326,0.015385718084871769,-0.09110504388809204,-0.04604994133114815,0.04410100728273392,0.06780398637056351,-0.5485483407974243,-0.35077205300331116,0.05884203687310219,0.09777430444955826,0.32375583052635193,-0.46555471420288086,-0.5453740954399109,0.2627982199192047,0.3949126601219177,0.4917488992214203,-0.025469090789556503,-0.2960353195667267,-0.2735556364059448,-0.18171973526477814,-0.14337533712387085,-0.17086313664913177,-0.1435668021440506,-0.1396419256925583,0.32169410586357117,-0.16268019378185272,-0.4192706048488617,-0.0422266386449337,-0.13257195055484772,-0.3454234004020691,0.07565155625343323,0.14505253732204437,0.45735394954681396,0.46054375171661377,0.008408823981881142,0.04215770214796066,0.2928086519241333,0.30038130283355713,0.28307703137397766,0.26126301288604736,0.09806332737207413,0.015614526346325874,-0.04329366236925125,0.1241225004196167,0.19790463149547577,0.37522077560424805,0.2717965245246887,0.0879817083477974,-0.35121598839759827,-0.09262252599000931,-0.33501362800598145,-0.3278592526912689,-0.22479067742824554,-0.1566324532032013,-0.24827057123184204,-0.31599095463752747,-0.24926413595676422,-0.40863755345344543,-0.16444337368011475,0.043178025633096695,-0.11902887374162674,-1.8056738554150797e-05,-0.13512451946735382,-0.47690191864967346,-0.4482051134109497,-0.013692524284124374,0.1727835237979889,0.37367013096809387,0.33801302313804626,0.1981942057609558,0.298971563577652,0.2710254192352295,-0.23117294907569885,0.16424794495105743,-0.16201524436473846,-0.029766302555799484,0.06042232736945152,0.044457972049713135,0.080337293446064,0.05482074245810509,-0.15963101387023926,0.347307950258255,0.2124844193458557,-0.44990912079811096,-0.08145253360271454,0.7335959672927856,-0.5681449770927429,0.19333510100841522,-0.05634739249944687,0.17629677057266235,-0.04292916879057884,-0.12876281142234802,0.5391969680786133,-0.2057417333126068,-0.34499093890190125,0.31039565801620483,0.5212691426277161,-0.5940188765525818,-0.12400238960981369,0.6933370232582092,-0.8509272336959839,0.43979787826538086,-0.09668337553739548,-0.22242584824562073,0.1157626286149025,0.17153960466384888,0.3907351791858673,-0.5222986936569214,0.11275195330381393,0.1314811259508133,-0.5219361186027527,0.2020067423582077,0.40311741828918457,-0.32214829325675964,-0.4478527009487152,0.563783586025238,0.11099614202976227,-0.5943395495414734,0.7523067593574524,-0.3819054067134857,0.043941158801317215,0.17274846136569977,-0.08450247347354889,-0.1873031109571457,-0.40824437141418457,0.47030556201934814,0.062248341739177704,-0.16772711277008057,-0.24197141826152802,0.47225847840309143,-0.029050860553979874,-0.18657483160495758,-0.3095740079879761,0.4498235881328583,-0.12012244015932083,-0.43948519229888916,0.5908383131027222,-0.26586905121803284,0.12202820926904678,0.352008193731308,-0.6052818894386292,0.21855312585830688,-0.10179497301578522,0.200113907456398,-0.3956065773963928,-0.32130828499794006,-0.5235188603401184,-0.10870552808046341,-0.07319316267967224,0.014146526344120502,0.39780858159065247,-0.4164300262928009,-0.54872065782547,-0.7718917727470398,0.7460477948188782,0.32919347286224365,-0.26398390531539917,0.28238973021507263,0.008283484727144241,0.18653453886508942,-0.07340855151414871,0.11586251109838486,0.12884429097175598,0.013827784918248653,0.3669114112854004,-0.034341078251600266,0.12627506256103516,0.17795757949352264,0.13416865468025208,0.0596948079764843,0.12156055122613907,-0.11182494461536407,-0.21746040880680084,-0.20265838503837585,0.3526959717273712,0.10250721126794815,-0.448256254196167,0.13115400075912476,-0.08307747542858124,-0.2437010109424591,-0.1329396367073059,0.0361449159681797,-0.2987256348133087,0.03969629853963852,-0.17519773542881012,-0.1250603199005127,-0.14884501695632935,-0.056241001933813095,-0.11139944195747375,0.13381600379943848,0.1827540397644043,0.11802881211042404,-0.2107047289609909,-0.05373675748705864,0.37160876393318176,-0.1767662614583969,0.039066389203071594,0.2387954294681549,-0.1622680425643921,0.17983464896678925,-0.18690672516822815,-0.05544042959809303,0.2810531258583069,-0.6158028841018677,-0.06189080700278282,0.21534088253974915,-0.020161932334303856,0.0487702377140522,0.1449938416481018,0.09955734759569168,-0.004624814260751009,0.1586741954088211,-0.03693395480513573,0.10648758709430695,-0.006840354762971401,-0.20446760952472687,0.23665544390678406,-0.1633484959602356,0.3042755126953125,-0.03084428608417511,-0.028329653665423393,-0.014383018016815186,-0.1269562691450119,-0.07384639233350754,0.21025492250919342,-0.28867727518081665,0.3869883120059967,0.039097826927900314,-0.0059300558641552925,0.11953752487897873,0.20826305449008942,-0.171846404671669,-0.3185613453388214,0.18241819739341736,-0.010121723636984825,-4.3600681237876415e-05,0.09357433021068573,0.0022648887243121862,-0.17665071785449982,-0.05583202466368675,-0.06216263771057129,0.10075175762176514,-0.11865657567977905,-0.05287489667534828,0.04985954612493515,0.054410140961408615,0.05271712318062782,-0.15170590579509735,0.2332478165626526,0.06812787055969238,-0.1805902123451233,-0.09789048880338669,0.0058906665071845055,-0.007749726064503193,-0.05593898892402649,-0.04586482048034668,0.06605742871761322,-0.14616039395332336,0.04639394208788872,-0.021467722952365875,0.10601544380187988,-0.014511391520500183,0.0833669975399971,0.3505561649799347,-0.05285818129777908,0.050149817019701004,-0.15354107320308685,-0.031347356736660004,-0.01886448822915554,0.12557744979858398,-0.10254619270563126,0.10209708660840988,-0.05898887664079666,0.03273899853229523,-0.16216272115707397,-0.48021334409713745,0.13646116852760315,-0.02067750133574009,0.15316301584243774,0.07663866877555847,0.11293807625770569,0.1302369236946106,-0.051623132079839706,0.24099017679691315,-0.07707131654024124,-0.03872803598642349,0.21998518705368042,-0.09467087686061859,0.44822490215301514,-0.13617101311683655,0.3368993103504181,0.020984869450330734,0.05041389539837837,-0.004333452321588993,-0.5890926718711853,0.08457812666893005,0.14602041244506836,-0.5574482083320618,0.2498501092195511,0.22085976600646973,0.5323126316070557,-0.1561799794435501,-0.021351978182792664,-0.2523657977581024,-0.16231073439121246,0.2659285068511963,-0.003020081901922822,0.27799510955810547,0.2136288434267044,0.3598485589027405,0.03034924529492855,-0.07713720202445984,0.06639324873685837,0.12682870030403137,0.03454586863517761,0.1633511483669281,0.16303570568561554,-0.5201055407524109,-0.007679556962102652,0.08500836789608002,0.20363178849220276,0.17733226716518402,0.3797746002674103,-0.2642247974872589,0.005527700297534466,-0.263197660446167,-0.2009555995464325,-0.31421777606010437,0.010982779785990715,0.06268955767154694,-0.059469640254974365,-0.13991834223270416,-0.01858084835112095,-0.15732361376285553,-0.1560216099023819,0.49185481667518616,0.002419165801256895,-0.04059020057320595,-0.2118997424840927,-0.16130417585372925,-0.3700350821018219,0.211883544921875,-0.005938745103776455,-0.0533258281648159,0.10288620740175247,-0.046543918550014496,0.22438876330852509,-0.542532742023468,-0.03461439535021782,-0.01344634871929884,0.07959484308958054,-0.09682296216487885,0.05150946229696274,0.0913967713713646,0.042664218693971634,-0.012516464106738567,-0.04591447860002518,0.2431989461183548,-0.034045081585645676,-0.01486105564981699,0.04415769875049591,-0.009801196865737438,0.23877573013305664,0.005411358084529638,0.02131059393286705,0.012620716355741024,0.5284987092018127,-0.5485209822654724,0.09937655925750732,0.09585221111774445,-0.14855816960334778,0.23408064246177673,-0.001861104741692543,-0.058786675333976746,0.32363685965538025,-0.06444831192493439,-0.2688678801059723,-0.18557888269424438,-0.15808159112930298,-0.2118571400642395,0.01618652231991291,0.13213816285133362,0.2623646855354309,0.19803953170776367,-0.056020841002464294,0.008731023408472538,-0.031147539615631104,0.17834605276584625,0.10100160539150238,-0.36462175846099854,-0.0901312306523323,-0.23522913455963135,0.0014133874792605639,-0.11217253655195236,0.36421266198158264,-0.30317965149879456,0.17460723221302032,0.21715117990970612,0.002467780141159892,-0.1379663050174713,-0.28366655111312866,-0.16347616910934448,0.06893204897642136,-0.008231915533542633,0.037217795848846436,-0.18010196089744568,-0.12896518409252167,0.2983660101890564,0.09182734042406082,0.2444891631603241,0.008386422879993916,0.10520662367343903,-0.37176233530044556,0.31107664108276367,-0.14536739885807037,-0.16266606748104095,-0.02080458030104637,0.09487063437700272,0.1643715798854828,-0.1308983415365219,-0.1126096323132515,0.013829383999109268,-0.13730895519256592,0.061593197286129,0.10784438252449036,0.10620883852243423,0.09634806960821152,-0.2511097192764282,0.07657831162214279,-0.0020149676129221916,0.1283978819847107,-0.13874340057373047,0.04627782478928566,0.09985066950321198,0.20851512253284454,0.014172125607728958,0.03881172835826874,-0.00264298589900136,-0.13901175558567047,0.3033376932144165,-0.37499839067459106,-0.2514660358428955,0.071044921875,-0.045387186110019684,0.29089638590812683,-0.32843446731567383,0.263508677482605,0.05785948410630226,-0.31457406282424927,0.09892039746046066,0.02985200472176075,-0.03097607009112835,-0.010561724193394184,-0.009778691455721855,0.041591864079236984,0.2490827739238739,0.0037320451810956,-0.03046843223273754,0.0036431343760341406,0.029475057497620583,0.044495388865470886,-0.422941654920578,-0.014546988531947136,0.08373236656188965,0.008603440597653389,-0.06106986105442047,-0.06010109558701515,-0.10945551097393036,-0.07511782646179199,0.04677508398890495,-0.01828385889530182,0.03464628756046295,-0.046918634325265884,-0.2536509335041046,-0.027933921664953232,0.06323441118001938,-0.04363999143242836,-0.08850591629743576,-0.09955430030822754,0.13408641517162323,0.041580069810152054,-0.12458152323961258,0.05362297222018242,0.26252442598342896,0.19000405073165894,0.10455752164125443,0.08892393857240677,-0.008703134953975677,0.08345773816108704,-0.09433788061141968,0.03958869352936745,0.0842374637722969,0.009517252445220947,-0.08765091001987457,0.04973626136779785,0.07393288612365723,0.0755341425538063,-0.1734229326248169,0.0611933171749115,0.13594184815883636,-0.0423126146197319,-0.3042905330657959,-0.15823686122894287,0.0547582283616066,0.49332955479621887,0.20167136192321777,0.04076366126537323,0.030768487602472305,0.0005243875784799457,0.014803268946707249,2.4776806563235675e-39,-1.0080086360289496e-38,-1.0181332976933893e-38,4.8810882901425266e-39,1.5102452160306786e-39,4.02579456205416e-39,2.621706112486872e-39,-1.7694335838875898e-38,2.2928199616113733e-39,-1.6655466406767123e-38,-3.686929764814204e-39,-2.178067630367814e-39,4.310922304284759e-05,0.0019223365234211087,0.004536841064691544,0.004177477676421404,-0.001996977487578988,-0.012816736474633217,-0.02243880182504654,-0.02729889750480652,-0.02839723788201809,-0.026380252093076706,-0.020249750465154648,-0.010075806640088558,0.0004170105967205018,0.006006353069096804,0.005529604386538267,0.002061868319287896,-0.00034377104020677507,-0.0019277922110632062,-0.0037349341437220573,-0.00174148369114846,0.00632105628028512,0.017452875152230263,0.026698743924498558,0.030916595831513405,0.03059782087802887,0.027445362880825996,0.021169712767004967,0.011441431008279324,0.0014734399737790227,-0.003992157988250256,-0.0037976412568241358,-0.0014032970648258924,0.0013197901425883174,0.0014182116137817502,-0.001978118671104312,-0.006788109429180622,-0.009362977929413319,-0.009202593937516212,-0.008473099209368229,-0.008900091052055359,-0.009190632961690426,-0.006921529769897461,-0.00327595928683877,-0.001562760560773313,-0.002363521372899413,-0.003216296434402466,-0.002269696444272995,-0.000594303070101887,0.07000941038131714,0.009999999776482582],"sample_rate":48000.0}},{"max_value":1.0,"model":{"version":"0.7.0","metadata":{"date":{"year":2026,"month":5,"day":9,"hour":17,"minute":45,"second":6},"loudness":-14.886314392089844,"gain":0.2802806312057757},"architecture":"WaveNet","config":{"layers":[{"input_size":1,"condition_size":1,"head":{"out_channels":1,"kernel_size":16,"bias":true},"channels":8,"kernel_sizes":[6,6,6,6,6,6,6,6,6,6,6,6,6,6,15,15,6,6,6,6,6,6,6],"dilations":[1,3,7,17,41,101,239,1,3,7,17,41,101,239,1,13,1,3,7,17,41,101,239],"activation":[{"type":"LeakyReLU","negative_slope":0.01},{"type":"LeakyReLU","negative_slope":0.01},{"type":"LeakyReLU","negative_slope":0.01},{"type":"LeakyReLU","negative_slope":0.01},{"type":"LeakyReLU","negative_slope":0.01},{"type":"LeakyReLU","negative_slope":0.01},{"type":"LeakyReLU","negative_slope":0.01},{"type":"LeakyReLU","negative_slope":0.01},{"type":"LeakyReLU","negative_slope":0.01},{"type":"LeakyReLU","negative_slope":0.01},{"type":"LeakyReLU","negative_slope":0.01},{"type":"LeakyReLU","negative_slope":0.01},{"type":"LeakyReLU","negative_slope":0.01},{"type":"LeakyReLU","negative_slope":0.01},{"type":"LeakyReLU","negative_slope":0.01},{"type":"LeakyReLU","negative_slope":0.01},{"type":"LeakyReLU","negative_slope":0.01},{"type":"LeakyReLU","negative_slope":0.01},{"type":"LeakyReLU","negative_slope":0.01},{"type":"LeakyReLU","negative_slope":0.01},{"type":"LeakyReLU","negative_slope":0.01},{"type":"LeakyReLU","negative_slope":0.01},{"type":"LeakyReLU","negative_slope":0.01}],"bottleneck":8,"head1x1":{"active":false,"out_channels":1,"groups":1},"layer1x1":{"active":true,"groups":1},"groups_input":1,"groups_input_mixin":1,"conv_pre_film":{"active":false,"shift":true,"groups":1},"conv_post_film":{"active":false,"shift":true,"groups":1},"input_mixin_pre_film":{"active":false,"shift":true,"groups":1},"input_mixin_post_film":{"active":false,"shift":true,"groups":1},"activation_pre_film":{"active":false,"shift":true,"groups":1},"activation_post_film":{"active":false,"shift":true,"groups":1},"layer1x1_post_film":{"active":false,"shift":true,"groups":1},"head1x1_post_film":{"active":false,"shift":true,"groups":1},"gating_mode":["none","none","none","none","none","none","none","none","none","none","none","none","none","none","none","none","none","none","none","none","none","none","none"],"secondary_activation":[null,null,null,null,null,null,null,null,null,null,null,null,null,null,null,null,null,null,null,null,null,null,null],"slimmable":null}],"head":null,"head_scale":0.00999999990640153},"weights":[2.453307867050171,-2.3406999111175537,1.6438440084457397,-2.428868293762207,1.3113800287246704,2.032975435256958,1.1337641477584839,-2.303790807723999,0.07750944793224335,-0.03935030847787857,-0.20316660404205322,-0.5495015978813171,0.09002604335546494,0.5243653655052185,-0.11213716119527817,0.08862736821174622,0.20108254253864288,0.5242472290992737,-0.0747826099395752,-0.5189300775527954,0.08709537237882614,-0.057060133665800095,-0.14264334738254547,-0.38408613204956055,0.07449442893266678,0.37937381863594055,-0.07736525684595108,0.09133723378181458,0.15295730531215668,0.5449315905570984,-0.07275789231061935,-0.5183387398719788,0.06943119317293167,-0.056004848331213,-0.12329068779945374,-0.3060568869113922,0.06117440387606621,0.3092971742153168,0.08272098749876022,-0.07022952288389206,-0.17174261808395386,-0.4588692784309387,0.07761628925800323,0.45508497953414917,0.05553769692778587,-0.0479302778840065,-0.1070294976234436,-0.25501418113708496,0.05286087468266487,0.2600315511226654,-0.08539093285799026,0.0804138109087944,0.19619400799274445,0.5361908078193665,-0.10379684716463089,-0.5214188098907471,0.0037781554274260998,-0.08945392817258835,-0.42988771200180054,-0.6869266033172607,0.4707278907299042,0.5914053916931152,0.004199058283120394,0.12033793330192566,0.3770722448825836,0.6757593154907227,-0.4497668445110321,-0.6240799427032471,-0.0309342909604311,-0.10401353240013123,-0.3145177960395813,-0.4868432879447937,0.33631807565689087,0.491535484790802,0.04538227617740631,0.10352712124586105,0.40235117077827454,0.6959832310676575,-0.454353004693985,-0.5962473750114441,-0.035461705178022385,-0.09843292832374573,-0.2734062075614929,-0.39454683661460876,0.29075342416763306,0.41509243845939636,-0.027813373133540154,-0.10125686973333359,-0.3854885399341583,-0.5828555226325989,0.4009290039539337,0.5742083787918091,-0.031203271821141243,-0.08738456666469574,-0.23375435173511505,-0.32462823390960693,0.2362949401140213,0.3533383905887604,0.016863297671079636,0.11015228182077408,0.4005981981754303,0.6916636228561401,-0.4470798373222351,-0.5890980958938599,-0.2964033782482147,-0.26551738381385803,-0.19849976897239685,-0.12235373258590698,0.3966943323612213,0.531568706035614,0.2414288967847824,0.2217581868171692,0.24574461579322815,0.14015929400920868,-0.35658231377601624,-0.51433926820755,-0.15830054879188538,-0.19379426538944244,-0.1727697253227234,-0.17044870555400848,0.3156675398349762,0.42046675086021423,0.19193893671035767,0.312876433134079,0.3059873580932617,0.12581434845924377,-0.46406811475753784,-0.5656190514564514,-0.14340585470199585,-0.16448891162872314,-0.17421773076057434,-0.10251687467098236,0.29680341482162476,0.38823795318603516,-0.21320684254169464,-0.19745254516601562,-0.23286838829517365,-0.18181633949279785,0.3677957355976105,0.5353171229362488,-0.13089250028133392,-0.1408367156982422,-0.12969821691513062,-0.1249227449297905,0.23917798697948456,0.3257281184196472,0.2725399434566498,0.3104981780052185,0.19867555797100067,0.11621560156345367,-0.4506475031375885,-0.4855380058288574,-0.09278431534767151,-0.18121887743473053,-0.38605186343193054,-0.318858802318573,0.4508495628833771,0.5521578788757324,0.07176031917333603,0.15380126237869263,0.30849429965019226,0.29510536789894104,-0.45835572481155396,-0.5376826524734497,-0.054218839854002,-0.10716525465250015,-0.255582720041275,-0.26837289333343506,0.33821672201156616,0.41644278168678284,0.07297378778457642,0.16960479319095612,0.38360142707824707,0.2854691743850708,-0.3744310140609741,-0.48088744282722473,-0.07149083912372589,-0.10012563318014145,-0.21891403198242188,-0.2293591946363449,0.2757001519203186,0.40984681248664856,-0.07291576266288757,-0.1851971298456192,-0.31337985396385193,-0.32779577374458313,0.4537279009819031,0.5293664932250977,-0.061959706246852875,-0.10202119499444962,-0.18527621030807495,-0.1676919162273407,0.2399614155292511,0.2997158467769623,0.08938422799110413,0.11225420981645584,0.35773390531539917,0.28972238302230835,-0.42231810092926025,-0.47426140308380127,0.06973003596067429,0.35829055309295654,0.2763799726963043,0.5513405799865723,-0.30580300092697144,-0.777431070804596,-0.1431892365217209,-0.32619374990463257,-0.35089653730392456,-0.4791765809059143,0.3660770654678345,0.7316537499427795,0.08273377269506454,0.20302557945251465,0.21177324652671814,0.4127400815486908,-0.32412755489349365,-0.5882028341293335,-0.1392432004213333,-0.3166062533855438,-0.24735257029533386,-0.4750336706638336,0.4051571488380432,0.7490189075469971,0.07110713422298431,0.20016346871852875,0.18280689418315887,0.34078648686408997,-0.2740126848220825,-0.5074014067649841,0.060569338500499725,0.24964183568954468,0.2378927618265152,0.5028622150421143,-0.31049224734306335,-0.6831952333450317,0.06923864781856537,0.16095606982707977,0.1665307879447937,0.271864116191864,-0.25916588306427,-0.4124870300292969,-0.05429773032665253,-0.3090663552284241,-0.22802995145320892,-0.5461465716362,0.323245644569397,0.7727127075195312,-0.005949118640273809,-0.014662366360425949,-0.006803072523325682,-0.00039738896884955466,0.011996070854365826,0.01590557210147381,0.005699402652680874,0.014069564640522003,0.00647513335570693,0.00028994472813792527,-0.01152260322123766,-0.015203663147985935,-0.0039458791725337505,-0.010217881761491299,-0.00461173988878727,-0.00011190593068022281,0.008309226483106613,0.011261055245995522,0.00593686755746603,0.014560208655893803,0.006760137155652046,0.00036804095725528896,-0.011903472244739532,-0.015776490792632103,-0.0031241520773619413,-0.008246821351349354,-0.003663652343675494,-3.692497784868465e-06,0.006779343355447054,0.009271307848393917,-0.0048644463531672955,-0.012319942936301231,-0.005601291079074144,-0.00022097228793427348,0.01011257991194725,0.013468444347381592,-0.0026883555110543966,-0.007201500236988068,-0.003200225066393614,8.152638741876217e-08,0.005872486624866724,0.008127082139253616,0.005540124606341124,0.013860924169421196,0.006409432273358107,0.0002944769512396306,-0.011370854452252388,-0.015054854564368725,0.0010997450444847345,-0.07815536856651306,-0.04428679868578911,0.26844096183776855,0.05433321371674538,-0.21540486812591553,-0.009370124898850918,0.07033400982618332,0.036398716270923615,-0.25142988562583923,-0.050523143261671066,0.200870543718338,0.008274883031845093,-0.03776613622903824,-0.013200693763792515,0.15797112882137299,0.0307841207832098,-0.13437286019325256,-0.008074606768786907,0.07983618974685669,0.04802992567420006,-0.28116661310195923,-0.0556352436542511,0.21732529997825623,0.0054704779759049416,-0.027554847300052643,-0.007697117514908314,0.12349887192249298,0.0239182747900486,-0.10488241165876389,0.008415702730417252,-0.05156700685620308,-0.022368280217051506,0.2007269263267517,0.039853669703006744,-0.16793043911457062,0.0038254575338214636,-0.021176831796765327,-0.0043820710852742195,0.10211565345525742,0.02017645165324211,-0.08830496668815613,-0.008830909617245197,0.06828368455171585,0.03882420435547829,-0.25042930245399475,-0.04934273287653923,0.2006160467863083,0.015889951959252357,0.021995406597852707,0.03276132792234421,0.056444551795721054,0.0389942042529583,0.03865184262394905,-0.01472001988440752,-0.021458584815263748,-0.03211520239710808,-0.053542666137218475,-0.036138638854026794,-0.035733576864004135,0.011026077903807163,0.01760459505021572,0.02443854697048664,0.03705599159002304,0.024546558037400246,0.02406897209584713,-0.015700487419962883,-0.021396668627858162,-0.03241580352187157,-0.05665447935461998,-0.03898721933364868,-0.03845624625682831,0.009105256758630276,0.015121042728424072,0.020216654986143112,0.029534442350268364,0.019607748836278915,0.018984662368893623,0.013064101338386536,0.0204937607049942,0.029417239129543304,0.04594407230615616,0.030082764104008675,0.029390973970294,0.007823353633284569,0.013163827359676361,0.01744316890835762,0.025032581761479378,0.016983140259981155,0.01660938374698162,-0.014634656719863415,-0.02146291173994541,-0.032219044864177704,-0.05314019322395325,-0.035589490085840225,-0.03507896512746811,0.9704575538635254,0.754643976688385,0.5056117177009583,0.8734059929847717,0.767239511013031,-0.008537719957530499,-0.19219881296157837,-0.11605268716812134,0.3168407678604126,0.4161919951438904,0.4312111437320709,0.5058348774909973,-0.817103922367096,0.007307843770831823,-0.08541014045476913,0.014743777923285961,0.5940749049186707,0.4605984091758728,0.6104887127876282,0.5443232655525208,-0.33268874883651733,-0.009526247158646584,0.37347087264060974,0.07565067708492279,0.1724107414484024,0.013652651570737362,-0.4352453947067261,-0.2130127251148224,0.42809486389160156,-0.004265298135578632,0.30944517254829407,-0.11897118389606476,-0.020947914570569992,0.23765243589878082,0.13361860811710358,0.12023968994617462,0.16671431064605713,0.0031678106170147657,0.32035568356513977,-0.06643848866224289,-0.5051178932189941,-0.24162374436855316,-0.34127894043922424,-0.4253874123096466,0.4497435390949249,-0.0008918168605305254,-0.09007364511489868,-0.0032185532618314028,0.04427950084209442,-0.04176098108291626,-0.43839171528816223,-0.11613533645868301,0.4019739627838135,0.008546162396669388,-0.12719860672950745,0.1309441477060318,0.7218233942985535,0.5418268442153931,0.02171211689710617,0.2822810113430023,-0.6484135985374451,-0.0007868591346777976,0.09148788452148438,-0.06216628476977348,0.3581257164478302,0.9248456954956055,0.15064525604248047,0.2949560582637787,-0.45870518684387207,-0.009597975760698318,0.5137686133384705,-0.12566517293453217,0.10014824569225311,0.2778581380844116,0.10354547202587128,-0.05940013751387596,0.18404075503349304,0.0007907232502475381,-0.1408928483724594,0.02143429033458233,-0.42242011427879333,-0.09272312372922897,-0.5251695513725281,-0.17483219504356384,0.36251363158226013,0.08764927834272385,-0.7062743306159973,0.3931991159915924,0.011645298451185226,0.02532028593122959,0.05139276012778282,0.09010383486747742,-0.09656984359025955,0.24289503693580627,-0.04812878370285034,-0.13290631771087646,-0.1748473346233368,-0.19341720640659332,0.23055623471736908,0.3547760844230652,-0.023945702239871025,-0.026626255363225937,0.019628459587693214,0.09255991876125336,-0.22498270869255066,-0.33192771673202515,0.0012377627426758409,0.0037094138097018003,-0.064185231924057,-0.04164460301399231,0.007928039878606796,-0.15680381655693054,-0.07764247059822083,-0.07453294843435287,-0.051933757960796356,-0.0975763127207756,0.03287253528833389,-0.13654130697250366,-0.02372235246002674,-0.013416177593171597,-0.02730386331677437,0.044918764382600784,-0.15764760971069336,-0.0970979630947113,0.017148608341813087,0.0086974473670125,0.03291568160057068,0.09313219040632248,-0.12216050922870636,-0.12643501162528992,0.11392538994550705,0.05309164151549339,0.09330344945192337,0.08158265799283981,0.22612105309963226,0.17613579332828522,-0.011635320261120796,-0.05088739097118378,-0.0719374567270279,0.011342866346240044,-0.010006975382566452,-0.03800073638558388,0.10359681397676468,-0.004725854843854904,-0.11157487332820892,-0.15130694210529327,-0.4081656336784363,0.3869890868663788,-0.0390172004699707,0.0173938125371933,-0.037511732429265976,0.1101289913058281,0.25634101033210754,-0.21384762227535248,-0.04572024941444397,-0.0019219202222302556,-0.02088530920445919,0.06228070333600044,-0.0962136834859848,-0.13257138431072235,0.018413284793496132,0.03802935779094696,-0.0633983165025711,-0.050693001598119736,0.11611350625753403,0.2269461452960968,0.05443422496318817,0.052536651492118835,0.05497642606496811,-0.014103534631431103,0.17197594046592712,0.07153663784265518,-0.011831861920654774,-0.003509845584630966,0.03976552188396454,-0.016309544444084167,0.07944414764642715,-0.09734325855970383,0.0801456868648529,0.09299167990684509,0.10391868650913239,0.15880195796489716,0.09163148701190948,0.06507294625043869,0.0185531135648489,0.001938899396918714,-0.05157686397433281,-0.0015775240026414394,-0.008508340455591679,-0.14803621172904968,-0.09333036839962006,0.03269970417022705,-0.15492510795593262,0.0025112403091043234,0.19548678398132324,-0.37107914686203003,-0.016466479748487473,-0.07506529986858368,0.04901980236172676,0.009290037676692009,-0.2249797135591507,0.16270385682582855,-0.07697033882141113,-0.10491364449262619,-0.045426979660987854,-0.032763734459877014,-0.07799894362688065,0.0795142650604248,-0.0706205666065216,-0.00039241352351382375,-0.04690716415643692,0.016218293458223343,-0.022707894444465637,-0.013997698202729225,-0.04662603139877319,0.05179456248879433,0.026125706732273102,0.011139451526105404,-0.04151308164000511,0.2355996072292328,-0.08539216965436935,-0.10050711035728455,-0.0691320076584816,-0.048443153500556946,-0.15050974488258362,0.11310369521379471,-0.011389081366360188,0.016257815062999725,0.04614252969622612,0.011820098385214806,0.08864060044288635,0.028074119240045547,0.03630388155579567,0.016180044040083885,-0.08682310581207275,-0.031186746433377266,-0.012141957879066467,-0.02382095716893673,0.014773016795516014,-0.004600399639457464,0.01844961941242218,0.0397520586848259,0.009585718624293804,0.015107478015124798,0.05126215144991875,0.03752555698156357,0.003183340188115835,-0.017210183665156364,-0.018012510612607002,0.006831116043031216,-0.00022301770513877273,0.004552577622234821,0.07887589931488037,0.047200269997119904,0.012654870748519897,0.008341479115188122,0.026376796886324883,-0.016196858137845993,0.013547106646001339,-0.0305425263941288,-0.03290203958749771,-0.0001107720672735013,-0.01885928399860859,-0.039668817073106766,-0.10537554323673248,-0.06796909123659134,-0.003995061852037907,0.039933037012815475,0.027133138850331306,0.011701710522174835,-0.08938392251729965,-0.03229351341724396,-0.00026367453392595053,0.0171409510076046,-0.006365857552736998,0.0022500825580209494,0.0036094454117119312,0.020391926169395447,0.003571904031559825,-0.008985797874629498,-0.002004841575399041,-0.0020997340325266123,-0.0009000255959108472,-0.002077427925541997,-0.0017515834188088775,-0.0019290720811113715,0.000647256092634052,-0.00040045304922387004,-0.0006782365962862968,-0.0009511146927252412,-0.002350976224988699,-0.0027338045183569193,-0.0005274645518511534,-0.0003505451895762235,-2.8547632609843276e-05,0.00024144910275936127,0.0007664959412068129,0.0007976305787451565,0.0012466385960578918,0.0014338918263092637,0.0008276109583675861,0.0015725643606856465,0.00164521555416286,0.0018269444117322564,-0.0006122453487478197,-0.0009793692734092474,-0.0011239225277677178,-0.0006520404713228345,-0.000874813471455127,-0.0006096370634622872,-0.0009383013821206987,-0.0002077457756968215,0.0001621260744286701,-0.00019899787730537355,0.0007643905701115727,0.0009615355520509183,-8.537308895029128e-05,-0.0004769965016748756,0.0005164654576219618,-8.277125016320497e-05,0.00038133293855935335,0.0010761229787021875,-0.0025548271369189024,-0.0025950458366423845,-0.0027040373533964157,-0.0029808657709509134,-0.003617336740717292,-0.003841663710772991,-0.0044983504340052605,-0.014888341538608074,-0.024594197049736977,0.01815360225737095,-0.017093125730752945,-0.039552733302116394,-0.001767227309755981,3.624252713052556e-05,0.02408106066286564,-0.01849505491554737,-0.00908071082085371,0.027974028140306473,0.009428818710148335,-0.0009548672242090106,0.008894167840480804,0.008659148588776588,-0.0022815812844783068,0.009116006083786488,0.010485854931175709,0.01678607426583767,0.035875000059604645,-0.012962082400918007,0.016910027712583542,0.04263325035572052,-0.02362699620425701,-0.016284603625535965,-0.009480626322329044,-0.03320647403597832,-0.02546287700533867,0.007694017607718706,-0.007157386280596256,-0.010867895558476448,-0.037055615335702896,0.018682900816202164,-0.011902769096195698,-0.026237474754452705,0.012158699333667755,0.0024499401915818453,-0.009873171336948872,0.027272053062915802,-0.0018089422956109047,-0.006368896458297968,-0.009468588046729565,-0.010067549534142017,0.0033272840082645416,-0.011701557785272598,-0.02608548477292061,0.001753586228005588,-4.5674110879190266e-05,0.008558138273656368,-0.026049068197607994,-0.017973104491829872,-0.04908483475446701,-0.28152769804000854,0.00474189966917038,-0.12016033381223679,-0.12433812767267227,-0.19193744659423828,-0.09430515021085739,-0.189239040017128,0.016011614352464676,0.05391311272978783,0.06625859439373016,-0.005236423574388027,-0.07099679112434387,0.07229306548833847,0.026182444766163826,0.015428158454596996,-0.015141124837100506,-0.03165827691555023,0.002657129894942045,0.19464778900146484,0.04630466550588608,-0.011392387561500072,0.04447696730494499,-0.023061756044626236,-0.029875364154577255,-0.04849477857351303,0.0008292574784718454,-0.03727756068110466,-0.003153223544359207,0.006361839361488819,0.07145989686250687,-0.3117623031139374,0.026074135676026344,-0.016242392361164093,-0.0022733970545232296,-0.04304478317499161,0.033744219690561295,-0.20012639462947845,-0.024177823215723038,-0.08421054482460022,-0.08858300745487213,-0.1796010583639145,-0.0888747051358223,-0.09259616583585739,-0.017889229580760002,0.017679903656244278,-0.0028686223085969687,0.025705259293317795,-0.12358032166957855,0.26801252365112305,-0.085523821413517,-0.00697899516671896,-0.03134896233677864,-0.0029866001568734646,0.13320577144622803,0.19595588743686676,0.16296832263469696,0.16003160178661346,0.18271341919898987,0.18335279822349548,-0.007572761736810207,0.26975885033607483,0.1472252607345581,0.07584727555513382,0.03745444118976593,0.19247324764728546,0.3418079614639282,-0.039819490164518356,-0.11996950209140778,-0.08472263067960739,-0.09820627421140671,-0.1362774819135666,-0.3203536868095398,-0.1640743762254715,-0.11348352581262589,-0.10500083118677139,-0.1062241718173027,-0.1078554019331932,-0.10788177698850632,0.016342919319868088,0.18237987160682678,0.12581072747707367,0.1151541918516159,0.18794356286525726,0.3472907543182373,0.42544591426849365,-0.2797609269618988,-0.3020867109298706,-0.3486369848251343,-0.24474887549877167,0.04204086586833,0.066997230052948,0.09867279976606369,0.16873279213905334,0.048297394067049026,-0.016466546803712845,-0.0030391442123800516,-0.028483618050813675,-0.04916699603199959,-0.46803757548332214,-0.2408827841281891,-0.06840484589338303,0.12387119978666306,0.0015481937443837523,0.0005916170193813741,-0.004093680065125227,0.042502231895923615,-0.07960111647844315,-0.36026301980018616,0.140024796128273,0.34481292963027954,0.11766103655099869,4.829101817449555e-05,0.01991211250424385,-0.20306620001792908,-0.35365140438079834,0.04747774451971054,0.1463497430086136,0.21614904701709747,-0.08619581907987595,-0.00018112432735506445,0.008005945943295956,0.017288994044065475,0.49223268032073975,0.038935743272304535,0.04407353699207306,0.021594133228063583,0.015045398846268654,0.0005035993526689708,0.011415173299610615,0.20608113706111908,0.03536592796444893,0.2087230533361435,0.1395684778690338,-0.41313180327415466,-0.07498160004615784,-8.210403029806912e-05,-0.02107878215610981,0.16345258057117462,0.3909452557563782,0.40366801619529724,-0.08153893798589706,-0.10667037963867188,0.12021461874246597,-0.00013368453073780984,0.013184620998799801,0.12184588611125946,0.18879470229148865,0.3045909106731415,-0.3192858397960663,0.27683332562446594,-0.06635499000549316,4.0181832446251065e-05,-0.0221124105155468,-0.3611446022987366,-0.3376718759536743,0.24570830166339874,-0.05165397748351097,0.09067587554454803,0.030509276315569878,-0.00024317775387316942,0.0063371662981808186,-0.42559096217155457,-0.6854172348976135,-0.1677100956439972,-0.40146419405937195,0.26981687545776367,0.0717281699180603,0.00033075513783842325,0.0021607307717204094,0.08589150011539459,-0.45414090156555176,-0.22639667987823486,-0.02044132724404335,-0.33831775188446045,0.23681984841823578,0.0181520227342844,-0.03702034056186676,-0.19215145707130432,-0.20864135026931763,-0.045921772718429565,-0.011643419042229652,0.015184621326625347,0.06056429445743561,-0.016600314527750015,-0.19712619483470917,-0.08207829296588898,-0.05615846812725067,-0.021824443712830544,-0.04749889671802521,-0.17370198667049408,0.029251497238874435,-0.000976434675976634,0.03505420684814453,0.05946800112724304,0.10877831280231476,0.051817089319229126,-0.1098095029592514,-0.0014870186569169164,0.02854984812438488,0.010791409760713577,-0.03987928107380867,-0.03386060893535614,0.09830892086029053,-0.017825985327363014,-0.03861536085605621,0.007922923192381859,0.019117023795843124,-0.02909136936068535,0.06402350217103958,-0.02365422248840332,-0.037533119320869446,-0.04752958565950394,-0.05082400515675545,-0.0750734880566597,0.20451034605503082,-0.012431302107870579,0.020419364795088768,0.020086489617824554,-0.0594535656273365,-0.008021777495741844,0.10147568583488464,0.009800388477742672,-0.020907077938318253,-0.03584246337413788,-0.12744683027267456,-0.04622754827141762,-0.06520999222993851,-0.07520589977502823,-0.06420599669218063,-0.06715978682041168,-0.09675273299217224,-0.1131594255566597,0.13213597238063812,-0.05987720936536789,-0.05073728784918785,-0.03883993253111839,0.007955901324748993,-0.02450420707464218,-0.26330116391181946,0.09221157431602478,0.09657763689756393,0.0638265460729599,0.08048788458108902,0.028213920071721077,0.05368804186582565,-0.004367507994174957,0.009421076625585556,0.022497596219182014,0.07516206800937653,0.08037538826465607,-0.06457962095737457,-0.09307535737752914,-0.092630535364151,-0.0895606130361557,-0.11523593217134476,-0.12660832703113556,-0.13399411737918854,-0.024641728028655052,-0.001970144920051098,-0.03929014876484871,-0.023705333471298218,-0.0034150313585996628,0.03389287739992142,0.02176818437874317,0.0015610292321071029,0.05013568699359894,0.1021965965628624,0.13372278213500977,0.20834439992904663,0.006321721710264683,0.018435653299093246,0.02197219617664814,0.08695478737354279,0.024618467316031456,0.20480786263942719,-0.018946701660752296,0.0034846162889152765,0.016219856217503548,0.03946278244256973,-0.013917009346187115,-0.0429651103913784,-0.02038893848657608,-0.004901832435280085,-0.05512108653783798,-0.0732610747218132,-0.12696290016174316,-0.020602257922291756,0.07078337669372559,0.057113539427518845,0.06956550478935242,0.03602990508079529,0.03198948875069618,0.0673251673579216,0.018666723743081093,0.014296723529696465,-0.004379581660032272,-0.01852002553641796,-0.043776415288448334,0.05166597664356232,0.0067743477411568165,-0.0048332856968045235,-0.040783949196338654,-0.03809775039553642,-0.04772631451487541,0.024749651551246643,-0.016399461776018143,-0.024894392117857933,-0.001298832823522389,-0.05242276191711426,-0.11147012561559677,-0.037613194435834885,0.004395917057991028,0.03729768097400665,-0.004931440111249685,-0.010961164720356464,-0.04599412903189659,-0.023756537586450577,-0.004449514206498861,-0.05179264023900032,-0.05766116455197334,-0.019144855439662933,-0.0856747180223465,0.0037367548793554306,-0.033365290611982346,-0.03518363833427429,0.0009476253180764616,0.021475274115800858,-0.11594721674919128,0.03960132971405983,-0.023235401138663292,0.03137270361185074,-0.04037345200777054,-0.02850351110100746,0.12948031723499298,-0.12565888464450836,0.011178385466337204,0.05122843757271767,0.05886802077293396,0.04591987282037735,0.07210474461317062,0.00032929860753938556,0.022596096619963646,-0.010630517266690731,-0.011725859716534615,-0.040951259434223175,0.15624764561653137,-0.03220639005303383,-0.05397740378975868,0.026193412020802498,-0.007216546684503555,0.002326828660443425,0.0039005358703434467,-0.18545976281166077,-0.04358470067381859,0.053024910390377045,-0.03714503347873688,-0.04225616157054901,-0.1696072667837143,-0.15424105525016785,0.021480202674865723,-0.02637256123125553,-0.023910215124487877,-0.02617795392870903,-0.01460683811455965,-0.010748404078185558,-0.005863788537681103,-0.06848010420799255,-0.09761218726634979,-0.06557399034500122,0.18093977868556976,-0.07720588892698288,-0.0582490935921669,-0.02039017528295517,-0.01858498342335224,-0.05468647554516792,-0.08820450305938721,0.06399360299110413,-0.07361693680286407,-0.08417870849370956,-0.07403790205717087,-0.12260918319225311,-0.023534584790468216,-0.10643057525157928,0.04887218773365021,0.02300438843667507,0.02491755783557892,0.03341570496559143,0.07099596410989761,0.028843458741903305,0.04961591213941574,-0.004283923655748367,-0.03823298588395119,-0.01732335053384304,0.033189114183187485,-0.06033117696642876,-0.03790061175823212,-0.03344161435961723,0.0009973887354135513,-0.023129992187023163,0.018858304247260094,-0.0825880616903305,0.0003445770125836134,-0.01615285500884056,0.01151910051703453,-0.049397192895412445,-0.029051197692751884,0.0036346139386296272,0.05934741348028183,-0.001155962236225605,-0.0028530657291412354,-0.037849217653274536,-0.02338150143623352,0.0030687102116644382,-0.04051266983151436,-0.0804293155670166,-0.04891620948910713,-0.05533560737967491,0.07106593996286392,-0.08336392790079117,-0.014885957352817059,-0.00580953061580658,-0.012209605425596237,0.07117466628551483,-0.04669315740466118,-0.027410056442022324,0.01875249482691288,-0.037834540009498596,-0.031178252771496773,0.026594964787364006,-0.08670109510421753,-0.005568761844187975,0.01538544986397028,-0.007539980113506317,0.037115272134542465,0.05448611453175545,-0.02576436474919319,0.012467951513826847,0.022001154720783234,0.006901542190462351,0.02047831378877163,-0.035190049558877945,0.012179682962596416,-0.014882124960422516,-0.020788870751857758,-0.04547950252890587,-0.01850573904812336,-0.034799523651599884,-0.015931125730276108,0.010369570925831795,0.0014944326831027865,-0.01158976275473833,-0.049897342920303345,0.023665592074394226,-0.04322202876210213,0.03495306894183159,0.0338561087846756,0.016266370192170143,-0.0069473180919885635,-0.01000911183655262,-0.0454367958009243,0.018865399062633514,0.03265092149376869,0.0216685701161623,-0.0014519697288051248,-0.05147697404026985,-0.12653136253356934,0.07882234454154968,-0.04529167711734772,-0.05036485940217972,-0.038324397057294846,-0.08289231359958649,-0.04422527924180031,0.036986999213695526,-0.04284491389989853,-0.018899239599704742,-0.038363516330718994,0.02953520230948925,0.054306890815496445,0.1816207319498062,0.07039221376180649,0.025746814906597137,0.10775032639503479,0.09353519976139069,0.036104872822761536,0.38956594467163086,0.0007118364446796477,0.05046895891427994,0.04203411936759949,0.0786617249250412,0.09700058400630951,0.1251300722360611,-0.06398427486419678,-0.15337221324443817,-0.017368000000715256,-0.09883035719394684,-0.1558295339345932,-0.05538680776953697,-0.007841602899134159,-0.037682585418224335,-0.025680886581540108,-0.010090168565511703,0.017455987632274628,-0.3924584686756134,-0.019812528043985367,0.030249550938606262,0.07754606008529663,0.09796740859746933,0.09830699115991592,0.03885455057024956,-0.030149931088089943,0.0081197340041399,-0.03570505231618881,0.07634922862052917,0.010478321462869644,-0.1196269616484642,-0.043213021010160446,-0.04249488562345505,-0.060899145901203156,-0.08046985417604446,-0.05389571562409401,-0.30743876099586487,-0.056608155369758606,-0.06621570140123367,-0.004028791096061468,-0.08458074182271957,-0.12144067883491516,-0.05818403884768486,0.03522021323442459,0.06985591351985931,0.06548494100570679,0.06052999198436737,0.06936565786600113,-0.007619271520525217,0.006618456915020943,0.02733495458960533,0.0336780808866024,0.03237944468855858,0.012284453958272934,0.20650191605091095,-0.06295187771320343,-0.0542064793407917,-0.05715668946504593,-0.07107066363096237,0.00798348244279623,-0.11909312754869461,-0.04449453204870224,-0.05436655133962631,-0.01030228566378355,-0.023718368262052536,-0.02774224802851677,-0.3024381995201111,0.016491422429680824,0.04319809377193451,0.05380583554506302,0.020929692313075066,0.0468718521296978,-0.203790545463562,0.04446686431765556,0.028938615694642067,0.015475623309612274,0.04783586040139198,0.026978077366948128,0.30451157689094543,-0.06936824321746826,-0.2705516815185547,-0.05068818852305412,-0.12398860603570938,-0.10193800926208496,-0.03092988394200802,-0.27271702885627747,-0.18385717272758484,-0.006801373790949583,0.026411820203065872,0.001013011671602726,0.010367943905293941,0.01537140179425478,-0.003485690802335739,0.012592354789376259,-0.06268182396888733,0.04565562680363655,0.17337606847286224,-0.14698293805122375,0.2576064169406891,0.15416106581687927,-0.014755276963114738,0.4858534634113312,-0.20182210206985474,-0.145116925239563,-0.09534329175949097,-0.11229903995990753,-0.193118616938591,-0.07369779795408249,0.05412892997264862,-0.0034201997332274914,0.2150440216064453,-0.015386927872896194,-0.0011306630913168192,0.05923201143741608,-0.04074973985552788,0.19905441999435425,-0.05282716080546379,-0.17476122081279755,0.11300761252641678,-0.19793635606765747,-0.19240309298038483,-0.002350912429392338,-0.15981021523475647,-0.1466531604528427,0.0019221336115151644,-0.2986198663711548,0.33964666724205017,-0.04886665195226669,-0.14113947749137878,0.10041212290525436,0.08809728175401688,0.0362609438598156,0.10218275338411331,-0.17482706904411316,0.4011324644088745,0.3427583873271942,0.41170647740364075,0.05610101297497749,-0.1516530066728592,-0.03883671388030052,0.18081389367580414,0.2867034673690796,-0.12088970839977264,0.02307829260826111,0.34690338373184204,-0.11525268107652664,0.07790809869766235,-0.10047150403261185,-0.07212060689926147,0.29334017634391785,-0.15641577541828156,0.027291959151625633,0.12636540830135345,0.004510239232331514,0.23249809443950653,0.12505336105823517,0.13718891143798828,0.04269798845052719,0.23487231135368347,-0.41447076201438904,-0.10503166913986206,-0.1513877511024475,0.2213689535856247,-0.2530985474586487,-0.34836599230766296,-0.14480721950531006,-0.2096887230873108,0.012341328896582127,-0.02604896016418934,0.027007123455405235,0.014386235736310482,0.00035330234095454216,-0.03879925608634949,0.07418965548276901,0.15431953966617584,0.1160551980137825,0.06846214085817337,0.08542122691869736,0.09480199962854385,-0.08819140493869781,-0.1342131644487381,-0.02235444262623787,-0.029755616560578346,-0.068627268075943,-0.05899198725819588,0.05633575841784477,0.08881896734237671,0.10761723667383194,0.029328137636184692,0.05192185193300247,-0.09167466312646866,-0.06706234812736511,-0.07203123718500137,-0.06838569045066833,0.0023487156722694635,-0.03468010202050209,0.03832358866930008,-0.0009668832644820213,0.0250072218477726,-0.004392437171190977,0.01203144621104002,0.023740842938423157,-0.08163490146398544,0.07147151231765747,0.11067963391542435,0.09488866478204727,0.06275351345539093,0.08621127903461456,-0.042966004461050034,0.07000384479761124,0.13597619533538818,-0.08838315308094025,0.039349645376205444,0.001337789697572589,0.031199317425489426,-0.04751105234026909,-0.05690121278166771,-0.016985880210995674,-0.026722082868218422,-0.025608545169234276,0.1445596069097519,-0.0796513557434082,-0.06649748235940933,-0.0022341881413012743,-0.002692657522857189,0.012495934031903744,0.2077983021736145,-0.0011705857468768954,0.009661505930125713,-0.01500375010073185,-0.01074980664998293,-0.007751020602881908,-0.144326850771904,0.01637887954711914,0.006368597038090229,-0.03130798041820526,0.0033339443616569042,-0.006055949255824089,0.023923100903630257,-0.002795798471197486,0.022641826421022415,-0.03688265010714531,-0.035646941512823105,-0.09191162139177322,0.013402016833424568,0.01870575360953808,-0.007633647415786982,0.007671318016946316,0.0233877282589674,0.01210116408765316,-0.042680684477090836,0.015418623574078083,0.051901381462812424,-0.04045268893241882,-0.016733231022953987,0.013660409487783909,-0.09220943599939346,0.014813942834734917,0.002016971353441477,0.007752804085612297,-0.006019233725965023,0.019457664340734482,0.0612420029938221,0.0417187362909317,0.0383296012878418,-0.003917704336345196,0.02847132459282875,-0.029157545417547226,-0.28787416219711304,0.10430706292390823,0.016482794657349586,0.01844399981200695,0.04317368194460869,0.1102326288819313,-0.24861295521259308,-0.05252333730459213,-0.025946663692593575,-0.017369022592902184,-0.030962703749537468,-0.03416600823402405,0.13949164748191833,-0.03348284587264061,0.007069143000990152,0.014648192562162876,-0.023151805624365807,-0.024097483605146408,-0.12020870298147202,-0.030899766832590103,-0.10574480146169662,0.07700517028570175,-0.008260310627520084,0.07499754428863525,0.1025923639535904,0.019265104085206985,-0.06681740283966064,0.03829266503453255,-0.03045106865465641,0.0066447812132537365,0.15348346531391144,-0.023896971717476845,-0.016823096200823784,0.05363905802369118,-0.033095937222242355,-0.03442864120006561,-0.013776478357613087,0.0017170605715364218,-0.02078697457909584,-0.039390843361616135,-0.022289587184786797,-0.013052958063781261,-0.00978176761418581,-0.01696106232702732,0.02046932466328144,-0.028721658512949944,0.011085170321166515,0.050059571862220764,0.02174222469329834,-0.0608617328107357,-0.07805389165878296,-0.030275840312242508,-0.043272342532873154,-0.01975792460143566,-0.002312911208719015,0.04126501455903053,0.032140959054231644,0.03404495120048523,0.002468084217980504,0.06095166504383087,0.0479007363319397,0.007703698705881834,-0.00990684237331152,0.004499159753322601,-0.01712968572974205,-0.013165097683668137,0.01622609980404377,-0.002904488705098629,-0.014089695177972317,0.0048104869201779366,-0.04714490845799446,-0.013318242505192757,-0.03171354904770851,-0.03255929425358772,-0.05817440524697304,0.019332047551870346,-0.03183386102318764,-0.0066797565668821335,-0.05977100133895874,-0.017806945368647575,-0.0003480739542283118,0.02179553732275963,-0.007472035940736532,0.01634800434112549,-0.01755429245531559,0.013919904828071594,0.001467031193897128,0.01957879774272442,0.008969403803348541,-0.01948998123407364,0.034812651574611664,-0.0444180965423584,-0.021934520453214645,-0.026753326877951622,3.4482840419514105e-05,-0.04057221859693527,-0.016573624685406685,-0.00016250750923063606,-0.019018029794096947,-0.0020840836223214865,-0.020994087681174278,-0.008735811337828636,-0.001189400558359921,0.0017654243856668472,-0.0020121384877711535,0.041866857558488846,-0.013634688220918179,0.014766590669751167,0.02359892800450325,0.008264617063105106,0.00641860906034708,0.016878396272659302,-0.0017389764543622732,0.025731472298502922,0.022984841838479042,0.0027582610491663218,-0.0052885147742927074,0.02826092205941677,-0.03968880698084831,0.006197168026119471,0.000902768864762038,0.02183692902326584,-0.01089203916490078,0.021624095737934113,-0.029716888442635536,-0.0395437590777874,-0.01869959570467472,-0.010447904467582703,-0.018670368939638138,0.0022374989930540323,-0.008581925183534622,-0.04250437766313553,-0.00227213348262012,-0.025003308430314064,0.005814553704112768,-0.017365962266921997,0.016742277890443802,0.026715682819485664,3.214454045519233e-05,0.007957776077091694,-0.013196801766753197,0.018866660073399544,0.01194999273866415,0.010780110955238342,-0.04952633008360863,-0.0214273352175951,-0.028467757627367973,-0.09126382321119308,-0.07128891348838806,-0.06968071311712265,-0.01612592488527298,0.006541623268276453,-0.011779925785958767,0.026609789580106735,0.04879458621144295,0.05834633484482765,0.012288413941860199,-0.0010677366517484188,0.0034160178620368242,-0.01494734175503254,-0.009537287056446075,-0.0125425411388278,0.008539530448615551,-0.0057920427061617374,0.006949012633413076,-0.01164312195032835,0.005623070057481527,0.022136826068162918,0.05357365682721138,-0.020224679261446,-0.012528015300631523,-0.0175239946693182,-0.056760042905807495,-0.04200388491153717,0.0555291511118412,0.006695504300296307,0.012302812188863754,0.019306642934679985,-0.07913894206285477,-0.03561818227171898,0.0001596016518305987,0.028672540560364723,0.02775641717016697,-0.009988288395106792,-0.05793476477265358,-0.0001920982904266566,-0.012394635006785393,-0.02870824560523033,0.012027882039546967,0.011089767329394817,-0.005116423591971397,0.015747705474495888,0.021019354462623596,-0.07870393991470337,-0.1451164036989212,-0.10066094249486923,-0.08130217343568802,-0.06661393493413925,-0.04723649471998215,0.059145357459783554,0.08609553426504135,0.008196208626031876,0.11267269402742386,0.10729048401117325,0.02159581333398819,-0.06681321561336517,-0.11143764853477478,-0.09034815430641174,-0.004220040049403906,0.005502699874341488,-0.028121018782258034,0.04764214903116226,0.047826994210481644,0.002385053550824523,0.01396283507347107,0.06870593130588531,0.0037870050873607397,-0.0058747511357069016,-0.025328241288661957,-0.0512598380446434,-0.020109985023736954,-0.0337911881506443,0.0967714935541153,-0.08539996296167374,-0.11501894146203995,-0.0679408460855484,-0.054296236485242844,-0.012178474105894566,0.02958356775343418,-0.04149538651108742,-0.1350102424621582,0.09351406246423721,-0.021136071532964706,0.0386885441839695,-0.015571634285151958,-0.03820982947945595,0.03499002754688263,-0.00981626845896244,-0.0005037737428210676,-0.0030086643528193235,0.0034307639580219984,0.008066799491643906,0.048741113394498825,-0.03932564705610275,-0.027515210211277008,0.01605147495865822,-0.040967632085084915,0.04103687033057213,0.026736386120319366,-0.027771465480327606,0.07115300744771957,0.0053601316176354885,0.0031335086096078157,0.043628234416246414,0.008149400353431702,-0.0031475811265408993,0.026755668222904205,-0.0452532060444355,0.01762433908879757,0.019933689385652542,-0.03244893252849579,-0.07099748402833939,0.013236667029559612,0.049999527633190155,-0.0421590581536293,0.025631284341216087,0.0036309596616774797,-0.024320878088474274,-0.006417947821319103,0.13941113650798798,-0.004294494166970253,0.04081230238080025,0.04552840068936348,-0.00016511086141690612,0.0395660400390625,0.07276615500450134,0.06490479409694672,-0.012268892489373684,0.023304391652345657,0.029554447159171104,-0.03531194105744362,0.13281267881393433,-0.003090349957346916,0.05281586945056915,0.0488860197365284,0.15640847384929657,-0.04813048988580704,-0.02971869893372059,-0.02151663228869438,-0.03406734764575958,-0.038315366953611374,-0.08621401339769363,-0.14478586614131927,0.28587034344673157,-0.004427957348525524,0.005054109264165163,0.011660980060696602,0.0036185726057738066,-0.007311341818422079,0.020445825532078743,-0.2366057187318802,0.2643449306488037,-0.07644432783126831,0.06962324678897858,0.013544753193855286,0.11359411478042603,0.024167610332369804,-0.1974383145570755,-0.013654716312885284,-0.1891067624092102,-0.005015705246478319,-0.0006714502233080566,-0.03197062015533447,-0.007034787442535162,-0.05787115916609764,-0.04174729436635971,-0.06947001069784164,-0.009413403458893299,0.0356505922973156,0.05122089385986328,0.09622322767972946,0.0005259734462015331,-0.03353650122880936,0.33464285731315613,0.014481504447758198,0.20193736255168915,0.013333187438547611,-0.05968492850661278,-0.09999707341194153,-0.33079397678375244,-0.09123770147562027,0.17896583676338196,0.23099063336849213,-0.33897554874420166,0.0830095112323761,-0.03856393322348595,0.09859268367290497,-0.013706914149224758,0.11157645285129547,0.07031913846731186,-0.058763500303030014,-0.08932067453861237,0.04250149428844452,0.0048293909057974815,0.10491476953029633,-0.10122036188840866,-0.13615070283412933,0.21174930036067963,0.0721796527504921,-0.12883463501930237,-0.10880078375339508,-0.020582476630806923,-0.0049540139734745026,-0.1930917501449585,0.17913050949573517,0.149948850274086,0.05509359762072563,0.0027514633256942034,-0.0018323302501812577,0.07204939424991608,0.07538420706987381,-0.14276835322380066,-0.02455553039908409,-0.09103091806173325,-0.23690249025821686,-0.060114212334156036,0.12732858955860138,-0.1284174621105194,-0.26093900203704834,-0.12917156517505646,0.04604126513004303,-0.037167370319366455,0.03320061415433884,-0.018176142126321793,-0.00023419245553668588,0.012320807203650475,0.007704785093665123,-0.019720640033483505,-0.01156535279005766,0.0012150839902460575,0.04820074886083603,-0.04826216772198677,-0.024746224284172058,0.0008043554844334722,0.04418863356113434,-0.010114558041095734,-0.004515478853136301,-0.008842501789331436,-0.038560837507247925,0.014432696625590324,0.02023572288453579,0.05106036737561226,0.06613098084926605,0.03241785243153572,-0.02625950425863266,0.020585989579558372,0.033565547317266464,-0.010559103451669216,-0.030136838555336,-0.01429892610758543,-0.029731901362538338,0.04362025484442711,-0.005346519406884909,-0.07014485448598862,-0.02754446677863598,-0.009361286647617817,-0.04488176479935646,0.028928037732839584,0.040552426129579544,0.05860695615410805,0.07930728793144226,0.009733646176755428,-0.017225448042154312,0.03348080813884735,0.02490784041583538,0.04416605085134506,0.0633048266172409,0.012371138669550419,0.02503710612654686,-0.02687341719865799,-0.03661660477519035,-0.04982142522931099,-0.05585762858390808,-0.05183471739292145,-0.36980411410331726,0.008269257843494415,0.013540408574044704,-0.021772881969809532,-0.025963714346289635,-0.018873363733291626,-0.028081683441996574,0.014074625447392464,0.027207763865590096,0.05772063881158829,0.06354090571403503,0.06556534767150879,0.08265788853168488,-0.02646501734852791,-0.04479377716779709,-0.023176224902272224,-0.035089749842882156,-0.05332320183515549,0.14842426776885986,-0.013623261824250221,-0.018206937238574028,-0.03889709711074829,-0.014256731607019901,-0.038893043994903564,-0.022562073543667793,-0.02296636253595352,-0.013554209843277931,-0.005097909364849329,-0.012053975835442543,0.01623370125889778,-0.0691596120595932,0.02117796428501606,0.0034763594157993793,0.004000519402325153,0.01614254154264927,-0.04626315459609032,-0.21610721945762634,-0.008809640072286129,-0.008427468128502369,0.0063374238088727,0.008662323467433453,0.014860804192721844,0.3428594768047333,-0.028878631070256233,0.007574314717203379,-0.02689177729189396,0.0008858256624080241,-0.015889331698417664,-0.005234266631305218,0.05324718356132507,-0.09752875566482544,-0.09240250289440155,-0.011928943917155266,0.010074876248836517,0.01123100146651268,0.049350906163454056,0.052640341222286224,0.06800154596567154,0.03142266720533371,0.03535816818475723,0.045128438621759415,-0.04522179067134857,-0.0609569326043129,-0.0954224169254303,-0.10445032268762589,-0.10902472585439682,0.024704810231924057,-0.0034873061813414097,-0.013315374031662941,0.05310755595564842,-0.007349994964897633,0.03225494921207428,0.024641403928399086,-0.004006296396255493,0.03620843589305878,0.030185464769601822,-0.030902402475476265,-0.0010743009625002742,-0.03569073975086212,-0.018296489492058754,-0.047124866396188736,-0.15648670494556427,-0.11696218699216843,-0.13066412508487701,0.009502960368990898,-0.027677541598677635,0.001136103761382401,-0.012975255027413368,-0.0647268146276474,0.060680072754621506,0.025803210213780403,0.02275073155760765,-0.05726051703095436,0.002247459487989545,-0.035454604774713516,0.025870908051729202,0.04498112201690674,-0.04827341064810753,-0.057207588106393814,-0.01181187853217125,0.006127853412181139,-0.014012734405696392,0.012971639633178711,-0.030435193330049515,-0.05201290175318718,0.0030456017702817917,-0.01911601983010769,0.016140710562467575,-0.046551235020160675,0.01765677146613598,0.019021235406398773,0.01698903925716877,-0.02290940470993519,0.016830988228321075,0.006402548402547836,-0.023593543097376823,0.0026472993195056915,0.0031329698394984007,0.010601267218589783,0.01443407591432333,-0.04725915193557739,-0.00912152137607336,-0.018170099705457687,-0.019501693546772003,0.020988695323467255,0.0038052755407989025,0.046511467546224594,-0.03194601833820343,-0.05695677548646927,0.033714957535266876,0.011578107252717018,0.008930101059377193,-0.039620108902454376,0.012236104346811771,0.04998442158102989,0.0009915254777297378,0.010388503782451153,-0.03166812285780907,-0.031597480177879333,0.011238540522754192,-0.06341800838708878,-0.021358223631978035,-0.03609740361571312,0.012350283563137054,-0.03671495243906975,-0.0318787507712841,-0.006838264875113964,0.06044447422027588,0.0048034777864813805,0.0030000635888427496,-0.09432743489742279,0.011134973727166653,-0.09599962085485458,-0.07421418279409409,-0.05429739132523537,-0.026295743882656097,0.033102598041296005,0.037617526948451996,0.039298515766859055,0.09436288475990295,0.03788524121046066,0.0722484141588211,0.021001556888222694,-0.021651484072208405,0.0347316712141037,-0.04787557199597359,0.01502896472811699,-0.01235152781009674,-0.027208732441067696,-0.013075877912342548,-0.023282727226614952,0.01698547974228859,0.043270841240882874,-0.0014537987299263477,0.028331657871603966,0.03448346257209778,0.05288008227944374,0.15096041560173035,0.08077921718358994,0.11466846615076065,0.029467206448316574,0.027049943804740906,0.012931711040437222,0.042394883930683136,0.07854149490594864,-0.04101971536874771,-0.015605797991156578,0.045471373945474625,-0.09256146848201752,0.003948871977627277,-0.03868047893047333,0.07254380732774734,0.1455274075269699,-0.08935683220624924,-0.03456568717956543,-0.12955151498317719,-0.1026996597647667,0.003467242233455181,-0.010980909690260887,0.005694426596164703,-0.054340627044439316,-0.006119962781667709,0.016653334721922874,-0.0018185204826295376,0.14345750212669373,0.009995774365961552,-0.15365758538246155,-0.03981562703847885,-0.1335936337709427,-0.03512842208147049,0.22455552220344543,0.06646974384784698,0.12304918467998505,0.08672048151493073,0.1700517237186432,0.001835207105614245,0.09410617500543594,0.03575678914785385,0.020699603483080864,0.09678611159324646,0.03209613636136055,-0.006151746027171612,0.036083661019802094,-0.06919454783201218,-0.18486271798610687,-0.11781470477581024,-0.08867967128753662,-0.05684299021959305,0.10759533941745758,0.03588602691888809,0.059079281985759735,0.07817204296588898,0.020021159201860428,-0.01394159346818924,0.046010732650756836,0.007107425481081009,-0.0513114333152771,-0.01798294484615326,-0.09689266234636307,-0.025537217035889626,-0.03339069336652756,0.010300352238118649,-0.000717407965566963,-0.019494106993079185,-0.032035455107688904,-0.030088061466813087,-0.015397457405924797,0.020264282822608948,0.015655329450964928,-0.023577328771352768,-0.035401977598667145,-0.006501753348857164,0.0030135184060782194,0.028561465442180634,0.04367128759622574,0.01672600954771042,0.046631693840026855,0.03286006674170494,0.04254019632935524,-0.034048814326524734,-0.013214546255767345,-0.0651307925581932,-0.023174496367573738,-0.02475457638502121,-0.01817820779979229,0.00709805591031909,-0.0027869807090610266,0.03358227387070656,0.038638561964035034,-0.006943927146494389,0.043123625218868256,0.03923306241631508,0.03259867802262306,0.062308911234140396,0.036672692745923996,0.07095275819301605,0.044388145208358765,0.07882930338382721,0.019167255610227585,0.08100888133049011,0.0030719353817403316,0.02390669845044613,0.07433046400547028,0.00457176985219121,-0.045559078454971313,0.021889857947826385,-0.03105982393026352,-0.0009304892155341804,-0.06531281769275665,-0.03925330191850662,-0.01653851754963398,-0.04437575116753578,-0.027126815170049667,0.004011040087789297,0.014982993714511395,-0.00835571438074112,-0.007551916409283876,0.010723654180765152,-0.003970384132117033,0.010624810121953487,-0.03153146058320999,0.009689305908977985,0.05449795722961426,0.013068676926195621,0.056578174233436584,0.012988436035811901,0.02549625001847744,-0.0064743878319859505,-0.011248217895627022,-0.003136655781418085,-0.03839421272277832,-0.01763448305428028,0.012478645890951157,-0.0011224501067772508,-0.03150906786322594,0.021271198987960815,-0.054181039333343506,0.01599433831870556,0.0011649837251752615,-0.0022035441361367702,0.02390005812048912,0.06704210489988327,-0.01838579587638378,0.022535141557455063,0.013063264079391956,0.002594888210296631,0.009445372968912125,-0.02373097650706768,-0.02097044326364994,-0.024925848469138145,-0.04403876140713692,-0.05228663235902786,-0.37243422865867615,-0.05156852677464485,-0.010814446955919266,0.09743677824735641,0.2356877326965332,-0.10832610726356506,-0.011130349710583687,-0.003790143644437194,-0.0326509028673172,-0.02196327969431877,-0.019411275163292885,0.04150122404098511,0.02853558026254177,-0.01821957528591156,-0.0032501136884093285,0.13338297605514526,-0.25846555829048157,0.10076011717319489,-0.13738779723644257,-0.07439908385276794,-0.1879335343837738,-0.013080309145152569,-0.029329350218176842,-0.03256082162261009,0.2867744266986847,0.2912229001522064,-0.02398521453142166,-0.33843520283699036,0.2613339126110077,-0.04532097280025482,-0.1022777408361435,0.009973587468266487,0.07651317119598389,-0.09747076034545898,0.01673249714076519,0.1160559132695198,-0.06254363059997559,0.08031722903251648,-0.005681796930730343,0.03851194679737091,0.23164647817611694,0.06195003539323807,-0.14150188863277435,-0.09833262115716934,-0.5945442318916321,0.07517074048519135,-0.07825266569852829,0.050407346338033676,0.46335887908935547,0.09678258001804352,0.04417489096522331,-0.008812794461846352,0.08860501646995544,0.047993820160627365,0.04846201092004776,0.06105794757604599,-0.1011262834072113,0.18658792972564697,-0.11823094636201859,-0.148469015955925,-0.12951120734214783,-0.018849845975637436,-0.05995279923081398,0.111115463078022,-0.1885812133550644,0.03443246707320213,0.012492507696151733,0.0391935296356678,0.06474197655916214,0.03295431658625603,0.06064177677035332,0.07099302858114243,0.017493199557065964,-0.16854041814804077,0.028932560235261917,0.23191066086292267,-0.07283809036016464,0.05888744071125984,0.053428638726472855,-0.2730410695075989,-0.17165745794773102,-0.37006574869155884,0.13957016170024872,-0.06519802659749985,-0.055931758135557175,-0.09266988188028336,-0.08979223668575287,-0.004863373935222626,-0.01851498894393444,-0.007021433673799038,-0.020934484899044037,-0.03983200341463089,0.00013066960673313588,0.07470178604125977,-0.06487108767032623,-0.0015712662134319544,0.041573476046323776,0.0022823999170213938,-0.023796161636710167,0.024474287405610085,-0.008756850846111774,0.042539432644844055,0.03364419937133789,-0.007996412925422192,0.007172452285885811,-0.029739985242486,-0.100718654692173,0.01484720129519701,-0.026203440502285957,0.00017729625687934458,-0.02818467654287815,0.011659828014671803,0.04286589100956917,0.02632269635796547,0.022024784237146378,0.012566816993057728,0.019407210871577263,0.027388934046030045,-0.04536052793264389,0.0030224034562706947,0.005961404647678137,0.043830275535583496,0.05167330056428909,0.03323647752404213,-0.047739334404468536,-0.017380932345986366,0.0021502075251191854,0.04568209871649742,0.0063247946090996265,-0.05596034973859787,-0.02446903847157955,0.0038587749004364014,-0.026062704622745514,0.014584851451218128,0.06768420338630676,-0.04350072145462036,-0.011983760632574558,-0.03443462774157524,-0.020821377635002136,-0.027959497645497322,0.08248484134674072,-0.02306198514997959,-0.02963590994477272,-0.05701780319213867,0.009692729450762272,0.003932958003133535,-0.026773640885949135,0.10552846640348434,0.07006397843360901,0.03192845731973648,0.06198723986744881,0.03764661028981209,0.09888729453086853,0.011181033216416836,0.06991124153137207,-0.004260426852852106,0.04412822797894478,-0.0613311342895031,-0.042943697422742844,-0.010434201918542385,-0.04322304576635361,-0.012816319242119789,-0.0692674070596695,-0.022234711796045303,-0.0553729422390461,0.013227666728198528,0.02338678576052189,-0.029651466757059097,0.03626086935400963,-0.018799766898155212,0.05565488338470459,0.013878613710403442,0.036974020302295685,0.02959292195737362,-0.0253005288541317,-0.035724442452192307,0.13488982617855072,0.018917694687843323,0.00487710814923048,0.03156584873795509,0.014370618388056755,0.011376948095858097,0.08352921158075333,0.03183641657233238,-0.028666650876402855,-0.020664023235440254,-0.016354739665985107,-0.0008079156395979226,-0.00963522307574749,0.0187826044857502,0.029997074976563454,0.05953089892864227,-0.03124704211950302,0.00571253290399909,0.05181627348065376,-0.03671877458691597,0.01921422779560089,-0.019383717328310013,-0.014468192122876644,-0.00859727244824171,-0.03332463279366493,0.013337953016161919,-0.02961193211376667,0.0002505336597096175,0.004565975163131952,0.12464538961648941,0.06917940080165863,-0.023703867569565773,-0.02062814310193062,-0.057172950357198715,-0.012933788821101189,-0.0963575690984726,0.021846704185009003,-0.005228725727647543,-0.014575440436601639,0.020085977390408516,-0.01580536924302578,-0.03991962596774101,0.0005780696519650519,-0.005609766114503145,0.008136110380291939,-0.029248565435409546,0.028953678905963898,0.15270987153053284,-0.028524335473775864,-0.001050736871547997,-0.07529489696025848,-0.02629459649324417,0.010278867557644844,0.05862320959568024,-0.13309581577777863,-0.020924489945173264,0.018350033089518547,0.03569392114877701,-0.00984449777752161,-0.02793353609740734,-0.22695909440517426,-0.025448724627494812,-0.04281194880604744,-0.058710649609565735,-0.025527838617563248,-0.028043929487466812,-0.14750830829143524,0.019067302346229553,0.005907808430492878,-0.006384197156876326,0.007239408791065216,-0.023068739101290703,0.053487297147512436,0.010046470910310745,0.051480814814567566,0.07598152756690979,0.007329278625547886,-0.06411086022853851,-0.05262947455048561,0.00019510966376401484,0.008364776149392128,0.02494000643491745,-0.007810630369931459,0.039089351892471313,-0.20389272272586823,0.030421044677495956,-0.013165882788598537,0.009415251202881336,-0.031010672450065613,0.02460857853293419,0.2891693711280823,-0.0060235075652599335,0.019377240911126137,0.028479628264904022,0.03205076977610588,-0.046559058129787445,0.005990564823150635,0.01750114932656288,0.04268817976117134,0.050226882100105286,0.015376947820186615,0.007859273813664913,0.18233677744865417,0.022660015150904655,-0.011458161287009716,-0.10559257864952087,-0.007940075360238552,0.018300671130418777,0.11811955273151398,-0.06503603607416153,-0.07717646658420563,-0.0014028078876435757,-0.04699764400720596,0.02051890268921852,0.11977702379226685,-0.018341144546866417,0.00016086274990811944,-0.01744747720658779,0.02324743941426277,-0.030382582917809486,0.008591447956860065,0.05715612322092056,-0.012552847154438496,-0.1832813322544098,-0.09466870129108429,-0.09550228714942932,-0.03482053428888321,0.010315248742699623,0.027367906644940376,0.04369644448161125,0.014880206435918808,0.044707924127578735,0.08353119343519211,0.015066077932715416,-0.060467932373285294,-0.08467688411474228,-0.018573954701423645,0.018062178045511246,-0.06088876351714134,-0.0058510820381343365,0.04866887629032135,0.03463203087449074,-0.11412447690963745,-0.11090502887964249,-0.054101619869470596,0.04005306214094162,0.05160362273454666,-0.03559058904647827,0.023296605795621872,0.012155541218817234,0.02211780846118927,0.03319886699318886,-0.03877772018313408,-0.04826287180185318,-0.020582664757966995,-0.006217019632458687,0.02336294949054718,-0.020082032307982445,-0.05669746920466423,-0.06256520003080368,0.02246863581240177,0.02377850003540516,-0.08055946975946426,0.017939742654561996,-0.01912493258714676,-0.0054452563636004925,0.012625678442418575,-0.012250639498233795,0.011511131189763546,0.019407732412219048,-0.01759105734527111,-0.038056958466768265,0.006891797296702862,-0.061252787709236145,-0.11208512634038925,0.029434513300657272,0.017469799146056175,0.0224958136677742,-0.0031688655726611614,-0.004655207507312298,-0.1503935307264328,0.01312969159334898,-0.022955454885959625,0.015529043972492218,0.04793659225106239,-0.03547573834657669,0.0379471480846405,-0.0069399201311171055,0.09348141402006149,-0.0425008125603199,-0.023543693125247955,6.460411532316357e-05,0.07440062612295151,0.025596756488084793,0.10491892695426941,0.012547998689115047,0.05564233288168907,0.06534260511398315,-0.027484230697155,-0.015600303187966347,-0.07183561474084854,-0.05161946266889572,0.08525630831718445,0.05851134657859802,-0.02934175729751587,-0.1478039026260376,-0.03825045004487038,-0.09798076748847961,0.062104661017656326,-0.099276103079319,-0.007501871790736914,-0.01471488643437624,-0.0615168921649456,-0.024340251460671425,-0.05546695739030838,-0.016784174367785454,0.007514545693993568,-0.032846707850694656,-0.23773697018623352,-0.18672697246074677,0.1432674676179886,0.07765422761440277,-0.07686324417591095,0.189187690615654,0.09066569060087204,0.10446809232234955,-0.048898134380578995,0.02245945855975151,-0.02570464462041855,0.08633575588464737,-0.06047139689326286,-0.03652472048997879,0.045097704976797104,-0.06332597136497498,-0.06194720417261124,-0.05702991783618927,-0.03566892445087433,-0.04314678907394409,0.009795133955776691,0.09520778805017471,-0.03387725353240967,0.006489105522632599,0.08428021520376205,0.02657843567430973,-0.00012940593296661973,0.023471908643841743,0.060146741569042206,-0.00615834491327405,-0.010682106018066406,0.03700383007526398,0.01623637229204178,-0.004835095256567001,-0.09292002767324448,0.01873897574841976,0.05950549244880676,0.03603309392929077,0.018763011321425438,