{"version":"0.7.0","architecture":"SlimmableContainer","config":{"submodels":[{"max_value":0.5,"model":{"version":"0.7.0","metadata":{"date":{"year":2026,"month":5,"day":7,"hour":12,"minute":23,"second":51},"loudness":-22.413389205932617,"gain":0.6370091418751208},"architecture":"WaveNet","config":{"layers":[{"input_size":1,"condition_size":1,"head":{"out_channels":1,"kernel_size":16,"bias":true},"channels":3,"kernel_sizes":[6,6,6,6,6,6,6,6,6,6,6,6,6,6,15,15,6,6,6,6,6,6,6],"dilations":[1,3,7,17,41,101,239,1,3,7,17,41,101,239,1,13,1,3,7,17,41,101,239],"activation":[{"type":"LeakyReLU","negative_slope":0.01},{"type":"LeakyReLU","negative_slope":0.01},{"type":"LeakyReLU","negative_slope":0.01},{"type":"LeakyReLU","negative_slope":0.01},{"type":"LeakyReLU","negative_slope":0.01},{"type":"LeakyReLU","negative_slope":0.01},{"type":"LeakyReLU","negative_slope":0.01},{"type":"LeakyReLU","negative_slope":0.01},{"type":"LeakyReLU","negative_slope":0.01},{"type":"LeakyReLU","negative_slope":0.01},{"type":"LeakyReLU","negative_slope":0.01},{"type":"LeakyReLU","negative_slope":0.01},{"type":"LeakyReLU","negative_slope":0.01},{"type":"LeakyReLU","negative_slope":0.01},{"type":"LeakyReLU","negative_slope":0.01},{"type":"LeakyReLU","negative_slope":0.01},{"type":"LeakyReLU","negative_slope":0.01},{"type":"LeakyReLU","negative_slope":0.01},{"type":"LeakyReLU","negative_slope":0.01},{"type":"LeakyReLU","negative_slope":0.01},{"type":"LeakyReLU","negative_slope":0.01},{"type":"LeakyReLU","negative_slope":0.01},{"type":"LeakyReLU","negative_slope":0.01}],"bottleneck":3,"head1x1":{"active":false,"out_channels":1,"groups":1},"layer1x1":{"active":true,"groups":1},"groups_input":1,"groups_input_mixin":1,"conv_pre_film":{"active":false,"shift":true,"groups":1},"conv_post_film":{"active":false,"shift":true,"groups":1},"input_mixin_pre_film":{"active":false,"shift":true,"groups":1},"input_mixin_post_film":{"active":false,"shift":true,"groups":1},"activation_pre_film":{"active":false,"shift":true,"groups":1},"activation_post_film":{"active":false,"shift":true,"groups":1},"layer1x1_post_film":{"active":false,"shift":true,"groups":1},"head1x1_post_film":{"active":false,"shift":true,"groups":1},"gating_mode":["none","none","none","none","none","none","none","none","none","none","none","none","none","none","none","none","none","none","none","none","none","none","none"],"secondary_activation":[null,null,null,null,null,null,null,null,null,null,null,null,null,null,null,null,null,null,null,null,null,null,null],"slimmable":null}],"head":null,"head_scale":0.004242123178090814},"weights":[1.30702543258667,3.3215670585632324,1.1189335584640503,-0.3695865869522095,-0.3961072862148285,-0.25461795926094055,-0.0020723436027765274,0.6687135100364685,0.208836629986763,-0.3576756417751312,-0.2072584182024002,-0.2992245852947235,0.03648064658045769,0.5365411043167114,0.18521128594875336,-0.30010148882865906,-0.3041214942932129,-0.11099843680858612,-0.17508374154567719,0.5778407454490662,0.30459466576576233,0.09059655666351318,-0.057570889592170715,-0.18422146141529083,-0.20272015035152435,-0.1615307778120041,-0.2536785900592804,0.015904301777482033,0.09015316516160965,-0.16958972811698914,-0.1660635769367218,-0.12558060884475708,-0.02954781800508499,0.09404072165489197,0.018873466178774834,-0.17329739034175873,0.034262336790561676,-0.23729313910007477,-0.2587265372276306,-0.04164903238415718,-0.08361475169658661,-0.16534243524074554,-0.043544016778469086,-0.09606014937162399,0.5240649580955505,-0.16713303327560425,-0.1611190140247345,-0.20193006098270416,-0.034716248512268066,-0.24496963620185852,0.6950894594192505,-0.057142287492752075,-0.0989593118429184,-0.17581512033939362,-0.045674245804548264,-0.07903946191072464,0.4904947280883789,0.07653117924928665,-0.27114978432655334,-0.11585526913404465,0.9561344385147095,-0.804561972618103,0.5644633173942566,0.5660197734832764,0.1648813635110855,-0.8755658268928528,0.33268603682518005,0.15633603930473328,-0.16383667290210724,-0.5454626679420471,-0.5047703981399536,0.7957592606544495,-0.27887094020843506,-0.05959933623671532,0.17986689507961273,-0.1438635289669037,-0.209188312292099,2.8947810278623365e-05,-0.14805197715759277,-0.2191620022058487,-0.3595452904701233,-0.02463536523282528,0.014614975079894066,-0.14969924092292786,0.3175124228000641,-0.2191912680864334,-0.3884727358818054,0.3905811309814453,0.22630414366722107,0.059887323528528214,0.2377198338508606,0.24981722235679626,0.7085357904434204,0.015174313448369503,-0.05426858365535736,0.04249201714992523,0.29629626870155334,-0.041361041367053986,-0.9205973744392395,0.09315935522317886,0.1611168533563614,0.2880820333957672,0.4061962366104126,-0.035283565521240234,-1.078187346458435,0.10950016230344772,-0.07686007022857666,0.02778233028948307,0.06871425360441208,-0.15690013766288757,0.169395312666893,-0.15597853064537048,-0.4127965271472931,-0.18202738463878632,0.06448501348495483,-0.01801115833222866,-0.09671292454004288,-0.1048259511590004,-0.031982578337192535,0.016693154349923134,-0.28404295444488525,0.05352124571800232,1.1248141527175903,-0.2856903076171875,-0.3531463146209717,-0.4254225492477417,-0.3863244652748108,0.2104400247335434,0.626089334487915,0.06069895252585411,0.24388231337070465,0.287049800157547,0.16305741667747498,-1.0398542881011963,0.8387899398803711,-0.4830055832862854,-0.4393569529056549,0.9925775527954102,0.3530982434749603,-0.41585075855255127,0.08880168944597244,0.12555673718452454,-0.6931739449501038,0.10875620692968369,0.012638361193239689,-0.4644293785095215,0.06598339229822159,-0.0004004674847237766,0.03348887711763382,0.03828277066349983,0.06955915689468384,0.22521160542964935,-0.2200159728527069,0.039686497300863266,-0.0409601554274559,-0.11313743144273758,0.12703965604305267,0.23821434378623962,0.27265453338623047,-0.06997331231832504,-0.05903075635433197,-0.0175686776638031,-0.2810609042644501,-0.16879643499851227,0.7444374561309814,-0.05633313208818436,-0.0021234892774373293,-0.028853533789515495,-0.1414165198802948,0.11050999909639359,0.06328613311052322,0.16687661409378052,-0.03291824087500572,0.0032808908727020025,0.0019561224617064,0.020448891445994377,0.5255043506622314,-0.1186671331524849,0.055525802075862885,0.07724865525960922,0.1351984292268753,0.2507795989513397,-0.08762777596712112,0.05114569887518883,0.033012304455041885,-0.01919289119541645,0.12137413769960403,0.35604795813560486,0.2419712245464325,0.0408765971660614,0.12677624821662903,0.2400888204574585,0.03570998087525368,-0.2873010039329529,0.24276500940322876,-0.10653458535671234,-0.16005337238311768,-0.16483862698078156,-0.18335804343223572,-0.19100560247898102,-0.18661978840827942,0.043239325284957886,-0.04003849998116493,-0.0657084509730339,1.050991177558899,0.34242385625839233,0.1092645600438118,0.9999834895133972,-0.9393397569656372,-0.5059546828269958,0.3352200388908386,-0.26881730556488037,-0.4631251096725464,0.03438694402575493,-0.2888072431087494,-0.4759054183959961,0.05018089339137077,-0.0414300374686718,0.11980271339416504,-0.2337905913591385,-0.20317643880844116,-0.21508216857910156,-0.332563579082489,-0.17251349985599518,-0.15963366627693176,-0.007201198022812605,-0.11302155256271362,-0.0025046938098967075,0.28611400723457336,0.14104993641376495,-0.021295560523867607,0.3935786187648773,0.2363019436597824,0.13885457813739777,0.2333195060491562,0.07340554893016815,-0.15034319460391998,-0.0949903056025505,-0.06188991293311119,0.008554141037166119,0.1379455029964447,0.1662791520357132,0.27041372656822205,0.3956008553504944,0.33738070726394653,0.2858644127845764,0.022426920011639595,0.0010436814045533538,-0.32904690504074097,-0.31998589634895325,-0.26509392261505127,-0.26252317428588867,-0.20553457736968994,-0.2630491256713867,-0.3305463492870331,0.12143992632627487,0.08732365071773529,0.0952964499592781,0.17868207395076752,-0.0017221850575879216,-0.6467998027801514,-0.1660536825656891,-0.0994177833199501,-0.08857741206884384,-0.1768956482410431,-0.012832128442823887,0.5358876585960388,-0.10083994269371033,-0.255332887172699,-0.2322360724210739,-0.31157124042510986,-0.028845923021435738,0.8064759969711304,0.18665184080600739,0.039765238761901855,0.01652270182967186,-0.32659733295440674,-0.07611753791570663,0.12829910218715668,-0.2703031599521637,0.020451288670301437,0.7183405160903931,-0.41334712505340576,0.48142924904823303,-0.12795603275299072,0.43462473154067993,0.221121683716774,-0.43190109729766846,-0.1767449527978897,0.3131115436553955,0.13946546614170074,0.07874064892530441,0.0820523127913475,0.28329911828041077,0.2125299870967865,0.338453471660614,-0.3110899031162262,-0.27843186259269714,-0.4669409394264221,-0.5194507241249084,-0.5485245585441589,-0.6802827715873718,0.3439173698425293,0.05765358358621597,0.24951855838298798,-0.007406253833323717,-0.030133988708257675,-0.07754389941692352,0.24544517695903778,0.1311485767364502,0.3134964406490326,0.09610455483198166,0.06945066154003143,-0.0004552197642624378,-0.31071916222572327,-0.1060420572757721,-0.21286359429359436,-0.17745208740234375,-0.12524423003196716,-0.0710827186703682,0.19663625955581665,-0.14253857731819153,-0.4813520312309265,-0.04502888396382332,0.07613451778888702,0.17526234686374664,0.6457276344299316,-0.07604202628135681,-0.11469033360481262,-0.28035640716552734,-0.3518993854522705,-0.196584090590477,0.09789694845676422,-0.14015363156795502,0.23452168703079224,0.5827949047088623,0.7190523743629456,0.42068395018577576,-0.1783396154642105,0.39531275629997253,-0.026699203997850418,-0.06660512089729309,-0.019126081839203835,-0.01640923134982586,0.21859441697597504,-0.08047124743461609,-0.14150987565517426,-0.14275801181793213,-0.17046557366847992,-0.27443885803222656,0.051181212067604065,0.4456644654273987,0.625174880027771,-0.07538896799087524,-0.4279293417930603,-0.0174857247620821,0.446616530418396,0.06044216826558113,-0.5028283596038818,-0.5274676084518433,0.42117300629615784,-0.015480786561965942,-0.39739763736724854,0.11000975221395493,0.14593945443630219,0.20176097750663757,0.1626879870891571,0.21728241443634033,0.10264108330011368,-0.17561061680316925,-0.21550332009792328,-0.3412700295448303,-0.23303963243961334,-0.17677253484725952,0.1334366500377655,-0.03611946478486061,-0.04016442224383354,-0.0393277071416378,-0.08104461431503296,-0.2642802298069,0.7984793782234192,0.10911671072244644,0.13960319757461548,0.13955402374267578,0.07319710403680801,0.17021100223064423,0.4712807536125183,-0.0555572472512722,-0.051795873790979385,-0.09243134409189224,0.04354827478528023,0.00536383967846632,0.38740605115890503,-0.2184760570526123,-0.297478049993515,-0.2899303436279297,-0.2802283465862274,-0.5189868807792664,-0.3213089406490326,0.012383869849145412,0.03126079589128494,0.02298964187502861,0.03750130906701088,0.14357873797416687,-0.42727723717689514,0.09509509801864624,0.09480750560760498,0.08360816538333893,0.04833243787288666,-0.06739822775125504,-0.2984897196292877,-0.19143542647361755,-0.2738799750804901,-0.2332848757505417,-0.17475441098213196,-0.3745570778846741,-0.5748720765113831,0.2005971074104309,-0.01698879711329937,0.07923726737499237,0.8952268362045288,0.5411559343338013,-0.29086053371429443,0.5635354518890381,-0.28598397970199585,0.44685736298561096,0.2892749607563019,-0.5819418430328369,0.002959485398605466,-1.0267513990402222,0.5880028009414673,0.2140997052192688,-0.5115162134170532,-0.20928475260734558,0.09591739624738693,0.029234381392598152,0.07805473357439041,0.14728432893753052,0.2058049738407135,0.07769391685724258,0.3740556836128235,0.07844088971614838,0.04410568252205849,-0.21476556360721588,-0.19141599535942078,-0.33320537209510803,-0.058259811252355576,0.5028321146965027,0.017607275396585464,-0.10251114517450333,-0.19235779345035553,-0.17933471500873566,-0.13664574921131134,0.015650907531380653,0.029246632009744644,0.030851559713482857,0.03744685649871826,0.04402690380811691,0.44492942094802856,-0.02773307077586651,-0.0596020370721817,-0.06689374148845673,-0.0894722193479538,-0.09568293392658234,0.4781147241592407,0.05835018306970596,0.03575568273663521,-0.02236570417881012,-0.08348964154720306,-0.13410837948322296,-0.1547822505235672,-0.05841146409511566,-0.02681152895092964,-0.06578360497951508,-0.06911937147378922,0.13817906379699707,0.1642809510231018,-0.10429348796606064,-0.16516418755054474,0.030263835564255714,-0.19829577207565308,-0.05698637664318085,-0.13957259058952332,0.10533655434846878,0.11718776077032089,-0.04399511590600014,-0.0007485585520043969,-0.3228854537010193,-0.15630726516246796,0.25091660022735596,-0.9496037364006042,0.2377682626247406,0.616701066493988,1.3473217487335205,0.7139873504638672,0.03187096491456032,-0.9947628378868103,-0.08071763068437576,0.3559025228023529,-0.9402825236320496,0.42870819568634033,-0.21878518164157867,-0.5376005172729492,-0.13060174882411957,-0.1368832290172577,0.647808849811554,-0.19597128033638,0.07484535872936249,0.021152691915631294,-0.09120799601078033,0.12251792848110199,0.8030477166175842,0.4936124086380005,-0.029412008821964264,-0.20501668751239777,-0.1257733851671219,-0.014760681428015232,0.5266262888908386,0.560827374458313,-0.14199768006801605,-0.05855169519782066,-0.14303633570671082,-0.09396231919527054,0.06123320758342743,0.0453975647687912,-0.07087785005569458,0.01026851311326027,0.14659090340137482,0.12732331454753876,0.10784436017274857,0.6167315244674683,-0.2241205871105194,-0.14628997445106506,0.11977957934141159,0.11358357220888138,-0.26354119181632996,0.17381177842617035,-0.21393930912017822,-0.030926711857318878,0.027305560186505318,0.09455396980047226,0.03110862709581852,0.42091104388237,-0.30997464060783386,-0.08060098439455032,-0.022252853959798813,-0.21147361397743225,-0.3080098628997803,-0.5170428156852722,-0.2246239185333252,-0.07780935615301132,-0.05256271734833717,-0.06551028788089752,-0.013460950925946236,0.048788994550704956,0.06354787945747375,0.05764244124293327,0.019152311608195305,0.07158712297677994,0.03150436654686928,0.03694772720336914,0.4885907471179962,-0.2931872010231018,0.4021841585636139,1.2089937925338745,-0.5376756191253662,0.17169205844402313,0.7638798952102661,-0.6197977066040039,-0.2906862497329712,0.3579956293106079,0.015856165438890457,-0.4656628370285034,0.7789937257766724,-0.7666855454444885,-0.026661081239581108,-0.456174373626709,0.3816540837287903,-0.22834551334381104,0.009365023113787174,0.03344976529479027,-0.20605818927288055,-0.06540407985448837,-0.378765732049942,0.41609251499176025,-0.04295311123132706,0.021437792107462883,0.17877502739429474,0.1760248988866806,0.3038872182369232,0.4484868347644806,-0.07424713671207428,-0.21491095423698425,-0.37759295105934143,-0.07453222572803497,0.3063207268714905,0.4629024267196655,0.028308318927884102,-0.045331645756959915,-0.30426451563835144,0.0713508203625679,0.30305036902427673,0.3306412994861603,0.03845776244997978,0.07418409734964371,0.04285226762294769,0.0827414020895958,0.06312577426433563,-0.11618051677942276,0.13419733941555023,0.1274527758359909,0.03024464100599289,0.05689346045255661,0.012443089857697487,-0.22572572529315948,-0.010770251043140888,-0.00994222890585661,-0.03519095852971077,0.07224246114492416,0.36498066782951355,0.4521513879299164,-0.12425428628921509,0.03625994548201561,0.21103186905384064,0.2942512035369873,0.4808799624443054,-0.00385064329020679,-0.29111456871032715,-0.19709578156471252,-0.20319846272468567,-0.12052937597036362,-0.015051871538162231,-0.3002833127975464,0.58039790391922,-0.037572093307971954,-0.39564862847328186,0.9726604223251343,-0.46652644872665405,0.20783399045467377,0.620029866695404,-0.440825879573822,-0.3823411762714386,0.38029715418815613,0.3560326397418976,0.35288798809051514,-0.3085879683494568,-0.13267487287521362,0.38754358887672424,-0.02450288087129593,-0.4754260182380676,-0.29649290442466736,0.05816357582807541,0.1045316830277443,0.09641817212104797,-0.07740771770477295,-0.039274729788303375,-0.6149988174438477,0.03032624162733555,-0.014289723709225655,0.04201336205005646,0.08450592309236526,0.21876704692840576,0.033708926290273666,-0.0002623460895847529,-0.028769608587026596,-0.22687794268131256,-0.15724560618400574,-0.13271449506282806,-0.5244171023368835,-0.008961734361946583,-0.11787494271993637,-0.1575925350189209,0.08137672394514084,0.2359103411436081,-0.2606264054775238,0.2799336314201355,-0.032176483422517776,0.22543101012706757,0.16768096387386322,0.14497563242912292,-0.05886797979474068,0.02092856541275978,0.038547761738300323,0.09043121337890625,-0.07023947685956955,0.07114064693450928,0.05324332043528557,0.01219920627772808,-0.13402876257896423,-0.3581830859184265,0.03087872639298439,-0.36044028401374817,0.6461849212646484,0.06659632921218872,-0.04465169832110405,0.2793356776237488,-0.10410761833190918,-0.47054681181907654,-0.42340776324272156,-0.07900405675172806,-0.03342081606388092,-0.18269340693950653,0.03610300272703171,0.1865750551223755,0.1580193191766739,0.21516716480255127,-0.08656617999076843,0.1943712681531906,-0.2211872786283493,-0.6784733533859253,0.11604113131761551,-0.4779745936393738,0.17541059851646423,0.0387270487844944,-0.47902002930641174,0.07389932125806808,0.880160927772522,0.22766676545143127,0.5002099871635437,0.470624715089798,-0.6465052962303162,0.19321544468402863,-0.34165066480636597,-0.10364014655351639,0.4014165997505188,-0.17031461000442505,0.03709091618657112,-0.1459561139345169,-0.3140450417995453,0.0337911881506443,0.22418291866779327,0.2090364396572113,0.12566234171390533,0.20067209005355835,-0.04596889764070511,0.30397433042526245,-0.041854821145534515,-0.2718629539012909,0.0001517878845334053,-0.011014365591108799,-0.23321695625782013,-0.18709112703800201,-0.1534661203622818,0.10030610859394073,-0.09351853281259537,-0.007371221203356981,-0.05065755918622017,0.10208726674318314,-0.25303471088409424,0.2294244021177292,0.1868477761745453,0.13197529315948486,0.03569187596440315,0.34495240449905396,0.22086258232593536,0.1720576286315918,-0.08611086755990982,-0.08128158003091812,-0.5021412968635559,-0.15335208177566528,-0.2882356643676758,-0.09041909128427505,-0.15312427282333374,-0.07137720286846161,0.033903855830430984,0.22231028974056244,0.40230247378349304,0.030807362869381905,0.1607602834701538,0.19233180582523346,0.17861992120742798,0.08083950728178024,0.04226882755756378,0.046736013144254684,0.07812367379665375,0.25036242604255676,-0.862018883228302,-0.1713351309299469,0.028721807524561882,-0.01363087072968483,-0.006500648334622383,-0.42260414361953735,-0.11749053746461868,0.008549973368644714,-0.0050352029502391815,0.05901918560266495,-0.28198331594467163,-0.12731914222240448,0.04140749201178551,0.1392892301082611,0.2464514970779419,0.5626707673072815,-0.8181506991386414,0.16951259970664978,-0.5255728363990784,-0.2001197189092636,-0.08312230557203293,-0.1466248482465744,-0.20247672498226166,-0.3407531678676605,-0.24141086637973785,0.19373570382595062,0.04477405175566673,0.1022271066904068,0.10424848645925522,0.19090554118156433,0.10344855487346649,-0.34093961119651794,-0.29622042179107666,-0.45595061779022217,-0.28422948718070984,0.05825414881110191,0.3946339786052704,-0.2365410476922989,-0.10938763618469238,0.029316358268260956,-0.12297266721725464,-0.2553116977214813,0.23313069343566895,0.24432863295078278,0.13209687173366547,0.017095768824219704,0.12007486075162888,0.17806661128997803,-0.3696030080318451,0.04537118971347809,-0.06653792411088943,-0.26070091128349304,-0.1688804030418396,0.2612147927284241,-0.20908473432064056,-0.00571274571120739,-0.0013010050170123577,-0.04460960626602173,-0.025386681780219078,0.07787785679101944,0.3096921741962433,-0.018512140959501266,-0.01724177971482277,0.018070759251713753,0.034187667071819305,-0.019153811037540436,-0.461017906665802,0.12590734660625458,0.11520115286111832,0.18279148638248444,0.21996186673641205,0.08126310259103775,-0.35202813148498535,0.25583788752555847,0.642112672328949,0.21390414237976074,0.7369756102561951,-0.25102609395980835,-0.5724326372146606,0.14500990509986877,-0.22475136816501617,-0.26466885209083557,0.35556623339653015,0.7031028270721436,0.4462583661079407,-0.793166995048523,-0.0525706484913826,0.6148866415023804,-0.6037275195121765,0.9378064274787903,-0.2040013074874878,-0.11128856986761093,0.04864571988582611,0.09613113850355148,0.15817923843860626,-0.03521652892231941,0.36687642335891724,0.15655072033405304,-0.049837689846754074,-0.06357117742300034,-0.0710277408361435,0.004899244289845228,-0.06626027077436447,-0.0463591031730175,-0.06532678753137589,0.17690600454807281,0.4078366458415985,0.38473978638648987,-0.35942381620407104,-0.08133281022310257,-0.035696446895599365,-0.03971974179148674,-0.0387849397957325,0.00921810045838356,-0.8311461210250854,0.06721089035272598,0.03390569984912872,0.03930523246526718,0.06336458772420883,0.02241872251033783,-0.05007878690958023,-0.002596702892333269,-0.011733575724065304,0.0543285608291626,0.2144179791212082,0.08010156452655792,-0.26943379640579224,-0.09164835512638092,-0.01324383169412613,0.09611667692661285,-0.05475665628910065,0.06264618039131165,0.3692554831504822,0.1061563715338707,-0.03589418902993202,-0.1545131504535675,0.22520896792411804,0.07185184955596924,0.20139488577842712,0.21327048540115356,-0.13153038918972015,0.06791473180055618,0.20972681045532227,0.2850988209247589,0.4631415903568268,-0.3332420885562897,0.3255727291107178,0.14772793650627136,0.015320800244808197,-1.1402708292007446,0.2875339090824127,-0.5983405113220215,-0.30233192443847656,0.3093647062778473,0.12282495200634003,-0.4923447370529175,0.06739264726638794,-0.16009148955345154,-0.4922828674316406,0.2958557605743408,0.07811161130666733,0.23875705897808075,0.27163949608802795,0.4754825830459595,0.04971929267048836,0.4633963406085968,-0.08030092716217041,0.22766105830669403,-0.07998107373714447,-0.25286561250686646,-0.05150020122528076,-0.4490472972393036,0.2067648023366928,0.18741263449192047,-0.2402900755405426,-0.40181905031204224,0.19040775299072266,0.12448614090681076,-0.5711005926132202,-0.26314467191696167,0.2279128134250641,-0.07268546521663666,0.09377322345972061,-0.1620209962129593,0.26710113883018494,-0.3724682331085205,0.35657837986946106,-0.03655664250254631,-0.04557463526725769,0.12091612815856934,-0.3186700940132141,0.3472696542739868,-0.29661867022514343,0.14093275368213654,-0.20122188329696655,0.15772652626037598,0.20283226668834686,0.06764499098062515,-0.8530210852622986,-0.07384062558412552,0.02346438355743885,-0.11852426081895828,-0.22546067833900452,-0.004937094170600176,-0.518203854560852,0.03519848361611366,-0.01110458467155695,-0.029775748029351234,0.0789225697517395,-0.35273581743240356,0.06634904444217682,0.0953996330499649,0.1612214595079422,0.2763819992542267,0.2031533420085907,0.9106756448745728,0.4737245738506317,-0.4134371280670166,-0.5875059962272644,0.2816961407661438,-0.22833001613616943,0.030411817133426666,-0.02300470508635044,1.5253174304962158,0.8631378412246704,-0.38303810358047485,-0.3499278128147125,0.30988308787345886,-0.2878812551498413,-0.3205614387989044,0.017739679664373398,0.5056308507919312,-0.08835282176733017,0.6807377934455872,0.223186656832695,-0.3763941526412964,-0.1684088259935379,-0.0400049202144146,-0.19626237452030182,-0.16187655925750732,-0.07735005021095276,-0.2752033472061157,-0.2888278067111969,-0.035860393196344376,0.09679535031318665,-0.17306897044181824,-0.4800454378128052,-0.5525882244110107,-0.4273119866847992,-0.36217382550239563,0.009059444069862366,0.054117076098918915,0.13990117609500885,0.19422069191932678,0.20293156802654266,0.0644143596291542,-0.028689738363027573,-0.002306817565113306,0.11340758949518204,0.2564166188240051,0.060522839426994324,-0.2783581614494324,-0.4256609380245209,-0.2328549027442932,0.24049344658851624,-0.001954262610524893,0.12415166199207306,0.12626498937606812,0.033633291721343994,0.11024803668260574,0.05811045318841934,-0.019966814666986465,0.03810199350118637,0.08753282576799393,0.23270109295845032,-0.03695464879274368,-0.237472802400589,-0.346749871969223,-0.05358338728547096,0.187135711312294,-0.07700777798891068,-0.10372905433177948,0.019401339814066887,0.024230649694800377,0.006905154790729284,-0.1007055789232254,-0.020738454535603523,-0.039726704359054565,0.10588390380144119,-0.10287843644618988,-0.08470633625984192,0.11136937886476517,-0.11846115440130234,-0.18938176333904266,-0.3612852990627289,-0.010563235729932785,0.043156418949365616,0.05400524288415909,0.015643758699297905,-0.07780775427818298,-0.045398131012916565,0.09854412823915482,-0.10274966806173325,0.07175228744745255,-0.03138867765665054,0.09399688988924026,0.04816623404622078,0.1257309466600418,-0.12523253262043,-0.2207901030778885,0.2136213779449463,0.2895842492580414,0.08079235255718231,0.2485421895980835,0.05456595867872238,0.21807590126991272,0.17506836354732513,0.1523078829050064,0.17700760066509247,0.18787215650081635,0.1779513657093048,0.10104689747095108,0.04643969610333443,-0.2943520247936249,-0.2308272421360016,0.09103120863437653,-0.04388032853603363,-0.1393231302499771,-0.12814369797706604,0.06032365560531616,0.1853843778371811,0.028654681518673897,-0.2511959969997406,-0.1841973513364792,-0.15389226377010345,-0.07383187860250473,-0.0355638712644577,0.26633715629577637,0.3016171455383301,-0.09580229222774506,0.06950397789478302,0.13542672991752625,0.030657043680548668,0.14923353493213654,-0.04803631454706192,0.0010444220388308167,0.04782237485051155,-0.17985861003398895,-0.0380609929561615,0.14243677258491516,0.1261402666568756,0.27945950627326965,0.46346548199653625,0.45254001021385193,0.18619312345981598,0.09723266959190369,-0.039418283849954605,0.12035753577947617,-0.11123288422822952,-0.07092902809381485,-0.038105182349681854,-0.052431490272283554,0.01081217173486948,-0.1690741330385208,-0.03298986703157425,-0.012001078575849533,0.15759380161762238,0.27075955271720886,0.3125818967819214,-0.05856303498148918,0.11210624873638153,0.03961950168013573,0.6774757504463196,0.5419270992279053,-0.9085133075714111,0.03612121567130089,0.5055361986160278,-0.5328838229179382,-0.43482744693756104,0.06671206653118134,-0.14454807341098785,0.5775246024131775,-0.592246413230896,0.4949994385242462,-0.0031367558985948563,-0.6086064577102661,0.5838239192962646,0.3370487689971924,-0.028103407472372055,-0.010801911354064941,-0.04242201894521713,-0.09810351580381393,-0.010889815166592598,0.06543639302253723,-0.16372260451316833,-0.32866787910461426,-0.17563511431217194,-0.12997721135616302,-0.231218159198761,0.07938183844089508,-0.4541033208370209,0.23019035160541534,0.07931537926197052,-0.04926842451095581,0.07700029015541077,0.039094872772693634,-0.020376382395625114,-0.03736858069896698,8.681112376507372e-05,-0.025857584550976753,0.05532700940966606,0.24650539457798004,0.39056074619293213,0.22888138890266418,-0.029987085610628128,-0.060838982462882996,0.32969391345977783,0.21787531673908234,-0.01375227328389883,-0.05443307012319565,-0.1798144280910492,-0.025935042649507523,0.15081246197223663,0.21033911406993866,-0.2626398801803589,0.1294873207807541,0.1057208701968193,-0.21892419457435608,0.01326765026897192,0.16888462007045746,0.4265291392803192,-0.0684303417801857,-0.5382628440856934,0.122927226126194,-0.18351618945598602,-0.16428568959236145,-0.09888222813606262,-0.1815834939479828,-0.08905112743377686,-0.14962594211101532,-0.061808906495571136,0.2308426797389984,0.4558119773864746,-0.19955302774906158,-0.38551217317581177,-0.19240209460258484,0.14286234974861145,-0.5318808555603027,0.033058688044548035,0.07282502204179764,0.15771716833114624,-0.13035200536251068,0.12383189797401428,0.05885539576411247,0.11075864732265472,0.28134670853614807,0.48841801285743713,0.32263773679733276,0.18349610269069672,0.1255299597978592,0.3046013414859772,0.06222894787788391,0.16219186782836914,-0.13783790171146393,-0.16466417908668518,-0.4516764283180237,-0.3646479845046997,-0.14870600402355194,-0.26595669984817505,-0.3053809106349945,-0.027487488463521004,-0.2839756906032562,-0.42739593982696533,-0.19020037353038788,-0.13860465586185455,-0.1992655247449875,-0.4248272478580475,-0.08708131313323975,-0.31330955028533936,-0.30581527948379517,-0.037030261009931564,-0.3850274384021759,-0.022570719942450523,-0.1956838220357895,-0.03157760575413704,0.05028146505355835,0.07957110553979874,-0.10788284242153168,-0.02084406279027462,-0.006583219859749079,-0.19816552102565765,-0.12246683239936829,-0.1316814422607422,-0.03580954298377037,0.08860334008932114,0.20349101722240448,0.1742343008518219,0.038508687168359756,0.065573550760746,0.0005756022874265909,0.06696659326553345,0.15255026519298553,0.03160828351974487,-0.39931607246398926,0.006204007659107447,0.03279731795191765,-0.030300050973892212,0.10175355523824692,-0.05787976458668709,-0.1278500109910965,-0.006882150191813707,0.06362650543451309,0.15632754564285278,-0.02469920553267002,0.01094585657119751,0.002008244628086686,0.07424772530794144,0.042438142001628876,-0.2538498044013977,-0.03354864940047264,-0.15637530386447906,-0.1483655571937561,-0.09369993209838867,0.05341091379523277,-0.042248573154211044,0.3123096823692322,-0.17196401953697205,0.017181679606437683,-0.10873384773731232,-0.1193864494562149,0.06562325358390808,-0.6344769597053528,-0.4342328906059265,0.3133881092071533,-0.4443759024143219,0.23881998658180237,-0.23833224177360535,0.06018531695008278,-0.36449897289276123,0.5071412324905396,-0.2696070075035095,0.293940931558609,-0.3612178564071655,-0.571300745010376,-0.3409445285797119,0.29205626249313354,0.8570402264595032,0.5898951888084412,0.5904190540313721,0.08846843987703323,-0.5390419960021973,-0.8924175500869751,-0.4835226237773895,0.0857047438621521,0.11416550725698471,0.09034017473459244,0.008641881868243217,-0.49279335141181946,-0.338225394487381,-0.07703638076782227,-0.26867613196372986,-0.14667026698589325,-0.0971125140786171,-0.15824192762374878,0.012236790731549263,0.2766359746456146,0.45103469491004944,0.34288594126701355,0.3153707981109619,-0.07286933809518814,-0.19552576541900635,-0.09974243491888046,-0.2173195779323578,0.017432065680623055,-0.2604522705078125,0.008702031336724758,-0.2210090458393097,-0.10316123813390732,-0.00842975452542305,6.958014273550361e-05,0.16043229401111603,-0.2505747377872467,-0.16003741323947906,-0.2550804615020752,-0.2511144280433655,-0.02146111987531185,0.05013369023799896,0.283149391412735,0.201070636510849,0.01881243847310543,-0.009537464007735252,0.2135593444108963,-0.0996256172657013,-0.008846773765981197,0.24038276076316833,0.12319823354482651,-0.004712225403636694,0.45127543807029724,-0.06567283719778061,-0.09822700917720795,-0.15564629435539246,-0.17700590193271637,-0.16040141880512238,-0.02982896938920021,0.12283314764499664,0.27378183603286743,-0.2861531376838684,-0.13801778852939606,-0.17754778265953064,0.4190865755081177,0.028706621378660202,0.2067689299583435,-0.2774559259414673,0.0396144725382328,0.129720538854599,0.030154630541801453,0.18279427289962769,-0.07577962428331375,0.40131092071533203,0.1229168251156807,0.11064654588699341,-0.03218192607164383,0.40831008553504944,-0.023614665493369102,-0.42668163776397705,0.041406482458114624,0.27783653140068054,0.30225643515586853,0.5139971375465393,0.658100962638855,-0.41158220171928406,-0.2543061077594757,0.07148748636245728,-0.00887842196971178,0.1849779337644577,0.002348297042772174,0.11281711608171463,-0.0800885260105133,0.14751215279102325,-0.0845666378736496,-0.01864847168326378,0.22576718032360077,-0.16797621548175812,-0.07574256509542465,0.1266581118106842,-0.013466276228427887,0.12056072801351547,0.4353873133659363,0.11242777854204178,-0.08652542531490326,0.007933467626571655,-0.03622141480445862,-0.08148005604743958,-0.05730472505092621,-0.3479918837547302,-0.0741768330335617,-0.031545381993055344,-0.13682301342487335,-0.0950763076543808,0.12573957443237305,0.45265910029411316,-0.07368702441453934,-0.10198040306568146,-0.317105770111084,-0.3430859446525574,-0.03052169643342495,0.15314510464668274,-0.20881596207618713,0.4797046184539795,0.0927891656756401,0.2496292144060135,0.07561254501342773,0.38322705030441284,0.059443920850753784,0.13088147342205048,0.3041544556617737,-0.5443510413169861,0.06754563003778458,-0.08987118303775787,-0.6619833707809448,-0.45393067598342896,0.4542255401611328,0.14299453794956207,0.4394349753856659,-0.24595209956169128,-0.19502615928649902,-0.15766212344169617,-0.12392581254243851,-0.09742210060358047,-0.1834786832332611,0.19990305602550507,0.1483847200870514,0.22747941315174103,-0.06723779439926147,0.24473901093006134,-0.015295998193323612,-0.2738952040672302,-0.03645588085055351,-0.006064777262508869,0.02950110286474228,0.2941770851612091,0.06876392662525177,-0.2744891047477722,-0.2944924533367157,0.06453312933444977,0.052850451320409775,-0.29195448756217957,-0.25116533041000366,-0.1729067862033844,0.2258204072713852,0.18085147440433502,0.2198939025402069,-0.1005953922867775,0.1396079957485199,-0.03138742968440056,-0.20562441647052765,0.5790277719497681,-0.23752708733081818,-0.2725546061992645,0.1731370985507965,0.03599817305803299,0.0262439027428627,-0.12916241586208344,-0.11963292956352234,-0.07026175409555435,-0.40430939197540283,-0.0004923688247799873,-0.16239653527736664,-0.10736963897943497,-0.019332297146320343,0.19619931280612946,-0.25488966703414917,0.22925038635730743,-0.19092720746994019,-0.13876865804195404,-0.13081637024879456,-0.06120344251394272,-0.1636151224374771,0.1838821917772293,0.1648556888103485,0.28089797496795654,0.0817127674818039,-0.14572909474372864,-0.361348032951355,0.3653884530067444,-0.2430654615163803,-0.01022956520318985,-0.3902236521244049,0.15923455357551575,-0.24685132503509521,-0.24186600744724274,0.3862985372543335,0.16846808791160583,-0.5155786275863647,0.03336147591471672,0.14529696106910706,0.23484379053115845,-0.18910954892635345,0.14384910464286804,-0.1692093312740326,-0.25779858231544495,-0.14652635157108307,0.042714446783065796,-0.12225928157567978,-0.238847553730011,0.26112493872642517,-0.04173833876848221,0.02566029690206051,0.059822823852300644,0.027399109676480293,0.35825231671333313,0.18446822464466095,-0.08815865963697433,-0.18012617528438568,-0.13057570159435272,-0.18126307427883148,-0.04864909127354622,-0.014722391031682491,0.10369396209716797,0.13306300342082977,-0.08863309025764465,0.022837750613689423,-0.0723351314663887,0.021784840151667595,-0.2132560908794403,-0.24285225570201874,-0.18533945083618164,-0.3324972689151764,-0.3773193657398224,0.022752439603209496,-0.012868405319750309,0.057063303887844086,0.14598210155963898,-0.13555891811847687,-0.016516663134098053,-0.02848627045750618,-0.32169249653816223,0.00328638032078743,-0.1706947237253189,0.10358422994613647,0.11684828996658325,-0.003950162325054407,0.07286153733730316,0.16445757448673248,0.2134750485420227,-0.050412677228450775,-0.15084336698055267,-0.2914118766784668,-0.2939416468143463,-0.14929629862308502,-0.07757310569286346,0.28820252418518066,-0.18350301682949066,0.23062309622764587,0.04647132381796837,0.009858224540948868,0.4096241295337677,-0.6304216980934143,0.20897065103054047,0.24183134734630585,0.05756115913391113,0.24503426253795624,-0.3941088020801544,-0.34747830033302307,-0.13118590414524078,-0.22681725025177002,-0.5420138239860535,0.28130465745925903,0.37849658727645874,-0.11054159700870514,-0.07732688635587692,-0.14973735809326172,-0.05615445598959923,-0.04304889217019081,-0.10923327505588531,-0.14261513948440552,0.2330102026462555,-0.1231134682893753,-0.047792501747608185,0.20243790745735168,-0.2896190881729126,0.22411872446537018,-0.3331846594810486,-0.1780947893857956,0.48589321970939636,0.028544697910547256,-0.01816844567656517,-0.10362742841243744,-0.21313680708408356,-0.19872260093688965,-0.026907965540885925,-0.015088368207216263,-0.10434656590223312,0.1439954787492752,-0.12484412640333176,0.16518183052539825,0.07045884430408478,0.5136190056800842,-0.23021291196346283,-0.07060735672712326,0.035577885806560516,0.3619905710220337,0.15281687676906586,0.32317307591438293,-0.34809020161628723,-0.4109428822994232,-0.10664868354797363,-0.11377265304327011,-0.2645498514175415,-0.0030341148376464844,0.3564971685409546,-0.13189195096492767,0.17873714864253998,0.3620631694793701,-0.018221791833639145,-0.17581430077552795,0.234718918800354,0.2811743915081024,0.20246119797229767,-0.050468746572732925,0.13678264617919922,-0.03565334901213646,0.052316442131996155,0.013036828488111496,-0.07554090023040771,0.16391506791114807,-0.010234951972961426,-0.26042187213897705,0.015665406361222267,-0.16335919499397278,-0.5058214068412781,-0.5601561069488525,0.2565942704677582,-0.05184106528759003,-0.487956166267395,-0.19625318050384521,0.2593008875846863,-0.6286399960517883,-0.06613488495349884,-0.04341857507824898,0.24271968007087708,-0.2237534075975418,-0.06848415732383728,0.22037065029144287,-0.043726846575737,0.041095104068517685,-0.13373099267482758,0.16260512173175812,-0.007747438736259937,0.17801910638809204,-0.20771540701389313,-0.08077216148376465,-0.05793927609920502,-0.018712105229496956,-0.18435001373291016,-0.10816675424575806,-0.096934013068676,-0.08633242547512054,-0.47902294993400574,0.05467107146978378,-0.14848783612251282,0.01750173233449459,-0.04993476718664169,0.0719640851020813,-0.2803492248058319,-0.3128018081188202,-0.12393653392791748,-0.1395304799079895,0.21138747036457062,-0.2554861605167389,0.13664767146110535,0.19010116159915924,-0.09496260434389114,0.1839868575334549,-0.10648457705974579,-0.1943749338388443,-0.16438905894756317,0.07466684281826019,-0.2606652081012726,-0.10798487812280655,-0.008510183542966843,0.1496429443359375,0.2578151822090149,-0.0828591138124466,0.4147581160068512,-0.04738058149814606,0.01913054846227169,-0.03261249139904976,-0.1744471937417984,0.33314138650894165,0.1395152360200882,0.15353572368621826,0.15847885608673096,0.054607734084129333,0.03470495343208313,0.16688589751720428,0.3106461763381958,0.00382487871684134,0.03869170323014259,-0.15197284519672394,0.021634943783283234,0.3659537136554718,0.25512927770614624,-0.21328425407409668,0.173003688454628,-0.5398183465003967,0.044247545301914215,0.945555567741394,-0.11366502195596695,-0.8488327860832214,-0.01877150870859623,0.06949348747730255,0.10966149717569351,-0.015489520505070686,-0.18075740337371826,-0.09695848822593689,-0.09117784351110458,-0.017840977758169174,-0.21508906781673431,-0.023762822151184082,0.05427984148263931,-0.03633595257997513,0.1257113814353943,0.375495582818985,-0.23419322073459625,0.23996490240097046,0.18208926916122437,0.11909722536802292,-0.19767500460147858,0.18587970733642578,-0.3748117685317993,-0.07958817481994629,-0.013112785294651985,-0.0464339405298233,-0.17755542695522308,0.054271798580884933,-0.046839118003845215,0.003264049766585231,-0.05041893199086189,0.0639338567852974,0.17428959906101227,0.0997292622923851,-0.03935186564922333,-0.018888168036937714,-0.003911533858627081,0.051811281591653824,-0.15938635170459747,-0.24503099918365479,0.18186843395233154,0.0204746276140213,-0.14991556107997894,-0.008450811728835106,0.03307468816637993,-0.2126625031232834,-0.0937887504696846,0.006169725209474564,-0.016902446746826172,-0.09143239259719849,0.17348706722259521,-0.05548134073615074,0.018030714243650436,0.28001663088798523,0.07705044746398926,0.12312263995409012,-0.2428129017353058,-0.23602774739265442,0.26519066095352173,0.12117331475019455,-0.18824204802513123,0.12189339846372604,0.005366378929466009,-0.21641147136688232,0.14931613206863403,1.2094214682017485e-38,-6.997608089360266e-39,1.9136333615798565e-38,2.275036082800627e-40,-6.757646937732356e-39,-1.6600482257623945e-40,1.747757458462335e-38,1.1769354461629991e-38,-1.0326070292717074e-39,1.7053594918660304e-38,-1.4541096199393657e-38,1.585700233789945e-38,0.0045220390893518925,0.010012910701334476,0.012527300044894218,0.008438603952527046,-0.0020790102425962687,-0.016028739511966705,-0.030251288786530495,-0.04163256287574768,-0.04726025462150574,-0.045285604894161224,-0.03622635453939438,-0.023409362882375717,-0.011271092109382153,-0.0026713144034147263,0.00133108242880553,0.0016309147467836738,-0.007153380662202835,-0.019705206155776978,-0.03717061132192612,-0.055555906146764755,-0.07057227939367294,-0.07777708023786545,-0.0735129863023758,-0.05862514674663544,-0.035777799785137177,-0.011726250872015953,0.008217108435928822,0.02012179046869278,0.023380735889077187,0.01973123662173748,0.012523731216788292,0.0052580321207642555,0.001246219384483993,0.005597821436822414,0.014662634581327438,0.028530584648251534,0.04572788625955582,0.06324110925197601,0.07829716056585312,0.08715710788965225,0.08776051551103592,0.08027594536542892,0.06609311699867249,0.04843633621931076,0.03129856288433075,0.017109384760260582,0.007419957779347897,0.002085781656205654,0.12309194356203079,0.004242123104631901],"sample_rate":48000.0}},{"max_value":1.0,"model":{"version":"0.7.0","metadata":{"date":{"year":2026,"month":5,"day":7,"hour":7,"minute":47,"second":36},"loudness":-21.97124671936035,"gain":0.6380059622598466},"architecture":"WaveNet","config":{"layers":[{"input_size":1,"condition_size":1,"head":{"out_channels":1,"kernel_size":16,"bias":true},"channels":8,"kernel_sizes":[6,6,6,6,6,6,6,6,6,6,6,6,6,6,15,15,6,6,6,6,6,6,6],"dilations":[1,3,7,17,41,101,239,1,3,7,17,41,101,239,1,13,1,3,7,17,41,101,239],"activation":[{"type":"LeakyReLU","negative_slope":0.01},{"type":"LeakyReLU","negative_slope":0.01},{"type":"LeakyReLU","negative_slope":0.01},{"type":"LeakyReLU","negative_slope":0.01},{"type":"LeakyReLU","negative_slope":0.01},{"type":"LeakyReLU","negative_slope":0.01},{"type":"LeakyReLU","negative_slope":0.01},{"type":"LeakyReLU","negative_slope":0.01},{"type":"LeakyReLU","negative_slope":0.01},{"type":"LeakyReLU","negative_slope":0.01},{"type":"LeakyReLU","negative_slope":0.01},{"type":"LeakyReLU","negative_slope":0.01},{"type":"LeakyReLU","negative_slope":0.01},{"type":"LeakyReLU","negative_slope":0.01},{"type":"LeakyReLU","negative_slope":0.01},{"type":"LeakyReLU","negative_slope":0.01},{"type":"LeakyReLU","negative_slope":0.01},{"type":"LeakyReLU","negative_slope":0.01},{"type":"LeakyReLU","negative_slope":0.01},{"type":"LeakyReLU","negative_slope":0.01},{"type":"LeakyReLU","negative_slope":0.01},{"type":"LeakyReLU","negative_slope":0.01},{"type":"LeakyReLU","negative_slope":0.01}],"bottleneck":8,"head1x1":{"active":false,"out_channels":1,"groups":1},"layer1x1":{"active":true,"groups":1},"groups_input":1,"groups_input_mixin":1,"conv_pre_film":{"active":false,"shift":true,"groups":1},"conv_post_film":{"active":false,"shift":true,"groups":1},"input_mixin_pre_film":{"active":false,"shift":true,"groups":1},"input_mixin_post_film":{"active":false,"shift":true,"groups":1},"activation_pre_film":{"active":false,"shift":true,"groups":1},"activation_post_film":{"active":false,"shift":true,"groups":1},"layer1x1_post_film":{"active":false,"shift":true,"groups":1},"head1x1_post_film":{"active":false,"shift":true,"groups":1},"gating_mode":["none","none","none","none","none","none","none","none","none","none","none","none","none","none","none","none","none","none","none","none","none","none","none"],"secondary_activation":[null,null,null,null,null,null,null,null,null,null,null,null,null,null,null,null,null,null,null,null,null,null,null],"slimmable":null}],"head":null,"head_scale":0.004242123178090814},"weights":[-0.02888396568596363,1.621683955192566,-0.21299640834331512,1.1215263605117798,-0.7165504693984985,-1.3688799142837524,1.1630085706710815,-0.18024246394634247,-0.0016592369647696614,0.0007270735804922879,-0.000511772814206779,0.0034374750684946775,0.0004552351019810885,-0.0034918556921184063,0.14431439340114594,-0.03105713054537773,-0.05808025225996971,-0.18129870295524597,0.09447651356458664,0.25978296995162964,-0.014249734580516815,0.0022565689869225025,-0.006371011026203632,0.021312138065695763,-0.0021116011776030064,-0.027795404195785522,0.11609286069869995,-0.020686373114585876,-0.011691260151565075,-0.1291661113500595,0.06194273382425308,0.18254761397838593,-0.06676578521728516,0.0065266103483736515,-0.00642702542245388,0.07829668372869492,-0.02805865928530693,-0.11064165085554123,-0.1686811000108719,0.051661379635334015,0.07149903476238251,0.18648360669612885,-0.12384116649627686,-0.2565058171749115,0.13054275512695312,-0.026054563000798225,-0.023614082485437393,-0.1343008130788803,0.06927301734685898,0.18263529241085052,-0.013022751547396183,0.002482403302565217,-0.005381257273256779,0.020598553121089935,-0.0014813205925747752,-0.025607239454984665,5.908133971388452e-06,6.699859113723505e-06,4.2534820750006475e-06,4.421344328875421e-06,7.045231086522108e-06,8.330306627613027e-06,-7.93755825725384e-05,-2.6635942049324512e-05,0.0001399601314915344,0.00012986634101253003,4.378534413262969e-06,-5.241914186626673e-05,3.161146742058918e-05,3.3670654374873266e-05,1.2444368621800095e-05,1.8926326447399333e-05,3.4532975405454636e-05,4.1755352867767215e-05,-8.493700443068519e-05,-5.708348544430919e-05,5.780442734248936e-05,4.071972580277361e-05,-3.980251494795084e-05,-8.535812958143651e-05,6.513196422019973e-05,5.8831450587604195e-05,-1.3373066394706257e-05,-2.6767540930450195e-06,4.991357491235249e-05,8.46783077577129e-05,8.12255748314783e-05,4.2806434066733345e-05,-9.725127165438607e-05,-7.677156099816784e-05,1.82216663233703e-05,7.171383185777813e-05,-7.755384285701439e-05,-5.268470704322681e-05,7.190410542534664e-05,4.864723814534955e-05,-3.275591734563932e-05,-7.530575385317206e-05,2.5937537429854274e-05,3.0536772101186216e-05,1.0939459571090993e-05,1.713092569843866e-05,3.0771541787544265e-05,3.774329525185749e-05,0.00038073238101787865,-0.001795004354789853,-0.0025816599372774363,0.0014359945198521018,0.008418773300945759,0.009191724471747875,-0.04167872667312622,0.14294679462909698,0.06456807255744934,-0.12655173242092133,-0.43428292870521545,-0.36533620953559875,0.002945126034319401,-0.010841604322195053,-0.0210244320333004,0.006041049957275391,0.05724664032459259,0.054535552859306335,0.08518427610397339,0.10606461763381958,0.13682278990745544,0.03769230097532272,-0.3657230734825134,-0.2653982639312744,-0.036018215119838715,-0.07885780185461044,-0.11419277638196945,0.011587044224143028,0.24601460993289948,0.19182604551315308,-0.032911255955696106,-0.1453540027141571,-0.12985292077064514,0.03619068115949631,0.46326085925102234,0.39289069175720215,0.02175733633339405,0.09205576032400131,0.12238749116659164,0.02503037266433239,-0.4033343493938446,-0.3693438768386841,0.006805197801440954,-0.007696470711380243,-0.020294856280088425,0.008821967989206314,0.06450556218624115,0.05949407443404198,0.001168851274996996,0.0011281169718131423,0.0010310218203812838,0.0010610780445858836,0.0010346448980271816,0.0009232921293005347,-0.03666910529136658,-0.03653698042035103,-0.03398212417960167,-0.03434383496642113,-0.03294316306710243,-0.029012290760874748,0.00834768544882536,0.008066496811807156,0.0073609440587460995,0.007568106520920992,0.0073848385363817215,0.00655616819858551,-0.03038189187645912,-0.030063645914196968,-0.02789791114628315,-0.028366532176733017,-0.027309061959385872,-0.02409898117184639,0.023011045530438423,0.022536566480994225,0.02084713988006115,0.021261515095829964,0.0206280704587698,0.01823865994811058,0.03383750095963478,0.0335799939930439,0.03119238093495369,0.03162643685936928,0.030388515442609787,0.026833832263946533,-0.031034518033266068,-0.03071724809706211,-0.028483571484684944,-0.0289731677621603,-0.027920585125684738,-0.024657808244228363,0.007180410902947187,0.00693887984380126,0.006315849255770445,0.006497075315564871,0.006336015183478594,0.005632446147501469,-0.006655671633780003,-0.010620084591209888,-0.010398359969258308,-0.0016634620260447264,0.007546702399849892,0.01291265245527029,0.26249951124191284,0.28728771209716797,0.1752145141363144,-0.07627758383750916,-0.44078579545021057,-0.6530086398124695,-0.04227914288640022,-0.057480163872241974,-0.06319525092840195,-0.007631681859493256,0.051889412105083466,0.07821989804506302,0.2674550414085388,0.3138512670993805,0.3049939274787903,0.09941071271896362,-0.3305118978023529,-0.4260711669921875,-0.18261779844760895,-0.15168848633766174,-0.22484946250915527,-0.0182692501693964,0.264600932598114,0.28262776136398315,-0.2104489654302597,-0.2809008061885834,-0.2027396261692047,0.06855106353759766,0.4484236538410187,0.4594975411891937,0.23152200877666473,0.2476043999195099,0.2129659354686737,0.006914489436894655,-0.36095693707466125,-0.5000767707824707,-0.04474520683288574,-0.058286942541599274,-0.0643966943025589,-0.003178039100021124,0.07212074846029282,0.09970387816429138,0.0019314796663820744,-0.0009143602219410241,0.0013188155135139823,0.00014671162352897227,-0.008688978850841522,-0.008582181297242641,-0.11617248505353928,0.028967151418328285,0.010132139548659325,0.15838944911956787,0.3200402557849884,0.3748065233230591,0.019526198506355286,0.00022229696332942694,0.018387263640761375,0.005720994435250759,-0.04984774813055992,-0.042434852570295334,-0.13653351366519928,-0.04612991586327553,-0.065926194190979,0.012130938470363617,0.26372867822647095,0.2644118368625641,0.10102055221796036,0.045843686908483505,0.060098789632320404,-0.010598932392895222,-0.22347457706928253,-0.16323424875736237,0.1050361767411232,-0.022571180015802383,-0.015504902228713036,-0.028641708195209503,-0.43282759189605713,-0.32663679122924805,-0.14779019355773926,-0.05364174023270607,-0.05380000174045563,0.03116879239678383,0.32092249393463135,0.307842493057251,0.025712642818689346,0.0039041386917233467,0.022217104211449623,0.004845190793275833,-0.06025759130716324,-0.049819983541965485,0.00013629136083181947,-0.002993234433233738,-0.0025909694377332926,0.0012054059188812971,0.01793406717479229,0.018428023904561996,0.13415579497814178,0.13062968850135803,0.21327270567417145,-0.007006235420703888,-0.6852483749389648,-0.6915845274925232,0.013932948932051659,-0.019943514838814735,-0.024825790897011757,-0.004196470603346825,0.11161163449287415,0.09578816592693329,0.04586467519402504,0.1642773300409317,0.1658545881509781,0.11010546237230301,-0.563686728477478,-0.45544159412384033,-0.02512463927268982,-0.09846125543117523,-0.14963620901107788,0.002830600133165717,0.45041313767433167,0.39481380581855774,-0.055003292858600616,-0.1723577231168747,-0.10084821283817291,0.08959237486124039,0.6969509720802307,0.6296877264976501,0.10605794936418533,0.2264648824930191,0.16437171399593353,0.07669185847043991,-0.5750417113304138,-0.582748532295227,0.014422973617911339,-0.029004966840147972,-0.030941547825932503,0.0024415035732090473,0.17331011593341827,0.15591756999492645,0.0001911434083012864,0.00030207718373276293,-0.0003716945939231664,-0.007628259249031544,-0.007770972326397896,-0.005650105886161327,-0.18418589234352112,-0.07980077713727951,-0.08419676125049591,0.19766008853912354,0.30835554003715515,0.196457639336586,0.00634278217330575,0.010017167776823044,0.005968145560473204,-0.04312187433242798,-0.04550492390990257,-0.03429960459470749,-0.15726855397224426,-0.09208644926548004,-0.0358751080930233,0.16770502924919128,0.23198291659355164,0.1914960741996765,0.06251814216375351,0.04015810415148735,0.022170696407556534,-0.15871264040470123,-0.17783237993717194,-0.15383075177669525,0.14327317476272583,0.07528802752494812,-0.019495051354169846,-0.2507500946521759,-0.31859034299850464,-0.28182360529899597,-0.15047688782215118,-0.09149929881095886,-0.056159667670726776,0.19915473461151123,0.28226667642593384,0.2309129536151886,0.00710833165794611,0.010558987967669964,0.006944966036826372,-0.044972795993089676,-0.04900960251688957,-0.037377942353487015,-0.11376509815454483,-0.007234919350594282,0.47035300731658936,-0.0686008632183075,0.23506319522857666,0.0721411406993866,0.3015345633029938,-0.15276698768138885,0.40568116307258606,-8.339296618942171e-05,-0.4617110788822174,-0.022759679704904556,-0.9374386668205261,0.3845561146736145,-1.1210644245147705,0.4145379662513733,0.28237542510032654,0.0004241812857799232,0.107966847717762,0.015984559431672096,0.3498784303665161,0.37647879123687744,0.02019982598721981,-0.09672755748033524,0.48980027437210083,0.0001307064958382398,0.003037912305444479,0.010696866549551487,0.12845806777477264,0.3493589758872986,-0.10328757017850876,0.4327596127986908,0.19299572706222534,0.0003523181949276477,0.21338500082492828,-0.026365552097558975,0.6330468058586121,-0.21859005093574524,0.6593871116638184,-0.0662015825510025,-0.1782379001379013,-0.0003632782318163663,-0.35333967208862305,-0.00983067974448204,-0.32746076583862305,0.5269220471382141,-0.3855441212654114,0.26242151856422424,0.036160681396722794,-0.00017027673311531544,-0.04735109955072403,-0.02034047059714794,-0.20605841279029846,-0.015980733558535576,-0.16541408002376556,0.4204649329185486,-0.38750624656677246,0.00025262811686843634,-0.05211564898490906,0.032533977180719376,0.04221489280462265,0.3437913954257965,0.4634050130844116,-0.30854639410972595,-0.06510266661643982,-0.00012996952864341438,-0.3719923198223114,0.0002884115092456341,-0.6845089793205261,0.06527097523212433,-0.34823280572891235,0.46286076307296753,0.11200149357318878,-0.0005984663148410618,-0.10258316248655319,0.02267419546842575,-0.0946047231554985,-0.5284860134124756,-0.14908871054649353,0.09833618998527527,-0.2393590211868286,-0.20437279343605042,-0.1967328041791916,0.41136422753334045,0.28758668899536133,0.055639173835515976,-0.11981479823589325,0.23992107808589935,0.0007159839733503759,0.0012848691549152136,0.001686931005679071,0.0018199695041403174,0.001528307213447988,0.0010409413371235132,0.0009709264850243926,0.0016946984687820077,0.002182750729843974,0.0018426695605739951,0.001166906557045877,0.0006021735607646406,-0.003101377049461007,-0.0028838436119258404,-0.002558111445978284,-0.002282496076077223,-0.002605301095172763,-0.002572520636022091,0.001020382042042911,0.001168945338577032,0.0010759063297882676,0.0007655214285477996,0.0006606428069062531,0.00022960049682296813,0.00011784902744693682,0.00016329318168573081,0.0001742830063449219,-2.4622542696306482e-05,-0.00037139220512472093,-0.0005723520880565047,-0.0025758789852261543,-0.002862685825675726,-0.00305949617177248,-0.002887455513700843,-0.002860419452190399,-0.0026974156498908997,0.0037335704546421766,0.003765448462218046,0.003616485744714737,0.0035902021918445826,0.00372772547416389,0.0037555077578872442,-0.0010047402465716004,-0.001498328405432403,-0.0018048015190288424,-0.0016505742678418756,-0.0010127738351002336,-0.00046988442772999406,0.0009683634270913899,0.1419287919998169,0.10817817598581314,0.08888299018144608,0.007568620145320892,-0.1924792230129242,0.10242520272731781,0.10180693864822388,-0.007388762664049864,0.12251188606023788,0.22805629670619965,0.2135956883430481,0.1689206063747406,0.241377055644989,0.10112088173627853,0.09630480408668518,-0.03755553439259529,-0.20783846080303192,-0.0695008635520935,-0.07944545894861221,-0.003007416380569339,-0.06722651422023773,-0.08510864526033401,0.27161484956741333,0.10041188448667526,-0.011049308814108372,-0.01984594017267227,0.032849300652742386,0.11860570311546326,0.14632701873779297,0.023601125925779343,0.13746395707130432,0.10319236665964127,0.058543261140584946,-0.12880167365074158,-0.08291441202163696,0.029015451669692993,-0.034304410219192505,-0.12456776946783066,-0.023051900789141655,0.0648118406534195,-0.07301365584135056,0.07903065532445908,-0.09045933932065964,0.0024516000412404537,0.026813432574272156,0.01333630084991455,0.17479166388511658,-0.048175569623708725,-0.025326449424028397,0.02496977150440216,0.051931269466876984,0.18995682895183563,0.06295079737901688,-0.021699462085962296,-0.12050790339708328,-0.03172183036804199,0.007794547360390425,0.3530430793762207,-0.16060592234134674,-0.005057952366769314,-0.03968390077352524,0.001186053967103362,0.07381951808929443,-0.14664436876773834,0.1359863132238388,-0.05895530804991722,0.006665328983217478,-0.10773765295743942,-0.05291881039738655,0.30338966846466064,-0.1245223730802536,-0.004150898661464453,0.03688346594572067,-0.11076591908931732,-0.05117335543036461,0.07164286822080612,-0.14005626738071442,-0.049164000898599625,0.09679025411605835,-0.18733948469161987,-0.04683392494916916,-0.0562337189912796,0.08683840185403824,0.06226487457752228,0.04184936732053757,-0.06422220915555954,-0.025271400809288025,0.2590336799621582,-0.23719044029712677,0.05110032111406326,0.01403257716447115,0.0911157876253128,0.021663086488842964,-0.1099550798535347,0.008311348035931587,0.05510562285780907,0.03971867263317108,-0.041358985006809235,-0.09889193624258041,-0.16362951695919037,-0.11328592151403427,-0.06651890277862549,-0.06312083452939987,-0.10091870278120041,-0.12256745994091034,-0.05442497134208679,-0.2530650496482849,0.003715178929269314,-0.03737282752990723,-0.06273039430379868,-0.018951041623950005,-0.30748748779296875,0.006851383484899998,0.04772917181253433,0.09554751217365265,0.10632090270519257,0.005862826015800238,0.1242043748497963,-0.09157109260559082,0.031574852764606476,-0.03157532215118408,0.01512773334980011,0.027813931927084923,0.10236366093158722,-0.012221251614391804,0.14451105892658234,0.0958087220788002,0.14195483922958374,0.06755195558071136,-0.02640639990568161,0.021866586059331894,-0.06436430662870407,-0.00372316874563694,-0.01359883788973093,0.03537626937031746,0.2151833176612854,0.05512978136539459,-0.12012176960706711,-0.09962768107652664,-0.05353200435638428,0.016841845586895943,0.06937352567911148,0.10669024288654327,0.04539214074611664,0.08076712489128113,-0.022179923951625824,0.007012715097516775,0.11924146115779877,-0.15624231100082397,0.04585978016257286,0.1574794352054596,0.0493544340133667,0.011136663146317005,-0.055797871202230453,-0.13861796259880066,-0.047981444746255875,0.11490751057863235,-0.018288541585206985,0.09470494836568832,0.25596973299980164,-0.3122520446777344,0.02137071266770363,-0.02570202387869358,0.01792139746248722,-0.03942081332206726,-0.2003755271434784,0.08295505493879318,-0.0023852332960814238,-0.050814881920814514,0.009684983640909195,0.0031061519403010607,-0.10784810036420822,0.08183465898036957,-0.07953401654958725,-0.16604630649089813,-0.16191303730010986,-0.03848648443818092,0.06255494058132172,-0.17107610404491425,-0.05044577270746231,-0.05058480426669121,0.07640894502401352,-0.05430775508284569,-0.24273893237113953,0.24043919146060944,-0.006995872128754854,0.01555402297526598,0.07371789962053299,0.055639468133449554,-0.061806514859199524,0.12818017601966858,0.008231139741837978,0.02080647274851799,0.10624741017818451,0.21920257806777954,0.07224105298519135,0.07688770443201065,0.028138715773820877,0.008845937438309193,0.08400237560272217,0.17965760827064514,0.07766201347112656,0.3299379348754883,-0.046788182109594345,0.1076706200838089,0.20642180740833282,0.11932329833507538,-0.04547397047281265,-0.22379867732524872,-0.09098092466592789,-0.08731965720653534,-0.09402231872081757,-0.0614917054772377,-0.12365628033876419,-0.009249262511730194,-0.007635773159563541,0.02603248879313469,-0.0557720810174942,0.02661946974694729,-0.04978903755545616,-0.009413028135895729,0.014876527711749077,0.09391141682863235,-0.013361172750592232,0.08596479892730713,0.08639159798622131,-0.18840259313583374,-0.031327877193689346,0.09853647649288177,-0.024425633251667023,-0.010561484843492508,0.07414931803941727,0.3278619647026062,-0.02770674042403698,-0.03516383841633797,-0.04138845577836037,-0.19154641032218933,-0.10888819396495819,-0.05388567969202995,0.0320555604994297,0.03644486516714096,0.07719749957323074,0.04965364187955856,-0.19333027303218842,-0.28372687101364136,0.1343780755996704,-0.03736725077033043,0.002225550590083003,-0.1268344670534134,-0.1294606775045395,0.22192983329296112,-0.1064130887389183,-0.05581836402416229,0.03726402297616005,0.16828107833862305,0.2862713038921356,-0.30038610100746155,0.07143763452768326,-0.08142616599798203,0.005926753859966993,-0.12309703230857849,-0.23850585520267487,0.35383161902427673,-0.10942523926496506,-0.0850357636809349,-0.030184784904122353,-0.04318605735898018,-0.025228552520275116,0.185546413064003,-0.006671379320323467,0.07241161912679672,-0.04418708011507988,0.13478833436965942,-0.032371170818805695,-0.1695309579372406,-0.0568426214158535,0.021979359909892082,-0.06853857636451721,0.028619688004255295,-0.1962372213602066,-0.033601418137550354,-0.04931226745247841,-0.05477428063750267,-0.04939551651477814,-0.030429640784859657,0.19668233394622803,0.13768602907657623,0.07834912836551666,0.03756024315953255,0.061940308660268784,0.1091398149728775,0.04876445606350899,0.19597671926021576,0.05020400509238243,0.06864260882139206,-0.036745041608810425,0.0901828408241272,0.15370510518550873,-0.11136049032211304,-0.017754100263118744,0.008247488178312778,-0.07407688349485397,-0.04212772473692894,0.06693878769874573,0.21566540002822876,-0.29291799664497375,-0.23214690387248993,-0.3045932948589325,-0.24264656007289886,-0.2433227002620697,-0.3688686788082123,-0.09076403081417084,-0.14153099060058594,-0.12598355114459991,-0.17680977284908295,-0.1072862446308136,-0.15340055525302887,-0.09486179053783417,-0.15933871269226074,-0.18669120967388153,-0.21478909254074097,-0.17194867134094238,0.12588362395763397,0.20722949504852295,0.16060394048690796,0.13490743935108185,0.21902868151664734,0.11632367223501205,0.01224606391042471,-0.06423161923885345,-0.018269255757331848,-0.024941302835941315,-0.12650753557682037,-0.024237094447016716,-0.19133679568767548,-0.00939928088337183,0.13675418496131897,-0.0750790536403656,0.10235478729009628,0.013926884159445763,-0.1658325493335724,-0.028735412284731865,-0.5377253293991089,0.0009843111038208008,0.39248427748680115,-0.025646308436989784,-0.06543698161840439,-0.01700052246451378,0.1398334950208664,0.577277421951294,-0.3457769751548767,0.004393101669847965,0.0802716612815857,-0.08376666158437729,0.16839703917503357,0.15296617150306702,-0.08850819617509842,0.18197840452194214,-0.2400769740343094,-0.0017181262373924255,-0.03460671007633209,0.08171549439430237,-0.057670049369335175,-0.06090845912694931,0.05266287550330162,0.06555727124214172,0.31612056493759155,0.003528167959302664,0.007061702199280262,-0.22508405148983002,-0.21655946969985962,0.11263121664524078,0.36285802721977234,-0.16528621315956116,-0.49089673161506653,0.003480411833152175,0.23826570808887482,0.18315771222114563,0.1214791089296341,-0.27873751521110535,-0.06372407078742981,0.29318809509277344,0.3236698806285858,-0.003301838878542185,-0.12752269208431244,0.5231797695159912,-0.09978733956813812,0.26277196407318115,-0.18762274086475372,-0.10551828891038895,-0.021036891266703606,0.0009897570125758648,-0.12951934337615967,-0.22126145660877228,0.402146577835083,0.1312306672334671,0.216100811958313,-0.0505983941257,-0.3273312747478485,-0.0018681871006265283,0.22923441231250763,0.22681967914104462,-0.05941373109817505,-0.2521815001964569,-0.38688942790031433,0.27396681904792786,0.6208760738372803,-0.0006368422764353454,-0.24761486053466797,0.020967820659279823,0.08162347972393036,-0.07138336449861526,0.09375251084566116,-0.27113717794418335,0.09880028665065765,0.00753571093082428,-0.01423199288547039,0.018501274287700653,-0.19410090148448944,-0.00880022905766964,-0.2216845005750656,0.3107087016105652,0.23582181334495544,-0.05428541824221611,-0.01200704462826252,-0.04567304253578186,-0.00634281150996685,-0.05118851363658905,-0.09057813882827759,-0.13370458781719208,-0.06687773019075394,-0.1312364637851715,-0.17645840346813202,-0.14287011325359344,0.021716315299272537,-0.11266575753688812,-0.040406420826911926,-0.004120776429772377,-0.04323713481426239,-0.019495144486427307,-0.08654139190912247,-0.010882403701543808,0.05694335326552391,0.02267107367515564,-0.03615409880876541,-0.010338472202420235,0.2734765410423279,-0.05114392563700676,0.008771359920501709,0.0808955729007721,0.1259622424840927,0.1443525105714798,0.18642091751098633,0.08777111768722534,0.058002252131700516,-0.05656532943248749,-0.12059710174798965,-0.04886847361922264,-0.12615786492824554,-0.06639096140861511,-0.11523345112800598,-0.09139654785394669,0.010095587000250816,0.038722649216651917,-0.014282932505011559,0.04994678497314453,0.2322217971086502,0.21863247454166412,0.16500160098075867,0.20551876723766327,0.16252021491527557,-0.08923382312059402,-0.09950294345617294,-0.08003505319356918,-0.1587190181016922,-0.19231829047203064,-0.06935115903615952,0.09055119007825851,0.004914151970297098,0.08177103102207184,0.040510714054107666,-0.07783348113298416,0.05065479502081871,-0.01076478324830532,-0.012762401252985,-0.007420964073389769,-0.03548435494303703,-0.3173672556877136,-0.5014800429344177,-0.02275720238685608,-0.01975126937031746,-0.04625992104411125,-0.009450568817555904,-0.017871687188744545,0.18400448560714722,-0.16560021042823792,-0.1354670524597168,-0.10184711962938309,-0.10338769853115082,-0.0949423611164093,0.187594473361969,0.09191057831048965,0.0780637264251709,0.03086051158607006,-0.10289483517408371,-0.033239807933568954,0.07689429819583893,0.013979051262140274,0.017675479874014854,0.002134635578840971,0.07993122935295105,0.1425502598285675,0.5791522860527039,-0.016802703961730003,0.03787269443273544,0.017367828637361526,0.05359029769897461,0.08130978792905807,-0.005929993465542793,-0.02749907784163952,0.0607919804751873,-0.09301116317510605,-0.006579354405403137,0.010519299656152725,0.18994079530239105,-0.018165817484259605,-0.0810186117887497,-0.03623742237687111,0.17559562623500824,0.12081827223300934,-0.379251629114151,-0.07378436625003815,-0.039963044226169586,0.0490887425839901,0.05553450435400009,-0.01945565640926361,0.16592328250408173,-0.017335494980216026,-0.04502425342798233,-0.04409351199865341,0.0574847012758255,0.1741652637720108,-0.3357829451560974,0.10994790494441986,0.15950265526771545,0.03750142827630043,0.11193595081567764,0.18136923015117645,-0.09656890481710434,0.06639450043439865,-0.10302291810512543,-0.25641313195228577,-0.25434252619743347,-0.07302455604076385,0.4527232050895691,-0.010404705069959164,-0.0014389589196071029,0.050747133791446686,0.09909048676490784,0.00696828868240118,0.01496672723442316,0.18991728127002716,0.13120725750923157,0.11626479029655457,0.175822913646698,0.19811397790908813,0.06346607953310013,-0.014518534764647484,0.030709143728017807,0.07412329316139221,-0.0565406009554863,0.025987988337874413,0.11116781085729599,-0.10245402902364731,-0.1565786749124527,-0.1131124496459961,-0.10660479962825775,0.04405088722705841,0.2299165427684784,0.08137726038694382,0.2312907576560974,0.13439781963825226,0.11375673860311508,-0.04843171313405037,-0.273641437292099,0.020262237638235092,-0.06238231062889099,-0.016804564744234085,0.1234007477760315,-0.03183244541287422,0.480478972196579,-0.025594007223844528,0.032330453395843506,0.12205660343170166,0.08315207809209824,0.03484692424535751,0.18548685312271118,-0.056942909955978394,0.02299414947628975,0.0324581116437912,0.07773695886135101,0.1959594488143921,0.18424250185489655,-0.13553288578987122,-0.11856860667467117,-0.18005381524562836,-0.08585093915462494,-0.07983709126710892,0.05036365985870361,0.05208573490381241,0.0297296904027462,-0.006191548891365528,0.016425982117652893,0.1172255352139473,0.1352246105670929,0.007758978754281998,-0.023705707862973213,-0.003270344343036413,-0.015783363953232765,0.07639524340629578,0.015458183363080025,-0.057236019521951675,0.10471301525831223,0.15286317467689514,0.16535893082618713,0.009167290292680264,-0.3393656015396118,0.10517717152833939,0.18009500205516815,-0.03856049105525017,0.07897362112998962,-0.023973582312464714,-0.02508470043540001,0.06336178630590439,-0.022138655185699463,0.008944260887801647,0.21353867650032043,0.05962307006120682,-0.24711784720420837,-0.004127895925194025,0.0842328891158104,0.06502235680818558,0.10038582980632782,0.0679248571395874,0.16011829674243927,-0.08225402235984802,0.06810275465250015,0.0802973210811615,0.08630307018756866,0.24742332100868225,0.33442172408103943,-0.02533942461013794,0.11357119679450989,0.07509125769138336,-0.022814877331256866,-0.060862839221954346,0.17959706485271454,-0.0780717059969902,-0.03864402323961258,0.04015418142080307,0.0006206078687682748,0.04460835084319115,-0.0841139554977417,-0.005514145363122225,-0.028717702254652977,-0.05772358924150467,-0.07323063164949417,-0.015814367681741714,0.030720951035618782,-0.01833927631378174,0.04617728665471077,0.12707842886447906,0.0318652018904686,0.013509588316082954,-0.012081773951649666,0.05598418042063713,-0.04113670438528061,0.042197879403829575,-0.0413556732237339,0.06945697963237762,-0.14491082727909088,-0.02570424973964691,-0.009273785166442394,-0.10573422908782959,0.08675505220890045,-0.11951406300067902,-0.002137265633791685,-0.02648504450917244,-0.018186703324317932,0.06295899301767349,-0.03500685095787048,0.04598378390073776,-0.01296213362365961,0.022537609562277794,-0.0434691458940506,-0.008612762205302715,-0.10274752974510193,-0.004532765597105026,0.004716083873063326,-0.007749668322503567,0.0017409902065992355,-0.03372054174542427,0.046394553035497665,-0.09672655910253525,0.0944276973605156,-0.08799640834331512,0.048282574862241745,0.031195497140288353,0.03967084363102913,0.03224603459239006,-0.053817953914403915,0.026095205917954445,0.03561307489871979,-0.07342590391635895,-0.048149850219488144,0.06685419380664825,0.10871762037277222,0.02377626672387123,0.05763605982065201,-0.024651555344462395,-0.1263418197631836,0.08629712462425232,-0.22090071439743042,-0.1265091598033905,-0.07081460952758789,-0.1465245932340622,-0.15226846933364868,-0.03290048986673355,0.07021686434745789,0.0655125305056572,0.12492408603429794,0.05587062984704971,-0.09129201620817184,0.0760495588183403,-0.24757757782936096,-0.01874702051281929,0.021576756611466408,0.048287536948919296,-0.005051663611084223,-0.04746701568365097,-0.11645668745040894,0.06902924180030823,0.03202174976468086,0.01327109057456255,-0.020491277799010277,0.0477352999150753,0.19813339412212372,0.05648569390177727,0.11098800599575043,0.14908646047115326,0.1405901163816452,0.08121424168348312,-0.17477037012577057,-0.04430459067225456,-0.09730583429336548,0.024818817153573036,-0.03786829486489296,-0.17469629645347595,-0.22050447762012482,0.07907741516828537,0.033877696841955185,0.0639052465558052,0.09752174466848373,-0.027325941249728203,-0.07787425816059113,0.0033767130225896835,-0.019745251163840294,-0.0545671321451664,-0.12332868576049805,-0.0080029321834445,0.07880851626396179,0.028194867074489594,0.06645960360765457,0.06415381282567978,0.11604205518960953,0.12870816886425018,-0.10530026257038116,0.08515841513872147,0.03156290948390961,0.05131082609295845,-0.007704893127083778,-0.02762865647673607,0.3794495761394501,0.10261289030313492,0.0666026696562767,-0.045999206602573395,0.022094354033470154,-0.1616337150335312,0.011908791027963161,0.00352670275606215,0.09287691116333008,0.08002891391515732,-0.026838399469852448,0.00988773163408041,0.07665734738111496,-0.0234435573220253,0.12416047602891922,0.08245562762022018,-0.043406665325164795,0.029486006125807762,-0.009218701161444187,0.13426122069358826,-0.03325938060879707,0.03938807547092438,-0.0970061793923378,-0.061928268522024155,0.02388158068060875,0.07293768227100372,-0.21292592585086823,0.15902544558048248,0.150732159614563,0.11780126392841339,-0.11367199569940567,-0.1460210531949997,0.2518816590309143,0.35460570454597473,0.031357333064079285,-0.7094794511795044,0.15580986440181732,-0.7026935815811157,0.0027219613548368216,-0.06135252118110657,0.7403092980384827,-0.29626283049583435,0.33153194189071655,0.09892889112234116,0.13635163009166718,0.17844019830226898,-0.03562984988093376,-0.032218821346759796,0.15909945964813232,0.09423559159040451,0.11385051906108856,-0.06949769705533981,-0.15218137204647064,0.13013167679309845,-0.16011343896389008,0.2851730287075043,0.26047036051750183,-0.10590173304080963,-0.14147114753723145,0.1786857694387436,-0.05958356708288193,0.09742588549852371,0.08620154112577438,0.07620108127593994,-0.022698862478137016,0.13738837838172913,0.29935139417648315,0.01699736714363098,-0.018079029396176338,-0.1761193722486496,-0.1492333859205246,0.13507600128650665,0.032057929784059525,-0.176249161362648,0.01286097802221775,0.21994681656360626,-0.21072708070278168,-0.2736261188983917,0.13875257968902588,0.23654508590698242,0.03151526674628258,0.1969279646873474,-0.5591803789138794,0.30665966868400574,-0.04957960918545723,-0.08494889736175537,-0.07406395673751831,0.03718261048197746,-0.22000135481357574,0.3173985183238983,0.17282825708389282,-0.2939983606338501,0.29352807998657227,-0.3904120922088623,-0.1969899982213974,-0.31100669503211975,0.30281174182891846,-0.03743162006139755,0.0018430675845593214,0.3006684482097626,-0.3271085321903229,-0.1134616956114769,0.03381485491991043,0.25688594579696655,-0.13539595901966095,0.053364500403404236,0.31432440876960754,-0.3072870075702667,-0.2075607031583786,0.1444653570652008,-0.02418072335422039,0.16695667803287506,-0.07752060145139694,0.0013968212297186255,-0.07784180343151093,-0.0643053650856018,-0.04703974723815918,-0.0008678424055688083,-0.042855631560087204,0.12913566827774048,-0.06532398611307144,-0.010292806662619114,0.0060733165591955185,-0.049528855830430984,0.031418297439813614,0.10012491047382355,-0.1681911200284958,-0.11772383749485016,-0.019475508481264114,-0.00419278210029006,-0.008952131494879723,-0.03299550712108612,-0.017136186361312866,-0.013052484951913357,0.007938244380056858,-0.03845386952161789,-0.13797743618488312,-0.00019487773533910513,-0.01516956090927124,-0.04792385920882225,0.06794124096632004,-0.016044164076447487,-0.044544074684381485,0.14831574261188507,0.008908688090741634,-0.14562280476093292,0.09204476326704025,0.2101455181837082,-0.21869724988937378,-0.1960953176021576,0.019342325627803802,0.10855554044246674,-0.010779223404824734,-0.0851171687245369,0.13152548670768738,0.07060837000608444,0.07042272388935089,-0.05834232643246651,0.13669507205486298,-0.0022107346449047327,-0.14686791598796844,-0.06702661514282227,-0.0075831180438399315,0.003414242761209607,-0.06841661036014557,-0.14961566030979156,-0.028139164671301842,-0.15420429408550262,-0.11752469837665558,0.08130858093500137,0.014336357824504375,-0.16722452640533447,-0.12988966703414917,0.0020012934692204,0.009656663984060287,-0.10129480063915253,-0.12894542515277863,-0.04810716584324837,0.02023046463727951,-0.06740239262580872,-0.009120370261371136,0.16210855543613434,0.011119919829070568,-0.13637568056583405,0.018883341923356056,-0.017229732125997543,-0.0008978834957815707,0.021780453622341156,0.08305669575929642,-0.007160012610256672,-0.03471850976347923,0.08738313615322113,0.0654100701212883,-0.024086039513349533,0.03157923370599747,-0.04629746451973915,0.008680799044668674,-0.02188570611178875,0.014970222488045692,0.11072643846273422,-0.0567643977701664,-0.07392049580812454,0.08807844668626785,0.04046189785003662,-0.04334381967782974,0.039072148501873016,0.190740168094635,0.07867788523435593,-0.11212802678346634,-0.17634576559066772,-0.13686272501945496,-0.15171417593955994,-0.013114400207996368,-0.07051089406013489,-0.2301257699728012,-0.19828848540782928,-0.023010026663541794,-0.0579075962305069,-0.10713540017604828,-0.2136821746826172,-0.32311922311782837,-0.09165394306182861,0.009569471701979637,-0.021421588957309723,0.21044790744781494,-0.043371379375457764,-0.05724845081567764,-0.007605390157550573,0.03901001438498497,0.06098831072449684,-0.05288384109735489,0.05578133463859558,-0.0969826951622963,-0.11663657426834106,-0.056418031454086304,-0.07584249973297119,-0.05236482247710228,-0.14798831939697266,-0.06217578798532486,0.09470576047897339,0.038254085928201675,0.028622087091207504,0.20973432064056396,0.014308587647974491,-0.13996103405952454,0.029803335666656494,-0.06659599393606186,-0.002271672710776329,-0.27795037627220154,0.015917455777525902,0.022252924740314484,0.06645886600017548,0.055566877126693726,0.08739060163497925,0.1685623675584793,-0.026740053668618202,0.034352704882621765,0.11175446212291718,0.09608334302902222,0.23329991102218628,0.11304663121700287,0.0011614030227065086,0.09045931696891785,0.015027173794806004,0.09114564210176468,0.06356554478406906,-0.015593004412949085,0.1460922807455063,0.3183059096336365,0.18178781867027283,0.09556526690721512,0.010372969321906567,-0.0032666095066815615,-0.03695980831980705,-0.33056703209877014,-0.13266819715499878,-0.03242813050746918,-0.14971104264259338,-0.17660380899906158,-0.13013899326324463,-0.031559426337480545,-0.0050217523239552975,-0.07327776402235031,-0.0904657170176506,0.0256698876619339,-0.014033644460141659,0.3470156788825989,-0.10609856992959976,0.07267709076404572,-0.017810655757784843,-0.0493779182434082,-0.01395008061081171,-0.10275553166866302,0.0468413271009922,-0.028611335903406143,-0.08799081295728683,-0.01893273927271366,-0.05377998203039169,0.10036255419254303,-0.20863845944404602,-0.0656939446926117,-0.13651317358016968,-0.06107693165540695,0.06093679741024971,0.2878515422344208,-0.014657587744295597,0.0017834195168688893,-0.03630916401743889,-0.07407970726490021,-0.06676679849624634,-0.13435810804367065,0.04468736797571182,-0.02918674610555172,-0.056968193501234055,-0.10135267674922943,-0.12262352555990219,-0.22682616114616394,-0.1283910721540451,-0.05675271525979042,-0.025926819071173668,0.04621560871601105,0.06409138441085815,-0.009437170810997486,0.15749110281467438,0.018743040040135384,-0.0008915612706914544,-0.04090169072151184,-0.07339490950107574,-0.09854909032583237,0.062283873558044434,0.1177370473742485,0.13046659529209137,0.10313737392425537,0.12490951269865036,0.1163385659456253,-0.013168884441256523,-0.04081705957651138,-0.05839565768837929,-0.0732857882976532,-0.07441561669111252,-0.07414345443248749,0.08387243002653122,0.03837452083826065,0.02943238988518715,0.03156276047229767,0.05974307656288147,0.11864300817251205,0.09992046654224396,0.05541342869400978,0.07952052354812622,0.049962859600782394,0.06350758671760559,0.09492739289999008,-0.3047527074813843,-0.16695766150951385,-0.1875845193862915,-0.24138139188289642,-0.24980200827121735,-0.08028362691402435,-0.13337568938732147,-0.08697833120822906,-0.13626781105995178,-0.09321314841508865,-0.011058528907597065,-0.020182780921459198,0.022371118888258934,0.042336951941251755,-0.07803981006145477,-0.060190070420503616,-0.004375769291073084,0.1223263069987297,0.049891386181116104,0.030298519879579544,-0.0053509003482759,0.038580767810344696,0.022829445078969002,-0.09973351657390594,-0.028864433988928795,0.001163237844593823,0.02053702063858509,0.10794825106859207,0.058342039585113525,0.03619760647416115,0.07401563972234726,-0.01110378559678793,-0.05508939176797867,-0.09689906239509583,-0.10565327107906342,0.08797328919172287,0.06759559363126755,-0.002875280799344182,-0.05224985256791115,-0.042568664997816086,-0.022214259952306747,-0.37067320942878723,0.09295093268156052,-0.009260621853172779,0.09714189171791077,0.17048713564872742,0.10110653191804886,0.14778846502304077,0.10010146349668503,0.14598818123340607,0.1086818277835846,0.17550575733184814,0.33278200030326843,0.02780613861978054,0.31388288736343384,0.29345235228538513,0.23426063358783722,0.10596156120300293,0.05982959643006325,-0.17508624494075775,0.005716206505894661,-0.01833915337920189,0.021933551877737045,0.06356946378946304,0.2005210518836975,0.027940453961491585,0.08167453110218048,0.12131879478693008,0.2200462967157364,0.008680564351379871,-0.04071313515305519,-0.07108288258314133,0.13550341129302979,-0.037108682096004486,-0.002908367430791259,0.005356675013899803,-0.012594024650752544,0.027857622131705284,0.025874542072415352,0.08445172011852264,0.18145710229873657,0.023746274411678314,0.04397323355078697,-0.0760054662823677,0.013155770488083363,-0.02883073315024376,0.0011353341396898031,0.07004830241203308,0.1141720786690712,0.10285768657922745,0.1348971575498581,0.05155012011528015,0.12544144690036774,-0.11394427716732025,-0.19874310493469238,-0.05899612605571747,-0.20103290677070618,-0.13555927574634552,-0.20135943591594696,-0.2813880145549774,-0.2571398615837097,-0.14697420597076416,-0.1235017403960228,-0.10496361553668976,-0.12443279474973679,-0.12683862447738647,-0.06175308674573898,-0.3742017149925232,0.01285562478005886,0.011870017275214195,-0.0032534541096538305,-0.06775961071252823,-0.060998063534498215,0.2770254611968994,-0.035609178245067596,0.021708542481064796,-0.07026299089193344,-0.00548257352784276,-0.031342361122369766,-0.1287514567375183,-0.038156334310770035,-0.043173689395189285,-0.09536805003881454,0.017775490880012512,-0.03037300705909729,-0.13660173118114471,0.05625033751130104,-0.06165982410311699,-0.15048031508922577,-0.06246719881892204,-0.005673058796674013,0.38616517186164856,0.09437615424394608,-0.021019384264945984,-0.06890977919101715,-0.0421651154756546,-0.025439482182264328,-0.3491519093513489,0.00689814705401659,-0.022563107311725616,-0.14217235147953033,-0.0023887595161795616,0.03761763125658035,-0.20748110115528107,-0.03461954742670059,-0.07010849565267563,-0.2355722188949585,-0.0010382399195805192,-0.06944432854652405,-0.12837138772010803,-0.009785517118871212,-0.29308995604515076,-0.003319299314171076,-0.009007243439555168,0.013297081924974918,0.1471310257911682,-0.011709521524608135,-0.07848570495843887,0.2850511074066162,-0.05265875160694122,0.006133209448307753,-0.07818236202001572,-0.2411031872034073,0.055676136165857315,-0.10075825452804565,0.20275680720806122,-0.1626749187707901,0.151554137468338,-0.25642910599708557,0.285808801651001,-0.33123576641082764,-0.36129626631736755,0.21796026825904846,-0.4469069838523865,0.0703335851430893,-0.0584338903427124,0.06402204930782318,-0.025843093171715736,-0.0032458940986543894,-0.026955753564834595,0.009730784222483635,-0.12965109944343567,-0.1750115007162094,0.08591402322053909,0.19487591087818146,-0.15283234417438507,0.30853840708732605,0.11996259540319443,-0.03269609063863754,0.3704509139060974,0.22767436504364014,0.23175625503063202,-0.05874819681048393,0.04882483184337616,-0.3390653729438782,-0.17317497730255127,-0.10078874975442886,0.006273098289966583,-0.13962841033935547,-0.4920274615287781,-0.05934258922934532,-0.0009362337295897305,-0.14677001535892487,-0.1840892732143402,-0.0817454382777214,0.22914040088653564,-0.1686018705368042,-0.180665984749794,0.012178308330476284,-0.06391751021146774,-0.02552749216556549,0.025463758036494255,-0.13809354603290558,0.007659364491701126,-0.30385246872901917,-0.060455258935689926,0.01042359322309494,0.0557921901345253,0.23295298218727112,-0.17305561900138855,0.1213039755821228,0.06259076297283173,0.19158093631267548,0.09667348116636276,-0.0315098911523819,-0.06071121618151665,-0.22073812782764435,-0.07861101627349854,0.15352587401866913,0.047670744359493256,-0.057214315980672836,0.02721167542040348,0.10922817140817642,0.07129228115081787,0.16254226863384247,-0.10631437599658966,0.01689027063548565,-0.12116101384162903,-0.2411399930715561,-0.08290977776050568,-0.09279094636440277,-0.10185395926237106,-0.11838950961828232,0.0022698205430060625,0.2070460170507431,0.060965053737163544,0.18521876633167267,-0.03802160546183586,0.006445955950766802,-0.006058436818420887,-0.08542850613594055,0.09696872532367706,0.1670086681842804,-0.023805243894457817,-0.03454345092177391,-0.27518266439437866,0.2392018884420395,-0.09275179356336594,-0.05306745693087578,-0.10438228398561478,0.05059412494301796,0.14445152878761292,0.1275145411491394,0.0636359453201294,-0.038022950291633606,-0.024517104029655457,-0.19365429878234863,0.11643379181623459,0.23113760352134705,-0.0013326776679605246,-0.1262800246477127,-0.06083367019891739,-0.016267748549580574,0.14963963627815247,-0.052339330315589905,0.0792866200208664,-0.01023128256201744,-0.0331093855202198,0.12111178785562515,0.013584925793111324,-0.09665609896183014,0.08949243277311325,0.015469023957848549,0.16979824006557465,0.25309404730796814,0.24632376432418823,0.019449837505817413,-0.18314211070537567,-0.17760038375854492,-0.3441739082336426,-0.2801418602466583,0.020947124809026718,0.07205843925476074,0.05286361277103424,-0.009524478577077389,-0.08227670192718506,-0.015105101279914379,-0.07568647712469101,-0.04836348071694374,0.0624438039958477,0.13646239042282104,0.22313471138477325,0.21419133245944977,-0.08993615210056305,0.049143001437187195,-0.10460972040891647,-0.15759560465812683,-0.2516917586326599,-0.455554723739624,0.04088914394378662,0.04422784969210625,-0.010935170575976372,-0.03173252195119858,-0.02188313566148281,-0.10064272582530975,0.14498543739318848,0.10970237851142883,0.007079905364662409,-0.13830514252185822,-0.2200103998184204,-0.22042089700698853,-0.0028911130502820015,0.06670638173818588,0.018287058919668198,-0.14216618239879608,-0.11554805189371109,0.01931050419807434,-0.04885343089699745,0.1097169741988182,0.036917172372341156,-0.072606161236763,-0.0018406324088573456,0.058634281158447266,0.10660535842180252,-0.15439733862876892,-0.16838005185127258,-0.1860378235578537,-0.13017508387565613,-0.3616199195384979,0.27905216813087463,0.1852698177099228,0.22516337037086487,0.15397314727306366,0.0533362478017807,0.09867627918720245,-0.23048135638237,-0.2513711452484131,-0.25872012972831726,-0.28570041060447693,-0.2572803795337677,-0.21129965782165527,0.1038798987865448,0.14688551425933838,0.11134278774261475,-0.04207821935415268,0.05263298377394676,-0.0007601441466249526,0.04473773017525673,0.10878094285726547,0.12886132299900055,0.07207868248224258,-0.01644947938621044,0.00924480240792036,0.06714393943548203,0.2447960525751114,0.22701981663703918,0.17874452471733093,0.05015396326780319,-0.010847298428416252,-0.22423218190670013,-0.1812773048877716,-0.23471969366073608,-0.21144214272499084,-0.27311262488365173,-0.339080810546875,-0.026567384600639343,-0.17431926727294922,-0.14726054668426514,-0.24609026312828064,-0.1690681278705597,-0.24966131150722504,-0.10762311518192291,-0.10963331907987595,-0.061913177371025085,0.09059661626815796,0.1040290892124176,0.047506894916296005,-0.23462165892124176,0.21571411192417145,0.13190725445747375,0.1614195555448532,0.15103775262832642,0.016543518751859665,0.2627335488796234,0.2359669804573059,0.21170464158058167,0.15632504224777222,0.17981398105621338,0.07800998538732529,0.17855806648731232,-0.18639561533927917,-0.24044081568717957,-0.388948529958725,-0.23609445989131927,-0.30009475350379944,-0.23358967900276184,-0.013798483647406101,0.011004021391272545,0.009131248109042645,0.04053875803947449,0.05906476825475693,0.2584737539291382,-0.055653542280197144,-0.12079672515392303,-0.09105826914310455,-0.09752602130174637,-0.1418880671262741,0.10964632779359818,-0.048081401735544205,-0.08691363036632538,-0.06935297697782516,-0.05746696889400482,-0.06888622045516968,-0.07186882197856903,0.2242460548877716,0.02314751408994198,0.1305120438337326,0.05795896798372269,0.05054958909749985,0.08656150847673416,-0.06177050620317459,-0.18289834260940552,-0.07657621055841446,-0.11058931797742844,-0.031020797789096832,0.19491705298423767,-0.019657233729958534,-0.025210198014974594,-0.08893852680921555,-0.05188403278589249,-0.12742595374584198,-0.336056649684906,-0.0716838389635086,0.047685880213975906,0.01114291325211525,0.05388873070478439,0.08973456174135208,-0.05131690204143524,0.03269273042678833,-0.06782090663909912,-0.07791580259799957,-0.23402228951454163,-0.09483228623867035,0.2691446840763092,-0.03411596268415451,-0.017674755305051804,-0.07139149308204651,-0.05531313270330429,0.04823268949985504,-0.1384870558977127,0.010910655371844769,0.011585582047700882,-0.04607392102479935,-0.034824714064598083,-0.05167648196220398,0.11521922796964645,-0.08581876754760742,0.09297504276037216,0.0429801419377327,0.10080377757549286,0.012626376934349537,-0.20761819183826447,-0.1629985272884369,-0.029804788529872894,0.0267016664147377,-0.061841774731874466,-0.0009141908958554268,-0.15936800837516785,0.23823702335357666,0.2981378138065338,0.17394137382507324,0.08888117969036102,0.1467057168483734,-0.18797987699508667,-0.06390373408794403,-0.11871888488531113,-0.09934340417385101,-0.008783751167356968,-0.15990883111953735,0.10900676995515823,0.18289750814437866,0.2588110864162445,0.24089331924915314,0.20776276290416718,0.24061430990695953,-0.17274171113967896,-0.04289844632148743,-0.062446631491184235,0.12249386310577393,0.09984634816646576,0.07701356709003448,0.02464187890291214,0.012777898460626602,-0.03632616624236107,-0.05355038866400719,-0.08246679604053497,-0.13766589760780334,0.08861593902111053,-0.14025212824344635,-0.22116237878799438,-0.11836337298154831,-0.12552817165851593,-0.13611842691898346,0.23723067343235016,0.05615190416574478,0.06918460875749588,0.18286849558353424,0.07843675464391708,0.2335292398929596,0.02005423605442047,0.10297641903162003,-0.0544438399374485,-0.13757109642028809,-0.0885014459490776,-0.1890990138053894,-0.16640295088291168,-0.07557158917188644,-0.07877297699451447,-0.15876920521259308,-0.03891710937023163,0.024768123403191566,0.08953376114368439,0.18796758353710175,0.06647484749555588,-0.07945512235164642,-0.053593676537275314,0.05944020301103592,0.05766615271568298,0.04894416406750679,0.09627162665128708,0.030322087928652763,0.0010877219028770924,-0.09520947933197021,-0.2038530707359314,-0.2551928758621216,-0.042762838304042816,0.060036979615688324,0.07830911874771118,0.137311652302742,0.23028330504894257,-0.046273261308670044,-0.0180856604129076,-0.07328882068395615,0.03520110994577408,-0.02531750500202179,-0.07934676110744476,-0.1476459503173828,-0.023140527307987213,0.05992854759097099,0.06633201241493225,0.11945086717605591,0.14773204922676086,-0.1073894277215004,0.058195777237415314,0.0848807543516159,0.0997520163655281,0.17423762381076813,0.10281035304069519,-0.04211752116680145,-0.07651650160551071,-0.04204734414815903,-0.0005064847064204514,-0.018744073808193207,0.1302657425403595,0.041614145040512085,0.1278320550918579,0.11047659814357758,0.03235538303852081,0.047675322741270065,-0.03912900760769844,0.04654644802212715,0.003534961026161909,0.0408996120095253,-0.02537710964679718,-0.016135014593601227,-0.0063559263944625854,0.0046831960789859295,-0.07512857019901276,-0.08509062975645065,0.008248703554272652,0.0010402173502370715,0.05132637545466423,-0.003367822151631117,-0.04329342767596245,-0.05644818767905235,0.00569947762414813,-0.015979187563061714,0.28567782044410706,0.12338646501302719,0.10741367936134338,0.07647781074047089,0.0999135822057724,0.14421483874320984,-0.1262316107749939,0.10278812050819397,0.09634815901517868,0.1359645575284958,0.0965203121304512,0.07263735681772232,0.16655375063419342,0.07876025140285492,0.07641591131687164,0.08703728765249252,0.11951526999473572,0.10337527841329575,-0.07437979429960251,-0.06440779566764832,0.1774754822254181,0.18309567868709564,-0.5190932750701904,0.10647144913673401,-0.12277050316333771,-0.17641881108283997,0.11718432605266571,-0.02412019483745098,-0.29911714792251587,-0.08078552037477493,-0.002717152703553438,0.07637746632099152,0.05752266198396683,0.021131381392478943,0.5746000409126282,-0.1989576816558838,-0.4494529068470001,0.014029836282134056,-0.011237943544983864,-0.09746599942445755,0.15430037677288055,-0.14247246086597443,-0.14711934328079224,-0.22088991105556488,-0.15945515036582947,-0.35853806138038635,0.4174143671989441,0.057919763028621674,0.15001408755779266,-0.2933243215084076,0.36836907267570496,0.003237562021240592,0.16840346157550812,0.10475336760282516,-0.13460657000541687,0.35173723101615906,-0.3403506875038147,0.1553361713886261,-0.09756913781166077,0.3102002441883087,0.23917783796787262,-0.06422588229179382,-0.5914750099182129,0.2395864576101303,0.01534014567732811,0.2629863917827606,0.1465415358543396,-0.0968107208609581,-0.24579915404319763,-0.24504142999649048,0.24895600974559784,-0.2646622359752655,0.10296408832073212,-0.20965494215488434,0.18030543625354767,-0.020782919600605965,-0.23955434560775757,0.06873020529747009,0.070440374314785,-0.13371697068214417,-0.18528635799884796,-0.036954086273908615,-0.16131889820098877,-0.09815321117639542,-0.058219294995069504,0.46631863713264465,0.042850349098443985,0.21203848719596863,-0.5063735842704773,0.0700884610414505,0.04352742061018944,0.1590518057346344,0.2680586576461792,-0.17451101541519165,0.1000373587012291,0.041351526975631714,0.1491468995809555,0.1098344624042511,-0.1628965586423874,-0.22394171357154846,-0.007971938699483871,0.0726085752248764,-0.2600380778312683,0.15390127897262573,0.35495805740356445,-0.3214758634567261,-0.2693440318107605,-0.016767455264925957,-0.1505032181739807,-0.1333487331867218,-0.11292026191949844,-0.21412406861782074,0.11462895572185516,0.021971050649881363,-0.06127571314573288,-0.13590210676193237,-0.18542926013469696,-0.34523680806159973,0.014773201197385788,-0.07723566144704819,0.0645097866654396,0.04986688494682312,0.06241912022233009,0.3055315315723419,-0.1265660971403122,0.06434283405542374,0.15497612953186035,0.2482941746711731,0.2516597509384155,0.36267074942588806,-0.2772745192050934,0.09034069627523422,0.07816895097494125,0.04682759568095207,-0.14310283958911896,-0.15589872002601624,0.3789878785610199,-0.053480878472328186,0.04354393109679222,0.0750652626156807,0.005010083317756653,-0.1736898422241211,0.12154698371887207,-0.10449955612421036,-0.039041005074977875,-0.0502224862575531,-0.11772385984659195,-0.12409467250108719,0.2315547913312912,-0.0458250492811203,-0.032379232347011566,0.027563808485865593,-0.019955851137638092,0.05075671151280403,0.08394133299589157,0.10123415291309357,0.1912170797586441,0.12270142138004303,0.1504342406988144,0.14620184898376465,-0.11106090247631073,0.06588994711637497,0.13788700103759766,0.11112206429243088,0.04756413400173187,0.20983457565307617,0.2652803659439087,-0.2839411497116089,-0.14656591415405273,-0.09959640353918076,-0.07527077943086624,-0.09489583969116211,-0.21111421287059784,-0.14032362401485443,-0.05648909509181976,0.017260629683732986,-0.017969714477658272,0.022301997989416122,0.19066902995109558,0.1727880984544754,0.17983269691467285,0.1474119871854782,0.13710977137088776,0.08691263198852539,0.060048311948776245,0.07885844260454178,0.15307804942131042,0.08263028413057327,0.011429189704358578,-0.002451676409691572,-0.18439117074012756,-0.018819276243448257,0.07501334697008133,0.047523096203804016,0.0062298825941979885,-0.0014877269277349114,-0.1664017289876938,-0.13781988620758057,0.049631424248218536,0.11820265650749207,0.02065434120595455,0.06589662283658981,0.243042454123497,0.1172703206539154,0.08228854835033417,0.05416213721036911,0.02999350056052208,0.009574892930686474,0.2598227262496948,-0.04458435997366905,-0.008698639459908009,-0.10009653866291046,-0.06772077083587646,-0.1323310285806656,0.12305526435375214,-0.023485101759433746,0.011460689827799797,-0.03986693173646927,0.12163816392421722,0.08923690021038055,0.30473753809928894,0.002811308717355132,0.03128136694431305,-0.01201197411864996,-0.03393740579485893,0.017715374007821083,0.2521703243255615,0.028412574902176857,-0.08859183639287949,-0.07920229434967041,-0.0083997193723917,-0.11186017096042633,-0.18558251857757568,-0.08444041758775711,-0.012529686093330383,0.019331036135554314,-0.16343627870082855,-0.003592046909034252,-0.3109516203403473,-0.019856087863445282,-0.00022175443882588297,0.05291946604847908,0.050865188241004944,0.10410893708467484,0.0692044049501419,0.020989535376429558,0.05939650908112526,0.1162736639380455,0.11905422806739807,0.15128785371780396,-0.23000183701515198,-0.20330773293972015,-0.17258989810943604,-0.14764997363090515,-0.12242360413074493,-0.06143186241388321,0.46497029066085815,-0.14245076477527618,-0.16183693706989288,-0.22603629529476166,-0.19182495772838593,-0.11993148177862167,0.07834239304065704,0.15603604912757874,0.07775320112705231,0.1694130301475525,0.11425284296274185,0.13290417194366455,-0.2657967209815979,0.11605652421712875,0.0997193306684494,0.12705814838409424,0.036766014993190765,-0.18376874923706055,-0.25887900590896606,-0.055750083178281784,-0.08220165222883224,-0.10741390287876129,-0.050850555300712585,0.0971231684088707,0.36052894592285156,-0.06324640661478043,-0.0779544860124588,-0.08931057155132294,-0.10905160754919052,0.022218825295567513,0.39906346797943115,-0.005826359614729881,-0.06166761368513107,-0.010317686013877392,-0.007572648581117392,0.2288484275341034,0.2167583703994751,0.06254611909389496,-0.01444206666201353,0.040950026363134384,0.022946424782276154,0.02235061302781105,-0.09578268229961395,-0.0876941829919815,-0.0354585200548172,0.18941491842269897,0.11402010172605515,0.08107078820466995,0.004629251081496477,0.20332863926887512,0.09856965392827988,-0.02823568508028984,0.024871280416846275,-0.2950645685195923,0.044352851808071136,-0.06439828127622604,-0.03129231184720993,-0.07099307328462601,-0.013891346752643585,0.01082676649093628,-0.14359736442565918,-0.018532689660787582,-0.17136766016483307,-0.24962536990642548,-0.2342594712972641,-0.1900060772895813,0.023625070229172707,0.08926275372505188,0.08109751343727112,-0.0031544999219477177,0.05592411383986473,0.0037435097619891167,0.14100927114486694,0.1925467550754547,0.028866486623883247,0.13466228544712067,0.013330131769180298,0.131686732172966,0.43841269612312317,0.022384753450751305,0.08144724369049072,0.14953076839447021,0.11248933523893356,0.21133585274219513,0.18539148569107056,-0.06490656733512878,-0.07386863976716995,-0.10395863652229309,-0.10453242808580399,-0.12971827387809753,-0.29164934158325195,-0.10566128045320511,-0.06438546627759933,0.006355097983032465,-0.014703486114740372,-0.07398365437984467,-0.2879657745361328,0.10262022167444229,0.04807097464799881,0.08918058127164841,0.057942308485507965,-0.008529825136065483,0.042560361325740814,-0.10626956075429916,-0.06898608803749084,-0.1350587010383606,-0.023805346339941025,-0.1364872008562088,-0.21312636137008667,0.12060312181711197,0.06523025035858154,0.14688941836357117,0.1374785602092743,-0.0036213465500622988,-0.24317622184753418,0.0066002425737679005,-0.03023579530417919,-0.03305995836853981,-0.035546403378248215,-0.015540806576609612,-0.07333050668239594,-0.07576774060726166,-0.039577461779117584,-0.07038642466068268,-0.14093726873397827,-0.20101793110370636,0.5373172760009766,-0.2375192493200302,-0.14692199230194092,-0.23625312745571136,-0.22189953923225403,-0.266644686460495,0.3225553333759308,-0.13553336262702942,-0.08221052587032318,-0.07691522687673569,-0.11087345331907272,-0.2761653661727905,-0.13120466470718384,0.18373137712478638,0.06954169273376465,0.11224672198295593,0.010146982036530972,0.11247384548187256,-0.10966821014881134,-0.03951908275485039,0.04644281789660454,0.1269322633743286,0.08731415122747421,0.08964172750711441,-0.24870328605175018,-0.28346771001815796,0.010826613754034042,-0.11031846702098846,-0.13421942293643951,0.03470536321401596,-0.3046836256980896,-0.05340901389718056,0.040001966059207916,0.029156750068068504,-0.12247283011674881,-0.22766904532909393,-0.0952088013291359,-0.11713501065969467,-0.026096828281879425,-0.04176807776093483,-0.02634930983185768,-0.005152099300175905,-0.013134755194187164,-0.21011775732040405,-0.0779886245727539,-0.10204733163118362,0.15987178683280945,0.03286418318748474,0.2886687219142914,-0.14733172953128815,-0.02161264605820179,-0.11252359300851822,0.09734655171632767,0.15971319377422333,0.2263302206993103,0.12080850452184677,0.12166476994752884,0.0785607397556305,-0.007395769003778696,0.04412069171667099,0.09476413577795029,-0.04127354919910431,0.04292196407914162,0.08561868220567703,0.07843507081270218,-0.10015515238046646,0.12792031466960907,0.031272172927856445,0.11920987814664841,0.043083712458610535,0.033565741032361984,-0.05388743430376053,0.05263618007302284,0.0030776262283325195,0.04071024805307388,0.01814158819615841,0.07819005846977234,-0.04719948023557663,0.3190799951553345,0.03795306757092476,-0.011487175710499287,-0.04475441947579384,-0.02233855426311493,-0.03667076304554939,-0.04795316606760025,-0.0022196697536855936,0.022608568891882896,0.0705588087439537,0.024796178564429283,0.1351442039012909,0.04422638937830925,0.08019412308931351,0.13812650740146637,0.21570992469787598,0.15757052600383759,0.16552160680294037,0.06018522381782532,0.01105861458927393,0.04467659816145897,0.14283597469329834,0.1187378466129303,0.026285409927368164,-0.05689793825149536,0.010230503976345062,-0.05240621790289879,-0.01213228702545166,