{"version":"0.7.0","architecture":"SlimmableContainer","config":{"submodels":[{"max_value":0.5,"model":{"version":"0.7.0","metadata":{"date":{"year":2026,"month":5,"day":8,"hour":9,"minute":18,"second":4},"loudness":-21.961318969726562,"gain":0.34582937433141187},"architecture":"WaveNet","config":{"layers":[{"input_size":1,"condition_size":1,"head":{"out_channels":1,"kernel_size":16,"bias":true},"channels":3,"kernel_sizes":[6,6,6,6,6,6,6,6,6,6,6,6,6,6,15,15,6,6,6,6,6,6,6],"dilations":[1,3,7,17,41,101,239,1,3,7,17,41,101,239,1,13,1,3,7,17,41,101,239],"activation":[{"type":"LeakyReLU","negative_slope":0.01},{"type":"LeakyReLU","negative_slope":0.01},{"type":"LeakyReLU","negative_slope":0.01},{"type":"LeakyReLU","negative_slope":0.01},{"type":"LeakyReLU","negative_slope":0.01},{"type":"LeakyReLU","negative_slope":0.01},{"type":"LeakyReLU","negative_slope":0.01},{"type":"LeakyReLU","negative_slope":0.01},{"type":"LeakyReLU","negative_slope":0.01},{"type":"LeakyReLU","negative_slope":0.01},{"type":"LeakyReLU","negative_slope":0.01},{"type":"LeakyReLU","negative_slope":0.01},{"type":"LeakyReLU","negative_slope":0.01},{"type":"LeakyReLU","negative_slope":0.01},{"type":"LeakyReLU","negative_slope":0.01},{"type":"LeakyReLU","negative_slope":0.01},{"type":"LeakyReLU","negative_slope":0.01},{"type":"LeakyReLU","negative_slope":0.01},{"type":"LeakyReLU","negative_slope":0.01},{"type":"LeakyReLU","negative_slope":0.01},{"type":"LeakyReLU","negative_slope":0.01},{"type":"LeakyReLU","negative_slope":0.01},{"type":"LeakyReLU","negative_slope":0.01}],"bottleneck":3,"head1x1":{"active":false,"out_channels":1,"groups":1},"layer1x1":{"active":true,"groups":1},"groups_input":1,"groups_input_mixin":1,"conv_pre_film":{"active":false,"shift":true,"groups":1},"conv_post_film":{"active":false,"shift":true,"groups":1},"input_mixin_pre_film":{"active":false,"shift":true,"groups":1},"input_mixin_post_film":{"active":false,"shift":true,"groups":1},"activation_pre_film":{"active":false,"shift":true,"groups":1},"activation_post_film":{"active":false,"shift":true,"groups":1},"layer1x1_post_film":{"active":false,"shift":true,"groups":1},"head1x1_post_film":{"active":false,"shift":true,"groups":1},"gating_mode":["none","none","none","none","none","none","none","none","none","none","none","none","none","none","none","none","none","none","none","none","none","none","none"],"secondary_activation":[null,null,null,null,null,null,null,null,null,null,null,null,null,null,null,null,null,null,null,null,null,null,null],"slimmable":null}],"head":null,"head_scale":0.00738304207762649},"weights":[-1.9941554069519043,-2.9443256855010986,1.5041953325271606,-0.6311271786689758,-0.4502447545528412,-0.11624926328659058,0.11207874119281769,0.32791653275489807,0.15677395462989807,-0.821161687374115,-0.4410218596458435,0.013592218048870564,0.03199741244316101,0.41179877519607544,0.3609289228916168,0.5781623721122742,0.3450736999511719,0.007780956570059061,-0.20443841814994812,-0.2586521804332733,-0.2827921211719513,0.021267754957079887,-0.02783668041229248,0.005751993041485548,0.09730511158704758,0.31367483735084534,-0.3300899863243103,-0.005308432970196009,-0.06241387873888016,0.04647056385874748,0.10675948113203049,0.41450774669647217,-0.4233522415161133,0.002240375615656376,0.025858074426651,-0.021006466820836067,-0.09387785196304321,-0.3148667514324188,0.3052179217338562,-0.6063812375068665,-0.2136325240135193,-0.04137061536312103,0.34070271253585815,0.5022274255752563,0.19985409080982208,-0.6250331401824951,-0.20833085477352142,-0.05686726048588753,0.5242359042167664,0.5484434962272644,0.2535090148448944,0.42014631628990173,0.24663834273815155,0.019549239426851273,-0.37930676341056824,-0.5827409029006958,-0.16708436608314514,0.881040096282959,-0.060287367552518845,0.8374700546264648,-0.5664334297180176,0.29900532960891724,-0.40236708521842957,0.9179132580757141,-0.13727903366088867,1.245058298110962,-0.3680689036846161,0.1786295473575592,0.1772250235080719,-0.5507250428199768,-0.8130136132240295,-0.04639000445604324,-0.5968820452690125,0.29153281450271606,-0.6961204409599304,-0.1997382789850235,0.18724031746387482,-0.2750720679759979,-0.6892520785331726,0.20370937883853912,0.2219281643629074,-0.10734698176383972,0.25191426277160645,-0.3068791329860687,-0.18676385283470154,0.0028850266244262457,0.26795056462287903,-0.14308954775333405,-0.14181984961032867,-0.13515222072601318,-0.010409468784928322,-0.2644108235836029,-0.2058667242527008,-0.0010961286025121808,-0.17227530479431152,-0.08968313783407211,-0.010976262390613556,-0.27469873428344727,-0.07329902797937393,-0.18995097279548645,-0.04135953262448311,0.35514187812805176,0.36054202914237976,-0.17062260210514069,-0.3566562235355377,-0.17524056136608124,-0.13045845925807953,-0.15383563935756683,-0.4415302574634552,-0.01433455478399992,-0.01071487832814455,0.007415591739118099,0.2351074516773224,0.23028664290905,0.08185520023107529,-0.01813630945980549,0.6150897741317749,0.3955850601196289,-0.04959176480770111,-0.013090554624795914,-0.08987416326999664,-0.5492771863937378,-0.2831379771232605,0.06953378766775131,0.3391755223274231,0.6590264439582825,0.38506215810775757,0.16596154868602753,0.04147019982337952,-0.0802057534456253,0.47195911407470703,-0.30828621983528137,-0.6854267716407776,1.6756705045700073,0.030327433720231056,1.0787403583526611,-1.4458469152450562,-0.738398015499115,0.19376815855503082,-0.6334284543991089,0.06426521390676498,-0.019125619903206825,0.13751840591430664,0.8996710181236267,-0.04165277257561684,0.4599725306034088,-0.5401706099510193,-0.03991692140698433,-0.08474865555763245,-0.08803534507751465,-0.18540282547473907,-0.4568312168121338,0.03880634531378746,-0.005269176326692104,0.028936611488461494,-0.16620507836341858,0.16514192521572113,-0.014364643022418022,0.25773677229881287,-0.09591122716665268,-0.19799822568893433,0.06993436068296432,0.001553311594761908,0.07189023494720459,0.26099035143852234,-0.09814894199371338,0.051650989800691605,0.007799459155648947,-0.13317346572875977,-0.4239077568054199,0.3384743928909302,0.19246265292167664,0.31287282705307007,0.28076159954071045,-0.0012401858111843467,-0.15768788754940033,0.3933754861354828,-0.11363277584314346,-0.18288825452327728,-0.13220754265785217,-0.23033401370048523,-0.32444217801094055,-0.3018110692501068,0.041040949523448944,0.1643594652414322,0.1092335432767868,0.00428869528695941,0.014136932790279388,0.4154582917690277,0.1299624741077423,-0.27502205967903137,-0.33178430795669556,-0.025395190343260765,0.3316833972930908,-0.09829257428646088,0.017530372366309166,0.147589311003685,0.25498223304748535,-0.061426714062690735,0.08689362555742264,0.034308578819036484,-0.17692755162715912,0.2846061885356903,0.27748000621795654,0.09141704440116882,-0.3187709152698517,0.06609007716178894,-0.17974597215652466,0.6319921016693115,-0.9334422945976257,-0.3432120084762573,0.3060993254184723,-0.04384249448776245,-0.24131612479686737,-0.08838169276714325,-0.14736677706241608,0.3171844184398651,-0.41134971380233765,-0.330889493227005,-0.17739085853099823,-0.09267101436853409,-0.19835247099399567,0.071601003408432,0.005818092729896307,0.4944351613521576,0.46637997031211853,0.3663877248764038,0.6345145106315613,0.1924092173576355,0.18611523509025574,0.14706075191497803,-0.06310424953699112,-0.20412518084049225,-0.15999266505241394,-0.061265911906957626,-0.06719512492418289,-0.10954849421977997,0.06548388302326202,0.052622392773628235,0.11889443546533585,-0.019329208880662918,0.18216487765312195,-0.18803490698337555,-0.20000527799129486,-0.1814732700586319,-0.2645590007305145,-0.029405470937490463,-0.7038773894309998,-0.017634587362408638,-0.03279496356844902,0.05918128415942192,0.10344745963811874,0.02974339760839939,-0.0951421707868576,0.05896833911538124,-0.14436791837215424,-0.07284191250801086,-0.06431140750646591,-0.030110182240605354,-0.08706989884376526,-0.11322008818387985,0.1737159788608551,0.16607947647571564,0.31202051043510437,0.22264008224010468,0.45629584789276123,-0.1061900183558464,-0.11158157885074615,-0.010126783512532711,0.01666579395532608,-0.09613416343927383,0.18160361051559448,-0.021121032536029816,0.20656763017177582,-0.019670596346259117,-0.03057846799492836,-0.6105145812034607,0.0743122473359108,0.008273336105048656,0.3512238562107086,-0.15462398529052734,-0.29325586557388306,0.48388969898223877,-0.3770470917224884,0.3466978073120117,0.1405276358127594,-0.4953792095184326,0.10827860981225967,0.5777459740638733,-0.4981640577316284,-0.2571731209754944,0.0017832678277045488,-0.0453064925968647,-0.08103449642658234,-0.07447236776351929,-0.14867085218429565,0.20455710589885712,0.06318949162960052,0.1835050731897354,0.3233610987663269,0.3736627399921417,0.6459426283836365,0.3000413775444031,-0.0213136188685894,-0.029930483549833298,0.14258137345314026,0.31095200777053833,0.33728280663490295,-0.31387490034103394,-0.005495790392160416,0.006126790773123503,0.003920945804566145,0.004260156769305468,0.04452529549598694,-0.2271117866039276,-0.0366959311068058,-0.08853422850370407,-0.16019275784492493,-0.19742007553577423,-0.4483007788658142,-0.12162696570158005,0.06909265369176865,-0.019603215157985687,-0.2763521075248718,-0.32474932074546814,-0.45702028274536133,0.5493333339691162,-0.04648784175515175,-0.064150370657444,-0.07908651977777481,-0.1380537450313568,-0.19661591947078705,0.12307549268007278,0.14115533232688904,0.1521802544593811,0.21338705718517303,0.38609305024147034,0.36482998728752136,0.13780060410499573,0.11310570687055588,0.08736132830381393,0.14314666390419006,0.09488291293382645,-0.07190591096878052,0.017497889697551727,0.4882713854312897,-0.014825871214270592,-0.31356048583984375,-0.3392919898033142,0.02005535177886486,0.23282046616077423,-0.12570036947727203,0.13003699481487274,-0.042474936693906784,0.8710110783576965,-0.772461473941803,-0.6667768955230713,-0.3448675274848938,0.1644994020462036,0.18763844668865204,0.6542815566062927,-1.0558981895446777,-1.023779034614563,0.017479052767157555,0.018702736124396324,-0.002694629831239581,-0.01928715594112873,-0.06666611135005951,0.12644900381565094,0.01075668167322874,-0.0031315574888139963,0.01547306589782238,0.01739613153040409,0.1555783599615097,0.6398636102676392,0.02729199267923832,0.04993800073862076,0.05044758319854736,0.052587296813726425,0.14648832380771637,0.5476946830749512,-0.030345521867275238,-0.031109491363167763,0.004328251350671053,-0.022601129487156868,-0.027877485379576683,0.009970310144126415,0.004201059229671955,0.027750879526138306,-0.0119562903419137,0.04168975353240967,0.00357245746999979,0.7548552751541138,0.022056199610233307,0.08228324353694916,0.0406835675239563,0.07799617201089859,0.1274576485157013,0.5791102051734924,0.01064094714820385,0.1208651065826416,-0.08870308101177216,-0.05558003485202789,0.06528711318969727,0.20354150235652924,-0.042712513357400894,-0.09402406215667725,0.07875438779592514,0.11729149520397186,-0.29748982191085815,-0.057656727731227875,-0.11135632544755936,0.08628369122743607,-0.11737272143363953,0.025522392243146896,0.08355118334293365,0.13179630041122437,-1.0368320941925049,-0.8839049339294434,0.1446160078048706,-0.2160787135362625,-0.4806572198867798,0.09529276937246323,-0.5574122071266174,-1.0877269506454468,0.11816683411598206,-0.6940594911575317,-0.39580997824668884,0.11871200054883957,0.5213098526000977,0.24074579775333405,0.5822799205780029,0.06349490582942963,0.013268985785543919,-0.16213078796863556,-0.06541835516691208,-0.0029746920336037874,0.0576215423643589,-0.15368744730949402,0.045593757182359695,0.36384978890419006,0.05659796670079231,0.0027532039675861597,-0.020559344440698624,0.0870409607887268,-0.09151233732700348,0.03445546329021454,-0.04855634272098541,0.03639310225844383,0.18922707438468933,-0.08349908888339996,0.12246105074882507,-0.21958978474140167,-0.006549828220158815,-0.005150227807462215,0.02999289520084858,0.015159372240304947,0.0517738051712513,0.019742649048566818,0.003803458996117115,-0.004472228232771158,-0.019749557599425316,-0.013941749930381775,0.03191259875893593,0.5305672883987427,0.03609112650156021,-0.07020711898803711,-0.1794167459011078,-0.08593999594449997,-0.11051791161298752,0.023447880521416664,0.10223230719566345,0.03784604370594025,-0.08851005136966705,0.15970410406589508,-0.10857616364955902,0.4330448508262634,-0.05349493399262428,0.009836147539317608,0.036628130823373795,-0.0577080063521862,-0.06409206986427307,-0.3070720434188843,-0.028780842199921608,-0.09167581051588058,-0.05117232725024223,-0.007238362450152636,0.010354513302445412,-0.1569833606481552,-0.11952369660139084,0.09570556879043579,0.13331268727779388,0.0759047418832779,-0.17968246340751648,0.11131992936134338,0.34546858072280884,0.3131479024887085,0.365376740694046,0.16489417850971222,0.34936538338661194,0.03921036422252655,0.488155335187912,0.2034563422203064,0.19141028821468353,0.06851013749837875,0.2731102406978607,-0.10385790467262268,0.3798731565475464,0.15582682192325592,0.3779640793800354,0.30309516191482544,0.33285319805145264,0.3489341735839844,-0.6494196057319641,-0.3321726322174072,-0.3450790345668793,-0.21436940133571625,-0.26973241567611694,-0.37500977516174316,0.17573334276676178,-0.04162371903657913,-0.011924738995730877,-0.09096582233905792,-0.0008817673660814762,0.2946353852748871,0.7515102028846741,0.821324348449707,0.5823097229003906,0.37998083233833313,-0.04983425885438919,-0.2022378295660019,0.36163330078125,0.5883194804191589,0.5031653046607971,0.36244380474090576,0.14372406899929047,-0.21866825222969055,-0.40065231919288635,-0.4063760042190552,-0.3140254318714142,-0.1378127783536911,-0.006045511923730373,0.1671023666858673,0.06880895793437958,0.13620230555534363,0.0410580039024353,-0.18801946938037872,0.012464387342333794,-0.11978168040513992,0.33193299174308777,0.4699864685535431,0.33368560671806335,0.18190166354179382,0.0850449725985527,0.09573785215616226,-0.04812163487076759,-0.03768618032336235,-0.078581802546978,0.07832350581884384,0.010491988621652126,0.30396732687950134,0.07753387838602066,0.5694255828857422,0.09916335344314575,0.15957008302211761,-0.06263938546180725,0.020442571491003036,-1.1363048553466797,0.3936312198638916,0.505971372127533,0.19812725484371185,-0.07282852381467819,-0.19712209701538086,-0.3713444471359253,-1.2188211679458618,-0.8374908566474915,-0.09513869881629944,-0.23561495542526245,0.13350871205329895,0.16639375686645508,0.20490802824497223,0.08805973082780838,0.16698409616947174,-0.10822917520999908,0.20548224449157715,0.2776673138141632,0.01354887243360281,0.4017952084541321,-0.6998239159584045,-0.9784733653068542,0.5706669688224792,0.028950342908501625,-0.19587184488773346,0.054667215794324875,-0.12514489889144897,-0.05749581381678581,-0.026455191895365715,0.3027883768081665,0.10864701122045517,-0.01993001438677311,0.14276129007339478,0.011923647485673428,-0.259732723236084,0.22384527325630188,-0.08506734669208527,0.5038767457008362,0.03970282897353172,-0.34167852997779846,0.5259855389595032,-0.16451025009155273,0.09303127974271774,0.0402677021920681,0.030593689531087875,0.015696002170443535,-0.13271406292915344,-0.263957679271698,-0.21303366124629974,-0.18281151354312897,-0.15592052042484283,-0.16673588752746582,-0.24767757952213287,-0.1294238567352295,-0.07769370079040527,-0.08482116460800171,-0.05723664537072182,-0.04177439585328102,-0.16404610872268677,0.2057061791419983,0.13424207270145416,0.10407132655382156,0.17630888521671295,0.2520346939563751,0.30568793416023254,0.18268728256225586,0.11337240040302277,-0.08869263529777527,0.04605083540081978,0.06188078969717026,-0.019020525738596916,0.44964325428009033,0.6360098123550415,0.012518815696239471,-0.4532431662082672,-0.30396783351898193,-0.2541999816894531,0.9089986681938171,0.633479654788971,-0.532749354839325,-0.624055802822113,-0.3108348548412323,0.2741624414920807,-0.13421210646629333,-0.336676687002182,-0.40186959505081177,-0.06425755470991135,0.14234071969985962,-0.00137338787317276,-0.0843350812792778,-0.1824827641248703,-0.5326388478279114,-0.2615167796611786,-0.026713905856013298,-0.059558577835559845,0.05068964883685112,0.12981635332107544,0.20953594148159027,-0.09898586571216583,0.33550146222114563,-0.06456276029348373,0.20821459591388702,0.07799070328474045,0.02549142763018608,-0.32848870754241943,-0.1156693622469902,-0.0005339776398614049,0.14625319838523865,0.18711185455322266,-0.03031420335173607,0.15761156380176544,0.015089866705238819,0.031812749803066254,-0.04505893588066101,0.05116384103894234,-0.08169426023960114,0.4781939387321472,-0.11689452826976776,0.03658927232027054,0.03915754333138466,0.12560783326625824,0.2540625333786011,0.32237759232521057,0.3305642306804657,-0.16723644733428955,0.06955239176750183,0.1101386547088623,-0.03770503029227257,0.00020952621707692742,0.1074993833899498,0.04451899230480194,0.235517680644989,-0.1405159831047058,0.22903326153755188,-0.050198014825582504,0.0031521539203822613,-0.08333592861890793,-0.10110247135162354,-0.021490275859832764,-0.05978485569357872,-0.052987147122621536,0.017794234678149223,0.0658697709441185,0.8670455813407898,-0.5097664594650269,0.5271651148796082,-0.12872475385665894,-0.16227410733699799,0.1817808896303177,0.2618880867958069,-0.3650180995464325,0.2806459367275238,-0.34659743309020996,-0.5644142627716064,0.3459285497665405,0.04418147727847099,0.12105002999305725,0.13377460837364197,-0.017879389226436615,-0.026369733735919,0.000605075154453516,0.036460887640714645,0.06434847414493561,-0.18747670948505402,0.0168029572814703,0.08784214407205582,0.08559739589691162,0.12831352651119232,0.1580972671508789,0.021432865411043167,0.008582552894949913,0.0334305614233017,0.09323535859584808,-0.05905836448073387,0.0227674450725317,-0.1085599884390831,-0.18661798536777496,-0.035561442375183105,-1.1628623008728027,-0.004415739793330431,-0.02214466780424118,-0.00419361749663949,-0.07274972647428513,0.05477156862616539,0.12001550942659378,-0.029175294563174248,-0.009419596754014492,-0.06834754347801208,-0.01506941020488739,-0.08935236185789108,0.9552030563354492,-0.06901911646127701,-0.06671087443828583,0.02637145109474659,-0.17795759439468384,-0.08041254431009293,-0.6649727821350098,-0.20069079101085663,0.040489599108695984,0.1043073758482933,0.3058733642101288,0.07155304402112961,0.6127556562423706,-0.04127174988389015,0.0022992314770817757,-0.005508842878043652,0.010211292654275894,-0.11788441240787506,-0.3630159795284271,-0.026711098849773407,0.31323498487472534,-0.09537097811698914,0.004152002278715372,0.017359847202897072,0.11095431447029114,0.07866621762514114,1.0430527925491333,0.16272981464862823,-0.1541270613670349,0.5647170543670654,-1.1113659143447876,0.3492458164691925,-1.161009669303894,0.777488648891449,-0.3424857258796692,-0.40012577176094055,0.0821346566081047,0.0033650596160441637,-0.010879406705498695,-0.048755258321762085,-0.019093438982963562,0.23878464102745056,0.0023906647693365812,-0.1804848313331604,-0.03699788078665733,-0.2800586223602295,-0.29054903984069824,-0.3915518522262573,-0.11669400334358215,-0.03680197522044182,0.00581270270049572,-0.06722413748502731,-0.11291278898715973,0.14836081862449646,0.08036225289106369,-0.04257320240139961,0.023450996726751328,0.1043228954076767,-0.10066194087266922,-0.03903675451874733,0.036849990487098694,-0.19477881491184235,-0.06299655884504318,-0.04152170568704605,-0.04133989289402962,-0.18944595754146576,0.2699367105960846,0.17711561918258667,-0.09819100052118301,0.01763102412223816,-0.016369221732020378,0.005511878058314323,0.07569942623376846,-0.009208183735609055,-0.012246506288647652,-0.12460305541753769,-0.18728922307491302,-0.12397124618291855,-0.1156381294131279,-0.22210343182086945,-0.014730731025338173,-0.28762632608413696,-0.40135735273361206,-0.11328466236591339,0.6791375875473022,-0.05020331218838692,-0.024255450814962387,-0.009203304536640644,-0.05354675278067589,-0.04766213148832321,-0.05884410813450813,0.23968830704689026,0.037162117660045624,0.15651080012321472,0.08312902599573135,-0.008035915903747082,-0.03325740620493889,-0.7599517703056335,0.11665768921375275,0.7975296974182129,-0.4566941261291504,-0.22877326607704163,-0.21846726536750793,0.2037181556224823,-0.05300777405500412,-0.003835040843114257,-0.3303079307079315,-0.4158107340335846,0.006936961319297552,-0.0015533827245235443,0.0825875774025917,-0.22918584942817688,-0.22161461412906647,0.0789215937256813,0.09310116618871689,0.018049558624625206,-0.0010524532990530133,0.026300163939595222,-0.028551114723086357,-0.16375666856765747,-0.1442076563835144,0.1205282211303711,-0.042961232364177704,0.09392109513282776,-0.14022669196128845,0.08996634930372238,-0.25107890367507935,7.085615834512282e-06,-0.10307106375694275,0.22945669293403625,0.1694457083940506,-0.12454593926668167,-0.11119196563959122,0.0053328657522797585,0.010781817138195038,-0.0421479307115078,-0.09207215160131454,0.10829746723175049,0.1515510082244873,-0.12382733076810837,0.05118246376514435,-0.08923371136188507,0.13634267449378967,-0.09995722770690918,0.26521605253219604,-0.03893415257334709,-0.019017301499843597,-0.010838109068572521,0.07392316311597824,0.026063749566674232,-0.218661829829216,-0.024037860333919525,0.0215038750320673,0.06383785605430603,0.23090460896492004,0.09092691540718079,-0.21051199734210968,-0.023819470778107643,0.004920682404190302,0.007346495985984802,0.06381383538246155,-0.05560656636953354,-0.21721884608268738,0.14892806112766266,0.05906952917575836,-0.08597788959741592,-0.044064875692129135,0.008270034566521645,-0.02959461882710457,-0.0269299428910017,0.0030440695118159056,0.37526634335517883,0.5899190902709961,-0.4423903524875641,0.1535937637090683,0.3392277657985687,-0.24181701242923737,0.1754625141620636,-0.17045541107654572,-0.415905237197876,-0.08466564118862152,-0.005324199795722961,0.02331598848104477,0.07232478260993958,0.01293330080807209,-0.06824083626270294,0.09575920552015305,-0.08139713853597641,0.0074324230663478374,0.07194440811872482,0.06990238279104233,-0.19511528313159943,0.20223912596702576,-0.0704730749130249,-0.06479188799858093,-0.009180494584143162,0.11184679716825485,-0.21375806629657745,-0.008674465119838715,0.0013002186315134168,-0.025645552203059196,-0.05588288977742195,-0.0003033615939784795,-0.04356459528207779,0.09095405787229538,-0.09375649690628052,-0.033907584846019745,0.06075138598680496,0.1694258153438568,-0.04314778745174408,-0.3270964026451111,-0.014437426812946796,-0.035174157470464706,-0.007149773649871349,0.03195897862315178,0.08589077740907669,0.030850283801555634,-0.005639275070279837,0.018219223245978355,0.04092579334974289,-0.0015997812151908875,0.03579256683588028,-0.04465191066265106,0.06847730278968811,0.041074238717556,-0.03183189406991005,-0.1282021403312683,0.021059107035398483,0.24996881186962128,0.009781623259186745,0.03143860027194023,0.011525602079927921,-0.037475429475307465,-0.06556427478790283,-0.01928795501589775,0.06679560244083405,0.29927587509155273,-0.0419187992811203,-0.022319640964269638,0.03358753025531769,0.06943408399820328,-0.1170278787612915,0.5326584577560425,-0.4822946786880493,0.2150203138589859,0.2333538979291916,-0.2939276695251465,0.23235298693180084,0.20403225719928741,-0.39728114008903503,-0.2656315565109253,-0.15615908801555634,0.02363429218530655,-0.24485094845294952,-0.14829044044017792,-0.033495962619781494,0.06804510205984116,0.057375770062208176,-0.04203678295016289,-0.1009732037782669,-0.17210321128368378,-0.22601087391376495,-0.22144538164138794,-0.1572539359331131,-0.0875505730509758,0.001298838178627193,0.07078119367361069,0.2270902842283249,0.05867535620927811,0.06873428076505661,-0.03608902543783188,-0.09592758864164352,-0.09592893719673157,-0.09252248704433441,-0.05241855978965759,0.05216538533568382,0.01711372844874859,0.07912928611040115,0.10431563854217529,0.09292083233594894,0.03846327215433121,-0.0016446333611384034,-0.08146592974662781,-0.009015534073114395,-0.09263578057289124,-0.10986388474702835,-0.09795074909925461,-0.06106515973806381,-0.002819510642439127,-0.029757654294371605,-0.0830763652920723,-0.1337490826845169,-0.11618170142173767,-0.029698649421334267,-0.004289355594664812,0.04588021710515022,0.008559854701161385,0.000554787868168205,-0.07001803070306778,-0.008255147375166416,0.01963668130338192,-0.021615521982312202,0.004353650845587254,0.15490688383579254,0.18714182078838348,0.008345462381839752,0.03893051669001579,0.06663050502538681,-0.020532282069325447,-0.04977913200855255,-0.08683668822050095,0.003030643565580249,0.13550962507724762,-0.18638357520103455,-0.0703936517238617,-0.11164119094610214,-0.042398761957883835,-0.014849028550088406,-0.01678677275776863,0.03844812512397766,-0.058700352907180786,0.02836781181395054,-0.0011997581459581852,0.08128269761800766,-0.025480054318904877,0.022259309887886047,-0.09056032449007034,-0.34635689854621887,0.11928392946720123,0.10853827744722366,0.1475335955619812,0.16635148227214813,-0.03721629083156586,-0.10565013438463211,-0.06334348767995834,-0.01433955505490303,-0.03273440897464752,-0.06756609678268433,0.060504697263240814,0.020549364387989044,-0.03158528357744217,0.08367855846881866,0.0028146994300186634,0.14968211948871613,0.006952835712581873,-0.04084870591759682,0.14039307832717896,-0.0651320144534111,0.06358166038990021,-0.14427271485328674,0.019305113703012466,-0.11687075346708298,0.059205278754234314,-0.09802648425102234,0.07455114275217056,-0.005771144293248653,-0.08307455480098724,0.06929438561201096,-0.20310194790363312,0.005012265872210264,-0.07532145828008652,0.067389577627182,-0.04539084807038307,0.045263901352882385,0.03870019689202309,0.007142885122448206,0.11852135509252548,-0.04420112445950508,0.02439749799668789,-0.03835102915763855,-0.027625754475593567,-0.024331072345376015,-0.10251545161008835,-0.07543160021305084,-0.01481342688202858,0.14828525483608246,-0.03340694308280945,0.03571706637740135,-0.02792140282690525,-0.05873477831482887,-0.15042836964130402,0.06269702315330505,0.10593674331903458,0.0522555410861969,0.008092259988188744,-0.1712946593761444,-0.10286081582307816,0.0545119047164917,-0.07129155099391937,0.06512627750635147,0.08546791970729828,0.022048143669962883,0.10281944274902344,0.10787131637334824,-0.48518282175064087,-0.6785627007484436,-0.4434950053691864,0.13545124232769012,0.5144190788269043,0.522958517074585,-0.15339000523090363,0.3691386580467224,-0.24782340228557587,-0.3754398822784424,0.06961120665073395,-0.18288876116275787,-0.19090093672275543,-0.0649307519197464,0.1302664577960968,0.005296499468386173,-0.06286703050136566,0.040460433810949326,0.2724727392196655,0.18819741904735565,0.20435361564159393,0.36453261971473694,0.19635291397571564,-0.012306081131100655,-0.31690075993537903,-0.4954017996788025,-0.07281182706356049,0.10331323742866516,-0.15652449429035187,-0.1746283918619156,-0.09049682319164276,0.07580466568470001,0.03823751583695412,0.09225786477327347,0.3031202256679535,0.070107102394104,0.20719248056411743,0.09577071666717529,0.08064648509025574,0.020292380824685097,0.4274812936782837,-0.021373750641942024,-0.004671073984354734,-0.055174775421619415,-0.019474567845463753,0.09448413550853729,-0.029722854495048523,-0.09675219655036926,-0.0032930418383330107,0.16610075533390045,0.0554518923163414,0.14136354625225067,0.06949161738157272,0.25351062417030334,0.33479762077331543,-0.37766948342323303,-0.08863037079572678,0.029820630326867104,0.026766538619995117,0.05453105643391609,0.04717386141419411,0.03723619878292084,0.04762212559580803,0.06278608739376068,-0.0518304705619812,0.007925821468234062,-0.033165693283081055,-0.07106901705265045,-0.03718912601470947,0.013216329738497734,0.12356624752283096,0.025967692956328392,-0.1754956692457199,-0.1664605289697647,-0.27544867992401123,-0.10943878442049026,-0.07812359929084778,-0.05921969562768936,-0.16679982841014862,-0.08402787894010544,0.021501028910279274,-0.045585040003061295,-0.06765832006931305,-0.030355261638760567,-0.060939982533454895,-0.020746847614645958,-0.07778425514698029,-0.006431137677282095,0.0698835551738739,0.07487435638904572,0.06569276750087738,0.0088984789326787,0.08137617260217667,-0.08925184607505798,-0.12000245600938797,-0.04349039867520332,-0.042563341557979584,-0.09904460608959198,-0.15047022700309753,-0.050582870841026306,-0.049835752695798874,-0.007068759761750698,0.24870966374874115,0.08992564678192139,-0.18634946644306183,0.031245844438672066,0.09634529799222946,-0.024403899908065796,-0.36983463168144226,-0.16944387555122375,-0.2876112461090088,-0.41221827268600464,-0.24462655186653137,0.034419894218444824,0.6010816693305969,0.4431813061237335,0.05993251875042915,-0.13254563510417938,0.1560700535774231,0.19717121124267578,0.05693064630031586,-0.1605934053659439,-0.04057760536670685,-0.11018887162208557,-0.38140207529067993,-0.17256709933280945,-0.31122198700904846,-0.13454490900039673,-0.10059647262096405,0.06769733130931854,-0.29885488748550415,0.17543941736221313,0.03256216272711754,0.05974578857421875,0.062194112688302994,-0.09021095186471939,0.03403192013502121,0.10923731327056885,0.034895412623882294,-0.1717781126499176,-0.10717253386974335,-0.1549851894378662,-0.09990374743938446,-0.2542518675327301,-0.5074650645256042,0.37008675932884216,0.10518596321344376,-0.11924675852060318,0.3982313573360443,-0.06569814682006836,-0.13315552473068237,0.038006603717803955,0.0031489103566855192,0.3025154173374176,0.22651921212673187,-0.158544659614563,-0.6399341225624084,0.02654939517378807,0.3847435414791107,-0.15658341348171234,0.46104300022125244,0.13789615035057068,-0.1565800905227661,-0.2662563920021057,0.16935424506664276,0.10320482403039932,0.20109106600284576,0.04113414138555527,-0.08978178352117538,0.17236287891864777,0.12561845779418945,-0.4220486879348755,-0.30078020691871643,-0.18331603705883026,-0.309192031621933,-0.03782233968377113,-0.26676225662231445,-0.18508599698543549,-0.2785640060901642,-0.05848339945077896,-0.021201621741056442,0.07870148122310638,-0.14680905640125275,-0.0007845708169043064,0.06835264712572098,0.16822068393230438,0.2115585058927536,-0.0834118127822876,-0.4264799952507019,0.1851576864719391,0.20877957344055176,0.04465949907898903,-0.1861487478017807,-0.19409872591495514,-0.08346222341060638,-0.5289868712425232,-0.46767982840538025,-0.04687672480940819,0.391579270362854,0.45922788977622986,0.18255320191383362,-0.030398989096283913,-0.24092699587345123,-0.36777445673942566,-0.1999475210905075,-0.051498353481292725,0.2149970680475235,0.03578225150704384,0.3114211857318878,0.370345801115036,0.39823734760284424,0.3355608582496643,0.15250003337860107,0.3398924767971039,0.1288745254278183,-0.0389833077788353,-0.0451781302690506,0.025656767189502716,0.28859665989875793,0.11295891553163528,-0.2969077229499817,0.056718699634075165,-0.012746662832796574,0.010919459164142609,0.003939700312912464,-0.23589906096458435,-0.581182062625885,0.20642946660518646,0.1356276422739029,-0.3740980625152588,-0.26468172669410706,0.1498069167137146,0.7087428569793701,-0.19495736062526703,-0.26372936367988586,-0.050065942108631134,-0.023587632924318314,-0.5540613532066345,-0.012888340279459953,0.02204766310751438,0.23475603759288788,0.12961351871490479,-0.06451800465583801,0.36363449692726135,-0.15724606812000275,0.04437412694096565,0.057486649602651596,-0.27318909764289856,0.053156230598688126,0.12327613681554794,-0.4704550504684448,0.38665467500686646,-0.023814814165234566,0.12354785948991776,0.011031733825802803,-0.2860330641269684,0.3137975037097931,-0.09239109605550766,0.27763983607292175,0.34130623936653137,-0.46022558212280273,0.017013708129525185,0.008212393149733543,-0.10107783228158951,0.14430329203605652,-0.14749181270599365,0.23295947909355164,0.21734990179538727,-0.09873660653829575,0.15262454748153687,0.03413233906030655,0.09735231846570969,0.011176771484315395,0.9979711174964905,0.057350609451532364,-0.03415478393435478,-0.18961653113365173,-0.5803890228271484,0.0172914806753397,-0.5945204496383667,-0.09181242436170578,-0.05016797035932541,-0.5215432643890381,0.5129907727241516,0.6506701111793518,-0.314962774515152,0.41999930143356323,-0.08763439208269119,-0.23924845457077026,-0.17742878198623657,0.14701667428016663,-0.18826119601726532,0.05570705607533455,-0.4341259002685547,-0.07309287786483765,-0.044439561665058136,0.0009596499148756266,0.058361250907182693,0.6979868412017822,0.15024304389953613,-0.6134401559829712,-0.3991406261920929,-0.30276769399642944,-0.04685550555586815,-0.002609042450785637,-0.011854918673634529,-0.03464185446500778,0.2330775260925293,0.3097728490829468,0.2447725087404251,-0.19956207275390625,-0.01647711731493473,-0.07543955743312836,0.178632915019989,-0.12256114184856415,-0.07121021300554276,-0.10217836499214172,-0.0272356066852808,-0.2388651818037033,-0.2465166449546814,-0.1828320026397705,0.10036065429449081,0.2649550139904022,-0.2408001720905304,0.09263197332620621,-0.00010682117135729641,0.14081814885139465,-0.014574199914932251,0.16365453600883484,-0.16079279780387878,-0.06065470352768898,0.07275037467479706,-0.020634759217500687,-0.1517009139060974,0.058078281581401825,0.1458849459886551,0.0858563557267189,-0.257036030292511,0.12644115090370178,0.14251305162906647,-0.30848947167396545,0.15315495431423187,0.03825106844305992,-0.04331989213824272,0.03970249369740486,0.04832492023706436,0.15812496840953827,-0.13676205277442932,0.2215959131717682,0.19917941093444824,0.007138607557862997,0.018726041540503502,0.10788626223802567,-0.15599170327186584,-0.12295108288526535,0.032670069485902786,-0.31548455357551575,0.207138791680336,-0.2243543267250061,0.36546406149864197,0.3003641664981842,0.20744816958904266,-0.07666666060686111,0.05588404834270477,-0.3678967356681824,0.06733133643865585,-0.09398532658815384,0.02151327021420002,0.06285157799720764,0.3301350176334381,-0.3141924738883972,0.01718480885028839,-0.2812346816062927,0.11675301194190979,0.5003693103790283,-0.48654067516326904,0.9488206505775452,0.3527964949607849,-0.08619953691959381,0.10994841158390045,0.13995827734470367,0.29492077231407166,0.2372981607913971,0.1855514645576477,0.0957702025771141,-0.16247636079788208,-0.17225249111652374,0.2615998387336731,0.1932920664548874,0.14269809424877167,0.3114667534828186,-0.18753498792648315,-0.26418954133987427,0.16805705428123474,0.13298596441745758,0.2658352553844452,0.19224661588668823,0.07988760620355606,-0.01479254849255085,-0.15382175147533417,0.012718737125396729,-0.12384602427482605,-0.015885600820183754,0.039800189435482025,0.46757879853248596,-0.1387454718351364,-0.05559995025396347,-0.015883389860391617,-0.0007753674290142953,0.0925014317035675,-0.7365449070930481,-0.05557972192764282,-0.0631953552365303,-0.19596964120864868,0.1171044260263443,0.20952554047107697,-0.24767737090587616,-0.3056769371032715,-0.3280538022518158,-0.26206502318382263,-0.10277579724788666,0.30251067876815796,0.14083899557590485,-0.2659287750720978,-0.2047291249036789,-0.1470269113779068,-0.32932689785957336,0.2502402067184448,0.2800931930541992,-0.14778579771518707,-0.14115826785564423,-0.27708062529563904,-0.22811409831047058,-0.08340083062648773,-0.06355579197406769,0.030036259442567825,-0.3450241684913635,0.24512340128421783,-0.05595603585243225,-0.028960155323147774,0.016204174607992172,0.6284170150756836,0.11731063574552536,-0.5737434029579163,-0.02002217434346676,-0.47916293144226074,-0.1258341372013092,-0.2740120589733124,-0.5062905550003052,0.1691388040781021,0.14789742231369019,-0.09332641959190369,0.27020263671875,0.04541407525539398,-0.022126248106360435,0.057251106947660446,0.3373405635356903,0.30338388681411743,-0.10488826036453247,-0.0005769123672507703,-0.008193313144147396,0.006004960276186466,0.10925732553005219,0.13782919943332672,-0.246904656291008,-0.009920665994286537,0.02639966458082199,0.02076810784637928,0.08145229518413544,0.06518223881721497,-0.14643672108650208,0.2567427456378937,-0.404904842376709,0.1455501914024353,-0.2073335498571396,-0.1773548722267151,0.4538174867630005,-0.036109402775764465,-0.0949324443936348,-0.057111628353595734,0.05212167650461197,-0.15128234028816223,-0.6788482069969177,0.11017614603042603,-0.11883863061666489,0.07015158236026764,-0.18425007164478302,-0.04576797038316727,-0.19706864655017853,0.09611056745052338,0.13688910007476807,-0.06994887441396713,-0.12090073525905609,-0.18523959815502167,0.26988205313682556,-0.06495995819568634,0.026511818170547485,-0.176741361618042,-0.15928706526756287,-0.11924496293067932,-0.016950594261288643,0.1049158126115799,0.09888893365859985,0.0401630774140358,-0.0912410169839859,0.05982277914881706,0.14842157065868378,0.06004370376467705,-0.12502393126487732,0.23316235840320587,-0.04902590066194534,-0.0009328087326139212,0.03263257071375847,0.5727719664573669,-0.11868374794721603,-0.4752057194709778,0.24267740547657013,-0.3447721004486084,-0.7649669647216797,-0.10396899282932281,-0.33828669786453247,-0.3371652364730835,-0.028514526784420013,0.04407142847776413,0.05349423363804817,0.05034603551030159,-0.051777951419353485,-0.02597990818321705,-0.050572410225868225,-0.0973210260272026,0.17934361100196838,-0.044248584657907486,-0.0738157331943512,-0.015851806849241257,-0.05034936964511871,-0.08365382999181747,-0.43527331948280334,0.011366056278347969,0.0029939799569547176,-0.011513491161167622,-0.04032238945364952,-0.03241116181015968,-0.23786897957324982,0.013318320736289024,0.07158038765192032,0.0023876766208559275,0.01771296188235283,-0.07159331440925598,-0.10416952520608902,-0.09756936877965927,0.07388234883546829,-0.2130887508392334,0.05107244849205017,-0.1873757392168045,-0.16239728033542633,0.02322993054986,-0.0810197964310646,0.16675496101379395,0.02567116916179657,-0.07525162398815155,-0.12833543121814728,-0.022567803040146828,0.19060856103897095,0.10036361217498779,0.10307181626558304,-0.0673387348651886,-0.003865201957523823,-0.06156278774142265,-0.002677735174074769,-0.028505196794867516,-0.027174903079867363,-0.0789370983839035,-0.029226426035165787,0.0009649955318309367,0.054055873304605484,0.056613989174366,0.06487982720136642,0.04310782998800278,0.09310607612133026,0.07870572805404663,0.023996228352189064,0.2629716396331787,-0.041208114475011826,0.017840206623077393,0.022764436900615692,0.7049927115440369,0.07838699221611023,-0.8941439390182495,0.2541906237602234,0.0091799171641469,-0.18305419385433197,0.26131126284599304,0.22879469394683838,-0.5590289831161499,-0.07175217568874359,0.24608547985553741,-0.07599011063575745,0.057575523853302,-0.008597022853791714,0.01666092872619629,0.020925143733620644,-0.5487557053565979,0.06476772576570511,0.044637132436037064,0.0009351285407319665,0.015963556244969368,0.004715272691100836,-0.4304864704608917,-0.32964426279067993,0.04531343653798103,-0.011398615315556526,0.028055449947714806,-0.0038598293904215097,-0.38931161165237427,-0.5474598407745361,0.027924558147788048,0.06710881739854813,-0.007583958562463522,0.06629082560539246,0.38546761870384216,-0.14496932923793793,0.03717498481273651,0.023466117680072784,-0.018445391207933426,-0.03883320093154907,0.3806782364845276,0.4782372713088989,-0.046310171484947205,0.040223877876996994,-0.010247290134429932,0.09363894909620285,0.24789774417877197,0.16898657381534576,-0.03914919123053551,0.004495732486248016,-0.01835966669023037,-0.03393007069826126,0.3432057499885559,-0.028139283880591393,-0.024629974737763405,0.005568270571529865,-0.01942400075495243,-0.007468320894986391,0.2843945622444153,0.12657959759235382,-0.03545597568154335,0.0025755944661796093,-0.02571975253522396,-0.01681067980825901,0.22564202547073364,0.3490137755870819,0.17217856645584106,0.1490110605955124,0.15379661321640015,-0.018451105803251266,0.006749052554368973,0.022405074909329414,-1.6167502051624542e-38,1.3730026049540918e-38,1.5308541125455037e-38,-1.417307318370803e-38,1.1898090350249048e-38,1.2330835138106445e-38,-1.5196528332709233e-38,-1.7630030252348032e-38,8.714029151043984e-39,-5.2104228565266095e-39,8.889391844764984e-39,6.908297733034988e-39,-0.0005923163844272494,-0.001653103157877922,-0.003240021411329508,-0.005216137506067753,-0.007315017282962799,-0.009203032590448856,-0.010446259751915932,-0.01087174192070961,-0.01033334992825985,-0.009014538489282131,-0.007148774806410074,-0.005145131144672632,-0.003329199505969882,-0.0018346565775573254,-0.0008572450024075806,-0.0002802780654747039,-6.680892693111673e-05,-0.00028158497298136353,-0.00046624522656202316,-0.0005371028673835099,-0.0003482786996755749,0.00021368340821936727,0.0010711817303672433,0.002096074866130948,0.00313449720852077,0.003847330342978239,0.004135908558964729,0.0038676245603710413,0.0031293292995542288,0.002210697392001748,0.0012412781361490488,0.0005368591519072652,0.001135237398557365,0.002870360855013132,0.00542169064283371,0.008420086465775967,0.011384857818484306,0.013658004812896252,0.014747369103133678,0.014389162883162498,0.012656118720769882,0.009906687773764133,0.006880819331854582,0.004027084447443485,0.001871954882517457,0.0005704242503270507,-9.874931129161268e-05,-0.0002030345203820616,0.09144161641597748,0.007383042015135288],"sample_rate":48000.0}},{"max_value":1.0,"model":{"version":"0.7.0","metadata":{"date":{"year":2026,"month":5,"day":8,"hour":4,"minute":43,"second":20},"loudness":-21.916458129882812,"gain":0.33959444865469607},"architecture":"WaveNet","config":{"layers":[{"input_size":1,"condition_size":1,"head":{"out_channels":1,"kernel_size":16,"bias":true},"channels":8,"kernel_sizes":[6,6,6,6,6,6,6,6,6,6,6,6,6,6,15,15,6,6,6,6,6,6,6],"dilations":[1,3,7,17,41,101,239,1,3,7,17,41,101,239,1,13,1,3,7,17,41,101,239],"activation":[{"type":"LeakyReLU","negative_slope":0.01},{"type":"LeakyReLU","negative_slope":0.01},{"type":"LeakyReLU","negative_slope":0.01},{"type":"LeakyReLU","negative_slope":0.01},{"type":"LeakyReLU","negative_slope":0.01},{"type":"LeakyReLU","negative_slope":0.01},{"type":"LeakyReLU","negative_slope":0.01},{"type":"LeakyReLU","negative_slope":0.01},{"type":"LeakyReLU","negative_slope":0.01},{"type":"LeakyReLU","negative_slope":0.01},{"type":"LeakyReLU","negative_slope":0.01},{"type":"LeakyReLU","negative_slope":0.01},{"type":"LeakyReLU","negative_slope":0.01},{"type":"LeakyReLU","negative_slope":0.01},{"type":"LeakyReLU","negative_slope":0.01},{"type":"LeakyReLU","negative_slope":0.01},{"type":"LeakyReLU","negative_slope":0.01},{"type":"LeakyReLU","negative_slope":0.01},{"type":"LeakyReLU","negative_slope":0.01},{"type":"LeakyReLU","negative_slope":0.01},{"type":"LeakyReLU","negative_slope":0.01},{"type":"LeakyReLU","negative_slope":0.01},{"type":"LeakyReLU","negative_slope":0.01}],"bottleneck":8,"head1x1":{"active":false,"out_channels":1,"groups":1},"layer1x1":{"active":true,"groups":1},"groups_input":1,"groups_input_mixin":1,"conv_pre_film":{"active":false,"shift":true,"groups":1},"conv_post_film":{"active":false,"shift":true,"groups":1},"input_mixin_pre_film":{"active":false,"shift":true,"groups":1},"input_mixin_post_film":{"active":false,"shift":true,"groups":1},"activation_pre_film":{"active":false,"shift":true,"groups":1},"activation_post_film":{"active":false,"shift":true,"groups":1},"layer1x1_post_film":{"active":false,"shift":true,"groups":1},"head1x1_post_film":{"active":false,"shift":true,"groups":1},"gating_mode":["none","none","none","none","none","none","none","none","none","none","none","none","none","none","none","none","none","none","none","none","none","none","none"],"secondary_activation":[null,null,null,null,null,null,null,null,null,null,null,null,null,null,null,null,null,null,null,null,null,null,null],"slimmable":null}],"head":null,"head_scale":0.00738304207762649},"weights":[-1.0445786714553833,-1.6833314895629883,1.729346752166748,0.824962317943573,-0.4691756069660187,-0.6692070364952087,-1.167891025543213,1.138330340385437,-0.24755433201789856,-0.08631644397974014,0.02718968130648136,0.21532374620437622,0.19169700145721436,0.11254905164241791,-0.3036525547504425,-0.1334080845117569,0.0065766023471951485,0.25979548692703247,0.2806399464607239,0.168686643242836,0.31438419222831726,0.12666520476341248,-0.06260210275650024,-0.3292968273162842,-0.3573409616947174,-0.10855186730623245,0.19683468341827393,0.061442773789167404,-0.01794062927365303,-0.15601052343845367,-0.17620795965194702,-0.09063483029603958,-0.10799822956323624,-0.03898470848798752,0.005697015672922134,0.0954986959695816,0.09836029261350632,0.0566147081553936,-0.16534487903118134,-0.05683531239628792,0.015623224899172783,0.13481734693050385,0.14155974984169006,0.07640957832336426,-0.28233498334884644,-0.09279043972492218,0.03180969879031181,0.20324163138866425,0.2494223415851593,0.10342467576265335,0.23894719779491425,0.06653957813978195,-0.01803732104599476,-0.20023265480995178,-0.2238720953464508,-0.12019210308790207,0.12232102453708649,-0.01759178563952446,-0.14504706859588623,-0.28919923305511475,-0.3554070293903351,-0.16977091133594513,0.04549336060881615,-0.06135213002562523,-0.2299872487783432,-0.2673260569572449,-0.4397676885128021,-0.3093898296356201,-0.13867460191249847,0.04869547486305237,0.14447353780269623,0.3760792911052704,0.36822569370269775,0.30663707852363586,-0.10291194915771484,0.0447198823094368,0.1288643479347229,0.23941147327423096,0.271354615688324,0.14897306263446808,0.07165703922510147,-0.011188661679625511,-0.06695929914712906,-0.1729930341243744,-0.18407145142555237,-0.12720412015914917,0.07591940462589264,-0.03883983939886093,-0.08375773578882217,-0.2517410218715668,-0.2797190248966217,-0.15564300119876862,0.04556386172771454,-0.012309202924370766,-0.2008773684501648,-0.35850241780281067,-0.357397198677063,-0.19145053625106812,-0.061352260410785675,-0.006728256121277809,0.12262068688869476,0.3162687420845032,0.2947731018066406,0.280346155166626,-0.30229657888412476,-0.1221364438533783,0.029937399551272392,0.22433260083198547,0.24603979289531708,0.17482039332389832,-0.47972145676612854,-0.2046002298593521,0.047496166080236435,0.36868157982826233,0.4116147756576538,0.2567838132381439,0.5163142681121826,0.21698591113090515,-0.06464796513319016,-0.37485629320144653,-0.407029926776886,-0.23233166337013245,0.2372232973575592,0.09256929159164429,-0.02772616781294346,-0.17411760985851288,-0.19682960212230682,-0.14716728031635284,-0.13543947041034698,-0.05426118150353432,0.015522210858762264,0.09983449429273605,0.11274775117635727,0.0882551372051239,-0.1967749148607254,-0.07665090262889862,0.020657788962125778,0.14356176555156708,0.1650138646364212,0.12235835194587708,-0.36066675186157227,-0.12643232941627502,0.025608524680137634,0.254917711019516,0.2831651270389557,0.20683921873569489,0.3211500942707062,0.13070762157440186,-0.037399597465991974,-0.22907954454421997,-0.2820499539375305,-0.19257143139839172,-0.10924338549375534,0.016461839899420738,0.17081034183502197,0.2911224067211151,0.3822788596153259,0.28597116470336914,-0.0638730600476265,0.0180303193628788,0.24855642020702362,0.43484267592430115,0.512836754322052,0.4502687454223633,0.14351744949817657,-0.018217118456959724,-0.2466658353805542,-0.452814519405365,-0.5455714464187622,-0.3728232979774475,0.1312035322189331,0.012887508608400822,-0.13994024693965912,-0.29396334290504456,-0.3005937337875366,-0.23598399758338928,-0.08975794166326523,0.011571171693503857,0.10139018297195435,0.20371200144290924,0.21113112568855286,0.16682074964046478,-0.11479920148849487,-0.0006652993033640087,0.11619904637336731,0.25699809193611145,0.2814331650733948,0.23418432474136353,-0.11155255883932114,-0.009491456672549248,0.1807922124862671,0.3573554754257202,0.3564136028289795,0.27983880043029785,0.1609266698360443,-0.07161959260702133,-0.17521703243255615,-0.35914090275764465,-0.4053540527820587,-0.2696229815483093,0.38426923751831055,0.19337086379528046,0.0012426921166479588,-0.21768686175346375,-0.3042587637901306,-0.21341152489185333,0.4100289046764374,0.2915986180305481,0.05136369541287422,-0.37221986055374146,-0.44266629219055176,-0.28348663449287415,-0.44876641035079956,-0.18621224164962769,-0.05357296019792557,0.29066023230552673,0.472751259803772,0.24040961265563965,-0.30460402369499207,-0.12904611229896545,0.02045280672609806,0.18011456727981567,0.281218022108078,0.174580380320549,0.19857892394065857,0.09855425357818604,0.006380858831107616,-0.12348203361034393,-0.16758330166339874,-0.1249481588602066,0.2768173813819885,0.13350199162960052,-0.005046841222792864,-0.1841062605381012,-0.2276359498500824,-0.17335547506809235,0.40127816796302795,0.23323452472686768,-0.022836649790406227,-0.2930331528186798,-0.3909658193588257,-0.23919516801834106,-0.38077312707901,-0.21058544516563416,-0.010418731719255447,0.2671659290790558,0.32985275983810425,0.20024491846561432,-8.097990939859301e-05,-8.33120066090487e-05,-7.082206138875335e-05,-5.367016274249181e-05,-6.16998368059285e-05,-7.713615195825696e-05,-0.00012761955440510064,-0.0001380305620841682,-0.00012049083306919783,-9.236873302143067e-05,-0.00010386732901679352,-0.00012970664829481393,0.00012832270294893533,0.00014038705558050424,0.0001227454049512744,9.423713345313445e-05,0.00010757276322692633,0.00013187475269660354,6.6081847762689e-05,6.754251808160916e-05,5.677874287357554e-05,4.2325576941948384e-05,4.904366142000072e-05,6.09809321758803e-05,-3.9769358409103006e-05,-4.038476254208945e-05,-3.412211299291812e-05,-2.6461353627382778e-05,-3.0269515264080837e-05,-3.7674511986551806e-05,-5.476971637108363e-05,-5.610455627902411e-05,-4.623469794751145e-05,-3.5686807677848265e-05,-4.130178422201425e-05,-5.105583113618195e-05,-9.123608469963074e-05,-9.581785707268864e-05,-8.020855602808297e-05,-6.233890599105507e-05,-6.978370220167562e-05,-8.894367783796042e-05,8.65083493408747e-05,9.145802323473617e-05,7.825373177183792e-05,5.693516504834406e-05,6.58036587992683e-05,8.274039282696322e-05,0.0636853575706482,0.07981707155704498,0.042205680161714554,0.019340593367815018,-0.0034418413415551186,-0.02875962108373642,0.11765234917402267,0.1378505527973175,0.06909699738025665,0.032152727246284485,-0.008045148104429245,-0.058121904730796814,-0.11627908051013947,-0.13910041749477386,-0.07192258536815643,-0.03465743362903595,0.008396909572184086,0.05966532230377197,-0.04819702357053757,-0.06192080304026604,-0.03325735777616501,-0.015448844991624355,0.0019199287053197622,0.020074082538485527,0.02633780427277088,0.034992560744285583,0.019063325598835945,0.008816119283437729,-0.00028819520957767963,-0.009208685718476772,0.03874995931982994,0.050447434186935425,0.02730724588036537,0.012712663970887661,-0.0010390578536316752,-0.015126424841582775,0.07311087101697922,0.09054914116859436,0.04755014926195145,0.02164437621831894,-0.004242950584739447,-0.0340019166469574,-0.06980360299348831,-0.08709035813808441,-0.045971423387527466,-0.020853273570537567,0.0038132781628519297,0.03207022324204445,-5.4274030844680965e-05,-3.812078284681775e-05,-2.2010010070516728e-05,-2.618144662847044e-06,7.807539986970369e-06,9.418686204298865e-06,-8.504747529514134e-05,-5.9029167459812015e-05,-3.3949028875213116e-05,-2.7847333967656596e-06,1.393941420246847e-05,1.6778560166130774e-05,8.69754803716205e-05,6.0017366195097566e-05,3.421276778681204e-05,2.089264626192744e-06,-1.4595598258893006e-05,-1.678742228250485e-05,4.3344458390492946e-05,3.0494255042867735e-05,1.780199454515241e-05,2.4616074369987473e-06,-5.876340310351225e-06,-7.2117777563107666e-06,-2.5252751584048383e-05,-1.7931906768353656e-05,-1.0457721145940013e-05,-1.7432000731787411e-06,2.9950938369438518e-06,3.7692454952775734e-06,-3.545722574926913e-05,-2.515712367312517e-05,-1.4572573491022922e-05,-1.9737656202778453e-06,4.729980446427362e-06,5.701037480321247e-06,-6.0510981711559e-05,-4.254118539392948e-05,-2.4728758944547735e-05,-2.723412762861699e-06,8.89551574800862e-06,1.0720841601141728e-05,5.881106699234806e-05,4.1194587538484484e-05,2.3632914235349745e-05,2.556437721068505e-06,-8.713935130799655e-06,-1.0556006600381806e-05,0.5466321706771851,-0.09788009524345398,0.5534751415252686,0.11120525747537613,0.45008039474487305,-0.012743359431624413,-0.16942638158798218,-0.0011131679639220238,-0.1466645896434784,0.6930062174797058,-0.31424176692962646,-0.1987861692905426,0.33435219526290894,7.202355482149869e-05,0.029776623472571373,-9.337214578408748e-06,-0.08623267710208893,-0.544886589050293,0.1301576793193817,0.10726378858089447,-0.278396338224411,0.0025290707126259804,-0.11255871504545212,-5.039601819589734e-05,0.2674185335636139,-0.5553379654884338,0.08633444458246231,0.5535767078399658,-0.3810330331325531,0.003925975412130356,0.201460063457489,-1.2660153515753336e-05,-0.39129796624183655,0.40068551898002625,-0.31195539236068726,-0.4346870183944702,0.29471874237060547,-0.0024078008718788624,-0.2316400706768036,5.580750075750984e-05,-0.0014629267388954759,-0.20763398706912994,0.10154744982719421,-0.2428310215473175,-0.09732989221811295,3.566004306776449e-05,0.15647540986537933,1.9932654140575323e-06,-0.1731991022825241,0.32391583919525146,-0.1621362715959549,-0.3506901264190674,0.36913561820983887,0.0012627291725948453,-0.1060737818479538,-3.25361434079241e-05,0.07444301247596741,0.40492868423461914,-0.12048380076885223,-0.4372735321521759,-0.10539661347866058,7.835408177925274e-05,-0.19572140276432037,-2.0561099518090487e-05,-0.06205236166715622,-0.34211021661758423,-0.14453168213367462,0.2866566777229309,0.1395762413740158,0.00363674433901906,0.014150013215839863,-3.222646773792803e-05,-0.011762588284909725,0.008203191682696342,-0.19077923893928528,-0.14139147102832794,0.43444132804870605,7.214234938146546e-05,-0.03696991875767708,6.2365988924284466e-06,0.3707377314567566,-0.3796418309211731,0.10075946152210236,-0.1153513640165329,0.2864750325679779,0.29787924885749817,0.06256452202796936,-0.13182441890239716,0.00032258607097901404,0.0025633980985730886,-0.005883222911506891,-0.009899841621518135,-0.008575928397476673,-0.00415448984131217,0.011219418607652187,0.01452221255749464,0.006686253007501364,-0.0008316785679198802,-0.0012173396535217762,0.003638422815129161,-0.0014360861387103796,-0.004649474285542965,0.0019906663801521063,0.009834745898842812,0.01090835127979517,0.006191878113895655,0.008939805440604687,0.008560479618608952,0.009884968400001526,0.01202452927827835,0.012387438677251339,0.011074555106461048,-0.008543100208044052,-0.013225809670984745,-0.0068250177428126335,0.00019637207151390612,0.0008136937976814806,-0.0039588590152561665,-0.007023328449577093,-0.009854847565293312,-0.00808937381953001,-0.0018845389131456614,0.0015121543547138572,-0.0008042645640671253,0.0029476818162947893,0.003914519213140011,-0.0001818810123950243,-0.005736558232456446,-0.007228492759168148,-0.004185769706964493,-0.0017121785786002874,-0.0060691689141094685,0.0027352338656783104,0.009412338025867939,0.008210413157939911,0.0015794585924595594,0.18842150270938873,-0.06675535440444946,0.06526054441928864,0.22514836490154266,-0.007326106075197458,0.11476883292198181,0.040328770875930786,-0.15049955248832703,-0.06568103283643723,0.043649204075336456,-0.16972818970680237,0.019108101725578308,-0.118209108710289,0.26296377182006836,-0.002518814755603671,-0.26506975293159485,0.16997772455215454,-0.007034375332295895,-0.06219315901398659,0.04074251651763916,-0.02567373216152191,-0.0867028757929802,0.0468117892742157,0.024130210280418396,-0.24038518965244293,0.18561749160289764,0.068257637321949,-0.20724493265151978,0.06150936707854271,-0.09777657687664032,0.0030688594561070204,0.06239088997244835,0.11579620093107224,-0.08599428832530975,-0.0026855438482016325,0.043497584760189056,-0.00795669574290514,0.009201145730912685,0.11910459399223328,0.23128415644168854,-0.07114385068416595,-0.29275232553482056,-0.231268048286438,0.17329679429531097,-0.09942661970853806,-0.21137335896492004,0.22024154663085938,0.018522292375564575,0.1617615669965744,0.12280944734811783,0.1672622114419937,-0.11482315510511398,0.07153589278459549,0.24634718894958496,0.041822683066129684,-0.1611294448375702,0.039656031876802444,-0.19546034932136536,-0.14568452537059784,0.0122260432690382,-0.17622661590576172,-0.01174422912299633,-0.07259068638086319,0.3001457750797272,-0.007537600584328175,-0.24263904988765717,-0.07509256154298782,-0.030994880944490433,0.0022499675396829844,-0.041132401674985886,-0.16802731156349182,-0.10182683169841766,-0.0018062741728499532,0.19389411807060242,0.02908920869231224,0.2258896827697754,0.2499033808708191,-0.14316517114639282,0.017278200015425682,0.07262255251407623,0.09236237406730652,0.13170763850212097,0.2367522418498993,-0.07887158542871475,0.08725497126579285,0.13233254849910736,-0.04113716259598732,-0.27768003940582275,0.026487024500966072,0.35463574528694153,-0.08878924697637558,0.07759899646043777,0.0030628254171460867,0.15746819972991943,-0.11857912689447403,-0.19599765539169312,-0.13483119010925293,0.012181350030004978,0.012595261447131634,0.06683896481990814,0.049701668322086334,0.04311913251876831,-0.14693307876586914,0.05122333765029907,0.032213933765888214,0.1847863644361496,0.07523392885923386,0.04651978239417076,0.20197701454162598,-0.02718539349734783,0.027574436739087105,-0.13634532690048218,0.004815927240997553,0.026450177654623985,-0.02054406702518463,0.009067504666745663,-0.0008845015545375645,-0.01907142624258995,0.02447681315243244,0.010604709386825562,0.09447888284921646,-0.05083123967051506,-0.025649115443229675,-0.10296903550624847,-0.014686758629977703,-0.008228319697082043,0.05021446570754051,0.00491783581674099,-0.020741775631904602,-0.07138673961162567,-0.02877090871334076,-0.013580688275396824,-0.06200625002384186,-0.020479418337345123,0.01624544896185398,0.06421098858118057,0.04654799774289131,0.03475173935294151,0.048848602920770645,-0.04305707663297653,-0.006794176530092955,-0.045408811420202255,0.018104976043105125,-0.009080622345209122,-0.05092306435108185,0.12011926621198654,0.01756773144006729,-0.2895759046077728,0.21774645149707794,0.13366323709487915,0.03676583617925644,0.14035820960998535,0.004049420822411776,-0.25867247581481934,0.03427331894636154,-0.1435098946094513,0.10266941785812378,-0.2317243218421936,0.06002199277281761,0.39160844683647156,-0.23220854997634888,-0.14647182822227478,-0.0013511106371879578,0.04105816408991814,0.016041941940784454,0.0054553477093577385,0.016336137428879738,-0.09084945917129517,0.10618718713521957,-0.12205001711845398,0.02254636585712433,0.2247002124786377,-0.026498066261410713,-0.09961166232824326,0.06401610374450684,-0.019327456131577492,0.043785687536001205,0.15998470783233643,0.13809922337532043,-0.2140427529811859,-0.019110895693302155,0.03398200869560242,-0.17362216114997864,-0.4217011034488678,0.1769063025712967,0.6192023754119873,0.06139105558395386,-0.12567368149757385,0.12921050190925598,0.20539630949497223,-0.31732261180877686,-0.1158050000667572,0.015063109807670116,-0.012636358849704266,0.10867863893508911,0.1774485558271408,-0.09561105817556381,-0.16687078773975372,-0.04679345339536667,-0.08875082433223724,-0.0008728634566068649,0.10752550512552261,-0.17390288412570953,-0.14916053414344788,-0.07075592875480652,0.0030553152319043875,-0.16273736953735352,-0.3943423330783844,0.30084890127182007,0.20990672707557678,-0.061674345284700394,0.05644424632191658,-0.001814857474528253,-0.1194799542427063,0.0024566357024013996,-0.05821079760789871,-0.0221121683716774,0.044469740241765976,-0.03713707998394966,-0.19090203940868378,0.18508386611938477,0.19728055596351624,0.03225339576601982,0.030722083523869514,0.031979039311409,-0.09645470976829529,-0.040110938251018524,0.1502692699432373,0.008517099544405937,-0.035424210131168365,0.14059902727603912,0.338383287191391,-0.07398679852485657,-0.4366565942764282,-0.043442461639642715,0.012804703786969185,-0.15606775879859924,-0.23356719315052032,0.31156155467033386,0.1582181453704834,0.02230219729244709,0.0683436319231987,0.059657901525497437,0.026190632954239845,0.2873058617115021,0.21239741146564484,-0.14992152154445648,-0.025819523259997368,-0.1745384931564331,-0.19543036818504333,-0.028110407292842865,-0.1774674504995346,0.017656929790973663,-0.13182313740253448,0.0665217712521553,0.1850282847881317,-0.15529070794582367,-0.11966436356306076,-0.12709368765354156,-0.16275174915790558,-0.10162892192602158,-0.031851377338171005,-0.06783908605575562,-0.1311316341161728,0.015180750750005245,-0.09225572645664215,0.017373444512486458,0.10360407084226608,-0.05287594720721245,-0.05981675535440445,0.07035623490810394,0.04691625386476517,0.08086209744215012,0.14978940784931183,0.0650201216340065,-0.04359022155404091,-0.08673396706581116,-0.00732332281768322,-0.11301455646753311,-0.23186850547790527,0.11430898308753967,0.36459583044052124,-0.013456075452268124,-0.14278334379196167,0.005319840740412474,0.008233992382884026,-0.185539111495018,-0.10900243371725082,-0.17212729156017303,-0.09624513983726501,-0.021446088328957558,-0.05388959124684334,-0.1788526177406311,-0.09712778776884079,0.0647072121500969,0.08371637016534805,0.10387267172336578,0.03523458540439606,0.12736287713050842,0.2788889408111572,0.09073864668607712,0.06012735515832901,0.05801898241043091,0.10723660886287689,-0.004519070032984018,-0.13211995363235474,0.0728117823600769,0.13364318013191223,0.1712234616279602,0.20127251744270325,0.017241083085536957,-0.03083563968539238,-0.0047739604488015175,-0.0297189150005579,-0.02955986000597477,0.0506366491317749,-0.03484971448779106,-0.13254177570343018,-0.0680060163140297,-0.08100501447916031,-0.04515258967876434,-0.05497506260871887,-0.11625432223081589,-0.1590142697095871,-0.028063692152500153,-0.03413655608892441,-0.02865910530090332,-0.02031940594315529,0.015485798008739948,0.08255451172590256,0.07099482417106628,0.054892461746931076,0.04669899493455887,0.1351412832736969,0.08237641304731369,-0.0204938817769289,-0.030783258378505707,0.025851838290691376,0.14610761404037476,-0.08912970125675201,0.017197785899043083,0.051305413246154785,0.28372910618782043,-0.46473878622055054,-0.00026240016450174153,0.13529393076896667,-0.14704443514347076,-0.014420009218156338,-0.2153368890285492,0.1050652489066124,-0.08895158022642136,-0.03949444368481636,-0.011379125528037548,0.07939770072698593,-0.12994252145290375,-0.13635402917861938,0.3125051259994507,0.06861355900764465,-0.12921154499053955,-0.4149836599826813,-0.021852584555745125,-0.22810816764831543,0.25330185890197754,-0.14917148649692535,0.5025203824043274,-0.4186505973339081,0.18962949514389038,-0.3337593376636505,0.014225797727704048,0.1643894463777542,-0.0595664419233799,-0.1524590700864792,-0.029445698484778404,0.11610962450504303,-0.301896333694458,0.3846839964389801,-0.005953365936875343,-0.14957675337791443,0.12606391310691833,-0.2771035134792328,0.09042662382125854,-0.30285778641700745,0.0399259589612484,-0.1894041895866394,0.00633686687797308,0.017356010153889656,0.0488385409116745,0.0688793882727623,-0.17258596420288086,0.012971469201147556,0.06208573654294014,-0.00791758019477129,-0.004857161547988653,0.36116594076156616,-0.16259457170963287,-0.017794277518987656,-0.31799137592315674,-0.23500999808311462,0.08559058606624603,0.1657084822654724,0.004169926512986422,0.19805878400802612,-0.11578207463026047,-0.06681273132562637,-0.5925028920173645,0.5145484209060669,-0.41143766045570374,0.056448109447956085,0.014550026506185532,-0.6757544279098511,-0.5755401849746704,0.2605474591255188,0.20757655799388885,-0.06951358914375305,0.23740991950035095,0.30889591574668884,0.25493982434272766,0.16464199125766754,0.053063612431287766,0.24912017583847046,0.32060548663139343,-0.06087375804781914,0.3050694167613983,0.07548157125711441,0.027917826548218727,0.07309640198945999,0.027908025309443474,-0.016678400337696075,0.09715308248996735,0.21561001241207123,-0.027922172099351883,0.15639080107212067,0.08035566657781601,-0.026704777032136917,-0.18983285129070282,0.18179665505886078,0.017314773052930832,-0.2523482143878937,-0.13611704111099243,0.06004220247268677,0.1635340452194214,-0.21567797660827637,-0.03987592086195946,-0.15264883637428284,-0.06961777806282043,-0.11146588623523712,0.007293969392776489,0.009505809284746647,0.15769027173519135,0.08255606144666672,0.08075087517499924,0.17452898621559143,0.1891675591468811,0.009265155531466007,0.04493642970919609,0.010161385871469975,-0.005680853966623545,0.12421610206365585,0.29798540472984314,-0.18051035702228546,0.05644640699028969,0.12210678309202194,0.05633919686079025,0.002215297892689705,-0.04217291250824928,0.1860504150390625,-0.11617954075336456,0.049053702503442764,0.008462956175208092,-0.08445168286561966,0.07711894065141678,0.06872417032718658,-0.16339637339115143,-0.18388578295707703,-0.14714978635311127,-0.12757174670696259,0.014401359483599663,0.05722232535481453,-0.09878901392221451,-0.20485077798366547,-0.06588994711637497,0.0442933551967144,0.02623172290623188,-0.06001858040690422,-0.10658508539199829,0.10883959382772446,0.12093828618526459,-0.051006659865379333,-0.07473981380462646,0.06427619606256485,-0.06853588670492172,-0.10971040278673172,-0.09201594442129135,-0.13531440496444702,0.03572993353009224,0.00701581547036767,-0.10027559846639633,0.05999995023012161,0.013179397210478783,-0.023099742829799652,-0.09483234584331512,-0.09324720501899719,0.018227998167276382,-0.0029110999312251806,-0.09417376667261124,-0.034263305366039276,0.025764422491192818,-0.01171894371509552,-0.1692880094051361,0.018222175538539886,-0.13867506384849548,-0.043380092829465866,-0.05551956593990326,0.03875584527850151,0.18008194863796234,0.11999554932117462,-0.04990537464618683,-0.019204838201403618,-0.034135036170482635,0.009787321090698242,0.18719948828220367,0.10957597196102142,-0.00021406618179753423,0.06941569596529007,0.2617132365703583,0.15152508020401,0.03172712028026581,0.010013872757554054,-0.03331010043621063,0.1335451304912567,0.24871474504470825,-0.2121446132659912,-0.011225827038288116,0.09767720848321915,0.0888243317604065,-0.006585943512618542,-0.2731364667415619,0.3638208508491516,0.02975226379930973,0.01679290272295475,-0.04186644405126572,-0.0482330247759819,0.1940886676311493,0.1666172295808792,0.04804841801524162,0.08519016206264496,0.08480541408061981,0.06261507421731949,0.0562065914273262,0.34215375781059265,-0.08034714311361313,-0.058868471533060074,-0.14323119819164276,-0.23785628378391266,-0.30838343501091003,0.21090395748615265,0.011415572836995125,-0.06062263995409012,-0.06614590436220169,-0.03663052245974541,0.025766519829630852,0.009702950716018677,0.03552263602614403,0.03619411960244179,0.1828092485666275,0.27935299277305603,-0.03853479027748108,0.06818677484989166,-0.018485192209482193,-0.0013560160296037793,-0.05492961034178734,-0.06792011857032776,-0.04341940954327583,0.12073568999767303,-0.04414927959442139,0.03341252729296684,0.0701037123799324,-0.14859840273857117,-0.11990951001644135,0.12466084212064743,0.05150383338332176,-0.04407627880573273,-0.057783324271440506,0.06133611500263214,0.18591563403606415,-0.05981370434165001,0.008881863206624985,0.005958057940006256,-0.005862789694219828,0.03727024793624878,0.0021533742547035217,0.13055145740509033,-0.02619519829750061,-0.08666237443685532,-0.0981694757938385,-0.0614178292453289,0.013149978592991829,-0.04380679130554199,0.06026289984583855,0.01734411157667637,0.08793266862630844,0.052989162504673004,0.06782619655132294,-0.053766924887895584,-0.07484625279903412,-0.03782849758863449,-0.003802170976996422,-0.0269373320043087,-0.05357759818434715,-0.0835215300321579,0.02895982563495636,0.08337396383285522,-0.010878910310566425,-0.06628376245498657,0.07712792605161667,-0.03755352646112442,0.008412107825279236,-0.009807845577597618,-0.008116086944937706,-0.08618928492069244,-0.1141132041811943,0.1305304914712906,0.011942741461098194,0.045083172619342804,0.08184756338596344,-0.056677401065826416,-0.20026376843452454,0.1063312217593193,0.021536365151405334,0.030658921226859093,-0.05195591226220131,-0.05604982748627663,0.21841634809970856,-0.25812163949012756,0.011833399534225464,-0.0007093911408446729,-0.06730431318283081,-0.04275110736489296,-0.0637093335390091,0.0388430692255497,-0.0035547201987355947,0.03933754935860634,-0.048341985791921616,-0.032181061804294586,0.02207798883318901,-0.009344879537820816,-0.037385717034339905,0.012737412936985493,-0.03521285951137543,0.01064040046185255,0.2770112454891205,-0.38491907715797424,0.020151644945144653,-0.01275167241692543,-0.01515905000269413,-0.10289672017097473,-0.08605196326971054,0.10887836664915085,-0.05279438942670822,0.020599359646439552,-0.05563246086239815,-0.23052141070365906,-0.23513072729110718,0.04190899804234505,-0.06482582539319992,0.011755517683923244,0.05637649446725845,0.02903730608522892,0.12187054008245468,-0.011668712832033634,0.008919747546315193,0.051045216619968414,-0.07250425964593887,-0.09655745327472687,0.11503833532333374,0.08259769529104233,-0.005912423133850098,-0.05091030150651932,0.048668261617422104,0.14591237902641296,-0.022152630612254143,-0.0032987738959491253,-0.04416946321725845,-0.0022564141545444727,-0.007193207275122404,0.02364150434732437,0.04052481800317764,-0.009651876986026764,-0.07833920419216156,-0.0550992451608181,-0.013827853836119175,0.027662301436066628,-0.04691510647535324,-0.0343499518930912,0.0007414857391268015,-0.003700181609019637,-0.025349561125040054,0.008348469622433186,-0.10896820574998856,-0.025726571679115295,-0.03862514719367027,-0.011162439361214638,-0.03149683400988579,-0.06928479671478271,-0.03996042534708977,-0.06716986745595932,0.012349553406238556,-0.08392517268657684,-0.03316453844308853,0.11869638413190842,-0.017925841733813286,0.08163612335920334,-0.019862208515405655,0.017950285226106644,0.06597958505153656,0.08984566479921341,0.0009070574305951595,0.0206582210958004,0.0159077700227499,-0.0032406398095190525,-0.011895750649273396,0.0747237503528595,-0.13839930295944214,-0.012755053117871284,0.004324667155742645,0.05043719336390495,0.05017399415373802,-0.017525432631373405,0.17460185289382935,0.026938555762171745,-0.04817933961749077,0.0057850126177072525,0.021237419918179512,0.09826800227165222,-0.10331107676029205,0.02693823352456093,-0.04810232296586037,-0.0013402237091213465,-0.04569428041577339,-0.044016893953084946,-0.0233910009264946,-0.003105551702901721,-0.01905742660164833,0.05012628808617592,-0.04019737243652344,-0.05773771181702614,0.032078128308057785,-0.06862133741378784,-0.09366843104362488,-0.0625704675912857,-0.07242126017808914,-0.04270029440522194,0.11228115856647491,0.02772504836320877,0.009393050335347652,0.020539483055472374,0.05378960072994232,-0.15666618943214417,-0.1381770223379135,-0.01062796637415886,0.016359830275177956,-0.00870839599519968,0.024063486605882645,0.0001303353055845946,0.013173740357160568,0.005531433969736099,0.05726246535778046,-0.029451273381710052,0.07937132567167282,-0.015248623676598072,0.003168565919622779,0.012922471389174461,-0.023584555834531784,0.030117521062493324,-0.02858438901603222,0.02067657932639122,0.01903664879500866,0.003279696684330702,-0.024198833853006363,-0.023061271756887436,0.0021953273098915815,-0.006484119687229395,-0.009859428741037846,0.005998997017741203,-0.05720657482743263,-0.017245670780539513,-0.07453268766403198,-0.025245022028684616,-0.04019608348608017,-0.029480475932359695,-0.059398893266916275,0.0016061000060290098,-0.05583199858665466,-0.00814073346555233,-0.010149788111448288,-0.01679042913019657,0.021526671946048737,0.037944018840789795,-0.045787665992975235,0.03611886128783226,0.02375682070851326,0.024759942665696144,-0.008010881021618843,0.030970601364970207,0.03171094134449959,-0.03842886909842491,-0.0011071260087192059,0.04824952036142349,0.09220360219478607,-0.13450592756271362,0.12380952388048172,-0.12410318106412888,0.008657405152916908,-0.09532767534255981,-0.0700417160987854,-0.05094866827130318,-0.2365899384021759,0.08274140954017639,0.11990842968225479,-0.004408454522490501,-0.09461961686611176,-0.01837308518588543,0.007600371725857258,-0.0032051291782408953,0.2448699027299881,-0.32037460803985596,-0.16329491138458252,0.0560261607170105,0.2149403691291809,-0.15117104351520538,-0.05960985645651817,-0.03852090984582901,0.28777292370796204,-0.15503379702568054,-0.41181376576423645,0.19154277443885803,0.21964868903160095,-0.09765823185443878,-0.0017093183705583215,0.003919227514415979,-0.061001334339380264,0.06942380219697952,-0.2343473583459854,0.16371731460094452,0.25658243894577026,-0.014318999834358692,-0.009517465718090534,0.025974057614803314,0.010093433782458305,-0.0693662017583847,-0.35659506916999817,-0.18099123239517212,0.15478907525539398,-0.36462047696113586,-0.019232602789998055,0.0038503361865878105,0.06296616792678833,-0.16825591027736664,-0.36775797605514526,-0.09286223351955414,-0.24358640611171722,0.009022443555295467,-0.15137052536010742,-0.13547013700008392,0.04281802475452423,-0.09583042562007904,-0.03779435530304909,-0.19048762321472168,-0.040040191262960434,0.17998088896274567,-0.103160560131073,-0.02257349342107773,-0.20473547279834747,-0.22556963562965393,0.2327118068933487,-0.2302006632089615,-0.37901461124420166,-0.05215431749820709,-0.20447251200675964,0.0061568208038806915,0.24417126178741455,-0.21160463988780975,-0.11654040217399597,-0.10703889280557632,-0.2351912409067154,0.06456590443849564,-0.2848746180534363,-0.111448273062706,-0.09319419413805008,-0.24205027520656586,0.04419531673192978,0.16977810859680176,0.20411407947540283,0.14478860795497894,-0.06276556104421616,0.21933697164058685,-0.08493924140930176,-0.022258667275309563,-0.017299950122833252,0.0644405335187912,-0.04617465287446976,0.0939810574054718,-0.03276456147432327,-0.05668330565094948,0.007609656546264887,0.042344849556684494,-0.031836774200201035,-0.028261028230190277,-0.07153382897377014,0.004285233095288277,0.0023440455552190542,-0.005422984715551138,0.06915033608675003,0.01767001301050186,0.021282335743308067,0.040067072957754135,0.03609276935458183,0.033747587352991104,-0.022015606984496117,0.004377963487058878,0.017356406897306442,0.030391935259103775,0.0845409706234932,0.061482738703489304,0.030213356018066406,-0.06549432873725891,0.03764229267835617,0.0027865711599588394,0.007974057458341122,0.009604472666978836,0.04944450780749321,-0.018628116697072983,-0.049072399735450745,0.02244342491030693,0.09215953201055527,-0.04970226064324379,-0.003231164999306202,-0.06297147274017334,0.017293237149715424,-0.0786156952381134,-0.06459126621484756,-0.10846327245235443,0.1208067536354065,-0.0057037570513784885,0.012023502960801125,0.06701420992612839,0.07153716683387756,-0.0285941231995821,-0.11349751055240631,0.09368379414081573,0.030912352725863457,0.04095766320824623,-0.0028602532111108303,-0.05231694132089615,-0.14545893669128418,-0.06247718632221222,0.059530626982450485,0.11320807784795761,0.07084758579730988,-0.07715676724910736,-0.005830126348882914,-0.2342679649591446,0.11003443598747253,-0.03271115943789482,-0.01431131362915039,-0.0029048111755400896,0.09263993054628372,0.07454964518547058,0.09861339628696442,0.09954268485307693,0.1343100517988205,0.06484831124544144,0.0823611319065094,0.18475696444511414,-0.04076697677373886,0.08012848347425461,0.10762640088796616,0.17589354515075684,0.037258557975292206,0.24375848472118378,0.07863739132881165,0.022190481424331665,0.023179922252893448,0.04848669469356537,-0.173604816198349,0.11950041353702545,0.04557405412197113,-0.07068847119808197,-0.22601218521595,-0.08819851279258728,0.11284077912569046,-0.0003751486074179411,0.07587270438671112,0.07953877002000809,0.010216358117759228,-0.07820181548595428,-0.051674697548151016,-0.06233924254775047,0.039691340178251266,0.0262480266392231,0.003701338777318597,-0.054114945232868195,0.034445397555828094,0.029593417420983315,0.12005464732646942,0.029520578682422638,0.08541427552700043,0.08443450927734375,-0.04424111545085907,0.14781221747398376,-0.06669380515813828,-0.03898591920733452,-0.12768761813640594,-0.07174040377140045,-0.21380318701267242,0.020686384290456772,-0.09975512325763702,-0.1589069664478302,-0.12279661744832993,-0.16324807703495026,-0.14922237396240234,-0.0007813319680280983,-0.013742556795477867,-0.041847746819257736,-0.04397711530327797,-0.061168186366558075,-0.11878816783428192,-0.08425275981426239,0.005778721533715725,-0.008078447543084621,-0.13760890066623688,-0.0869293063879013,0.03817395865917206,-0.1432521492242813,-0.019194820895791054,0.0027328897267580032,-0.07017957419157028,-0.11304914951324463,-0.04868163540959358,0.1527474820613861,-0.022724365815520287,-0.07116886228322983,-0.11056765168905258,-0.0678747147321701,-0.04096087068319321,-0.09896203875541687,0.018402863293886185,-0.07299650460481644,-0.03469427675008774,0.04646994173526764,0.16689249873161316,0.0042873951606452465,0.060276441276073456,0.022129716351628304,-0.14778678119182587,0.04794441536068916,0.004826194141060114,0.13393369317054749,-0.002977670170366764,-0.06165856122970581,-0.10647393018007278,-0.013283462263643742,-0.0462798997759819,-0.05103422328829765,-0.03925134986639023,-0.08658495545387268,-0.07148042321205139,-0.10601567476987839,-0.14115606248378754,-0.06409382820129395,-0.02150389924645424,0.008202750235795975,0.08104727417230606,-0.055365826934576035,-0.13670316338539124,-0.00916240457445383,-0.022855497896671295,-0.02821446768939495,0.0065023633651435375,-0.026664534583687782,-0.13122601807117462,-0.19595374166965485,0.008658903650939465,-0.07226733863353729,-0.10231680423021317,-0.04754597321152687,-0.09034398198127747,0.05342068523168564,-0.02553069218993187,0.06446576118469238,0.012114791199564934,0.09644930064678192,0.11059931665658951,0.1085347905755043,0.010494058951735497,0.022999275475740433,0.0315454825758934,-0.021226955577731133,-0.09879611432552338,0.08915445953607559,-0.03919854760169983,0.022309167310595512,0.09321054816246033,-0.02966959960758686,0.20180077850818634,-0.11733187735080719,0.009290657937526703,0.027314286679029465,-0.0016767821507528424,-0.03355557844042778,-0.035850077867507935,-0.05394521355628967,0.02267012745141983,0.027576548978686333,0.06986759603023529,0.13157515227794647,0.11788535118103027,-0.10792647302150726,0.009777851402759552,-0.05371984839439392,-0.05390763282775879,0.04375724866986275,0.10880041867494583,-0.18501338362693787,-0.014772564172744751,-0.051374416798353195,-0.034006766974925995,0.07900066673755646,0.005174574442207813,0.06430637836456299,0.02111103944480419,0.1255701333284378,0.11889076232910156,0.09117510169744492,0.11771778017282486,-0.06251630187034607,0.0009867139160633087,0.08329480141401291,0.05853383243083954,-0.06899945437908173,0.03215475007891655,0.08208570629358292,-0.07424405962228775,-0.08430572599172592,-0.06377595663070679,-0.1376892775297165,-0.032789476215839386,-0.05204181373119354,-0.04387550428509712,-0.05302301049232483,-0.10210388153791428,-0.002855749102309346,-0.08058702945709229,0.12640999257564545,-0.01717468909919262,-0.016999943181872368,-0.03282996267080307,0.10949818044900894,-0.08791213482618332,-0.16132651269435883,0.01615026220679283,0.02962130308151245,-0.023035326972603798,-0.037342242896556854,-0.01528831198811531,0.15514470636844635,-0.05043825879693031,0.10393510013818741,0.31241264939308167,-0.0019273989601060748,-0.016842452809214592,0.1707475483417511,-0.1297474354505539,-0.04011440649628639,-0.05861552059650421,-0.061443932354450226,-0.10674162954092026,-0.0017109591281041503,0.0044563845731318,-0.16205917298793793,-0.26786094903945923,-0.32415273785591125,-0.03524338826537132,0.01621822826564312,0.13160283863544464,0.07380984723567963,0.013925392180681229,-0.027871202677488327,-0.05278627574443817,-0.16458643972873688,0.1188168004155159,0.1749185174703598,0.15902650356292725,0.15004725754261017,0.17709365487098694,-0.023917144164443016,0.08791721612215042,-0.14303895831108093,-0.07177383452653885,-0.06254736334085464,-0.15666870772838593,0.10536565631628036,0.0033223244827240705,-0.061641547828912735,-0.05740787088871002,-0.002281423658132553,-0.1911374032497406,0.09778567403554916,0.033148568123579025,-0.01982308365404606,-0.001149562420323491,0.03507860749959946,-0.18938302993774414,0.1444464921951294,-0.004657876677811146,-0.01069954875856638,-0.009763823822140694,0.030194737017154694,-0.07819847762584686,0.074967160820961,0.17803777754306793,0.2032962143421173,0.25111058354377747,0.0809340626001358,0.30694177746772766,-0.14672374725341797,0.08611520379781723,0.11644776910543442,-0.028861477971076965,0.009358546696603298,-0.1326611042022705,0.022379450500011444,-0.02233833633363247,-0.13839249312877655,-0.09396239370107651,-0.026538873091340065,0.007858818396925926,0.2142839878797531,-0.1974465698003769,-0.17350292205810547,-0.06837962567806244,-0.06743849068880081,-0.11019668728113174,-0.05267716944217682,-0.13988515734672546,0.1048126220703125,0.09405793994665146,0.0996159166097641,0.24235285818576813,-0.20346835255622864,0.00647817924618721,0.026337644085288048,0.01072036474943161,-0.1139482781291008,0.04917275160551071,-0.10053671151399612,-0.022206353023648262,0.002155075781047344,-0.05579366162419319,-0.03894781693816185,0.14919623732566833,-0.08412863314151764,0.043143682181835175,0.054037533700466156,0.06893303990364075,-0.036978211253881454,0.08303207159042358,-0.058488648384809494,-0.22486352920532227,-0.21861259639263153,-0.20595937967300415,-0.08069534599781036,-0.33125099539756775,0.0859658494591713,-0.1799718588590622,-0.11185690015554428,0.05072396248579025,0.07664557546377182,0.19254988431930542,-0.03312787413597107,0.11833031475543976,0.027475735172629356,-0.13157735764980316,-0.11685953289270401,0.15763553977012634,0.03279115632176399,-0.0670696347951889,0.10170646756887436,0.005090055521577597,-0.027698252350091934,-0.0006652892334386706,0.0031959491316229105,-0.03904372826218605,0.11026324331760406,-0.0026475987397134304,-0.010808159597218037,-0.007914675399661064,0.07209379225969315,-0.06915318965911865,-0.043818652629852295,-0.08493957668542862,0.07168847322463989,0.11998271197080612,-0.2128562182188034,0.17138135433197021,0.28050947189331055,-0.07935238629579544,-0.1277511566877365,0.09323222935199738,-0.2480323761701584,0.07071425020694733,-0.07972527295351028,0.17813296616077423,0.3008626401424408,-0.1508006900548935,0.17957215011119843,-0.1125405952334404,0.25593438744544983,-0.26003122329711914,0.2799268662929535,-0.012127506546676159,-0.06201677396893501,0.2759689390659332,0.1621498465538025,0.20706172287464142,0.05745238810777664,-0.2895398437976837,0.31292662024497986,0.23383738100528717,0.2100711613893509,-0.2724631130695343,-0.09881597757339478,0.09306223690509796,-0.05695740878582001,-0.17657212913036346,0.05451356992125511,0.08686316758394241,-0.14456233382225037,0.23455128073692322,0.13654257357120514,-0.08102824538946152,0.20428578555583954,-0.2101559042930603,0.08146359771490097,-0.11426713317632675,0.25974443554878235,0.18169888854026794,0.2734375298023224,-0.2859395444393158,0.3466968238353729,0.32137322425842285,-0.34681466221809387,0.054223835468292236,0.468142032623291,-0.11102190613746643,-0.3650425374507904,0.25960439443588257,0.10088860243558884,0.012010354548692703,-0.10492754727602005,0.07617756724357605,0.16958263516426086,-0.35695749521255493,0.25592344999313354,0.45538127422332764,-0.008464537560939789,-0.16379712522029877,-0.07488653808832169,0.07835938036441803,-0.006394560914486647,0.034965187311172485,0.028548534959554672,0.03852906450629234,0.05261288955807686,-0.043011195957660675,-0.022423574700951576,0.02327543869614601,0.04759268835186958,0.06276301294565201,-0.019274942576885223,-0.040617719292640686,-0.044233616441488266,-0.009965703822672367,0.03504990041255951,0.0635862797498703,-0.10934088379144669,-0.05583743751049042,-0.051935672760009766,-0.0388714037835598,-0.09347724914550781,-0.04078314080834389,0.032030969858169556,-0.08730500191450119,-0.09783479571342468,-0.13256172835826874,-0.2512454688549042,-0.21062783896923065,-0.10280017554759979,0.026543738320469856,0.007627029437571764,-0.038367196917533875,-0.05283508449792862,-0.09542857855558395,0.04956388473510742,-0.02357417531311512,-0.0236129742115736,0.03247515857219696,0.05936647206544876,0.06482022255659103,0.11655233055353165,-0.021456260234117508,-0.036648716777563095,0.0021223535295575857,-0.07321804016828537,-0.033744025975465775,-0.04027406498789787,0.019281376153230667,-0.013898425735533237,-0.025952406227588654,-0.015492967329919338,-0.056381966918706894,0.05204128101468086,0.04190737009048462,0.05434371903538704,0.06947984546422958,0.024506237357854843,0.04895218461751938,0.05902567133307457,0.054671697318553925,0.03261827677488327,0.020425481721758842,0.04451417550444603,0.029227878898382187,0.0717005655169487,-0.054624900221824646,-0.04352913051843643,0.018300747498869896,-0.0823182463645935,-0.07784143090248108,0.07916565984487534,-0.09677446633577347,-0.10222988575696945,-0.11757123470306396,-0.1556881219148636,-0.1609085500240326,-0.055064763873815536,-0.004753819201141596,0.015174301341176033,0.02710910513997078,-0.022371765226125717,0.013698993250727654,0.06449886411428452,0.043856047093868256,0.048063553869724274,0.0659848004579544,0.07814918458461761,0.06746378540992737,0.08949120342731476,0.05731254443526268,0.0543675571680069,0.0024426723830401897,-0.0690130665898323,-0.012107456102967262,-0.007762222085148096,-0.02103443071246147,0.00032663028105162084,0.02074958197772503,-0.02888583019375801,-0.17582906782627106,0.1406630426645279,0.010121907107532024,-0.07643219083547592,-0.10847865790128708,-0.08103545010089874,-0.2309078425168991,0.128671795129776,0.04117489606142044,0.02110162563621998,0.05545855313539505,0.14448785781860352,0.09112511575222015,-0.09923094511032104,0.018993837758898735,0.024066871032118797,0.06269697844982147,0.11383190006017685,0.04850452020764351,0.018576910719275475,0.047172911465168,0.11217653006315231,0.11151925474405289,0.18669137358665466,0.2270043045282364,0.1474287211894989,-0.01764400117099285,-0.029395300894975662,0.07516203820705414,0.07094333320856094,0.091282419860363,-0.050057198852300644,0.008708871901035309,-0.09313009679317474,-0.14886267483234406,-0.16524991393089294,-0.3784458041191101,0.021533966064453125,-0.00012195373710710555,-0.009613326750695705,0.08308925479650497,0.1229286640882492,0.12806734442710876,-0.018593469634652138,-0.1401432454586029,-0.09746868163347244,-0.15870608389377594,-0.10722939670085907,-0.07370767742395401,-0.08034323900938034,0.026379456743597984,-0.004046543966978788,0.049452248960733414,-0.05155697092413902,0.04994121938943863,-0.010078996419906616,0.04644004628062248,0.038040440529584885,0.07811957597732544,0.12545245885849,0.1790158450603485,-0.00019575812621042132,0.030588502064347267,0.006547263357788324,-0.004880776163190603,0.005043948069214821,0.1031409204006195,0.006613356061279774,-0.0006858613924123347,0.03695692494511604,0.096891388297081,0.05859653651714325,0.0832432359457016,0.057761263102293015,0.07004741579294205,0.04267170652747154,0.062373626977205276,0.04212101548910141,0.08054164797067642,-0.07971440255641937,-0.03607286885380745,-0.04582061991095543,-0.03225721791386604,-0.04228358715772629,-0.042579106986522675,-0.011531591415405273,-0.01981845125555992,0.05326022580265999,0.04312220960855484,0.06400494277477264,0.21413011848926544,-0.08994133025407791,0.027202662080526352,0.0491497702896595,-0.014767168089747429,0.06244630739092827,0.24565111100673676,-0.13401976227760315,0.02318333275616169,0.013092024251818657,0.08542612195014954,0.05238301679491997,0.058198899030685425,-0.16454073786735535,-0.003075752640143037,-0.03292199969291687,-0.05341927707195282,-0.11650842428207397,-0.1101960763335228,0.04634410887956619,-0.03558097779750824,-0.06309320777654648,-0.05067497491836548,-0.1394032984972,-0.17103685438632965,0.026213880628347397,-0.1159469336271286,-0.09501581639051437,-0.1131805032491684,-0.2193918079137802,-0.3079858720302582,-0.008140928111970425,0.036821551620960236,0.025944111868739128,0.0262032151222229,-0.04801621660590172,0.0023634363897144794,0.10879595577716827,0.010759301483631134,0.012578596360981464,0.10899675637483597,0.1085788756608963,0.11861009895801544,-0.018888335675001144,-0.023691782727837563,-0.02931635081768036,-0.05625233054161072,-0.08907194435596466,-0.17748098075389862,-0.10402665287256241,-0.07292293757200241,-0.1101219654083252,-0.08644729107618332,-0.0070521049201488495,0.0688263550400734,-0.13374795019626617,0.04886038228869438,0.057450857013463974,0.06709504127502441,-0.019286448135972023,0.0533987432718277,-0.03199511766433716,0.09147778153419495,0.035111866891384125,-0.03201490640640259,-0.05002344027161598,-0.08068547397851944,0.0055529153905808926,0.005718585569411516,-0.09676522761583328,-0.10888577997684479,-0.01931096613407135,-0.06320314854383469,-0.04350236430764198,0.03153521567583084,-0.01556336134672165,-0.053603943437337875,0.03312947228550911,-0.07699809968471527,-0.010623699054121971,-0.040229421108961105,-0.07375036925077438,-0.07826074957847595,-0.030338918790221214,-0.056319862604141235,-0.030718807131052017,-0.00235066469758749,-0.014625847339630127,0.02560177631676197,0.022712327539920807,0.12725843489170074,-0.06051585078239441,0.023542681708931923,-0.00048010647878982127,-0.054111503064632416,-0.03110584430396557,-0.08471150696277618,0.009896794334053993,0.011380812153220177,0.027924280613660812,0.026476314291357994,-0.0013757626293227077,0.010088163428008556,-0.2455894649028778,0.05411466583609581,0.04118487983942032,-0.008545969612896442,-0.04786860942840576,-0.07185295224189758,-0.07298412173986435,0.06526074558496475,0.09594100713729858,0.03770509734749794,0.04802802577614784,0.09890257567167282,0.022673385217785835,-0.023027215152978897,0.017344357445836067,0.014355757273733616,-0.028900209814310074,-0.12705567479133606,0.10281948000192642,-0.024961382150650024,0.003445431822910905,-0.052541617304086685,-0.08046016097068787,-0.23780713975429535,-0.25818803906440735,-0.005289250053465366,0.006608389317989349,0.018072521314024925,0.07189832627773285,0.03450062498450279,0.10264477133750916,0.04089733585715294,0.021006159484386444,-0.016665538772940636,-0.10383659601211548,-0.1441698521375656,-0.1656123697757721,0.02383255772292614,0.00975801981985569,0.024556973949074745,0.021472284570336342,-0.03716862574219704,-0.14430642127990723,0.011361878365278244,0.002195770153775811,0.056207023561000824,0.04727542772889137,-0.09813189506530762,0.001191598828881979,-0.048500485718250275,-0.00688126077875495,0.004111654590815306,0.004565869458019733,-0.12045721709728241,0.09742263704538345,-0.04389526695013046,-0.019924500957131386,0.021543709561228752,0.03127162531018257,0.12581342458724976,-0.03306734934449196,0.04720964655280113,-0.010742398910224438,-0.045527875423431396,-0.04403850436210632,-0.027276543900370598,0.007922857999801636,-0.041200701147317886,-0.05376939848065376,-0.07364575564861298,-0.07416713237762451,-0.02925151027739048,-0.12355989962816238,0.02844623476266861,0.03041369654238224,-0.04503871127963066,-0.04643522948026657,-0.050334829837083817,-0.04740075394511223,-0.013391260989010334,0.004457737784832716,0.009683260694146156,0.05988430231809616,-0.031352221965789795,0.07587984204292297,-0.02223937027156353,0.036972153931856155,0.028081007301807404,-0.005446936935186386,-0.03580241650342941,-0.0019837392028421164,-0.04383521527051926,-0.16909071803092957,0.28656747937202454,0.018253767862915993,-0.22649601101875305,-0.04983396828174591,-0.18677560985088348,-0.03800494596362114,0.021800071001052856,-0.010913326404988766,0.1356803923845291,-0.030994394794106483,-0.013992645777761936,-0.019278788939118385,0.006270655896514654,-0.017246773466467857,-0.33951300382614136,0.23741507530212402,-0.26801756024360657,0.030201157554984093,0.25042471289634705,0.06707855314016342,0.3020271956920624,-0.11637608706951141,-0.20657378435134888,0.14979137480258942,-0.26588204503059387,-0.05046036094427109,0.24582313001155853,0.13823479413986206,0.26659858226776123,-0.15562137961387634,0.051125094294548035,-0.10050732642412186,-0.01773679070174694,-0.07943027466535568,-0.11616557836532593,-0.15273219347000122,-0.0666937455534935,-0.01548065710812807,0.2457086592912674,-0.20232638716697693,0.39844653010368347,0.2705524265766144,0.1145307794213295,-0.17388588190078735,-0.11148165911436081,0.1603803187608719,-0.09659677743911743,-0.00592783885076642,-0.12336212396621704,-0.18188364803791046,0.17325837910175323,-0.019774364307522774,0.09089253842830658,0.017489613965153694,-0.08947239071130753,-0.18108177185058594,-0.12378595024347305,-0.21794173121452332,-0.04419155791401863,-0.05137106031179428,0.1405148059129715,0.08976367115974426,-0.29410287737846375,0.014871986582875252,-0.27983221411705017,-0.10158447921276093,0.4116623103618622,0.10467995703220367,0.26131048798561096,-0.09560845047235489,0.06944852322340012,0.011231197975575924,-0.0439021922647953,-0.006177482195198536,0.17213977873325348,0.022208092734217644,0.12486173212528229,0.030740074813365936,-0.03532560542225838,0.042712192982435226,-0.46699026226997375,-0.2645055651664734,0.20238399505615234,0.4623364508152008,0.1444547176361084,-0.21575340628623962,-0.03689069673418999,-0.010070140473544598,-0.019653642550110817,0.00044463473022915423,-0.11477776616811752,-0.023314272984862328,0.04112493619322777,0.034274909645318985,0.07018338888883591,0.021394308656454086,-0.04096919298171997,-0.02984713204205036,0.02104078233242035,0.014850234612822533,0.0024668588303029537,0.020027335733175278,0.11980883777141571,0.05862479284405708,-0.028875064104795456,-0.03004520572721958,-0.03568723425269127,-0.00039130475488491356,-0.047760073095560074,-0.022646412253379822,-0.014731107279658318,-0.030124245211482048,0.022193217650055885,0.010558671317994595,0.05567720904946327,0.03934289142489433,0.029294682666659355,0.022792251780629158,-0.009999104775488377,0.023540768772363663,0.002113308059051633,0.011862682178616524,0.02926376461982727,0.023847617208957672,0.04679449647665024,0.03773447126150131,-0.08515037596225739,0.11068800091743469,-0.03676532953977585,-0.0491148978471756,0.02850215882062912,-0.0017605420434847474,0.006823577452450991,-0.03910575807094574,-0.026013221591711044,-0.03384086862206459,-0.004585650749504566,-0.018773458898067474,-0.011756685562431812,0.12240464240312576,0.04124747961759567,0.04079621285200119,0.01481965184211731,0.017076488584280014,0.09535481035709381,0.4518885314464569,0.06068195402622223,0.052904363721609116,0.045121725648641586,0.06134364753961563,0.039445120841264725,-0.12810997664928436,0.010782505385577679,-0.023340491577982903,-0.031039349734783173,-0.0012943949550390244,-0.1397225707769394,-0.38762351870536804,-0.061762165278196335,-0.08653812855482101,-0.0632905662059784,-0.1011248528957367,-0.16684181988239288,-0.3280637562274933,-0.014027443714439869,0.011711533181369305,0.014596724882721901,0.01575912907719612,0.07234245538711548,-0.11430615931749344,0.029236748814582825,0.010851888917386532,-0.004728598054498434,0.010787896811962128,0.005648354534059763,-0.011436749249696732,0.03199876844882965,0.03169414773583412,0.021369660273194313,-0.001614580862224102,0.008415144868195057,-0.004625700414180756,-0.01018659770488739,0.010175487957894802,0.06898555159568787,0.09708648175001144,-0.0019672983326017857,-0.09196098148822784,0.09843678772449493,-0.01568899117410183,0.06829260289669037,0.03956557810306549,-0.005540407262742519,-0.0769486054778099,0.06425566971302032,0.030033644288778305,0.038302257657051086,-0.030665498226881027,0.04917573183774948,0.11577945947647095,-0.10668657720088959,0.028453515842556953,-0.024290550500154495,-0.09334173053503036,-0.16055358946323395,0.04445803537964821,-0.030954038724303246,-0.033345017582178116,0.0012523275800049305,-0.06640368700027466,0.0012801956618204713,-0.007185013499110937,0.06853121519088745,-0.01591007597744465,-0.013190929777920246,-0.028492674231529236,0.07656688988208771,0.04367286339402199,-0.027050532400608063,0.028109073638916016,0.01854211650788784,0.05623197928071022,0.07321826368570328,-0.13634514808654785,-0.025775961577892303,0.03932449594140053,0.010126840323209763,0.005059798713773489,0.04869140684604645,0.08641672879457474,0.010674938559532166,-0.005389102268964052,-0.020310936495661736,-0.05952147766947746,-0.003086536191403866,0.0020448321010917425,-0.024857904762029648,-0.014876126311719418,-0.02886831946671009,-0.03423430025577545,0.06858270615339279,-0.0171006191521883,-0.0034942375496029854,0.004061457235366106,-0.055707283318042755,-0.001555667957291007,-0.07624655216932297,-0.010957104153931141,-0.03743895888328552,-0.04189511016011238,-0.04939132183790207,-0.04964394122362137,-0.16496802866458893,-0.08873897790908813,0.03405880182981491,-0.008991889655590057,0.06483639031648636,0.011692061088979244,-0.010817133821547031,-0.02598879113793373,0.02302130125463009,-0.06783166527748108,-0.012037108652293682,-0.030920274555683136,-0.03185367211699486,-0.04692501947283745,-0.0637073889374733,-0.022337758913636208,-0.04423746466636658,-0.09380444884300232,0.05346428602933884,-0.06837961822748184,-0.049617938697338104,-0.006865387782454491,0.0011871197493746877,-0.03824903070926666,-0.06461630016565323,-0.05176939070224762,-0.004194415640085936,0.060357511043548584,0.030300458893179893,0.06219770014286041,0.177083358168602,0.12266748398542404,-0.03979593887925148,-0.04448706656694412,-0.05974620208144188,0.011080154217779636,-0.009442145936191082,0.04934421554207802,-0.09659971296787262,-0.05096880719065666,-0.10749449580907822,-0.11569224298000336,-0.131874218583107,-0.038105081766843796,-0.0026670678053051233,0.0054631601087749004,0.0033297177869826555,0.011693316511809826,-0.15450213849544525,-0.08743701875209808,0.06049979478120804,0.03397727012634277,0.039674948900938034,0.06532251834869385,0.07868058234453201,0.058167118579149246,0.042828772217035294,0.027185773476958275,0.07934015989303589,0.06286709755659103,0.18403559923171997,0.10422688722610474,-0.010468274354934692,-0.008431346155703068,-0.024147171527147293,0.06060277670621872,0.02330715022981167,0.05953317508101463,-0.022983752191066742,-0.010992719791829586,-0.031307388097047806,-0.01752576231956482,0.006027494557201862,0.19835086166858673,-0.029110470786690712,0.00028182193636894226,0.028084339573979378,0.07915956526994705,0.22748927772045135,0.04239170625805855,0.025667278096079826,-0.03263504058122635,0.02298407070338726,-0.010320140980184078,-0.07076049596071243,-0.10412492603063583,-0.004912170115858316,0.010253372602164745,-0.00993158109486103,-0.08553336560726166,-0.12572607398033142,0.10435905307531357,-0.01884552650153637,-0.022695941850543022,-0.022554419934749603,-0.04264036566019058,-0.026379724964499474,-0.16183528304100037,-0.005195848643779755,-0.007470523472875357,-0.0066007934510707855,-0.002293206751346588,0.06790799647569656,0.10597778856754303,0.014134121127426624,-0.05301418900489807,0.10405410081148148,-0.034032657742500305,0.09719812870025635,0.1433047503232956,0.017445091158151627,-0.009431657381355762,-0.0340706929564476,-0.007023833226412535,-0.022572370246052742,-0.19384637475013733,-0.03734276071190834,-0.0363679863512516,-0.01241202000528574,-0.03535553067922592,-0.0764220654964447,0.19686423242092133,-0.02780725248157978,-0.02033238485455513,-0.013021229766309261,-0.0074650016613304615,0.13527308404445648,-0.015358964912593365,0.04001720994710922,-0.008839789777994156,0.007985531352460384,0.024950752034783363,0.09707341343164444,-0.0818600133061409,0.00018558514420874417,-0.00409140158444643,0.030993932858109474,-0.008018906228244305,-0.08109832555055618,0.05588043853640556,-0.04261831194162369,-0.011301293969154358,-0.0012161053018644452,-0.0005179058061912656,-0.13921119272708893,-0.03796156868338585,-0.00299910269677639,-0.025128483772277832,0.011475878767669201,-0.02302144281566143,-0.035715844482183456,0.030608905479311943,9.491886157775298e-05,-0.027462303638458252,-0.003997116349637508,0.042665109038352966,-0.050529707223176956,-0.014537964016199112,0.014859730377793312,-0.014192565344274044,-0.012294759042561054,0.005167223513126373,0.1235429048538208,-0.0882774144411087,0.0008547028992325068,0.028306102380156517,-0.06273680925369263,-0.04008015617728233,-0.07320119440555573,-0.014378344640135765,0.016798099502921104,-0.00015484583855140954,-0.0037533906288444996,-0.02119583822786808,0.008536303415894508,-0.0038134187925606966,-0.0363631397485733,0.0009371453197672963,0.03966747224330902,0.009783857502043247,-0.020961901172995567,0.04420208930969238,-0.01504194550216198,