{"version":"0.7.0","architecture":"SlimmableContainer","config":{"submodels":[{"max_value":0.5,"model":{"version":"0.7.0","metadata":{"date":{"year":2026,"month":5,"day":15,"hour":9,"minute":42,"second":23},"loudness":-15.27321720123291,"gain":0.7452416362222803},"architecture":"WaveNet","config":{"layers":[{"input_size":1,"condition_size":1,"head":{"out_channels":1,"kernel_size":16,"bias":true},"channels":3,"kernel_sizes":[6,6,6,6,6,6,6,6,6,6,6,6,6,6,15,15,6,6,6,6,6,6,6],"dilations":[1,3,7,17,41,101,239,1,3,7,17,41,101,239,1,13,1,3,7,17,41,101,239],"activation":[{"type":"LeakyReLU","negative_slope":0.01},{"type":"LeakyReLU","negative_slope":0.01},{"type":"LeakyReLU","negative_slope":0.01},{"type":"LeakyReLU","negative_slope":0.01},{"type":"LeakyReLU","negative_slope":0.01},{"type":"LeakyReLU","negative_slope":0.01},{"type":"LeakyReLU","negative_slope":0.01},{"type":"LeakyReLU","negative_slope":0.01},{"type":"LeakyReLU","negative_slope":0.01},{"type":"LeakyReLU","negative_slope":0.01},{"type":"LeakyReLU","negative_slope":0.01},{"type":"LeakyReLU","negative_slope":0.01},{"type":"LeakyReLU","negative_slope":0.01},{"type":"LeakyReLU","negative_slope":0.01},{"type":"LeakyReLU","negative_slope":0.01},{"type":"LeakyReLU","negative_slope":0.01},{"type":"LeakyReLU","negative_slope":0.01},{"type":"LeakyReLU","negative_slope":0.01},{"type":"LeakyReLU","negative_slope":0.01},{"type":"LeakyReLU","negative_slope":0.01},{"type":"LeakyReLU","negative_slope":0.01},{"type":"LeakyReLU","negative_slope":0.01},{"type":"LeakyReLU","negative_slope":0.01}],"bottleneck":3,"head1x1":{"active":false,"out_channels":1,"groups":1},"layer1x1":{"active":true,"groups":1},"groups_input":1,"groups_input_mixin":1,"conv_pre_film":{"active":false,"shift":true,"groups":1},"conv_post_film":{"active":false,"shift":true,"groups":1},"input_mixin_pre_film":{"active":false,"shift":true,"groups":1},"input_mixin_post_film":{"active":false,"shift":true,"groups":1},"activation_pre_film":{"active":false,"shift":true,"groups":1},"activation_post_film":{"active":false,"shift":true,"groups":1},"layer1x1_post_film":{"active":false,"shift":true,"groups":1},"head1x1_post_film":{"active":false,"shift":true,"groups":1},"gating_mode":["none","none","none","none","none","none","none","none","none","none","none","none","none","none","none","none","none","none","none","none","none","none","none"],"secondary_activation":[null,null,null,null,null,null,null,null,null,null,null,null,null,null,null,null,null,null,null,null,null,null,null],"slimmable":null}],"head":null,"head_scale":0.011564097463975081},"weights":[-2.005551338195801,-1.9113893508911133,-1.0621414184570312,0.0630752444267273,0.14337418973445892,-0.015196437016129494,-0.48850101232528687,-0.9717771410942078,-0.031004833057522774,0.29270675778388977,0.1323704868555069,0.19028064608573914,-0.6396906971931458,-1.0363171100616455,-0.165455162525177,0.08196085691452026,0.04883774369955063,0.1760740578174591,-0.31667467951774597,-0.6821373105049133,0.018743379041552544,0.29415905475616455,0.312531054019928,-0.0025143898092210293,-0.30693987011909485,-0.7458577752113342,-0.23011690378189087,0.41684478521347046,0.02696716971695423,0.037294454872608185,-0.2692510485649109,-0.5228689312934875,-0.2695801556110382,0.16207219660282135,0.0052748629823327065,0.08440513908863068,-0.15706640481948853,-0.613903284072876,-0.16357563436031342,0.09755505621433258,0.1305917203426361,0.07659094780683517,0.15993711352348328,-1.1250556707382202,-0.48349982500076294,0.04778735339641571,-0.015357972122728825,0.06867353618144989,0.16494329273700714,-0.8294277191162109,-0.471630334854126,-0.01949477195739746,0.07389579713344574,0.22945980727672577,0.3326779305934906,-0.7470162510871887,-0.43259957432746887,1.2928944826126099,0.30934733152389526,-0.6151288151741028,0.36557212471961975,0.18487390875816345,0.005108329001814127,-0.4028531312942505,-0.5681465864181519,1.3552404642105103,-0.2458939254283905,-0.4694644510746002,1.0652635097503662,0.17242246866226196,0.5331667065620422,-0.6990863084793091,-0.07063949853181839,0.01038121897727251,0.1310805231332779,-0.25649377703666687,0.008762368001043797,0.13957905769348145,-0.07866968214511871,0.10337646305561066,-0.09383797645568848,-0.5265976190567017,-0.1542365550994873,-0.01081539411097765,0.10183054953813553,-0.09940679371356964,0.1617717146873474,0.07872964441776276,0.0035751659888774157,0.0213727205991745,0.06912443786859512,0.20017211139202118,-3.7418005376821384e-05,0.05268925800919533,-0.033234160393476486,0.03808177635073662,-0.030017457902431488,0.27083703875541687,-0.16901782155036926,-0.2470717877149582,-0.09234025329351425,-0.14100411534309387,-0.1923520416021347,0.5200366377830505,0.9389268755912781,0.00932134035974741,0.098453089594841,0.14911097288131714,0.3076137900352478,0.3353550136089325,0.3248507082462311,0.2284388393163681,0.03223411738872528,-0.017378337681293488,-0.04960848391056061,-0.21090830862522125,0.06608638912439346,0.21518740057945251,0.05585082620382309,0.20609158277511597,0.04311589151620865,-0.34082257747650146,-0.30815815925598145,0.036271482706069946,-0.12651494145393372,-0.06027555465698242,0.008537622168660164,0.04889816418290138,0.06875579804182053,0.25040334463119507,0.13199181854724884,0.052149172872304916,0.3429834246635437,-1.7746257781982422,0.10615043342113495,0.21270012855529785,0.657431423664093,-0.24973103404045105,-0.4923243522644043,0.29985854029655457,-0.16955243051052094,0.07006141543388367,-0.5173008441925049,0.1689908802509308,-0.033988602459430695,0.0070118107832968235,0.14424580335617065,-0.14154063165187836,-0.11918365210294724,0.2853987216949463,-0.02094738930463791,0.025552405044436455,-0.12633179128170013,0.6537925601005554,0.38492006063461304,-0.03537774831056595,0.08029413223266602,-0.0739348828792572,-0.23721206188201904,-0.027324877679347992,0.027218449860811234,0.019103674218058586,-0.11137449741363525,-0.34702086448669434,-0.3236153721809387,-0.09059372544288635,0.050821080803871155,-0.2323051244020462,-0.07171251624822617,-0.1976882666349411,0.17699797451496124,-0.32651445269584656,-0.36880552768707275,-0.09702848643064499,-0.0020427280105650425,0.024192312732338905,0.2212400585412979,0.19869299232959747,0.2732503116130829,0.07413158565759659,0.22667987644672394,0.17758455872535706,0.17502672970294952,0.11856666952371597,0.05101994425058365,0.3376457095146179,0.4042939841747284,0.2638865113258362,-0.5888964533805847,0.19509665668010712,0.30160269141197205,-0.018849048763513565,0.04701503366231918,0.04426638036966324,-0.4864952564239502,0.31639301776885986,0.07905662059783936,0.145232692360878,0.10215958952903748,0.23761798441410065,0.1660243421792984,0.1214321032166481,0.0897866040468216,0.3268771171569824,0.5159095525741577,-0.42814844846725464,0.4646665155887604,-0.319093257188797,0.3271705210208893,-0.5068644285202026,0.37961849570274353,-0.43118998408317566,-0.15356580913066864,0.7231601476669312,-0.36426159739494324,0.22076798975467682,0.045798443257808685,-0.05894405394792557,0.15978334844112396,0.08438799530267715,-0.019234536215662956,0.002971320878714323,-0.07907971739768982,0.07858750969171524,0.0039854273200035095,0.22146762907505035,-0.03271272033452988,0.03336240351200104,0.11283290386199951,-0.1758398562669754,-0.15713940560817719,0.4141330420970917,0.06212412938475609,0.08189497143030167,-0.12210535258054733,0.13923229277133942,-0.13700971007347107,-0.13364383578300476,-0.08370500057935715,-0.07641705870628357,-0.07163950800895691,-0.12952491641044617,0.721953809261322,-0.012655951082706451,0.10417138785123825,0.021880898624658585,0.13506537675857544,0.33120307326316833,0.12170442193746567,-0.31773191690444946,-0.10251306742429733,-0.13206304609775543,-0.15502585470676422,-0.272940993309021,-0.13151788711547852,-0.009310509078204632,-0.08563079684972763,-0.0761745497584343,0.027181729674339294,0.12355317175388336,-0.1934773474931717,-0.3765399754047394,-0.12097600847482681,0.0005459594540297985,-0.026365943253040314,-0.07908226549625397,0.23825949430465698,-0.27470386028289795,-0.1468270868062973,-0.12981802225112915,-0.02224239893257618,0.051369741559028625,-0.0281319972127676,0.04748925194144249,-0.5410269498825073,-0.0983472540974617,-0.3422025442123413,-0.3584461808204651,-0.2194632887840271,-0.3842218518257141,-0.990175187587738,0.540212869644165,0.10219706594944,-0.16064615547657013,-0.3623049259185791,-0.4086376130580902,0.36325889825820923,0.1536148488521576,0.47467371821403503,0.2930421531200409,-0.06592068076133728,0.3667166531085968,0.19312405586242676,0.11388109624385834,-0.07955323159694672,0.1006886437535286,0.037981729954481125,0.022828299552202225,0.23574866354465485,0.12336701154708862,-0.2757583260536194,-0.0817149430513382,-0.06080503389239311,0.3299746811389923,0.5484935641288757,0.17927758395671844,-0.2698303461074829,0.1415909081697464,-0.26503968238830566,0.23277980089187622,0.06254437565803528,0.15245677530765533,-0.12956079840660095,-0.009332090616226196,-0.11481782793998718,-0.014596832916140556,-0.01849779114127159,0.03156113252043724,0.45031917095184326,0.346472829580307,-0.5040578842163086,0.4130204916000366,0.06678840517997742,0.23232166469097137,0.12469986826181412,0.2311250865459442,-0.2684783637523651,0.017352281138300896,-0.09908686578273773,0.020000338554382324,0.05570570379495621,0.07101002335548401,0.10590828955173492,0.09267918020486832,0.22497235238552094,0.17065834999084473,0.1317698061466217,0.24724864959716797,-0.4969331622123718,0.06458014994859695,0.018734285607933998,0.2155509740114212,0.20148000121116638,0.35008683800697327,0.7556861042976379,-0.3056548833847046,-0.13968218863010406,0.3269331455230713,0.22867798805236816,-0.2621617019176483,0.7975154519081116,-0.05645868554711342,-0.2397579699754715,-0.6609148383140564,-0.3679949641227722,-0.4597424268722534,0.5419049859046936,-0.5628594160079956,-0.38976311683654785,-0.020492585375905037,-0.31249603629112244,-0.34791460633277893,-0.28249871730804443,0.04476483166217804,0.015793096274137497,-0.0010568451834842563,-0.07156408578157425,-0.07581426948308945,-0.7600705623626709,-0.07384532690048218,-0.04605644568800926,-0.0390801876783371,0.06113060191273689,0.1001393049955368,0.052086323499679565,0.06791860610246658,0.01789078302681446,0.01626865193247795,-0.08276349306106567,-0.09568338096141815,-0.1019507423043251,0.1284683793783188,-0.034706562757492065,-0.054448775947093964,-0.2894168198108673,-0.30224546790122986,0.11624520272016525,-0.24878714978694916,-0.13801787793636322,-0.09566091001033783,0.10211601853370667,0.3348544239997864,-0.030142897740006447,0.25256460905075073,-0.016110142692923546,-0.09846247732639313,-0.37701287865638733,-0.48066145181655884,-0.22065125405788422,0.2115035057067871,0.04993145540356636,0.15457884967327118,0.13276632130146027,0.16242001950740814,0.019029004499316216,-0.07150149345397949,0.02091594785451889,0.16428308188915253,0.10487443208694458,0.15884573757648468,0.38994520902633667,0.18402099609375,0.20301690697669983,0.10904256999492645,0.30260586738586426,0.14633740484714508,0.16373932361602783,-1.0817835330963135,0.34865671396255493,-0.27788251638412476,0.06264714151620865,0.31399479508399963,-0.3321283757686615,1.1140047311782837,-0.2554326355457306,-0.5121133923530579,0.0776032879948616,-0.43406593799591064,-0.20738257467746735,-0.1278446912765503,-0.7133170366287231,-0.6350829601287842,-0.21586553752422333,-0.420341819524765,0.4247739613056183,0.023232392966747284,0.07432848960161209,0.04945565387606621,-0.032207317650318146,-0.22463451325893402,1.1364094018936157,-0.051566243171691895,-0.13707105815410614,-0.03662921115756035,0.09537176042795181,0.30966997146606445,-0.2072167545557022,0.04816706106066704,0.1279156655073166,0.07401084154844284,-0.03463701903820038,-0.24238474667072296,0.2966040372848511,0.007318449206650257,-0.05224228650331497,-0.112050861120224,-0.0631050318479538,0.39072349667549133,-0.10257632285356522,0.0023159862030297518,0.10089844465255737,0.1879112869501114,0.024170003831386566,-0.590303897857666,-0.5221701860427856,-0.0039026811718940735,-0.08855834603309631,-0.15866819024085999,-0.08007825165987015,0.41342321038246155,-0.5084162950515747,-0.040150925517082214,-0.05442313104867935,0.059627097100019455,0.15287765860557556,-0.0853215828537941,-0.2265082448720932,0.09630553424358368,0.09251416474580765,-0.08157825469970703,-0.27723148465156555,0.2501988708972931,-0.13819925487041473,-0.08028100430965424,-0.035951752215623856,0.0640803724527359,0.2243608981370926,-0.0944528803229332,-0.588097333908081,-0.28128325939178467,0.21549180150032043,-0.7434019446372986,0.4754849076271057,-0.17689967155456543,0.17590603232383728,-0.8482983708381653,0.0497448556125164,-0.006181591190397739,0.4560015797615051,1.123589277267456,-0.11144954711198807,0.07561155408620834,-0.21083003282546997,0.8096329569816589,-0.11765400320291519,-0.527148425579071,0.5559636950492859,-0.22794154286384583,-0.1488095372915268,0.026667704805731773,-0.004427362699061632,0.03698711097240448,0.0016385820927098393,-0.21281811594963074,-0.20428059995174408,-0.19372369349002838,0.1442698985338211,-0.05329045653343201,0.2026868462562561,-0.10920273512601852,-0.1999630331993103,-0.12077966332435608,-0.14417976140975952,-0.21116071939468384,-0.09489629417657852,0.12681123614311218,0.1238577738404274,-0.09127606451511383,-0.15648671984672546,-0.1810447722673416,0.37888550758361816,0.02366068586707115,-0.17632128298282623,0.09708938002586365,-0.11997981369495392,0.1732560247182846,0.17869800329208374,0.009939777664840221,-0.006315269507467747,0.13931035995483398,0.02962225116789341,-0.09774721413850784,-0.6153325438499451,0.09886449575424194,-0.09328123182058334,-0.3737979531288147,-0.7795330882072449,-0.9316869974136353,-0.5185178518295288,0.0094562117010355,-0.15511192381381989,-0.1467507928609848,-0.16748619079589844,0.08401937037706375,-0.19249096512794495,-0.10656831413507462,-0.2520185708999634,-0.052673351019620895,0.11895482242107391,0.009934105910360813,-0.08159350603818893,0.08543951064348221,-0.2670561373233795,0.3630506098270416,-0.0421096608042717,-0.13831046223640442,0.2847127914428711,-0.07232516258955002,-0.18173636496067047,-0.41284626722335815,-0.5625943541526794,-0.6399484276771545,-0.20106278359889984,-0.12843827903270721,0.45341309905052185,-0.02141462452709675,0.5580395460128784,-0.19778726994991302,-0.0395975336432457,0.02294117771089077,-0.08500900864601135,0.4732057750225067,-0.6303171515464783,0.10894300043582916,0.04639928787946701,0.09525138139724731,-0.08924800902605057,-0.034405406564474106,-0.2822732925415039,0.1929791420698166,0.39693519473075867,0.09133367240428925,0.01814345456659794,-0.11688438802957535,0.3045007288455963,-0.09734586626291275,-0.23204167187213898,-0.034958187490701675,-0.01370707806199789,-0.007132031489163637,-0.03657560050487518,0.17789924144744873,0.36451756954193115,0.0034017167054116726,-0.07157117128372192,0.10137856006622314,0.08288471400737762,-0.1122158095240593,-0.04506032168865204,0.029522130265831947,-0.04735647141933441,0.017788680270314217,-0.07727660238742828,-0.02070431597530842,0.1313299536705017,-0.02206939458847046,-0.015578102320432663,-0.011528891511261463,0.05282988399267197,-0.03779324144124985,0.04196466878056526,-0.12056668847799301,0.05793575197458267,-0.028259240090847015,0.045923564583063126,0.14030255377292633,-0.004532345570623875,0.14636720716953278,0.09915654361248016,0.25791123509407043,0.11179670691490173,0.17521759867668152,0.3042188286781311,0.29837867617607117,1.0894770622253418,-0.6408585906028748,-0.8349550366401672,-0.8626065254211426,-0.5094948410987854,0.4216458797454834,0.9332142472267151,-0.3555977940559387,-0.2161681056022644,-0.011330162174999714,-0.3110358417034149,0.31565341353416443,-0.37037888169288635,-0.36647000908851624,0.516813337802887,-0.13245531916618347,0.18518713116645813,0.21154244244098663,0.056471120566129684,0.134957954287529,0.044518958777189255,-0.06590402871370316,0.5677286982536316,0.1974366009235382,0.0029188492335379124,0.12113112956285477,-0.12602517008781433,-0.20457251369953156,-0.36985865235328674,0.23905318975448608,0.002525392221286893,0.06581968814134598,-0.054943639785051346,-0.22705455124378204,-0.235551655292511,-0.293803334236145,-0.05521867796778679,-0.22671817243099213,0.058848366141319275,0.1224622055888176,-0.5198584198951721,0.13298441469669342,0.10200494527816772,0.06301102042198181,-0.04108824208378792,0.1238633394241333,-0.20160536468029022,-0.06352045387029648,-0.011099500581622124,0.13276547193527222,0.29514387249946594,0.19068098068237305,-0.16578105092048645,0.24976393580436707,0.24167346954345703,0.04991384595632553,0.17451141774654388,0.060754816979169846,-0.43568140268325806,-0.07705121487379074,0.05779720097780228,0.050416503101587296,-0.17853564023971558,-0.22885656356811523,-0.4263613522052765,0.4220864176750183,0.32715070247650146,-0.20929354429244995,0.00466524763032794,-0.19954395294189453,-0.5711825489997864,0.17193059623241425,-0.4615902602672577,0.4144488275051117,0.45025360584259033,0.22171594202518463,0.22487616539001465,0.25200992822647095,0.1258460134267807,0.10468363016843796,0.2386762797832489,-0.06382261961698532,0.33958807587623596,-0.28149154782295227,0.11195148527622223,0.291128009557724,0.5255213975906372,0.017924794927239418,0.3598763346672058,-0.015859371051192284,-0.0353538915514946,-0.048220474272966385,-0.07665621489286423,0.08180037885904312,0.19626817107200623,-0.05942470207810402,0.017096927389502525,-0.08745930343866348,0.19153155386447906,0.03239064663648605,-0.2596520483493805,-0.086282879114151,-0.0530727244913578,-0.11332536488771439,-0.13014470040798187,0.1600848138332367,0.5762563943862915,-0.054036159068346024,0.0059732780791819096,-0.09034532308578491,-0.06753494590520859,-0.11893124878406525,0.3584558665752411,0.11906835436820984,-0.04603436589241028,-0.12030216306447983,0.0894729495048523,-0.15555240213871002,0.3786819875240326,-0.11951492726802826,0.05608990043401718,-0.13611936569213867,0.03804383426904678,-0.1081518679857254,0.5500783920288086,-0.03693840280175209,0.05160857364535332,0.02805257961153984,0.004220292903482914,4.692742004408501e-05,0.2870110869407654,-0.29886120557785034,-0.0673157125711441,-0.3457569181919098,-0.279057115316391,-0.152132049202919,0.49813470244407654,-0.241975337266922,-0.02922547422349453,-0.11911818385124207,-0.14392849802970886,0.01260685920715332,0.021539779379963875,-0.5729284882545471,-0.20057062804698944,-0.18154311180114746,-0.011401779018342495,-0.7512518167495728,-0.06661508232355118,-0.029430748894810677,-0.18508797883987427,-0.2938157618045807,0.5578296780586243,-0.3651907444000244,-0.10799803584814072,-0.6344159841537476,-0.42198964953422546,0.040121857076883316,0.16514720022678375,-0.09081089496612549,0.6374439597129822,-0.03230497986078262,-0.04583381116390228,0.033490218222141266,-0.023419078439474106,0.04432561248540878,-0.943621814250946,0.35114651918411255,0.3950396180152893,0.4924536347389221,0.5523474216461182,0.5967152714729309,-0.038088276982307434,-0.03031713329255581,-0.10328620672225952,0.04366747662425041,-0.00833407323807478,0.13797107338905334,0.16688241064548492,-0.03845338895916939,-0.1166924461722374,-0.08997347205877304,-0.02808034047484398,0.08653207868337631,0.004979426972568035,0.3717329204082489,0.32358625531196594,0.29951906204223633,0.2356746345758438,0.18816208839416504,-0.4379197657108307,0.052923914045095444,-0.06997420638799667,0.040804602205753326,0.13680113852024078,0.24438713490962982,-0.1322856992483139,-0.022891005501151085,-0.002650556154549122,-0.014462681487202644,-0.007845266722142696,-0.04326425492763519,0.039594415575265884,-0.20300880074501038,-0.2584562301635742,-0.35996994376182556,-0.2789137363433838,-0.15958595275878906,0.40499696135520935,-0.07321691513061523,-0.017371302470564842,-0.04543805122375488,-0.0061256494373083115,-0.07031317055225372,-0.5645279288291931,-0.11753883212804794,-0.016130590811371803,-1.165718913078308,0.43579360842704773,0.42449313402175903,-0.6138431429862976,0.9891538619995117,0.11966676265001297,-1.1684062480926514,-0.041147857904434204,0.23033146560192108,-0.34140533208847046,-0.4522590935230255,0.5211392045021057,0.8398044109344482,-0.15679122507572174,-0.16286525130271912,-0.06849346309900284,-0.004128365311771631,-0.17969614267349243,-0.09751545637845993,0.33633822202682495,0.18128645420074463,-0.04027329385280609,-0.1173168197274208,-0.3704566955566406,-0.6048995852470398,-0.2646828293800354,-0.1945178210735321,0.07857494056224823,-0.04562700539827347,-0.20618844032287598,-0.3822009861469269,-0.17162415385246277,0.10387112200260162,0.17398756742477417,0.21022363007068634,0.11936772614717484,0.06976167112588882,-0.06406930834054947,-0.08118627965450287,0.10624511539936066,-0.08030965924263,0.18317219614982605,0.11616475135087967,0.20868755877017975,0.06285799294710159,-0.058320704847574234,0.2657829523086548,0.34810885787010193,0.3611932694911957,0.02731815166771412,0.16457095742225647,0.02456003427505493,0.18321536481380463,-0.08823145180940628,-0.14577440917491913,-0.05805822089314461,-0.03764573484659195,-0.3977389335632324,0.4484408497810364,0.33388370275497437,0.11724300682544708,0.4316316545009613,0.9121177196502686,-0.056444309651851654,0.3161419630050659,0.03379505127668381,-0.01046050526201725,-0.011822005733847618,-0.050580792129039764,0.28933852910995483,0.5860075354576111,-0.09468992799520493,0.0665179193019867,-0.4827008843421936,-0.2510686218738556,-1.0924854278564453,-0.5090843439102173,0.4717791676521301,0.3899074196815491,-0.781306803226471,-0.46204057335853577,-1.80081307888031,-0.5330577492713928,0.2114177942276001,-0.08570721745491028,-0.14210771024227142,0.10882746428251266,0.13076940178871155,-0.011220491491258144,-0.08222544193267822,-0.15817664563655853,-0.2975384593009949,-0.19135510921478271,0.325650691986084,-0.029094630852341652,-0.09895247220993042,-0.24011045694351196,-0.10405999422073364,-0.4603862762451172,-0.19750984013080597,-0.0017509961035102606,0.05258188024163246,-0.12177576869726181,-0.4913661777973175,-0.08989830315113068,-0.05292410030961037,-0.027049334719777107,0.00939334649592638,-0.05875883251428604,-0.08504477888345718,0.09736116975545883,0.1734093576669693,-0.0038437596522271633,0.03604262322187424,0.20174866914749146,0.524986743927002,-0.45728155970573425,0.0029463241808116436,0.028350211679935455,-0.07274357229471207,-0.09521862864494324,-0.1864822953939438,0.4405595064163208,0.3355073034763336,0.08085917681455612,0.029166433960199356,-0.11953984946012497,-0.15540704131126404,0.11045580357313156,-0.1318645477294922,-0.06420405954122543,-0.05848633870482445,0.033556919544935226,0.021303405985236168,-0.09624271839857101,-0.18525974452495575,0.08616020530462265,0.0676288977265358,0.17973145842552185,0.12725158035755157,0.22889317572116852,0.16075795888900757,0.5104176998138428,0.09367896616458893,0.28535500168800354,-0.02560422569513321,0.6439682245254517,-0.4174446761608124,-0.2699951231479645,-0.47673603892326355,-0.02431216649711132,0.06566274166107178,0.6568390130996704,-0.6026719212532043,-0.20858266949653625,-0.6003431081771851,-0.06918293982744217,0.10668132454156876,0.397341251373291,-0.6489761471748352,-0.10135840624570847,-0.11355514079332352,-0.08857249468564987,0.007474674843251705,0.005279587581753731,0.01743410713970661,-0.005631458945572376,0.06959110498428345,-0.06864947080612183,0.005497456528246403,0.09294930845499039,0.2054460048675537,0.09234915673732758,-0.09374050796031952,-0.5348533987998962,0.12659908831119537,0.09753920882940292,-0.002629676600918174,-0.08043956756591797,0.006937379017472267,0.057471178472042084,0.05262782797217369,0.0012203938094899058,0.04285142943263054,0.05337228253483772,-0.03856604918837547,0.08864007145166397,0.12040528655052185,-0.08450450748205185,-0.2035103142261505,-0.18246501684188843,-0.0005280753248371184,0.037663642317056656,-0.10299662500619888,-0.11670263111591339,-0.12255777418613434,-0.027014469727873802,-0.04969970881938934,0.053390536457300186,0.16773721575737,0.0922054573893547,-0.0342569537460804,-0.016762780025601387,-0.004188098944723606,0.25183066725730896,0.12244156002998352,-0.011240296997129917,0.004684384912252426,0.029216080904006958,-0.07284700870513916,-0.23535741865634918,-0.08104842156171799,-0.009387352503836155,0.11514289677143097,0.148038849234581,0.16793705523014069,0.09634973108768463,-0.0963057279586792,-0.08932063728570938,-0.038761693984270096,0.059550948441028595,0.03480479121208191,-0.07199031114578247,-0.057819630950689316,-0.02454521507024765,0.02713744528591633,0.03225870802998543,0.11100000143051147,0.04069862887263298,0.06268808990716934,0.0559593066573143,0.048185307532548904,-0.047808773815631866,-0.16431400179862976,-0.13800378143787384,0.0011324797524139285,-0.01455807313323021,0.012020530179142952,0.06757525354623795,0.09455489367246628,0.050129495561122894,-0.009536290541291237,-0.13977642357349396,-0.1983872354030609,-0.22726161777973175,-0.1517879217863083,-0.049113139510154724,0.14879699051380157,0.2372063249349594,0.24084796011447906,0.02699090540409088,0.004624429624527693,0.08610424399375916,0.1360108107328415,-0.030141660943627357,0.02816789411008358,0.17665277421474457,0.1009528785943985,0.027379585430026054,0.06884711235761642,-0.018513206392526627,-0.01109903585165739,-0.06232061982154846,0.06494974344968796,0.08539186418056488,0.030589144676923752,-0.012576436623930931,0.0069407811388373375,-0.029435615986585617,-0.09870308637619019,0.007409409619867802,0.04045182466506958,-0.07598929852247238,-0.10794662684202194,-0.20924639701843262,0.041509225964546204,0.00472676008939743,-0.10577757656574249,-0.09215424209833145,-0.12774993479251862,0.22781477868556976,-0.045436058193445206,-0.034362636506557465,-0.08068729937076569,0.009827684611082077,0.1666368693113327,-0.07231400907039642,0.13361303508281708,0.04608088359236717,-0.0071743023581802845,0.06084904074668884,0.08074252307415009,0.06087047606706619,0.13115164637565613,0.19093506038188934,-0.1677962690591812,-0.06110339239239693,-0.14558406174182892,0.1647040843963623,-0.44568169116973877,0.10834228247404099,0.20123036205768585,-0.5195375084877014,0.18545107543468475,0.017410939559340477,0.6340525150299072,-0.49024641513824463,0.011159815825521946,-0.12150084972381592,0.3738258183002472,-0.04282683506608009,-0.4384230077266693,-0.04687734320759773,0.2718554437160492,0.15856733918190002,0.1202159970998764,0.09168364852666855,0.19626246392726898,0.09708190709352493,0.058377861976623535,0.059744466096162796,0.01171686127781868,-0.4526178538799286,0.10907851159572601,0.17279520630836487,-0.26430612802505493,-0.2623852491378784,1.013175368309021,-0.06299688667058945,-0.21837292611598969,-0.056146591901779175,-0.014889353886246681,-0.09441288560628891,0.043718121945858,0.021993465721607208,-0.25895628333091736,-0.10464444756507874,-0.1945265829563141,-0.03523443639278412,-0.1099018007516861,-0.25792554020881653,0.014867098070681095,0.1828470230102539,0.4025503396987915,0.11078894883394241,0.10891984403133392,0.16388839483261108,0.2906566560268402,0.07541171461343765,0.06328113377094269,0.1381535828113556,0.07258293032646179,0.28609079122543335,0.4410207271575928,-0.06554463505744934,-0.04174652695655823,-0.056536443531513214,-0.6609628200531006,-0.3194179832935333,-0.2086770385503769,-0.06152573600411415,-0.06849713623523712,-0.15495383739471436,-0.077309250831604,-0.24229811131954193,0.08620288968086243,0.0466492660343647,0.34945324063301086,0.03134331479668617,0.2849552035331726,0.8083902597427368,0.4019116759300232,-0.22098927199840546,-0.018577439710497856,0.02018248476088047,-0.09976227581501007,-0.1385176032781601,-0.12758037447929382,-0.305062472820282,-0.25802522897720337,-0.16464023292064667,-0.06019439548254013,-0.036672551184892654,-0.09626005589962006,-0.08544930070638657,-0.1137024462223053,0.09072086960077286,-0.4543922245502472,-0.41908735036849976,0.2315487116575241,0.12602780759334564,-0.02834554761648178,0.002426398918032646,-0.10983431339263916,-0.20020858943462372,-0.12004218995571136,-0.011510585434734821,-0.1710381805896759,0.24572928249835968,-0.015545705333352089,-0.5641912817955017,-0.011202571913599968,-0.0724167749285698,-0.20141685009002686,-0.08888919651508331,-0.12964075803756714,-0.12975487112998962,-0.14990414679050446,-0.08146952092647552,-0.12157467752695084,-0.06740659475326538,-0.07223808765411377,0.5117461681365967,-0.09396872669458389,-0.19891394674777985,0.23364640772342682,0.27148914337158203,-0.9912368059158325,-0.0027470567729324102,0.26696890592575073,0.0640435591340065,0.009594754315912724,0.10247914493083954,-0.08068538457155228,-0.0577116385102272,0.2536666691303253,0.07526929676532745,0.1563936024904251,0.04624564200639725,0.16255724430084229,0.31092336773872375,-0.07180386781692505,-0.1962813138961792,-0.257671594619751,-0.05881926044821739,-0.13765974342823029,-0.2019946575164795,-0.2775617837905884,-0.11298629641532898,-0.13270923495292664,-0.1564241349697113,-0.029875291511416435,-0.3119033873081207,-0.36828407645225525,0.23516134917736053,0.07280930131673813,-0.00029009548597969115,0.6389266848564148,0.05855078250169754,-0.036090463399887085,-0.020106220617890358,-0.22505056858062744,0.7023583054542542,-0.038089651614427567,0.4980449378490448,0.6141809225082397,-0.31893423199653625,-0.4308073818683624,0.38262438774108887,0.3349723815917969,0.0374714657664299,0.2072334736585617,-0.0017223511822521687,-0.33540356159210205,-0.6151769161224365,-0.3994259536266327,-0.4105450510978699,-0.3808165490627289,-0.018084684386849403,0.05856917053461075,0.18435312807559967,0.07487031817436218,-0.25846508145332336,-0.15598683059215546,0.06137481704354286,-0.18079206347465515,0.059956394135951996,-0.016975970938801765,-0.12949039041996002,-0.1370818167924881,-0.18459095060825348,-0.02579110488295555,-0.20987984538078308,-0.11077606678009033,0.36636048555374146,0.2660163640975952,0.15957503020763397,-0.01616612821817398,-0.23053979873657227,0.05578068271279335,0.23248836398124695,0.10786905139684677,0.22788827121257782,0.018955424427986145,-0.0897160992026329,-0.05942496284842491,0.20686449110507965,0.12854136526584625,0.14863841235637665,0.05202868953347206,0.1987685263156891,0.5214225053787231,0.40536102652549744,0.29215720295906067,0.10300526022911072,-0.16094748675823212,-0.31588467955589294,-0.4805581867694855,-0.02449224516749382,-0.037191346287727356,0.08055528998374939,0.09152386337518692,0.17198574542999268,0.13715367019176483,-0.021175920963287354,-0.04540110379457474,0.017705677077174187,0.05258522182703018,0.010499473661184311,-0.06336535513401031,0.05886407196521759,-0.3524370491504669,0.45863187313079834,-0.47024816274642944,-0.023024624213576317,-0.27147167921066284,0.05098394677042961,-0.2959929406642914,0.391028493642807,-0.44324836134910583,0.43656477332115173,-0.39430034160614014,-0.2993079423904419,0.17935767769813538,0.3455035388469696,0.8212477564811707,-0.12667438387870789,-0.08252809941768646,-0.0553266741335392,0.048254478722810745,-0.08840352296829224,-0.07368112355470657,-0.1530105173587799,0.48623207211494446,-0.2724500000476837,-0.09521569311618805,-0.12645117938518524,-0.2418341338634491,-0.0791756808757782,0.012469610199332237,-0.36058109998703003,-0.12742382287979126,-0.05696571618318558,0.14883194863796234,-0.056187741458415985,-0.4254877269268036,0.10753564536571503,0.15106141567230225,-0.05602910742163658,0.15868200361728668,-0.0023696422576904297,-0.23367848992347717,-0.06540384143590927,0.028184128925204277,0.17691095173358917,0.1083594486117363,-0.024185793474316597,-0.00989134144037962,0.26615288853645325,0.05439494922757149,0.02123277261853218,0.1327388435602188,0.051499854773283005,0.3096061944961548,0.03636099025607109,-0.13746555149555206,-0.030375687405467033,0.6069377660751343,-0.08010460436344147,-0.6248111724853516,0.3812507092952728,0.032181933522224426,0.22651126980781555,0.02500319853425026,0.12173458188772202,0.21049955487251282,0.3428208529949188,0.2803773581981659,0.14255118370056152,-0.21203026175498962,0.12058432400226593,0.6179229021072388,-0.016924763098359108,-0.40136435627937317,-0.052689313888549805,-0.4642854332923889,-0.1704297810792923,-0.08776609599590302,0.18314826488494873,0.060052692890167236,-0.06368060410022736,-0.18842388689517975,0.3899192810058594,0.043038398027420044,-0.3725636601448059,-0.013103103265166283,0.04689506068825722,1.0323230028152466,-1.1659650802612305,-0.2467041164636612,0.2601672410964966,-0.11806011199951172,0.16833804547786713,0.131266787648201,0.006113617680966854,0.4908108711242676,-0.30564606189727783,-0.2548747658729553,-0.21164120733737946,-0.18435023725032806,-0.0499560683965683,-0.11967313289642334,0.09038619697093964,0.04187964275479317,-0.39411425590515137,-0.032121676951646805,0.21528421342372894,-0.5311184525489807,0.3118301331996918,0.3163795471191406,0.21235936880111694,-0.03516365960240364,-0.05836935713887215,-0.250945121049881,0.043556079268455505,0.3264736831188202,-0.0363495834171772,-0.13724114000797272,0.07461550831794739,-0.18051090836524963,-0.09137338399887085,0.09604591131210327,0.1419524997472763,0.01582021452486515,-0.14555303752422333,0.18725863099098206,0.06698441505432129,0.201663538813591,0.20404818654060364,0.25565722584724426,0.2169455736875534,-0.18203318119049072,0.046264708042144775,0.07962685078382492,-0.04910916090011597,0.056078873574733734,0.11626392602920532,-0.06998445093631744,-0.033081553876399994,-0.18194730579853058,0.14419643580913544,-0.15448224544525146,-0.3514689803123474,-0.009506656788289547,0.5690118074417114,-0.14692875742912292,0.08607093244791031,-0.499713271856308,0.1381511092185974,-0.092420294880867,-0.47156739234924316,0.1054549589753151,-0.12692809104919434,-0.4271489679813385,0.6621502637863159,-0.5080378651618958,0.35268834233283997,-0.2496587038040161,-0.8797723054885864,0.5912765264511108,-0.09266610443592072,0.23973597586154938,0.08707822859287262,0.08275894075632095,-0.10212406516075134,-0.06391517072916031,-0.06738600134849548,-0.09794364869594574,-0.09986734390258789,-0.09366251528263092,-0.03189394995570183,0.01865127682685852,-0.006389593705534935,0.23999105393886566,0.48581162095069885,-0.04364480450749397,0.03133165091276169,-0.23691920936107635,0.09696776419878006,-0.10824704170227051,-0.20360629260540009,0.45675596594810486,0.20852220058441162,0.14760953187942505,0.2762404978275299,0.01844359189271927,-0.18297703564167023,-0.11354576796293259,0.04675876721739769,-0.4283727705478668,0.18071779608726501,-0.1571042388677597,0.49108999967575073,0.03653528541326523,0.09262558072805405,0.2289850413799286,0.2376452088356018,-0.18651659786701202,0.11822536587715149,0.06475978344678879,0.2232840657234192,0.2537648677825928,-0.08722680807113647,-0.1442367285490036,0.05568233132362366,-0.05788514018058777,-0.14601008594036102,0.10034952312707901,0.25024381279945374,0.17245078086853027,0.05452532693743706,0.128559872508049,0.20145931839942932,0.26925739645957947,0.25983551144599915,0.07166824489831924,-0.281506210565567,0.42278414964675903,-0.39564329385757446,-0.0519653782248497,0.12292735278606415,-0.0034857632126659155,-0.8700658082962036,0.055911850184202194,0.18890146911144257,-0.08180395513772964,0.21998330950737,0.8334102034568787,-0.2583828270435333,0.9822653532028198,-0.2537802755832672,0.23353244364261627,0.29567065834999084,0.291610449552536,0.38801783323287964,0.03227056935429573,0.01982739195227623,-0.09880939871072769,0.115089550614357,0.039431340992450714,0.10013921558856964,-0.019306175410747528,-0.12333891540765762,-0.04682321101427078,0.07383476942777634,0.2813723385334015,-0.3092065453529358,-0.06837444007396698,0.014907341450452805,0.02673371322453022,-0.11861716210842133,0.21149614453315735,0.4663090407848358,-0.04918431118130684,-0.06260441243648529,0.20091310143470764,0.5900890231132507,-0.37977784872055054,-0.12200101464986801,-0.3479337692260742,-0.14856749773025513,-0.30478546023368835,0.03129187598824501,0.2140653431415558,-0.20766478776931763,0.224508598446846,0.021188346669077873,0.07577867805957794,-0.13170237839221954,-0.007201099768280983,-0.10034991055727005,-0.23297220468521118,-0.2885282337665558,-0.3130315840244293,-0.010643525049090385,0.16806180775165558,0.12103525549173355,0.0701792761683464,0.02435312606394291,0.060039784759283066,0.07781487703323364,0.1367233544588089,-0.1275290548801422,-0.11543154716491699,-0.16714464128017426,-0.2322515994310379,-0.0848667323589325,0.09802483767271042,-0.21755407750606537,0.47530651092529297,0.09463448822498322,0.12238107621669769,-0.1366497129201889,0.06296324729919434,-0.6328781843185425,-0.3048226535320282,1.0461634397506714,0.6181635856628418,0.07750161737203598,-0.2121739685535431,-0.18013179302215576,0.08909409493207932,-0.03935740143060684,-0.3450078070163727,-0.008994750678539276,0.23445038497447968,-0.012574522756040096,0.12717898190021515,0.055980801582336426,0.18479236960411072,0.20741704106330872,0.26888003945350647,-0.02285667136311531,0.009413623251020908,-0.0031504053622484207,0.12288948148488998,0.10548419505357742,-0.24602174758911133,0.05470135062932968,-0.0012099132873117924,0.2968422770500183,0.04970155283808708,-0.07955701649188995,0.12282958626747131,-0.07900740951299667,-0.15038569271564484,-0.15314337611198425,-0.3234025239944458,-0.30082008242607117,-0.18152716755867004,0.033227093517780304,-0.05772792175412178,-0.006444868631660938,-0.034392330795526505,-0.17147934436798096,-0.5026831030845642,-0.055485643446445465,0.0030856875237077475,-0.352289080619812,-0.18391917645931244,0.09442678093910217,-0.2203303873538971,0.188043475151062,0.08317384123802185,0.28803983330726624,0.3225053548812866,0.005003034602850676,-0.3444903492927551,0.006415884476155043,-0.040149714797735214,-0.014788399450480938,0.00793686043471098,-0.16856680810451508,0.4837796688079834,0.14587810635566711,0.2717132270336151,0.14355964958667755,0.021173154935240746,0.1558101326227188,0.11245287209749222,0.10511687397956848,0.2245754897594452,0.37181660532951355,-0.2750726044178009,0.21853888034820557,-0.31473591923713684,-0.15965710580348969,0.20940358936786652,0.20853587985038757,-0.22123943269252777,0.686509370803833,0.06718277931213379,0.03295984864234924,-0.13023102283477783,-0.05076165869832039,0.10191470384597778,0.16167491674423218,0.08347761631011963,0.003321250667795539,0.0019378772703930736,0.08536486327648163,0.00872083567082882,0.16387248039245605,0.13059039413928986,-0.007800043560564518,0.010811801999807358,0.058085039258003235,0.04518011957406998,0.2163676768541336,-0.05342341959476471,-0.0465911440551281,-0.030056122690439224,0.16569356620311737,0.14218014478683472,-0.09806207567453384,0.012942654080688953,0.0034988541156053543,-0.0140632139518857,-0.24517148733139038,-0.0983031690120697,-0.3960237503051758,-0.3408609628677368,0.019024524837732315,0.0004127589927520603,-0.1261880099773407,-0.1371379792690277,-0.5544641017913818,0.12415645271539688,0.12166594713926315,-0.024536246433854103,-0.3454038202762604,-0.31262868642807007,0.23646530508995056,-0.05847874656319618,0.052960656583309174,0.042021263390779495,0.04585865139961243,-0.09342151135206223,-0.024049516767263412,0.16403989493846893,0.025869369506835938,0.023010116070508957,-0.030312662944197655,0.04392620176076889,0.2092801034450531,-0.2689020335674286,-0.05666990950703621,-0.0949958935379982,0.08663547039031982,-0.05950630083680153,-0.26422232389450073,-0.042639993131160736,0.04458296671509743,0.11334925889968872,-0.46587666869163513,0.08085423707962036,-0.006473495624959469,0.15781551599502563,-1.473700192860166e-38,-1.677005618738882e-38,9.523630740106111e-40,-2.6074394928215812e-39,1.198188099192335e-38,1.1358153236363124e-38,3.421805496662413e-39,2.0081367898840757e-38,-1.2204094698500587e-38,-1.043269509286755e-39,-4.9656524485691364e-39,-1.5080283618601168e-39,0.007319281343370676,0.01967589370906353,0.03852523863315582,0.06189536303281784,0.08667454123497009,0.10867372155189514,0.12349940091371536,0.1274263560771942,0.1193680688738823,0.10085681080818176,0.07638527452945709,0.05066409334540367,0.028662249445915222,0.012953575700521469,0.003939445596188307,-0.0001569672313053161,-0.0029788571409881115,-0.007408844772726297,-0.014096654020249844,-0.02263573743402958,-0.032056525349617004,-0.04104016721248627,-0.04797456040978432,-0.051878202706575394,-0.05188670754432678,-0.04795926809310913,-0.040873412042856216,-0.031872570514678955,-0.022475959733128548,-0.013951042667031288,-0.0074093821458518505,-0.0029998598620295525,-0.00257876212708652,-0.009733404032886028,-0.023794621229171753,-0.044147949665784836,-0.06718914210796356,-0.08766739070415497,-0.09982356429100037,-0.10000843554735184,-0.08860365301370621,-0.0689425989985466,-0.045324914157390594,-0.02368679828941822,-0.007059650961309671,0.002478219335898757,0.005297252908349037,0.004213310778141022,0.1646043211221695,0.011564097367227077],"sample_rate":48000.0}},{"max_value":1.0,"model":{"version":"0.7.0","metadata":{"date":{"year":2026,"month":5,"day":15,"hour":2,"minute":57,"second":0},"loudness":-15.225215911865234,"gain":0.7494345669187678},"architecture":"WaveNet","config":{"layers":[{"input_size":1,"condition_size":1,"head":{"out_channels":1,"kernel_size":16,"bias":true},"channels":8,"kernel_sizes":[6,6,6,6,6,6,6,6,6,6,6,6,6,6,15,15,6,6,6,6,6,6,6],"dilations":[1,3,7,17,41,101,239,1,3,7,17,41,101,239,1,13,1,3,7,17,41,101,239],"activation":[{"type":"LeakyReLU","negative_slope":0.01},{"type":"LeakyReLU","negative_slope":0.01},{"type":"LeakyReLU","negative_slope":0.01},{"type":"LeakyReLU","negative_slope":0.01},{"type":"LeakyReLU","negative_slope":0.01},{"type":"LeakyReLU","negative_slope":0.01},{"type":"LeakyReLU","negative_slope":0.01},{"type":"LeakyReLU","negative_slope":0.01},{"type":"LeakyReLU","negative_slope":0.01},{"type":"LeakyReLU","negative_slope":0.01},{"type":"LeakyReLU","negative_slope":0.01},{"type":"LeakyReLU","negative_slope":0.01},{"type":"LeakyReLU","negative_slope":0.01},{"type":"LeakyReLU","negative_slope":0.01},{"type":"LeakyReLU","negative_slope":0.01},{"type":"LeakyReLU","negative_slope":0.01},{"type":"LeakyReLU","negative_slope":0.01},{"type":"LeakyReLU","negative_slope":0.01},{"type":"LeakyReLU","negative_slope":0.01},{"type":"LeakyReLU","negative_slope":0.01},{"type":"LeakyReLU","negative_slope":0.01},{"type":"LeakyReLU","negative_slope":0.01},{"type":"LeakyReLU","negative_slope":0.01}],"bottleneck":8,"head1x1":{"active":false,"out_channels":1,"groups":1},"layer1x1":{"active":true,"groups":1},"groups_input":1,"groups_input_mixin":1,"conv_pre_film":{"active":false,"shift":true,"groups":1},"conv_post_film":{"active":false,"shift":true,"groups":1},"input_mixin_pre_film":{"active":false,"shift":true,"groups":1},"input_mixin_post_film":{"active":false,"shift":true,"groups":1},"activation_pre_film":{"active":false,"shift":true,"groups":1},"activation_post_film":{"active":false,"shift":true,"groups":1},"layer1x1_post_film":{"active":false,"shift":true,"groups":1},"head1x1_post_film":{"active":false,"shift":true,"groups":1},"gating_mode":["none","none","none","none","none","none","none","none","none","none","none","none","none","none","none","none","none","none","none","none","none","none","none"],"secondary_activation":[null,null,null,null,null,null,null,null,null,null,null,null,null,null,null,null,null,null,null,null,null,null,null],"slimmable":null}],"head":null,"head_scale":0.011564097463975081},"weights":[-1.4119722843170166,-1.1944142580032349,-1.1573154926300049,-1.3414099216461182,0.07184143364429474,-1.4278006553649902,0.748060405254364,1.0288366079330444,-0.021280355751514435,-0.012902547605335712,-0.0426357202231884,-0.02093515545129776,0.07979214936494827,-0.35245034098625183,-0.05631585419178009,-0.042236510664224625,-0.051751233637332916,-0.009106804616749287,0.11223672330379486,-0.28801026940345764,-0.024002155289053917,-0.049370720982551575,-0.01067817397415638,-0.045808084309101105,0.08118151873350143,-0.3068997859954834,-0.043559491634368896,-0.03391042351722717,-0.06321336328983307,-0.06671775877475739,0.08653657138347626,-0.31286194920539856,0.005034897476434708,0.0011134638916701078,0.001234362949617207,-0.004258499480783939,-0.004684278275817633,0.017758972942829132,-0.045896947383880615,-0.04143870249390602,-0.03167583793401718,-0.04553461819887161,0.10223697125911713,-0.36347973346710205,0.03739432990550995,0.027618175372481346,0.014120974577963352,0.0066287158988416195,-0.0649455264210701,0.21492694318294525,0.03980268910527229,0.028160490095615387,0.02253500558435917,0.03259298577904701,-0.07485457509756088,0.2694990634918213,0.031210845336318016,0.10335114598274231,0.03361467272043228,-0.32830387353897095,-0.16031360626220703,-0.08271404355764389,0.016697386279702187,0.04145698994398117,-0.007316908333450556,-0.3048669993877411,-0.17083628475666046,-0.09159686416387558,0.059875376522541046,0.0682140439748764,0.026159407570958138,-0.2464340180158615,-0.17765231430530548,-0.06374946981668472,0.07450879365205765,0.07807859033346176,0.02072990871965885,-0.26599520444869995,-0.176583930850029,-0.05555025488138199,-0.003117090091109276,-0.0012769299792125821,-0.008351977914571762,0.020184217020869255,0.014492412097752094,-0.0029612130019813776,0.0662752240896225,0.026448940858244896,-0.012477000243961811,-0.32054492831230164,-0.20474104583263397,-0.07282771915197372,-0.04101700335741043,-0.01898789033293724,-0.021775346249341965,0.1997183859348297,0.11801760643720627,0.037716951221227646,-0.044515155255794525,-0.05884256958961487,-0.017450161278247833,0.25455576181411743,0.15664805471897125,0.04717790707945824,-0.053223904222249985,-0.022882571443915367,-0.046885065734386444,-0.04537047818303108,0.4304916560649872,0.22325441241264343,-0.04736410081386566,-0.013883441686630249,-0.04274186119437218,-0.04203062877058983,0.37682589888572693,0.20660504698753357,-0.04464612528681755,-0.013263991102576256,-0.03668379783630371,-0.03329732269048691,0.37016773223876953,0.20503155887126923,-0.06315683573484421,-0.022805441170930862,-0.050814658403396606,-0.043861135840415955,0.41406869888305664,0.22537507116794586,0.0032011778093874454,0.0014500342076644301,0.0023749321699142456,0.005666570737957954,-0.03012676350772381,-0.019293133169412613,-0.06207171455025673,-0.016699109226465225,-0.03872418403625488,-0.035806119441986084,0.4115018844604492,0.22805707156658173,0.035112105309963226,0.012445488013327122,0.02775438502430916,0.02784954011440277,-0.27287331223487854,-0.1602146327495575,0.044446077197790146,0.013358203694224358,0.034285757690668106,0.03415424004197121,-0.34082046151161194,-0.19312278926372528,0.021119052544236183,0.10115299373865128,0.034119315445423126,-0.12178444117307663,0.5016126036643982,0.20125465095043182,0.023180248215794563,0.029493190348148346,-0.04346458613872528,-0.06831219792366028,0.4254540801048279,0.19966620206832886,-0.017670778557658195,0.011340987868607044,0.005277620628476143,-0.07832878828048706,0.39911437034606934,0.16784828901290894,0.013059279881417751,0.05633890628814697,-0.05592489615082741,-0.05730922520160675,0.4570750892162323,0.21606796979904175,-0.0012733197072520852,-0.0038821534253656864,0.0008333609439432621,0.005265515297651291,-0.021136250346899033,-0.011638801544904709,0.057736072689294815,0.09373576939105988,-0.004069201648235321,-0.0713001936674118,0.47477811574935913,0.22729966044425964,-0.0286058709025383,-0.035220786929130554,0.02190425805747509,0.039943061769008636,-0.2849099338054657,-0.12795113027095795,-0.0008663512417115271,-0.025836938992142677,0.010212583467364311,0.07168007642030716,-0.3700868487358093,-0.13844244182109833,0.1986944079399109,0.23632743954658508,-0.021509243175387383,-0.11309285461902618,-0.11939065158367157,-0.10302751511335373,0.27527692914009094,0.1322445124387741,-0.012447218410670757,-0.19147032499313354,-0.1991155445575714,-0.10843265801668167,0.278611421585083,0.187314972281456,-0.08838041126728058,-0.1888776421546936,-0.14999450743198395,-0.07839792966842651,0.2606087028980255,0.22989106178283691,-0.10072681307792664,-0.22884239256381989,-0.16945911943912506,-0.03832848742604256,-0.014967130497097969,-0.007483188062906265,0.0017261325847357512,0.006841691210865974,0.009232064709067345,0.0026823938824236393,0.2397685945034027,0.24167445302009583,-0.006110721733421087,-0.10960204154253006,-0.15095524489879608,-0.01846570335328579,-0.20605231821537018,-0.11720894277095795,0.048655781894922256,0.13335178792476654,0.12115872651338577,0.0654994547367096,-0.2497459352016449,-0.1599406898021698,0.06793829053640366,0.16754011809825897,0.15292713046073914,0.0889807641506195,-0.1262737661600113,-0.17256562411785126,-0.08069290220737457,0.40525761246681213,0.2553291320800781,-0.04577049985527992,-0.10421998053789139,-0.19221456348896027,-0.08014094829559326,0.3726307451725006,0.21283121407032013,-0.022507794201374054,-0.12389501929283142,-0.1728045642375946,-0.10434097796678543,0.3575635254383087,0.17526638507843018,-0.026084382086992264,-0.1188381090760231,-0.15867997705936432,-0.12347147613763809,0.38890430331230164,0.227365642786026,-0.01318161841481924,0.008113966323435307,0.010258241556584835,0.005027567967772484,-0.02062729373574257,-0.010423624888062477,-0.004400185775011778,-0.10291986912488937,-0.1815272569656372,-0.15888874232769012,0.3764365315437317,0.21114683151245117,-0.03387272357940674,0.09448139369487762,0.08404999226331711,0.07890409976243973,-0.23335877060890198,-0.09609467536211014,-0.004880053456872702,0.09464862197637558,0.13975197076797485,0.0860382616519928,-0.304654598236084,-0.12960922718048096,-0.018920762464404106,0.09408452361822128,-0.006585500203073025,0.005118530243635178,0.09424878656864166,-0.09926292300224304,-0.06349488347768784,0.07730797678232193,-0.0032217397820204496,0.006864482071250677,0.08028429746627808,-0.08459913730621338,-0.05472481623291969,0.07414691895246506,-0.002742771990597248,0.0070827435702085495,0.07759563624858856,-0.08194450289011002,-0.053186967968940735,0.08841956406831741,-0.00530961761251092,0.005882011726498604,0.0896083191037178,-0.09421759098768234,-0.06059643253684044,-0.002773034619167447,-0.0005278832977637649,-0.000557026534806937,-0.0038665258325636387,0.004962703678756952,0.0037129020784050226,0.09361477941274643,-0.0064011490903794765,0.005278201773762703,0.09411051124334335,-0.09919872134923935,-0.06356768310070038,-0.04431614652276039,-0.0016179915983229876,-0.007787185255438089,-0.050279539078474045,0.05424487218260765,0.03615141659975052,-0.064159095287323,0.001228915760293603,-0.007560966070741415,-0.06895981729030609,0.07321255654096603,0.04793472960591316,-0.020120816305279732,-0.030353358015418053,-0.09728960692882538,-0.0638759583234787,0.6568410992622375,0.2230755090713501,-0.020940253511071205,-0.0227382630109787,-0.08699634671211243,-0.08252424001693726,0.618742048740387,0.18534938991069794,-0.0216372013092041,-0.012394244782626629,-0.08538233488798141,-0.08489356189966202,0.5530750751495361,0.16840645670890808,-0.038459017872810364,0.005075597669929266,-0.05345210060477257,-0.09014195948839188,0.6847094297409058,0.19821777939796448,-0.00013161255628801882,-0.0011482816189527512,0.0045278556644916534,0.005111537873744965,-0.029509006068110466,-0.009577876888215542,-0.04024086520075798,0.02287706546485424,-0.10708357393741608,-0.08258027583360672,0.7104508280754089,0.20212188363075256,0.007611469831317663,-0.004088717978447676,0.03567997366189957,0.04254627972841263,-0.38046741485595703,-0.1217242181301117,0.022470694035291672,0.000961167796049267,0.048162832856178284,0.04825570434331894,-0.4918166697025299,-0.15492235124111176,0.2695614993572235,0.47883161902427673,0.30630630254745483,0.5808887481689453,0.030122946947813034,0.04524695500731468,-0.0492975190281868,0.5295950174331665,0.3103052079677582,0.12174966186285019,-0.19798116385936737,-0.17861275374889374,0.40261197090148926,0.03792647272348404,0.04866933450102806,-0.28716158866882324,-0.24380812048912048,-0.1711220145225525,0.2516043186187744,0.3484991788864136,-0.3050146996974945,0.504285454750061,0.24593177437782288,0.17346303164958954,0.2288544774055481,-0.16568972170352936,0.30971282720565796,0.23075205087661743,-0.4208312928676605,0.57688307762146,0.2197609394788742,0.48461851477622986,-0.07761988043785095,-0.23753169178962708,0.3019074499607086,-0.00918766763061285,-0.6496321558952332,0.6688464879989624,0.10023648291826248,0.3294125199317932,-0.33845648169517517,-0.1286163479089737,0.2165708988904953,0.0748719573020935,-0.17317958176136017,0.292806476354599,0.06450284272432327,0.05203716456890106,-0.10158538818359375,0.27152514457702637,-0.2301601618528366,-0.06220579147338867,0.36710309982299805,-0.4217400848865509,-0.12194670736789703,-0.024718202650547028,-0.36455780267715454,-0.055271342396736145,0.05144545063376427,0.11975640058517456,-0.210905060172081,-0.13825151324272156,0.141120046377182,-0.26758038997650146,-0.19205869734287262,-0.2315206080675125,-0.281698614358902,0.011534836143255234,0.3644199073314667,-0.20920994877815247,-0.08966497331857681,-0.23553569614887238,0.05903644859790802,-0.18209178745746613,0.10225435346364975,0.1686839908361435,-0.07879723608493805,0.04999019578099251,-0.011921661905944347,0.19884257018566132,0.10805121064186096,-0.38368356227874756,0.1687612384557724,-0.17329144477844238,-0.16412554681301117,0.31887781620025635,0.2670396864414215,0.11509861052036285,0.024927983060479164,0.02162071503698826,0.08015874028205872,0.050963062793016434,-0.13845334947109222,-0.06822870671749115,0.07496713846921921,0.055388279259204865,0.07792522758245468,0.09103997051715851,-0.21284455060958862,-0.1629285365343094,0.044855065643787384,0.035685330629348755,0.0968710333108902,0.03991556167602539,-0.11939173191785812,0.004601431079208851,0.026541076600551605,-0.020510759204626083,0.023405706509947777,0.02187509462237358,-0.02860674262046814,0.0413317009806633,-0.0600702203810215,-0.06033531576395035,-0.08079639077186584,-0.05196617916226387,0.030826304107904434,-0.011034690774977207,-0.052200786769390106,-0.05908757820725441,-0.02779162861406803,-0.09118814766407013,-0.01274559460580349,0.059372566640377045,0.023581113666296005,0.031099585816264153,0.04946988448500633,0.017415106296539307,0.1520550549030304,0.1195022240281105,0.035551007837057114,0.04142466187477112,0.06654820591211319,0.08635652810335159,-0.08681749552488327,-0.1762978732585907,-0.04462743550539017,-0.032969072461128235,-0.055607203394174576,-0.021334536373615265,0.06538820266723633,-0.054885875433683395,-0.07464443892240524,-0.016637926921248436,-0.05671975389122963,-0.07240601629018784,0.030117498710751534,-0.10286419838666916,-0.028766436502337456,0.01981208473443985,-0.019961059093475342,-0.03432552516460419,0.11124900728464127,-0.08516199886798859,-0.028823204338550568,-0.003043389180675149,-0.05900461971759796,0.007500982843339443,0.009272401221096516,-0.09362924844026566,0.000847923569381237,-0.0048840041272342205,-0.006562478374689817,0.01793178915977478,-0.06403902173042297,0.05583558231592178,-0.010852868668735027,0.004340969491750002,0.012681850232183933,0.0732429027557373,0.09981837123632431,-0.004037261940538883,0.002935839584097266,-0.00925777480006218,0.02835126593708992,0.039341848343610764,0.03209466114640236,0.07973334938287735,-0.03345172107219696,-0.026109818369150162,-0.007339733187109232,-0.01730533502995968,0.018366629257798195,-0.021858850494027138,0.05323781073093414,-0.014768749475479126,-0.06629250198602676,-0.12352707982063293,-0.011585217900574207,0.2595212459564209,-0.07445929199457169,-0.05353798717260361,-0.10314611345529556,-0.07415906339883804,-0.10084068775177002,0.0036765700206160545,-0.07567787170410156,-0.07882113754749298,-0.05839414894580841,-0.2262527346611023,0.007867123000323772,0.19551995396614075,-0.052157800644636154,-0.16620534658432007,-0.09202872961759567,-0.09304396063089371,-0.07349768280982971,0.039496853947639465,-0.014560540206730366,0.028555162250995636,-0.03027750737965107,0.025967026129364967,-0.014781437814235687,-0.08893243223428726,0.024722255766391754,-0.0256635919213295,-0.04638157784938812,-0.05717075243592262,0.10065650939941406,0.1578208953142166,0.049091581255197525,-0.003598465584218502,0.0066733392886817455,0.02559223771095276,0.042529746890068054,0.028692299500107765,0.11057621985673904,-0.01458632480353117,0.11868343502283096,0.005401646718382835,0.05396810546517372,0.05038986727595329,-0.07259436696767807,-0.07164750248193741,-0.12280172109603882,0.010916775092482567,0.06453462690114975,0.14943955838680267,-0.07718418538570404,-0.06263326108455658,-0.025454070419073105,-0.036757636815309525,0.11834307014942169,-0.059442657977342606,-0.11413475126028061,-0.12330162525177002,0.06712497770786285,-0.01491174753755331,0.28610512614250183,0.16667497158050537,-0.11272506415843964,-0.053821008652448654,-0.12169302999973297,0.02951175905764103,-0.0014378484338521957,-0.09005416184663773,-0.008058694191277027,0.06430356949567795,-0.011358567513525486,0.04078521952033043,-0.1419668048620224,-0.05289442092180252,-0.1581306755542755,-0.011762917041778564,-0.10667932033538818,0.030101420357823372,0.11304106563329697,0.1956975907087326,-0.017236419022083282,0.02606118842959404,0.012957572005689144,0.00861276499927044,-0.1313396841287613,-0.04760842025279999,0.03952586278319359,-0.02489396743476391,0.06107703223824501,0.030107732862234116,0.07112450152635574,-0.03536470979452133,-0.12149231880903244,-0.09260193258523941,-0.06570827960968018,-0.1210593581199646,0.13857439160346985,0.15809322893619537,-0.11457768082618713,-0.05544784665107727,-0.16668839752674103,-0.10941852629184723,0.01351911760866642,0.014024650678038597,0.017622865736484528,0.034594856202602386,-0.08344640582799911,-0.1436435878276825,0.23162321746349335,0.31119850277900696,-0.04546801745891571,0.0005669615347869694,-0.023011263459920883,-0.12523874640464783,0.13364312052726746,0.06853540986776352,-0.08601793646812439,0.006710278335958719,0.0016602877294644713,0.10941716283559799,-0.04888435825705528,-0.1896490901708603,-0.014156979508697987,-0.06647377461194992,0.05575673654675484,-0.012753224931657314,0.3825157880783081,0.3409102261066437,-0.00893694069236517,0.005936553236097097,0.09476469457149506,0.12197722494602203,-0.07073815912008286,-0.066794253885746,0.039374202489852905,-0.01648179441690445,0.009399560280144215,-0.05251700058579445,-0.07414901256561279,-0.055344291031360626,0.057886749505996704,0.002249952871352434,-0.0009153261780738831,-0.007220099214464426,0.055574819445610046,-0.09988285601139069,0.051458124071359634,0.0396043099462986,-0.0037379288114607334,0.03867487609386444,0.08538892865180969,0.13613590598106384,-0.04647296667098999,-0.025203904137015343,0.03731662034988403,-0.020847659558057785,0.028370939195156097,-0.15022754669189453,0.002111413050442934,0.03785862773656845,0.07634837925434113,0.06692992150783539,0.04715035855770111,-0.3019382655620575,0.07477065175771713,0.014271271415054798,-0.0037704522255808115,0.07316078245639801,0.03496210649609566,-0.10168057680130005,-0.0117633743211627,-0.041720494627952576,-0.004399081226438284,-0.018799902871251106,0.06122606247663498,-0.48201611638069153,-0.05055849999189377,-0.008279048837721348,0.02387683093547821,-0.015518045984208584,0.010628283955156803,0.047500986605882645,-0.030484357848763466,-0.02875455468893051,-0.06852777302265167,-0.10666561126708984,-0.05890938639640808,0.39747071266174316,-0.006685070693492889,-0.011404575780034065,-0.01690288633108139,-0.06109826639294624,-0.09444131702184677,-0.2952367067337036,0.05350380763411522,0.019085796549916267,0.04635395482182503,0.07563600689172745,0.0766080915927887,0.2272724062204361,-0.05454564839601517,-0.004291744437068701,0.011013961397111416,-0.056894805282354355,-0.06574833393096924,-0.1339578926563263,0.09787167608737946,0.08566787838935852,0.07619228214025497,0.04822671040892601,0.04468511790037155,-0.3176417052745819,0.03651310130953789,0.035426411777734756,0.015220973640680313,0.05062713101506233,0.0073468959890306,-0.17177747189998627,-0.06795191764831543,-0.07063525170087814,-0.06749211251735687,-0.10194029659032822,-0.11175563931465149,-0.6581422686576843,0.025839723646640778,0.05386676266789436,0.023695284500718117,-0.0347842313349247,-0.0037349003832787275,0.04259144142270088,-0.027859695255756378,-0.07379388809204102,-0.054129648953676224,-0.036738473922014236,-0.028662094846367836,0.3848368227481842,-0.09436453133821487,-0.012436546385288239,-0.09131567925214767,-0.12383174151182175,0.0303057748824358,0.02534634992480278,-0.049697279930114746,0.033658821135759354,0.0625760406255722,0.084316186606884,0.22594352066516876,0.16868998110294342,-0.040169380605220795,-0.059668611735105515,-0.12807872891426086,-0.1467077136039734,0.03976159542798996,0.11181708425283432,0.019387364387512207,0.04315796121954918,-0.033179812133312225,-0.06134108453989029,0.03355197235941887,0.06560681015253067,0.012073451653122902,0.0538366362452507,0.03970160707831383,0.061301570385694504,0.004520466551184654,-0.059775639325380325,-0.05950811505317688,-0.04749457165598869,-0.23992498219013214,-0.313639760017395,-0.1591111272573471,-0.1017211377620697,0.02076799049973488,0.020733753219246864,-0.038452405482530594,-0.06942181289196014,-0.17931444942951202,-0.07280615717172623,-0.05681688338518143,-0.045193061232566833,0.054666951298713684,0.04585704579949379,0.001826064893975854,-0.11375673860311508,-0.05695120990276337,0.05349808931350708,0.137685626745224,0.17373494803905487,0.01962428353726864,-0.12528760731220245,-0.3260726034641266,-0.22870537638664246,-0.03303356096148491,-0.00036824896233156323,-0.07345608621835709,-0.3622908294200897,-0.46267929673194885,0.25151553750038147,0.2827138602733612,-0.013029339723289013,-0.15002000331878662,0.13185347616672516,6.371596100507304e-05,0.05697458237409592,0.02202768623828888,0.2724744975566864,0.3070664703845978,-0.20884038507938385,-0.2047470360994339,-0.007458768784999847,0.16449376940727234,0.10658307373523712,0.2827320992946625,0.17509575188159943,0.05454646423459053,-0.3116317391395569,-0.1863158941268921,0.15642085671424866,0.295043021440506,0.2023153305053711,0.23377636075019836,0.3192194700241089,0.23143264651298523,-0.42432600259780884,-0.20138193666934967,0.09260222315788269,-0.052031248807907104,0.11112941056489944,0.2758530378341675,0.36211806535720825,0.6315499544143677,-0.3727858364582062,0.23367398977279663,0.09461760520935059,0.12553350627422333,-0.07188680022954941,-0.26998981833457947,-0.463827908039093,-0.5865897536277771,-0.06502916663885117,0.07842617481946945,0.07044677436351776,-0.25061413645744324,0.07558058947324753,-0.15197229385375977,0.028924528509378433,0.22841434180736542,-0.06685996055603027,0.16035062074661255,-0.1548812836408615,-0.30635857582092285,-0.17842493951320648,-0.007370823994278908,-0.054579392075538635,-0.12564492225646973,0.10969512909650803,-0.20093291997909546,0.023245088756084442,0.08597865700721741,-0.004530866630375385,0.026260893791913986,0.2723363935947418,0.11100894212722778,0.0029185267630964518,0.11417287588119507,-0.23445069789886475,0.1733466535806656,0.19775508344173431,0.12241629511117935,0.32976362109184265,0.3011414110660553,-0.2833468019962311,0.10442783683538437,0.09402205795049667,0.11749278008937836,0.09711982309818268,-0.046056635677814484,-0.05239764600992203,-0.010054308921098709,0.029423238709568977,0.06278586387634277,-0.00426571536809206,-0.13269393146038055,-0.2421865314245224,-0.07402794808149338,-0.09069032967090607,-0.006030588876456022,0.019358638674020767,0.025742998346686363,0.055990997701883316,0.004871040116995573,0.008611191064119339,0.005262581631541252,0.06823588162660599,0.0374048613011837,-0.06377071887254715,0.049646396189928055,-0.025242239236831665,-0.012683290988206863,-0.05653795599937439,-0.17030608654022217,0.23727397620677948,0.046680863946676254,0.042338546365499496,0.043214842677116394,0.010283906944096088,0.06590753048658371,-0.11824461072683334,0.005454573314636946,-0.028407499194145203,-0.055117156356573105,-0.10607340186834335,-0.027041329070925713,0.08813446015119553,0.01559410709887743,0.018378034234046936,0.012361885979771614,0.05873013287782669,0.10215012729167938,-0.04205526039004326,-0.013209514319896698,-0.06434882432222366,0.03072279319167137,-0.003470657393336296,-0.0485331229865551,-0.0719568058848381,0.02322615683078766,-0.09023136645555496,0.07456095516681671,0.04284093156456947,-0.04049725830554962,-0.069371797144413,0.043239571154117584,-0.08693188428878784,0.07446413487195969,-0.000561196357011795,-0.04453709349036217,-0.03887994959950447,0.041737642139196396,-0.03365207836031914,0.04314717277884483,0.022389380261301994,-0.03816793113946915,-0.039321355521678925,-0.010769743472337723,0.05997356027364731,-0.03177613392472267,0.0010273591615259647,0.06152699887752533,0.09605052322149277,-0.018305687233805656,0.023465100675821304,-0.017055589705705643,-0.014509858563542366,-0.02708076313138008,0.01331357192248106,0.01528864074498415,0.06357352435588837,0.005371209233999252,0.021249311044812202,0.044859033077955246,0.07210451364517212,-0.04145488142967224,-0.06311344355344772,-0.012138115242123604,-0.04605124890804291,-0.04203883558511734,-0.09639919549226761,-0.11333151906728745,-0.06027062609791756,-0.04865673929452896,-0.013182980008423328,-0.0699043720960617,0.04147807136178017,-0.0008980217389762402,0.05058330297470093,0.0341162383556366,0.038746293634176254,-0.00255078193731606,0.23556900024414062,0.018351566046476364,-0.003387082600966096,-0.009846740402281284,0.009131718426942825,-0.08470658212900162,0.06460478156805038,-0.08180776983499527,-0.00529111735522747,0.010755190625786781,0.00925343856215477,0.044261202216148376,-0.06434674561023712,0.03770625218749046,-0.00021248542179819196,-0.004638367332518101,-0.041805338114500046,-0.1519080400466919,-0.028121905401349068,-0.0662049725651741,-0.06949475407600403,-0.06710639595985413,-0.043697237968444824,-0.08485051244497299,-0.12983858585357666,-0.09634345024824142,-0.0738372802734375,-0.032577838748693466,-0.002178372349590063,-0.042577411979436874,-0.1773897409439087,-0.0812484547495842,-0.009247996844351292,-0.011581787839531898,-0.021909598261117935,0.05690145120024681,0.03834660351276398,-0.0137718440964818,-0.021707817912101746,-0.00989686232060194,-0.009254689328372478,0.09929651767015457,-0.013385358266532421,0.10750340670347214,0.15684914588928223,0.12664814293384552,0.08555951714515686,0.20174117386341095,0.07138940691947937,-0.04479476064443588,-0.04053901135921478,-0.06976501643657684,-0.07293061912059784,0.024364855140447617,-0.09699401259422302,0.028886575251817703,0.016311025246977806,0.018238648772239685,0.010538410395383835,0.03344598412513733,0.02391367219388485,0.05157243087887764,0.016743004322052002,-0.014275538735091686,0.004506997298449278,0.016960129141807556,-0.029037849977612495,-0.0820997953414917,-0.09142466634511948,-0.10708075016736984,-0.09858643263578415,-0.11668356508016586,-0.1262933313846588,-0.08041265606880188,-0.05823760852217674,-0.0527067556977272,-0.08991441130638123,-0.1942787617444992,-0.1153775155544281,-0.021379752084612846,-0.017337901517748833,0.022830352187156677,0.02356015518307686,0.03865187615156174,0.04516775906085968,0.05306465923786163,0.03579757362604141,0.11719334125518799,-0.07201604545116425,-0.1127699464559555,-0.16721627116203308,0.002144515747204423,0.052866965532302856,0.014055716805160046,-0.06693071126937866,-0.09085308760404587,-0.29038265347480774,0.037643913179636,0.030949920415878296,0.09033619612455368,0.13115261495113373,0.05744633451104164,-0.05479980260133743,-0.016421569511294365,0.13547807931900024,0.010365882888436317,-0.031147494912147522,0.005833890754729509,-0.09604717046022415,0.1665928065776825,-0.02299642749130726,-0.005554563831537962,-0.05944937467575073,-0.011021493002772331,0.24006964266300201,0.1299123466014862,0.08894819021224976,0.11854016780853271,0.021783558651804924,0.09792374819517136,-0.06735125184059143,-0.020973507314920425,0.03905360773205757,-0.0037504646461457014,-0.008807389065623283,-0.016645247116684914,0.16925880312919617,0.08571064472198486,0.1395193338394165,0.12106665968894958,0.12508611381053925,0.08057796955108643,-0.06236381456255913,0.2455519586801529,0.16243310272693634,0.12132834643125534,0.0057808575220406055,-0.0537741594016552,-0.09572701901197433,0.02273036539554596,0.0767846629023552,0.020308464765548706,-0.06939858198165894,0.06812957674264908,-0.18902501463890076,0.09980645030736923,0.13888612389564514,0.13411131501197815,0.23797811567783356,0.03775254637002945,0.23246082663536072,0.051409486681222916,0.13610370457172394,-0.0044524478726089,0.046923357993364334,0.11534726619720459,-0.1800578385591507,0.03865726292133331,-0.044968120753765106,-0.16573716700077057,-0.09226876497268677,-0.23270994424819946,0.14091400802135468,0.2168886512517929,0.09152723103761673,0.13953301310539246,0.12993769347667694,0.022802699357271194,-0.06929054111242294,0.19684207439422607,-0.0017987237079069018,-0.004673433490097523,-0.03786420077085495,-0.1417110413312912,-0.20639151334762573,0.09594143182039261,0.1271556317806244,0.12184334546327591,0.15414540469646454,0.13986164331436157,0.15533305704593658,0.08370375633239746,0.08052356541156769,0.0685965046286583,0.028303153812885284,0.036389224231243134,-0.19953854382038116,0.03185565024614334,0.05778142064809799,0.07059669494628906,0.05221189558506012,0.09978729486465454,-0.09941669553518295,-0.020145369693636894,-0.012697996571660042,0.04710700362920761,0.04812352731823921,-0.015256164595484734,-0.15849095582962036,-0.011560114100575447,-0.05315630882978439,-0.06348392367362976,-0.04583138972520828,-0.09474743902683258,-0.06845026463270187,0.060893476009368896,0.06917650252580643,0.10838060826063156,0.10440687835216522,0.11292798817157745,-0.430915892124176,0.03206814080476761,0.00569227896630764,0.0577298104763031,0.03987469896674156,-0.014435270801186562,-0.26868370175361633,0.12044066935777664,0.09602723270654678,0.0569295659661293,0.0721878707408905,0.06273230165243149,0.046450141817331314,0.03613743185997009,0.01253875344991684,-0.041014205664396286,-0.07938206940889359,0.029230507090687752,0.4196045398712158,-0.04269847273826599,-0.0047934046015143394,-0.01637434773147106,-0.1251438558101654,-0.1286003142595291,-0.15081201493740082,0.00264279474504292,-0.003896095557138324,-0.018028130754828453,-0.0337594598531723,-0.033039845526218414,-0.08399021625518799,-0.027911124750971794,-0.028830844908952713,-0.1038607805967331,-0.1124938577413559,-0.1361861526966095,-0.15935395658016205,0.05760224908590317,0.07029400020837784,0.047214411199092865,-0.06068804860115051,-0.09777800738811493,-0.1198260560631752,0.008330387063324451,0.03769230842590332,-0.05840557441115379,-0.019878875464200974,-0.02872537449002266,-0.11113311350345612,-0.010279906913638115,-0.00453025009483099,-0.05484176054596901,-0.10941357165575027,-0.14954105019569397,-0.19020189344882965,-0.002351518254727125,-0.03374996781349182,0.001990382093936205,-0.03818110004067421,-0.03611301630735397,-0.03233534097671509,-0.014824028126895428,-0.009843127802014351,0.06117470934987068,0.025323469191789627,0.06477376073598862,0.12281594425439835,0.1010667234659195,-0.019594494253396988,-0.04365656524896622,-0.2767503261566162,0.12332805246114731,0.12487068772315979,-0.10659054666757584,-0.1824575513601303,0.19366838037967682,-0.014607926830649376,0.008267022669315338,-0.005504289176315069,0.2754517197608948,0.4291519224643707,0.23540735244750977,0.08886881172657013,-0.10300163924694061,-0.0016699826810508966,-0.24385607242584229,-0.051865607500076294,-0.05809025093913078,0.027930455282330513,0.23836448788642883,0.16088782250881195,-0.10073065757751465,0.11864937841892242,-0.17261581122875214,0.17991894483566284,0.01761137694120407,0.07912179082632065,0.505945086479187,0.18539586663246155,-0.14852754771709442,0.09108467400074005,-0.27280673384666443,0.3787173926830292,-0.007074282970279455,-0.49277809262275696,0.08321912586688995,-0.17495383322238922,-0.05992855504155159,-0.12572647631168365,-0.04718157276511192,-0.13375109434127808,-0.3434757590293884,0.0011972618522122502,0.4941651523113251,0.38604697585105896,0.17914439737796783,0.06956209987401962,-0.0076183537021279335,-0.08095107972621918,0.02965938299894333,0.04328769072890282,-0.21758350729942322,-0.1602829545736313,0.13029557466506958,-0.216987743973732,-0.16046065092086792,-0.053996048867702484,-0.26092806458473206,-0.1137080192565918,0.18019147217273712,0.23933260142803192,0.27392175793647766,-0.008306700736284256,0.06495106965303421,-0.18057750165462494,0.03684728965163231,0.08691652119159698,-0.022400323301553726,-0.05478387698531151,0.0051992288790643215,0.10485749691724777,0.11603287607431412,-0.008608524687588215,-0.1774151623249054,-0.2519548535346985,0.18239015340805054,-0.07787276804447174,-0.11441197991371155,-0.2147192806005478,0.1272643506526947,0.10968563705682755,-0.1862153559923172,-0.24580469727516174,0.11518947780132294,-0.014345495030283928,0.17584794759750366,0.05646330118179321,0.1271023154258728,0.08764180541038513,0.16704437136650085,-0.15290386974811554,0.02481779456138611,0.10021205991506577,0.08232785016298294,0.09151709079742432,0.10448054224252701,-0.2064041793346405,-0.040992576628923416,-0.08689827471971512,-0.06407684832811356,-0.05258041247725487,-0.025085946545004845,0.6243412494659424,0.055784910917282104,0.14728838205337524,0.11911019682884216,0.013128104619681835,0.05740593001246452,-0.20268724858760834,-0.10586182028055191,-0.05566807836294174,-0.12136934697628021,-0.1536288857460022,-0.11480943858623505,0.02568749524652958,-0.033466096967458725,-0.017629042267799377,0.012016471475362778,-0.08298724889755249,-0.05022045224905014,-0.05839508771896362,0.10079094767570496,0.05789806321263313,0.06535562127828598,0.07481586188077927,0.04519529268145561,-0.020158177241683006,-0.07604099810123444,-0.18729688227176666,-0.14220339059829712,-0.1243566945195198,-0.18209274113178253,0.11249614506959915,-0.04098697751760483,-0.009153289720416069,-0.05814949423074722,-0.03185136616230011,-0.10560000687837601,0.3281782567501068,-0.12125065922737122,0.09981219470500946,0.035617996007204056,0.05608723312616348,0.12111077457666397,0.3169531524181366,0.26005950570106506,0.008962341584265232,0.04311962053179741,0.0521172434091568,0.0694320872426033,0.009695622138679028,-0.07690964639186859,-0.09852246195077896,-0.10029644519090652,-0.1197589784860611,-0.1695350855588913,0.02587953768670559,0.08694871515035629,0.048827242106199265,0.09968869388103485,0.08512403070926666,0.048429571092128754,0.10902838408946991,0.056060075759887695,-0.056149356067180634,0.04344499856233597,-0.010295725427567959,0.006813058629631996,-0.06389744579792023,0.06877746433019638,-0.10567089915275574,-0.06761034578084946,0.011449502781033516,-0.09554250538349152,-0.3464629650115967,0.05686946585774422,-0.008293114602565765,0.07064950466156006,0.036362625658512115,0.007095637731254101,0.05340849608182907,0.043783944100141525,-0.05329557880759239,0.012624939903616905,-0.0014110073680058122,-0.1370178759098053,0.09290014952421188,-0.1566488891839981,0.0063523948192596436,-0.02587842009961605,-0.0557020902633667,0.013408844359219074,0.31681346893310547,0.10759513080120087,0.027419039979577065,0.050107214599847794,0.04171556979417801,0.13791127502918243,-0.05882800370454788,-0.047806233167648315,-0.02918773703277111,-0.0020396357867866755,-0.009560182690620422,-0.10432464629411697,0.18436923623085022,-0.03870479390025139,0.03027377650141716,-0.012113183736801147,0.02772274985909462,0.14308173954486847,-0.17931388318538666,0.05648955702781677,0.028102993965148926,-0.03602863848209381,0.009650686755776405,-0.23054668307304382,0.025152413174510002,-0.010429712943732738,0.012033230625092983,0.008480663411319256,0.10270857810974121,-0.07683402299880981,-0.0014987967442721128,0.040572457015514374,-0.002398835960775614,-0.040911026298999786,0.06806857883930206,-0.042399484664201736,0.03153030201792717,0.08061601221561432,0.02528589405119419,-0.012639368884265423,0.0057571385987102985,-0.08370038866996765,-0.24781425297260284,0.05745663866400719,-0.07118337601423264,-0.036867961287498474,-0.0014493174385279417,0.058630239218473434,-0.07810478657484055,-0.12272270768880844,-0.037276528775691986,-0.08888183534145355,-0.2028914839029312,-0.17508170008659363,-0.19032716751098633,0.08935339003801346,0.14722411334514618,0.21691295504570007,0.21387997269630432,0.06598015129566193,-0.23294250667095184,0.04832644760608673,0.03185899183154106,-0.05222131311893463,-0.1397404968738556,-0.057596638798713684,0.3521195650100708,0.0866938978433609,0.1064588725566864,0.15886196494102478,0.03486271947622299,-0.11637987941503525,-0.17201760411262512,-0.010766265913844109,0.003014489309862256,0.08130001276731491,0.009277905337512493,-0.24273726344108582,-0.03647580370306969,-0.08972962200641632,-0.0026258446741849184,0.05789943039417267,0.017201879993081093,0.05637693032622337,0.026260538026690483,-0.019179673865437508,-0.05366762354969978,-0.005002986174076796,-0.019421575590968132,-0.11049668490886688,-0.188491553068161,0.1650295853614807,0.13796167075634003,0.16356509923934937,0.18153659999370575,0.11470060050487518,0.04883209243416786,-0.00479712663218379,-0.06153266876935959,-0.09776012599468231,-0.14348219335079193,-0.08429215848445892,-0.03262100741267204,-0.0670904815196991,-0.07410894334316254,-0.056110501289367676,-0.06535706669092178,-0.01744828186929226,-0.008572245948016644,0.08203823119401932,0.04054480418562889,0.0704604908823967,-0.019924353808164597,-0.08403796702623367,-0.13744500279426575,-0.015434394590556622,-0.10065312683582306,-0.07180041074752808,-0.13156476616859436,-0.179250568151474,-0.15258990228176117,-0.005091777071356773,-0.08016097545623779,-0.05456212908029556,0.008573937229812145,-0.04865284636616707,-0.042133696377277374,-0.019579805433750153,0.028104279190301895,-0.014096313156187534,0.03483401611447334,0.12133434414863586,0.16687674820423126,0.04458628594875336,-0.015366187319159508,-0.02576793171465397,-0.11679684370756149,-0.1044546440243721,-0.21231423318386078,0.09067221730947495,-0.03366496413946152,0.10037361085414886,0.058864984661340714,0.062052346765995026,-0.1085195243358612,-0.14181675016880035,-0.03258596733212471,-0.06770819425582886,0.007507659029215574,-0.03325663134455681,-0.3105347156524658,0.08781344443559647,0.0899728536605835,0.06639907509088516,0.038760069757699966,-0.023520704358816147,-0.18141834437847137,-0.05363503843545914,-0.0723494216799736,0.007922506891191006,-0.003984727431088686,-0.030314236879348755,-0.23905178904533386,-0.04809350147843361,-0.020128097385168076,-0.02866424061357975,-0.057723268866539,-0.08613839745521545,-0.17352476716041565,0.002448850544169545,0.029031746089458466,0.018896110355854034,-0.024356890469789505,-0.06182650104165077,0.14383350312709808,-0.1054149717092514,0.024844679981470108,-0.0517512671649456,-0.007327376399189234,0.03470401093363762,0.3564661741256714,0.019527478143572807,0.004051303956657648,-0.009008830413222313,0.09131122380495071,0.10759126394987106,0.0600360669195652,0.061397917568683624,0.030586378648877144,0.09614738076925278,0.1016501635313034,0.1272900104522705,0.032687876373529434,-0.11305524408817291,-0.09327766299247742,-0.08908672630786896,-0.10125090926885605,-0.08507556468248367,0.04426064342260361,-0.02309614047408104,-0.011213814839720726,-0.03980238735675812,-0.052305918186903,-0.07742428034543991,-0.08107263594865799,-0.019160917028784752,0.010039759799838066,-0.030306963250041008,0.06925983726978302,0.0936211347579956,0.030185939744114876,-0.06982554495334625,0.09841616451740265,-0.007678806781768799,-0.003143901936709881,0.030698612332344055,-0.1675722450017929,-0.10513777285814285,-0.0626479908823967,-0.017635703086853027,-0.045285098254680634,0.010567880235612392,-0.12600235641002655,0.019759492948651314,0.007922820746898651,-0.07211901247501373,-0.05661827698349953,-0.06901050359010696,-0.049272798001766205,-0.03403613716363907,0.02043633908033371,0.1271105855703354,-0.04123641178011894,0.14650650322437286,-0.22464518249034882,0.11300136148929596,-0.005734880920499563,0.07144815474748611,0.14239779114723206,-0.007062186952680349,-0.39751026034355164,-0.09815895557403564,-0.06729850172996521,-0.07697844505310059,-0.1040390357375145,-0.12251333892345428,0.07282602041959763,0.031063737347722054,0.11195462942123413,-0.0212489552795887,0.023279985412955284,0.023466939106583595,-0.19389522075653076,-0.011942315846681595,-0.05580617114901543,-0.04435630515217781,-0.05612795054912567,-0.21894218027591705,0.13767634332180023,-0.016674840822815895,-0.06405717879533768,-0.0423680879175663,0.001329846098087728,-0.06179538369178772,-0.012832789681851864,0.017991511151194572,0.006222617346793413,0.10411088913679123,-0.029643423855304718,0.08616948127746582,0.23940825462341309,-0.11620159447193146,-0.062170419842004776,-0.06310780346393585,-0.0836278647184372,-0.09707880020141602,-0.08268919587135315,0.1885092556476593,-0.2562316060066223,0.028211301192641258,-0.21965718269348145,-0.2045082449913025,-0.09557591378688812,-0.10010186582803726,0.15054771304130554,0.16245029866695404,-0.098605215549469,-0.19823536276817322,-0.025452997535467148,0.06777092814445496,0.22234086692333221,-0.00843475665897131,0.5300171375274658,-0.0035344178322702646,-0.646727979183197,0.1395842730998993,0.28461867570877075,-0.05917378142476082,0.5215622782707214,0.05035978928208351,-0.1900920569896698,-0.006486875936388969,-0.36955493688583374,0.17298084497451782,0.3934957683086395,-0.1259174942970276,0.31600338220596313,-0.17054413259029388,-0.1408289670944214,-0.30279648303985596,-0.10266676545143127,0.18232586979866028,-0.05110325291752815,-0.02884029969573021,0.3297725319862366,-0.0194095391780138,-0.28511035442352295,0.22180771827697754,-0.007767783477902412,0.2405499964952469,-0.3060557246208191,0.2108149230480194,-0.036185529083013535,-0.21316705644130707,0.027146270498633385,0.23869645595550537,0.06743983924388885,0.2419218271970749,-0.06459940969944,-0.03791619464755058,0.1549711376428604,0.15644121170043945,0.09580777585506439,-0.2568567395210266,0.1442955583333969,0.020465625450015068,0.3458893299102783,0.15155275166034698,0.017938770353794098,-0.04652110114693642,-0.258393794298172,0.04375072568655014,-0.1292681246995926,-0.1816447228193283,-0.07160154730081558,0.45409882068634033,-0.35444244742393494,-0.11863189935684204,-0.27470940351486206,-0.12735122442245483,-0.01762113720178604,0.07330162823200226,-0.09434545785188675,-0.1792418509721756,-0.000750647101085633,-0.13677917420864105,0.21941086649894714,0.26542744040489197,-0.2177390605211258,0.10569024831056595,-0.279358834028244,-0.06540022790431976,-0.05694328248500824,-0.050764136016368866,0.048045337200164795,0.0333288349211216,-0.09670847654342651,-0.14519444108009338,-0.19906115531921387,-0.09604630619287491,0.2418607622385025,-0.1302541196346283,-0.18768908083438873,-0.16173239052295685,-0.12105432897806168,-0.1981292963027954,0.10057326406240463,-0.03927064687013626,0.08111825585365295,0.09192437678575516,0.013874160125851631,0.12539762258529663,0.23861148953437805,0.22718022763729095,0.06130122020840645,0.006864124909043312,0.023931065574288368,-0.08201538771390915,0.23375341296195984,-0.04056631773710251,-0.12681816518306732,-0.05270645022392273,-0.008459595032036304,0.007428605109453201,-0.1728864312171936,-0.07749395817518234,-0.08238392323255539,0.09106526523828506,0.08063016831874847,-0.0002456236688885838,0.23743651807308197,0.0494408942759037,0.05023682862520218,0.03149939328432083,-0.12469299137592316,-0.18982893228530884,0.19654560089111328,-0.059124622493982315,0.09760352969169617,0.15256403386592865,0.2209096997976303,0.12046108394861221,-0.21733024716377258,-0.12209147959947586,-0.13221517205238342,0.01672918163239956,-0.08857353031635284,-0.06894299387931824,-0.0048801489174366,0.03123941831290722,0.011320636607706547,0.19129201769828796,-0.05737117677927017,-0.00030258556944318116,0.019135041162371635,0.0862126350402832,0.0649854987859726,0.19688795506954193,-0.008847760036587715,0.03201223164796829,-0.033221181482076645,-0.14024557173252106,-0.03763844817876816,0.1096544861793518,0.05219799280166626,-0.028990158811211586,-0.10376095026731491,-0.17540514469146729,-0.00883820652961731,0.0029278749134391546,-0.07072596997022629,-0.05534669756889343,0.06754446029663086,0.03906877711415291,0.022127633914351463,0.10112257301807404,-0.07234633713960648,0.009550844319164753,0.042204923927783966,0.034727707505226135,-0.06422493606805801,-0.08696971088647842,0.0010370053350925446,-0.013543402776122093,0.003243890590965748,0.02084653452038765,0.09161451458930969,0.062054045498371124,0.04678622633218765,0.10869128257036209,0.007297906558960676,-0.03186732903122902,-0.017630741000175476,0.11407846212387085,-0.057539187371730804,-0.1604103446006775,-0.002625690773129463,-0.06977479159832001,0.03319520503282547,0.20862042903900146,-0.07186708599328995,-0.08777333796024323,-0.04213995859026909,0.06999994814395905,-0.01652662828564644,-0.14778666198253632,-0.1131235808134079,0.13613185286521912,0.04542924836277962,0.05779276043176651,0.0407906100153923,0.09594384580850601,0.16213060915470123,0.13769470155239105,0.00558794941753149,0.09330592304468155,0.23208272457122803,0.14523223042488098,0.05903012678027153,0.05494498834013939,-0.09554339200258255,-0.04512200132012367,-0.17700469493865967,0.033926207572221756,-0.0035010208375751972,0.01183681283146143,-0.009642221964895725,-0.12320149689912796,-0.17124204337596893,-0.11763964593410492,0.1024741381406784,0.004597079940140247,0.27744513750076294,0.11650113016366959,0.08616799116134644,-0.03812924399971962,-0.02293343096971512,0.07659992575645447,-0.13105611503124237,-0.040339209139347076,-0.06811347603797913,-0.1429079920053482,-0.012760045938193798,-0.12240544706583023,0.2362534999847412,-0.03328230604529381,-0.04105670750141144,-0.03340229392051697,-0.0187375470995903,-0.014028768055140972,0.4493637681007385,0.14438427984714508,0.06501127779483795,0.19441215693950653,0.050116851925849915,0.12490756809711456,0.26199787855148315,-0.18507342040538788,-0.016473781317472458,-0.16396395862102509,-0.12246254831552505,-0.04752614349126816,0.27962425351142883,-0.06832873821258545,0.0173896886408329,-0.007754424586892128,0.004102521110326052,0.02232622541487217,-0.06552021950483322,0.16392101347446442,0.029602641239762306,0.06898654252290726,0.058582331985235214,-0.04106699302792549,0.3482225239276886,0.05417819321155548,0.05557155981659889,0.06921863555908203,-0.0380026176571846,0.1242700144648552,-0.1679038405418396,0.05755460262298584,0.06953402608633041,0.1630624681711197,0.09996753931045532,0.08408277481794357,0.03307504579424858,0.1326049417257309,0.10837230831384659,0.0980052724480629,0.005250107031315565,0.008098641410470009,-0.059214036911726,-0.03310574218630791,0.026946134865283966,0.06895019859075546,-0.038775790482759476,0.03881082311272621,-0.02063559554517269,-0.15557622909545898,-0.07595935463905334,0.015064509585499763,0.04784337058663368,-0.07224913686513901,0.07754486054182053,0.13093841075897217,-0.1251215785741806,-0.13310596346855164,-0.15089841187000275,0.0015082809841260314,-0.021660270169377327,-0.03411548212170601,-0.03966884687542915,-0.01379217766225338,0.07815603166818619,0.018349573016166687,0.05629856884479523,-0.19522687792778015,-0.0244196355342865,-0.008559680543839931,0.14017131924629211,0.04708649963140488,0.1688537895679474,-0.17530225217342377,-0.21593782305717468,-0.26266762614250183,-0.016356468200683594,-0.13277551531791687,0.27735835313796997,0.061466850340366364,0.1484900712966919,0.13651920855045319,0.08805827051401138,0.12026724964380264,0.02980945073068142,0.19628222286701202,0.11254739761352539,0.17331115901470184,0.028980109840631485,-0.15094520151615143,0.10881803184747696,0.06715167313814163,-0.01198895275592804,-0.03649566322565079,-0.06692486256361008,-0.23450633883476257,0.03329110145568848,-0.12897826731204987,-0.056519344449043274,-0.08287963271141052,-0.07335689663887024,0.06174810603260994,0.05966215580701828,0.09425319731235504,0.12938618659973145,0.16468918323516846,0.11214551329612732,0.01731443963944912,-0.006506136152893305,0.15600286424160004,0.0152581250295043,-0.05713570490479469,0.05143545940518379,0.008935416117310524,-0.15597687661647797,0.026127992197871208,-0.0022175584454089403,-0.028555547818541527,-0.06003056839108467,-0.1806255280971527,0.004929075017571449,0.020729664713144302,0.052073296159505844,0.2428538203239441,-0.015796368941664696,-0.26088958978652954,-0.08749275654554367,-0.05471096932888031,-0.07029036432504654,-0.10218355059623718,-0.038040246814489365,0.011595597490668297,-0.1171933114528656,0.01678493246436119,0.046538710594177246,-0.0057117692194879055,-0.014646784402430058,0.0631742775440216,0.11802157014608383,-0.08725535124540329,-0.14396172761917114,-0.18267913162708282,-0.09511993825435638,-0.16827663779258728,0.20574280619621277,0.1271708607673645,0.08271829783916473,0.18239744007587433,0.06828855723142624,0.21511663496494293,0.23792259395122528,-0.17019599676132202,-0.022495457902550697,-0.05059199407696724,-0.011498183943331242,-0.11005781590938568,0.4201130270957947,-0.04442938044667244,0.08243319392204285,0.1116054430603981,0.01602112129330635,0.11049319803714752,-0.22777612507343292,-0.055181074887514114,-0.0233309268951416,-0.05039975419640541,-0.07117042690515518,-0.06483226269483566,-0.015739088878035545,-0.040286265313625336,-0.10072752833366394,-0.0971410870552063,-0.08165761083364487,0.027257164940238,0.09542480856180191,0.10588077455759048,0.059207767248153687,0.03261056914925575,0.011744308285415173,-0.020670965313911438,-0.1130433976650238,0.17519986629486084,0.20723170042037964,0.2094910740852356,0.21612291038036346,0.1343909054994583,-0.24047207832336426,0.0022480341140180826,0.010399149730801582,0.11210468411445618,0.11162025481462479,0.1760926991701126,-0.2705271542072296,-0.07339750230312347,-0.09413738548755646,-0.09924910217523575,-0.088300421833992,-0.10856525599956512,-0.03479493036866188,0.030929893255233765,0.007860468700528145,-0.02040829136967659,-0.051608942449092865,0.08793067187070847,-0.3682743012905121,0.16488482058048248,-0.04432222619652748,-0.03295179083943367,0.042306430637836456,0.14924651384353638,0.12097269296646118,-0.05350128933787346,0.015478729270398617,-0.14954040944576263,0.012866664677858353,-0.025607788935303688,-0.13446566462516785,-0.04730641469359398,0.02058880217373371,0.10814220458269119,-0.06531476974487305,0.04643217846751213,0.1409391164779663,0.0670194998383522,-0.139741912484169,-0.18116283416748047,-0.07629305124282837,-0.09372977167367935,-0.1450406312942505,-0.03871115669608116,-0.07399202138185501,0.052451010793447495,-0.09238652139902115,-0.07388263195753098,0.1355678141117096,0.06205526366829872,0.041012492030858994,0.059908393770456314,0.005666758399456739,0.001213778625242412,-0.2120760679244995,-0.0798119381070137,-0.08886556327342987,-0.4789048135280609,-0.09035474061965942,0.559212863445282,-0.18680863082408905,-0.1785147786140442,-0.516989529132843,0.10337579250335693,-0.09673938155174255,0.21788235008716583,-0.1689150035381317,-0.18859000504016876,-0.08321277052164078,-0.41523614525794983,-0.5407161116600037,0.17565849423408508,0.06682842969894409,0.2356538027524948,-0.0363747663795948,0.05346564203500748,0.32675790786743164,0.26802799105644226,-0.31230372190475464,-0.562482476234436,0.3524591028690338,0.29361459612846375,-0.2940524220466614,-0.1668289601802826,0.031805992126464844,0.29111018776893616,0.07227704674005508,0.1680973768234253,0.25816893577575684,-0.2729065418243408,0.11172182112932205,0.05015347898006439,0.09021181613206863,0.02365024946630001,0.14552834630012512,-0.27765053510665894,0.31206056475639343,-0.2366248071193695,0.32779863476753235,0.23388341069221497,0.005958143156021833,-0.030168743804097176,-0.25652384757995605,-0.14791585505008698,-0.0678480789065361,0.10862588882446289,-0.12048055231571198,-0.49588465690612793,0.04929599538445473,-0.26515138149261475,-0.1829942911863327,-0.012932181358337402,0.18951600790023804,-0.1638910174369812,-0.2730601131916046,0.27618902921676636,0.295602023601532,0.07990623265504837,0.042998261749744415,-0.11063291877508163,0.3541998267173767,-0.20184226334095,0.15504586696624756,-0.22264859080314636,0.15770050883293152,-0.10400456935167313,-0.0730358213186264,-0.33877891302108765,-0.21660569310188293,0.3801146149635315,0.13541147112846375,0.0925985723733902,0.08080053329467773,0.1602182537317276,0.051874108612537384,-0.05386541411280632,0.12717582285404205,-0.002043633023276925,0.06250825524330139,0.14246267080307007,0.0013388311490416527,0.003410075791180134,-0.05748164281249046,0.03619713336229324,0.006802654359489679,-0.04093477129936218,-0.0013997865607962012,-0.037263527512550354,0.0647369995713234,-0.14208844304084778,-0.1644909679889679,-0.07541754841804504,-0.06133688613772392,0.1002155989408493,-0.2048325538635254,-0.018940966576337814,-0.06201298534870148,0.1005161926150322,0.03371396288275719,0.11232952028512955,-0.08882838487625122,-0.11685186624526978,-0.06736723333597183,0.05595116317272186,0.03599616140127182,-0.025246111676096916,-0.1620544046163559,-0.07071176171302795,-0.0468318909406662,-0.055222298949956894,0.029331523925065994,-0.06349872052669525,0.01632412150502205,-0.0061293672770261765,-0.08804339170455933,-0.27094051241874695,0.09093070775270462,0.028417227789759636,-0.2009522020816803,-0.011297383345663548,-0.0220976322889328,0.09698373824357986,0.020198848098516464,0.20582342147827148,-0.07767646759748459,0.005116885062307119,-0.01749618723988533,-0.08350533246994019,0.06845411658287048,0.011422676965594292,-0.18104910850524902,0.016899580135941505,0.05777117237448692,0.03968613222241402,-0.10253933817148209,-0.2149755358695984,-0.3287803530693054,-0.13236360251903534,-0.0648367628455162,0.04061567410826683,0.16307231783866882,0.30109521746635437,-0.12123800814151764,-0.08617732673883438,0.02084585838019848,0.10511000454425812,0.10418063402175903,0.16918720304965973,0.03388633951544762,-0.049816083163022995,-0.02826112136244774,-0.08018054068088531,0.011759547516703606,0.02297278493642807,-0.12357315421104431,0.0162626001983881,-0.04839394614100456,-0.03248939663171768,-0.09240617603063583,-0.11761410534381866,-0.032825589179992676,0.07166619598865509,-0.02154904045164585,0.026389023289084435,-0.014345797710120678,0.02914700284600258,0.10055268555879593,-0.051577866077423096,0.043036412447690964,0.16059167683124542,0.09848948568105698,-0.18892930448055267,-0.03963540121912956,0.2020316869020462,0.11194813996553421,0.06370218098163605,-0.005028447136282921,-0.0752917006611824,-0.07369676232337952,-0.04183349385857582,0.014100568369030952,-0.12025398015975952,-0.17238207161426544,-0.04495520889759064,-0.09388069808483124,-0.06531422585248947,-0.16904217004776,-0.09135553985834122,0.18590237200260162,0.20778021216392517,0.17589253187179565,-0.03389507532119751,0.06472711265087128,-0.02645953558385372,0.04620932787656784,-0.027314988896250725,-0.1477227658033371,0.05930999293923378,0.01573922112584114,0.07498195022344589,0.08115192502737045,-0.04006163775920868,0.10979890078306198,0.057505134493112564,0.03426697850227356,0.02778254635632038,-0.004404897335916758,-0.09212518483400345,-0.09953621029853821,0.009512682445347309,-0.07872575521469116,-0.16424213349819183,0.01311160996556282,0.11832894384860992,0.16581211984157562,-0.03023766353726387,-0.014426088891923428,0.08332660049200058,0.07571513950824738,0.08414566516876221,-0.1844019591808319,-0.008212589658796787,0.0985906571149826,0.12973259389400482,0.20951126515865326,0.27869850397109985,0.16697204113006592,0.016577858477830887,-0.14766758680343628,-0.06935035437345505,-0.12790411710739136,-0.025041481480002403,0.01692235842347145,-0.031713876873254776,0.10825533419847488,0.030998218804597855,0.04478389024734497,-0.04351954534649849,0.07152416557073593,-0.03973807394504547,-0.09796909242868423,0.08326375484466553,0.12632501125335693,0.3239414691925049,-0.10459355264902115,0.06946536153554916,0.12711404263973236,0.03141900897026062,-0.056502651423215866,-0.14784668385982513,0.09310533106327057,0.0007524702232331038,0.019123846665024757,0.04671438783407211,-0.16611413657665253,-0.2232884019613266,-0.1761876791715622,-0.08852459490299225,0.05884687602519989,-0.0845930427312851,-0.10033959895372391,-0.01772916130721569,0.04796726629137993,0.08126174658536911,0.09197729825973511,0.0729283019900322,-0.011720812879502773,-0.10883831977844238,0.024027759209275246,-0.009019446559250355,-0.00639030896127224,0.05968957021832466,-0.12805530428886414,-0.23318088054656982,0.07369045168161392,-0.07129483669996262,-0.04774659126996994,-0.062322329729795456,0.050842951983213425,0.24349145591259003,-0.009830370545387268,0.04000365361571312,0.16758565604686737,0.21038854122161865,0.1372494250535965,-0.16726133227348328,0.20102986693382263,-0.004946162458509207,0.10797962546348572,0.13728371262550354,0.18558596074581146,0.0415489636361599,-0.19731128215789795,-0.11257337033748627,-0.1401035338640213,-0.16809743642807007,-0.0811459943652153,-0.023982269689440727,-0.214931920170784,0.029926782473921776,-0.0707220509648323,0.016464272513985634,-0.12026628106832504,0.0010817988077178597,0.2930684983730316,0.2393415868282318,0.07396220415830612,0.20569457113742828,0.10045680403709412,0.334615558385849,0.1328924596309662,0.034823331981897354,-0.022472037002444267,-0.06022907793521881,0.01822824217379093,0.15847009420394897,-0.004149559419602156,-0.1578415185213089,-0.0842377245426178,-0.046956226229667664,0.056307338178157806,0.21635077893733978,0.12273091077804565,0.09282820671796799,0.14292030036449432,0.11194314807653427,-0.011324928142130375,-0.23352453112602234,-0.4315252900123596,-0.11987070739269257,-0.18316972255706787,-0.23954306542873383,-0.13569752871990204,-0.0024598983582109213,0.32382848858833313,-0.07527408003807068,0.05601264163851738,-0.11060599237680435,-0.15840192139148712,-0.20101608335971832,0.4147343039512634,-0.012316516600549221,0.06656443327665329,0.07507361471652985,-0.015169338323175907,0.054009441286325455,-0.24239599704742432,0.10467234253883362,0.05378015339374542,0.043916165828704834,0.08759158104658127,0.13698388636112213,-0.28847306966781616,-0.02406393736600876,-0.03114924393594265,-0.07255922257900238,-0.1399575024843216,-0.20161961019039154,0.08163851499557495,0.019186897203326225,-0.06918017566204071,-0.015087179839611053,-0.006961451377719641,-0.15362365543842316,-0.05425863340497017,0.08461811393499374,0.050502654165029526,0.1392229050397873,0.08139155805110931,-0.18251241743564606,-0.03661893308162689,-0.027692724019289017,-0.17289936542510986,-0.03032907098531723,0.03287220746278763,0.19411161541938782,-0.009570358321070671,0.09487209469079971,0.20377208292484283,0.016442090272903442,-0.048379119485616684,-0.08595915138721466,0.10230889171361923,0.16137181222438812,-0.07041700184345245,0.15135358273983002,0.15752112865447998,0.10210995376110077,0.08090272545814514,-0.003834413131698966,0.018190592527389526,-0.03029976412653923,-0.015125378966331482,-0.017947975546121597,0.14678701758384705,-0.020634200423955917,-0.11966119706630707,-0.10488466918468475,-0.094481460750103,-0.22823511064052582,0.09207236766815186,-0.0015824810834601521,-0.014180964790284634,-0.0883161798119545,-0.040742937475442886,0.20011985301971436,-0.16227418184280396,0.05873263254761696,0.08978825807571411,0.06979509443044662,0.06193790212273598,-0.28443092107772827,0.22215551137924194,0.05545320361852646,0.08766236901283264,-0.05708055943250656,-0.043585531413555145,-0.025998804718255997,-0.023490305989980698,-0.0394119918346405,-0.1375168114900589,-0.08739376068115234,-0.0984649509191513,0.09186245501041412,0.03907433897256851,0.05608968064188957,0.0664856880903244,0.19651995599269867,0.13056610524654388,0.1686508059501648,-0.22602306306362152,0.04339127615094185,-0.0429888516664505,0.07218518853187561,-0.02585126832127571,0.14705945551395416,-0.03575616702437401,0.012200110591948032,-0.03141380473971367,0.02459077164530754,0.06323827803134918,-0.06823643296957016,0.08438301086425781,-0.004838419146835804,0.10269574075937271,-0.0948808491230011,-0.010244074277579784,0.07143379747867584,0.04783317446708679,-0.09205330908298492,0.0313245989382267,