{"version": "0.5.4", "architecture": "WaveNet", "sample_rate": 48000, "config": {"layers": [{"input_size": 1, "condition_size": 1, "channels": 4, "kernel_size": 3, "dilations": [1, 2, 4, 8], "activation": "Tanh", "gated": false, "head_size": 1, "head_bias": true}], "head": null}, "weights": [0.09141512215137482, -0.3119952380657196, 0.22513535618782043, 0.2821694016456604, -0.5853105783462524, -0.3906538486480713, 0.038352120667696, -0.09487278014421463, -0.00504034711048007, -0.2559131681919098, 0.2638193964958191, 0.23333758115768433, 0.019809208810329437, 0.33817237615585327, 0.14025279879570007, -0.2577877342700958, 0.1106252372264862, -0.2876647710800171, 0.2635350823402405, -0.014977773651480675, -0.055458709597587585, -0.2042788565158844, 0.3667623996734619, -0.04635884612798691, -0.12849834561347961, -0.10564006865024567, 0.15969274938106537, 0.10963322222232819, 0.12381978332996368, 0.1292462944984436, 0.642494261264801, -0.1219245046377182, -0.15367281436920166, -0.24413181841373444, 0.18479382991790771, 0.33869168162345886, -0.03418423607945442, -0.25204694271087646, -0.24734435975551605, 0.1951778382062912, 0.22297625243663788, 0.16294628381729126, -0.19965291023254395, 0.06964839994907379, 0.03500574454665184, 0.06560657918453217, 0.2614286243915558, 0.06707866489887238, 0.2036740630865097, 0.0202737208455801, 0.08673582226037979, 0.18938647210597992, -0.43714675307273865, -0.09590136259794235, -0.14111179113388062, -0.19166335463523865, -0.08254267275333405, 0.4484823942184448, -0.25974932312965393, 0.2904835045337677, -0.5048609375953674, -0.10046550631523132, 0.04882591962814331, 0.17586669325828552, 0.21336796879768372, 0.2380041778087616, -0.10461752116680145, -0.1387055367231369, 0.2573927640914917, -0.057391297072172165, -0.3827058970928192, -0.3399861752986908, -0.27583569288253784, 0.14914822578430176, 0.042727719992399216, 0.2071456015110016, -0.1281757950782776, 0.04756190627813339, 0.18767711520195007, -0.0928039625287056, 0.13703256845474243, -0.19857777655124664, -0.10891615599393845, -0.11452136933803558, -0.35875189304351807, 0.1460917443037033, -0.1408206969499588, 0.0037482355255633593, 0.14422400295734406, 0.1339593529701233, 0.19961553812026978, -0.029545646160840988, -0.12698949873447418, -0.02391546405851841, -0.5062003135681152, -0.43413373827934265, -0.3968098759651184, -0.299174040555954, 0.11993227154016495, -0.271643728017807, -0.11344876885414124, 0.38976848125457764, -0.10687918961048126, 0.22125467658042908, -0.2800852954387665, -0.06163126602768898, -0.2850066125392914, -0.10170992463827133, 0.2520924508571625, -0.5181961059570312, 0.13032709062099457, 0.07132068276405334, -0.17824499309062958, -0.4338173568248749, 0.02163885161280632, -0.15884780883789062, 0.06980286538600922, 0.006555643863976002, 0.4805336594581604, -0.07180669158697128, -0.3070492446422577, 0.053782690316438675, 0.06599900871515274, 0.4077562689781189, 0.2505333721637726, 0.10706131905317307, 0.43899086117744446, -0.3566289246082306, -0.19192546606063843, -0.2779727876186371, -0.11694294214248657, -0.41300585865974426, 0.19054529070854187, -0.06666681170463562, -0.44124189019203186, -0.3046737313270569, 0.09405415505170822, 0.2514379620552063, 0.5990192890167236, 0.8741587400436401, 0.12432283163070679, -0.2968614399433136, -0.6396138668060303, 0.08031343668699265, -0.24388232827186584, -0.12460717558860779, -0.18362903594970703, -0.04223726689815521, 0.31979405879974365, 0.04711456969380379, -0.04759044945240021, -0.3106961250305176, -0.5024048686027527, -0.14589236676692963, -0.01613476499915123, 0.5303789973258972, 0.0390823557972908, 0.2948218584060669, -0.14978867769241333, -0.35548314452171326, -0.2895350158214569, -0.2175678163766861, 0.6385409235954285, -0.24641600251197815, 0.2515467703342438, -0.2708781659603119, 0.27947190403938293, 0.1154852882027626, -0.04699137061834335, -0.012228758074343204, -0.1964363157749176, 0.13382166624069214, -0.13649503886699677, -0.36768174171447754, -0.38338127732276917, 0.051776375621557236, 0.47372737526893616, 0.04799748584628105, -0.035591498017311096, 0.0857478454709053, 0.39180052280426025, 0.06581474840641022, -0.1232781708240509, 0.3318866193294525, 0.12862692773342133, 0.460726797580719, 0.054970331490039825, -0.36734071373939514, -0.41044774651527405, 0.49527838826179504, 0.5170997381210327, -0.053855765610933304, -0.11495619267225266, 0.43843328952789307, -0.33211371302604675, -0.2684181034564972, 0.1929980367422104, -0.11838153749704361, -0.0015365600120276213, -0.049032870680093765, 0.10127236694097519, 0.4222445487976074, 0.02717547118663788, 0.19318163394927979, -0.6150516271591187, -0.01461552083492279, -0.25296908617019653, -0.3656439185142517, -0.2634457051753998, -0.10023703426122665, 0.2747707664966583, -0.39791780710220337, 0.00918944738805294, -0.1452508270740509, -0.09830192476511002, 0.30082735419273376, 0.16143463551998138, 0.4012194275856018, -0.046351704746484756, -0.20878277719020844, -0.06715764850378036, 0.07274904102087021, 0.05297200754284859, -0.3253164291381836, 0.02714693360030651, 0.06846849620342255, 0.7552422285079956, 0.5630533695220947, -0.2559730112552643, -0.08621501177549362, -0.4390326142311096, -0.17721210420131683, 0.0946815013885498, 0.3617560863494873, -0.21872514486312866, -0.19624392688274384, -0.6441867351531982, -0.048799775540828705, -0.3187243342399597, -0.15883183479309082, -0.26305824518203735, -0.028278766199946404, -0.52731853723526, -0.4401135742664337, 0.6387741565704346, -0.3862267732620239, -0.3290356695652008, 0.5510740876197815, 0.8715201616287231, -0.3514699935913086, -0.11047468334436417, 0.10246666520833969, 0.5186092853546143, -0.2960571348667145, -0.07358335703611374, 0.2332012802362442, 0.13042981922626495, -0.11284682154655457, -0.04014689102768898, -0.41246873140335083, -0.07145212590694427, -0.07991624623537064, 0.06965097039937973, -0.16659817099571228, 0.1414615511894226, 0.30381473898887634, 0.04662879928946495, 0.10552692413330078, 0.015946604311466217, 2.5317927793366835e-05, -0.21646741032600403, 0.09494827687740326, -0.029185978695750237, 0.6279504895210266, 0.4720064699649811, 0.11575396358966827, -0.2289171665906906, -0.3337234556674957, 0.3573428988456726, 0.07882476598024368, 0.14404302835464478, -0.5233758091926575, 0.27823153138160706, 0.13632610440254211, -0.3331291973590851, -0.1414574384689331, 0.07911515980958939, 0.015740038827061653, -0.08765135705471039, -0.03104647994041443, -0.07559321075677872, 0.045768752694129944, 0.44144758582115173, -0.7699975371360779, -0.07105507701635361, 0.052953727543354034, 0.08879819512367249, -0.11157437413930893, -0.5270165205001831, 0.09839864820241928, 0.5182050466537476, -0.46015840768814087, 0.25914841890335083, -0.09855756908655167, -0.01839730329811573, -0.31586953997612, -0.10033684968948364, 0.39001336693763733, 0.17479656636714935, 0.5196934938430786, 0.3532235622406006, 0.1317259967327118, 0.523180365562439, 0.75]}