{"version": "0.5.4", "architecture": "WaveNet", "sample_rate": 48000, "config": {"layers": [{"input_size": 1, "condition_size": 1, "channels": 4, "kernel_size": 3, "dilations": [1, 2, 4, 511], "activation": "Tanh", "gated": false, "head_size": 1, "head_bias": true}], "head": null}, "weights": [0.10367526113986969, 0.24648544192314148, 0.09913112223148346, -0.390947163105011, 0.27160677313804626, 0.1339123696088791, -0.16108596324920654, 0.17433543503284454, 0.10937172174453735, 0.08823975175619125, 0.00852667260915041, 0.16401389241218567, -0.22093622386455536, -0.04887298494577408, -0.14463579654693604, 0.17965386807918549, 0.01191663183271885, -0.08773702383041382, -0.23457254469394684, -0.07715766876935959, 0.0024426542222499847, -0.08268087357282639, 0.3882191479206085, 0.30201730132102966, -0.8133487701416016, -0.5667039752006531, -0.0524316281080246, -0.1266571283340454, 0.06409289687871933, 0.06519658118486404, 0.6353515982627869, -0.3336062431335449, -0.1132815033197403, 0.6128314733505249, 0.1940108984708786, 0.19891901314258575, -0.1542019098997116, -0.4944225549697876, 0.05023942142724991, 0.032704226672649384, -0.36820560693740845, -0.20496800541877747, -0.0216131042689085, -0.2834254801273346, -0.029480990022420883, 0.028644908219575882, 0.010675870813429356, -0.15188749134540558, 0.17812442779541016, 0.26735007762908936, 0.09625449031591415, -0.24546906352043152, 0.21949568390846252, -0.15043200552463531, 0.2637481987476349, -0.32153621315956116, 0.2743401527404785, -0.0060190362855792046, -0.37462466955184937, -0.09416984021663666, 0.016230683773756027, 0.08183740079402924, -0.2946564257144928, -0.3322119116783142, 0.05987536162137985, -0.14002488553524017, 0.07065168023109436, 0.2278558611869812, -0.494636207818985, 0.07631643861532211, 0.3673940896987915, -0.08925805240869522, -0.24324437975883484, 0.2256731539964676, 0.07603395730257034, 0.2687649130821228, -0.10356470942497253, -0.4445454776287079, -0.03300322964787483, -0.13374844193458557, 0.23259714245796204, 0.058089856058359146, -0.48925477266311646, -0.3585489094257355, 0.26513671875, 0.20392949879169464, -0.1920730024576187, -0.00031463897903449833, 0.1336720734834671, 0.14052130281925201, 0.2628726661205292, 0.07694568485021591, -0.028448501601815224, -0.07765442132949829, 0.3167228400707245, -0.6752563118934631, -0.04159659892320633, 0.009900031611323357, -0.42760467529296875, 0.0998440831899643, -0.19538430869579315, 0.25873345136642456, -0.03767762705683708, 0.20074597001075745, 0.36565306782722473, 0.11487887799739838, -0.2627163529396057, -0.4542955756187439, 0.5260152220726013, -0.03338765725493431, -0.20656947791576385, 0.04327712580561638, -0.05742339789867401, 0.25564268231391907, 0.010178455151617527, 0.00412487518042326, -0.21437391638755798, 0.14087043702602386, -0.3101600110530853, 0.1997668296098709, 0.45718124508857727, -0.45740580558776855, -0.7398687601089478, 0.18506363034248352, 0.7643693685531616, -0.300277441740036, -0.3752087354660034, 0.17669068276882172, -0.25221648812294006, -0.15180765092372894, -0.10443524271249771, 0.159600630402565, -0.12159071117639542, 0.08336485177278519, -0.052959978580474854, -0.25340133905410767, -0.09594787657260895, -0.285119891166687, 0.0019544956739991903, -0.3371598720550537, -0.3278683125972748, 0.4370885491371155, -0.01595526561141014, -0.01617060787975788, 0.15346091985702515, -0.12625710666179657, -0.06856060773134232, 0.12754462659358978, 0.08472475409507751, -0.3477890193462372, 0.25000277161598206, -0.17713047564029694, -0.31682369112968445, -0.270142525434494, -0.11716360598802567, 0.48819008469581604, -0.35266077518463135, 0.04802276939153671, -0.6413472890853882, -0.0004700799472630024, 0.26986992359161377, -0.07099899649620056, -0.1888064742088318, 0.06945332139730453, 0.21004553139209747, 0.19909727573394775, 0.5917421579360962, 0.06275024265050888, -0.17772303521633148, -0.037793755531311035, -0.02174956351518631, 0.03262121602892876, -0.009008344262838364, 0.05218978226184845, -0.5012550354003906, 0.24888868629932404, -0.17242178320884705, -0.3519476056098938, 0.1913253515958786, 0.3951978087425232, 0.14790844917297363, 0.04834779351949692, -0.27966609597206116, 0.8614702224731445, 0.2640775740146637, -0.3417884111404419, -0.23389136791229248, 0.026093775406479836, -0.4664193391799927, 0.050589121878147125, -0.1377214640378952, 0.367881178855896, 0.288646399974823, -0.8133856058120728, 0.012510775588452816, -0.48524025082588196, 0.33289140462875366, 0.050431761890649796, 0.16452163457870483, -0.3195374310016632, 0.5485290884971619, 0.6060220003128052, -0.3194313049316406, 0.11184453964233398, -0.20199072360992432, -0.007070980966091156, -0.37969109416007996, 0.5601436495780945, -0.2907538414001465, -0.08882514387369156, 0.1504448801279068, -0.19426819682121277, -0.07179372757673264, -0.16909195482730865, -0.040038228034973145, -0.35116279125213623, -0.13139642775058746, -0.06206787750124931, -0.10011780261993408, 0.01700698584318161, -0.08793066442012787, 0.22596342861652374, -0.09695877879858017, -0.040994878858327866, -0.19943439960479736, -0.15795445442199707, -0.3793478310108185, 0.15563547611236572, -0.34275540709495544, -0.22375692427158356, 0.10777339339256287, 0.12077201157808304, -0.12003442645072937, -0.605779767036438, 0.12615399062633514, 0.07786903530359268, -0.42371436953544617, 0.23109662532806396, -0.21032993495464325, -0.3378564417362213, 0.028719212859869003, -0.05354112759232521, 0.060787200927734375, -0.48172441124916077, 0.5436690449714661, -0.18079759180545807, -0.4618977904319763, 0.18565265834331512, -0.10644123703241348, 0.09745754301548004, -0.10188253223896027, -0.017922108992934227, 0.07373185455799103, -0.2239958643913269, 0.20362187922000885, -0.14097003638744354, -0.2609061300754547, 0.02310972660779953, 0.13351237773895264, -0.06872380524873734, -0.2587559223175049, 0.18593567609786987, -0.5280986428260803, -0.30925923585891724, 0.011856867000460625, -0.40831783413887024, 0.008398279547691345, -0.016458936035633087, 0.26962193846702576, -0.2744370996952057, -0.1877719610929489, 0.0999545082449913, -0.7372691035270691, 0.9300127029418945, -0.2095952183008194, -0.21895051002502441, 0.25833824276924133, -0.011949552223086357, -0.5338285565376282, 0.18807820975780487, 0.2566133439540863, -0.1349838823080063, -0.08448010683059692, 0.14579537510871887, -0.2726340889930725, 0.13151657581329346, 0.05978955328464508, -0.2024797797203064, -0.41763055324554443, -0.06768175214529037, -0.26262667775154114, 0.3004230558872223, 0.04322560876607895, 0.23462535440921783, 0.04038657993078232, 0.07887033373117447, -0.23489966988563538, 0.20041422545909882, 0.5354095101356506, -0.09290626645088196, -0.17783236503601074, -0.047351010143756866, -0.14438408613204956, -0.21044379472732544, 0.041458092629909515, -0.08727525919675827, 0.43166208267211914, 6.0492886404972523e-05, 0.09717359393835068, 0.2856065630912781, -0.09022675454616547, 0.43102097511291504, -0.18980826437473297, 0.75]}