{"version":"0.7.0","architecture":"SlimmableContainer","config":{"submodels":[{"max_value":0.5,"model":{"version":"0.7.0","metadata":{"date":{"year":2026,"month":5,"day":8,"hour":9,"minute":17,"second":53},"loudness":-14.584883689880371,"gain":0.08706084767034952},"architecture":"WaveNet","config":{"layers":[{"input_size":1,"condition_size":1,"head":{"out_channels":1,"kernel_size":16,"bias":true},"channels":3,"kernel_sizes":[6,6,6,6,6,6,6,6,6,6,6,6,6,6,15,15,6,6,6,6,6,6,6],"dilations":[1,3,7,17,41,101,239,1,3,7,17,41,101,239,1,13,1,3,7,17,41,101,239],"activation":[{"type":"LeakyReLU","negative_slope":0.01},{"type":"LeakyReLU","negative_slope":0.01},{"type":"LeakyReLU","negative_slope":0.01},{"type":"LeakyReLU","negative_slope":0.01},{"type":"LeakyReLU","negative_slope":0.01},{"type":"LeakyReLU","negative_slope":0.01},{"type":"LeakyReLU","negative_slope":0.01},{"type":"LeakyReLU","negative_slope":0.01},{"type":"LeakyReLU","negative_slope":0.01},{"type":"LeakyReLU","negative_slope":0.01},{"type":"LeakyReLU","negative_slope":0.01},{"type":"LeakyReLU","negative_slope":0.01},{"type":"LeakyReLU","negative_slope":0.01},{"type":"LeakyReLU","negative_slope":0.01},{"type":"LeakyReLU","negative_slope":0.01},{"type":"LeakyReLU","negative_slope":0.01},{"type":"LeakyReLU","negative_slope":0.01},{"type":"LeakyReLU","negative_slope":0.01},{"type":"LeakyReLU","negative_slope":0.01},{"type":"LeakyReLU","negative_slope":0.01},{"type":"LeakyReLU","negative_slope":0.01},{"type":"LeakyReLU","negative_slope":0.01},{"type":"LeakyReLU","negative_slope":0.01}],"bottleneck":3,"head1x1":{"active":false,"out_channels":1,"groups":1},"layer1x1":{"active":true,"groups":1},"groups_input":1,"groups_input_mixin":1,"conv_pre_film":{"active":false,"shift":true,"groups":1},"conv_post_film":{"active":false,"shift":true,"groups":1},"input_mixin_pre_film":{"active":false,"shift":true,"groups":1},"input_mixin_post_film":{"active":false,"shift":true,"groups":1},"activation_pre_film":{"active":false,"shift":true,"groups":1},"activation_post_film":{"active":false,"shift":true,"groups":1},"layer1x1_post_film":{"active":false,"shift":true,"groups":1},"head1x1_post_film":{"active":false,"shift":true,"groups":1},"gating_mode":["none","none","none","none","none","none","none","none","none","none","none","none","none","none","none","none","none","none","none","none","none","none","none"],"secondary_activation":[null,null,null,null,null,null,null,null,null,null,null,null,null,null,null,null,null,null,null,null,null,null,null],"slimmable":null}],"head":null,"head_scale":0.008547182252166344},"weights":[-1.891939640045166,-1.7316190004348755,-2.3703548908233643,-0.0017217784188687801,0.26287704706192017,0.062132157385349274,-0.3818306624889374,0.004680290352553129,0.8697350025177002,0.03153802454471588,-0.06058664247393608,0.13308030366897583,-0.20845915377140045,-0.2170819342136383,0.6418370008468628,-0.04707833379507065,-0.1407068967819214,0.0034464390482753515,-0.3496820628643036,-0.1524820476770401,0.570033609867096,0.3412275016307831,-0.0025609976146370173,-0.24661347270011902,-0.5749497413635254,-0.323899507522583,0.699306309223175,0.20176436007022858,0.144352987408638,-0.22377565503120422,-0.6030497550964355,-0.19716432690620422,0.7403439283370972,0.1644769161939621,0.2025974690914154,-0.27084100246429443,-0.5200334787368774,-0.35956230759620667,0.7090926766395569,-0.20284438133239746,-0.13165073096752167,-0.16199642419815063,-0.1593102514743805,-0.03408251330256462,0.2050258070230484,-0.14989709854125977,-0.07781614363193512,-0.08977476507425308,-0.0864630788564682,0.014046401716768742,0.19141550362110138,-0.2069234848022461,-0.13576316833496094,-0.16192220151424408,-0.17863385379314423,-0.05024827644228935,0.2132263034582138,0.5015305280685425,0.17920143902301788,-0.22832466661930084,-1.4016740322113037,-1.302974820137024,-0.18585792183876038,0.658173680305481,0.0464060939848423,0.06298089772462845,1.4187566041946411,2.050734043121338,0.434987872838974,0.8953021168708801,0.8354977369308472,0.13670501112937927,0.3991090953350067,0.15576454997062683,-0.5970803499221802,-0.14308109879493713,-0.1162281259894371,0.1073116660118103,-0.18128561973571777,0.09736304730176926,0.029955590143799782,0.10340171307325363,0.13073356449604034,0.24341055750846863,0.1717371642589569,0.32432714104652405,-0.17187218368053436,-0.07038717716932297,-0.2654723525047302,-0.14238741993904114,-0.01973920501768589,-0.3487432897090912,-0.13314320147037506,0.11489613354206085,-0.14104697108268738,0.025452621281147003,-0.16896149516105652,0.4117341637611389,-0.4255428612232208,0.27184367179870605,0.06587345898151398,0.09164270013570786,0.024511195719242096,0.7062355875968933,-0.7595846056938171,-0.027399828657507896,-0.1973656713962555,-0.27199503779411316,-0.008405880071222782,0.3696361184120178,-0.7150543332099915,1.7826432952006144e-07,0.2833186089992523,0.005949795246124268,0.08244451880455017,0.14617915451526642,0.549979567527771,0.10720083117485046,0.30155500769615173,0.047758378088474274,0.11103128641843796,-0.22804085910320282,0.5947316288948059,-0.3346759080886841,-0.031508106738328934,-0.10657800734043121,-0.20104031264781952,-0.4370036721229553,0.5169848799705505,-0.10609330981969833,0.1789420247077942,0.3933446407318115,1.1135717630386353,0.21344272792339325,-1.1343175172805786,-0.25446775555610657,0.49095338582992554,0.040334124118089676,-0.24020448327064514,-0.4257946312427521,1.066110372543335,-0.6038711071014404,-0.48399633169174194,0.37967225909233093,0.36553043127059937,-0.2662729322910309,-0.30935215950012207,-0.22871392965316772,-0.39890384674072266,0.2860450744628906,-0.07237008213996887,0.10051105171442032,-0.035884007811546326,-0.016871212050318718,0.10703430324792862,0.04619403928518295,0.13757193088531494,0.29622048139572144,0.18467587232589722,-0.06588263809680939,-0.37002742290496826,-0.28398609161376953,-0.46819084882736206,-0.11778469383716583,-0.31067875027656555,0.3434308171272278,-0.1842038482427597,0.3936571180820465,0.4760631322860718,0.5967655181884766,0.07850047200918198,0.22437644004821777,0.03455696254968643,0.2784547507762909,0.2646443247795105,0.07450277358293533,-0.21794570982456207,-0.20556335151195526,-0.4581199288368225,-0.20099365711212158,-0.11024187505245209,-0.04571421071887016,-0.31763750314712524,0.06874343752861023,-0.07422655075788498,0.08653461933135986,-0.008788608014583588,0.11314766854047775,-0.8027005791664124,-0.0179930217564106,0.03951979801058769,-0.055615272372961044,-0.023225033655762672,-0.007154915481805801,-0.9292272925376892,0.038540519773960114,-0.041735146194696426,0.0520951971411705,0.12503935396671295,0.01673593744635582,-0.4494207799434662,0.26884183287620544,0.4904029667377472,-0.23864807188510895,0.21880434453487396,0.2567845582962036,0.7003909349441528,-0.40631240606307983,0.6068165898323059,-0.048223234713077545,-0.650998592376709,-0.4395357072353363,-1.106614112854004,-0.254343181848526,-0.0035056874621659517,-0.861887514591217,0.11508500576019287,0.12860530614852905,0.5028589963912964,-0.2377222627401352,-0.0993800163269043,-0.01712552085518837,-0.3061438202857971,-0.22277787327766418,-0.33444949984550476,0.03290987387299538,0.00707766879349947,0.023570794612169266,0.10428085923194885,0.16383512318134308,-0.44127458333969116,-0.2525528371334076,-0.14622637629508972,-0.061588119715452194,-0.11529551446437836,-0.06508934497833252,-0.3072706460952759,0.09448452293872833,0.006016815546900034,0.18358856439590454,0.14133258163928986,-0.00016638514352962375,-0.023518405854701996,0.12335032969713211,-0.02505226619541645,0.012636772356927395,0.0007039910415187478,-0.046801481395959854,-0.054080814123153687,-0.05107773467898369,-0.08485817164182663,-0.25218868255615234,-0.1508680284023285,0.10002344846725464,-0.36263537406921387,0.22289623320102692,0.33313512802124023,0.38235199451446533,0.40677574276924133,0.5732304453849792,0.2738373577594757,0.007025398779660463,-0.010329952463507652,0.03803423047065735,0.14808440208435059,-0.08660340309143066,0.520749032497406,0.027219681069254875,0.23129209876060486,0.12902595102787018,-0.13698464632034302,-0.292583167552948,0.3170192241668701,-0.298967182636261,0.2799532413482666,0.16729824244976044,0.36004573106765747,0.9308017492294312,-0.6728193759918213,-0.8545975089073181,-0.25525185465812683,0.47737202048301697,-0.25226837396621704,-0.4499049782752991,0.5402123928070068,-0.7456380724906921,-0.47859030961990356,0.3283693790435791,0.08862307667732239,0.16583234071731567,0.04905780777335167,0.1466032713651657,0.18941688537597656,0.07488913834095001,0.07796061038970947,0.012687946669757366,0.07477986812591553,0.07141515612602234,0.0947389155626297,0.04419426620006561,0.26493629813194275,0.031572505831718445,1.0243520736694336,-0.14219345152378082,0.19866935908794403,0.13910886645317078,-0.09058893471956253,-0.11130543053150177,0.8734259009361267,-0.143637552857399,-0.010657933540642262,0.2185877561569214,0.17177188396453857,0.3634657561779022,0.02595730870962143,0.1390247792005539,0.09508663415908813,0.18939627707004547,0.05449885129928589,0.012711857445538044,-0.06734343618154526,-0.06310511380434036,0.20599418878555298,-0.04965261369943619,0.10219493508338928,0.2033722847700119,-0.30592989921569824,0.3217158019542694,0.1437167376279831,0.2665933072566986,0.16439443826675415,-0.15052051842212677,0.044271934777498245,3.9020331314532086e-05,0.08412101119756699,0.23448356986045837,0.10572110861539841,0.11581452190876007,-0.1660241186618805,-0.0215670894831419,-0.06475662440061569,-0.35855358839035034,-0.411508709192276,-0.1213553324341774,-0.20592984557151794,0.038307514041662216,0.12834279239177704,0.14096029102802277,-0.06261257082223892,-0.025257807224988937,0.6801722049713135,0.20618848502635956,0.6130231618881226,0.12719160318374634,-0.056234706193208694,0.11436056345701218,-0.4449499845504761,0.14491507411003113,-0.07332663238048553,-0.20341497659683228,0.1748967319726944,-0.29489243030548096,0.5524834394454956,0.09431357681751251,0.20089855790138245,0.35618725419044495,0.11098625510931015,-0.08993842452764511,0.08647678792476654,-0.17253902554512024,0.18521365523338318,0.16258424520492554,0.0553174652159214,0.02147916704416275,0.4982794225215912,0.059610579162836075,-0.32640770077705383,-0.1978219896554947,0.11001548171043396,0.05071324110031128,0.6520839333534241,-0.043858278542757034,-0.07612519711256027,-0.18323662877082825,-0.1564975082874298,-0.15533839166164398,-0.2135433852672577,0.02876441366970539,-0.018333449959754944,-0.025938015431165695,-0.09133727848529816,0.013159791007637978,-0.4776404798030853,-0.020252306014299393,-0.01973704807460308,0.050696395337581635,0.012837364338338375,0.013186568394303322,-0.5604854822158813,0.2538355886936188,0.15491431951522827,0.007469252683222294,0.1811397820711136,-0.09244497120380402,0.40169671177864075,0.17755353450775146,0.1135285273194313,-0.09413154423236847,-0.47449254989624023,-0.18522697687149048,0.02015938051044941,0.0350680910050869,0.04587299004197121,-0.07930517196655273,-0.02868148498237133,-0.2506064176559448,0.04371393099427223,0.37927550077438354,-0.09389375895261765,0.17808550596237183,-0.3378591537475586,0.08040300011634827,0.0595836341381073,-0.10925421863794327,-0.30506595969200134,-0.6987938284873962,0.013441063463687897,-0.35673463344573975,0.26399797201156616,0.3165671229362488,-0.41464361548423767,0.08915208280086517,-0.4598110318183899,-0.8539710640907288,1.0157890319824219,0.2899203598499298,0.32838109135627747,0.22592653334140778,-0.16874079406261444,-0.03968698903918266,0.05604810640215874,0.018545014783740044,-0.17895209789276123,-0.06754035502672195,0.003209443995729089,0.193498894572258,0.36062341928482056,-0.011616409756243229,0.07847591489553452,0.11038247495889664,-0.15410174429416656,0.11341719329357147,0.40763798356056213,-0.14688807725906372,-0.08879024535417557,-0.03687778487801552,0.004116946365684271,0.08342299610376358,0.3954329788684845,-0.026959946379065514,-0.2709141671657562,-0.004011840559542179,0.019753869622945786,-0.004884249065071344,-0.4127142131328583,0.03659207746386528,0.1935482621192932,-0.052802130579948425,-0.005056694615632296,-0.016358423978090286,-0.41815197467803955,0.11550416797399521,0.06955017894506454,0.04575777426362038,0.018947524949908257,-0.07529599219560623,-0.36600613594055176,-0.028913268819451332,0.2899083197116852,0.016133854165673256,0.016536837443709373,-0.055550724267959595,0.5379722714424133,0.010215742513537407,-0.19444355368614197,0.04854605719447136,-0.019751543179154396,0.046271584928035736,0.3222717344760895,0.376689612865448,0.11733921617269516,0.09823818504810333,-0.14124780893325806,0.49771934747695923,-0.5297561883926392,0.2083924412727356,-0.667973518371582,0.723341166973114,-0.12609222531318665,-0.34882301092147827,0.38877078890800476,0.06379877030849457,-0.0350673608481884,0.38503754138946533,-0.37170493602752686,-0.8000348806381226,0.9342993497848511,0.10397797077894211,-0.1190422996878624,-0.035936418920755386,-0.2844967842102051,-0.1169891357421875,0.48785075545310974,0.09353483468294144,0.08167669177055359,-0.02134336158633232,-0.2126847505569458,-0.2344980537891388,0.3126148283481598,-0.0028668586164712906,0.009880096651613712,-0.04135431721806526,-0.475827157497406,-0.10061334073543549,0.560093879699707,0.009856786578893661,0.11874829232692719,0.08179361373186111,0.5519726276397705,-0.10014362633228302,-0.7191105484962463,-0.12138140946626663,-0.06112620607018471,0.07398533076047897,0.35662081837654114,0.2015862762928009,-0.4693605303764343,-0.10857030749320984,0.12003638595342636,0.15863054990768433,0.5263990163803101,0.3875298798084259,-1.0118350982666016,0.07955518364906311,-0.09052015095949173,-0.03238890692591667,-0.09185666590929031,0.03648656979203224,0.12281724065542221,0.020001403987407684,0.025752343237400055,-0.30766263604164124,0.059864167124032974,-0.04234582930803299,-0.15023227035999298,0.09398406744003296,0.18790942430496216,0.01892220228910446,0.12788280844688416,-0.014129900373518467,-0.22482727468013763,0.051984354853630066,-0.5853941440582275,0.1520281881093979,-0.27083417773246765,0.10178572684526443,0.2944948077201843,0.34320002794265747,-0.3795962929725647,-0.3336608111858368,0.839503288269043,-0.47988778352737427,-0.057797934859991074,0.570978581905365,-0.647639274597168,-0.29567328095436096,-0.16400109231472015,-0.7347370982170105,0.475828617811203,0.06522058695554733,-0.06873311847448349,0.18633422255516052,-0.21058298647403717,-0.22561587393283844,0.29275745153427124,-0.10664632171392441,-0.01383555494248867,0.08359624445438385,-0.2482936829328537,-0.4776136577129364,0.5392530560493469,-0.09771628677845001,0.10312893241643906,-0.10992103070020676,-0.2067478448152542,-0.6011815667152405,0.8809196949005127,-0.032722409814596176,-0.022959960624575615,-0.1809258759021759,-0.05985834077000618,-0.051093924790620804,-0.5794203281402588,0.08321032673120499,-0.02064659260213375,0.09703802317380905,0.16301600635051727,-0.0500311516225338,-0.23686479032039642,0.022007744759321213,0.0866294652223587,0.033411335200071335,0.04554666951298714,-0.1202068105340004,-0.5388221144676208,-0.03269602358341217,-0.3175223767757416,-0.28950440883636475,0.07848447561264038,-0.22830671072006226,-0.05873635783791542,0.026938874274492264,0.14139895141124725,0.10960067063570023,-0.1715894490480423,0.13762924075126648,-0.12145726382732391,0.5145922303199768,0.02958478219807148,-0.09619823843240738,-0.008330773562192917,0.06794263422489166,-0.036644887179136276,0.13732565939426422,-0.0014278257731348276,0.5590116381645203,-0.09673821181058884,0.09445281326770782,0.1330408751964569,0.29375407099723816,-0.2958188056945801,0.1329861879348755,-0.025197338312864304,-0.10244593769311905,-0.03915216401219368,0.3149567246437073,-0.16910570859909058,0.2735387980937958,-0.514415442943573,-0.6822869777679443,0.9089522361755371,0.15316468477249146,0.14165657758712769,0.019076259806752205,0.1560066193342209,-0.04668136313557625,0.5641514658927917,-0.1290259212255478,-0.02462129108607769,-0.2460339069366455,-0.07229362428188324,0.26239949464797974,0.5131853818893433,-0.29096952080726624,0.053879380226135254,-0.14906907081604004,-0.21330974996089935,-0.21146325767040253,0.2059842199087143,0.12631474435329437,0.11650867760181427,0.14053060114383698,0.30296751856803894,0.41124454140663147,-0.16110025346279144,-0.1826780140399933,-0.3185301423072815,-0.18725700676441193,-0.2971317172050476,-0.4231785833835602,-0.1448751538991928,0.10708163678646088,-0.05966973677277565,0.045610636472702026,0.002166800433769822,0.14452604949474335,-0.33962514996528625,-0.1120089739561081,-0.09840202331542969,0.05590437352657318,-0.12368032336235046,0.091145820915699,-0.06730998307466507,-0.16467450559139252,-0.0026868090499192476,-0.2797199785709381,-0.023647213354706764,-0.2879822850227356,-0.49105629324913025,0.2819136083126068,0.04999631270766258,0.33362504839897156,0.07365384697914124,0.275068461894989,-0.03630424290895462,-0.13485409319400787,0.1212497279047966,0.46313169598579407,-0.10001258552074432,0.1933450847864151,0.4115738272666931,0.022442027926445007,0.08616417646408081,-0.2426961213350296,0.074820876121521,-0.30021464824676514,-0.4421919286251068,-0.06678137928247452,-0.1009010598063469,0.3729749023914337,0.19674977660179138,-0.1355876475572586,0.2642858028411865,0.17236150801181793,0.13030865788459778,0.11767005175352097,0.26264527440071106,0.15534912049770355,0.5293862223625183,-0.1926153004169464,-0.3150462210178375,-0.31346213817596436,-0.24791906774044037,-0.41966843605041504,0.4040888547897339,0.09979777038097382,0.1692456603050232,0.011680085211992264,-0.11258341372013092,0.1541292518377304,0.43191519379615784,-0.26572102308273315,-0.3204858899116516,-0.15877610445022583,-0.00847776047885418,-0.1025904193520546,-0.2616230249404907,0.009204225614666939,0.1453780084848404,0.14456896483898163,0.13906343281269073,0.3987067639827728,-0.17202228307724,0.03601270169019699,0.008971075527369976,0.06799449771642685,0.003392019309103489,0.14825928211212158,-0.4874687194824219,-0.18540434539318085,-0.24920637905597687,-0.199549600481987,-0.14686131477355957,0.16294902563095093,0.19766676425933838,0.10647083073854446,0.04027658700942993,-0.020898427814245224,-0.018688630312681198,0.09848093241453171,-0.4230010509490967,-0.022724613547325134,0.07619839906692505,0.06355982273817062,0.002016561571508646,0.07923703640699387,-0.040696144104003906,0.13221019506454468,-0.015425954014062881,0.0799260139465332,-0.01967126876115799,-0.029831694439053535,0.0836658850312233,-0.029878759756684303,-0.05094829201698303,-0.15889938175678253,-0.4466331899166107,0.08743074536323547,-0.000493317493237555,-0.005333704873919487,0.13708342611789703,-0.07100909948348999,-0.10730596631765366,-0.1044028103351593,0.32435986399650574,-0.026479603722691536,-0.10127271711826324,-0.04043595492839813,0.045492127537727356,-0.31212514638900757,0.2506139874458313,-0.007222453132271767,-0.12525586783885956,-0.17304278910160065,-0.21074733138084412,0.3153901696205139,0.2844012677669525,-0.16778630018234253,-0.0737886130809784,-0.24971310794353485,-0.18067826330661774,-0.07318073511123657,0.08509611338376999,0.01867685839533806,0.06376562267541885,0.1820344775915146,0.06476763635873795,0.28566738963127136,-0.32240331172943115,-0.006348884664475918,0.05070308595895767,0.14531493186950684,0.16742196679115295,-0.2104923576116562,-0.24208390712738037,0.09784350544214249,0.0767931193113327,-0.0005015454953536391,-0.018607977777719498,-0.04307946190237999,0.14188291132450104,0.07534538954496384,0.12638677656650543,0.3052949905395508,0.42341890931129456,0.1370476633310318,0.17048902809619904,0.8688993453979492,0.2608147859573364,0.08631277829408646,-0.2710611820220947,-0.11065937578678131,-0.3501233756542206,-0.4939849078655243,-0.1684572696685791,-0.2872428894042969,-0.3630824387073517,-0.5969052910804749,-0.025131788104772568,0.12965860962867737,0.28563857078552246,-0.20362187922000885,0.10953032225370407,0.30922067165374756,0.027800118550658226,-0.4306246042251587,0.16664093732833862,-0.36543887853622437,0.06179123371839523,-0.16402024030685425,0.7925751209259033,0.23732468485832214,-0.4292309582233429,-0.519353985786438,-0.017130887135863304,-0.07277503609657288,1.1212060451507568,0.06204655393958092,0.12213640660047531,0.21184486150741577,-0.04588613286614418,-0.22223228216171265,-0.10578416287899017,0.014111186377704144,0.07098866254091263,0.060825567692518234,0.04699239134788513,0.26131126284599304,0.3960001766681671,0.014825108461081982,0.011122796684503555,-0.2209327220916748,-0.1283816695213318,-0.05556735768914223,0.975939154624939,-0.1742323786020279,-0.2912338078022003,-0.24165207147598267,0.048271797597408295,0.21386395394802094,-0.36497223377227783,-0.03506002202630043,-0.05957398936152458,-0.09708377718925476,-0.03732903674244881,-0.04008621349930763,-0.324863463640213,0.1420031040906906,0.19563636183738708,0.3037114441394806,0.27262619137763977,-0.05905576050281525,0.06470809876918793,0.08591160178184509,0.01017630472779274,-0.1845763623714447,-0.18886831402778625,0.05545610561966896,-0.04658981040120125,0.011250965297222137,-0.02814369648694992,-0.03849353641271591,-0.026290833950042725,0.07965265214443207,-0.25803476572036743,-0.047972872853279114,-0.014990807510912418,0.17950844764709473,0.14483840763568878,-0.16069476306438446,0.022263890132308006,-0.2977992594242096,0.29476597905158997,0.3467525541782379,-0.09755884855985641,-0.11919514834880829,0.48294344544410706,0.06071923300623894,0.5584717988967896,-0.26561200618743896,0.08438093215227127,-0.07860132306814194,-0.5974228382110596,0.06643211096525192,-0.4026120603084564,-0.38234129548072815,-0.13997597992420197,-0.2059439718723297,0.858453631401062,-0.03491230681538582,-0.10545965284109116,-0.2008989453315735,0.16066807508468628,0.07213985919952393,0.5076042413711548,-0.05964832007884979,0.09897199273109436,-0.1322026550769806,0.04916878417134285,-0.1291598528623581,-0.06578788161277771,0.10309862345457077,-0.13123734295368195,0.12168332934379578,0.026145830750465393,-0.06903122365474701,0.3056880235671997,0.14984743297100067,0.09217669814825058,0.14861448109149933,-0.04628060758113861,-0.05026545375585556,0.08171515166759491,0.17303559184074402,0.06042749434709549,0.22600840032100677,0.03543705865740776,0.3729000389575958,0.03813429921865463,-0.11699841916561127,-0.05826709419488907,-0.2573989927768707,0.013329659588634968,-0.17650511860847473,-0.6031138896942139,0.04653842747211456,-0.004805398639291525,0.1054561510682106,-0.11290261149406433,-0.4088488221168518,0.24956786632537842,0.047733161598443985,0.11100468784570694,0.005101623944938183,-0.05551934987306595,0.08508247882127762,-0.4402620792388916,-0.04727843403816223,-0.03448348864912987,0.004262248519808054,0.07605034112930298,0.17993518710136414,-0.20915384590625763,0.3337046205997467,-0.21346330642700195,0.07279987633228302,-0.1293126940727234,-0.05131277069449425,0.09477215260267258,-0.4450662136077881,-0.46857184171676636,0.12369108200073242,0.23871979117393494,0.484708309173584,-0.390403687953949,0.029153207316994667,-0.25261226296424866,-0.1622811257839203,0.29062339663505554,-0.327444851398468,0.4545497000217438,0.03150981664657593,-0.12167251110076904,0.11044446378946304,-0.116773821413517,-0.16475871205329895,0.0058307708241045475,-0.19570161402225494,0.120414137840271,0.1557239294052124,-0.19727900624275208,-0.10873264074325562,0.05771581083536148,-0.17337577044963837,-0.015024303458631039,1.0161428451538086,-0.07942987233400345,-0.04983336105942726,-0.027893735095858574,0.13887736201286316,0.07623909413814545,-0.03707528114318848,0.015165048651397228,0.08705607056617737,-0.10564307868480682,-0.09351245313882828,0.05399518460035324,0.21513350307941437,-0.2012428492307663,0.11236917972564697,0.7800235748291016,-0.05627758428454399,0.218788743019104,0.03452092781662941,0.06149580702185631,-0.06442330777645111,-0.07573572546243668,-0.09089252352714539,-0.10747148096561432,-0.05470757931470871,-0.24098289012908936,-0.047192610800266266,-0.01818525232374668,-0.7333548665046692,-0.15161316096782684,1.1481645107269287,-0.1188570037484169,0.06519563496112823,-0.11189349740743637,-0.026294730603694916,-0.029153572395443916,-0.06508104503154755,-0.07534144818782806,-0.11373986303806305,-0.11867675185203552,0.028752850368618965,-0.10903573036193848,-0.14586226642131805,-0.19341081380844116,-0.174030140042305,-0.48790961503982544,-0.23361584544181824,-0.018322553485631943,-0.12795588374137878,0.015087131410837173,-0.09876274317502975,-0.09965645521879196,0.011658713221549988,-0.21908292174339294,-0.1955837607383728,-0.07103323936462402,-0.19871193170547485,-0.17088726162910461,-0.1967698484659195,-0.11994540691375732,-0.2785819470882416,0.32089221477508545,0.1960737705230713,0.25555482506752014,0.3382749855518341,0.23436905443668365,0.25793254375457764,0.15654385089874268,0.20223061740398407,0.25960320234298706,0.17726583778858185,0.3124041259288788,0.2054612785577774,0.25126078724861145,0.11672166734933853,-0.1635238230228424,0.14304913580417633,0.033664118498563766,0.05828576534986496,-0.013784392736852169,-0.01518773753196001,-0.05926346406340599,-0.008298142813146114,0.2449950873851776,0.23322910070419312,0.0495329312980175,-0.12282869219779968,-0.06836626678705215,-0.04383161664009094,-0.005166785791516304,0.03139965981245041,0.11694242805242538,0.046813737601041794,-0.017907021567225456,0.03046013042330742,0.10465089231729507,-0.07362350076436996,-0.014961435459554195,0.02893202193081379,0.24188971519470215,0.03252493217587471,-0.08205093443393707,0.042966458946466446,-0.030833972617983818,-0.08757072687149048,0.04531734064221382,-0.08970261365175247,-0.11795183271169662,-0.09588056057691574,-0.15810732543468475,-0.13371159136295319,-0.11419631540775299,-0.059415701776742935,0.10898253321647644,0.2481529414653778,-0.05064631998538971,-0.06880482286214828,-0.12930825352668762,0.17857488989830017,-0.02317485585808754,0.06358523666858673,-0.013081430457532406,0.3446624279022217,-0.0557234100997448,-0.0882595032453537,0.5762462019920349,0.015102837234735489,-0.048780184239149094,0.3274647295475006,-0.04384385794401169,0.3693596124649048,0.6271999478340149,-0.4418434202671051,0.7400369048118591,-0.3762315511703491,0.31503793597221375,0.31091585755348206,-0.5265140533447266,0.223639115691185,-0.31364476680755615,-0.1573902666568756,0.0418485626578331,0.0874333381652832,0.13095517456531525,0.1459953933954239,-0.01762131042778492,0.08858983963727951,-0.007652061525732279,-0.01641182415187359,0.0029257957357913256,-0.05104166269302368,-0.09300455451011658,0.015414634719491005,0.2358521819114685,-0.08199974149465561,-0.1566402167081833,-0.30736422538757324,-0.3663550317287445,-0.4139113128185272,-0.19355614483356476,-0.14400729537010193,-0.1102759838104248,-0.07139749825000763,-0.05858858302235603,0.03966677561402321,-0.02716646157205105,-0.005069022532552481,0.1063816025853157,0.13194763660430908,0.03533553332090378,0.10425498336553574,0.09250814467668533,0.1471509039402008,0.08068535476922989,0.020841456949710846,-0.07409779727458954,-0.08521734178066254,0.13382765650749207,-0.02384375035762787,-0.09421350806951523,0.019263748079538345,-0.17004001140594482,0.33957624435424805,0.7021595239639282,0.07665249705314636,0.09744817018508911,0.2445676326751709,0.24333178997039795,0.24023878574371338,0.1492026150226593,0.09910159558057785,-0.0038054485339671373,-0.0327984094619751,0.004940756130963564,0.0017618293641135097,-0.13579195737838745,-0.22125552594661713,-0.26444128155708313,-0.13442344963550568,0.06896145641803741,0.1398058831691742,-0.2083931267261505,-0.17539441585540771,-0.012840966694056988,0.009601777419447899,0.07242318987846375,0.09158023446798325,0.2515968382358551,0.2668992877006531,0.12869064509868622,0.07956112176179886,0.16813915967941284,-0.03426625207066536,-0.18555112183094025,-0.002030543517321348,-0.05265432223677635,0.09288711100816727,0.03749899938702583,-0.08772178739309311,-0.16557180881500244,-0.1299654096364975,-0.12711316347122192,-0.2497957944869995,-0.301310271024704,-0.17835406959056854,-0.008015567436814308,-0.20618686079978943,-0.08707931637763977,-0.19829538464546204,0.13781899213790894,0.022504422813653946,0.06682536751031876,0.028803320601582527,0.08842279762029648,-0.03787649795413017,0.15530849993228912,-0.11469132453203201,0.034943968057632446,-0.020486844703555107,-0.10914430022239685,-0.0755254402756691,-0.1841341108083725,0.15287379920482635,-0.22782807052135468,0.20125150680541992,0.24904650449752808,0.23135878145694733,0.34090542793273926,0.4238748252391815,0.28458017110824585,0.1949453055858612,0.22782117128372192,0.11862627416849136,0.051113616675138474,-0.025827834382653236,-0.02948671765625477,-0.04468729346990585,-0.05873746797442436,-0.1618252992630005,-0.0402316153049469,-0.10189314186573029,-0.06261466443538666,-0.12433917075395584,-0.1181931272149086,-0.09835202246904373,0.02712768130004406,0.007212809752672911,-0.18696969747543335,0.005885254126042128,0.06372212618589401,-0.01903628744184971,0.10545258969068527,-0.3618089556694031,-0.47830092906951904,0.07867061346769333,0.37679141759872437,0.05833940580487251,0.04419468715786934,0.00547821307554841,0.11804764717817307,0.2619559168815613,0.4560225307941437,-0.32129451632499695,0.25704291462898254,0.132732093334198,-0.3518799841403961,-0.13971878588199615,0.18610453605651855,0.14244797825813293,0.2539721131324768,0.06383964419364929,-0.10000422596931458,0.19648990035057068,-0.1086498573422432,0.2113211750984192,0.19850054383277893,0.18368473649024963,0.08398661762475967,-0.25100967288017273,-0.2255585640668869,-0.08866354823112488,-0.034318264573812485,0.08103358745574951,0.48853325843811035,-0.17235125601291656,0.2689116895198822,0.031245028600096703,-0.11912143975496292,-0.1648440659046173,0.29615747928619385,0.09546461701393127,-0.0003400877467356622,0.05735323950648308,0.2071247398853302,-0.06589122861623764,-0.27449673414230347,0.1319175660610199,0.15167520940303802,0.0909041315317154,0.1854173094034195,0.023392975330352783,-0.2807443141937256,-0.09171982109546661,-0.029843492433428764,-0.06845837831497192,-0.12775637209415436,-0.0632975772023201,-0.22190940380096436,0.055937282741069794,0.1582750529050827,0.07777058333158493,-0.0022350389044731855,0.13987022638320923,-0.46175679564476013,0.10725364089012146,0.042133644223213196,0.10100320726633072,0.14770478010177612,0.04069718345999718,-0.4682355523109436,0.10494076460599899,0.02130262926220894,0.0018420888809487224,0.4557560086250305,0.14295080304145813,-0.6392703056335449,0.05381999537348747,0.2606196701526642,0.03982095420360565,-0.13811981678009033,0.027689725160598755,0.10793941468000412,-0.11151342839002609,0.5199878215789795,0.032469745725393295,-0.5663315653800964,0.37472137808799744,-0.20552940666675568,0.15276001393795013,-0.09153449535369873,-0.9606415033340454,0.2529135048389435,0.06009771302342415,0.7530530095100403,0.20950429141521454,0.0031495627481490374,0.06387461721897125,0.20534110069274902,0.01463303528726101,0.4085681438446045,0.12647785246372223,-0.23732008039951324,-0.09829822927713394,-0.17056043446063995,-0.12205268442630768,0.22716675698757172,0.015912339091300964,0.02760213427245617,-0.013628073036670685,-0.10631944984197617,-0.09517289698123932,0.4039938151836395,-0.1727166771888733,0.11944837868213654,0.16426223516464233,0.11675771325826645,-0.028394684195518494,-0.11567150056362152,-0.054736409336328506,-0.04264369234442711,0.1007782444357872,0.3159478008747101,0.08006780594587326,-0.2332381010055542,-0.03558927774429321,-0.17447519302368164,0.07040083408355713,0.4025785028934479,0.4882320761680603,-1.6580744981765747,-0.19342273473739624,0.01750478334724903,0.018762947991490364,-0.06313635408878326,-0.10291467607021332,-0.08154457062482834,0.04889734089374542,0.0975518450140953,-0.05994783341884613,0.08911659568548203,0.029440121725201607,-0.4052044451236725,0.03829982504248619,-0.0645086020231247,0.07025708258152008,0.15463456511497498,0.0925452932715416,-0.16924011707305908,0.14000430703163147,0.1297874003648758,-0.024726450443267822,-0.14199404418468475,0.021991247311234474,0.08700976520776749,0.49026650190353394,0.13945160806179047,0.022237204015254974,-0.3953168988227844,-0.1954955905675888,0.225777730345726,0.4719550609588623,0.06335650384426117,-0.5927293300628662,0.45342254638671875,0.24458974599838257,0.047199688851833344,0.13526183366775513,0.10613199323415756,0.2728757858276367,0.006159400101751089,-0.03723097965121269,0.10064184665679932,-0.04402558133006096,0.10518450289964676,0.1261352151632309,-0.20964595675468445,-0.011435379274189472,0.1312471181154251,-0.005652714986354113,0.021630093455314636,-0.17890378832817078,0.027332158759236336,-0.15455767512321472,0.11743323504924774,0.13335847854614258,0.15577802062034607,-0.09104827046394348,0.08797349780797958,-0.019404226914048195,0.06832733750343323,0.3645067512989044,0.33730387687683105,0.2695234715938568,0.19309572875499725,-0.22551535069942474,-0.5917932391166687,0.09840144217014313,-0.08288910984992981,-0.005515575874596834,0.014802305027842522,0.26014700531959534,-1.332106590270996,-0.14646492898464203,-0.21224039793014526,-0.1622503101825714,-0.12260174751281738,-0.06810160726308823,-0.2756000757217407,0.323324978351593,0.12987957894802094,0.13491399586200714,0.0699138268828392,0.019790736958384514,-0.3229333758354187,-0.058391738682985306,-0.27868756651878357,0.024501360952854156,-0.27425411343574524,-0.028220921754837036,-0.29350313544273376,0.08499462157487869,-0.17711995542049408,0.030973684042692184,-0.049655891954898834,-0.009558652527630329,0.012555962428450584,-0.13391129672527313,-0.21155516803264618,0.13609030842781067,0.04388079792261124,0.28877338767051697,0.18400591611862183,-0.1883620321750641,0.38779422640800476,0.37411147356033325,0.9320598244667053,-0.19434714317321777,0.29018932580947876,-0.5542096495628357,-0.6019243001937866,-0.5749648213386536,-0.6447159051895142,-0.7175485491752625,-0.7237010598182678,1.2123806476593018,0.09040401875972748,-0.5119578242301941,-0.4999021887779236,-0.12559376657009125,0.4430839717388153,0.30266597867012024,0.21319878101348877,-0.000619169557467103,0.04320930317044258,0.3766583204269409,0.3046687841415405,0.15650108456611633,0.04111666977405548,0.10009906440973282,0.030491169542074203,0.20495975017547607,-0.060680970549583435,0.0718260258436203,-0.3791593611240387,0.017304781824350357,0.3216376006603241,0.473275363445282,-0.7341846823692322,0.21460534632205963,0.24983930587768555,0.1876421719789505,0.11984588205814362,0.34822776913642883,-0.34691503643989563,0.15568016469478607,0.11058039218187332,-0.009430816397070885,0.11169961839914322,-0.049089692533016205,-0.016004983335733414,-0.04487309977412224,-0.17715083062648773,-0.30737560987472534,-0.15656739473342896,-0.17118710279464722,0.0562729611992836,-0.040435053408145905,-0.0028371154330670834,0.008809278719127178,0.09161268174648285,0.27638915181159973,0.422945499420166,-0.13959567248821259,0.32474666833877563,0.45496615767478943,-0.08889084309339523,0.1092991828918457,0.12453155964612961,0.027936045080423355,0.19424253702163696,0.11732418090105057,-0.1841583400964737,0.48773881793022156,-0.5362967252731323,0.6386846303939819,-0.0066064149141311646,-0.7684419751167297,0.3696378767490387,0.12743094563484192,-0.1564616858959198,0.00704833772033453,0.006303764879703522,0.22535324096679688,0.3092801570892334,0.18073545396327972,0.2865251898765564,0.006510714069008827,-0.2717379629611969,-0.35834819078445435,-0.1462942212820053,0.07151298969984055,-0.08603275567293167,-0.10648743063211441,-0.12240906059741974,-0.1872938573360443,-0.3187778890132904,-0.11711293458938599,0.13022761046886444,0.19635839760303497,0.2596176564693451,0.15074422955513,0.2876329720020294,-0.07389938086271286,-0.045891135931015015,0.10477784276008606,0.2075660675764084,0.14229431748390198,0.10356102138757706,-0.21896851062774658,-0.03882300481200218,-0.033399153500795364,0.024614740163087845,0.014804234728217125,-0.018544837832450867,-0.08134360611438751,-0.3621681332588196,0.07692429423332214,-0.1861572563648224,0.03987604379653931,0.022454537451267242,0.1263018250465393,0.3739975094795227,0.18673565983772278,0.22092300653457642,0.18831144273281097,0.12395845353603363,0.21184080839157104,-0.09266700595617294,0.09871579706668854,0.04037240892648697,0.1002577394247055,-0.012769708409905434,0.17297963798046112,-0.36933836340904236,0.10956751555204391,0.2664034962654114,0.2560337781906128,-0.06405103206634521,0.043250445276498795,0.047807518392801285,0.1220683604478836,0.045097559690475464,-0.1365320086479187,-0.08662820607423782,-0.2155236303806305,0.5299554467201233,-0.2156568020582199,0.15220336616039276,0.5077086687088013,0.27477535605430603,-0.39441853761672974,-0.294686883687973,-0.008659787476062775,-0.07418790459632874,-0.1313922107219696,-0.41714420914649963,-0.139585480093956,-0.0988173633813858,-0.047568704932928085,-0.12836429476737976,-0.1945195198059082,-0.12004370242357254,-0.10039077699184418,-0.06844312697649002,0.012869231402873993,-0.06851951777935028,-0.024082530289888382,0.07318903505802155,-0.12577734887599945,-0.2720498740673065,-0.07384555041790009,0.0420989915728569,0.2185334861278534,0.23970550298690796,-0.35584354400634766,-0.6543750762939453,0.22648636996746063,-0.07322604209184647,-0.04790500923991203,0.08493120968341827,-0.12252627313137054,0.4718778133392334,0.36067959666252136,-0.001859390176832676,-0.08353475481271744,-0.03074115887284279,0.19497919082641602,0.0814477801322937,0.2056618183851242,0.057708416134119034,0.06507126986980438,0.11746454238891602,0.017574477940797806,0.04974660277366638,-0.1820274144411087,-0.2898394465446472,-0.24754451215267181,0.014407875016331673,0.45587655901908875,-0.5394260883331299,-0.14301390945911407,-0.13175350427627563,-0.3626921772956848,-0.2272978127002716,0.21323789656162262,-0.16610251367092133,0.01877051219344139,0.005552852526307106,0.21659429371356964,-0.04882286116480827,0.013468034565448761,0.022574618458747864,-0.13668453693389893,0.44561848044395447,0.04989698529243469,0.2852781414985657,0.10544051229953766,0.4869910180568695,0.29968202114105225,0.3169027864933014,0.3848608136177063,-0.10589245706796646,-0.027942810207605362,-0.26082727313041687,-0.15624898672103882,-0.07568489760160446,-0.06116395443677902,-0.06270713359117508,-0.019323062151670456,-0.25991401076316833,-0.057139649987220764,-0.05771550163626671,-0.05418238788843155,-0.1255592256784439,-0.06285351514816284,-0.1642782986164093,-0.08341005444526672,-0.11990142613649368,-0.10958980768918991,-0.0750124603509903,-0.10140146315097809,0.41561469435691833,-0.016742734238505363,0.03982545807957649,0.08888265490531921,-0.008556569926440716,0.18593370914459229,-0.11327887326478958,-0.1078985407948494,-0.1550842672586441,-0.09000186622142792,-0.12895533442497253,-0.04085991904139519,-0.05954809486865997,-0.13805201649665833,0.001470654970034957,-0.13861198723316193,-0.02929142862558365,-0.08974925428628922,-0.012704304419457912,-0.11419382691383362,0.00036404526326805353,0.03738178312778473,0.09361381828784943,0.21690554916858673,-0.08490554988384247,-0.040477730333805084,-0.1391843557357788,-0.16421093046665192,-0.14476905763149261,-0.045579276978969574,-0.06340453773736954,-0.044648051261901855,-0.14160798490047455,-0.11701745539903641,-0.07722309231758118,-0.03135481849312782,0.06141926348209381,-0.07401014119386673,0.08128786832094193,0.03559598699212074,-0.049955353140830994,0.052406806498765945,0.03632976859807968,-8.552825177006521e-39,-7.415174012252097e-39,-1.8383715828788206e-38,-8.011918364583284e-39,1.789494012183478e-38,4.30968221664326e-39,-1.5253091745221704e-38,1.4779398213639807e-38,1.2219713571183951e-38,6.387167445838768e-39,1.6356923972838113e-38,1.6473036964890532e-38,-0.001069216406904161,-0.002937314100563526,-0.0051805549301207066,-0.007399286609143019,-0.009226301684975624,-0.010477866977453232,-0.011256679892539978,-0.011729548685252666,-0.012083377689123154,-0.012427814304828644,-0.012667740695178509,-0.012316831387579441,-0.011107821948826313,-0.009033281356096268,-0.006161110941320658,-0.0029122133273631334,3.8418136682594195e-05,0.0003808635810855776,0.001080328831449151,0.0019148787250742316,0.002545917173847556,0.002991841174662113,0.0033603308256715536,0.0035643023438751698,0.003862244775518775,0.004345066379755735,0.004913783632218838,0.0055012935772538185,0.005565384402871132,0.005211932118982077,0.004132716916501522,0.0021332751493901014,0.0010127929272130132,0.0025725578889250755,0.004372656811028719,0.00614470150321722,0.007520964834839106,0.008367207832634449,0.008786323480308056,0.0088412556797266,0.008732748217880726,0.008530623279511929,0.00816928781569004,0.007510361727327108,0.006341082043945789,0.004768313840031624,0.0029139940161257982,0.0012335196370258927,0.1214817687869072,0.008547182194888592],"sample_rate":48000.0}},{"max_value":1.0,"model":{"version":"0.7.0","metadata":{"date":{"year":2026,"month":5,"day":8,"hour":4,"minute":43,"second":27},"loudness":-14.033440589904785,"gain":0.066234659747625},"architecture":"WaveNet","config":{"layers":[{"input_size":1,"condition_size":1,"head":{"out_channels":1,"kernel_size":16,"bias":true},"channels":8,"kernel_sizes":[6,6,6,6,6,6,6,6,6,6,6,6,6,6,15,15,6,6,6,6,6,6,6],"dilations":[1,3,7,17,41,101,239,1,3,7,17,41,101,239,1,13,1,3,7,17,41,101,239],"activation":[{"type":"LeakyReLU","negative_slope":0.01},{"type":"LeakyReLU","negative_slope":0.01},{"type":"LeakyReLU","negative_slope":0.01},{"type":"LeakyReLU","negative_slope":0.01},{"type":"LeakyReLU","negative_slope":0.01},{"type":"LeakyReLU","negative_slope":0.01},{"type":"LeakyReLU","negative_slope":0.01},{"type":"LeakyReLU","negative_slope":0.01},{"type":"LeakyReLU","negative_slope":0.01},{"type":"LeakyReLU","negative_slope":0.01},{"type":"LeakyReLU","negative_slope":0.01},{"type":"LeakyReLU","negative_slope":0.01},{"type":"LeakyReLU","negative_slope":0.01},{"type":"LeakyReLU","negative_slope":0.01},{"type":"LeakyReLU","negative_slope":0.01},{"type":"LeakyReLU","negative_slope":0.01},{"type":"LeakyReLU","negative_slope":0.01},{"type":"LeakyReLU","negative_slope":0.01},{"type":"LeakyReLU","negative_slope":0.01},{"type":"LeakyReLU","negative_slope":0.01},{"type":"LeakyReLU","negative_slope":0.01},{"type":"LeakyReLU","negative_slope":0.01},{"type":"LeakyReLU","negative_slope":0.01}],"bottleneck":8,"head1x1":{"active":false,"out_channels":1,"groups":1},"layer1x1":{"active":true,"groups":1},"groups_input":1,"groups_input_mixin":1,"conv_pre_film":{"active":false,"shift":true,"groups":1},"conv_post_film":{"active":false,"shift":true,"groups":1},"input_mixin_pre_film":{"active":false,"shift":true,"groups":1},"input_mixin_post_film":{"active":false,"shift":true,"groups":1},"activation_pre_film":{"active":false,"shift":true,"groups":1},"activation_post_film":{"active":false,"shift":true,"groups":1},"layer1x1_post_film":{"active":false,"shift":true,"groups":1},"head1x1_post_film":{"active":false,"shift":true,"groups":1},"gating_mode":["none","none","none","none","none","none","none","none","none","none","none","none","none","none","none","none","none","none","none","none","none","none","none"],"secondary_activation":[null,null,null,null,null,null,null,null,null,null,null,null,null,null,null,null,null,null,null,null,null,null,null],"slimmable":null}],"head":null,"head_scale":0.008547182252166344},"weights":[-1.6373218297958374,-1.014203667640686,-1.0319501161575317,-1.014784574508667,1.6084290742874146,1.2023805379867554,-0.3765471577644348,0.7374790906906128,0.19027414917945862,0.10050178319215775,0.07043962180614471,0.3668752610683441,0.3301697373390198,-0.13520096242427826,0.06366917490959167,0.09367954730987549,0.09069819003343582,0.22709885239601135,0.22435514628887177,-0.02017049305140972,0.04951339587569237,0.16785186529159546,0.10339444130659103,0.24074043333530426,0.23980048298835754,-0.017829744145274162,0.087625652551651,0.1052539274096489,0.14393725991249084,0.24024993181228638,0.17961522936820984,-0.005700662732124329,-0.06440413743257523,-0.1682133972644806,-0.07596371322870255,-0.2550969421863556,-0.19567877054214478,0.014220047742128372,-0.09932626038789749,-0.16796773672103882,-0.17192372679710388,-0.3131383955478668,-0.1728145033121109,0.10265163332223892,0.042077478021383286,0.05643326789140701,0.060571130365133286,0.08709368109703064,0.11413825303316116,0.031143005937337875,-0.07448648661375046,-0.07350225001573563,-0.09981822222471237,-0.14927177131175995,-0.17982697486877441,-0.024098239839076996,0.0362798236310482,-0.0983821377158165,-0.20712554454803467,-0.457893967628479,-0.2591315507888794,0.811000645160675,0.022796399891376495,-0.050587933510541916,-0.18754169344902039,-0.34415823221206665,-0.15085835754871368,0.7907673716545105,-0.007925795391201973,-0.03030262514948845,-0.14332391321659088,-0.2861460745334625,-0.14834266901016235,0.7645376920700073,-0.03804066777229309,-0.13681498169898987,-0.1884661763906479,-0.3027256727218628,-0.23993630707263947,0.8057963848114014,0.05536552518606186,0.1255013644695282,0.2688314914703369,0.48333001136779785,0.19359156489372253,-0.8400892615318298,-0.04600667953491211,0.11314906179904938,0.1478884369134903,0.3724674880504608,0.2021578848361969,-0.9385724067687988,0.030776357278227806,-0.04117322340607643,-0.09449127316474915,-0.16883039474487305,-0.14528825879096985,0.4429176151752472,-0.04217543825507164,0.04329909384250641,0.16274341940879822,0.30010151863098145,0.22042587399482727,-0.7252384424209595,-0.08165141195058823,0.014142940752208233,0.10238859802484512,0.2802790105342865,0.2712104022502899,-0.5332737565040588,-0.061072491109371185,0.010015335865318775,0.15060146152973175,0.25730225443840027,0.15840385854244232,-0.49063509702682495,0.02453283593058586,0.02415628731250763,0.14097531139850616,0.29691827297210693,0.173862025141716,-0.5344117283821106,-0.014036163687705994,-0.010469195432960987,0.13165105879306793,0.3009011149406433,0.1465819776058197,-0.5813756585121155,0.08495397120714188,-0.123527891933918,-0.12164460867643356,-0.28903067111968994,-0.1410120576620102,0.48989346623420715,-0.04113052412867546,-0.06748396158218384,-0.09287542849779129,-0.35104620456695557,-0.17520694434642792,0.5057587623596191,-0.019462814554572105,0.02828427217900753,0.0964006558060646,0.10704421997070312,0.07165420800447464,-0.3099465072154999,-0.008485802449285984,-0.0830407664179802,-0.1574404239654541,-0.20719465613365173,-0.1415957361459732,0.4896373152732849,-0.0005198590806685388,-0.0004712784430012107,-0.0004550533776637167,-0.00047091624583117664,-0.0007128724828362465,-0.0010024504736065865,-0.0003637716290540993,-0.0003230146539863199,-0.0003029264335054904,-0.0003043300239369273,-0.00045198985026217997,-0.0006358087412081659,-0.0003673794853966683,-0.000322378909913823,-0.00030476957908831537,-0.00030515503021888435,-0.0004561765235848725,-0.0006441473960876465,-0.00036302462103776634,-0.000320481980452314,-0.000301399762975052,-0.00030338982469402254,-0.0004504865501075983,-0.0006358199752867222,0.0005145083996467292,0.0004641968116629869,0.000451602361863479,0.00046873162500560284,0.0007044801604934037,0.0009826746536418796,0.0004111102898605168,0.0003655581676866859,0.00034590400173328817,0.00035447318805381656,0.0005289884866215289,0.0007432032725773752,-0.0001592998596606776,-0.00013910561392549425,-0.00012850142957177013,-0.00012662389781326056,-0.00018222798826172948,-0.00025248658494092524,0.00028035417199134827,0.0002480548864696175,0.0002305764937773347,0.00023079535458236933,0.00033755693584680557,0.0004785561468452215,-0.011593409813940525,0.11041784286499023,0.07421135902404785,0.16152730584144592,0.19593919813632965,-0.4107700288295746,-0.011350908316671848,0.025522466748952866,0.05043603479862213,0.10750727355480194,0.14228792488574982,-0.33053645491600037,0.007781048770993948,0.02630404196679592,0.023355737328529358,0.05828119441866875,0.16369539499282837,-0.2750073969364166,0.01064015831798315,0.05872669816017151,0.04689137637615204,0.1259097009897232,0.15712983906269073,-0.31018686294555664,-0.061149515211582184,-0.1045895591378212,-0.0703493282198906,-0.10025633871555328,-0.201406329870224,0.42198285460472107,-0.02068350650370121,-0.03273823484778404,0.004937539808452129,-0.0823718011379242,-0.18709631264209747,0.3094925582408905,-0.010014655999839306,0.017923889681696892,0.02864549681544304,0.025239048525691032,0.05487050861120224,-0.1304478943347931,0.004907977767288685,-0.0339718833565712,-0.030617378652095795,-0.056026753038167953,-0.15607334673404694,0.2474532276391983,-0.006955524906516075,-0.06667318195104599,-0.03321085125207901,-0.19651255011558533,-0.23744192719459534,-0.06431150436401367,-0.023304348811507225,-0.039382267743349075,-0.034133825451135635,-0.09646521508693695,-0.11773449182510376,-0.0588855966925621,-0.026583131402730942,-0.01598423533141613,-0.06213729828596115,-0.10685878247022629,-0.09282268583774567,-0.07031745463609695,0.01005399227142334,-0.010781250894069672,-0.004150375258177519,-0.07895319163799286,-0.1438477486371994,-0.08979516476392746,-0.05447893217206001,-0.03039555810391903,0.07527459412813187,0.11508548259735107,0.24938571453094482,0.14687424898147583,0.009897065348923206,0.009478761814534664,0.013026800937950611,0.15352429449558258,0.08766068518161774,0.02206486463546753,-0.013922044076025486,-0.0210176520049572,-0.016675785183906555,-0.034297049045562744,-0.04515764117240906,-0.02330232970416546,-0.0027177222073078156,0.03599018603563309,0.03894171491265297,0.06631572544574738,0.0876319408416748,0.02561633288860321,-7.581753743579611e-05,-3.705990457092412e-05,-2.8270282200537622e-05,-6.509765080409124e-05,-0.0002139620337402448,-0.0006097404402680695,-3.523671330185607e-05,-1.5982030163286254e-05,-8.670698662172072e-06,-2.5257158995373175e-05,-0.00010918156476691365,-0.00034847023198381066,-3.179974009981379e-05,-1.1330243069096468e-05,-2.5438880584260914e-06,-2.385016341577284e-05,-0.00011828515562228858,-0.0003549801476765424,-3.6647437809733674e-05,-1.7648371795075946e-05,-1.0102651685883757e-05,-2.649017005751375e-05,-0.00011202939640497789,-0.00035069414298050106,8.403725223615766e-05,4.668773544835858e-05,3.752526026801206e-05,6.17830446572043e-05,0.00021004691370762885,0.0005926915328018367,4.140934470342472e-05,2.3609121853951365e-05,1.99524947674945e-05,3.4713331842795014e-05,0.00014561499119736254,0.0004218843241687864,-5.9409644563857e-06,-2.151651870008209e-06,-3.34221545017499e-06,-1.3091860637359787e-05,-4.662438732339069e-05,-0.0001304430334130302,1.271412202186184e-05,7.26282223695307e-06,3.958822162530851e-06,2.2561689547728747e-05,8.586117473896593e-05,0.00025502589414827526,-0.11323664337396622,-0.23734959959983826,-0.013758807443082333,-0.13131433725357056,-0.3454743027687073,-0.007290107198059559,-0.10819899290800095,-0.15122948586940765,-0.08905921876430511,-0.10239553451538086,-0.21048174798488617,-0.03626789152622223,-0.11565826833248138,-0.15682800114154816,-0.08187492936849594,-0.09892459958791733,-0.22417260706424713,-0.03547798842191696,-0.10727228224277496,-0.1565742790699005,-0.08414027839899063,-0.09579286724328995,-0.23533691465854645,-0.04260792210698128,0.09679541736841202,0.25247788429260254,0.07485243678092957,0.07695703208446503,0.39183515310287476,0.011613726615905762,0.10590241849422455,0.19920411705970764,0.044450774788856506,0.10623869299888611,0.3204125165939331,0.04897771403193474,-0.06108452007174492,-0.07392145693302155,-0.05752335116267204,-0.06235572323203087,-0.0837213397026062,-0.027918623760342598,0.09864338487386703,0.14479516446590424,0.08336896449327469,0.0893193781375885,0.194281667470932,0.028998861089348793,0.0257988590747118,0.2316088229417801,0.11181408911943436,-0.01684168353676796,-0.09921000897884369,0.20845407247543335,-0.01106635108590126,-0.025411482900381088,-0.19547300040721893,-1.1613126993179321,1.206363320350647,0.0006309368764050305,0.7979537844657898,0.5130569338798523,0.0003541290934663266,-0.05233156308531761,-0.1132037490606308,0.8520979285240173,-0.7125343680381775,0.00042385098640806973,-0.4980917274951935,-0.11019972711801529,0.00029174814699217677,0.03699498623609543,-0.12468718737363815,1.0040574073791504,-1.2107971906661987,0.00045452217455022037,-0.9006710648536682,0.07887078821659088,0.0004284763999748975,0.2007286697626114,-0.28584545850753784,0.4914819896221161,-0.32445988059043884,9.086186037166044e-05,-0.22500687837600708,0.16981519758701324,-0.00013668874453287572,0.13578253984451294,-0.2701840102672577,0.31125757098197937,-0.39052343368530273,0.00027468663756735623,-0.18924978375434875,0.15096133947372437,0.0002079701516777277,0.16452178359031677,-0.4028601050376892,-0.22664903104305267,0.29759007692337036,-0.002622064668685198,0.37693706154823303,0.34476402401924133,-0.002000147942453623,0.16575172543525696,0.04603773355484009,0.15595094859600067,0.10809287428855896,-0.001020148047246039,0.23171530663967133,0.18526919186115265,-0.0012246313272044063,0.22828291356563568,0.01300845853984356,0.12403345853090286,0.1657027155160904,-4.299866850487888e-05,0.06183505430817604,0.370311439037323,-0.0004086655972059816,0.2554175555706024,-0.2061142772436142,0.166343092918396,-0.3327699601650238,-0.00037942855851724744,-0.21530790627002716,-0.009951282292604446,-0.0010680045234039426,0.20542797446250916,-0.21203364431858063,0.02030402049422264,-0.017511790618300438,-0.03284182772040367,0.03248123824596405,0.05103888735175133,-0.013323412276804447,-0.04916827008128166,0.005944572854787111,-0.0003015469410456717,0.00047837322927080095,-0.010646134614944458,-0.02993631735444069,0.010773406364023685,-0.0042914217337965965,-0.014626752585172653,0.014648385345935822,-0.0017743619391694665,-0.00045584276085719466,-0.21843799948692322,0.00374233047477901,-0.00391022814437747,-0.0065440833568573,0.004252943675965071,-0.031007148325443268,-0.021462667733430862,0.0014722255291417241,-0.006068595685064793,-0.0012779602548107505,0.005572968162596226,-0.023842958733439445,-0.026620715856552124,0.0006924999761395156,-0.003020815085619688,0.003528173081576824,0.013822674751281738,0.0258750282227993,-0.006704000756144524,-0.023372305557131767,-0.033726491034030914,-0.027381276711821556,-0.012074613012373447,-0.011684708297252655,-0.030574485659599304,-0.032427895814180374,-0.049938756972551346,-0.03916747868061066,-0.01990305446088314,-0.03027893230319023,-0.051271796226501465,-0.0024594527203589678,-0.0032881966326385736,0.0036754284519702196,0.01202643197029829,-0.00826555211097002,-0.012775540351867676,-0.06918489933013916,0.011008290573954582,-0.010794058442115784,0.027551917359232903,-0.24523091316223145,0.7350980639457703,0.07831209897994995,0.00928620807826519,-0.055687934160232544,0.02524980530142784,-0.248818039894104,0.8066558837890625,-0.014828506857156754,0.042570486664772034,0.01796993985772133,0.007847447879612446,-0.01850321516394615,0.6257171630859375,0.009249490685760975,-0.00822864193469286,0.01197917852550745,-0.047930821776390076,-0.03707912564277649,0.7205532789230347,0.10662929713726044,-0.029723793268203735,-0.05304379016160965,-0.06392406672239304,0.26760682463645935,-0.5426759719848633,0.03712562844157219,-0.004054700955748558,-0.0012441232101991773,-0.02573927864432335,0.11469800770282745,0.06370743364095688,-0.016110479831695557,-0.004183613695204258,0.018565893173217773,0.03875244781374931,0.05842481926083565,0.010181006044149399,0.08208753168582916,-0.029483851045370102,-0.1130068451166153,-0.10658621042966843,-0.026278061792254448,0.11586771160364151,0.039054132997989655,-0.0031251548789441586,0.051685161888599396,-0.01045286562293768,0.006652862299233675,-0.019900334998965263,0.043879080563783646,-0.00837466400116682,0.05739092081785202,-0.027309991419315338,-0.019532369449734688,-0.08242718130350113,0.03380359709262848,0.0064563085325062275,0.035294611006975174,0.005721977911889553,0.006505441851913929,-0.012479428201913834,0.03383403643965721,0.015862353146076202,0.03863894194364548,0.013722160831093788,0.008401542901992798,-0.011804237961769104,0.028406456112861633,0.042639389634132385,0.009642933495342731,0.043097496032714844,0.02441856823861599,0.0381043516099453,-0.007604393642395735,-0.010066371411085129,-0.02188512682914734,-0.01818869821727276,-0.02291092462837696,-0.00750323012471199,-0.018697626888751984,-0.027782518416643143,-0.03148621320724487,-0.03305041044950485,-0.03347442299127579,-0.021725494414567947,0.038786374032497406,0.03151233494281769,0.03807897865772247,0.027168264612555504,0.01441162172704935,0.002600115491077304,-0.05709480866789818,-0.0064817145466804504,-0.07509052753448486,0.054972246289253235,-0.16983535885810852,-0.21240760385990143,0.12096861749887466,-0.037507809698581696,-0.03492137789726257,0.07083781063556671,-0.09802399575710297,-0.1163662001490593,0.06607271730899811,0.0011489760363474488,0.0026921438984572887,0.040561381727457047,-0.013280526734888554,-0.03974471241235733,0.0682593435049057,0.0006780328694730997,0.012458521872758865,0.03348775953054428,0.024096090346574783,-0.01430063508450985,0.05522000417113304,0.07109002023935318,0.13143298029899597,0.015026982873678207,0.1265295147895813,0.0938544049859047,0.09703733026981354,0.003721050452440977,0.07333698868751526,0.03693775460124016,0.06814213842153549,0.017835672944784164,-0.03529521822929382,0.0017865555128082633,0.059955812990665436,-0.02813519723713398,0.03325018659234047,0.08016953617334366,0.08763819187879562,0.04833918437361717,0.0617927610874176,0.07560824602842331,0.07011605054140091,0.048109009861946106,-0.10546782612800598,0.02874341607093811,-0.09647466242313385,-0.12575361132621765,0.0061576347798109055,0.2687529921531677,-0.1796201765537262,0.10129810124635696,0.019472625106573105,0.007296576164662838,0.22377875447273254,0.33456122875213623,-0.03152580186724663,0.06811409443616867,-0.006484723184257746,-0.0175301693379879,0.09141873568296432,0.25395968556404114,-0.07931627333164215,-0.00670010456815362,-0.023160738870501518,-0.07122168689966202,-0.037384070456027985,0.14860062301158905,0.0628233551979065,-0.01365760900080204,-0.034485042095184326,0.0007102041854523122,-0.1211075484752655,-0.3347151279449463,0.033526480197906494,0.04047396406531334,-0.006185143254697323,0.011876634322106838,-0.036860622465610504,0.024981772527098656,-0.02469811402261257,0.0030887944158166647,0.042071133852005005,0.04954271391034126,0.019428325816988945,0.09294044226408005,-0.0005402807728387415,-0.04803275316953659,-0.08138328790664673,-0.0678601935505867,-0.08022688329219818,-0.08327166736125946,-0.029834315180778503,0.0019426068756729364,-0.06373851001262665,-0.04909505322575569,-0.00040421666926704347,-0.07528173923492432,-0.01787164807319641,-0.00046770708286203444,0.0411282517015934,0.03265882283449173,0.09216625988483429,-0.34113577008247375,0.0008550113416276872,-0.001142560737207532,-0.007137675769627094,0.005515460390597582,-0.02329160086810589,-0.07660233229398727,0.015279370360076427,-0.00046496736467815936,0.021196432411670685,0.019724983721971512,-0.01714438572525978,-0.06064411625266075,0.033710528165102005,-0.04469279572367668,0.006681830156594515,0.019359711557626724,-0.06101527437567711,0.07612857967615128,-0.004535469692200422,-0.028301304206252098,-0.07013703882694244,0.017867064103484154,-0.05767529830336571,0.013811536133289337,-0.013904917053878307,-0.029651641845703125,-0.04932159185409546,0.009323707781732082,-0.040842242538928986,-0.033845897763967514,0.006617362145334482,-0.02146531641483307,0.01589980348944664,0.03552128002047539,0.002577219158411026,-0.012124198488891125,0.05032450705766678,0.012914803810417652,0.01951415091753006,-0.014536937698721886,0.24628828465938568,-0.36672186851501465,-0.04014034569263458,-0.030817219987511635,0.03248457983136177,-0.014460930600762367,0.11595194786787033,-0.9404429793357849,-0.03752784803509712,-0.021375587210059166,0.002194417640566826,-0.022594211623072624,-0.005943359807133675,-0.29718610644340515,-0.01062671560794115,1.0870360711123794e-05,0.030823128297924995,0.029331455007195473,-0.0014550471678376198,-0.1792023777961731,-0.0674644336104393,-0.007531922310590744,0.06473419815301895,0.046403668820858,-0.1469791978597641,0.25984203815460205,-0.007872472517192364,0.004031932447105646,0.031648389995098114,0.0420069620013237,-0.08220561593770981,0.21173036098480225,-0.008777327835559845,-0.013782582245767117,-0.010291842743754387,-0.024459147825837135,-0.1346748173236847,0.07535742968320847,-0.009626772254705429,-0.022763734683394432,0.07281707227230072,0.06406667083501816,0.06740444153547287,-0.16897575557231903,0.09928332269191742,0.0705602765083313,-0.005762387998402119,-0.019716976210474968,-0.05658179521560669,-0.01523253321647644,0.03234679624438286,0.006252302322536707,-0.042876340448856354,-0.04240751266479492,-0.0661713033914566,-0.06738533824682236,0.07108243554830551,0.021398529410362244,-0.03707854077219963,-0.028032945469021797,-0.02033478580415249,0.0030798292718827724,0.047963060438632965,0.006556904874742031,-0.03336482122540474,-0.02021797187626362,-0.015645023435354233,0.002790080150589347,-0.023548470810055733,-0.07485920190811157,-0.05499473214149475,-0.014167450368404388,0.04221675544977188,0.09995999187231064,-0.04283534362912178,-0.04538321495056152,-0.0024084581527858973,0.01662467047572136,0.02685675397515297,0.05380701646208763,-0.04063461720943451,-0.027662932872772217,0.0031965007074177265,0.010464360937476158,0.004238294903188944,0.0037439099978655577,0.014536234550178051,-0.033987272530794144,-0.029420141130685806,-0.0010458555771037936,0.014495200477540493,0.04554436355829239,-0.024631744250655174,0.1270681619644165,-0.055902883410453796,-0.11194423586130142,0.029702099040150642,-0.009207460097968578,-0.060623131692409515,-0.05710126459598541,0.006901122629642487,-0.5262534618377686,0.015478217042982578,0.09004215151071548,-0.42423588037490845,0.05520879104733467,0.19167102873325348,0.0294569730758667,-0.16251729428768158,0.3748406171798706,-0.061215661466121674,-0.023738745599985123,0.16947366297245026,-0.2812264561653137,-0.3903288245201111,-0.02382504753768444,-0.13940444588661194,0.533713698387146,0.052482739090919495,0.038973741233348846,0.13112179934978485,-0.28043270111083984,-0.5608314275741577,-0.1364399790763855,-0.0464710108935833,0.047689590603113174,0.04746133089065552,0.05489785596728325,0.1610923856496811,0.011851909570395947,0.01788225769996643,-0.06446251273155212,-0.028556417673826218,0.19301442801952362,-0.0015835664235055447,0.0540146604180336,-0.27186596393585205,-0.08362901955842972,-0.20173214375972748,0.06187886372208595,-0.07119724154472351,-0.08022286742925644,0.04800628870725632,0.02989126183092594,0.0588759183883667,0.07038518041372299,0.1628076732158661,-0.1232038140296936,0.05691145360469818,0.02177715301513672,0.07059158384799957,0.013115226291120052,-0.13915328681468964,-0.05519940331578255,0.1629260629415512,-0.0551055446267128,0.02261587418615818,0.22729621827602386,-0.05308693274855614,0.12048865854740143,-0.02562427707016468,-0.03833675757050514,0.05118684470653534,-0.023648757487535477,-0.00037306788726709783,0.11326088011264801,0.04538493975996971,0.015829209238290787,-0.027098391205072403,-0.12481962889432907,-0.3515237867832184,0.10531977564096451,0.17539504170417786,-0.21296347677707672,-0.03272388502955437,0.16099968552589417,-0.14556464552879333,0.18021264672279358,0.024744316935539246,0.20149977505207062,0.018033597618341446,-0.08554193377494812,0.023516004905104637,-0.010432276874780655,-0.010460118763148785,-0.10009799152612686,0.023239970207214355,-0.00817650742828846,0.0013407135847955942,0.009305077604949474,0.00944733526557684,-0.12182151526212692,0.002141186036169529,-0.02930748462677002,0.013702338561415672,-0.03896165266633034,-0.012131093069911003,-0.043398793786764145,-0.008242755196988583,0.10087449848651886,-0.07745394110679626,-0.030593570321798325,0.011453907936811447,-0.07250605523586273,-0.011879767291247845,0.13598743081092834,-0.07649998366832733,-0.00915362499654293,0.008642532862722874,0.10721908509731293,-0.036971352994441986,0.06869714707136154,-0.0773797407746315,-0.02934129908680916,-0.012615113519132137,0.02285737730562687,-0.029947010800242424,0.03942189738154411,-0.06393902748823166,-0.028336085379123688,-0.024949172511696815,-0.017321882769465446,0.0006066958885639906,0.10505468398332596,-0.08591020107269287,0.007572592701762915,0.027583081275224686,-0.04983818158507347,0.01295334193855524,-0.017122343182563782,-0.023092079907655716,-0.006431433837860823,0.03023127093911171,0.17770424485206604,0.00662632379680872,-0.010973451659083366,-0.012609276920557022,-0.002869203221052885,0.05811522156000137,0.06191587820649147,-0.008408064022660255,0.005577137693762779,0.047330278903245926,0.007549277041107416,0.01512049324810505,0.06939640641212463,-0.0022232162300497293,0.009652739390730858,-0.03293698653578758,-0.028492160141468048,-0.026511449366807938,-0.04047958552837372,0.018792035058140755,0.07451054453849792,0.11061742901802063,0.0381728820502758,0.017056960612535477,-0.05176934227347374,-0.06945275515317917,-0.040219709277153015,-0.023324202746152878,-0.03848259896039963,-0.03798371180891991,-0.08243948221206665,-0.07847365736961365,-0.040481943637132645,-0.031249184161424637,-0.0301551204174757,-0.012385457754135132,-0.04736681282520294,-0.009455522522330284,0.01648169383406639,0.009876436553895473,-0.03359924629330635,-0.03377320617437363,-0.0436256043612957,0.011685519479215145,0.10639030486345291,-0.04313753917813301,-0.05500233545899391,-0.007085228338837624,0.04217035323381424,0.032398562878370285,0.016438618302345276,-0.004631257150322199,-0.0089644193649292,-0.09300366789102554,-0.04769868031144142,-0.06619202345609665,-0.021734455600380898,-0.07429441064596176,-0.09070447832345963,-0.031306806951761246,-0.013622107915580273,-0.004439187701791525,-0.10673674941062927,-0.0264216847717762,-0.03904096782207489,-0.0002848896838258952,-0.0073582385666668415,-6.75522824167274e-05,-0.16826455295085907,0.01758626103401184,-0.0332699716091156,-0.05656823143362999,-0.05630987137556076,-0.0358407087624073,-0.10454177856445312,-0.05733495578169823,-0.05406186357140541,-0.022619597613811493,-0.06116557866334915,0.028263701125979424,0.0006784613360650837,-0.017884990200400352,-0.04746127501130104,-0.006912035867571831,-0.017764199525117874,-0.05204443633556366,-0.1298295110464096,-0.01847335509955883,-0.0053185028955340385,0.03197542205452919,0.0007231915951706469,-0.013850286602973938,-0.04202500730752945,0.011601850390434265,-0.023363741114735603,0.01848321408033371,-0.3221900463104248,0.06485474109649658,0.05407612398266792,0.04258858412504196,0.07124835252761841,0.07470294833183289,-0.324552446603775,0.01401516329497099,-0.03135012090206146,0.021993743255734444,-0.006762673147022724,-0.023137418553233147,-0.10377692431211472,-0.0818430483341217,-0.02983076311647892,-0.055816132575273514,-0.030047833919525146,-0.15288157761096954,-0.16924640536308289,0.0692863017320633,0.07867728918790817,0.07656208425760269,0.09243881702423096,-0.0831296294927597,0.2652328908443451,-0.07585646957159042,-0.05074617266654968,-0.09622444212436676,-0.03287389129400253,-0.0825229287147522,0.04585716500878334,-0.031152334064245224,-0.01383958850055933,-0.020435284823179245,0.008822944015264511,-0.004606959410011768,0.04979109391570091,-0.07378681004047394,0.0010012190323323011,-0.12122592329978943,-0.019405918195843697,-0.13111065328121185,-0.15787024796009064,0.011018509045243263,0.0023784353397786617,-0.004246227443218231,-0.007009442429989576,-0.01421213336288929,-0.012050580233335495,0.01441157516092062,0.0019445976940914989,-0.005729177035391331,-0.005114569328725338,-0.015040729194879532,-0.011146542616188526,0.00025320416898466647,-0.02033923752605915,-0.02706109546124935,-0.023224620148539543,-0.01963723637163639,-0.015558960847556591,-0.014108626171946526,-0.02688906528055668,-0.025635944679379463,-0.010396738536655903,-0.006335149053484201,0.0003881891316268593,-0.01668594405055046,-0.020719779655337334,-0.01564950682222843,-0.006135622970759869,0.0006858182605355978,0.0030221217311918736,-0.03450283035635948,-0.034666359424591064,-0.030206944793462753,-0.02626972459256649,-0.020192697644233704,-0.02127482183277607,-0.0033821407705545425,-0.009207898750901222,-0.01405302807688713,-0.022840863093733788,-0.02762395143508911,-0.0324401892721653,-0.01766294240951538,-0.024290526285767555,-0.020518235862255096,-0.003009046195074916,-0.0009881684090942144,0.007939004339277744,-0.01974455639719963,0.23130826652050018,-0.10712559521198273,0.027520596981048584,0.03676334768533707,0.3150457441806793,-0.09236373007297516,-0.05404355376958847,0.012632375583052635,-0.014576629735529423,-0.054444942623376846,0.19842155277729034,0.03188195824623108,0.15145497024059296,-0.010500417090952396,0.05641179531812668,0.027809515595436096,0.34014472365379333,0.12502539157867432,-0.1982603520154953,0.254897803068161,0.04713861644268036,-0.020689787343144417,0.16538545489311218,-0.013169476762413979,-0.31083568930625916,0.18204088509082794,0.028928283601999283,-0.0476951003074646,-0.23588134348392487,0.08957206457853317,-0.08263090997934341,0.11456163972616196,0.011526144109666348,-0.02201629802584648,0.11041657626628876,0.060306962579488754,-0.08710411190986633,0.1128823459148407,0.04378082603216171,0.027442654594779015,0.21267223358154297,-0.026225851848721504,-0.2287464588880539,0.20866447687149048,-0.012393960729241371,-0.03301394730806351,-0.04380723088979721,0.10661283135414124,-0.014675683341920376,-0.028995899483561516,-0.0380062609910965,0.044694844633340836,-0.035953957587480545,-0.12434344738721848,-0.03459874168038368,0.011598690412938595,0.09763562679290771,-0.008118142373859882,-0.13577592372894287,0.04477265849709511,0.09870141744613647,0.08704887330532074,0.0034873320255428553,0.05255725234746933,0.01198678370565176,0.11459276080131531,0.020162232220172882,0.008355082012712955,-0.07022994011640549,-0.07627961039543152,-0.004815792199224234,0.043777868151664734,-0.05370178446173668,-0.08905678987503052,-0.005846367217600346,-0.1397584229707718,-0.147599995136261,-0.03283340483903885,-0.09277083724737167,-0.05426730960607529,-0.04264528304338455,-0.09257609397172928,-0.12176848948001862,0.09552842378616333,0.05088695138692856,0.08769752830266953,0.08573391288518906,0.051133010536432266,0.13948403298854828,-0.09251943975687027,-0.06912360340356827,-0.0435958057641983,-0.20888298749923706,-0.20126676559448242,-0.2051345705986023,-0.014800433069467545,-0.030780302360653877,-0.011116652749478817,-0.04497821629047394,-0.07470104098320007,-0.06244739890098572,-0.029566312208771706,-0.017267461866140366,-0.02839585579931736,-0.029040059074759483,0.020440515130758286,-0.01312208827584982,-0.03234187141060829,-0.0034254342317581177,0.0067615569569170475,-0.022036651149392128,-0.02669583633542061,-0.0017004262190312147,-0.01149772759526968,0.0038522514514625072,-0.0425303615629673,-0.020796719938516617,0.022523825988173485,-0.014741437509655952,-0.0158617552369833,0.015096008777618408,-0.007453359663486481,-0.005820806138217449,0.09331900626420975,0.10232120007276535,-0.08916762471199036,-0.05290786176919937,-0.05979713425040245,-0.006046220660209656,0.036381497979164124,0.05209514871239662,-0.10142061859369278,-0.07583174854516983,-0.030920416116714478,0.017049601301550865,0.017410531640052795,0.059275005012750626,0.011517240665853024,0.02134835533797741,-0.018985118716955185,-0.0017123688012361526,0.09392540156841278,0.038640525192022324,-0.05695746839046478,-0.1398969143629074,0.02894163504242897,-0.3253398835659027,-0.048728097230196,0.05017606168985367,-0.09662436693906784,-0.10236010700464249,0.04405997693538666,-0.022586438804864883,-0.2260240912437439,0.09271783381700516,0.005040739197283983,-0.4270400106906891,-0.5017628073692322,0.030271975323557854,-0.11986538767814636,0.0001877773756859824,0.14303943514823914,-0.17615950107574463,-0.05025426298379898,0.3113970160484314,0.04909244552254677,-0.01293567381799221,-0.262861043214798,0.08196928352117538,-0.041888512670993805,-0.42081794142723083,0.012303007766604424,0.22573257982730865,-0.10907755047082901,-0.045513495802879333,-0.119986891746521,0.03998080641031265,0.06113617122173309,-0.13040386140346527,0.032867953181266785,-0.041982851922512054,-0.0779418870806694,-0.105221688747406,-0.05663232132792473,-0.06709989905357361,0.19979102909564972,-0.10059650987386703,-0.02646608278155327,0.022763965651392937,0.09851530194282532,0.022410616278648376,0.0869971513748169,-0.06827744096517563,-0.14511604607105255,0.03198912367224693,0.05957669019699097,-0.03664228692650795,-0.22396624088287354,-0.062271516770124435,0.0037423460744321346,0.07531900703907013,0.17926479876041412,0.09227941930294037,0.05227495729923248,0.018355146050453186,-0.1574951857328415,-0.11778758466243744,0.00733316270634532,-0.031281452625989914,0.01339798141270876,-0.03257124498486519,0.0026114233769476414,0.032467715442180634,0.023226948454976082,-0.012790603563189507,-0.055081699043512344,0.1780846267938614,0.0326731838285923,-0.09790024906396866,0.030900800600647926,0.2162475436925888,0.025613734498620033,0.03164985403418541,0.045489151030778885,-0.26079386472702026,-0.05485114827752113,-0.06026998534798622,0.2894829511642456,0.10890716314315796,-0.06491123884916306,-0.07124283909797668,0.04923326149582863,0.0731973946094513,0.04233618825674057,0.06582993268966675,-0.032715070992708206,0.041630275547504425,0.049467265605926514,0.05010116472840309,0.03449397161602974,-0.02519821934401989,-0.0217201579362154,0.056513652205467224,-0.15140879154205322,0.0042810821905732155,-0.007054129149764776,-0.07600551843643188,-0.03411020338535309,0.061310797929763794,-0.10692566633224487,-0.0689140260219574,-0.0717698261141777,-0.04942575842142105,-0.020960671827197075,-0.007503882050514221,-0.11065270751714706,-0.1336507797241211,-0.2405736893415451,-0.09692791104316711,-0.10710647702217102,-0.127324178814888,-0.1462724208831787,-0.0957198217511177,-0.2084776908159256,-0.23426848649978638,-0.15717041492462158,-0.07606399804353714,-0.04225947707891464,-0.02752603404223919,-0.06656104326248169,-0.052252087742090225,-0.18495668470859528,-0.18264968693256378,-0.13892841339111328,-0.1283932328224182,-0.11083786189556122,-0.09040175378322601,-0.072890505194664,-0.023331619799137115,0.03688187152147293,-0.022097334265708923,0.01397618092596531,0.029735291376709938,0.009889395907521248,0.018976109102368355,-0.05366548150777817,-0.014023206196725368,-0.029234381392598152,-0.006996822077780962,0.02918171137571335,0.06986968964338303,-0.05615704879164696,-0.013853874057531357,-0.012914098799228668,-0.009273923933506012,-0.0070766969583928585,0.02152406796813011,-0.058685123920440674,-0.07333080470561981,-0.03983495756983757,-0.0602060928940773,-0.07987416535615921,-0.030874008312821388,-0.12065880745649338,-0.13026933372020721,-0.12509602308273315,-0.1183968260884285,-0.04369343817234039,-0.03357531130313873,-0.10822319239377975,-0.07629556208848953,-0.05509660020470619,-0.07668335735797882,-0.06562890857458115,-0.07154185324907303,-0.06853510439395905,-0.027643142268061638,-0.03881062939763069,-0.07680336385965347,-0.08119980245828629,-0.0860314816236496,-0.09379784762859344,-0.08881933987140656,-0.044752489775419235,-0.07286522537469864,-0.0694829672574997,-0.0307988952845335,-0.005601297598332167,-0.005956059321761131,-0.005573533475399017,-0.005446721334010363,-0.009433462284505367,-0.004326229449361563,0.0024349784944206476,0.0026086082216352224,0.003707272233441472,0.003912641666829586,0.00021000581909902394,0.003598797833546996,0.0006911671371199191,0.0006897003622725606,0.0005869989399798214,0.0009565436048433185,-0.0005440367967821658,-0.0003368248580954969,0.0004999361117370427,0.0006348856259137392,9.85926017165184e-05,0.0010113250464200974,-0.0002738604962360114,-0.000729801133275032,-0.0015330938622355461,-0.0005212970427237451,-0.0003403121081646532,0.00033555622212588787,7.394739805022255e-05,-0.002768073696643114,-0.008604294620454311,-0.00793209858238697,-0.006842456758022308,-0.006494702305644751,-0.006988298613578081,-0.0078431386500597,-0.00679621659219265,-0.006889288779348135,-0.006176241207867861,-0.005564376246184111,-0.006121235899627209,-0.005922744981944561,0.00022860031458549201,0.0006851818761788309,0.00032564133289270103,0.0011075614020228386,7.305116014322266e-05,-0.000558338244445622,0.08853582292795181,0.05092041939496994,0.02929811179637909,-0.04592856019735336,0.029842868447303772,-0.009838216006755829,-0.07863954454660416,-0.12083883583545685,-0.10123278200626373,-0.012664726935327053,-0.07646278291940689,-0.11850108951330185,-0.016953635960817337,0.008882734924554825,0.07658073306083679,0.002941925311461091,-0.020496631041169167,0.06439895182847977,0.08787132054567337,0.11002105474472046,0.006252480670809746,0.07906927168369293,0.03664879873394966,-0.07920996099710464,-0.15302935242652893,-0.14078637957572937,-0.15010997653007507,-0.06925450265407562,-0.2504662573337555,0.40652185678482056,-0.004964583553373814,0.058715127408504486,-0.03596723824739456,-0.07775729149580002,-0.0471227765083313,0.22081319987773895,0.17672114074230194,0.080868199467659,0.055652204900979996,0.15427735447883606,0.13373905420303345,0.18611401319503784,-0.032408442348241806,-0.027487296611070633,-0.11196181923151016,-0.011602816171944141,-0.10361926257610321,0.11879029124975204,-0.015590319409966469,-0.011083933524787426,-0.014277542009949684,-0.016223952174186707,-0.018349191173911095,-0.002884377259761095,0.007560755591839552,0.008324956521391869,0.005428776144981384,0.0047991955652832985,-0.008180170319974422,0.015438193455338478,-0.00024698389461264014,0.0018333310727030039,0.001255631446838379,-0.0010810544481500983,0.0007533469470217824,0.005140271969139576,-0.0002100005658576265,0.0005550375790335238,0.0011883913539350033,-0.0007284731254912913,-0.008496387861669064,0.0012267945567145944,-0.0021101590245962143,0.006546255201101303,-0.006221722345799208,0.002097819233313203,8.160045581462327e-06,0.004021913278847933,-0.02863149903714657,-0.024302909150719643,-0.023434994742274284,-0.02259727381169796,-0.017698628827929497,-0.02477445639669895,-0.02160046249628067,-0.016442758962512016,-0.019028374925255775,-0.017793988808989525,-0.013865040615200996,-0.012758835218846798,-0.0005079225520603359,-0.0008534980588592589,-0.0011700806207954884,-0.0016737724654376507,-0.009177396073937416,0.0013263341970741749,-0.002658831886947155,-0.002441112883388996,-0.0026487945578992367,-0.0029445372056216,-0.0026493994519114494,-0.0010886952513828874,0.0015214345185086131,0.0029689378570765257,0.001274608657695353,0.0020160686690360308,0.0017876473721116781,0.0032652290537953377,-0.0001516615884611383,0.0002981239522341639,-0.000331063725752756,0.00032001553336158395,3.4503893402870744e-05,0.00021046608162578195,-6.999020115472376e-05,0.0003627287223935127,-0.0003367466269992292,0.0002630660019349307,-5.531028000405058e-05,0.0003429069183766842,-0.0006455460097640753,-0.0006373259820975363,-0.0011820304207503796,-0.0010791991371661425,-0.0003463099419604987,-0.002247796393930912,-0.004535856191068888,-0.00399406673386693,-0.004428318701684475,-0.004796044901013374,-0.0042620450258255005,-0.0050307270139455795,-0.0035218331031501293,-0.0036023161374032497,-0.0034183801617473364,-0.004088691435754299,-0.003174472600221634,-0.003633455140516162,-0.000446756137534976,0.00025275719235651195,-0.0005896374932490289,-6.255081825656816e-05,-0.00037088379031047225,-5.9572557802312076e-05,-0.06852418929338455,-0.12718920409679413,-0.130537211894989,-0.04129575192928314,0.08176782727241516,0.059905942529439926,0.09160176664590836,0.07903452217578888,0.011933614499866962,0.05313717946410179,-0.004607974551618099,-0.10968747735023499,0.07816678285598755,0.0032496070489287376,0.06180238351225853,-0.020052196457982063,0.053316883742809296,-0.08040501177310944,0.01587114855647087,0.052769191563129425,0.12374834716320038,0.04650622978806496,0.08392394334077835,-0.14108845591545105,0.1688869148492813,0.20046661794185638,0.14211992919445038,0.2190178483724594,0.20827333629131317,0.08474486321210861,0.23030148446559906,0.10321620106697083,0.2108481377363205,0.20311032235622406,0.04085589945316315,0.14385272562503815,-0.030822504311800003,0.0475020557641983,0.039919499307870865,0.08481109142303467,0.11198477447032928,0.32261937856674194,0.02830529399216175,0.0738128051161766,0.1835412085056305,0.06012025475502014,0.0027078762650489807,0.07075317949056625,-0.06934209913015366,-0.06803136318922043,-0.06962146610021591,-0.06856012344360352,-0.0909433364868164,-0.29718998074531555,0.06416647136211395,0.06538555026054382,0.06014131382107735,0.06540895253419876,0.04781915619969368,-0.2766840159893036,0.02267453819513321,-0.011828050948679447,0.0412483736872673,0.008080286905169487,-0.017378652468323708,-0.15048816800117493,-0.03940055891871452,-0.011749736033380032,-0.007961062714457512,-0.06020110100507736,-0.0037186683621257544,-0.12778079509735107,0.021366382017731667,-0.015726758167147636,-0.012442856095731258,0.0075284396298229694,-0.0116464514285326,0.0872889906167984,-0.06994093209505081,-0.07341569662094116,-0.07010051608085632,-0.056704435497522354,-0.04125237092375755,0.0438523031771183,0.004926406312733889,0.0073233298026025295,0.00987311266362667,0.014867193065583706,0.06954901665449142,0.11450286209583282,-0.029038529843091965,-0.035093456506729126,-0.04999304935336113,0.011146634817123413,0.012518234550952911,-0.1494811624288559,-0.0470917671918869,-0.024834811687469482,-0.01704585552215576,0.13187028467655182,-0.03697461634874344,-0.006779910065233707,0.12110432982444763,-0.26007023453712463,-0.3882739841938019,-0.035426706075668335,-0.0006850121426396072,0.0007558890501968563,0.003975376021116972,-0.00012484355829656124,0.8557937741279602,0.059660039842128754,0.1310391128063202,0.1846194863319397,-0.004352713469415903,-0.1240878477692604,-0.00335735734552145,-0.0012535119894891977,-0.2846565544605255,-0.2371431142091751,-0.06838962435722351,-0.21289010345935822,-0.0005670621758326888,-0.1752425879240036,-0.013320733793079853,-0.0008637562859803438,0.34003087878227234,-0.3049752414226532,-0.20504064857959747,-0.0407039150595665,0.0006768011371605098,-0.09937235713005066,-0.00429955217987299,-0.0003398334374651313,0.2681550085544586,-0.09955108165740967,0.23845836520195007,0.05723151937127113,-0.0008502666605636477,0.18731053173542023,-0.011440817266702652,-6.232182931853458e-05,-0.13677376508712769,-0.03886883705854416,-0.09183306246995926,-0.05271835997700691,0.013940421864390373,-0.027467777952551842,0.02640666998922825,0.008529775775969028,0.281782329082489,-0.016867494210600853,-0.11590224504470825,-0.03068549744784832,0.004663820844143629,-0.27341991662979126,0.01663742959499359,0.0017437784699723125,0.17435036599636078,-0.08321449905633926,0.3353901207447052,0.0026807666290551424,-0.0014362793881446123,0.1674177199602127,-0.014922731555998325,0.00011327226820867509,-0.3440135419368744,-0.2805001139640808,-0.08757014572620392,-0.04231184348464012,0.0011726078810170293,-0.20856289565563202,-0.0008164902683347464,0.0004928283160552382,-0.0832911804318428,-0.06547199189662933,0.06929035484790802,-0.26471221446990967,0.17686282098293304,-0.17413215339183807,-0.26886725425720215,-0.11319589614868164,0.1538897305727005,-0.06179657205939293,-0.006565850228071213,0.05761466175317764,0.030269134789705276,0.06299684196710587,-0.031605612486600876,0.04291972517967224,-0.019319480285048485,0.030510958284139633,-0.008988515473902225,-0.03958810120820999,0.018036596477031708,0.038866885006427765,-0.06772200763225555,-0.09615551680326462,-0.09823192656040192,-0.07674729824066162,-0.03378795459866524,-0.028848936781287193,0.021961523219943047,0.0016651817131787539,0.048692040145397186,0.0466172993183136,0.06560500711202621,-0.06278486549854279,-0.07818467915058136,-0.13234838843345642,-0.12797363102436066,-0.10755987465381622,-0.018298694863915443,-0.12473679333925247,0.004127654246985912,-0.07869651913642883,-0.0644255056977272,-0.07277970016002655,-0.07201828062534332,-0.1513519138097763,-0.05441485717892647,-0.0611124150454998,0.050167154520750046,0.004461725242435932,-0.07653488963842392,-0.12901614606380463,-0.0012925619957968593,-0.05694554001092911,-0.029662294313311577,-0.038323935121297836,0.014644662849605083,-0.07969693839550018,-0.023997407406568527,-0.05254809558391571,-0.03562955930829048,-0.03904329240322113,-0.05210364982485771,0.226095512509346,0.030825385823845863,0.04855732247233391,0.055674124509096146,0.05227978155016899,0.055356428027153015,0.28351593017578125,-0.06056300550699234,-0.09645111858844757,-0.07392320781946182,-0.06797128170728683,-0.055898088961839676,0.1655038595199585,-0.017418382689356804,0.02867833897471428,-0.0017852989258244634,0.01692359521985054,0.03132554516196251,0.2168210744857788,0.014660203829407692,-0.001468382659368217,0.005477564875036478,0.011514460667967796,0.01928076520562172,-0.003065733006224036,-0.03731057420372963,-0.07341817766427994,-0.04131579026579857,-0.06917987018823624,-0.05201861262321472,-0.1521720588207245,-0.025935392826795578,9.619072443456389e-06,-0.018700769171118736,-0.014951307326555252,-0.03517002612352371,0.11499195545911789,0.030795156955718994,0.01995067484676838,-0.021133704110980034,-0.003096179338172078,0.011182562448084354,0.13508301973342896,-0.0258492324501276,0.005145981442183256,0.0009161254274658859,-0.023813243955373764,0.06737688183784485,0.10173742473125458,-0.03685621917247772,-0.02186506986618042,-0.004050731658935547,0.006708140950649977,-0.0923059955239296,-0.30578792095184326,0.01058583427220583,0.03189384564757347,0.010451809503138065,0.05012928321957588,0.010524919256567955,-0.03619648888707161,0.04854505509138107,-0.04108593985438347,-0.05496574938297272,-0.023641185835003853,-0.04326358065009117,-0.06665236502885818,-0.07342784106731415,0.028595851734280586,0.06773588806390762,0.02916484884917736,0.0359390489757061,0.027390368282794952,-0.016765834763646126,0.07723415642976761,-0.013382808305323124,0.031178131699562073,-0.032206855714321136,-0.04528174176812172,0.0997086688876152,0.017430990934371948,-0.021565420553088188,-0.048944536596536636,0.06957420706748962,0.14324700832366943,0.016684534028172493,0.026863913983106613,0.0657602995634079,0.03763696178793907,-0.05903388932347298,-0.06059156730771065,-0.006293072365224361,0.07426636666059494,0.11370379477739334,0.11375485360622406,0.06809107214212418,-0.023447910323739052,-0.027471499517560005,-0.0658828541636467,-0.12289760261774063,-0.05483096092939377,-0.052128516137599945,-0.11998938769102097,0.1426827609539032,0.182944193482399,0.07567987591028214,0.002320387866348028,0.07099301367998123,-0.09114954620599747,0.002534884959459305,-0.050349943339824677,0.07168209552764893,-0.027493154630064964,-0.023670991882681847,-0.2458285689353943,-0.029811466112732887,-0.08550485968589783,-0.17864221334457397,-0.1009468287229538,0.052638255059719086,0.30202537775039673,0.024235060438513756,0.009785029105842113,0.030151167884469032,0.0750974714756012,-0.03164801374077797,0.25580427050590515,-0.04480428248643875,0.07454109191894531,0.09148941934108734,-0.03813822194933891,0.006964824162423611,0.11691362410783768,-0.04412363842129707,-0.09538406878709793,-0.026217633858323097,0.021611569449305534,-0.021447598934173584,0.029912395402789116,-0.0024868797045201063,-0.0654538944363594,-0.1216609999537468,-0.06639883667230606,-0.053876809775829315,0.2273169308900833,0.020740101113915443,0.054630111902952194,0.07609827816486359,-0.016177382320165634,0.04323633015155792,0.1646135002374649,-0.13167253136634827,-0.0359172523021698,-0.02681373432278633,-0.12884853780269623,-0.04558585211634636,-0.047183793038129807,0.013159699738025665,0.06439408659934998,0.04754386097192764,0.033107366412878036,0.052793245762586594,-0.09653156250715256,0.04871063306927681,0.10995116084814072,0.16233518719673157,0.13204485177993774,0.04926782101392746,-0.2497815191745758,-0.1087898537516594,0.0009743807604536414,-0.05396876856684685,-0.016958940774202347,-0.005345087498426437,-0.15743950009346008,-0.039854783564805984,-0.07894455641508102,-0.09005327522754669,-0.01871270313858986,-0.0497489757835865,-0.006171043496578932,0.03617575764656067,-0.023494625464081764,-0.009068414568901062,0.07186885923147202,0.0017954361392185092,-0.054671354591846466,0.1307191550731659,0.14896409213542938,0.13635674118995667,0.13798066973686218,0.07996738702058792,0.11864215135574341,-0.10740537941455841,-0.08524234592914581,-0.07777688652276993,-0.07547727227210999,-0.04590597376227379,0.4291592538356781,0.1543511301279068,0.06800483912229538,0.0793716087937355,0.07499369233846664,0.09078797698020935,0.11982998251914978,0.005170133896172047,0.006808099802583456,-0.0475279875099659,-0.04444887861609459,0.007740157190710306,0.12290525436401367,0.032015033066272736,-0.16289395093917847,-0.11547893285751343,-0.17554476857185364,0.07324821501970291,-0.25528666377067566,0.0860881581902504,-0.009981895796954632,0.04774533212184906,0.03355063870549202,0.10848001390695572,0.01882363297045231,0.04569891095161438,0.06673886626958847,0.010374721139669418,0.07150726020336151,0.11722710728645325,-0.025640957057476044,0.013573800213634968,-0.1146245226264,-0.08977476507425308,-0.11891104280948639,0.050691213458776474,-0.09892725199460983,-0.01854008249938488,-0.1439158320426941,-0.12620365619659424,-0.05331439524888992,0.021110042929649353,-0.05746564269065857,0.06101285666227341,0.056842461228370667,0.14727303385734558,0.09041360020637512,0.01080585177987814,-0.35585084557533264,0.0015289178118109703,0.07680117338895798,0.10548478364944458,0.03482792153954506,0.09771916270256042,0.08008229732513428,-0.046671558171510696,0.08393800258636475,-0.029691796749830246,-0.05347876250743866,-0.009951082989573479,0.007687474135309458,0.017492447048425674,0.10490944981575012,0.1559680551290512,0.08108431845903397,0.041347652673721313,0.2183539718389511,0.04693709686398506,0.09459131956100464,0.09475318342447281,0.15625716745853424,0.11741813272237778,0.09276138246059418,-0.07609374076128006,-0.019792823120951653,0.11207079887390137,0.05924385413527489,-0.05606713891029358,0.10780123621225357,-0.01448989287018776,0.04048147797584534,-0.010684025473892689,-0.02491004392504692,-0.001924359006807208,0.0319218710064888,-0.01865767128765583,-0.03154626488685608,0.10103178024291992,0.02817600779235363,0.06289367377758026,-0.047095660120248795,-0.020370328798890114,0.03464378044009209,-0.004338036756962538,0.0202463511377573,-0.03968363627791405,0.031357184052467346,-0.041333477944135666,-0.06017479673027992,-0.10184697061777115,-0.09650394320487976,-0.07778608053922653,-0.033526867628097534,-0.00982405710965395,0.016870399937033653,0.012117641977965832,-0.01941457949578762,0.059930477291345596,0.03172086179256439,-0.0012377979001030326,0.06930898129940033,-0.08832435309886932,-0.21741975843906403,-0.12667006254196167,-0.018943799659609795,0.0058156284503638744,-0.015530653297901154,-0.06327071785926819,-0.08146163076162338,-0.0552692711353302,-0.0657632052898407,-0.15983526408672333,-0.09967178106307983,-0.06539831310510635,-0.07798801362514496,0.06587444245815277,0.007990971207618713,-0.029131021350622177,-0.030526312068104744,-0.09798434376716614,-0.07241035997867584,-0.05583809316158295,-0.047122374176979065,-0.03884074464440346,-0.21802251040935516,-0.08512908965349197,0.01400249544531107,-0.13400110602378845,0.11778122186660767,0.09565619379281998,-0.12037274241447449,-0.04841480031609535,-0.001931255217641592,0.17259544134140015,0.8483550548553467,-0.17226502299308777,-0.24289460480213165,0.1887669414281845,-0.014595297165215015,0.2391091138124466,0.19610728323459625,-0.19882936775684357,-0.10281414538621902,0.08022774010896683,0.2603224515914917,-0.23877133429050446,0.1131567507982254,-0.14304448664188385,0.22617407143115997,-0.06220008805394173,-0.13858172297477722,0.062162891030311584,0.038360241800546646,0.12140683084726334,-0.07476554811000824,0.2611862123012543,0.0797203779220581,-0.0525934137403965,0.23841512203216553,-0.10698878020048141,0.07284785807132721,-0.10641701519489288,0.10768208652734756,0.0007322574383579195,-0.03967643156647682,0.07555783540010452,0.009192168712615967,-0.002073893789201975,-0.0775628313422203,0.17487704753875732,0.19295214116573334,0.1622626781463623,-0.016447704285383224,0.11633818596601486,0.2890555262565613,-0.1707082837820053,0.006021682173013687,-0.03418350592255592,-0.04065639525651932,0.04623943939805031,0.04742306098341942,-0.06407995522022247,-0.3723995089530945,0.11470828950405121,0.118204265832901,-0.001198324142023921,-0.14460217952728271,0.05463292822241783,0.0720180869102478,-0.0977800264954567,0.14856241643428802,-0.25463223457336426,0.214639812707901,-0.0023038689978420734,0.12014008313417435,-0.06029830127954483,0.22523750364780426,-0.2399386614561081,-0.23152273893356323,0.10982170701026917,0.13245262205600739,-0.12054703384637833,-0.13217738270759583,-0.018177727237343788,-0.10731751471757889,-0.15981385111808777,-0.07583664357662201,-0.17167659103870392,0.2008609026670456,-0.07145504653453827,0.023273903876543045,0.05391298606991768,0.04372259974479675,0.05741768330335617,0.08398449420928955,0.0338183268904686,0.14057081937789917,-0.09136664867401123,-0.040247976779937744,-0.021537648513913155,-0.08676817268133163,0.018900316208600998,0.0617268942296505,-0.004035505931824446,-0.05603581666946411,-0.023777076974511147,-0.09363193064928055,-0.008611707016825676,-0.06619265675544739,-0.007179912645369768,0.018118759617209435,0.06099878251552582,0.08008497953414917,-0.012652679346501827,0.02912222594022751,-0.06993914395570755,-0.056107088923454285,-0.05657288804650307,-0.16351117193698883,-0.005245618522167206,0.050383441150188446,-0.045980677008628845,-0.06825727969408035,-0.061863016337156296,-0.08778298646211624,-0.0032858659978955984,-0.12490221858024597,0.030677752569317818,-0.05546220764517784,0.03800725191831589,0.05854368582367897,0.04014711454510689,0.08175104856491089,0.019123829901218414,0.030309339985251427,-0.016110459342598915,-0.08255499601364136,-0.03796708583831787,0.010391311720013618,0.08059708029031754,0.07097174972295761,0.00012259831419214606,0.0476214736700058,0.08945737034082413,0.10168056935071945,-0.06992494314908981,-0.025162262842059135,0.015948234125971794,-0.0736810564994812,-0.0418928898870945,0.09177765250205994,0.01354285329580307,-0.026756983250379562,-0.03820028901100159,-0.07819093763828278,-0.020384393632411957,0.012404377572238445,-0.0970885157585144,-0.02186003513634205,0.03432198986411095,0.053077712655067444,-0.0012701096711680293,0.017224855720996857,0.04709016904234886,-0.05166527256369591,-0.041214268654584885,-0.025519220158457756,-0.05606859549880028,-0.0877668634057045,-0.045710619539022446,-0.006541025824844837,-0.017863379791378975,-0.07958746701478958,-0.08998055756092072,0.009554039686918259,-0.08482731133699417,0.011543109081685543,-0.023791631683707237,0.00017030072922352701,-0.011906381696462631,-0.033379267901182175,0.08175701647996902,0.04519982635974884,-0.008264588192105293,0.03277355059981346,0.029069092124700546,0.03729063272476196,-0.07344847172498703,-0.11398050934076309,0.0025702433194965124,0.06960009783506393,0.045852288603782654,0.035106997936964035,0.10828297585248947,0.13256491720676422,0.07984494417905807,-0.08741103857755661,-0.1308072954416275,-0.04714325815439224,-0.0028445152565836906,0.04285002127289772,0.004371361341327429,-0.03184342011809349,-0.025932159274816513,-0.011884466744959354,-0.0497840940952301,0.10121139883995056,-0.019796118140220642,-0.02412397228181362,0.017370188608765602,-0.06315559893846512,0.029417315497994423,0.049526941031217575,0.0573374405503273,-0.1041565015912056,-0.018678924068808556,-0.0902133584022522,0.03821509703993797,-0.0021525241900235415,0.02587156929075718,-0.08427555114030838,-0.12240742146968842,-0.125029519200325,-0.0781802162528038,-0.05742454156279564,-0.05450521409511566,-0.06616369634866714,-0.0597773902118206,-0.17189928889274597,0.022801902145147324,-0.00986852403730154,0.011852488853037357,0.051265958696603775,0.03475871682167053,0.01662265509366989,0.13279740512371063,0.04517485201358795,-0.008819786831736565,0.020769579336047173,0.016197020187973976,-0.09207717329263687,-0.12747091054916382,-0.005246999207884073,0.04852566495537758,0.014936583116650581,0.021143823862075806,-0.1140349954366684,-0.025324150919914246,0.024730335921049118,-0.07765495777130127,-0.05772324278950691,-0.051747504621744156,0.04361003637313843,0.18438130617141724,0.04383270815014839,0.10193917900323868,0.01055099256336689,-0.02937244065105915,-0.025011049583554268,0.013228251598775387,0.07236617803573608,0.01938137412071228,0.0032331065740436316,0.010264947079122066,0.09556499868631363,-0.16866837441921234,-0.015431258827447891,-0.019716059789061546,-0.05490826442837715,-0.0029466620180755854,-0.02690429985523224,0.19111324846744537,0.03307733312249184,-0.007081353571265936,0.06843076646327972,0.0075377896428108215,-0.055959612131118774,-0.07549086213111877,-0.028657987713813782,-0.03938508406281471,-0.045477453619241714,0.01023007370531559,0.007776092272251844,-0.13010652363300323,0.0392281711101532,0.11104825884103775,0.05038735643029213,-0.12733744084835052,0.026149969547986984,0.1452791541814804,-0.013932290486991405,-0.04093609005212784,-0.006441780831664801,0.019575972110033035,0.07134641706943512,-0.11140306293964386,-0.07631949335336685,-0.06927595287561417,-0.04678323119878769,0.03318994864821434,-0.015155023895204067,0.12488079816102982,0.05485706776380539,0.10976970940828323,0.012343366630375385,0.03794090077280998,-0.04190371558070183,-0.06964053213596344,-0.05910372734069824,-0.08857755362987518,0.06301828473806381,-0.018791895359754562,0.0662018209695816,0.013671073131263256,-0.07590208202600479,-0.1167389452457428,-0.12170812487602234,0.05716947093605995,-0.07178069651126862,-0.12310399115085602,0.07458309084177017,0.010214565321803093,-0.031639743596315384,-0.2305484563112259,-0.002416146220639348,-0.074684739112854,-0.07931256294250488,-0.05583890527486801,-0.05775032564997673,0.052933063358068466,-0.010686704888939857,0.15611009299755096,0.050693757832050323,0.022976871579885483,-0.07957316935062408,-0.03486203774809837,0.1913250982761383,-0.203121155500412,-0.05629454553127289,0.011105991899967194,0.11350975930690765,0.12127251923084259,0.014057217165827751,0.13398130238056183,0.1021004468202591,0.09873934090137482,0.07079607993364334,0.1309356391429901,0.06264075636863708,0.01611102744936943,0.020286420360207558,0.04688480868935585,-0.0562705397605896,-0.03966725990176201,0.22548790276050568,0.029227430000901222,0.042228084057569504,0.09227348119020462,0.12800942361354828,-0.031933873891830444,-0.14825738966464996,-0.14357779920101166,0.041837431490421295,0.007604364305734634,0.12133879214525223,0.08152317255735397,-0.08990325033664703,0.15179100632667542,0.06705673038959503,-0.02093740925192833,0.007212781812995672,-0.08865929394960403,-0.06786998361349106,-0.008858725428581238,-0.056317105889320374,-0.03542715683579445,0.024267125874757767,-0.11513976007699966,0.0753747746348381,0.06369005143642426,0.06361319124698639,0.06132015213370323,0.0016058559995144606,-0.04572705179452896,-0.08072488009929657,-0.03852032497525215,-0.0627584159374237,-0.10056111961603165,-0.05532997474074364,0.10329213738441467,0.12617579102516174,-0.024964332580566406,0.05997442081570625,0.06604254990816116,0.026726383715867996,0.006176828872412443,0.05639761686325073,0.006239510606974363,-0.08273962140083313,0.06097905710339546,-0.10385485738515854,-0.13958381116390228,0.024641525000333786,-0.003323937300592661,-0.04742569848895073,-0.023946354165673256,0.01478327065706253,0.07435891032218933,0.07067746669054031,-0.0031926168594509363,0.10972629487514496,0.0430075079202652,0.07684898376464844,0.10526812821626663,-0.11067090928554535,-0.07234732061624527,-0.04737210273742676,0.09296046942472458,0.03271632641553879,-0.08937138319015503,-0.014484716579318047,-0.007982158102095127,-0.025540737435221672,-0.011667978018522263,0.10046688467264175,-0.0006638778722845018,-0.06969445198774338,-0.053098902106285095,0.08961590379476547,0.011516498401761055,0.01668648235499859,