{"version":"0.7.0","architecture":"SlimmableContainer","config":{"submodels":[{"max_value":0.5,"model":{"version":"0.7.0","metadata":{"date":{"year":2026,"month":5,"day":22,"hour":5,"minute":37,"second":44},"loudness":-25.331405639648438,"gain":0.9469304672706391},"architecture":"WaveNet","config":{"layers":[{"input_size":1,"condition_size":1,"head":{"out_channels":1,"kernel_size":16,"bias":true},"channels":3,"kernel_sizes":[6,6,6,6,6,6,6,6,6,6,6,6,6,6,15,15,6,6,6,6,6,6,6],"dilations":[1,3,7,17,41,101,239,1,3,7,17,41,101,239,1,13,1,3,7,17,41,101,239],"activation":[{"type":"LeakyReLU","negative_slope":0.01},{"type":"LeakyReLU","negative_slope":0.01},{"type":"LeakyReLU","negative_slope":0.01},{"type":"LeakyReLU","negative_slope":0.01},{"type":"LeakyReLU","negative_slope":0.01},{"type":"LeakyReLU","negative_slope":0.01},{"type":"LeakyReLU","negative_slope":0.01},{"type":"LeakyReLU","negative_slope":0.01},{"type":"LeakyReLU","negative_slope":0.01},{"type":"LeakyReLU","negative_slope":0.01},{"type":"LeakyReLU","negative_slope":0.01},{"type":"LeakyReLU","negative_slope":0.01},{"type":"LeakyReLU","negative_slope":0.01},{"type":"LeakyReLU","negative_slope":0.01},{"type":"LeakyReLU","negative_slope":0.01},{"type":"LeakyReLU","negative_slope":0.01},{"type":"LeakyReLU","negative_slope":0.01},{"type":"LeakyReLU","negative_slope":0.01},{"type":"LeakyReLU","negative_slope":0.01},{"type":"LeakyReLU","negative_slope":0.01},{"type":"LeakyReLU","negative_slope":0.01},{"type":"LeakyReLU","negative_slope":0.01},{"type":"LeakyReLU","negative_slope":0.01}],"bottleneck":3,"head1x1":{"active":false,"out_channels":1,"groups":1},"layer1x1":{"active":true,"groups":1},"groups_input":1,"groups_input_mixin":1,"conv_pre_film":{"active":false,"shift":true,"groups":1},"conv_post_film":{"active":false,"shift":true,"groups":1},"input_mixin_pre_film":{"active":false,"shift":true,"groups":1},"input_mixin_post_film":{"active":false,"shift":true,"groups":1},"activation_pre_film":{"active":false,"shift":true,"groups":1},"activation_post_film":{"active":false,"shift":true,"groups":1},"layer1x1_post_film":{"active":false,"shift":true,"groups":1},"head1x1_post_film":{"active":false,"shift":true,"groups":1},"gating_mode":["none","none","none","none","none","none","none","none","none","none","none","none","none","none","none","none","none","none","none","none","none","none","none"],"secondary_activation":[null,null,null,null,null,null,null,null,null,null,null,null,null,null,null,null,null,null,null,null,null,null,null],"slimmable":null}],"head":null,"head_scale":0.007233589242168707},"weights":[2.586688995361328,-0.1333296298980713,-2.4230871200561523,-0.2507561147212982,-0.31791847944259644,-0.10599648952484131,0.1770814210176468,0.3711024522781372,0.7063300013542175,-0.013735979795455933,0.02656005136668682,0.02416592463850975,0.004851129837334156,0.0005749040865339339,-0.041895974427461624,0.23079028725624084,0.3648409843444824,0.21800453960895538,-0.15161024034023285,-0.2955644428730011,-0.5373338460922241,-0.06995750963687897,-0.9323977828025818,-0.35793614387512207,-0.23694290220737457,0.3995256721973419,1.5771328210830688,-0.06376467645168304,0.058077581226825714,0.07453087717294693,0.0514393113553524,-0.05025973916053772,-0.12868021428585052,0.005905259400606155,0.6462372541427612,0.210398331284523,0.0480341762304306,-0.2483399659395218,-1.3282928466796875,-0.4410567283630371,-0.4518365263938904,-0.2292615920305252,0.08649832010269165,0.36659005284309387,0.46695536375045776,-0.05559408664703369,0.002874361351132393,0.01164101343601942,-0.0030621616169810295,-0.02122403122484684,-0.024766234681010246,0.6633808016777039,0.5417726039886475,0.2355903834104538,0.08852597326040268,-0.5066846013069153,-0.4471738040447235,-0.45541658997535706,1.1504698991775513,0.09017685055732727,0.5484633445739746,1.5593467950820923,0.009537753649055958,-0.8356015086174011,0.7074455618858337,0.34997034072875977,-0.17236019670963287,-0.2891979515552521,0.8367387056350708,1.2003579139709473,-0.9469165205955505,-0.6258408427238464,-0.061569567769765854,0.3263758718967438,0.8473584651947021,0.2442583292722702,0.16223321855068207,-0.05790933966636658,0.29423680901527405,0.12043134868144989,-0.16265363991260529,0.39689165353775024,0.3016563653945923,0.0999765694141388,0.4142022430896759,0.3828684985637665,-0.1414490044116974,0.07398161292076111,0.2530217468738556,0.10335884988307953,0.15973973274230957,-0.13057909905910492,0.3283289074897766,0.2566820979118347,0.009420140646398067,0.07909435033798218,0.4241732656955719,0.3758772015571594,-0.4799780249595642,0.322709858417511,0.40935567021369934,0.32359498739242554,-0.06090017035603523,0.24861711263656616,0.011187047697603703,0.06273321062326431,-0.0505831278860569,-0.08328596502542496,-0.08939052373170853,-0.21619972586631775,0.9511635303497314,0.27057042717933655,-0.07768856734037399,0.20156554877758026,0.12800715863704681,-0.3182445466518402,0.33160170912742615,0.172040656208992,0.20951299369335175,0.32496973872184753,0.4043430984020233,0.07864953577518463,0.01444533932954073,0.19565610587596893,-0.08971866220235825,0.07012567669153214,0.34376034140586853,0.47158947587013245,-0.448172003030777,0.08984433859586716,0.3111931085586548,0.19175516068935394,-1.0430058240890503,-0.9373854994773865,0.87235426902771,-0.4025561213493347,-0.4099232256412506,0.0685935765504837,0.45942923426628113,0.1718846708536148,0.18591907620429993,0.5237560272216797,1.332297921180725,-1.1478476524353027,-0.7177985310554504,-0.5341588258743286,0.3909370005130768,-0.18146488070487976,-0.04487033188343048,-0.09240014851093292,-0.00541577348485589,0.24136032164096832,0.008756191469728947,-0.1316056251525879,0.00808302965015173,0.0645299106836319,0.20597071945667267,-0.377886027097702,-0.18059085309505463,-0.09229515492916107,-0.07064338773488998,-0.08658919483423233,-0.09461884945631027,-0.04971837252378464,0.14256347715854645,-0.08786120265722275,-0.020707232877612114,-0.362775057554245,0.056462887674570084,0.17870643734931946,0.1645028442144394,0.20443180203437805,0.36705639958381653,0.2373487651348114,0.1410035490989685,0.21179325878620148,-0.4173911511898041,-0.054939478635787964,0.010632595047354698,-0.12034747004508972,0.0641459971666336,-0.0011899881064891815,0.011454751715064049,0.18454715609550476,0.13320791721343994,0.433401495218277,0.05529666319489479,0.14621154963970184,0.24005110561847687,-0.18507808446884155,-0.045628275722265244,-0.05491156876087189,0.2471461296081543,0.14446307718753815,-0.2051621377468109,0.07959675043821335,-0.020394951105117798,0.10067395865917206,-0.04087449237704277,0.2568318545818329,-0.028298387303948402,-0.15241113305091858,-0.725438117980957,-0.16034647822380066,-0.030481776222586632,0.2644043564796448,-0.2498101443052292,0.16607056558132172,-0.42267218232154846,0.056985579431056976,-0.5128425359725952,0.3395703136920929,-0.3484346866607666,0.1941518485546112,0.6686856746673584,-0.41128265857696533,-0.6935765743255615,-0.503022313117981,0.4188435673713684,-0.18836389482021332,-0.10444876551628113,0.17043651640415192,0.1961425542831421,0.1980283409357071,-0.20874735713005066,-0.3372576832771301,-0.04065568372607231,-0.21116913855075836,-0.4235488176345825,-0.8273725509643555,0.5271450281143188,-0.0368337407708168,0.037188734859228134,0.10008446872234344,0.078238844871521,0.11255664378404617,-0.0544266402721405,-0.1591295748949051,-0.3453722596168518,-0.21648910641670227,-0.06270390748977661,-0.2510235607624054,-0.3007175326347351,0.18186889588832855,0.031851090490818024,0.15408022701740265,0.14316315948963165,-0.03286651521921158,-1.1014535427093506,-0.050084955990314484,-0.007868385873734951,-0.01980253867805004,0.030611185356974602,-0.05492313578724861,0.05051126703619957,-0.05405433103442192,0.015185984782874584,-0.04535419121384621,-0.11664649099111557,-0.2603393495082855,-0.0497049018740654,-0.005469341296702623,0.11203200370073318,0.6173182725906372,0.3924891948699951,0.05053059384226799,-0.456160306930542,-0.03774307668209076,-0.07022209465503693,0.033966656774282455,-0.03429827094078064,-0.06874691694974899,-0.14625132083892822,0.28399649262428284,-0.1130375862121582,-0.03972842916846275,1.0013983249664307,-0.7126457691192627,0.3772561252117157,0.47892099618911743,-0.27666327357292175,-0.23579291999340057,-0.6269797682762146,0.7091812491416931,-0.07467533648014069,0.09068164974451065,-0.0488005056977272,0.3070482909679413,-0.4484325349330902,-0.16160738468170166,-0.30318430066108704,0.07313387095928192,-0.014724700711667538,-0.07860740274190903,-0.007036860100924969,-0.027638498693704605,0.0992080494761467,0.1663120985031128,0.10175216943025589,0.02871588058769703,0.028384869918227196,-0.03440694138407707,0.36184507608413696,0.02525654248893261,0.025728760287165642,-0.04267529770731926,0.0029528678860515356,-0.023433269932866096,0.14357148110866547,-0.2435297816991806,-0.21833902597427368,-0.27042466402053833,-0.13897143304347992,-0.20599833130836487,-0.12036687135696411,0.06467116624116898,0.14905379712581635,0.04114329442381859,0.3147173225879669,0.12428075075149536,-0.7095592617988586,-0.09058663994073868,-0.08302503079175949,-0.08938415348529816,-0.06999363750219345,-0.09969809651374817,0.3271236717700958,-0.037926528602838516,-0.10863165557384491,-0.09906100481748581,-0.11059913784265518,-0.06021636724472046,0.45040780305862427,0.09348531067371368,-0.06774576753377914,-0.10152250528335571,0.1929580122232437,0.2694946527481079,0.07897715270519257,-0.029648158699274063,-0.037436649203300476,-0.016115223988890648,-0.046515654772520065,-0.031694523990154266,-0.11143310368061066,0.03622841462492943,0.45170244574546814,0.17795123159885406,-0.07848253101110458,-0.49512019753456116,0.7255460619926453,0.20232753455638885,-0.04458955302834511,-0.29714614152908325,-0.3436407744884491,0.6261967420578003,0.03136091306805611,-0.0704994797706604,-0.5251610279083252,0.29843953251838684,-0.511374294757843,-0.7993021011352539,-0.40208983421325684,0.025085683912038803,0.10099691152572632,0.10161742568016052,0.23956947028636932,-0.02722044102847576,-0.34744909405708313,-0.07528513669967651,-0.047692589461803436,-0.1742500364780426,-0.22668856382369995,-0.4545939862728119,0.5326387882232666,0.030703948810696602,0.0640871673822403,0.10696491599082947,0.18167994916439056,0.12584054470062256,0.6494268774986267,-0.05409437045454979,0.026480358093976974,0.06724648922681808,0.08282095193862915,0.3556516468524933,0.03280409798026085,0.07019421458244324,0.02993209846317768,0.24815399944782257,0.030602160841226578,-0.5735607743263245,0.2940044105052948,-0.08621028065681458,-0.028538042679429054,0.016513513401150703,-0.12141358852386475,0.2705566883087158,-0.3080067038536072,0.1742687076330185,-0.011978674679994583,-0.07075671851634979,-0.11219741404056549,0.17092646658420563,0.14047162234783173,0.12986093759536743,0.12552273273468018,0.19160419702529907,0.30296462774276733,0.4254809021949768,-0.28554007411003113,0.1359829604625702,0.07782307267189026,-0.04187038540840149,-0.07226434350013733,-0.07095044106245041,0.2088390737771988,-0.1857309341430664,-0.13664448261260986,0.1635257750749588,-0.47503235936164856,-0.04657556489109993,0.23258908092975616,0.7603374123573303,0.11593197286128998,-0.5702303051948547,-0.24959060549736023,-0.5042815804481506,0.13603506982326508,-0.4695460796356201,0.5124616026878357,-0.48020288348197937,0.27595433592796326,-0.28764334321022034,-0.2585771083831787,-0.1254226416349411,-0.048250675201416016,-0.1141345426440239,-0.08135196566581726,-0.3008173108100891,-0.7044863700866699,0.029334254562854767,-0.04949275404214859,0.007160707376897335,-0.3511097729206085,-0.5952845215797424,-0.22624197602272034,-0.07439543306827545,0.013430806808173656,-0.007749250624328852,0.03860451281070709,0.10254810005426407,0.8325707316398621,0.0630360022187233,-0.07823240756988525,-0.0017123722936958075,-0.02123282290995121,0.022753959521651268,-0.21215397119522095,-0.03601992130279541,-0.028237473219633102,-0.20463049411773682,-0.11584080755710602,-0.5653508305549622,0.3510643243789673,0.07894866913557053,-0.013349139131605625,0.08473711460828781,0.0869646966457367,0.0609707236289978,0.2056240290403366,-0.030089275911450386,-0.022026054561138153,-0.0031727582681924105,0.1305629312992096,-0.28205054998397827,0.19964931905269623,0.010440739803016186,-0.0366053432226181,0.2616259455680847,-0.0040447465144097805,0.24571406841278076,-0.3503398597240448,-0.0607430674135685,0.023226669058203697,-0.07267487049102783,0.03450498729944229,-0.014035518281161785,-0.23319673538208008,0.10732699930667877,0.3392413258552551,-0.06424446403980255,0.34099438786506653,0.17650870978832245,0.17783880233764648,0.23961211740970612,-0.27669253945350647,0.05345648154616356,0.5977947115898132,0.3350496292114258,-0.6373149156570435,0.766238808631897,0.4624268412590027,-0.2960205078125,0.14525647461414337,-0.4428645670413971,0.09887140244245529,-0.06271004676818848,-0.2828972339630127,-0.23655398190021515,-0.38612401485443115,-0.1844472736120224,-0.29868993163108826,-0.16427400708198547,0.06150104105472565,0.1621391922235489,-0.13938674330711365,-0.2302895188331604,-0.25766807794570923,-0.3343386650085449,0.048935841768980026,0.19546779990196228,0.25373345613479614,-0.16533996164798737,-0.019696004688739777,-0.015757672488689423,0.04491038620471954,-0.06673410534858704,0.12790849804878235,-0.14502044022083282,0.18782570958137512,0.06239129602909088,-0.2243136763572693,-0.050914157181978226,-0.3639690577983856,0.3789685070514679,-0.20396485924720764,-0.02517790161073208,0.060773227363824844,0.25664058327674866,-0.43559548258781433,0.48265546560287476,-0.37249189615249634,-0.3153325617313385,0.024196939542889595,0.2158893495798111,-0.2698429226875305,0.05839071050286293,-0.09073714911937714,0.32327771186828613,-0.3565811514854431,-0.467739999294281,0.5376504063606262,-0.21277454495429993,-0.20101390779018402,0.3425096869468689,-0.35090717673301697,-0.5308151841163635,0.6753403544425964,0.040403056889772415,-0.17477846145629883,0.1278945356607437,-0.5293086171150208,-0.3170894384384155,-0.08804897218942642,-0.08393814414739609,-0.644817590713501,-0.0800146609544754,0.4452418088912964,1.1200119256973267,0.04747723788022995,0.5726053714752197,0.6916407942771912,-0.4118654727935791,-0.12512703239917755,0.32533082365989685,-0.5241385102272034,-0.7264412045478821,0.10132622718811035,0.10009416192770004,0.11347471177577972,0.1566532552242279,-0.039579275995492935,0.2128196507692337,-0.1451459378004074,0.1606287658214569,0.07264094799757004,0.3736524283885956,0.24062012135982513,0.27619946002960205,0.15450775623321533,0.1804739087820053,0.015743741765618324,0.28758615255355835,-0.0061131990514695644,0.3447254002094269,0.41700926423072815,-0.090752013027668,0.1843547224998474,0.043298251926898956,-0.22810453176498413,0.19025784730911255,0.5344930291175842,0.10194525867700577,-0.13272060453891754,-0.14071990549564362,0.09930527210235596,0.0408468060195446,-0.3897389769554138,0.18769633769989014,-0.05909819155931473,0.1368759125471115,0.2542078197002411,-0.20437663793563843,-0.4147850573062897,0.10696965456008911,-0.04020155593752861,-0.0011996319517493248,0.0260489359498024,-0.05153414234519005,-0.15027707815170288,0.09802913665771484,0.10206467658281326,-0.034391675144433975,0.04215486720204353,-0.167353555560112,0.5986533164978027,-0.0349164642393589,-0.017169330269098282,0.010831608437001705,0.18721500039100647,-0.6451785564422607,0.6902117729187012,-0.5174577832221985,0.0006110806134529412,-0.2895808815956116,0.27826353907585144,0.2577150762081146,-0.26599395275115967,0.3885236084461212,-0.5256891846656799,0.5468246936798096,0.29345187544822693,-0.1925765573978424,0.2685013711452484,0.29383379220962524,0.02957354113459587,0.3232593834400177,-0.7983476519584656,-0.25750380754470825,0.3585692346096039,0.0337824746966362,0.016874752938747406,-0.0867369994521141,-0.26402145624160767,-0.11514607071876526,-0.262224018573761,-0.049330227077007294,-0.20084969699382782,-0.108570396900177,0.1301533579826355,0.21536067128181458,-0.039466410875320435,0.11630702018737793,0.2568807005882263,0.23571504652500153,0.3216089904308319,0.13059620559215546,0.061802882701158524,0.02220253273844719,-0.14524289965629578,0.008050162345170975,0.11324269324541092,-0.05742006376385689,-0.15802593529224396,-0.15512986481189728,-0.0664520263671875,-0.10926005244255066,-0.04977604001760483,0.06689366698265076,0.27882224321365356,0.03879619017243385,0.010981876403093338,0.05801466107368469,-0.0008352482691407204,0.19780828058719635,-0.1106952652335167,-0.24194493889808655,-0.1537790447473526,-0.11708192527294159,-0.14428360760211945,-0.1557702124118805,-0.006755332928150892,0.15904511511325836,0.2639603614807129,0.10082340240478516,0.17505201697349548,-0.09672131389379501,0.15609784424304962,0.09814921021461487,0.10213100910186768,0.09561377018690109,-0.1209287941455841,-0.2571074962615967,-0.1606520563364029,0.28074294328689575,0.3066444993019104,0.4581264853477478,-0.09964396059513092,0.5880093574523926,0.05360438674688339,-0.31769564747810364,-0.2092452198266983,-0.23049239814281464,0.47650477290153503,-0.4888453483581543,-0.05758664384484291,0.17342913150787354,0.32953643798828125,-0.18352513015270233,0.013228261843323708,-0.6119810938835144,-0.04143958538770676,-0.0700879916548729,0.018589701503515244,0.041044291108846664,-0.018869983032345772,0.06064785644412041,0.2101929634809494,0.19112536311149597,0.03127172961831093,-0.024085253477096558,-0.058319997042417526,0.013187981210649014,0.127166748046875,-0.06723696738481522,0.05535430833697319,-0.005766525864601135,-0.024886442348361015,-0.13177385926246643,-0.21729379892349243,0.000988238723948598,0.02264726534485817,0.02183731272816658,0.10400325059890747,-0.07362717390060425,0.294495552778244,0.03807040676474571,0.05786389485001564,-0.12362320721149445,-0.17035719752311707,0.009096864610910416,0.25486645102500916,-0.07491625845432281,-0.04944039136171341,-0.021509887650609016,0.04301004111766815,0.11943934857845306,-0.10956121981143951,0.10553133487701416,0.06704842299222946,0.04878192022442818,-0.040757108479738235,0.10662904381752014,0.31022176146507263,-0.21018828451633453,-0.11399990320205688,0.03751422464847565,0.02158959023654461,-0.0090925432741642,0.12685483694076538,-0.18560130894184113,-0.013430528342723846,-0.06307701766490936,-0.035761501640081406,-0.0847380980849266,-0.11255492269992828,-0.255604088306427,-0.47832006216049194,-0.1177469789981842,0.14050212502479553,0.0472700372338295,0.21133580803871155,-0.31321677565574646,0.117264024913311,-0.3566450774669647,-0.3564612865447998,-0.5543200373649597,0.11677929759025574,-0.1824502795934677,-0.48454663157463074,0.143015056848526,0.14117056131362915,-0.1572498232126236,-0.21236875653266907,0.0904466062784195,0.009942948818206787,-0.06337765604257584,-0.03259173408150673,-0.1476956009864807,-0.19122302532196045,-0.23816315829753876,-0.30403122305870056,-0.11176177114248276,-0.21448643505573273,0.1433955729007721,0.3826825022697449,0.1112477034330368,0.20410974323749542,0.10781802982091904,0.19407592713832855,0.06055416539311409,0.5657947063446045,-0.13380993902683258,-0.05009091645479202,-0.154611736536026,-0.02556307427585125,0.08254557102918625,-0.09845353662967682,0.12502281367778778,0.5780783891677856,0.2601776421070099,0.0145829226821661,0.2614327669143677,-0.2104618400335312,-0.005210621748119593,-0.21119382977485657,0.001305250683799386,0.105099156498909,-0.12667986750602722,-0.32102736830711365,0.005903694313019514,0.19577287137508392,0.03531944379210472,-0.13110250234603882,-0.08381275087594986,0.1075952798128128,-0.3058761656284332,-0.3802368640899658,-0.20821525156497955,0.019566986709833145,-0.010275159031152725,0.1407756209373474,0.1673726588487625,0.08754207193851471,0.024281242862343788,-0.10437972098588943,-0.005539005622267723,0.11289520561695099,0.3869626820087433,-0.16388849914073944,0.24026648700237274,-0.010527865961194038,-0.15897496044635773,-0.3676150441169739,-0.6297719478607178,0.5846886038780212,-0.6453306078910828,0.4804050326347351,-0.4633462727069855,0.8691354393959045,0.7392141222953796,0.31945016980171204,-0.31650543212890625,-0.04605677351355553,-0.3101969361305237,-0.1051442101597786,-0.019316043704748154,0.05860913172364235,0.13142189383506775,0.1317674219608307,0.0033201242331415415,-0.5246564149856567,0.11029163002967834,0.1271468549966812,0.10941045731306076,0.13260695338249207,0.16024614870548248,-0.02513529546558857,-0.16075631976127625,-0.13419277966022491,-0.09345117956399918,-0.13630430400371552,-0.2151721864938736,-0.05524786189198494,0.04148346185684204,0.10586466640233994,-0.25649917125701904,-0.06930306553840637,-0.005448515526950359,-0.3996216356754303,0.13944792747497559,0.09795885533094406,-0.047974880784749985,-0.19549797475337982,-0.09573093056678772,-0.09490753710269928,0.11134804040193558,0.08531825989484787,0.14501456916332245,0.2774295508861542,0.11529069393873215,0.17556485533714294,-0.17696842551231384,-0.10790709406137466,-0.13327111303806305,-0.14586426317691803,-0.32731059193611145,0.056444332003593445,-0.05713871121406555,0.010605334304273129,-0.07687969505786896,-0.033991239964962006,-0.029349742457270622,-0.01721315085887909,-0.0010842228075489402,-0.04724276065826416,0.026363015174865723,0.06455463171005249,-0.001387132564559579,-0.05246565490961075,-0.4098171889781952,-0.3781139850616455,0.19068285822868347,-0.38259071111679077,0.018546173349022865,0.27360671758651733,0.7440906763076782,0.4237292408943176,-0.16845391690731049,0.30539336800575256,-0.42643463611602783,-0.4589979350566864,-0.3676912188529968,0.37795165181159973,0.36047857999801636,-0.2696700394153595,-0.4412229359149933,0.4581127166748047,-0.1497679352760315,-0.15694040060043335,-0.11918278783559799,-0.16161096096038818,-0.010640892200171947,-0.027450965717434883,-0.10575239360332489,-0.07601028680801392,-0.05444981902837753,0.01421362441033125,0.020216336473822594,0.3546265959739685,0.01634436845779419,-0.004686162807047367,-0.04588668793439865,-0.09063053876161575,-0.022358255460858345,-0.05914103612303734,-0.2592899799346924,-0.10572456568479538,-0.3148440718650818,0.08044663816690445,-0.20889075100421906,-0.20466524362564087,-0.23814211785793304,-0.12479371577501297,-0.2212018370628357,-0.17327997088432312,-0.13772930204868317,0.3497737944126129,0.15932057797908783,0.08276250958442688,0.17123451828956604,0.14342515170574188,0.04687840864062309,-0.4216569662094116,-0.10406313091516495,-0.11799988150596619,0.03318248689174652,-0.036725692451000214,0.11688791215419769,-0.5450409650802612,-0.14224205911159515,-0.07222465425729752,-0.012702278792858124,0.11233016103506088,0.058062437921762466,-0.1372806280851364,0.10998881608247757,0.010615957900881767,0.01272858027368784,-0.17321495711803436,-0.19992582499980927,-0.0366019681096077,-0.38416704535484314,-0.09942607581615448,0.39474424719810486,-0.465014785528183,0.010109848342835903,0.23091429471969604,-0.5734387636184692,0.3973081409931183,-0.3190065920352936,0.7232162952423096,-0.6759241223335266,-0.03227884694933891,0.20124268531799316,0.25682225823402405,-0.8173819780349731,-0.9431882500648499,-0.23154497146606445,0.32303860783576965,-0.2697901725769043,-0.13944634795188904,-0.17576944828033447,-0.10167677700519562,0.0441574901342392,0.04326465725898743,-0.08207545429468155,0.008294607512652874,0.04047234356403351,-0.3812922537326813,-0.4131363034248352,-0.10755231231451035,0.06497262418270111,-0.01266504917293787,0.328224241733551,-0.1327899992465973,0.0024978264700621367,-0.05525174364447594,0.022307250648736954,0.041617605835199356,0.02718513272702694,0.021440759301185608,-0.13154026865959167,-0.07783627510070801,-0.14448872208595276,-0.06022271886467934,0.1524764746427536,0.1246253252029419,0.011730097234249115,-0.10051291435956955,0.09297200292348862,0.021582160145044327,0.03863421827554703,0.09993579238653183,-0.0019589990843087435,0.06462724506855011,0.056075334548950195,-0.2798160910606384,-0.10865186154842377,-0.08051466941833496,0.31625044345855713,0.35887667536735535,0.34980738162994385,-0.22874189913272858,-0.2126588374376297,0.13028667867183685,0.046539343893527985,0.059279777109622955,0.04814225062727928,0.2749412953853607,-0.02290831133723259,-0.03514062613248825,0.19287508726119995,0.2583657205104828,0.2092019021511078,0.229801744222641,0.26034292578697205,0.48629263043403625,0.6471867561340332,1.265238881111145,0.005007635802030563,-0.09022749215364456,-0.20189078152179718,0.10314419865608215,-0.0012016050750389695,0.08539527654647827,0.056859977543354034,0.12066872417926788,0.044908635318279266,0.08696459978818893,0.029878811910748482,0.02704288437962532,-0.19660790264606476,-0.3069433271884918,-0.2994518280029297,0.4682548940181732,0.07575605809688568,0.14380194246768951,0.07469018548727036,0.08634790033102036,0.16141736507415771,0.048043496906757355,0.20738081634044647,0.06624945998191833,-0.019839143380522728,0.20477695763111115,-0.2403116226196289,-0.5563956499099731,-1.135921597480774,-1.0190322399139404,0.04157660901546478,0.04576319456100464,0.014639362692832947,-0.07849182188510895,0.08842500299215317,-0.036302175372838974,-0.06927689909934998,0.05558609217405319,0.09553387761116028,0.2136538028717041,0.09110569208860397,0.12374761700630188,0.27069616317749023,0.11954294890165329,0.22069808840751648,-0.1291009485721588,-0.11396567523479462,-0.07419585436582565,-0.004112401511520147,0.02492528222501278,-0.030414680019021034,-0.05616309493780136,0.11744294315576553,-0.11701766401529312,0.0865253359079361,0.006371182855218649,-0.0676763728260994,0.0027469813358038664,-0.3798755705356598,-0.41238364577293396,0.31028375029563904,0.0557369664311409,0.12466497719287872,0.005875787697732449,0.03079361282289028,0.15848985314369202,0.05278535187244415,0.2526136040687561,-0.09969343990087509,0.0926252231001854,0.08404558151960373,-0.2173914611339569,-0.3360518515110016,-0.3359203636646271,-0.16410468518733978,0.05506327003240585,-0.21128518879413605,-0.42918065190315247,0.18924979865550995,0.19676156342029572,0.07158373296260834,-0.05511252209544182,-0.4085072875022888,0.7480754256248474,-0.23917174339294434,0.002037712140008807,0.2699783146381378,-0.01585317589342594,0.5013411045074463,-0.5956978797912598,-1.0134705305099487,-1.1927573680877686,0.762989342212677,-0.16925951838493347,-0.1936393529176712,0.35704654455184937,-0.034320104867219925,-0.2274641990661621,0.227473646402359,0.4781625270843506,0.0802755206823349,-0.33154332637786865,0.3504610061645508,-0.07208109647035599,0.13955001533031464,-0.05478304624557495,0.013305485248565674,-0.7771099209785461,-0.2617526948451996,-0.03771193325519562,-0.1005922183394432,0.03945141285657883,0.076227568089962,0.1758164018392563,0.0035859851632267237,-0.1536809355020523,-0.14962232112884521,-0.046855077147483826,-0.3495437204837799,0.06624185293912888,-0.09634719789028168,-0.38271892070770264,-0.6354045271873474,-0.01948660798370838,0.07248902320861816,0.1433231085538864,-0.01027816440910101,0.2965919077396393,0.295053631067276,0.04667315632104874,0.23305028676986694,0.321892112493515,-0.12651316821575165,-0.30839648842811584,-0.11064789444208145,0.17574350535869598,0.3136332035064697,0.08678244054317474,-0.2126649022102356,-0.1487300544977188,-0.15370282530784607,-0.1659621298313141,-0.16598746180534363,-0.06218048185110092,-0.1159316748380661,-0.113186314702034,-0.12858590483665466,-0.09892752766609192,-0.08920514583587646,-0.01669984869658947,0.010333872400224209,-0.048400554805994034,0.08068366348743439,0.12347151339054108,0.09013721346855164,0.0937727838754654,0.10025676339864731,0.03496074676513672,-0.06395070999860764,-0.08786942064762115,-0.10995882749557495,-0.09605440497398376,-0.05927092954516411,-0.0079628461971879,-0.06486468017101288,-0.029764417558908463,-0.010030793026089668,-0.039944253861904144,-0.1572723537683487,-0.24071435630321503,-0.15612034499645233,-0.10910357534885406,-0.1445850133895874,-0.2390003353357315,-0.17967358231544495,-0.11396690458059311,-0.05653386190533638,-0.0011770442361012101,0.04929555207490921,-0.02502623200416565,-0.028197595849633217,-0.030136339366436005,-0.07056444138288498,-0.11487332731485367,-0.04301939904689789,0.21248368918895721,-0.03664682060480118,-0.16919513046741486,-0.12582220137119293,0.19694247841835022,-0.17051510512828827,-0.35063430666923523,0.03394497185945511,-0.14302362501621246,-0.268039345741272,-0.42700645327568054,0.035584475845098495,0.1859738677740097,-0.028367768973112106,0.11600055545568466,0.18454965949058533,-0.010636575520038605,0.0009445631294511259,-0.0025249032769352198,0.0635964572429657,0.10136423259973526,0.05639461800456047,-0.19817239046096802,-0.2390686273574829,-0.12545697391033173,-0.2823343873023987,-0.22872120141983032,-0.7133846879005432,0.005937592126429081,-0.0862278863787651,-0.07298243790864944,-0.03167684003710747,0.04692171514034271,0.144783154129982,-0.034296244382858276,-0.06787993758916855,-0.01223287358880043,0.20463870465755463,0.021421561017632484,-0.04381992667913437,0.30725187063217163,0.11926084756851196,0.33630383014678955,0.23298527300357819,0.007345836143940687,0.17250588536262512,0.22842775285243988,0.046120937913656235,-0.2972280979156494,0.12189775705337524,0.19874922931194305,-0.4102654755115509,-0.18583481013774872,-0.3690221309661865,0.5259466767311096,0.18545711040496826,0.08298566192388535,-0.2969096302986145,-0.6197382211685181,-0.5982537865638733,-0.1830480694770813,-0.016867322847247124,0.11940862983465195,-0.2181822657585144,-0.4489920735359192,-0.5137072205543518,-0.5663963556289673,-0.32439500093460083,-0.2587682008743286,0.16923868656158447,-0.09360937029123306,-0.2785904109477997,-0.3558202087879181,-0.22458922863006592,0.08054646104574203,0.24585364758968353,0.5158683657646179,0.17235177755355835,-0.3188575506210327,-0.048243358731269836,0.13411575555801392,-0.07507168501615524,-0.0030431575141847134,-0.04332168772816658,-0.2548573911190033,-0.3365038335323334,-0.17440955340862274,0.0729551687836647,-0.1017548069357872,-0.10765180736780167,-0.08307195454835892,0.044430118054151535,0.0753970742225647,0.15894600749015808,-0.23415005207061768,0.08653350174427032,-0.09151972830295563,0.0800742357969284,-0.10472812503576279,0.11657531559467316,-0.14335277676582336,-0.05554080381989479,0.13820123672485352,0.016579527407884598,0.04751124605536461,-0.05151771008968353,-0.18809370696544647,0.37382829189300537,0.5333048701286316,-0.2899031341075897,-0.04357315972447395,-0.027229756116867065,0.13184291124343872,0.6741119027137756,0.03461122512817383,0.2846735715866089,0.04220235347747803,-0.7465162873268127,0.17418454587459564,0.07459773868322372,0.06238845735788345,0.15073178708553314,-0.12941771745681763,0.11826145648956299,0.2830672860145569,-0.3878796696662903,-0.6088950634002686,-0.1567249745130539,0.4764878451824188,-0.7380288243293762,-0.22941528260707855,-0.5549196600914001,-0.06055831164121628,-0.20059658586978912,0.04398646578192711,-0.08462561666965485,0.7286312580108643,-0.5646152496337891,0.17515821754932404,-0.0423288531601429,0.04287680611014366,-0.14256514608860016,-0.17979039251804352,0.4687355160713196,-0.039638929069042206,-0.17707324028015137,0.16758577525615692,0.22303788363933563,-1.015968918800354,0.9522097706794739,-0.1511704921722412,-0.10805316269397736,-0.10495565831661224,-0.08348387479782104,0.2115517258644104,-0.1416369527578354,-0.049741148948669434,-0.04804201424121857,0.13501717150211334,-0.0908132940530777,-0.11647965013980865,-0.03295811265707016,0.07767157256603241,-0.2216540277004242,-0.027363499626517296,-0.09833155572414398,0.04473882168531418,-0.20718762278556824,-0.16030649840831757,0.15238675475120544,0.09773247689008713,0.02702835388481617,-0.0027313868049532175,-0.03873167559504509,-0.48244795203208923,-0.1531800776720047,0.041457027196884155,-0.009081928990781307,-0.09321054816246033,-0.1805696189403534,0.015853220596909523,0.01906985230743885,-0.1267186552286148,0.013931384310126305,-0.16235686838626862,-0.17082011699676514,0.22824759781360626,0.3128811717033386,0.060727618634700775,-0.3375440239906311,-0.032703641802072525,0.03383556380867958,0.2234235256910324,-0.151720330119133,-0.1522217094898224,0.5033305883407593,-0.17129287123680115,-0.7362314462661743,-0.07921987771987915,0.029008029028773308,-0.17547465860843658,-0.3102663457393646,-0.4545346200466156,-0.39307457208633423,0.015076828189194202,0.010580104775726795,-0.0659799575805664,0.22192084789276123,0.10721302777528763,0.16456618905067444,-0.49728459119796753,-0.022608349099755287,0.08358018845319748,-0.017487188801169395,-0.02904476225376129,-0.30021825432777405,0.25854456424713135,0.00745459133759141,-0.10830947011709213,0.03426620736718178,-0.23079745471477509,0.09951721131801605,0.1562681496143341,-0.04154517129063606,0.025594672188162804,0.00563669903203845,-0.23007987439632416,0.002951099304482341,1.1514008045196533,0.1968865990638733,0.08873844146728516,0.05151960626244545,0.25728482007980347,-0.06435738503932953,-0.08994655311107635,-0.019450459629297256,0.08511612564325333,0.05221583694219589,0.02839893288910389,0.33650797605514526,-0.37490224838256836,-0.13083285093307495,0.006791149731725454,-0.22498969733715057,0.040121011435985565,-0.6772491335868835,0.1922011375427246,-0.19014601409435272,-0.17679420113563538,-0.16119864583015442,-0.08598878979682922,0.30471909046173096,-0.10320000350475311,0.023573121055960655,0.07922037690877914,0.06481203436851501,0.07179249823093414,-0.20354244112968445,-0.2419036626815796,-0.3551470935344696,-0.24705219268798828,0.07530728727579117,0.13121522963047028,0.28853824734687805,-0.08121711015701294,0.43939462304115295,-0.536554753780365,-0.7222715616226196,-0.42104363441467285,0.48711663484573364,-0.00850994698703289,0.08911435306072235,0.4965379238128662,-0.24557945132255554,0.12465643882751465,-0.8410698175430298,0.6735902428627014,0.23290936648845673,0.04836755245923996,0.1070791482925415,0.002083273371681571,-0.11719010770320892,-0.18421190977096558,0.33808064460754395,0.3420567214488983,0.2988901734352112,0.1984647512435913,0.14539885520935059,0.41130146384239197,-0.41380906105041504,-0.32654017210006714,-0.4489353597164154,-0.29793742299079895,-0.06217978522181511,-0.0033209763932973146,0.10564110428094864,0.23640164732933044,0.014669647440314293,-0.007362673990428448,0.014965771697461605,-0.5930941700935364,-0.16233813762664795,-0.2899380028247833,-0.1516595035791397,-0.054214488714933395,-0.15068970620632172,0.07171385735273361,-0.0009924587793648243,-0.20016366243362427,-0.1791834533214569,-0.296683132648468,-0.3171599507331848,-0.03229134529829025,-0.007128305267542601,-0.23567965626716614,-0.47360122203826904,-0.11476913094520569,-0.1462985724210739,0.003769876668229699,-0.09793488681316376,0.12715595960617065,-0.08023000508546829,0.0918492004275322,-0.12294293940067291,-0.4255882203578949,0.005585324950516224,-0.1517041027545929,0.6021384596824646,0.24534007906913757,0.04753629118204117,-0.10353604704141617,0.00916820764541626,0.4777108430862427,0.03105015866458416,0.00043306982843205333,-0.08161386847496033,-0.06871821731328964,0.08140448480844498,0.6336787939071655,0.07037189602851868,-1.2630140781402588,-0.4681987166404724,0.5723785161972046,0.3128381371498108,-0.16600333154201508,0.38638752698898315,-0.0035742325708270073,-0.7215893864631653,0.5244911909103394,0.07702752947807312,-0.0822882279753685,0.1614900529384613,0.15403425693511963,0.2317686378955841,0.43225952982902527,-0.050808195024728775,-0.0018510997761040926,0.056261491030454636,0.19255124032497406,-0.014949529431760311,0.1921849399805069,-0.07276228815317154,0.007524410728365183,0.050257325172424316,-0.0035402625799179077,0.04789627343416214,-0.19793199002742767,0.02397359348833561,0.28864988684654236,-0.23748306930065155,-0.13942645490169525,-0.031987786293029785,-0.35879144072532654,-0.0935528576374054,-0.04479982331395149,0.005378436297178268,-0.23380526900291443,-0.20518557727336884,-0.13380573689937592,0.1468435525894165,-0.08456945419311523,-0.1993432343006134,0.10968372225761414,0.3411499857902527,-0.036982856690883636,-0.16192957758903503,-0.10629831254482269,-0.2255149781703949,0.14111077785491943,-0.3991188108921051,0.0880485400557518,0.040343496948480606,-0.21481506526470184,0.07315389811992645,0.09207387268543243,0.036121267825365067,-0.38379961252212524,0.007377504836767912,0.34288206696510315,0.20177091658115387,0.23147957026958466,0.1512478142976761,-0.044245362281799316,-0.22765174508094788,-0.17728273570537567,-0.10273848474025726,0.016979219391942024,0.028912726789712906,0.04452412202954292,0.4817122519016266,-0.763282835483551,0.20989394187927246,-0.38926076889038086,0.11927302181720734,0.7299909591674805,-0.5769108533859253,0.9513306021690369,0.4850572645664215,0.09324544668197632,-0.7619044184684753,0.8644098043441772,0.029233871027827263,-0.09433337301015854,-0.21203748881816864,-0.13509501516819,0.10375725477933884,0.19225925207138062,0.09358038753271103,-0.007457657251507044,-0.07828367501497269,0.05003296211361885,0.014592483639717102,-0.19353125989437103,0.04896635189652443,0.12305669486522675,0.03982318192720413,0.05376959219574928,-0.10995589196681976,0.21491536498069763,0.04129740968346596,0.1921253353357315,-0.2629627585411072,-0.14669913053512573,0.18883630633354187,-0.17967507243156433,-0.09447792172431946,-0.012886329554021358,-0.24250951409339905,-0.11045632511377335,0.39289987087249756,-0.02696303091943264,0.23486214876174927,0.01411659549921751,-0.06609569489955902,0.26500067114830017,-0.05035478621721268,0.06310052424669266,-0.05077134445309639,0.14071805775165558,-0.07242968678474426,0.4013671576976776,-0.10920466482639313,-0.10669312626123428,0.03725151717662811,0.05618894472718239,0.33875706791877747,-0.5511786341667175,-0.14571785926818848,-0.06648503243923187,0.27312126755714417,0.09894637018442154,0.1929260492324829,0.09566467255353928,0.1819647252559662,0.019850844517350197,0.4702998399734497,0.2902422845363617,0.38293883204460144,0.13734060525894165,0.17394594848155975,0.20883354544639587,0.020963024348020554,0.35680171847343445,-0.3361044228076935,-0.4833274185657501,1.044211506843567,0.01720931939780712,-0.012203658930957317,0.43978455662727356,0.5298855304718018,0.030255094170570374,-0.566032886505127,0.18725579977035522,-0.05659792199730873,-0.16097649931907654,0.025330187752842903,-0.04845789074897766,-0.05543145164847374,-0.36722084879875183,0.029940085485577583,-0.09954521059989929,0.10777529329061508,-0.1395726054906845,0.5023130178451538,-0.4263674318790436,-0.1297108680009842,-0.20001696050167084,-0.049537383019924164,-0.021511666476726532,-0.08680184185504913,-0.009942122735083103,0.057281095534563065,0.003450833959504962,-0.06840930879116058,0.09980572015047073,-0.49676382541656494,-0.08836936950683594,-0.044438280165195465,-0.19041523337364197,-0.11765164136886597,-0.261695921421051,0.26324623823165894,-0.30263105034828186,0.26645809412002563,0.2032887041568756,0.2645837068557739,-0.0745125263929367,0.11451009660959244,0.24257588386535645,-0.03022356703877449,0.019305234774947166,-0.16406165063381195,-0.06862655282020569,0.02228689379990101,0.1282680630683899,-0.09979473799467087,-0.05951244384050369,-0.24786093831062317,-0.09119436144828796,-0.591944694519043,0.31110048294067383,0.10728845745325089,0.21132856607437134,0.009941375814378262,0.14527183771133423,0.12011806666851044,-0.001875639776699245,0.15599314868450165,-0.033531635999679565,0.47103866934776306,0.03797607123851776,0.08937638252973557,-0.09708897769451141,-5.060338185803564e-39,1.0521428114225526e-38,-1.293497274113541e-38,1.371145744359015e-38,1.6052931889181345e-38,1.3306594291277423e-38,-1.8768446526063977e-38,-7.389320055585304e-39,-1.5031098042503367e-39,-1.393795912346822e-38,-1.1099798641092486e-38,-1.6739790943156333e-38,0.009873847477138042,0.02548997476696968,0.04124132916331291,0.05066157877445221,0.04618402570486069,0.025642871856689453,-0.00831836648285389,-0.04568628966808319,-0.07543329894542694,-0.09027381986379623,-0.08813819289207458,-0.0715080201625824,-0.04604342207312584,-0.021171869710087776,-0.005234363488852978,0.0005374065949581563,-0.00026331160916015506,-0.000546623079571873,-0.0031263986602425575,-0.007376408204436302,-0.014504758641123772,-0.023332644253969193,-0.033570822328329086,-0.041363444179296494,-0.04563460126519203,-0.04542785882949829,-0.04068044573068619,-0.032298892736434937,-0.021940715610980988,-0.012617171742022038,-0.005741383880376816,-0.0017908518202602863,0.0009651689906604588,0.0035229106433689594,0.007830766960978508,0.014164794236421585,0.023058315739035606,0.03457694500684738,0.04715172201395035,0.05815720930695534,0.06467198580503464,0.06458256393671036,0.05817116051912308,0.04720496013760567,0.03359046205878258,0.02022276446223259,0.009462671354413033,0.002803248120471835,0.037539925426244736,0.007233589421957731],"sample_rate":48000.0}},{"max_value":1.0,"model":{"version":"0.7.0","metadata":{"date":{"year":2026,"month":5,"day":22,"hour":6,"minute":11,"second":33},"loudness":-25.440933227539062,"gain":0.9915983416906329},"architecture":"WaveNet","config":{"layers":[{"input_size":1,"condition_size":1,"head":{"out_channels":1,"kernel_size":16,"bias":true},"channels":8,"kernel_sizes":[6,6,6,6,6,6,6,6,6,6,6,6,6,6,15,15,6,6,6,6,6,6,6],"dilations":[1,3,7,17,41,101,239,1,3,7,17,41,101,239,1,13,1,3,7,17,41,101,239],"activation":[{"type":"LeakyReLU","negative_slope":0.01},{"type":"LeakyReLU","negative_slope":0.01},{"type":"LeakyReLU","negative_slope":0.01},{"type":"LeakyReLU","negative_slope":0.01},{"type":"LeakyReLU","negative_slope":0.01},{"type":"LeakyReLU","negative_slope":0.01},{"type":"LeakyReLU","negative_slope":0.01},{"type":"LeakyReLU","negative_slope":0.01},{"type":"LeakyReLU","negative_slope":0.01},{"type":"LeakyReLU","negative_slope":0.01},{"type":"LeakyReLU","negative_slope":0.01},{"type":"LeakyReLU","negative_slope":0.01},{"type":"LeakyReLU","negative_slope":0.01},{"type":"LeakyReLU","negative_slope":0.01},{"type":"LeakyReLU","negative_slope":0.01},{"type":"LeakyReLU","negative_slope":0.01},{"type":"LeakyReLU","negative_slope":0.01},{"type":"LeakyReLU","negative_slope":0.01},{"type":"LeakyReLU","negative_slope":0.01},{"type":"LeakyReLU","negative_slope":0.01},{"type":"LeakyReLU","negative_slope":0.01},{"type":"LeakyReLU","negative_slope":0.01},{"type":"LeakyReLU","negative_slope":0.01}],"bottleneck":8,"head1x1":{"active":false,"out_channels":1,"groups":1},"layer1x1":{"active":true,"groups":1},"groups_input":1,"groups_input_mixin":1,"conv_pre_film":{"active":false,"shift":true,"groups":1},"conv_post_film":{"active":false,"shift":true,"groups":1},"input_mixin_pre_film":{"active":false,"shift":true,"groups":1},"input_mixin_post_film":{"active":false,"shift":true,"groups":1},"activation_pre_film":{"active":false,"shift":true,"groups":1},"activation_post_film":{"active":false,"shift":true,"groups":1},"layer1x1_post_film":{"active":false,"shift":true,"groups":1},"head1x1_post_film":{"active":false,"shift":true,"groups":1},"gating_mode":["none","none","none","none","none","none","none","none","none","none","none","none","none","none","none","none","none","none","none","none","none","none","none"],"secondary_activation":[null,null,null,null,null,null,null,null,null,null,null,null,null,null,null,null,null,null,null,null,null,null,null],"slimmable":null}],"head":null,"head_scale":0.007233589242168707},"weights":[-1.2725642919540405,1.8003129959106445,-2.0392134189605713,-1.3946081399917603,-1.424699068069458,0.9523156881332397,1.7156543731689453,1.6934970617294312,0.062031909823417664,0.05566629767417908,0.05975859612226486,0.06913155317306519,0.04187113791704178,0.07022446393966675,-0.11717266589403152,-0.09256765991449356,-0.08935897797346115,-0.09231225401163101,-0.09067938476800919,-0.11380665004253387,0.1443660855293274,0.14407150447368622,0.11255494505167007,0.15198321640491486,0.08614011853933334,0.12340962141752243,0.1197388768196106,0.06230134516954422,0.07402265071868896,0.09065976738929749,0.05835923179984093,0.1120280995965004,0.0719207376241684,0.0647571012377739,0.0671871155500412,0.07265530526638031,0.050536420196294785,0.0973815992474556,-0.0423060804605484,-0.036442555487155914,-0.04293880611658096,-0.053560443222522736,-0.031362101435661316,-0.057267479598522186,-0.07826630771160126,-0.06881418079137802,-0.07328756898641586,-0.08150871843099594,-0.05558754876255989,-0.08539172261953354,-0.09440864622592926,-0.06965313106775284,-0.09233606606721878,-0.1069791316986084,-0.06053897738456726,-0.1223168671131134,-0.010381554253399372,-0.01154006365686655,-0.017198247835040092,-0.03869910538196564,-0.051293596625328064,-0.074211485683918,0.01445036567747593,0.016225645318627357,0.026009732857346535,0.05708933621644974,0.07659309357404709,0.10934200882911682,-0.015453895553946495,-0.015616746619343758,-0.03172242268919945,-0.06769659370183945,-0.08802010118961334,-0.12506721913814545,-0.01167560275644064,-0.012677602469921112,-0.020877312868833542,-0.04766826704144478,-0.06231965869665146,-0.08998890221118927,-0.012229999527335167,-0.013267499394714832,-0.020079370588064194,-0.045341856777668,-0.06020753085613251,-0.08644793182611465,0.008020804263651371,0.009073592722415924,0.012957037426531315,0.029081221669912338,0.03781802952289581,0.05562259629368782,0.013928765431046486,0.015162551775574684,0.023281728848814964,0.051622744649648666,0.06977450102567673,0.09948885440826416,0.013365404680371284,0.014780589379370213,0.026469264179468155,0.05710896849632263,0.07426656782627106,0.10657302290201187,0.03550349175930023,0.03973640874028206,0.020074566826224327,0.030985932797193527,0.0459492951631546,0.06533229351043701,-0.05217272415757179,-0.056314617395401,-0.029401728883385658,-0.04440363496541977,-0.06503110378980637,-0.09133213013410568,0.060544248670339584,0.06421065330505371,0.034403178840875626,0.0510268472135067,0.07408370822668076,0.10332002490758896,0.04230230301618576,0.046178869903087616,0.023745184764266014,0.036248963326215744,0.05336876958608627,0.07519431412220001,0.041191767901182175,0.04541299492120743,0.023237261921167374,0.035690926015377045,0.05259837210178375,0.07433773577213287,-0.02669568359851837,-0.030350152403116226,-0.01502578891813755,-0.023373765870928764,-0.03485750034451485,-0.04970156028866768,-0.047689590603113174,-0.05218622460961342,-0.02685924433171749,-0.041070904582738876,-0.06048126891255379,-0.08555962890386581,-0.050874222069978714,-0.05477689579129219,-0.02864251844584942,-0.04332379996776581,-0.063339002430439,-0.08877477794885635,0.05706902965903282,0.21820862591266632,0.17133231461048126,0.13915839791297913,-0.001046829274855554,-0.312216579914093,-0.0836472362279892,-0.2604404091835022,-0.1927567422389984,-0.2000923752784729,-0.03721515089273453,0.28566113114356995,0.06927629560232162,0.25932520627975464,0.16649633646011353,0.23369625210762024,-0.08528909087181091,-0.36753636598587036,0.12789760529994965,0.19456394016742706,0.22906744480133057,0.19819164276123047,-0.08112337440252304,-0.281607449054718,0.053025517612695694,0.178871750831604,0.19482868909835815,0.12643636763095856,-0.017250504344701767,-0.3143402636051178,-0.016390064731240273,-0.1223984807729721,-0.08084537088871002,-0.11471608281135559,0.015664255246520042,0.20396079123020172,-0.0768166109919548,-0.21612218022346497,-0.16073200106620789,-0.16364343464374542,0.004082018043845892,0.3643205463886261,-0.12506406009197235,-0.2767687439918518,-0.22387082874774933,-0.16223053634166718,-0.021184908226132393,0.34114715456962585,-0.04644012823700905,-0.22868503630161285,-0.2225448042154312,-0.09914238750934601,0.17084698379039764,0.5193292498588562,0.022833766415715218,0.31529873609542847,0.24358154833316803,0.08479659259319305,-0.22988104820251465,-0.6204521656036377,-0.03622133657336235,-0.29311710596084595,-0.23238283395767212,-0.06776342540979385,0.19160783290863037,0.6148281693458557,0.006219679489731789,-0.29965144395828247,-0.21178218722343445,-0.011023306287825108,0.2439829558134079,0.5865983366966248,-0.07912476360797882,-0.22583016753196716,-0.23893234133720398,-0.08732620626688004,0.19547320902347565,0.5474411249160767,0.030542558059096336,0.2128019779920578,0.1687985211610794,0.08611343055963516,-0.14628875255584717,-0.42584317922592163,0.08506616950035095,0.28075042366981506,0.24953238666057587,0.12554040551185608,-0.17504851520061493,-0.5425006151199341,0.023836247622966766,0.26470720767974854,0.25304463505744934,0.011554336175322533,-0.1867598444223404,-0.6663013100624084,-0.1060146912932396,-0.2708846628665924,-0.23129457235336304,-0.10111051797866821,0.18958596885204315,0.5799958109855652,0.07609662413597107,0.2763885259628296,0.17817974090576172,0.13617408275604248,-0.24266338348388672,-0.7418255805969238,-0.17515945434570312,-0.2815345227718353,-0.22704952955245972,-0.05253276601433754,0.2514854073524475,0.719306230545044,-0.13028283417224884,-0.2627318203449249,-0.17217878997325897,-0.077609121799469,0.16934755444526672,0.6264804601669312,-0.14529713988304138,-0.2519148588180542,-0.2414359450340271,-0.1450124979019165,0.23406057059764862,0.5824674963951111,0.04711828753352165,0.1808527261018753,0.12977269291877747,0.05692468583583832,-0.15247809886932373,-0.40590906143188477,0.1318289041519165,0.3487078845500946,0.26978546380996704,0.14028295874595642,-0.19389353692531586,-0.7044963836669922,0.07698172330856323,0.32725080847740173,0.2690451145172119,0.10232046991586685,-0.22799700498580933,-0.7437559962272644,0.17410160601139069,0.2798497676849365,0.18392977118492126,0.13992363214492798,-0.08142250031232834,-0.5016672611236572,-0.18926742672920227,-0.30864089727401733,-0.15477298200130463,-0.21043603122234344,0.09436850994825363,0.6148436069488525,0.20107503235340118,0.337198942899704,0.11258292198181152,0.1473562866449356,-0.04629277065396309,-0.636057436466217,0.17846162617206573,0.3700389564037323,0.12184818089008331,0.14232094585895538,-0.04929160326719284,-0.5579506158828735,0.13180340826511383,0.30641722679138184,0.09906977415084839,0.14655224978923798,-0.03122835047543049,-0.47698894143104553,-0.048942770808935165,-0.2157892882823944,-0.08473583310842514,-0.13465511798858643,0.036087922751903534,0.39186879992485046,-0.14480376243591309,-0.34299951791763306,-0.2391471415758133,-0.17435747385025024,0.07404318451881409,0.5944849252700806,-0.08089636266231537,-0.2635149359703064,-0.19407948851585388,-0.1811162680387497,0.15326684713363647,0.6314420104026794,0.024846967309713364,0.23647306859493256,0.10930841416120529,0.08829747140407562,-0.13539060950279236,-0.44040796160697937,-0.07956083863973618,-0.17772699892520905,-0.11930018663406372,-0.0584840252995491,0.1400618851184845,0.5441729426383972,0.028399758040905,0.281922310590744,0.05723371356725693,0.10676407068967819,-0.18423455953598022,-0.6172782182693481,-0.0013601902173832059,0.26762571930885315,0.13393716514110565,0.13671734929084778,-0.06940046697854996,-0.527803897857666,0.01058938167989254,0.2023961991071701,0.06006954610347748,0.11359212547540665,-0.162189319729805,-0.4951559603214264,-0.07113765180110931,-0.17793211340904236,-0.046348460018634796,-0.03343510255217552,0.12032163888216019,0.375554621219635,-0.006066587753593922,-0.24738802015781403,-0.09228269755840302,-0.050605736672878265,0.1332342028617859,0.561410665512085,-0.017712056636810303,-0.18394529819488525,-0.13131451606750488,-0.049669817090034485,0.13343459367752075,0.49002212285995483,-0.10871849954128265,-0.2905542850494385,-0.4954325556755066,0.5921134948730469,0.30067482590675354,0.7167959809303284,0.29039254784584045,0.9154561161994934,-0.003729109885171056,0.06556790322065353,-0.05653784051537514,0.6411634683609009,-0.3892418444156647,-0.8811889290809631,1.0302199125289917,0.6833722591400146,-0.34424713253974915,0.28559184074401855,0.11019358783960342,-0.44644397497177124,0.8660100102424622,0.33661505579948425,-0.6154569983482361,-0.3685237765312195,-0.19045424461364746,0.012104063294827938,-0.04003060236573219,0.015346559695899487,-0.4476109445095062,-0.14924608170986176,0.30761289596557617,0.2634620666503906,-0.09766533225774765,-0.04666437953710556,0.1569724828004837,-0.5326840877532959,0.4933410584926605,0.47221463918685913,-0.8486788868904114,0.004924705717712641,0.10189812630414963,0.31047290563583374,0.2011575698852539,-0.05098119378089905,-0.13940918445587158,-0.0788697749376297,0.17408548295497894,-0.3142704367637634,-0.5744913220405579,-0.11955653131008148,-0.2501380443572998,0.11803968995809555,-0.22811828553676605,0.3895058333873749,-0.02508074976503849,0.07082335650920868,0.10098297148942947,-0.0992196723818779,-0.49408528208732605,0.06205204501748085,0.35636600852012634,0.19706839323043823,-0.24502214789390564,-0.16731026768684387,-0.31960242986679077,0.20317471027374268,0.0012090998934581876,-0.17967645823955536,-0.28313738107681274,0.17328883707523346,0.3205838203430176,0.04516413435339928,-0.10018368065357208,-0.25757506489753723,-0.10725313425064087,-0.28224119544029236,-0.45340409874916077,-0.05689183250069618,0.16102027893066406,0.30957916378974915,0.2511253356933594,-0.06075116619467735,0.02177463285624981,-0.3159036636352539,-0.3367233872413635,0.22081297636032104,-0.2600756585597992,0.13043545186519623,0.014054464176297188,0.029167775064706802,0.016752419993281364,0.09660103917121887,-0.02837471477687359,0.25317350029945374,0.035668227821588516,0.03842907398939133,-0.003897209884598851,0.023327356204390526,0.15339520573616028,-0.2969086468219757,0.014590209349989891,-0.05369539558887482,-0.01240507885813713,-0.16323214769363403,-0.3076770305633545,0.19653208553791046,0.057440921664237976,0.0833100900053978,-0.08312807977199554,0.08050938695669174,-0.03096923604607582,-0.02456088550388813,-0.0944792628288269,-0.07447067648172379,-0.020912524312734604,-0.0811050608754158,-0.08035221695899963,-0.004231952130794525,-0.04229757562279701,-0.004390619695186615,-0.03456668555736542,-0.007448929827660322,0.0029064996633678675,0.10208994895219803,-0.12511631846427917,-0.056602928787469864,-0.029669761657714844,-0.0084111662581563,0.22493693232536316,-0.15260791778564453,-0.02179601602256298,-0.08460570871829987,-0.12029442191123962,-0.06115623563528061,0.21927614510059357,-0.258455365896225,0.10607645660638809,-0.006344943773001432,0.0717446357011795,0.1454019397497177,0.1651057004928589,-0.07860296219587326,-0.0034052147530019283,-0.0017949690809473395,-0.04611383005976677,-0.10935212671756744,-0.3182358741760254,0.3548409640789032,-0.08508988469839096,0.012912925332784653,-0.12029459327459335,-0.07174669951200485,0.30134034156799316,-0.2526242733001709,-0.032388024032115936,0.03078337013721466,0.009108689613640308,0.13808034360408783,-0.0013052329886704683,-0.10449729114770889,-0.08518160879611969,-0.1369963139295578,-0.1300380527973175,-0.0862005278468132,-0.08343368023633957,-0.1651359498500824,0.06565909832715988,0.030705679208040237,-0.0770944207906723,-0.050772082060575485,0.11261217296123505,0.11449049413204193,-0.08069650828838348,0.02820337377488613,-0.05249994993209839,-0.07347767800092697,-0.1389891505241394,0.2251395583152771,0.11895214766263962,0.05464613065123558,-0.03565480187535286,-0.09793047606945038,-0.18291570246219635,0.38121315836906433,0.005076046567410231,0.02386481873691082,0.024073271080851555,0.011250955983996391,-0.005682314280420542,-0.18918545544147491,0.06486771255731583,0.03269585222005844,0.013991312123835087,0.027113571763038635,-0.004317802842706442,0.22893095016479492,0.05187823995947838,0.036944251507520676,-0.007302002981305122,-0.01833462156355381,0.009099885821342468,-0.23777523636817932,0.12595699727535248,0.20391593873500824,0.16312526166439056,0.1743379533290863,0.04712247475981712,0.10103823244571686,0.10823796689510345,0.01127841416746378,0.07473019510507584,0.051682889461517334,0.23273055255413055,0.0322619192302227,-0.10636064410209656,-0.13729947805404663,-0.0789615586400032,-0.07705239206552505,0.03756634518504143,-0.12819677591323853,0.11211999505758286,0.07770250737667084,0.11105408519506454,0.114980548620224,0.221267968416214,0.3702718913555145,0.03452397882938385,-0.005807450972497463,-0.05893709883093834,-0.036984365433454514,-0.027016878128051758,0.15846513211727142,0.03706418350338936,0.02225572243332863,0.06682781130075455,0.11364144831895828,-0.11368521302938461,0.04439501836895943,-0.0022606602869927883,-0.0015765826683491468,-0.009587862528860569,-0.09481441974639893,0.046472713351249695,0.009410412982106209,-0.007089987397193909,-0.0502825565636158,0.012189088389277458,0.0479431189596653,-0.1850525438785553,-0.012460567057132721,0.06892108172178268,0.01693345606327057,0.009381359443068504,0.09335874021053314,0.1258968859910965,-0.007794566452503204,0.06243184953927994,0.13592736423015594,0.1033962294459343,0.022263910621404648,-0.0381862036883831,0.08253389596939087,0.02391994744539261,0.06313437968492508,0.04574441537261009,0.0497501976788044,-0.04519078508019447,0.06576806306838989,-0.005749184172600508,0.04447491466999054,0.03705614060163498,-0.03548683598637581,-0.006464193109422922,0.021579548716545105,0.002037305384874344,-0.0012694778852164745,0.011827424168586731,-0.07327662408351898,0.007051871158182621,0.028398729860782623,0.02788524515926838,0.048013076186180115,0.05497242137789726,-0.09602019935846329,-0.017223769798874855,0.11708856374025345,0.025078853592276573,-0.023005248978734016,-0.08223678171634674,0.014277420938014984,0.05985872447490692,0.05890047177672386,0.020074233412742615,0.07398161292076111,0.02591700851917267,-0.09766640514135361,-0.022330844774842262,0.14770793914794922,0.036732740700244904,0.07473170012235641,0.10090074688196182,0.060223475098609924,0.008023261092603207,0.019107801839709282,-0.0043607740662992,-0.0405271090567112,-0.051085878163576126,-0.009315156377851963,-0.020265836268663406,-0.11656233668327332,-0.030201826244592667,-0.03641838952898979,0.0016846215585246682,-0.030439358204603195,-0.01525425910949707,-0.014584082178771496,0.06685565412044525,0.011414921842515469,-0.029094954952597618,0.01497776247560978,0.08645328879356384,0.10966763645410538,0.038788676261901855,0.004040451254695654,-0.09092160314321518,-0.014444257132709026,0.06435278803110123,0.1292572021484375,0.09590494632720947,-0.019953010603785515,0.058069732040166855,-0.0326632522046566,0.00419885478913784,0.08330144733190536,0.07340710610151291,-0.07253461331129074,0.05592009052634239,0.005362673196941614,-0.004022045526653528,0.24138787388801575,-0.09104744344949722,-0.035151027143001556,-0.04831880331039429,-0.002950971247628331,-0.024568969383835793,-0.22721847891807556,-0.009329204447567463,-0.13463276624679565,-0.15338660776615143,-0.06050969660282135,0.02249973639845848,-0.10262278467416763,-0.11012224107980728,-0.08303716033697128,-0.08161380887031555,-0.15427516400814056,-0.08120120316743851,-0.1738278716802597,0.05645952746272087,0.11295415461063385,0.16283591091632843,0.14029330015182495,0.12220297753810883,0.15887317061424255,-0.1701645404100418,-0.052196480333805084,-0.1418914496898651,-0.14475801587104797,-0.06232719123363495,0.10284161567687988,-0.049015674740076065,0.1523270457983017,0.10853816568851471,0.007705846335738897,0.04209655895829201,0.2922416925430298,-0.01243444811552763,-0.03924250230193138,-0.03709043562412262,0.0004217657260596752,-0.0994681864976883,-0.24979986250400543,0.03281042352318764,-0.03833732008934021,0.08580205589532852,-0.014426123350858688,0.20474742352962494,0.06686024367809296,-0.08099891990423203,-0.02691817469894886,-0.16623958945274353,-0.011000984348356724,-0.1290658712387085,-0.07897227257490158,-0.09755071997642517,-0.11624761670827866,-0.028147852048277855,-0.008678356185555458,-0.1314646452665329,-0.1934032142162323,0.055460911244153976,-0.05655038356781006,0.041711706668138504,-0.03426995873451233,-0.036965712904930115,0.02388601005077362,0.09655208885669708,0.0591529943048954,0.13101182878017426,0.1054278314113617,0.10458814352750778,-0.14885130524635315,0.0115270484238863,0.030087918043136597,0.07585567235946655,0.036693789064884186,0.1742093563079834,-0.06337454169988632,-0.02937358245253563,-0.021596785634756088,-0.023147616535425186,-0.026237893849611282,0.16437838971614838,0.07459937781095505,0.08719474077224731,0.12074967473745346,0.08678251504898071,0.1047234833240509,0.24547430872917175,-0.09706642478704453,0.06554416567087173,0.0495169572532177,0.015001391991972923,0.034119442105293274,-0.13052518665790558,0.29538974165916443,0.07899127900600433,-0.008624992333352566,0.08776545524597168,-0.017801281064748764,0.16539032757282257,-0.3049921691417694,-0.12374535202980042,-0.02804717794060707,-0.059753719717264175,-0.1061839759349823,-0.06724783778190613,-0.07175686210393906,-0.10047005861997604,-0.04817819222807884,-0.007760028820484877,0.06606711447238922,0.0798315703868866,-0.0794191062450409,0.1635538786649704,0.15106073021888733,0.14010217785835266,0.08770937472581863,0.16622570157051086,0.12196370959281921,-0.07740196585655212,-0.047890786081552505,0.03330744430422783,-0.03648559749126434,-0.11322140693664551,0.1539260447025299,0.11780069768428802,-0.010337866842746735,0.11192668229341507,0.14586640894412994,-0.05047762021422386,0.24875642359256744,0.12595102190971375,0.026603490114212036,-0.42556092143058777,0.006881712004542351,-0.10777408629655838,0.18630513548851013,-0.05924385413527489,0.08541211485862732,-0.3209061324596405,0.34610623121261597,0.06267166882753372,-0.0012075765989720821,0.03872879222035408,0.5365910530090332,-0.20645195245742798,0.249367818236351,0.35133376717567444,-0.32055214047431946,0.49874547123908997,-0.21426497399806976,0.13075675070285797,0.09261693060398102,0.2791440784931183,-0.20177672803401947,-0.3169950842857361,0.26670366525650024,-0.22209350764751434,0.10151421278715134,0.06020379811525345,0.28389060497283936,-0.19740203022956848,0.2223985642194748,0.1688263863325119,-0.33841806650161743,0.5966404676437378,-0.12972904741764069,0.02974008023738861,0.11633310467004776,0.03815785050392151,0.10543416440486908,0.12129803746938705,-0.00950724259018898,-0.16275043785572052,0.01079548615962267,0.012255007401108742,-0.15764424204826355,0.22940553724765778,0.16209985315799713,-0.05838090181350708,-0.14936372637748718,0.08206085115671158,-0.14149996638298035,0.08383655548095703,-0.21262715756893158,-0.0228855162858963,0.009694918990135193,0.3875671327114105,-0.06339188665151596,0.1179339587688446,-0.07325521856546402,-0.13516905903816223,-0.3978624641895294,0.09276663511991501,-0.30070388317108154,-0.029566628858447075,0.0791899636387825,0.2335439771413803,-0.1684807687997818,-0.08447003364562988,0.24509400129318237,0.12588779628276825,0.14902624487876892,-0.10236775130033493,-0.05188693478703499,-0.17877277731895447,-0.24367904663085938,-0.23954765498638153,-0.1312655806541443,-0.19565975666046143,0.09514440596103668,-0.13438592851161957,-0.08900420367717743,-0.3519977927207947,-0.29042115807533264,0.08804789185523987,-0.08674099296331406,-0.21873439848423004,-0.1850060224533081,-0.04929690435528755,-0.08355823159217834,-0.07579585909843445,0.000696006347425282,0.018585875630378723,0.0585801862180233,0.015004027634859085,-0.02915072999894619,-0.05740214139223099,0.033537864685058594,0.11551272869110107,-0.08015177398920059,-0.0347735621035099,-0.011874490417540073,-0.013443853706121445,-0.021017249673604965,0.05994522571563721,0.21809986233711243,-0.06475722044706345,-0.07562843710184097,-0.02687044069170952,-0.048205144703388214,-0.19373014569282532,-0.12919947504997253,0.20549376308918,0.19364137947559357,0.0854131206870079,0.05428217723965645,0.03924524039030075,-0.002466688398271799,0.003333618398755789,-0.0695720762014389,-0.05580084025859833,-0.06710992008447647,-0.061065953224897385,-0.1370762288570404,-0.10386070609092712,-0.043153151869773865,-0.05060039088129997,-0.02098156325519085,-0.05144411697983742,-0.013219986110925674,-0.049796391278505325,-0.14835594594478607,-0.13519829511642456,-0.1411387026309967,-0.0666755735874176,0.02529769204556942,-0.027332397177815437,-0.05354631692171097,-0.10198194533586502,-0.14893609285354614,-0.0516500286757946,0.2144751101732254,-0.08809855580329895,-0.12549777328968048,-0.052534133195877075,-0.01538001373410225,0.10282804071903229,-0.19891084730625153,-0.11821277439594269,-0.20916196703910828,-0.17031799256801605,-0.07043997198343277,-0.10603845119476318,0.10624411702156067,-0.11718875169754028,-0.015343786217272282,-0.007564044091850519,-0.17120659351348877,-0.21086464822292328,-0.01724763959646225,-0.07696656137704849,-0.07911143451929092,-0.02251792885363102,-0.03763938695192337,-0.09566256403923035,0.07997217774391174,0.052881889045238495,0.021213293075561523,-0.07755926251411438,-0.06410343945026398,-0.0945076197385788,0.05610603466629982,0.03759447857737541,0.0024593432899564505,-0.037487179040908813,-0.05545251443982124,-0.047178447246551514,-0.09205923229455948,-0.18335583806037903,-0.2608524262905121,-0.24023883044719696,-0.12598614394664764,0.05808304622769356,-0.11026335507631302,0.017299527302384377,0.03531407564878464,-0.006806183140724897,-0.013008746318519115,0.007630473002791405,0.24779637157917023,-0.10749493539333344,-0.08513251692056656,-0.09391487389802933,-0.04220181703567505,0.11199096590280533,0.26574084162712097,-0.14335627853870392,-0.05422757938504219,-0.07892576605081558,-0.006308223120868206,0.0074019539169967175,0.09138601273298264,0.10731067508459091,0.07826888561248779,0.11468572169542313,0.10402348637580872,-0.1159772127866745,-0.16748970746994019,-0.09130799025297165,-0.10559272021055222,-0.025271393358707428,-0.08542447537183762,0.056898631155490875,0.03114132396876812,0.08748916536569595,0.014943086542189121,0.12158974260091782,0.1336042582988739,0.15147072076797485,-0.13275058567523956,0.03937887027859688,-0.011449728161096573,-0.05412783473730087,-0.10415640473365784,-0.02707321010529995,0.40324607491493225,-0.042853739112615585,-0.024263722822070122,-0.08447640389204025,-0.09353062510490417,-0.0954100489616394,0.17053954303264618,0.03388276323676109,0.04910355806350708,0.07051032781600952,0.017867684364318848,0.05854145064949989,-0.010946103371679783,0.15934856235980988,0.12687288224697113,0.036893583834171295,0.08180983364582062,-0.08280452340841293,-0.22972449660301208,0.10465516895055771,-0.09207507222890854,-0.18179425597190857,-0.15470929443836212,-0.1052447035908699,-0.1770724654197693,-0.14049002528190613,-0.1620357185602188,-0.0686120092868805,-0.1335916668176651,-0.14585980772972107,-0.046843044459819794,-0.03927839547395706,-0.14381814002990723,-0.22878876328468323,-0.07832057029008865,-0.15181110799312592,-0.06195433437824249,-0.06969277560710907,-0.01732533797621727,0.06967997550964355,-0.0417233407497406,-0.039186324924230576,0.22377629578113556,0.0758892223238945,0.2328096330165863,0.1697906255722046,0.023511426523327827,0.1250157356262207,-0.18069542944431305,0.05795362964272499,-0.017006518319249153,0.10350508242845535,0.040803562849760056,-0.05604878440499306,-0.18533192574977875,-0.02750997804105282,-0.0328114777803421,0.002993680303916335,0.04178919270634651,0.036577723920345306,-0.022327689453959465,-0.05509088560938835,-0.05368538200855255,-0.048988036811351776,-0.002907122951000929,0.043487727642059326,0.01845402456820011,-0.03408213332295418,-0.07033973187208176,-0.06239034980535507,-0.0672517791390419,0.017340144142508507,-0.06867670267820358,0.06884323805570602,0.057058949023485184,0.03289300203323364,-0.06347455084323883,0.008804558776319027,-0.020832886919379234,0.04632556810975075,0.10336553305387497,0.03673000633716583,-0.019458433613181114,-0.09030000120401382,-0.08850603550672531,0.045207612216472626,0.03163805603981018,-0.0028293877840042114,0.023113906383514404,-0.02442198060452938,-0.010515422560274601,-0.05605832487344742,-0.006532641127705574,-0.045281782746315,0.07650084793567657,0.07943175733089447,-0.0158913042396307,-0.03804854676127434,0.02691769041121006,0.029796823859214783,0.1409246176481247,0.07234799116849899,0.011030694469809532,0.08507085591554642,0.09393470734357834,0.08543538302183151,-0.06365150958299637,-0.012185787782073021,-0.07607107609510422,0.10437337309122086,0.07735748589038849,0.08986014872789383,0.07916289567947388,0.06120437756180763,-0.04289627820253372,0.06669676303863525,-0.014335500076413155,-0.054317906498909,0.00919953640550375,-0.10442116856575012,-0.29818278551101685,-0.07185535877943039,-0.09611020982265472,0.00773721095174551,-0.05515287071466446,-0.10746507346630096,-0.08735370635986328,0.09743162989616394,0.11348384618759155,-0.13012108206748962,0.06827856600284576,0.19914060831069946,-0.1187930628657341,-0.0324021652340889,-0.050988346338272095,0.0020767056848853827,0.0535239651799202,-0.009375202469527721,0.09405968338251114,0.06327620893716812,0.017292095348238945,0.05675420165061951,0.0755797028541565,0.023624731227755547,-0.018869522958993912,0.07616040855646133,0.011626716703176498,0.13219834864139557,-0.005610787309706211,-0.022765422239899635,-0.0948878824710846,-0.01937873102724552,-0.0015099113807082176,0.0579642653465271,-0.04409230872988701,-0.028388122096657753,-0.18164831399917603,-0.017098968848586082,0.05636538937687874,0.10985913872718811,0.01655677519738674,-0.03411494567990303,0.039955608546733856,-0.01712753437459469,-0.05371863767504692,-0.006910931318998337,-0.06055992469191551,-0.10224052518606186,-0.27795517444610596,0.03001653403043747,0.039220817387104034,-0.09467658400535583,0.031034216284751892,0.08041278272867203,-0.004367572255432606,-0.032478757202625275,-0.0632655918598175,-0.19993028044700623,-0.12203428149223328,0.03392507880926132,0.013454451225697994,0.010467476211488247,-0.006914051249623299,-0.01064450666308403,-0.08231037110090256,0.09149619191884995,0.11356103420257568,0.017151933163404465,-0.022571152076125145,-0.008131435140967369,0.02316819503903389,-0.09622590988874435,-0.17057205736637115,0.03993640094995499,0.07155493646860123,0.12451748549938202,-0.02606731839478016,-0.07389961928129196,-0.037097200751304626,-0.022013898938894272,-0.053986310958862305,-0.0822920873761177,-0.0010730503126978874,-0.07786134630441666,0.11621935665607452,-0.04022305831313133,-0.035354629158973694,0.043503060936927795,0.09203276038169861,0.046930331736803055,0.20460715889930725,-0.1226210668683052,0.013221722096204758,0.0725829228758812,0.08720874041318893,0.01054082065820694,0.06835198402404785,0.1126757562160492,0.11501514911651611,0.17030225694179535,0.17484524846076965,0.2544090449810028,-0.03818778693675995,0.21035531163215637,0.004329327493906021,-0.020440006628632545,-0.17276039719581604,-0.01945229433476925,-0.1631341427564621,0.1391943097114563,0.06295919418334961,0.11421120166778564,0.07707546651363373,0.05512390658259392,-0.08466970920562744,-0.007925163954496384,-0.030426109209656715,-0.010359570384025574,0.10906796902418137,-0.023046359419822693,0.6243390440940857,0.09509973973035812,0.06382983922958374,0.06291597336530685,-0.04884135350584984,-0.15553079545497894,0.2814372181892395,0.08010914921760559,0.055934760719537735,-0.033250145614147186,0.13648296892642975,-0.04757746309041977,0.18213209509849548,0.12486717849969864,-0.2997358441352844,-0.16008342802524567,-0.20105676352977753,0.08043326437473297,0.04909369722008705,0.026556367054581642,0.3609640598297119,0.10010062903165817,0.15944859385490417,0.2688525915145874,0.13735763728618622,0.09698580950498581,0.3385438621044159,-0.1410624384880066,0.004005167167633772,-0.048948097974061966,0.4765780568122864,-0.1742202788591385,0.07964116334915161,0.02140156552195549,0.20998582243919373,0.131336972117424,0.20687073469161987,0.11041193455457687,-0.34975647926330566,-0.1359684318304062,0.3099172115325928,0.16895519196987152,0.23500151932239532,-0.05875850468873978,-0.00411250488832593,-0.17515963315963745,0.029596026986837387,0.22525528073310852,0.15665502846240997,0.43688878417015076,0.10283929109573364,0.13685758411884308,-0.08145832270383835,-0.015690339729189873,0.3769640326499939,0.23822949826717377,0.11434810608625412,-0.06978160887956619,-0.13605964183807373,-0.012209082953631878,0.1309092789888382,-0.10884714871644974,0.3664059042930603,0.2525949776172638,0.19893740117549896,-0.015633096918463707,-0.24758362770080566,-0.16636934876441956,-0.16721154749393463,0.09138547629117966,0.11511507630348206,-0.01628231629729271,-0.0813906267285347,-0.2726493775844574,0.2296406477689743,-0.08025515824556351,-0.0020775452721863985,0.07733968645334244,-0.28090447187423706,0.08400221168994904,-0.12834332883358002,-0.07286772131919861,0.005595051683485508,0.05462784320116043,0.21814365684986115,0.21420006453990936,-0.2939012050628662,0.11897829174995422,-0.3023470342159271,-0.20164571702480316,0.0918445885181427,-0.09854293614625931,-0.27991241216659546,-0.16179822385311127,-0.21720600128173828,-0.10983593016862869,-0.05290887877345085,-0.11848362535238266,-0.04887275770306587,-0.060721609741449356,-0.014448163099586964,0.0021175937727093697,0.003378179157152772,-0.013770672492682934,-0.05275946483016014,-0.06546549499034882,0.09998850524425507,-0.04629718139767647,-0.007477759849280119,-0.058407414704561234,-0.022888019680976868,-0.07058682292699814,0.00195509847253561,-0.015057089738547802,-0.017204949632287025,-0.12940596044063568,0.0254548117518425,-0.12357563525438309,-0.042103271931409836,0.03318680450320244,-0.0723126232624054,-0.1408432573080063,-0.05495910719037056,-0.031229587271809578,0.03148961439728737,0.12483827024698257,0.027955396100878716,-0.08819913119077682,0.05356580764055252,0.12272008508443832,-0.019501710310578346,-0.06785403937101364,-0.010291103273630142,-0.10137002170085907,-0.04990273341536522,-0.06142837181687355,0.028379933908581734,0.01500685978680849,-0.005636034067720175,0.12372619658708572,-0.061452753841876984,-0.011724632233381271,0.017659030854701996,0.002347491681575775,0.07420459389686584,-0.011828707531094551,0.004897984676063061,0.004516299813985825,0.016932412981987,-0.07437829673290253,0.002560862572863698,-0.035823047161102295,-0.008543488569557667,-0.057937052100896835,-0.04239002242684364,-0.07888071238994598,0.003664359450340271,-0.010261759161949158,-0.005453756544739008,0.08389709889888763,0.13455626368522644,-0.010173036716878414,0.005718330852687359,0.1110018864274025,-0.052795764058828354,-0.019154155626893044,0.01213403232395649,-0.045983608812093735,-0.08160657435655594,0.007471580058336258,0.03120792657136917,-0.005446473136544228,-0.1282324492931366,0.024656763300299644,-0.015162738971412182,0.006877805572003126,0.031008074060082436,-0.03753573074936867,0.021181447431445122,-0.05613868311047554,-0.02653663419187069,-0.10733775049448013,-0.03995922952890396,-0.04817651957273483,-0.03078463487327099,-0.07532209903001785,-0.061463817954063416,-0.09226180613040924,-0.00787549838423729,-0.02248542569577694,0.01053754985332489,0.06208846718072891,0.005048665218055248,-0.08626756817102432,-0.05657380819320679,0.03173364698886871,-0.030298084020614624,-0.03250448778271675,0.01928381621837616,-0.09273714572191238,-0.0034407160710543394,-0.03257790580391884,0.03706575185060501,-0.03486974164843559,0.0003757890372071415,-0.056886304169893265,-0.023189984261989594,-0.036084793508052826,0.14349064230918884,-0.03269342705607414,0.09662621468305588,0.08271995186805725,0.08699022233486176,-0.043824125081300735,-0.0443400964140892,-0.12900219857692719,-0.17976178228855133,-0.22046218812465668,-0.0640183761715889,0.036679621785879135,0.08806189894676208,-0.03256170451641083,-0.03154570609331131,0.11041700839996338,-0.0030402697157114744,-0.00952511839568615,-0.2644159197807312,0.049910541623830795,-0.025853890925645828,-0.1155228391289711,-0.17846570909023285,-0.01212016399949789,-0.03486743941903114,0.044407282024621964,-0.09545177966356277,-0.07404083013534546,-0.12006517499685287,-0.00199221633374691,0.0021056581754237413,-0.01659316197037697,0.014688707888126373,0.008100941777229309,-0.04092000052332878,-0.08082982897758484,-0.12994351983070374,-0.0565040186047554,-0.04057410731911659,-0.10535215586423874,-0.0516330786049366,-0.13383206725120544,-0.08797582983970642,-0.04981460049748421,-0.034285951405763626,-0.10459954291582108,0.0020752507261931896,-0.14088189601898193,0.24562691152095795,-0.06954670697450638,0.07168050110340118,0.00896462146192789,0.034579891711473465,-0.07147862017154694,0.0017858027713373303,-0.04178614914417267,-0.09815805405378342,0.003228008048608899,0.011559832841157913,0.03687306120991707,-0.1893947571516037,0.051627419888973236,-0.04065766558051109,-0.056469857692718506,-0.015377615578472614,0.019076887518167496,-0.3088216185569763,-0.048892173916101456,-0.03003416769206524,-0.06166751682758331,-0.024497995153069496,-0.18922948837280273,-0.28969573974609375,-0.03811558708548546,-0.06708896160125732,-0.14782863855361938,-0.10475163161754608,-0.2126675546169281,-0.059125930070877075,0.029435710981488228,0.013418289832770824,0.0004195749934297055,-0.0011237681610509753,0.017547927796840668,0.033298905938863754,-0.06202187016606331,0.05568794906139374,0.06981232017278671,0.014514039270579815,0.08630798757076263,0.19389334321022034,0.023386547341942787,0.07827106863260269,0.14648288488388062,0.08515176177024841,0.15480555593967438,-0.2461250275373459,-0.07974854111671448,-0.044295016676187515,-0.009174483828246593,-0.031219378113746643,-0.05813540890812874,0.04440214857459068,-0.09917550534009933,-0.2621736526489258,-0.23903332650661469,-0.22749421000480652,-0.13381405174732208,-0.08139435201883316,-0.04903461039066315,0.018124621361494064,-0.013873261399567127,-0.02150835283100605,-0.040871694684028625,0.1008061021566391,0.029999451711773872,-0.0639834776520729,0.053569018840789795,0.12470289319753647,0.11856834590435028,0.07370148599147797,0.08324409276247025,0.0005099145928397775,0.035398323088884354,0.02670091763138771,0.14152829349040985,0.13247403502464294,-0.10192670673131943,-0.10326521098613739,-0.09091474115848541,-0.006520464550703764,-0.0709216296672821,0.12834680080413818,-0.07029661536216736,-0.08101575821638107,-0.09427118301391602,0.05871513485908508,-0.07035605609416962,0.08408858627080917,0.0047711776569485664,0.013776157051324844,0.003598014125600457,0.04496869444847107,-0.005640414543449879,0.04490935802459717,0.03425076976418495,-0.008182775229215622,0.0916939452290535,0.20326966047286987,0.06471332162618637,0.008332929573953152,0.07226765900850296,0.00962152611464262,-0.06730428338050842,-0.16088350117206573,-0.12531042098999023,-0.11012277007102966,0.1636454164981842,0.1264461874961853,0.10971008986234665,0.01974310353398323,0.06978090107440948,-0.09319125860929489,0.025601185858249664,0.008456582203507423,0.03500230610370636,-0.03131900355219841,-0.014794940128922462,0.18881909549236298,0.1038481816649437,0.008224190212786198,-0.010124174878001213,-0.07229456305503845,-0.13960206508636475,0.14890789985656738,0.03515245020389557,-0.005488584283739328,-0.008078194223344326,0.08620725572109222,0.10373149067163467,0.197866290807724,-0.01567762717604637,-0.07554434984922409,-0.07779399305582047,-0.11160384118556976,0.012140111066401005,0.1821485012769699,-0.20231924951076508,-0.017835192382335663,-0.04823720082640648,-0.11861355602741241,-0.10848666727542877,0.13920266926288605,0.04035466909408569,0.017178503796458244,-0.01747344247996807,0.023913610726594925,-0.024105066433548927,-0.15339671075344086,0.1030173972249031,-0.05478467047214508,-0.03784697875380516,-0.12816546857357025,-0.11963792890310287,-0.22092658281326294,0.06814482063055038,-0.04685201123356819,-0.1309770792722702,-0.09256821870803833,-0.011807617731392384,-0.2775307893753052,-0.1972109079360962,-0.1410478949546814,-0.2510659098625183,-0.11701324582099915,-0.09999843686819077,-0.012568216770887375,-0.10585038363933563,-0.1516067087650299,-0.2910464406013489,-0.17203389108181,-0.20289698243141174,-0.11769478768110275,0.07590276747941971,0.09781263023614883,0.06842299550771713,-0.022960267961025238,-0.07804902642965317,-0.1593300849199295,0.10483618080615997,0.1297132819890976,0.05621873214840889,0.08144466578960419,-0.09774769097566605,-0.20688094198703766,0.02555590681731701,0.0037782802246510983,-0.07389646023511887,0.047318264842033386,-0.05921487882733345,-0.054974302649497986,0.13423092663288116,0.20768757164478302,0.2358904629945755,0.09494811296463013,0.08164843916893005,0.03346147760748863,0.08733949065208435,0.06500676274299622,-0.07537619024515152,0.05426071956753731,0.05172838643193245,0.0029572611674666405,-0.053932465612888336,-0.05040436610579491,0.017055390402674675,0.005564913619309664,0.02970143035054207,-0.022225327789783478,0.0632559135556221,0.07386273890733719,0.004648691508919001,-0.03611903265118599,-0.0759088322520256,-0.11140614002943039,0.07453955709934235,0.013828983530402184,-0.03877681866288185,0.06121523678302765,-0.009664809331297874,-0.016868216916918755,0.0009239731007255614,0.11399334669113159,-0.05540987476706505,0.19466224312782288,0.0800725519657135,-0.10098981857299805,0.1433449238538742,-0.03522277623414993,-0.010095501318573952,-0.019602149724960327,-0.09612967073917389,-0.4507116973400116,0.2252090871334076,0.07017724215984344,-0.24498924612998962,-0.0496307909488678,-0.14195840060710907,-0.024189691990613937,0.12456116825342178,0.2868290841579437,-0.17912882566452026,0.17873147130012512,-0.38100871443748474,0.13468967378139496,-0.10290698707103729,-0.007511001545935869,-0.08736556768417358,-0.2755023241043091,0.2211911827325821,-0.1693717986345291,-0.01911812648177147,0.0884537622332573,-0.2940283715724945,-0.03967995569109917,-0.04724337160587311,-0.02366139180958271,0.008655116893351078,0.008319581858813763,-0.036026012152433395,-0.02594398893415928,0.03766380995512009,-0.019695725291967392,0.12931852042675018,-0.11964692175388336,0.18259432911872864,0.3317030370235443,0.18193897604942322,0.4502853453159332,0.12883973121643066,0.13016118109226227,-0.23408159613609314,0.26327940821647644,-0.4421532452106476,0.05379524081945419,0.34875109791755676,-0.05734475329518318,0.1491962969303131,-0.08958133310079575,0.17130108177661896,0.21235886216163635,-0.1487574577331543,0.005298630800098181,0.3785199522972107,0.10849155485630035,-0.028227468952536583,0.07593786716461182,-0.15452508628368378,0.16905882954597473,0.0025014181155711412,-0.24201127886772156,-0.0299213957041502,-0.0674457922577858,0.021081041544675827,-0.3066703677177429,-0.13984942436218262,-0.24227577447891235,-0.05204997956752777,-0.15525497496128082,0.16045568883419037,-0.10063384473323822,-0.20269788801670074,-0.0905815064907074,0.026562828570604324,0.21821559965610504,0.19803893566131592,-0.11594521254301071,-0.2830601632595062,-0.16719292104244232,-0.1268237978219986,-0.012085897848010063,0.0424886979162693,0.0030446466989815235,-0.11536788940429688,0.09904725849628448,-0.030954433605074883,0.005525622051209211,0.02414003759622574,0.012666527181863785,-0.05118943378329277,0.22255927324295044,-0.02581441029906273,-0.07916845381259918,-0.12337343394756317,-0.07359883934259415,-0.11787961423397064,0.21786832809448242,0.07402827590703964,-0.05362555757164955,-0.006930771749466658,0.08374830335378647,0.0831579715013504,0.21626965701580048,0.057141028344631195,0.024673013016581535,0.04492882639169693,0.01948014833033085,0.14088867604732513,-0.13356412947177887,0.08560063689947128,0.06368662416934967,0.002069693524390459,0.020158642902970314,0.07447950541973114,-0.2915456295013428,0.001323256059549749,-0.01833495683968067,-0.004836938343942165,-0.10098060220479965,-0.14684677124023438,-0.085853710770607,-0.170371875166893,-0.11255253851413727,-0.10444571077823639,-0.11158455163240433,-0.19703815877437592,-0.2079625427722931,0.11493022739887238,0.11628865450620651,-0.011908797547221184,0.04592878744006157,-0.02960471622645855,-0.014378968626260757,0.04779554530978203,0.1361090987920761,0.06621325016021729,-0.03556963801383972,-0.054961077868938446,-0.38564103841781616,-0.01035060454159975,0.04803232476115227,0.06506913900375366,-0.07954723387956619,-0.0654347687959671,0.1258562058210373,-0.04197987914085388,-0.023742375895380974,-0.11592815071344376,0.021691592410206795,-0.05241302028298378,-0.012759380973875523,-0.1543128341436386,-0.14400355517864227,0.0674218162894249,-0.037794508039951324,0.11338844895362854,-0.1285053789615631,-0.043210189789533615,-0.09761840105056763,-0.054268497973680496,-0.001204314990900457,-0.06856195628643036,-0.03435511514544487,-0.06057748943567276,-0.011604102328419685,-0.035918232053518295,-0.036637574434280396,-0.04143558070063591,-0.22592200338840485,0.0408686026930809,-0.056810133159160614,-0.04185356944799423,0.05757255479693413,-0.15961366891860962,-0.14289645850658417,0.17731408774852753,0.1923893839120865,0.05371538922190666,0.16266344487667084,0.11118975281715393,0.046263329684734344,0.018511036410927773,0.22590401768684387,0.16435059905052185,0.13622638583183289,0.09794800728559494,-0.0712352842092514,-0.1284027099609375,0.014905666001141071,-0.013875388540327549,-0.06318174302577972,-0.09925757348537445,0.021990817040205002,-0.2465650886297226,0.09687554091215134,0.12686116993427277,0.010951338335871696,0.11821542680263519,-0.2246808111667633,4.260654532117769e-05,-0.013706464320421219,0.03816148638725281,0.04759981483221054,0.029435530304908752,0.3045823276042938,-0.16756455600261688,-0.13023258745670319,-0.006696727592498064,-0.1215888261795044,-0.051516298204660416,-0.051004618406295776,-0.04747486487030983,0.14214394986629486,0.053997062146663666,0.2219078242778778,-0.04683377593755722,0.024013005197048187,-0.06357927620410919,-0.04287581518292427,-0.11944885551929474,-0.1391659379005432,-0.048848461359739304,-0.03380674868822098,-0.07242931425571442,0.03985566273331642,0.16916993260383606,0.03847500681877136,-0.05531987547874451,-0.1220952495932579,-0.0011480088578537107,0.16669467091560364,0.04169593006372452,-0.04991980269551277,-0.11911725252866745,-0.022258581593632698,0.020012561231851578,0.14254705607891083,-0.015063578262925148,-0.14885938167572021,-0.1342359334230423,-0.04325632378458977,0.01007065363228321,0.23692254722118378,-0.03490544855594635,-0.08596862852573395,-0.05168715491890907,0.03567614033818245,-0.10865642130374908,-0.15980331599712372,-0.15060412883758545,0.10172336548566818,0.048058826476335526,0.14936360716819763,0.11087115854024887,-0.05833845213055611,-0.20618776977062225,0.07336273044347763,0.05177588388323784,0.04985518380999565,0.008712938986718655,0.08147531747817993,-0.0037728820461779833,0.036624807864427567,0.0816488116979599,0.039191778749227524,-0.07456760108470917,-0.029105117544531822,-0.04039643332362175,0.024525806307792664,-0.10843489319086075,0.03342049568891525,-0.024398092180490494,-0.09114925563335419,-0.03299402818083763,0.0007653115899302065,0.07638398557901382,-0.005025750026106834,0.011370557360351086,-0.05512700229883194,0.05109667405486107,0.028604265302419662,0.026316452771425247,0.3011983036994934,-0.0372750498354435,0.015712782740592957,0.030841577798128128,0.02557254023849964,0.022416038438677788,-0.12941788136959076,-0.04525535926222801,-0.02988484315574169,-0.047479864209890366,-0.02467387355864048,-0.10542120784521103,0.10131778568029404,0.09709282219409943,0.0750177651643753,0.001375822932459414,-0.03703586384654045,-0.060051411390304565,0.020104292780160904,0.04836062714457512,0.06730056554079056,0.06229405477643013,0.044840794056653976,-0.031341906636953354,0.024196498095989227,-0.034472446888685226,0.010589910671114922,-0.014858700335025787,0.05275847017765045,0.2265656292438507,0.04426081106066704,-0.015605558641254902,-0.010826659388840199,-0.04412531852722168,-0.0500076562166214,0.009448228403925896,0.015579805709421635,-0.04068508744239807,-0.13404810428619385,-0.03451455757021904,0.025086311623454094,-0.0521085225045681,-0.007903273217380047,0.009620409458875656,-0.004749596118927002,0.04907968267798424,0.030100354924798012,-0.04743124917149544,-0.12249506264925003,0.05282336473464966,0.09048347920179367,0.06049896776676178,-0.01936376839876175,-0.01928195171058178,0.09487006068229675,0.07253257930278778,0.12229608744382858,0.0472804494202137,0.06569548696279526,-0.029213624075055122,-0.11708186566829681,-0.09951334446668625,-0.03237137570977211,0.033483389765024185,-0.004689459223300219,0.08179410547018051,0.05412741377949715,0.11793164163827896,0.1474509984254837,0.08150480687618256,0.08792810142040253,0.03386291116476059,0.2889363467693329,0.0897253155708313,0.06076665595173836,0.050534967333078384,0.0557347871363163,0.05247008800506592,0.019542966037988663,0.0021654432639479637,0.03314704820513725,0.020649267360568047,0.08862777054309845,0.02246793732047081,-0.017618127167224884,-0.0019349708454683423,-0.04650769755244255,-0.04638674110174179,-0.03588341921567917,-0.014344939962029457,0.006441349163651466,-0.07292978465557098,-0.038777634501457214,-0.05719241127371788,-0.04836567863821983,-0.012590043246746063,0.33436664938926697,-0.10173310339450836,-0.1375718116760254,-0.11285635083913803,-0.10622355341911316,-0.033441077917814255,-0.13311617076396942,0.11334172636270523,0.11806963384151459,-3.2876181649044156e-05,-0.026014260947704315,-0.13658468425273895,0.1270712912082672,-0.031581178307533264,0.023319149389863014,0.06956834346055984,0.050029851496219635,0.11030083894729614,-0.2710151672363281,0.12664097547531128,0.12534062564373016,0.13535912334918976,0.051846057176589966,-0.02916422113776207,-0.10183103382587433,0.03263821080327034,-0.07899101823568344,-0.09045626223087311,-0.09702479839324951,0.013972897082567215,-0.03052319586277008,0.024966146796941757,-0.15529531240463257,0.07621128112077713,-0.06516539305448532,-0.02410965971648693,-0.022217614576220512,-0.07049959897994995,0.006209264043718576,0.00023260129091795534,-0.003929147031158209,-0.08627987653017044,-0.019954128190875053,0.1022341176867485,-0.030999282374978065,-0.09887708723545074,-0.13073226809501648,-0.1528732031583786,-0.14834405481815338,0.09289473295211792,-0.0037052645348012447,-0.0464065782725811,-0.06128895655274391,-0.1378965675830841,0.01607724092900753,0.024139627814292908,0.10532612353563309,0.17135381698608398,0.05563623458147049,0.0897197499871254,-0.04251321777701378,-0.005187582690268755,-0.006828504614531994,-0.0687103345990181,0.025972269475460052,0.08354467153549194,-0.33876150846481323,0.05893551558256149,-0.04676644876599312,-0.03901192173361778,-0.0743594691157341,0.08312101662158966,-0.21367326378822327,-0.03771134465932846,-0.17952175438404083,-0.04476730152964592,-0.041896503418684006,-0.1074172854423523,-0.09515736252069473,-0.10424069315195084,-0.014762007631361485,-0.11745807528495789,-0.14696015417575836,-0.09346616268157959,-0.16201820969581604,0.13299660384655,0.034548014402389526,0.11759529262781143,0.007676788605749607,0.09904934465885162,-0.4626612663269043,-0.007600911892950535,0.1437859982252121,-0.2806253731250763,-0.08321208506822586,0.09641772508621216,-0.014155060984194279,0.21965375542640686,-0.01419073436409235,0.03851276636123657,-0.23882539570331573,0.10484448820352554,0.0010262171272188425,0.034982725977897644,0.05563999339938164,0.002985915634781122,-0.20316186547279358,-0.06618328392505646,0.14710891246795654,-0.31012552976608276,-0.16013656556606293,0.16537488996982574,0.1696586012840271,0.16202548146247864,0.25607046484947205,0.08309302479028702,0.1303039789199829,-0.40275850892066956,0.19738617539405823,0.22445173561573029,-0.012704003602266312,0.013235009275376797,-0.20517230033874512,-0.24098682403564453,-0.2072780430316925,-0.22836315631866455,0.16239775717258453,0.4076867997646332,0.02179316245019436,-0.17255859076976776,-0.08478845655918121,-0.1658482849597931,0.09182565659284592,0.12256088107824326,0.019131844863295555,0.014007305726408958,-0.3156066834926605,-0.25524431467056274,-0.18521085381507874,-0.1026812270283699,0.18627282977104187,0.140274778008461,0.2133825719356537,-0.14145635068416595,0.29677721858024597,0.01822127215564251,-0.2466401606798172,0.034974873065948486,0.38576796650886536,-0.0503758043050766,0.18506915867328644,-0.1257001906633377,-0.1430942565202713,0.11802222579717636,0.10699495673179626,0.031128818169236183,-0.003857307368889451,0.05271492525935173,-0.2625364661216736,-0.12240952998399734,0.15769383311271667,0.19160039722919464,0.32966744899749756,0.08491398394107819,0.2530307471752167,-0.15788958966732025,0.0347096249461174,0.20691871643066406,-0.25482112169265747,-0.22983694076538086,-0.10317351669073105,-0.15655961632728577,-0.04525364562869072,0.1323920488357544,-0.00827726349234581,-0.054822999984025955,-0.034975115209817886,0.03609218820929527,0.06663331389427185,-0.0025006907526403666,-0.0575808510184288,-0.04765747860074043,-0.04818553477525711,-0.011420760303735733,0.017480678856372833,-0.17170339822769165,-0.02723677083849907,0.00397581746801734,0.021742021664977074,0.047674648463726044,0.17944973707199097,-0.21078674495220184,-0.05582316964864731,-0.16638655960559845,-0.11909069120883942,-0.09560637921094894,0.04315977916121483,0.0012118518352508545,-0.04524781182408333,-0.14334051311016083,-0.15485063195228577,-0.20207937061786652,0.043761368840932846,0.19488663971424103,0.1532605141401291,0.20631884038448334,0.11420086026191711,-0.04698161408305168,-0.3317665159702301,-0.058131176978349686,-0.10853572934865952,-0.004365163389593363,-0.01301543228328228,-0.05982919782400131,-0.10839949548244476,0.03873516619205475,0.15429244935512543,0.04655468091368675,0.027165357023477554,0.029203135520219803,-0.24795840680599213,-0.01916816085577011,0.05962449312210083,0.14672419428825378,0.02273876778781414,-0.07873992621898651,0.0022615226916968822,-0.08942271769046783,-0.056843750178813934,-0.007154133636504412,-0.01763552986085415,-0.12515322864055634,-0.12693485617637634,-0.048932503908872604,-0.132249116897583,-0.11442891508340836,-0.009902538731694221,-0.05659307539463043,0.055522747337818146,0.08385374397039413,0.022436974570155144,0.0706087127327919,0.003484973218291998,-0.018531112000346184,0.21854858100414276,-0.05261247977614403,-0.06143275275826454,0.036152780055999756,-0.06488417088985443,0.12000346183776855,0.02899174951016903,0.09212592244148254,0.15400423109531403,-0.08229757100343704,-0.0034664105623960495,0.03970558941364288,0.12048987299203873,0.030036021023988724,-0.014880310744047165,-0.04231208190321922,0.06070594862103462,-0.07095536589622498,-0.03362385556101799,0.1207878440618515,0.04449149966239929,0.08796461671590805,-0.028664246201515198,0.05457775294780731,-0.10229649394750595,0.05511656031012535,0.05736200883984566,0.04685375466942787,-0.005658654496073723,0.01826327107846737,0.12806978821754456,0.0126733323559165,-0.05298665165901184,-0.06999252736568451,-0.22751328349113464,-0.10782194137573242,0.21993030607700348,-0.0754939466714859,-0.12864631414413452,-0.31350746750831604,-0.264935165643692,-0.22115133702754974,-0.031111866235733032,-0.017052821815013885,-0.1376849263906479,-0.06955170631408691,-0.18220123648643494,-0.11006850749254227,-0.17162105441093445,-0.005495915189385414,0.14471982419490814,0.2561952769756317,0.1932312250137329,0.31299376487731934,-0.0746360719203949,-0.00986244436353445,0.016873488202691078,0.2677927017211914,0.12916553020477295,0.15604721009731293,-0.23104234039783478,-0.12773290276527405,-0.059668295085430145,-0.02766215242445469,-0.10179035365581512,-0.0297184307128191,-0.15009675920009613,-0.017935005947947502,0.007283227983862162,0.011599020101130009,0.01721283793449402,0.031141197308897972,0.04226931557059288,-0.15322187542915344,0.055000241845846176,-0.02389097400009632,0.11362292617559433,-0.009283904917538166,-0.13191814720630646,0.022453581914305687,-0.03712849318981171,0.124237559735775,0.1066332682967186,0.07334486395120621,-0.34026452898979187,0.16919253766536713,-0.04311203584074974,0.0831766426563263,0.03382314369082451,0.12485869228839874,-0.25454291701316833,0.05997965484857559,-0.033276960253715515,0.0592598058283329,0.017084501683712006,0.1290937215089798,-0.16113601624965668,0.03628059849143028,0.08428163081407547,-0.10047607123851776,-0.10567404329776764,-0.1594603806734085,0.058824922889471054,-0.17596979439258575,-0.17127886414527893,-0.1219479888677597,-0.1410132199525833,-0.22821317613124847,0.08600494265556335,-0.02997114323079586,-0.009038995020091534,-0.15879468619823456,-0.03836904838681221,-0.14141851663589478,-0.28970181941986084,-0.12543568015098572,-0.06321912258863449,-0.18651509284973145,-0.10365625470876694,-0.1716734766960144,-0.21470613777637482,0.059164367616176605,-0.10522931814193726,-0.07832762598991394,-0.07336488366127014,-0.00816440675407648,0.06326380372047424,-0.06089780107140541,0.07328548282384872,0.008976314216852188,-0.024604428559541702,0.043947894126176834,-0.03230605646967888,0.0031484155915677547,0.224084734916687,0.11002270877361298,0.08093798160552979,0.0673610121011734,-0.14512042701244354,-0.1159290000796318,0.11132876574993134,-0.09976757317781448,0.07991017401218414,0.04240870848298073,0.2715339958667755,-0.16075961291790009,-0.1529456377029419,0.02921852096915245,0.0092391362413764,-0.05488187074661255,0.033102549612522125,0.09978105127811432,-0.12800322473049164,-0.15290693938732147,-0.13813510537147522,-0.08483617752790451,0.1566038727760315,0.015066886320710182,-0.06348030269145966,0.02341259829699993,-0.07594068348407745,0.05736430734395981,-0.05797101929783821,0.07947078347206116,-0.005525958724319935,-0.09045187383890152,-0.046925146132707596,-0.04968231916427612,-0.1389823704957962,-0.09922624379396439,-0.012628380209207535,-0.03785313293337822,-0.042407479137182236,-0.08903707563877106,0.029540136456489563,0.07826109230518341,-0.09485044330358505,-0.0501137413084507,0.050479188561439514,-0.057927846908569336,-0.021250544115900993,0.15430966019630432,0.044546667486429214,0.05817698314785957,0.015062388963997364,-0.006764811929315329,-0.03266022726893425,0.19716951251029968,0.05323765054345131,0.10539047420024872,0.017763737589120865,-0.09227146208286285,-0.0976116806268692,-0.19391289353370667,-0.10292588174343109,-0.03510643169283867,-0.13195818662643433,0.04053223133087158,-0.0693826973438263,-0.020471032708883286,0.0035079624503850937,-0.03296862915158272,0.12064048647880554,0.2167024463415146,0.09450933337211609,0.0031035153660923243,0.04511390998959541,-0.09374277293682098,-0.035577788949012756,0.06386886537075043,0.10795486718416214,-0.007507007103413343,0.04546882212162018,0.01204629149287939,-0.050573065876960754,0.024112960323691368,0.06591222435235977,-0.00509746465831995,0.019682837650179863,-0.021185915917158127,0.035382967442274094,-0.08594590425491333,-0.02651810273528099,0.002633830299600959,0.03984446823596954,0.0370136983692646,0.1036497950553894,0.03532121330499649,-0.0484103299677372,0.036717940121889114,0.10732807964086533,0.24857375025749207,0.17575949430465698,0.25897863507270813,-0.01437727827578783,0.057990677654743195,-0.05177035927772522,-0.14250442385673523,0.10183855891227722,0.014698876067996025,0.053643763065338135,-0.07079200446605682,-0.08920101076364517,-0.2527795433998108,-0.2747001051902771,-0.3286089599132538,0.2629181444644928,-0.037238556891679764,-0.08072280138731003,-0.11122748255729675,-0.06094253808259964,-0.078059121966362,0.07619833946228027,0.042341649532318115,0.06318730115890503,0.03337171673774719,0.072733074426651,0.09316876530647278,0.02619307115674019,0.013950178399682045,-0.016573132947087288,-0.0685473382472992,-0.019813114777207375,-0.07706811279058456,0.12032540887594223,-0.08001796156167984,0.06057185307145119,0.0706561952829361,-0.0656701996922493,-0.027209535241127014,-0.16018541157245636,0.14515452086925507,0.0938892588019371,-0.049391649663448334,-0.09034175425767899,-0.06239167973399162,0.030184896662831306,0.2417202889919281,0.026512853801250458,-0.01806890219449997,-0.03328153118491173,-0.07689999788999557,0.014876618050038815,0.14798003435134888,-0.03701648488640785,0.010331656783819199,0.09235166758298874,-0.06128373369574547,-0.08963581174612045,0.022166304290294647,-0.007567934691905975,0.22946307063102722,-0.06547471135854721,0.30964455008506775,0.0516485869884491,-0.3038538694381714,-0.10047736763954163,-0.13872864842414856,-0.09948837757110596,0.05576985701918602,0.05088832601904869,-0.07600965350866318,0.004848198965191841,-0.013718051835894585,-0.1676332950592041,0.017601391300559044,0.00026614166563376784,-0.13580574095249176,-0.05573821812868118,-0.03536292165517807,-0.1415225714445114,0.03263857588171959,0.11348424851894379,-0.0017025964334607124,